~o
<STREAMINFO> 1 25
<VECSIZE> 25<NULLD><MFCC_E_D_N><DIAGC>
~h "jmodel"
<BEGINHMM>
<NUMSTATES> 3
<STATE> 2
<NUMMIXES> 128
<MIXTURE> 1 5.748963e-03
<MEAN> 25
 -2.555679e+00 3.182007e+00 2.332869e+00 8.718285e+00 4.356149e+00 3.439842e+00 4.068503e+00 3.930866e+00 5.798580e+00 5.218571e+00 5.816547e+00 3.080288e+00 -2.000231e+00 -1.625983e+00 -8.544624e-01 1.072053e+00 1.550376e+00 2.216859e+00 2.148144e+00 2.087061e+00 1.701423e+00 1.243593e+00 1.542590e+00 6.166911e-01 -4.694622e-02
<VARIANCE> 25
 1.011222e+01 1.168173e+01 1.494905e+01 1.881690e+01 2.309395e+01 2.204033e+01 2.175844e+01 2.184864e+01 2.112576e+01 2.257283e+01 2.148670e+01 1.698891e+01 1.782853e+00 2.123295e+00 3.031288e+00 3.193285e+00 3.730207e+00 3.371323e+00 3.317940e+00 3.362729e+00 3.516272e+00 3.798212e+00 3.583678e+00 2.819976e+00 3.105669e-03
<GCONST> 8.849753e+01
<MIXTURE> 2 4.549242e-03
<MEAN> 25
 -4.875671e+00 1.311720e+00 9.943511e-01 9.899809e+00 6.692275e+00 7.424650e+00 7.847087e+00 6.958091e+00 8.373269e+00 6.373019e+00 7.624402e+00 3.074697e+00 -6.200235e-02 4.161923e-02 1.425301e-01 2.258583e-01 2.652900e-01 2.813653e-01 2.954302e-01 3.195550e-01 3.497573e-01 3.089160e-01 1.971766e-01 8.006547e-02 1.228299e-06
<VARIANCE> 25
 6.952293e+00 8.901894e+00 1.065126e+01 1.591096e+01 1.723581e+01 1.556308e+01 1.689898e+01 1.848562e+01 1.658668e+01 1.738619e+01 1.811029e+01 1.434002e+01 1.252503e-01 2.266278e-01 3.364712e-01 4.671271e-01 6.492781e-01 8.148874e-01 9.298787e-01 1.003176e+00 1.051662e+00 1.077774e+00 1.075658e+00 1.013934e+00 1.000000e-06
<GCONST> 5.804302e+01
<MIXTURE> 3 4.549242e-03
<MEAN> 25
 -4.875671e+00 1.311720e+00 9.943511e-01 9.899809e+00 6.692275e+00 7.424650e+00 7.847087e+00 6.958091e+00 8.373269e+00 6.373019e+00 7.624402e+00 3.074697e+00 -6.200235e-02 4.161923e-02 1.425301e-01 2.258583e-01 2.652900e-01 2.813653e-01 2.954302e-01 3.195550e-01 3.497573e-01 3.089160e-01 1.971766e-01 8.006547e-02 1.228299e-06
<VARIANCE> 25
 6.952293e+00 8.901894e+00 1.065126e+01 1.591096e+01 1.723581e+01 1.556308e+01 1.689898e+01 1.848562e+01 1.658668e+01 1.738619e+01 1.811029e+01 1.434002e+01 1.252503e-01 2.266278e-01 3.364712e-01 4.671271e-01 6.492781e-01 8.148874e-01 9.298787e-01 1.003176e+00 1.051662e+00 1.077774e+00 1.075658e+00 1.013934e+00 1.000000e-06
<GCONST> 5.804302e+01
<MIXTURE> 4 1.671429e-02
<MEAN> 25
 3.211071e+00 2.654146e+00 -3.455414e+00 7.132835e-01 3.780615e+00 1.637788e-01 2.700946e-01 -4.581204e-01 1.822905e+00 1.319414e+00 -2.435640e+00 9.093878e-01 -2.657732e+00 1.331754e+00 1.640833e+00 2.862467e+00 4.883822e-01 4.012870e-01 1.735355e+00 1.233484e+00 1.187640e+00 -1.895591e-01 2.502479e-01 1.135357e+00 -9.999746e-02
<VARIANCE> 25
 1.762419e+01 2.398560e+01 2.743103e+01 3.218863e+01 3.660299e+01 5.572792e+01 5.734259e+01 4.898987e+01 4.449444e+01 5.237640e+01 4.235619e+01 3.040473e+01 1.918115e+00 4.142763e+00 3.006736e+00 4.040173e+00 4.776082e+00 4.965587e+00 4.916974e+00 4.616982e+00 4.766002e+00 6.068635e+00 7.572655e+00 3.952785e+00 4.859615e-03
<GCONST> 1.015480e+02
<MIXTURE> 5 3.206198e-03
<MEAN> 25
 -3.417195e+00 2.181218e+00 6.105226e-01 9.428533e+00 6.697002e+00 6.316045e+00 7.112463e+00 4.723426e+00 5.495997e+00 3.847826e+00 4.658280e+00 2.606575e+00 -3.246227e-01 7.528801e-01 1.224834e+00 1.032662e+00 3.076294e-01 -1.001996e-01 -8.383070e-02 3.354596e-02 4.580079e-01 6.837045e-01 4.038803e-01 8.806442e-02 -2.772071e-05
<VARIANCE> 25
 1.025047e+01 1.394275e+01 2.348603e+01 2.561913e+01 2.022098e+01 1.942469e+01 2.011304e+01 2.035881e+01 2.141865e+01 2.128622e+01 2.410184e+01 1.635977e+01 1.210079e+00 1.244358e+00 1.357095e+00 1.673474e+00 2.284817e+00 2.376297e+00 2.301542e+00 2.275289e+00 2.315504e+00 2.238210e+00 2.085531e+00 1.873921e+00 9.999720e-07
<GCONST> 7.516644e+01
<MIXTURE> 6 5.475854e-03
<MEAN> 25
 9.573396e+00 -6.164794e-01 -6.629451e+00 -1.144818e+01 -2.162244e+00 6.885082e+00 -5.926361e+00 -5.394957e+00 -4.296180e+00 2.223517e+00 5.362812e+00 -1.242736e+00 5.292802e-01 8.423691e-01 -2.862293e-01 -1.356174e+00 -5.883471e-01 1.320555e+00 1.351262e+00 2.443186e-01 -1.113739e+00 -1.066811e+00 2.093591e-01 1.241980e+00 -8.305526e-03
<VARIANCE> 25
 8.458628e+00 1.618752e+01 2.255498e+01 3.793924e+01 3.476819e+01 2.860678e+01 4.082660e+01 3.536260e+01 4.184135e+01 3.827179e+01 4.473304e+01 2.729005e+01 3.404665e-01 8.818445e-01 9.148884e-01 2.144354e+00 1.654994e+00 1.974591e+00 2.339332e+00 1.963354e+00 2.398433e+00 2.087041e+00 2.289692e+00 1.442563e+00 6.639421e-04
<GCONST> 8.394894e+01
<MIXTURE> 7 5.475854e-03
<MEAN> 25
 9.573396e+00 -6.164794e-01 -6.629451e+00 -1.144818e+01 -2.162244e+00 6.885082e+00 -5.926361e+00 -5.394957e+00 -4.296180e+00 2.223517e+00 5.362812e+00 -1.242736e+00 5.292802e-01 8.423691e-01 -2.862293e-01 -1.356174e+00 -5.883471e-01 1.320555e+00 1.351262e+00 2.443186e-01 -1.113739e+00 -1.066811e+00 2.093591e-01 1.241980e+00 -8.305526e-03
<VARIANCE> 25
 8.458628e+00 1.618752e+01 2.255498e+01 3.793924e+01 3.476819e+01 2.860678e+01 4.082660e+01 3.536260e+01 4.184135e+01 3.827179e+01 4.473304e+01 2.729005e+01 3.404665e-01 8.818445e-01 9.148884e-01 2.144354e+00 1.654994e+00 1.974591e+00 2.339332e+00 1.963354e+00 2.398433e+00 2.087041e+00 2.289692e+00 1.442563e+00 6.639421e-04
<GCONST> 8.394894e+01
<MIXTURE> 8 1.165917e-02
<MEAN> 25
 -4.675601e+00 1.354900e+00 1.290451e+00 9.376384e+00 6.432317e+00 6.155030e+00 6.491222e+00 5.705192e+00 6.686889e+00 5.652664e+00 6.373480e+00 3.187717e+00 -6.456623e-01 -1.429023e+00 -1.126965e+00 -1.728766e+00 -2.422016e-01 -9.542585e-01 -1.684236e-01 -3.241774e-01 -2.539212e-01 -1.885434e-01 -1.464059e-01 8.026306e-02 9.804782e-02
<VARIANCE> 25
 9.359363e+00 9.701535e+00 1.147439e+01 1.768814e+01 1.752681e+01 1.601771e+01 1.783688e+01 1.728789e+01 1.681117e+01 1.723316e+01 2.082160e+01 1.384877e+01 2.723615e+00 2.770098e+00 4.019173e+00 3.702877e+00 3.407127e+00 3.264709e+00 3.080949e+00 3.099684e+00 2.828984e+00 2.625812e+00 2.657591e+00 1.871027e+00 6.607038e-03
<GCONST> 8.644656e+01
<MIXTURE> 9 1.199672e-02
<MEAN> 25
 8.405934e+00 2.646963e+00 -6.633297e+00 -1.088812e+01 -2.204780e+00 4.986698e+00 -2.232038e+00 -3.253090e+00 -5.775750e+00 -3.597395e-01 3.343013e+00 -8.639966e-01 1.535714e+00 -2.470127e-01 -5.986325e-01 -2.908054e+00 -1.502997e+00 1.061275e+00 -1.262063e+00 -1.984793e-02 -8.122591e-01 -2.563806e-02 1.328328e+00 -2.707890e-01 7.404565e-02
<VARIANCE> 25
 1.238891e+01 1.938228e+01 2.889622e+01 4.646712e+01 4.062517e+01 2.757977e+01 3.848186e+01 4.435767e+01 3.686123e+01 3.737366e+01 5.763945e+01 2.631483e+01 1.969789e+00 2.097334e+00 3.973066e+00 4.152720e+00 4.578459e+00 3.601853e+00 3.834379e+00 5.054935e+00 5.283530e+00 4.149486e+00 5.504944e+00 2.471493e+00 1.928782e-03
<GCONST> 9.708321e+01
<MIXTURE> 10 6.596976e-03
<MEAN> 25
 8.231855e-01 7.619566e+00 5.367125e+00 7.130112e+00 1.588671e+00 -2.102792e+00 -4.990423e-01 -1.671720e+00 8.705954e-01 8.602870e-01 8.209722e-01 6.688368e-01 -1.923075e+00 -6.668528e-01 -4.517847e-01 3.020732e+00 2.452658e+00 2.700378e+00 2.374408e+00 2.277261e+00 1.860859e+00 1.529848e+00 2.320768e+00 5.294935e-01 -1.378406e-01
<VARIANCE> 25
 1.946571e+01 2.066343e+01 2.225255e+01 2.905840e+01 3.816505e+01 3.488013e+01 3.509732e+01 3.377359e+01 2.756497e+01 2.896440e+01 2.694096e+01 2.495810e+01 2.230453e+00 3.425960e+00 5.526253e+00 5.162262e+00 5.559262e+00 4.476461e+00 4.684597e+00 4.829206e+00 4.375374e+00 5.058004e+00 4.496523e+00 3.184602e+00 2.709787e-03
<GCONST> 9.744625e+01
<MIXTURE> 11 1.633820e-02
<MEAN> 25
 6.072009e+00 3.018507e+00 3.783874e+00 3.876199e+00 -1.647031e+00 -1.132193e+00 -1.968854e+00 -4.912629e+00 -2.676760e+00 6.529862e-01 -3.029939e+00 -1.470347e+00 -2.469848e-01 5.968449e-01 1.486635e-01 5.442590e-01 3.346156e-01 -4.813226e-02 9.315760e-01 -1.404094e-01 1.187660e-01 -2.059920e-01 -1.445907e-01 2.868723e-01 -1.884801e-02
<VARIANCE> 25
 8.731304e+00 2.044393e+01 1.539287e+01 2.297283e+01 2.437612e+01 2.844981e+01 3.534867e+01 3.259865e+01 2.767045e+01 2.747418e+01 2.768167e+01 1.685555e+01 5.672740e-01 1.424932e+00 1.593933e+00 1.563710e+00 1.367826e+00 1.754526e+00 2.831607e+00 2.129688e+00 1.712692e+00 1.528587e+00 2.830670e+00 1.199272e+00 9.234474e-04
<GCONST> 8.194005e+01
<MIXTURE> 12 5.904134e-03
<MEAN> 25
 1.056524e+01 3.400107e+00 -4.746540e+00 -1.597541e+01 -8.719399e+00 8.503347e+00 -9.693726e-01 -1.959149e+00 -2.258800e+00 -4.527669e+00 2.451737e+00 2.500955e-01 6.926317e-02 2.390601e-01 9.939135e-02 -3.551063e-01 -4.023394e-01 7.310605e-03 3.369525e-01 5.138314e-01 1.367559e-01 -3.880365e-01 -4.462534e-01 4.880014e-02 -5.268445e-03
<VARIANCE> 25
 9.144457e+00 2.200805e+01 2.336539e+01 3.329380e+01 4.001170e+01 2.980971e+01 3.981927e+01 4.662563e+01 4.700414e+01 3.787786e+01 4.464128e+01 3.138214e+01 2.392743e-01 7.131849e-01 6.592664e-01 1.136098e+00 1.289715e+00 1.012200e+00 1.132517e+00 1.400284e+00 1.232939e+00 1.185560e+00 1.341154e+00 9.245142e-01 5.970001e-04
<GCONST> 7.908966e+01
<MIXTURE> 13 5.904134e-03
<MEAN> 25
 1.056524e+01 3.400107e+00 -4.746540e+00 -1.597541e+01 -8.719399e+00 8.503347e+00 -9.693726e-01 -1.959149e+00 -2.258800e+00 -4.527669e+00 2.451737e+00 2.500955e-01 6.926317e-02 2.390601e-01 9.939135e-02 -3.551063e-01 -4.023394e-01 7.310605e-03 3.369525e-01 5.138314e-01 1.367559e-01 -3.880365e-01 -4.462534e-01 4.880014e-02 -5.268445e-03
<VARIANCE> 25
 9.144457e+00 2.200805e+01 2.336539e+01 3.329380e+01 4.001170e+01 2.980971e+01 3.981927e+01 4.662563e+01 4.700414e+01 3.787786e+01 4.464128e+01 3.138214e+01 2.392743e-01 7.131849e-01 6.592664e-01 1.136098e+00 1.289715e+00 1.012200e+00 1.132517e+00 1.400284e+00 1.232939e+00 1.185560e+00 1.341154e+00 9.245142e-01 5.970001e-04
<GCONST> 7.908966e+01
<MIXTURE> 14 6.488954e-03
<MEAN> 25
 -4.250764e+00 -3.832221e-01 -3.492621e-01 8.769640e+00 7.497173e+00 7.407909e+00 7.761076e+00 7.215727e+00 7.294655e+00 5.248045e+00 6.769211e+00 4.128976e+00 -2.860083e-01 1.734498e-01 3.558415e-01 3.240385e-01 1.023385e-02 4.968374e-02 9.138823e-02 1.853559e-01 2.994191e-01 5.275967e-01 5.028418e-01 6.114801e-02 -9.513462e-03
<VARIANCE> 25
 9.595893e+00 1.366911e+01 1.855989e+01 1.893715e+01 2.074006e+01 1.961779e+01 2.169004e+01 2.132786e+01 1.997939e+01 2.400266e+01 2.243401e+01 1.595623e+01 9.621729e-01 1.653283e+00 1.770426e+00 1.921861e+00 2.213894e+00 2.275435e+00 2.235579e+00 2.223766e+00 2.268142e+00 2.486211e+00 2.208354e+00 1.800582e+00 1.028456e-03
<GCONST> 8.202391e+01
<MIXTURE> 15 2.475190e-03
<MEAN> 25
 -5.423770e+00 -6.446203e-01 -2.001407e-01 7.366970e+00 5.718483e+00 5.701230e+00 6.060227e+00 4.978572e+00 5.167065e+00 4.152038e+00 5.495403e+00 2.540033e+00 -1.213264e-01 -2.899792e-02 7.486340e-02 2.435516e-01 4.891275e-01 7.858579e-01 1.072178e+00 1.181923e+00 1.058882e+00 7.561993e-01 4.196522e-01 1.538821e-01 -8.608254e-05
<VARIANCE> 25
 6.981307e+00 5.604360e+00 9.031569e+00 1.281351e+01 1.407532e+01 1.429637e+01 1.491468e+01 1.489678e+01 1.410698e+01 1.419250e+01 1.520444e+01 1.250944e+01 1.247245e-01 2.061658e-01 3.196870e-01 5.028975e-01 6.994558e-01 7.943449e-01 7.630157e-01 7.914327e-01 9.094504e-01 1.023641e+00 1.070997e+00 1.041512e+00 2.797013e-05
<GCONST> 5.859306e+01
<MIXTURE> 16 2.475190e-03
<MEAN> 25
 -5.423770e+00 -6.446203e-01 -2.001407e-01 7.366970e+00 5.718483e+00 5.701230e+00 6.060227e+00 4.978572e+00 5.167065e+00 4.152038e+00 5.495403e+00 2.540033e+00 -1.213264e-01 -2.899792e-02 7.486340e-02 2.435516e-01 4.891275e-01 7.858579e-01 1.072178e+00 1.181923e+00 1.058882e+00 7.561993e-01 4.196522e-01 1.538821e-01 -8.608254e-05
<VARIANCE> 25
 6.981307e+00 5.604360e+00 9.031569e+00 1.281351e+01 1.407532e+01 1.429637e+01 1.491468e+01 1.489678e+01 1.410698e+01 1.419250e+01 1.520444e+01 1.250944e+01 1.247245e-01 2.061658e-01 3.196870e-01 5.028975e-01 6.994558e-01 7.943449e-01 7.630157e-01 7.914327e-01 9.094504e-01 1.023641e+00 1.070997e+00 1.041512e+00 2.797013e-05
<GCONST> 5.859306e+01
<MIXTURE> 17 9.518312e-03
<MEAN> 25
 3.925765e+00 -1.205612e+00 6.359021e+00 2.888599e+00 -5.362153e+00 -6.188149e+00 -2.513817e+00 3.703054e-01 -2.958649e+00 -3.137007e+00 -2.256769e-01 -2.502982e-01 -6.841163e-01 -1.109123e+00 1.203875e+00 -2.064198e+00 -2.258120e+00 8.091721e-02 -5.879695e-02 7.892179e-01 -4.997952e-01 3.690848e-02 1.035731e+00 3.067096e-01 7.519788e-02
<VARIANCE> 25
 1.428939e+01 2.858530e+01 2.588271e+01 3.511069e+01 4.041006e+01 4.256723e+01 3.919679e+01 3.157554e+01 3.153830e+01 2.308772e+01 2.593928e+01 2.547888e+01 1.673703e+00 2.423212e+00 3.582019e+00 2.779695e+00 3.582963e+00 5.254288e+00 4.540232e+00 4.046974e+00 3.779301e+00 3.744437e+00 2.629066e+00 2.404653e+00 2.045305e-03
<GCONST> 9.427288e+01
<MIXTURE> 18 1.221018e-02
<MEAN> 25
 3.978590e+00 4.154988e+00 6.688196e+00 4.674267e+00 -4.497161e+00 -8.052242e+00 -1.713494e+00 -1.097404e+00 -3.530073e+00 -2.473226e+00 -4.683544e-01 4.827884e-01 -7.149272e-01 2.089098e+00 -2.129804e-01 1.899334e+00 3.042678e+00 1.497016e+00 8.149892e-01 -2.624364e-01 7.495162e-01 5.885326e-01 -5.783181e-01 -6.404921e-02 -1.197822e-01
<VARIANCE> 25
 1.512426e+01 2.705233e+01 3.101556e+01 2.460569e+01 3.794995e+01 3.302481e+01 3.647386e+01 3.306758e+01 3.736257e+01 3.304341e+01 3.422744e+01 2.914556e+01 2.436403e+00 2.911187e+00 4.448737e+00 4.036190e+00 3.938873e+00 4.396152e+00 4.398706e+00 4.251976e+00 4.464383e+00 4.221568e+00 5.632182e+00 3.421245e+00 4.068465e-03
<GCONST> 9.786864e+01
<MIXTURE> 19 9.912824e-03
<MEAN> 25
 -8.818178e+00 2.932621e+00 -9.928517e-01 1.595187e+00 3.882070e+00 7.954338e-01 4.409406e+00 8.842726e-01 3.053522e+00 4.084755e-01 1.287092e-02 1.537279e+00 2.100617e+00 1.518476e+00 2.185072e+00 6.877602e-01 -9.817041e-01 -9.846188e-01 -1.042753e+00 -1.375791e+00 -1.718294e+00 -1.286476e+00 -8.980556e-01 -8.507341e-01 -3.276434e-04
<VARIANCE> 25
 4.962524e+01 3.021475e+01 4.000507e+01 3.842026e+01 2.418789e+01 2.477504e+01 3.424416e+01 2.669252e+01 2.908105e+01 2.680991e+01 3.196469e+01 1.987267e+01 1.867017e+00 1.681239e+00 1.766195e+00 1.758446e+00 1.927107e+00 1.943069e+00 1.904783e+00 3.087771e+00 1.933613e+00 1.565216e+00 2.219829e+00 1.467694e+00 2.407727e-03
<GCONST> 8.855247e+01
<MIXTURE> 20 6.308331e-03
<MEAN> 25
 -1.417159e+01 7.434210e+00 5.743423e-01 6.031129e+00 4.703817e+00 1.593588e+00 5.182402e+00 8.856711e-01 8.590795e-01 6.537631e-01 2.583097e+00 -2.886439e-01 -3.225685e+00 -8.275093e-01 -1.544753e+00 3.062025e-01 1.535195e+00 2.011593e+00 1.983548e+00 2.017296e+00 2.125530e+00 1.988411e+00 1.670891e+00 9.292214e-01 4.712338e-02
<VARIANCE> 25
 1.916208e+01 2.281730e+01 3.254486e+01 3.672480e+01 3.068625e+01 2.801665e+01 2.942342e+01 3.067980e+01 2.772217e+01 2.850824e+01 2.452384e+01 2.043205e+01 2.175825e+00 2.208924e+00 1.871854e+00 2.495269e+00 2.666252e+00 2.336963e+00 2.272229e+00 2.321278e+00 2.207218e+00 2.682170e+00 2.198431e+00 1.825300e+00 1.854999e-03
<GCONST> 8.904626e+01
<MIXTURE> 21 7.928653e-03
<MEAN> 25
 4.022280e+00 -4.553539e+00 5.804527e+00 -1.406180e+00 -1.043542e+01 -8.671315e+00 -2.554071e+00 4.210016e+00 -2.172774e+00 -3.387142e+00 2.454785e-01 3.236048e-01 -7.190055e-01 1.319156e+00 2.552477e+00 -9.681411e-02 -1.556278e+00 3.841889e-01 5.406023e-01 -1.449319e+00 -1.957854e+00 3.493423e-01 1.317261e+00 2.347763e-01 -1.194392e-02
<VARIANCE> 25
 8.726057e+00 1.836626e+01 2.906026e+01 2.876643e+01 2.889468e+01 3.290170e+01 4.217927e+01 3.866701e+01 4.257041e+01 3.098741e+01 3.317746e+01 2.278469e+01 3.687643e-01 9.567030e-01 1.878715e+00 1.391922e+00 2.169471e+00 2.253174e+00 3.685040e+00 2.558149e+00 2.118565e+00 2.596850e+00 1.979335e+00 2.241233e+00 4.543799e-04
<GCONST> 8.506718e+01
<MIXTURE> 22 8.827789e-03
<MEAN> 25
 -1.701372e+01 7.463638e+00 -5.329177e+00 6.158231e+00 4.009394e+00 2.194085e+00 7.830538e+00 1.920179e+00 5.542304e+00 2.623971e+00 5.589642e+00 1.578015e+00 -2.511223e-01 -1.245426e-01 -9.540455e-02 -1.951816e-01 1.713963e-01 9.382332e-03 6.056155e-01 2.235695e-01 6.153941e-01 2.345628e-01 2.008290e-01 2.600983e-01 8.631428e-03
<VARIANCE> 25
 8.939075e+00 1.364603e+01 1.814959e+01 2.641279e+01 2.012515e+01 2.339929e+01 1.665346e+01 1.533433e+01 1.912707e+01 1.916657e+01 1.705354e+01 1.238354e+01 1.172367e+00 1.238688e+00 1.207957e+00 1.444825e+00 1.320212e+00 1.767467e+00 1.873695e+00 1.395906e+00 2.161442e+00 1.333683e+00 1.318774e+00 1.048719e+00 1.682036e-03
<GCONST> 7.761173e+01
<MIXTURE> 23 6.455497e-03
<MEAN> 25
 7.160045e+00 2.242486e+00 3.227296e+00 1.886724e+00 -4.329547e+00 -2.529401e+00 -4.657347e+00 -5.842464e+00 -3.096295e+00 -7.250397e-01 -3.962874e+00 -2.064948e+00 6.390378e-02 1.408071e-01 4.310732e-02 1.110345e-01 2.887630e-02 -8.021226e-03 1.394255e-02 -6.513886e-02 5.122336e-02 1.367199e-01 -9.326541e-02 2.785781e-02 -4.828400e-03
<VARIANCE> 25
 1.279181e+01 2.161506e+01 2.273966e+01 3.866093e+01 3.484323e+01 5.028196e+01 5.239740e+01 5.506913e+01 4.520156e+01 4.383061e+01 4.552913e+01 3.560664e+01 1.191942e-01 2.894400e-01 3.733086e-01 4.939378e-01 5.784956e-01 6.884874e-01 8.461286e-01 9.054227e-01 8.025603e-01 9.309757e-01 8.195896e-01 7.009127e-01 9.986454e-05
<GCONST> 7.246436e+01
<MIXTURE> 24 6.455497e-03
<MEAN> 25
 7.160045e+00 2.242486e+00 3.227296e+00 1.886724e+00 -4.329547e+00 -2.529401e+00 -4.657347e+00 -5.842464e+00 -3.096295e+00 -7.250397e-01 -3.962874e+00 -2.064948e+00 6.390378e-02 1.408071e-01 4.310732e-02 1.110345e-01 2.887630e-02 -8.021226e-03 1.394255e-02 -6.513886e-02 5.122336e-02 1.367199e-01 -9.326541e-02 2.785781e-02 -4.828400e-03
<VARIANCE> 25
 1.279181e+01 2.161506e+01 2.273966e+01 3.866093e+01 3.484323e+01 5.028196e+01 5.239740e+01 5.506913e+01 4.520156e+01 4.383061e+01 4.552913e+01 3.560664e+01 1.191942e-01 2.894400e-01 3.733086e-01 4.939378e-01 5.784956e-01 6.884874e-01 8.461286e-01 9.054227e-01 8.025603e-01 9.309757e-01 8.195896e-01 7.009127e-01 9.986454e-05
<GCONST> 7.246436e+01
<MIXTURE> 25 1.118642e-02
<MEAN> 25
 3.782647e-01 3.207335e+00 1.654789e+01 -9.302772e-01 -1.124539e+01 -1.822300e+00 -4.837680e+00 -2.754845e+00 -7.202904e+00 -5.380647e+00 4.452074e+00 -1.654598e+00 -1.232177e-01 4.018383e-01 1.416778e-01 1.647772e-01 1.786834e-01 1.295494e-01 1.547051e-01 -1.634949e-01 -1.700725e-01 5.735844e-02 -3.191266e-02 -5.827506e-02 -1.177588e-02
<VARIANCE> 25
 8.657205e+00 2.311441e+01 2.143331e+01 2.795253e+01 3.093404e+01 4.005603e+01 2.697462e+01 2.966805e+01 2.947533e+01 3.597589e+01 2.600267e+01 2.663811e+01 5.839790e-01 1.454461e+00 1.376845e+00 1.382505e+00 2.253267e+00 1.993365e+00 1.736761e+00 1.570293e+00 1.656449e+00 1.627745e+00 1.392811e+00 1.327101e+00 1.272268e-03
<GCONST> 8.288045e+01
<MIXTURE> 26 7.727677e-03
<MEAN> 25
 1.803109e+00 -6.092557e+00 -9.447745e+00 -1.765284e-01 7.896000e+00 5.350485e+00 3.712963e+00 -1.227230e-01 2.404204e+00 -8.979348e-01 -3.346153e+00 -6.671544e-01 -6.576558e-01 6.168714e-01 3.638547e-01 5.740187e-01 1.046361e-01 3.091719e-01 3.397784e-01 3.305446e-01 3.708867e-01 2.784741e-02 2.803737e-01 3.722342e-01 -5.365529e-02
<VARIANCE> 25
 2.522768e+01 3.228679e+01 3.050959e+01 6.165664e+01 3.535248e+01 4.069987e+01 4.294050e+01 4.256565e+01 3.702272e+01 5.354284e+01 4.487293e+01 4.458095e+01 1.551449e+00 1.951727e+00 1.794228e+00 2.336202e+00 2.216136e+00 2.616292e+00 2.417376e+00 2.533023e+00 2.211525e+00 2.144839e+00 2.229814e+00 1.863621e+00 3.043541e-03
<GCONST> 9.346185e+01
<MIXTURE> 27 7.727677e-03
<MEAN> 25
 1.803109e+00 -6.092557e+00 -9.447745e+00 -1.765284e-01 7.896000e+00 5.350485e+00 3.712963e+00 -1.227230e-01 2.404204e+00 -8.979348e-01 -3.346153e+00 -6.671544e-01 -6.576558e-01 6.168714e-01 3.638547e-01 5.740187e-01 1.046361e-01 3.091719e-01 3.397784e-01 3.305446e-01 3.708867e-01 2.784741e-02 2.803737e-01 3.722342e-01 -5.365529e-02
<VARIANCE> 25
 2.522768e+01 3.228679e+01 3.050959e+01 6.165664e+01 3.535248e+01 4.069987e+01 4.294050e+01 4.256565e+01 3.702272e+01 5.354284e+01 4.487293e+01 4.458095e+01 1.551449e+00 1.951727e+00 1.794228e+00 2.336202e+00 2.216136e+00 2.616292e+00 2.417376e+00 2.533023e+00 2.211525e+00 2.144839e+00 2.229814e+00 1.863621e+00 3.043541e-03
<GCONST> 9.346185e+01
<MIXTURE> 28 5.036674e-03
<MEAN> 25
 -5.450893e+00 1.149379e-02 -1.567952e+00 6.614817e+00 5.231686e+00 3.518154e+00 5.416128e+00 3.129844e+00 3.923006e+00 2.392416e+00 2.635965e+00 3.219882e+00 -1.151293e-01 2.231669e-01 5.288357e-01 7.848415e-01 8.218133e-01 7.026557e-01 5.227605e-01 3.918745e-01 4.448639e-01 4.820974e-01 3.707218e-01 1.898381e-01 -1.243347e-05
<VARIANCE> 25
 1.043910e+01 8.350608e+00 1.216600e+01 1.484920e+01 1.471117e+01 1.772861e+01 1.803879e+01 1.901464e+01 1.718102e+01 1.674244e+01 2.062730e+01 1.500116e+01 2.565587e-01 3.364837e-01 4.067545e-01 4.640719e-01 6.221572e-01 8.473000e-01 1.057038e+00 1.144582e+00 1.102360e+00 1.030074e+00 1.037379e+00 1.066690e+00 9.997558e-07
<GCONST> 6.025540e+01
<MIXTURE> 29 5.036674e-03
<MEAN> 25
 -5.450893e+00 1.149379e-02 -1.567952e+00 6.614817e+00 5.231686e+00 3.518154e+00 5.416128e+00 3.129844e+00 3.923006e+00 2.392416e+00 2.635965e+00 3.219882e+00 -1.151293e-01 2.231669e-01 5.288357e-01 7.848415e-01 8.218133e-01 7.026557e-01 5.227605e-01 3.918745e-01 4.448639e-01 4.820974e-01 3.707218e-01 1.898381e-01 -1.243347e-05
<VARIANCE> 25
 1.043910e+01 8.350608e+00 1.216600e+01 1.484920e+01 1.471117e+01 1.772861e+01 1.803879e+01 1.901464e+01 1.718102e+01 1.674244e+01 2.062730e+01 1.500116e+01 2.565587e-01 3.364837e-01 4.067545e-01 4.640719e-01 6.221572e-01 8.473000e-01 1.057038e+00 1.144582e+00 1.102360e+00 1.030074e+00 1.037379e+00 1.066690e+00 9.997558e-07
<GCONST> 6.025540e+01
<MIXTURE> 30 8.917812e-03
<MEAN> 25
 -4.495541e+00 -2.045142e-01 6.645233e-01 9.073421e+00 7.748284e+00 7.503193e+00 7.572298e+00 6.847732e+00 6.563040e+00 4.858070e+00 6.901077e+00 3.488421e+00 -2.592390e-02 3.257759e-02 5.472008e-02 8.815237e-02 8.086488e-02 3.914166e-02 1.581966e-02 1.955177e-03 1.660936e-02 5.654495e-02 6.266860e-02 4.306684e-02 -5.961099e-04
<VARIANCE> 25
 6.895644e+00 9.814668e+00 1.034579e+01 1.371160e+01 1.577592e+01 1.633610e+01 1.903589e+01 1.826106e+01 1.631960e+01 1.849666e+01 2.307142e+01 1.435407e+01 9.751453e-02 1.991345e-01 3.234862e-01 4.786068e-01 6.157175e-01 7.238989e-01 7.688835e-01 8.113775e-01 8.711533e-01 9.358786e-01 9.155307e-01 8.689582e-01 5.092039e-05
<GCONST> 6.062698e+01
<MIXTURE> 31 4.136493e-03
<MEAN> 25
 -3.352388e+00 -5.724882e+00 8.790886e-02 5.130257e+00 3.835886e+00 1.430722e+00 5.043165e+00 6.667712e+00 2.827861e+00 1.085673e+00 5.879437e+00 2.977444e+00 2.544515e-01 4.930999e-01 -1.861190e-01 2.818672e-01 9.860427e-02 5.124479e-01 1.948540e-01 5.160885e-02 3.599010e-01 3.998055e-01 8.368090e-02 1.472863e-01 -1.980275e-02
<VARIANCE> 25
 6.940092e+00 1.504041e+01 1.681606e+01 1.919827e+01 2.487690e+01 2.437018e+01 2.354404e+01 2.444607e+01 2.496549e+01 2.752475e+01 2.866124e+01 1.876582e+01 1.828519e-01 4.837956e-01 5.971704e-01 7.538404e-01 9.373520e-01 1.232159e+00 1.179722e+00 1.372492e+00 1.333603e+00 1.282995e+00 1.210728e+00 1.112650e+00 2.954630e-04
<GCONST> 7.206569e+01
<MIXTURE> 32 4.136493e-03
<MEAN> 25
 -3.352388e+00 -5.724882e+00 8.790886e-02 5.130257e+00 3.835886e+00 1.430722e+00 5.043165e+00 6.667712e+00 2.827861e+00 1.085673e+00 5.879437e+00 2.977444e+00 2.544515e-01 4.930999e-01 -1.861190e-01 2.818672e-01 9.860427e-02 5.124479e-01 1.948540e-01 5.160885e-02 3.599010e-01 3.998055e-01 8.368090e-02 1.472863e-01 -1.980275e-02
<VARIANCE> 25
 6.940092e+00 1.504041e+01 1.681606e+01 1.919827e+01 2.487690e+01 2.437018e+01 2.354404e+01 2.444607e+01 2.496549e+01 2.752475e+01 2.866124e+01 1.876582e+01 1.828519e-01 4.837956e-01 5.971704e-01 7.538404e-01 9.373520e-01 1.232159e+00 1.179722e+00 1.372492e+00 1.333603e+00 1.282995e+00 1.210728e+00 1.112650e+00 2.954630e-04
<GCONST> 7.206569e+01
<MIXTURE> 33 1.508826e-02
<MEAN> 25
 5.857455e+00 -4.206686e+00 -1.249295e+00 -2.112580e+00 -2.220397e+00 -5.829570e+00 -7.052252e+00 2.255837e+00 1.557584e+00 -4.626497e-02 -2.611227e+00 -2.305139e+00 6.592437e-01 -1.151198e+00 -2.382637e+00 -1.982504e+00 1.344736e+00 1.253094e+00 -7.617339e-01 4.948325e-01 1.172647e+00 9.162441e-01 1.140213e-01 -1.415752e+00 3.511140e-02
<VARIANCE> 25
 9.237090e+00 1.646463e+01 2.722586e+01 3.729423e+01 3.325319e+01 4.896503e+01 3.467894e+01 3.793643e+01 3.350637e+01 3.497401e+01 5.302717e+01 2.776785e+01 9.208847e-01 1.586510e+00 1.720307e+00 1.901233e+00 3.345176e+00 2.920026e+00 3.378454e+00 4.451867e+00 3.362897e+00 3.841062e+00 3.457299e+00 2.308975e+00 1.208307e-03
<GCONST> 9.130398e+01
<MIXTURE> 34 1.588179e-02
<MEAN> 25
 8.296156e+00 -4.522079e-01 -7.191189e-02 4.068794e-02 -2.687266e+00 -1.234152e+00 -6.274815e+00 -3.969810e+00 -1.459847e+00 5.937178e-01 -2.045349e+00 -3.631560e+00 -9.634354e-02 1.363150e+00 1.316041e+00 2.212696e+00 1.317014e-01 7.610000e-02 8.499286e-01 -1.621045e+00 -5.600362e-01 7.609345e-03 -9.504667e-01 5.319759e-01 -6.182733e-02
<VARIANCE> 25
 7.948461e+00 2.777756e+01 2.769210e+01 5.079985e+01 4.025772e+01 4.764301e+01 4.719668e+01 5.124273e+01 4.487999e+01 4.062242e+01 4.774654e+01 2.931513e+01 1.103418e+00 1.860316e+00 4.390143e+00 3.619437e+00 5.009722e+00 5.275699e+00 5.512824e+00 5.434175e+00 5.184264e+00 4.574452e+00 5.628585e+00 3.931600e+00 1.086859e-03
<GCONST> 9.829311e+01
<MIXTURE> 35 1.467755e-02
<MEAN> 25
 -2.276346e+00 -5.191908e+00 -9.657214e+00 3.969462e-01 9.390997e+00 6.074241e-01 1.749412e+00 2.501278e+00 1.681773e+00 4.244813e+00 -1.659482e-01 1.853243e+00 5.086164e-01 -1.105560e+00 -1.461692e+00 -1.335806e+00 4.144691e-01 -7.807649e-01 -7.361370e-01 -2.059658e-01 -2.427774e-01 1.378240e-01 -4.949164e-01 -5.256575e-01 1.054382e-01
<VARIANCE> 25
 1.890399e+01 2.837427e+01 4.326757e+01 6.061775e+01 4.250777e+01 5.547190e+01 4.935144e+01 4.325898e+01 4.872267e+01 3.885140e+01 3.655350e+01 2.962272e+01 3.432024e+00 3.454924e+00 6.543994e+00 5.497896e+00 5.072917e+00 5.372068e+00 4.767679e+00 4.599635e+00 4.953762e+00 4.361217e+00 4.613002e+00 3.644482e+00 5.153105e-03
<GCONST> 1.031444e+02
<MIXTURE> 36 1.093293e-02
<MEAN> 25
 4.619023e+00 -3.688714e+00 7.305630e+00 2.544922e+00 -9.224405e+00 -7.501713e+00 -5.238547e+00 2.655286e+00 -3.753113e+00 -4.701937e+00 5.300542e+00 -2.905160e-01 3.453918e-01 4.668563e-02 -9.877737e-01 5.224068e-03 9.327962e-01 1.520172e-01 -4.569791e-01 2.358529e-02 7.966681e-01 5.241180e-01 -7.197776e-01 -2.232998e-01 -1.539339e-02
<VARIANCE> 25
 7.425753e+00 1.226545e+01 1.972980e+01 2.278844e+01 2.955647e+01 2.993350e+01 3.728377e+01 2.602410e+01 4.022630e+01 2.967664e+01 5.481794e+01 2.009144e+01 3.452828e-01 6.772743e-01 1.195800e+00 1.027541e+00 1.567033e+00 1.275674e+00 1.706780e+00 1.343088e+00 1.869483e+00 1.524682e+00 2.089486e+00 1.454033e+00 7.531951e-04
<GCONST> 7.956178e+01
<MIXTURE> 37 1.246826e-02
<MEAN> 25
 5.792897e-01 7.718412e+00 1.200815e+01 -5.521367e+00 -7.997410e+00 -1.015088e+00 -5.063828e+00 -8.292853e+00 -3.672403e+00 -8.721815e-01 -3.700083e+00 -1.289007e+00 1.777379e-01 6.562015e-01 -1.360492e+00 3.559276e+00 1.976670e+00 -3.095997e-01 1.102816e+00 4.267252e-01 5.205222e-01 -3.207667e-01 5.529659e-01 -9.477945e-02 -9.439175e-02
<VARIANCE> 25
 1.598090e+01 2.621818e+01 3.094694e+01 5.082666e+01 3.385255e+01 3.201864e+01 4.372297e+01 3.503375e+01 3.862947e+01 3.594055e+01 3.760892e+01 3.068443e+01 2.938368e+00 3.403073e+00 3.015795e+00 4.150171e+00 4.600850e+00 3.737972e+00 4.199934e+00 3.796905e+00 3.435809e+00 3.597643e+00 3.894801e+00 2.775721e+00 3.938409e-03
<GCONST> 9.775655e+01
<MIXTURE> 38 1.154525e-02
<MEAN> 25
 -4.478730e+00 8.865481e+00 4.288116e+00 3.199584e+00 5.470878e-01 -5.203451e+00 -6.959047e-01 -2.503092e+00 -2.438110e+00 -3.049365e+00 -1.707479e+00 -4.266196e-01 -4.470446e+00 1.252582e+00 -3.560224e-01 1.395005e+00 2.410657e+00 1.285492e+00 1.928936e+00 9.705524e-01 7.697915e-01 6.384251e-01 1.065719e+00 2.933903e-01 4.886316e-02
<VARIANCE> 25
 3.042154e+01 2.867566e+01 3.984185e+01 3.169814e+01 4.897905e+01 3.420657e+01 3.522691e+01 4.138881e+01 3.744302e+01 3.155559e+01 2.450653e+01 2.847596e+01 2.313612e+00 3.783072e+00 3.833904e+00 5.047546e+00 4.647457e+00 5.076826e+00 4.983698e+00 4.549442e+00 4.339948e+00 4.745385e+00 4.331208e+00 3.157510e+00 2.010639e-03
<GCONST> 9.903619e+01
<MIXTURE> 39 9.501865e-03
<MEAN> 25
 1.544460e+00 1.765281e+00 1.003048e+01 -8.008018e+00 -1.033087e+01 -2.048469e-01 -2.858793e+00 -5.011900e+00 -5.363740e+00 1.367161e+00 -3.082088e+00 -2.923881e+00 -7.514491e-01 1.505645e+00 1.331430e+00 -1.485911e+00 1.256260e-01 1.439771e+00 -1.365169e+00 -1.127243e+00 3.861324e-01 6.586754e-01 -5.940497e-01 -1.160393e-02 5.333931e-04
<VARIANCE> 25
 7.551655e+00 2.806635e+01 2.658143e+01 3.789648e+01 3.491499e+01 3.841295e+01 3.763343e+01 3.763499e+01 3.713937e+01 3.017786e+01 3.228643e+01 2.641604e+01 5.845670e-01 1.326213e+00 1.686737e+00 2.633451e+00 2.164708e+00 2.654597e+00 2.679580e+00 2.357911e+00 2.209898e+00 2.461977e+00 1.922808e+00 1.809715e+00 1.011648e-03
<GCONST> 8.731912e+01
<MIXTURE> 40 1.030800e-02
<MEAN> 25
 -9.222545e+00 2.148098e+00 -1.346089e+00 7.936761e+00 3.788706e+00 5.518034e+00 5.278091e+00 4.014425e+00 4.624663e+00 4.171272e+00 5.497280e+00 1.831728e+00 -1.333684e-01 -2.336328e-01 -2.462360e-02 -2.139118e-01 -8.323321e-02 -1.858924e-01 8.270688e-02 9.389539e-02 1.196620e-03 9.382707e-03 9.241300e-02 -5.024182e-03 4.250506e-03
<VARIANCE> 25
 4.290413e+01 2.076814e+01 2.992005e+01 2.761536e+01 2.550905e+01 1.925191e+01 1.962741e+01 1.900752e+01 1.734292e+01 1.891333e+01 1.990014e+01 1.461780e+01 7.625577e-01 7.619338e-01 8.804501e-01 1.140249e+00 1.096245e+00 1.367608e+00 1.344375e+00 1.277246e+00 1.263507e+00 1.192082e+00 1.169414e+00 1.088282e+00 8.730092e-04
<GCONST> 7.705431e+01
<MIXTURE> 41 6.713375e-03
<MEAN> 25
 1.312325e+00 1.776867e+00 1.047516e+01 -6.949099e+00 -1.046451e+01 -3.851618e+00 -2.482795e+00 -5.029199e+00 -4.664932e+00 2.661216e+00 -1.739716e+00 -9.574229e-01 7.679822e-02 -7.581842e-01 1.694676e+00 -3.556996e+00 -2.458558e+00 -1.090542e-01 -5.095195e-01 -3.564982e-01 -8.277569e-01 1.088415e+00 -1.043395e+00 8.173180e-02 8.618097e-02
<VARIANCE> 25
 1.168609e+01 2.965088e+01 3.255777e+01 4.008542e+01 3.867500e+01 4.012922e+01 3.709726e+01 2.994362e+01 3.310450e+01 2.873490e+01 3.182942e+01 2.717266e+01 3.175048e+00 3.310600e+00 3.821944e+00 3.792959e+00 4.900373e+00 5.878860e+00 4.712554e+00 4.550837e+00 3.970634e+00 4.215115e+00 3.831823e+00 3.219059e+00 2.933318e-03
<GCONST> 9.790037e+01
<MIXTURE> 42 1.106211e-02
<MEAN> 25
 -1.832455e+00 4.592217e+00 4.417855e+00 2.952971e+00 2.597495e-01 -5.600873e+00 1.231111e-01 -1.329976e+00 -2.418162e+00 -1.379707e+00 -1.909800e+00 9.584407e-01 4.014120e+00 -6.262326e-01 1.903729e+00 -6.883027e-02 -2.784132e+00 -1.581840e+00 -2.553984e+00 -7.643941e-01 -1.724899e+00 -7.904403e-01 1.264646e+00 -8.592476e-01 2.043435e-02
<VARIANCE> 25
 3.120582e+01 1.741449e+01 4.082977e+01 1.988830e+01 3.377449e+01 3.455247e+01 3.799930e+01 2.636841e+01 3.645664e+01 2.268030e+01 2.391031e+01 1.379472e+01 3.118489e+00 4.199098e+00 5.391845e+00 3.737001e+00 3.697112e+00 5.470480e+00 4.490471e+00 4.010724e+00 6.289004e+00 4.070989e+00 5.706162e+00 2.842479e+00 4.184726e-03
<GCONST> 9.745834e+01
<MIXTURE> 43 7.108249e-03
<MEAN> 25
 3.105524e+00 -6.260430e+00 -2.186450e+00 -5.137071e+00 -7.294795e+00 -3.326896e+00 4.087869e+00 1.322747e+00 -4.976364e+00 -7.081925e+00 -4.390474e+00 -1.243712e+00 2.367084e-01 2.152334e+00 1.901188e+00 -1.345401e-01 -1.417926e+00 -7.877415e-01 -9.495040e-01 -7.810577e-01 8.235925e-01 1.461994e+00 3.463314e-01 2.252933e-02 -4.483296e-02
<VARIANCE> 25
 1.001041e+01 1.972578e+01 2.747289e+01 3.518047e+01 3.893019e+01 3.693201e+01 3.354468e+01 3.961775e+01 3.988184e+01 3.827410e+01 2.669938e+01 2.921995e+01 6.824690e-01 1.250099e+00 1.575620e+00 2.492904e+00 2.382332e+00 2.388352e+00 2.666767e+00 2.993739e+00 2.581734e+00 2.564326e+00 2.344721e+00 1.895878e+00 9.457663e-04
<GCONST> 8.800320e+01
<MIXTURE> 44 7.328289e-03
<MEAN> 25
 -1.492676e+01 1.834186e+00 2.928422e+00 -2.937556e+00 3.215266e+00 1.755434e+00 1.811350e-01 2.337952e+00 1.473437e+00 -1.030589e+00 1.642277e+00 1.918659e+00 -1.859371e-01 -9.265569e-03 1.360151e-01 2.549891e-01 -2.661953e-02 2.220856e-01 5.770396e-01 1.123002e-01 3.447603e-01 1.420639e-01 1.072946e-01 1.077744e-01 4.418334e-03
<VARIANCE> 25
 4.358094e+01 2.811271e+01 3.930516e+01 2.966770e+01 2.794830e+01 2.995622e+01 2.424907e+01 3.056421e+01 2.820284e+01 2.725953e+01 2.893037e+01 1.832133e+01 1.177694e+00 1.478114e+00 1.358405e+00 1.345826e+00 2.228534e+00 1.633566e+00 1.667179e+00 1.572424e+00 1.659273e+00 1.450429e+00 1.409007e+00 1.153683e+00 1.279681e-03
<GCONST> 8.449172e+01
<MIXTURE> 45 1.364932e-02
<MEAN> 25
 -1.119805e+01 4.238103e+00 -3.179585e+00 2.852587e+00 3.161036e+00 1.058192e-01 3.677952e+00 2.446744e+00 3.570641e+00 1.242304e+00 1.435857e+00 1.930001e+00 -2.762942e+00 8.569027e-01 -1.036293e+00 -4.370756e-01 2.264541e-01 5.205049e-02 3.799606e-01 8.791178e-03 -4.240256e-01 6.106655e-02 1.123366e+00 -1.593739e-03 1.028785e-01
<VARIANCE> 25
 2.628687e+01 2.640454e+01 2.584293e+01 2.445873e+01 3.224049e+01 3.029885e+01 3.017430e+01 1.928747e+01 1.874168e+01 1.876021e+01 2.680580e+01 1.361033e+01 1.713986e+00 2.442250e+00 2.403683e+00 1.821483e+00 2.300354e+00 1.973781e+00 2.083502e+00 1.836235e+00 2.254452e+00 1.518975e+00 2.390969e+00 1.341704e+00 2.937370e-03
<GCONST> 8.628078e+01
<MIXTURE> 46 9.336259e-03
<MEAN> 25
 -9.462597e+00 2.362259e+00 1.075442e+00 7.465854e+00 5.910521e+00 3.264637e+00 7.040339e+00 4.477142e+00 5.764674e+00 4.642277e+00 5.017818e+00 2.934749e+00 1.054260e+00 -2.382463e-01 4.395410e-02 9.935041e-01 6.042806e-01 9.377665e-01 4.036844e-01 6.609092e-01 4.973296e-01 5.020719e-01 6.211181e-01 5.171763e-01 -1.046104e-01
<VARIANCE> 25
 3.417725e+01 4.372614e+01 3.941568e+01 5.008791e+01 5.028831e+01 4.085967e+01 3.669115e+01 3.507053e+01 3.311595e+01 3.080400e+01 2.862831e+01 2.001282e+01 3.878322e+00 4.098902e+00 3.843300e+00 4.096806e+00 4.126040e+00 3.663576e+00 3.385944e+00 3.096071e+00 3.027938e+00 2.838434e+00 2.334130e+00 1.775289e+00 7.924680e-03
<GCONST> 9.823376e+01
<MIXTURE> 47 7.116147e-03
<MEAN> 25
 7.294207e+00 -7.346721e+00 -7.704488e+00 -6.456257e+00 1.474850e+00 7.059812e-01 -2.443008e+00 1.260509e+00 3.008621e+00 1.779082e-01 -4.088243e+00 -6.736609e+00 -1.793254e-01 -1.244859e+00 -7.014801e-01 -4.275957e-01 6.330613e-01 8.192736e-01 8.663885e-01 3.023171e-01 1.306118e-01 -8.675674e-01 -4.670452e-01 -4.794177e-01 2.985100e-02
<VARIANCE> 25
 1.071642e+01 2.089372e+01 2.064546e+01 3.300454e+01 3.594273e+01 5.401479e+01 4.511132e+01 4.053303e+01 4.312333e+01 4.657873e+01 5.073889e+01 3.327029e+01 5.156373e-01 7.792778e-01 1.123825e+00 1.655887e+00 1.982586e+00 2.184500e+00 2.304698e+00 2.458898e+00 2.192814e+00 2.152355e+00 2.164445e+00 2.036433e+00 5.518792e-04
<GCONST> 8.644400e+01
<MIXTURE> 48 7.116147e-03
<MEAN> 25
 7.294207e+00 -7.346721e+00 -7.704488e+00 -6.456257e+00 1.474850e+00 7.059812e-01 -2.443008e+00 1.260509e+00 3.008621e+00 1.779082e-01 -4.088243e+00 -6.736609e+00 -1.793254e-01 -1.244859e+00 -7.014801e-01 -4.275957e-01 6.330613e-01 8.192736e-01 8.663885e-01 3.023171e-01 1.306118e-01 -8.675674e-01 -4.670452e-01 -4.794177e-01 2.985100e-02
<VARIANCE> 25
 1.071642e+01 2.089372e+01 2.064546e+01 3.300454e+01 3.594273e+01 5.401479e+01 4.511132e+01 4.053303e+01 4.312333e+01 4.657873e+01 5.073889e+01 3.327029e+01 5.156373e-01 7.792778e-01 1.123825e+00 1.655887e+00 1.982586e+00 2.184500e+00 2.304698e+00 2.458898e+00 2.192814e+00 2.152355e+00 2.164445e+00 2.036433e+00 5.518792e-04
<GCONST> 8.644400e+01
<MIXTURE> 49 5.548473e-03
<MEAN> 25
 -5.083117e+00 3.512509e-01 1.683435e-01 8.440561e+00 6.146182e+00 5.618564e+00 6.061596e+00 4.482799e+00 5.025783e+00 3.717965e+00 4.924807e+00 2.861924e+00 3.660174e-01 6.551748e-01 7.031892e-01 3.543360e-01 -1.970051e-01 -6.704008e-01 -1.008854e+00 -1.118679e+00 -9.551505e-01 -6.808222e-01 -4.926014e-01 -2.706543e-01 -2.488898e-05
<VARIANCE> 25
 9.616603e+00 1.003030e+01 1.425979e+01 1.595549e+01 1.587711e+01 1.711252e+01 1.948413e+01 1.944458e+01 1.820636e+01 1.804608e+01 2.076685e+01 1.426884e+01 2.801689e-01 2.637943e-01 3.599427e-01 6.111007e-01 8.693708e-01 9.739248e-01 9.928923e-01 1.057487e+00 1.134548e+00 1.218414e+00 1.280150e+00 1.208782e+00 1.434831e-05
<GCONST> 6.434286e+01
<MIXTURE> 50 6.234641e-03
<MEAN> 25
 -4.696929e+00 8.248622e-02 -1.344957e+00 6.005830e+00 4.198444e+00 2.342703e+00 3.776168e+00 2.047920e+00 2.851162e+00 1.162693e+00 1.858087e+00 2.801241e+00 7.163679e-02 1.733213e-01 1.180460e-01 -1.493170e-01 -5.304875e-01 -6.232448e-01 -4.607485e-01 -5.173591e-02 4.328552e-01 7.259034e-01 7.230222e-01 4.623767e-01 -1.631620e-05
<VARIANCE> 25
 1.029911e+01 1.085877e+01 1.429508e+01 1.618058e+01 1.492261e+01 1.826228e+01 1.831082e+01 1.920040e+01 1.824266e+01 1.886655e+01 2.396004e+01 1.482710e+01 1.482076e-01 2.326983e-01 3.841011e-01 5.273576e-01 5.944455e-01 7.186460e-01 9.660093e-01 1.086837e+00 1.031433e+00 9.594125e-01 9.001496e-01 9.703768e-01 9.732579e-07
<GCONST> 5.953776e+01
<MIXTURE> 51 6.234641e-03
<MEAN> 25
 -4.696929e+00 8.248622e-02 -1.344957e+00 6.005830e+00 4.198444e+00 2.342703e+00 3.776168e+00 2.047920e+00 2.851162e+00 1.162693e+00 1.858087e+00 2.801241e+00 7.163679e-02 1.733213e-01 1.180460e-01 -1.493170e-01 -5.304875e-01 -6.232448e-01 -4.607485e-01 -5.173591e-02 4.328552e-01 7.259034e-01 7.230222e-01 4.623767e-01 -1.631620e-05
<VARIANCE> 25
 1.029911e+01 1.085877e+01 1.429508e+01 1.618058e+01 1.492261e+01 1.826228e+01 1.831082e+01 1.920040e+01 1.824266e+01 1.886655e+01 2.396004e+01 1.482710e+01 1.482076e-01 2.326983e-01 3.841011e-01 5.273576e-01 5.944455e-01 7.186460e-01 9.660093e-01 1.086837e+00 1.031433e+00 9.594125e-01 9.001496e-01 9.703768e-01 9.732579e-07
<GCONST> 5.953776e+01
<MIXTURE> 52 6.367945e-03
<MEAN> 25
 1.008356e+01 1.964975e+00 -6.191477e+00 -1.427769e+01 -4.160325e+00 8.547559e+00 -2.817900e+00 -3.144967e+00 -4.505654e+00 -1.930374e+00 3.500724e+00 7.396037e-01 -3.699301e-01 -4.499059e-01 -6.011420e-02 1.148009e+00 1.326375e+00 -4.529302e-01 -5.806681e-01 -6.423190e-01 6.724340e-02 1.224601e+00 3.377707e-01 -4.959429e-01 -1.454928e-02
<VARIANCE> 25
 9.217519e+00 2.045964e+01 2.496273e+01 3.800403e+01 4.515031e+01 3.021790e+01 4.580851e+01 4.835129e+01 4.304058e+01 4.697362e+01 4.039867e+01 2.962884e+01 4.619889e-01 1.502664e+00 1.296078e+00 2.744637e+00 2.308419e+00 2.194792e+00 2.971151e+00 2.760148e+00 2.990017e+00 2.644046e+00 2.613047e+00 2.389018e+00 1.556489e-03
<GCONST> 8.972681e+01
<MIXTURE> 53 6.367945e-03
<MEAN> 25
 1.008356e+01 1.964975e+00 -6.191477e+00 -1.427769e+01 -4.160325e+00 8.547559e+00 -2.817900e+00 -3.144967e+00 -4.505654e+00 -1.930374e+00 3.500724e+00 7.396037e-01 -3.699301e-01 -4.499059e-01 -6.011420e-02 1.148009e+00 1.326375e+00 -4.529302e-01 -5.806681e-01 -6.423190e-01 6.724340e-02 1.224601e+00 3.377707e-01 -4.959429e-01 -1.454928e-02
<VARIANCE> 25
 9.217519e+00 2.045964e+01 2.496273e+01 3.800403e+01 4.515031e+01 3.021790e+01 4.580851e+01 4.835129e+01 4.304058e+01 4.697362e+01 4.039867e+01 2.962884e+01 4.619889e-01 1.502664e+00 1.296078e+00 2.744637e+00 2.308419e+00 2.194792e+00 2.971151e+00 2.760148e+00 2.990017e+00 2.644046e+00 2.613047e+00 2.389018e+00 1.556489e-03
<GCONST> 8.972681e+01
<MIXTURE> 54 7.368620e-03
<MEAN> 25
 -3.633763e+00 4.931015e-02 -6.831043e-01 8.036546e+00 6.483966e+00 4.625388e+00 4.675308e+00 4.601017e+00 4.053089e+00 3.593782e+00 4.457437e+00 2.326289e+00 -2.134394e-03 2.653750e-02 3.415723e-02 4.748301e-02 5.136784e-02 4.708114e-02 3.888415e-02 2.891869e-02 3.081477e-02 2.505788e-02 1.450798e-02 1.782236e-03 -1.219482e-05
<VARIANCE> 25
 9.137714e+00 1.036356e+01 9.296050e+00 1.818510e+01 1.332148e+01 1.353346e+01 1.197151e+01 1.128223e+01 1.134289e+01 1.354990e+01 1.780293e+01 1.253444e+01 4.087531e-02 8.734591e-02 1.540857e-01 2.265815e-01 3.079382e-01 3.969473e-01 4.608474e-01 5.215827e-01 5.420863e-01 5.211467e-01 5.144765e-01 5.164433e-01 9.999955e-07
<GCONST> 4.724859e+01
<MIXTURE> 55 7.368620e-03
<MEAN> 25
 -3.633763e+00 4.931015e-02 -6.831043e-01 8.036546e+00 6.483966e+00 4.625388e+00 4.675308e+00 4.601017e+00 4.053089e+00 3.593782e+00 4.457437e+00 2.326289e+00 -2.134394e-03 2.653750e-02 3.415723e-02 4.748301e-02 5.136784e-02 4.708114e-02 3.888415e-02 2.891869e-02 3.081477e-02 2.505788e-02 1.450798e-02 1.782236e-03 -1.219482e-05
<VARIANCE> 25
 9.137714e+00 1.036356e+01 9.296050e+00 1.818510e+01 1.332148e+01 1.353346e+01 1.197151e+01 1.128223e+01 1.134289e+01 1.354990e+01 1.780293e+01 1.253444e+01 4.087531e-02 8.734591e-02 1.540857e-01 2.265815e-01 3.079382e-01 3.969473e-01 4.608474e-01 5.215827e-01 5.420863e-01 5.211467e-01 5.144765e-01 5.164433e-01 9.999955e-07
<GCONST> 4.724859e+01
<MIXTURE> 56 6.132464e-03
<MEAN> 25
 7.408924e+00 -6.674581e+00 -8.880110e+00 -8.614882e+00 3.841707e+00 3.537977e+00 -2.400375e+00 -1.263962e+00 1.982259e+00 8.342093e-01 -2.086577e+00 -7.152500e+00 2.984676e-03 5.067719e-02 -1.138613e-01 1.528254e-02 2.842466e-01 8.783943e-02 9.656984e-02 -1.648573e-01 -5.317296e-02 2.945380e-02 -9.658589e-02 -1.922748e-02 -7.464459e-03
<VARIANCE> 25
 9.456510e+00 2.247020e+01 2.114684e+01 3.970304e+01 3.209085e+01 5.388877e+01 6.036388e+01 3.696820e+01 3.753610e+01 3.704973e+01 4.257430e+01 3.080017e+01 2.063574e-01 4.372274e-01 4.569863e-01 7.707086e-01 8.049889e-01 1.168207e+00 8.926603e-01 9.134751e-01 8.823332e-01 9.891559e-01 1.020234e+00 8.406261e-01 2.369693e-04
<GCONST> 7.526928e+01
<MIXTURE> 57 6.132464e-03
<MEAN> 25
 7.408924e+00 -6.674581e+00 -8.880110e+00 -8.614882e+00 3.841707e+00 3.537977e+00 -2.400375e+00 -1.263962e+00 1.982259e+00 8.342093e-01 -2.086577e+00 -7.152500e+00 2.984676e-03 5.067719e-02 -1.138613e-01 1.528254e-02 2.842466e-01 8.783943e-02 9.656984e-02 -1.648573e-01 -5.317296e-02 2.945380e-02 -9.658589e-02 -1.922748e-02 -7.464459e-03
<VARIANCE> 25
 9.456510e+00 2.247020e+01 2.114684e+01 3.970304e+01 3.209085e+01 5.388877e+01 6.036388e+01 3.696820e+01 3.753610e+01 3.704973e+01 4.257430e+01 3.080017e+01 2.063574e-01 4.372274e-01 4.569863e-01 7.707086e-01 8.049889e-01 1.168207e+00 8.926603e-01 9.134751e-01 8.823332e-01 9.891559e-01 1.020234e+00 8.406261e-01 2.369693e-04
<GCONST> 7.526928e+01
<MIXTURE> 58 6.172147e-03
<MEAN> 25
 2.649406e+00 -3.008231e+00 7.354887e+00 -4.788928e+00 -1.249535e+01 -5.151373e+00 1.291042e+00 8.166654e-01 -2.430751e+00 1.739071e+00 1.369845e-01 -9.838001e-01 -5.510481e-03 -1.612860e-01 -7.644942e-02 -1.001463e-01 -4.468231e-02 1.881033e-01 3.605470e-01 2.129160e-01 1.033083e-02 7.670739e-02 -9.392807e-02 -1.314699e-01 -2.176795e-03
<VARIANCE> 25
 7.008515e+00 1.433817e+01 1.875984e+01 2.923663e+01 3.169687e+01 4.640226e+01 3.310214e+01 3.222611e+01 3.148875e+01 3.062588e+01 2.527810e+01 1.939893e+01 3.009167e-01 8.377652e-01 7.368615e-01 1.034195e+00 8.684745e-01 1.198999e+00 1.178543e+00 1.278377e+00 1.043222e+00 1.095830e+00 8.976963e-01 8.834795e-01 7.380823e-04
<GCONST> 7.568792e+01
<MIXTURE> 59 6.172147e-03
<MEAN> 25
 2.649406e+00 -3.008231e+00 7.354887e+00 -4.788928e+00 -1.249535e+01 -5.151373e+00 1.291042e+00 8.166654e-01 -2.430751e+00 1.739071e+00 1.369845e-01 -9.838001e-01 -5.510481e-03 -1.612860e-01 -7.644942e-02 -1.001463e-01 -4.468231e-02 1.881033e-01 3.605470e-01 2.129160e-01 1.033083e-02 7.670739e-02 -9.392807e-02 -1.314699e-01 -2.176795e-03
<VARIANCE> 25
 7.008515e+00 1.433817e+01 1.875984e+01 2.923663e+01 3.169687e+01 4.640226e+01 3.310214e+01 3.222611e+01 3.148875e+01 3.062588e+01 2.527810e+01 1.939893e+01 3.009167e-01 8.377652e-01 7.368615e-01 1.034195e+00 8.684745e-01 1.198999e+00 1.178543e+00 1.278377e+00 1.043222e+00 1.095830e+00 8.976963e-01 8.834795e-01 7.380823e-04
<GCONST> 7.568792e+01
<MIXTURE> 60 4.479129e-03
<MEAN> 25
 -4.245843e+00 -5.981695e-01 -9.094759e-01 3.606933e+00 1.781734e+00 2.213282e+00 1.887630e+00 1.608961e+00 2.518857e+00 9.790279e-01 1.730998e+00 2.019318e+00 -4.122401e-02 7.833941e-02 8.955376e-02 1.223907e-01 1.089032e-01 1.065289e-01 1.927081e-01 3.156877e-01 5.793777e-01 7.141956e-01 5.548759e-01 3.527919e-01 -1.000703e-03
<VARIANCE> 25
 6.570572e+00 4.547767e+00 1.034751e+01 1.113173e+01 1.273178e+01 1.808658e+01 1.424494e+01 1.152640e+01 1.408007e+01 1.373403e+01 2.236717e+01 1.207376e+01 8.408466e-02 1.657062e-01 2.657628e-01 4.108922e-01 5.655312e-01 7.240239e-01 7.818512e-01 8.548136e-01 9.895197e-01 8.413147e-01 8.204190e-01 9.743315e-01 2.743788e-05
<GCONST> 5.679951e+01
<MIXTURE> 61 4.479129e-03
<MEAN> 25
 -4.245843e+00 -5.981695e-01 -9.094759e-01 3.606933e+00 1.781734e+00 2.213282e+00 1.887630e+00 1.608961e+00 2.518857e+00 9.790279e-01 1.730998e+00 2.019318e+00 -4.122401e-02 7.833941e-02 8.955376e-02 1.223907e-01 1.089032e-01 1.065289e-01 1.927081e-01 3.156877e-01 5.793777e-01 7.141956e-01 5.548759e-01 3.527919e-01 -1.000703e-03
<VARIANCE> 25
 6.570572e+00 4.547767e+00 1.034751e+01 1.113173e+01 1.273178e+01 1.808658e+01 1.424494e+01 1.152640e+01 1.408007e+01 1.373403e+01 2.236717e+01 1.207376e+01 8.408466e-02 1.657062e-01 2.657628e-01 4.108922e-01 5.655312e-01 7.240239e-01 7.818512e-01 8.548136e-01 9.895197e-01 8.413147e-01 8.204190e-01 9.743315e-01 2.743788e-05
<GCONST> 5.679951e+01
<MIXTURE> 62 3.278034e-03
<MEAN> 25
 -5.091019e+00 1.241182e+00 1.026283e+00 8.818705e+00 6.130887e+00 5.050744e+00 5.499562e+00 4.033832e+00 4.986200e+00 3.917873e+00 4.966334e+00 2.951101e+00 -1.003317e+00 -1.166688e+00 -9.532352e-01 -2.767703e-01 4.275867e-01 1.005156e+00 1.384676e+00 1.552247e+00 1.478741e+00 1.243483e+00 1.067129e+00 7.261131e-01 -1.264952e-03
<VARIANCE> 25
 9.872899e+00 9.958942e+00 1.311571e+01 1.673324e+01 1.741406e+01 1.752467e+01 1.970100e+01 1.911272e+01 1.886028e+01 1.872712e+01 2.156416e+01 1.479596e+01 4.017270e-01 4.320645e-01 5.541468e-01 7.793530e-01 1.035023e+00 1.192244e+00 1.252356e+00 1.279039e+00 1.329682e+00 1.363841e+00 1.400027e+00 1.371329e+00 1.632333e-05
<GCONST> 6.752594e+01
<MIXTURE> 63 4.351215e-03
<MEAN> 25
 -4.091321e+00 -1.761237e+00 -3.890923e+00 2.423843e+00 2.958026e+00 -6.431759e-01 2.875144e+00 1.262569e+00 2.670950e+00 -1.138581e+00 -1.457383e+00 2.767539e+00 -7.035235e-02 3.691211e-01 5.487313e-01 5.544068e-01 3.219434e-01 3.964317e-01 3.330211e-01 1.111950e-01 2.690065e-01 3.082427e-01 5.625270e-02 6.338909e-02 -6.466903e-03
<VARIANCE> 25
 7.664658e+00 1.580633e+01 1.743414e+01 1.584266e+01 1.608882e+01 2.484447e+01 2.309416e+01 2.494446e+01 2.058156e+01 2.054366e+01 2.662248e+01 1.318678e+01 2.233320e-01 4.881876e-01 6.804619e-01 6.688160e-01 8.585860e-01 1.305259e+00 1.289502e+00 1.218523e+00 1.541562e+00 1.406360e+00 1.746037e+00 1.036580e+00 2.138323e-04
<GCONST> 7.109921e+01
<MIXTURE> 64 4.351215e-03
<MEAN> 25
 -4.091321e+00 -1.761237e+00 -3.890923e+00 2.423843e+00 2.958026e+00 -6.431759e-01 2.875144e+00 1.262569e+00 2.670950e+00 -1.138581e+00 -1.457383e+00 2.767539e+00 -7.035235e-02 3.691211e-01 5.487313e-01 5.544068e-01 3.219434e-01 3.964317e-01 3.330211e-01 1.111950e-01 2.690065e-01 3.082427e-01 5.625270e-02 6.338909e-02 -6.466903e-03
<VARIANCE> 25
 7.664658e+00 1.580633e+01 1.743414e+01 1.584266e+01 1.608882e+01 2.484447e+01 2.309416e+01 2.494446e+01 2.058156e+01 2.054366e+01 2.662248e+01 1.318678e+01 2.233320e-01 4.881876e-01 6.804619e-01 6.688160e-01 8.585860e-01 1.305259e+00 1.289502e+00 1.218523e+00 1.541562e+00 1.406360e+00 1.746037e+00 1.036580e+00 2.138323e-04
<GCONST> 7.109921e+01
<MIXTURE> 65 1.721197e-02
<MEAN> 25
 6.976701e+00 1.398363e+00 2.548184e+00 6.273790e-01 -4.058130e+00 -2.817195e+00 -5.784247e+00 -6.301853e+00 -2.805289e+00 -1.714961e+00 -4.626235e+00 -1.516037e+00 1.915729e-01 1.195501e-01 1.637714e-03 2.528496e-01 -1.099893e-01 1.575573e-01 -9.394880e-02 -2.771106e-01 2.632333e-01 1.458414e-01 -4.198903e-02 -1.696103e-01 -3.491818e-03
<VARIANCE> 25
 1.070506e+01 2.070886e+01 2.337407e+01 3.181328e+01 3.221237e+01 5.365033e+01 4.789848e+01 5.107588e+01 4.688711e+01 4.854357e+01 5.299929e+01 3.870134e+01 4.540197e-01 9.941745e-01 1.523636e+00 1.599712e+00 1.734932e+00 1.841437e+00 2.424021e+00 2.503699e+00 2.106466e+00 2.138204e+00 2.470690e+00 1.743169e+00 5.399337e-04
<GCONST> 8.707459e+01
<MIXTURE> 66 1.191532e-02
<MEAN> 25
 6.392631e+00 -4.056864e+00 -4.982427e+00 -5.339300e+00 6.369891e-01 -3.920468e+00 -6.937166e+00 1.081662e+00 7.422589e-01 -9.398827e-01 -5.066882e+00 -3.382688e+00 -1.768520e-01 1.567772e+00 2.148753e+00 2.278643e+00 -8.010384e-01 -9.401289e-01 5.267181e-02 -5.778394e-01 1.777167e-01 -4.828939e-01 -7.222419e-01 1.244632e+00 -6.403443e-02
<VARIANCE> 25
 7.844337e+00 1.944422e+01 2.651762e+01 3.064772e+01 3.853805e+01 5.489960e+01 4.759515e+01 3.927858e+01 4.541578e+01 6.961877e+01 4.012053e+01 3.348933e+01 1.195109e+00 2.355321e+00 2.662223e+00 2.071166e+00 4.667920e+00 4.158006e+00 4.349559e+00 4.498988e+00 4.265020e+00 4.578883e+00 4.640350e+00 3.046985e+00 1.348346e-03
<GCONST> 9.582103e+01
<MIXTURE> 67 1.559142e-02
<MEAN> 25
 8.369880e+00 1.710383e+00 -5.800812e+00 -8.195211e+00 8.740849e-01 3.841241e+00 -4.053071e+00 -3.205263e+00 -3.002719e+00 2.444211e+00 1.238903e+00 -5.402300e-01 -1.122242e+00 1.676630e+00 9.846405e-01 3.085954e+00 1.295154e+00 -1.877709e-01 1.555836e+00 9.520874e-02 8.170728e-01 -1.700345e-01 -1.118463e+00 1.128545e+00 -1.193021e-01
<VARIANCE> 25
 1.013730e+01 3.046406e+01 2.306347e+01 4.696505e+01 4.004424e+01 5.231380e+01 4.849222e+01 4.516079e+01 4.993669e+01 5.011045e+01 4.908755e+01 4.606796e+01 1.676790e+00 2.956657e+00 2.743041e+00 3.438389e+00 3.766136e+00 3.800811e+00 4.205756e+00 4.120051e+00 5.269864e+00 4.115037e+00 5.502553e+00 3.471695e+00 2.538651e-03
<GCONST> 9.896391e+01
<MIXTURE> 68 1.485092e-02
<MEAN> 25
 -2.435569e+00 -2.435637e+00 -4.631291e+00 1.236624e+00 4.725543e+00 -1.074134e+00 2.438128e+00 6.589455e-01 1.723352e+00 8.833806e-01 6.466044e-01 1.485959e+00 2.755526e+00 5.331798e-01 -1.367220e-01 -2.667830e+00 -2.294487e+00 -1.182432e+00 -2.446128e+00 -1.680060e+00 -1.908377e+00 -1.110168e+00 -1.078787e+00 -1.203423e+00 1.060867e-01
<VARIANCE> 25
 2.439580e+01 2.877038e+01 5.476186e+01 4.601466e+01 4.266452e+01 4.946973e+01 4.115345e+01 4.680541e+01 3.649627e+01 4.217091e+01 3.498714e+01 2.363095e+01 1.693033e+00 3.281027e+00 5.464224e+00 5.364557e+00 4.223432e+00 6.125998e+00 5.129609e+00 4.426031e+00 4.828517e+00 5.539145e+00 9.617086e+00 3.162023e+00 5.535561e-03
<GCONST> 1.025802e+02
<MIXTURE> 69 1.204884e-02
<MEAN> 25
 4.661284e+00 -4.226026e+00 -3.546256e+00 -3.608053e+00 -3.496639e+00 -7.871289e+00 -1.109742e+00 2.218884e+00 -3.364378e-01 -4.722128e+00 -5.676671e+00 9.625388e-01 1.670484e+00 -2.234481e+00 -1.339711e+00 -2.237984e+00 -5.267085e-01 -3.521736e-01 -4.776041e-01 6.135057e-01 -6.392944e-01 -1.452665e+00 -2.194014e+00 -1.746751e-01 6.247944e-02
<VARIANCE> 25
 8.926475e+00 2.174871e+01 2.680852e+01 2.603272e+01 4.260412e+01 3.559570e+01 4.890315e+01 3.153351e+01 3.983904e+01 3.788171e+01 3.116616e+01 2.455861e+01 3.559756e+00 2.917990e+00 3.336635e+00 3.703345e+00 5.758616e+00 5.000301e+00 7.098441e+00 6.061003e+00 5.904972e+00 5.864841e+00 4.375691e+00 3.695585e+00 2.441095e-03
<GCONST> 9.867773e+01
<MIXTURE> 70 1.329190e-02
<MEAN> 25
 7.082190e+00 -1.596497e+00 -4.441246e+00 -4.465732e+00 -5.326704e-01 -5.833140e-02 -6.768438e+00 -4.342041e+00 -5.572649e-01 2.627337e+00 1.661886e+00 -4.680976e+00 1.946686e+00 -1.040233e+00 -8.547636e-01 -2.429359e+00 -1.455055e+00 1.214814e+00 -1.527987e+00 -1.147085e-02 -2.512949e-01 3.000077e-01 1.295400e+00 -1.396264e+00 6.372976e-02
<VARIANCE> 25
 9.390907e+00 2.015812e+01 2.789373e+01 4.709871e+01 3.039310e+01 4.141521e+01 4.893058e+01 3.852708e+01 4.624081e+01 2.953483e+01 5.632859e+01 2.550450e+01 3.207875e+00 2.814574e+00 4.200857e+00 4.708814e+00 4.791664e+00 5.898420e+00 5.969021e+00 6.422393e+00 6.815780e+00 5.051966e+00 7.095093e+00 3.775805e+00 2.421432e-03
<GCONST> 1.005168e+02
<MIXTURE> 71 1.406903e-02
<MEAN> 25
 6.088189e+00 4.937337e+00 4.044907e+00 2.566293e+00 -3.334483e+00 -2.699981e+00 -2.627916e+00 -6.778994e+00 -3.891457e+00 -2.339342e+00 -5.243292e+00 -2.751759e+00 -1.476154e+00 -5.592371e-01 -5.865756e-01 -1.766838e+00 1.054672e+00 -1.928656e-01 9.516157e-02 1.318473e+00 9.259123e-02 -4.679291e-02 1.154382e+00 1.088916e-01 3.941042e-02
<VARIANCE> 25
 1.764245e+01 2.372053e+01 2.218119e+01 4.329389e+01 3.640492e+01 4.049862e+01 4.323649e+01 4.012928e+01 3.909869e+01 3.935845e+01 3.253629e+01 3.246908e+01 1.682788e+00 2.940795e+00 5.889465e+00 4.545404e+00 4.326215e+00 4.256270e+00 4.418225e+00 5.257842e+00 4.282684e+00 3.772969e+00 5.345384e+00 2.954598e+00 1.306915e-03
<GCONST> 9.775396e+01
<MIXTURE> 72 8.134747e-03
<MEAN> 25
 3.772182e+00 -3.683863e+00 5.449830e+00 -2.418563e+00 -1.030628e+01 -9.542276e+00 -2.503734e+00 1.957235e+00 -4.939119e+00 -2.182647e+00 -1.654594e+00 5.680035e-01 9.168154e-01 -7.796983e-01 -2.555236e+00 4.379986e-01 2.114679e+00 -6.286843e-01 -1.302802e+00 1.502867e+00 1.822948e+00 -5.714813e-01 -1.275313e+00 3.746626e-01 -5.974584e-03
<VARIANCE> 25
 1.057474e+01 1.913915e+01 3.268577e+01 3.807284e+01 3.232300e+01 3.371012e+01 4.067729e+01 3.563312e+01 4.341524e+01 4.105088e+01 4.198481e+01 2.814351e+01 4.354380e-01 1.018156e+00 2.012874e+00 1.488471e+00 2.179303e+00 2.338705e+00 3.010029e+00 2.702699e+00 2.578420e+00 2.951448e+00 2.034062e+00 2.191126e+00 5.427581e-04
<GCONST> 8.723012e+01
<MIXTURE> 73 1.213625e-02
<MEAN> 25
 -5.257420e+00 -7.601197e-01 -1.608995e+00 4.010423e+00 3.709670e+00 2.180722e+00 5.862562e+00 3.249859e+00 4.779379e+00 3.178955e+00 3.489421e+00 3.162989e+00 5.287162e-01 -1.083745e+00 -1.392392e+00 -2.505480e+00 -1.212321e+00 -1.696947e+00 -7.857299e-01 -7.268801e-01 -9.539905e-01 -7.922367e-01 -3.211507e-01 -2.163016e-01 1.424804e-01
<VARIANCE> 25
 1.199681e+01 1.192206e+01 1.525548e+01 2.421642e+01 2.203466e+01 2.198171e+01 1.834532e+01 1.963526e+01 1.659570e+01 1.944811e+01 2.441418e+01 1.393908e+01 4.026569e+00 2.772645e+00 6.340061e+00 4.158588e+00 5.345940e+00 4.042778e+00 3.892436e+00 3.923346e+00 3.434924e+00 3.808858e+00 6.454517e+00 2.433887e+00 4.523068e-03
<GCONST> 9.190925e+01
<MIXTURE> 74 1.756491e-02
<MEAN> 25
 4.536652e+00 -1.885501e+00 5.242167e+00 -8.391660e-01 -7.939840e+00 -7.320942e+00 -2.839073e+00 6.767759e-01 -4.147262e+00 -2.783627e+00 -8.388092e-01 -3.239487e-02 2.556678e-01 1.878118e+00 6.406525e-05 1.507786e+00 1.342975e+00 4.824257e-01 1.177491e-01 -1.310069e+00 4.641788e-01 3.166237e-01 -8.221186e-01 -6.080863e-02 -7.517400e-02
<VARIANCE> 25
 9.986012e+00 1.949989e+01 3.327660e+01 3.689528e+01 3.555183e+01 4.159115e+01 4.494804e+01 3.994881e+01 4.326480e+01 4.172985e+01 4.704237e+01 3.020753e+01 1.796715e+00 1.890546e+00 3.656257e+00 2.520669e+00 3.529036e+00 3.577767e+00 4.618273e+00 3.714606e+00 4.160429e+00 3.897593e+00 5.541711e+00 2.893708e+00 1.570970e-03
<GCONST> 9.580775e+01
<MIXTURE> 75 9.711651e-03
<MEAN> 25
 2.584824e+00 -1.263895e+00 1.057191e+01 1.355316e+00 -1.038238e+01 -7.710316e+00 -3.450947e+00 2.545630e-01 -7.262565e+00 -4.615928e+00 5.536188e+00 -6.284118e-01 1.793056e+00 -1.873711e+00 3.370424e-01 -3.623221e-01 -2.353210e+00 -6.326587e-01 -1.851015e+00 7.202207e-01 -3.217807e-01 -2.721652e-01 1.919415e+00 -5.572717e-01 4.711868e-02
<VARIANCE> 25
 8.236599e+00 1.451454e+01 2.644366e+01 2.115219e+01 2.450923e+01 2.746930e+01 3.035582e+01 2.352135e+01 4.621417e+01 2.418748e+01 2.927559e+01 1.857150e+01 2.161052e+00 1.495004e+00 3.568253e+00 2.146914e+00 3.180790e+00 3.531450e+00 3.784404e+00 2.639401e+00 4.709558e+00 3.345117e+00 4.773911e+00 1.955683e+00 1.370742e-03
<GCONST> 8.978566e+01
<MIXTURE> 76 1.052359e-02
<MEAN> 25
 -5.102085e+00 -1.862438e+00 -2.747061e+00 3.360392e+00 3.633459e+00 6.751367e-01 3.660019e+00 1.568614e+00 2.715405e+00 4.797253e-03 4.498731e-01 2.322115e+00 -2.968051e-01 -6.722208e-01 -4.793826e-01 -3.646834e-01 -2.382346e-01 -9.496144e-01 -5.952297e-01 -3.300240e-01 -7.007565e-01 -4.024891e-01 2.570482e-02 -5.055560e-01 2.518437e-02
<VARIANCE> 25
 3.148702e+01 2.179781e+01 3.409480e+01 2.788716e+01 2.441986e+01 2.800012e+01 2.586523e+01 2.903013e+01 2.104884e+01 2.016353e+01 3.828967e+01 1.724237e+01 9.487268e-01 1.116564e+00 1.387995e+00 1.302648e+00 1.554556e+00 1.484126e+00 1.956874e+00 1.557937e+00 1.381029e+00 1.824727e+00 1.314743e+00 1.117986e+00 1.058072e-03
<GCONST> 8.208646e+01
<MIXTURE> 77 1.244626e-02
<MEAN> 25
 -2.856183e-01 7.912849e+00 1.192676e+01 -1.084078e+01 -6.537148e+00 1.124426e+00 -9.050494e+00 -6.579693e+00 -3.385029e+00 1.101117e-01 -4.708491e+00 -1.627926e+00 7.362385e-02 1.482482e-01 5.534280e-02 2.830146e-01 1.500958e-02 4.236727e-02 -7.881188e-02 -6.859058e-02 1.320994e-01 1.939595e-03 -4.379909e-02 1.262110e-01 -1.022720e-02
<VARIANCE> 25
 1.003660e+01 2.381318e+01 2.863237e+01 4.480954e+01 3.281200e+01 3.177968e+01 3.455724e+01 3.552831e+01 3.335601e+01 3.291081e+01 3.550236e+01 3.273123e+01 2.886797e-01 7.498622e-01 6.575860e-01 1.057881e+00 1.233139e+00 9.496489e-01 1.295271e+00 1.066133e+00 1.027953e+00 1.078211e+00 9.902539e-01 8.795187e-01 5.095299e-04
<GCONST> 7.767200e+01
<MIXTURE> 78 9.702551e-03
<MEAN> 25
 -1.078065e+01 1.003819e+00 -1.912047e+00 2.327313e+00 4.447781e+00 -2.065894e+00 3.671312e+00 2.757437e+00 3.157319e+00 1.695731e-01 -1.131009e+00 2.888101e+00 2.085086e+00 -1.737860e-01 3.222653e-01 5.075797e-01 -2.957384e-02 1.638828e-01 -1.959772e-01 -6.994799e-02 2.461650e-01 9.003945e-02 -5.711865e-01 -4.269166e-01 -5.935293e-02
<VARIANCE> 25
 4.027625e+01 3.311997e+01 3.136111e+01 3.185288e+01 3.558158e+01 3.351329e+01 3.303958e+01 3.054388e+01 2.815973e+01 2.732052e+01 3.442408e+01 1.808330e+01 4.874139e+00 2.493971e+00 2.932790e+00 3.016433e+00 2.608839e+00 3.384552e+00 3.124771e+00 2.742280e+00 2.520599e+00 2.117826e+00 2.655823e+00 1.914560e+00 4.269102e-03
<GCONST> 9.397835e+01
<MIXTURE> 79 1.156824e-02
<MEAN> 25
 2.481748e+00 1.458107e+00 9.097174e+00 -6.224549e+00 -1.154043e+01 -1.630197e+00 -2.058131e+00 -6.062851e+00 -6.398245e+00 7.301411e-01 -3.833293e+00 -3.302504e+00 1.152485e+00 -4.082007e-01 -1.420061e+00 2.326275e+00 3.813068e-01 -1.468166e+00 6.454935e-01 7.740305e-01 -4.146427e-01 -5.099615e-01 3.943893e-01 3.106719e-01 -3.583407e-02
<VARIANCE> 25
 1.354342e+01 2.310813e+01 3.605214e+01 4.950846e+01 3.600884e+01 4.182228e+01 4.089658e+01 3.771090e+01 3.775164e+01 4.066932e+01 4.334365e+01 2.907424e+01 9.670075e-01 2.361384e+00 1.816675e+00 2.015506e+00 2.339520e+00 2.664543e+00 3.224627e+00 3.541227e+00 2.389188e+00 2.606319e+00 2.267197e+00 1.948795e+00 1.169491e-03
<GCONST> 9.126612e+01
<MIXTURE> 80 7.550998e-03
<MEAN> 25
 -1.450034e+01 4.463727e+00 -4.221762e-01 2.491696e+00 2.344804e+00 1.087589e+00 7.216557e+00 2.884614e+00 2.909740e+00 1.728703e+00 4.699797e+00 1.064594e+00 4.204959e+00 -2.851948e-01 1.963630e+00 -1.053970e+00 -2.632512e+00 -3.041551e+00 -2.340579e+00 -1.655927e+00 -2.123737e+00 -1.598591e+00 -1.277544e+00 -5.803283e-01 -3.716678e-02
<VARIANCE> 25
 1.873286e+01 1.810804e+01 3.607871e+01 3.025026e+01 2.534773e+01 2.783033e+01 2.656769e+01 2.519055e+01 2.526956e+01 3.254699e+01 2.294924e+01 1.541462e+01 2.214912e+00 2.653441e+00 2.765507e+00 3.504159e+00 3.275946e+00 2.764967e+00 2.743015e+00 3.383091e+00 2.515914e+00 2.300128e+00 3.046725e+00 1.845675e+00 1.503368e-03
<GCONST> 8.987083e+01
<MIXTURE> 81 8.025434e-03
<MEAN> 25
 -1.101248e+00 4.038182e+00 1.016717e+01 -1.476341e+01 -9.051472e+00 -1.394876e+00 -6.767800e+00 -8.399948e+00 -4.137031e+00 -4.208371e-01 -7.571694e+00 -2.244745e+00 1.338724e-01 -5.824053e-01 -1.367130e-03 -5.509927e-01 -4.592654e-01 3.333190e-01 3.188441e-01 1.336713e-01 -1.368349e-01 1.088034e-01 -4.709141e-01 -1.242382e-01 1.137987e-02
<VARIANCE> 25
 1.019940e+01 3.293152e+01 2.639351e+01 2.960433e+01 3.380636e+01 3.062524e+01 4.528994e+01 2.836606e+01 3.798320e+01 3.192602e+01 2.521863e+01 3.095196e+01 7.699802e-01 2.276954e+00 1.548244e+00 2.872397e+00 2.664952e+00 2.120477e+00 3.277559e+00 2.284566e+00 2.353021e+00 2.535740e+00 2.292717e+00 2.071444e+00 1.183606e-03
<GCONST> 8.868986e+01
<MIXTURE> 82 8.213053e-03
<MEAN> 25
 -9.903356e+00 -3.877327e+00 1.573128e+00 -2.932428e+00 3.086872e+00 6.447650e-01 2.047845e+00 9.222524e-01 2.993432e+00 1.678158e+00 1.683860e+00 3.065217e+00 -1.295949e+00 -1.233568e-01 2.621267e-01 -2.593390e+00 -1.099053e+00 -1.250699e+00 -1.020744e+00 -8.756768e-01 -3.342077e-01 -4.708343e-01 -2.752881e-01 -1.076411e-01 1.774203e-01
<VARIANCE> 25
 1.818655e+01 2.481956e+01 3.250751e+01 3.072762e+01 3.280135e+01 3.204914e+01 3.176857e+01 3.286111e+01 3.061027e+01 2.530512e+01 3.083771e+01 1.740399e+01 3.779361e+00 3.031917e+00 3.363217e+00 3.250651e+00 3.533098e+00 3.282961e+00 2.930449e+00 2.990780e+00 2.803200e+00 2.477408e+00 2.589790e+00 1.867799e+00 3.490903e-03
<GCONST> 9.312099e+01
<MIXTURE> 83 1.167529e-02
<MEAN> 25
 -1.992151e+01 5.559678e+00 -1.957766e+00 -3.689170e-01 7.686597e+00 -1.258293e+00 5.426284e+00 3.008847e+00 1.129449e+00 2.018525e+00 7.888672e-01 2.852533e+00 -3.480636e-02 -4.449408e-01 -5.436934e-03 -3.700678e-01 -4.455963e-01 -1.242039e-01 -7.413166e-02 -8.857395e-02 -2.166974e-03 -4.532337e-02 -6.471447e-03 -2.594305e-02 4.720930e-03
<VARIANCE> 25
 9.252046e+00 1.622917e+01 2.912407e+01 2.210760e+01 2.173091e+01 2.372262e+01 2.162741e+01 2.292981e+01 2.080338e+01 2.329112e+01 2.292936e+01 1.424461e+01 1.049847e+00 9.177570e-01 1.226515e+00 1.050304e+00 1.455814e+00 1.284317e+00 1.418149e+00 1.367208e+00 1.402105e+00 1.286147e+00 1.234466e+00 1.054668e+00 8.859045e-04
<GCONST> 7.717819e+01
<MIXTURE> 84 1.066614e-02
<MEAN> 25
 1.263582e+00 8.678792e+00 7.108242e+00 7.783427e+00 2.669323e+00 -8.354754e-01 -1.043899e+00 -4.096560e+00 -4.083879e+00 -2.531036e+00 -2.398225e+00 -1.326871e+00 -1.689540e+00 -1.126871e+00 -1.071447e+00 1.250690e+00 2.131332e+00 1.426564e+00 1.434566e+00 1.336790e+00 1.244638e+00 1.888910e-01 3.406387e-01 4.590530e-01 -6.914527e-02
<VARIANCE> 25
 2.192248e+01 1.844459e+01 2.089897e+01 2.307367e+01 2.757297e+01 2.713901e+01 2.873918e+01 2.708998e+01 2.397125e+01 2.557964e+01 2.210788e+01 2.379174e+01 2.073694e+00 2.515744e+00 3.809571e+00 3.096334e+00 3.222572e+00 3.236652e+00 3.187195e+00 3.326257e+00 3.485918e+00 3.623476e+00 3.662025e+00 2.644732e+00 3.357354e-03
<GCONST> 9.202227e+01
<MIXTURE> 85 7.591393e-03
<MEAN> 25
 -3.073405e+00 8.011983e+00 5.399463e+00 1.347629e+00 -3.384544e+00 -5.318319e+00 -2.788199e+00 -6.215177e+00 -3.263675e+00 -3.220632e+00 -3.846565e-01 -1.890282e+00 3.916957e+00 2.880275e-01 1.759789e+00 -2.043541e+00 -3.333179e+00 -2.524144e+00 -2.868729e+00 -2.337460e+00 -2.268956e+00 -1.223436e+00 -2.201141e+00 -5.959370e-01 7.840933e-03
<VARIANCE> 25
 4.117318e+01 2.361596e+01 3.836231e+01 3.697868e+01 3.871371e+01 3.989779e+01 3.225267e+01 2.827887e+01 2.865219e+01 2.534730e+01 2.559086e+01 2.002676e+01 2.655870e+00 4.258805e+00 3.928159e+00 5.064781e+00 4.437548e+00 3.904175e+00 3.779146e+00 3.874436e+00 3.737190e+00 3.961029e+00 4.104357e+00 3.409256e+00 5.344772e-03
<GCONST> 9.812354e+01
<MIXTURE> 86 1.273941e-02
<MEAN> 25
 -4.961419e+00 -1.213514e+00 -7.922733e-01 6.313606e+00 5.001081e+00 4.669660e+00 5.287869e+00 4.550344e+00 4.676067e+00 3.906348e+00 5.272254e+00 2.724291e+00 -8.600430e-03 -9.276257e-03 -3.939817e-02 -6.169220e-02 -1.169837e-01 -1.926641e-01 -2.642633e-01 -3.242382e-01 -3.546076e-01 -3.150487e-01 -2.296184e-01 -1.069316e-01 -5.741296e-04
<VARIANCE> 25
 7.936405e+00 5.600502e+00 1.001458e+01 1.231553e+01 1.582000e+01 1.426451e+01 1.372316e+01 1.324017e+01 1.323785e+01 1.425949e+01 1.527508e+01 1.285400e+01 9.986474e-02 1.929586e-01 3.171134e-01 4.843667e-01 6.327775e-01 7.436945e-01 7.480009e-01 7.688276e-01 8.266194e-01 8.822640e-01 9.064943e-01 9.063325e-01 5.326239e-05
<GCONST> 5.821581e+01
<MIXTURE> 87 1.100681e-02
<MEAN> 25
 -3.171910e+00 4.362799e+00 3.515193e+00 6.960831e+00 5.373665e+00 7.776470e-01 1.761861e+00 -6.076808e-01 -3.038865e-01 -9.546346e-01 -1.071235e+00 1.491971e-01 -2.123945e+00 -2.757337e+00 -2.117784e+00 -2.147335e+00 -1.765881e-02 -2.294351e-01 5.551909e-01 1.270504e+00 1.415447e+00 9.590243e-01 9.147155e-01 9.512614e-01 1.008400e-01
<VARIANCE> 25
 3.700618e+01 2.932067e+01 2.744229e+01 3.306104e+01 2.879030e+01 3.116220e+01 2.758556e+01 2.943134e+01 2.710009e+01 2.492157e+01 2.584953e+01 2.262733e+01 3.743534e+00 2.675380e+00 3.825710e+00 3.648477e+00 4.622782e+00 4.205974e+00 4.062488e+00 3.856829e+00 3.563505e+00 3.428233e+00 3.512444e+00 2.680445e+00 5.071527e-03
<GCONST> 9.625237e+01
<MIXTURE> 88 1.256585e-02
<MEAN> 25
 -4.214942e+00 -1.221207e+00 -1.070315e+00 4.644630e+00 4.293190e+00 3.183508e+00 4.833650e+00 3.243545e+00 4.427355e+00 1.227935e+00 -1.253499e+00 2.292301e+00 -1.389782e-01 2.146718e-01 1.433980e-01 3.079128e-01 1.965160e-01 3.692367e-01 2.182366e-01 -1.816061e-01 -5.317682e-01 -2.151617e-01 -1.570514e-01 -3.081563e-01 -1.714217e-03
<VARIANCE> 25
 8.237013e+00 8.463991e+00 1.188983e+01 1.330278e+01 1.761597e+01 1.586937e+01 2.549640e+01 1.618533e+01 1.805590e+01 1.957714e+01 4.125640e+01 1.271785e+01 1.091656e+00 1.554539e+00 2.464042e+00 1.768983e+00 1.878424e+00 2.384518e+00 2.027235e+00 2.236131e+00 2.081623e+00 1.924787e+00 3.100629e+00 1.697132e+00 1.846259e-03
<GCONST> 8.080737e+01
<MIXTURE> 89 9.333527e-03
<MEAN> 25
 6.048067e+00 -6.733688e+00 -3.391996e+00 -3.076560e+00 -1.573235e+00 -5.506388e+00 -6.017457e+00 4.011109e+00 3.424108e+00 -2.814070e+00 -6.031815e+00 -3.228159e+00 -5.687340e-01 1.386874e-01 1.975729e+00 9.128067e-01 -1.848762e+00 -1.634466e+00 8.649445e-01 1.268371e+00 -7.847255e-01 -1.301845e+00 3.891397e-01 1.523174e+00 -4.546335e-03
<VARIANCE> 25
 8.912275e+00 2.710764e+01 3.243047e+01 3.040247e+01 3.565939e+01 4.155894e+01 5.951392e+01 4.198518e+01 3.866084e+01 4.184229e+01 3.530806e+01 3.212934e+01 3.493734e-01 8.545937e-01 1.473715e+00 1.306527e+00 1.925858e+00 2.116807e+00 2.579663e+00 2.024860e+00 2.222412e+00 2.113902e+00 2.316721e+00 1.471931e+00 3.730889e-04
<GCONST> 8.526010e+01
<MIXTURE> 90 7.114505e-03
<MEAN> 25
 2.421907e+00 -9.676240e+00 -4.721574e+00 -3.963852e+00 -3.366600e+00 -1.803026e+00 3.360832e+00 1.197051e+00 -7.488158e+00 -1.018736e+01 -3.454397e+00 -7.381431e-01 -1.614755e-01 9.111001e-01 1.164597e+00 -8.516222e-01 -1.608573e+00 -2.160413e-01 6.428612e-01 -2.137761e-01 -1.638305e-01 7.425786e-01 1.913155e-01 -5.468604e-01 -1.113695e-02
<VARIANCE> 25
 8.679632e+00 1.812831e+01 1.994618e+01 2.797244e+01 3.674402e+01 3.214280e+01 3.848389e+01 3.634149e+01 3.542890e+01 2.777442e+01 2.705987e+01 2.600241e+01 2.235771e-01 6.109900e-01 7.876154e-01 1.046283e+00 1.469737e+00 1.599342e+00 1.776112e+00 1.649268e+00 1.807375e+00 1.678398e+00 1.507917e+00 1.305940e+00 2.171719e-04
<GCONST> 7.819267e+01
<MIXTURE> 91 7.852945e-03
<MEAN> 25
 6.332918e+00 -7.439692e+00 -7.879535e+00 -5.349979e+00 3.796298e+00 4.747219e-02 -2.453722e+00 6.630480e-01 7.038989e-01 -2.186036e+00 -4.469274e+00 -5.064265e+00 2.267633e-01 1.028674e+00 1.156068e-01 4.743776e-01 -4.686510e-02 -5.686380e-01 -3.221799e-01 -1.284315e-01 -6.660622e-02 5.071878e-01 -1.606514e-01 2.002831e-01 -3.510441e-02
<VARIANCE> 25
 9.529879e+00 2.144899e+01 2.488114e+01 3.828321e+01 3.307900e+01 5.361054e+01 5.143113e+01 3.747705e+01 4.865292e+01 6.839468e+01 4.000843e+01 3.940274e+01 4.440089e-01 8.472633e-01 1.172571e+00 1.333055e+00 2.060932e+00 2.363722e+00 2.287334e+00 2.321912e+00 2.135895e+00 2.148428e+00 1.932351e+00 1.785050e+00 5.586974e-04
<GCONST> 8.663780e+01
<MIXTURE> 92 7.852945e-03
<MEAN> 25
 6.332918e+00 -7.439692e+00 -7.879535e+00 -5.349979e+00 3.796298e+00 4.747219e-02 -2.453722e+00 6.630480e-01 7.038989e-01 -2.186036e+00 -4.469274e+00 -5.064265e+00 2.267633e-01 1.028674e+00 1.156068e-01 4.743776e-01 -4.686510e-02 -5.686380e-01 -3.221799e-01 -1.284315e-01 -6.660622e-02 5.071878e-01 -1.606514e-01 2.002831e-01 -3.510441e-02
<VARIANCE> 25
 9.529879e+00 2.144899e+01 2.488114e+01 3.828321e+01 3.307900e+01 5.361054e+01 5.143113e+01 3.747705e+01 4.865292e+01 6.839468e+01 4.000843e+01 3.940274e+01 4.440089e-01 8.472633e-01 1.172571e+00 1.333055e+00 2.060932e+00 2.363722e+00 2.287334e+00 2.321912e+00 2.135895e+00 2.148428e+00 1.932351e+00 1.785050e+00 5.586974e-04
<GCONST> 8.663780e+01
<MIXTURE> 93 6.122769e-03
<MEAN> 25
 -6.825299e+00 -9.608995e-01 -2.399610e+00 5.794598e+00 5.906983e+00 3.923326e+00 6.123715e+00 3.609548e+00 4.120401e+00 2.504006e+00 1.812647e+00 3.704507e+00 -6.127126e-02 -1.542448e-01 -2.567418e-01 -3.310735e-01 -3.342474e-01 -2.848495e-01 -2.185560e-01 -1.741930e-01 -1.665275e-01 -1.510764e-01 -1.042445e-01 -3.493246e-02 -3.933261e-06
<VARIANCE> 25
 9.089237e+00 6.024535e+00 8.192619e+00 1.138430e+01 1.148912e+01 1.597395e+01 1.526785e+01 1.643498e+01 1.475049e+01 1.458393e+01 1.683584e+01 1.344453e+01 8.291718e-02 1.533185e-01 2.643025e-01 3.810571e-01 4.979033e-01 6.422211e-01 7.799764e-01 8.868235e-01 9.161714e-01 8.759589e-01 8.918940e-01 9.180453e-01 9.994508e-07
<GCONST> 5.361077e+01
<MIXTURE> 94 6.122769e-03
<MEAN> 25
 -6.825299e+00 -9.608995e-01 -2.399610e+00 5.794598e+00 5.906983e+00 3.923326e+00 6.123715e+00 3.609548e+00 4.120401e+00 2.504006e+00 1.812647e+00 3.704507e+00 -6.127126e-02 -1.542448e-01 -2.567418e-01 -3.310735e-01 -3.342474e-01 -2.848495e-01 -2.185560e-01 -1.741930e-01 -1.665275e-01 -1.510764e-01 -1.042445e-01 -3.493246e-02 -3.933261e-06
<VARIANCE> 25
 9.089237e+00 6.024535e+00 8.192619e+00 1.138430e+01 1.148912e+01 1.597395e+01 1.526785e+01 1.643498e+01 1.475049e+01 1.458393e+01 1.683584e+01 1.344453e+01 8.291718e-02 1.533185e-01 2.643025e-01 3.810571e-01 4.979033e-01 6.422211e-01 7.799764e-01 8.868235e-01 9.161714e-01 8.759589e-01 8.918940e-01 9.180453e-01 9.994508e-07
<GCONST> 5.361077e+01
<MIXTURE> 95 5.258835e-03
<MEAN> 25
 -5.713357e+00 -7.676161e-01 -2.011663e+00 4.810324e+00 4.209195e+00 2.860313e+00 4.049407e+00 1.573136e+00 2.242783e+00 9.041187e-01 1.206886e+00 2.616478e+00 1.417685e-01 1.345416e-01 9.204625e-02 -5.607856e-02 -3.787232e-01 -7.460963e-01 -1.063138e+00 -1.245932e+00 -1.245102e+00 -9.685264e-01 -6.300831e-01 -3.147535e-01 -1.942784e-04
<VARIANCE> 25
 1.085735e+01 6.405997e+00 1.233935e+01 1.282185e+01 1.368460e+01 1.800593e+01 1.891447e+01 1.741007e+01 1.519737e+01 1.621153e+01 2.096926e+01 1.411138e+01 2.095542e-01 2.964420e-01 4.484119e-01 6.463576e-01 7.903261e-01 9.267854e-01 8.966800e-01 9.561357e-01 9.688952e-01 1.084278e+00 1.149450e+00 1.125057e+00 4.137483e-05
<GCONST> 6.348500e+01
<MIXTURE> 96 7.034694e-03
<MEAN> 25
 -4.763374e+00 -4.962229e-01 -1.909097e+00 5.080289e+00 3.686470e+00 1.740716e+00 3.396471e+00 1.607244e+00 2.429561e+00 8.934005e-01 9.636387e-01 2.755963e+00 -3.630098e-02 7.806791e-02 2.311954e-01 3.977999e-01 5.407828e-01 4.973337e-01 2.149736e-01 -1.351893e-01 -4.080516e-01 -6.477972e-01 -6.849610e-01 -3.216768e-01 -5.675474e-06
<VARIANCE> 25
 1.343653e+01 9.474720e+00 1.526051e+01 1.394608e+01 1.526838e+01 1.891510e+01 1.798933e+01 1.963284e+01 1.740590e+01 1.612083e+01 1.990481e+01 1.416389e+01 1.179293e-01 2.123526e-01 3.127950e-01 3.847024e-01 4.790931e-01 6.378946e-01 8.627386e-01 9.624979e-01 9.999673e-01 8.344511e-01 1.020678e+00 9.572681e-01 9.670430e-07
<GCONST> 5.773608e+01
<MIXTURE> 97 7.034694e-03
<MEAN> 25
 -4.763374e+00 -4.962229e-01 -1.909097e+00 5.080289e+00 3.686470e+00 1.740716e+00 3.396471e+00 1.607244e+00 2.429561e+00 8.934005e-01 9.636387e-01 2.755963e+00 -3.630098e-02 7.806791e-02 2.311954e-01 3.977999e-01 5.407828e-01 4.973337e-01 2.149736e-01 -1.351893e-01 -4.080516e-01 -6.477972e-01 -6.849610e-01 -3.216768e-01 -5.675474e-06
<VARIANCE> 25
 1.343653e+01 9.474720e+00 1.526051e+01 1.394608e+01 1.526838e+01 1.891510e+01 1.798933e+01 1.963284e+01 1.740590e+01 1.612083e+01 1.990481e+01 1.416389e+01 1.179293e-01 2.123526e-01 3.127950e-01 3.847024e-01 4.790931e-01 6.378946e-01 8.627386e-01 9.624979e-01 9.999673e-01 8.344511e-01 1.020678e+00 9.572681e-01 9.670430e-07
<GCONST> 5.773608e+01
<MIXTURE> 98 9.917808e-03
<MEAN> 25
 -8.838311e-01 1.376744e+00 1.012606e+00 4.399929e+00 3.387322e+00 2.087533e+00 3.487116e+00 2.627723e+00 2.466613e+00 6.098124e-01 -1.500421e+00 1.537908e+00 -1.765246e+00 -1.432991e+00 -9.777630e-01 1.928544e-01 5.110965e-01 3.513940e-01 1.020564e+00 1.494027e+00 1.869382e+00 3.910479e-01 6.975595e-01 7.276247e-01 -3.070782e-02
<VARIANCE> 25
 1.196719e+01 1.611213e+01 2.828656e+01 2.710862e+01 3.325880e+01 3.256287e+01 2.425397e+01 3.207568e+01 2.724168e+01 2.742493e+01 3.323901e+01 1.877095e+01 1.122803e+00 1.720106e+00 2.244536e+00 1.954847e+00 2.263714e+00 2.745502e+00 2.807265e+00 2.269785e+00 2.457122e+00 3.337884e+00 3.108984e+00 1.701173e+00 2.037774e-03
<GCONST> 8.793726e+01
<MIXTURE> 99 6.696178e-03
<MEAN> 25
 -4.661300e+00 9.135563e+00 5.376784e+00 3.479693e+00 9.000765e-01 -4.821969e+00 -1.010580e+00 -5.051326e+00 -2.486018e+00 -3.491633e+00 -1.128895e+00 3.833763e-01 5.897942e-01 -8.409027e-01 4.391222e-01 -2.766133e-01 -9.325993e-01 -4.741532e-01 -4.995422e-01 -1.806820e-01 -2.937054e-01 3.762249e-02 2.628842e-01 1.108001e-01 8.519811e-03
<VARIANCE> 25
 3.751777e+01 2.597996e+01 4.579709e+01 2.639186e+01 2.853501e+01 2.872512e+01 2.720486e+01 3.189501e+01 2.604226e+01 2.237245e+01 2.076326e+01 2.404937e+01 1.976161e+00 1.669582e+00 1.259288e+00 1.546367e+00 2.285196e+00 1.848044e+00 1.632426e+00 1.718679e+00 1.714861e+00 1.293126e+00 1.139913e+00 1.322858e+00 1.525210e-03
<GCONST> 8.503583e+01
<MIXTURE> 100 4.498084e-03
<MEAN> 25
 -1.598813e+00 6.345057e+00 1.027580e+01 -7.461846e+00 -1.078113e+01 -5.075035e+00 -4.940844e+00 -9.968730e+00 -4.717238e+00 -8.553070e-01 -2.732770e+00 -2.707903e+00 2.917840e+00 -1.260503e+00 1.299673e+00 -2.185865e+00 -3.419245e+00 -7.840812e-01 -1.218910e+00 -8.198562e-01 -1.475656e+00 3.467569e-01 -1.655404e+00 -2.860712e-01 2.011395e-03
<VARIANCE> 25
 1.362555e+01 2.105814e+01 2.247597e+01 2.643403e+01 2.302597e+01 2.372049e+01 2.911646e+01 2.170518e+01 2.749104e+01 2.265058e+01 2.241255e+01 2.134094e+01 1.799011e+00 3.953476e+00 2.919707e+00 4.285999e+00 4.184722e+00 4.536834e+00 4.015329e+00 4.340065e+00 4.167874e+00 3.895784e+00 3.910556e+00 3.225091e+00 1.674880e-03
<GCONST> 9.256964e+01
<MIXTURE> 101 6.007792e-03
<MEAN> 25
 7.723489e+00 -3.812313e+00 -5.595712e+00 -6.853764e+00 8.569915e-01 -1.215875e+00 -9.933261e+00 -1.657258e+00 1.590672e+00 3.110276e+00 -1.288628e+00 -4.963040e+00 6.596258e-01 5.922987e-01 -1.412613e+00 -1.688111e+00 1.046538e+00 2.076923e+00 1.234943e-01 -1.358520e+00 -9.121938e-01 1.201909e+00 1.293564e+00 -5.780609e-01 -4.193153e-03
<VARIANCE> 25
 9.072312e+00 1.500603e+01 2.880485e+01 3.778146e+01 3.104275e+01 3.984077e+01 3.412911e+01 3.495998e+01 3.364624e+01 3.876219e+01 5.343827e+01 2.531071e+01 2.809538e-01 6.249614e-01 1.068552e+00 1.902290e+00 1.507858e+00 2.219857e+00 1.853966e+00 1.840696e+00 2.168907e+00 2.135639e+00 1.874611e+00 1.980708e+00 3.274824e-04
<GCONST> 8.266679e+01
<MIXTURE> 102 6.007792e-03
<MEAN> 25
 7.723489e+00 -3.812313e+00 -5.595712e+00 -6.853764e+00 8.569915e-01 -1.215875e+00 -9.933261e+00 -1.657258e+00 1.590672e+00 3.110276e+00 -1.288628e+00 -4.963040e+00 6.596258e-01 5.922987e-01 -1.412613e+00 -1.688111e+00 1.046538e+00 2.076923e+00 1.234943e-01 -1.358520e+00 -9.121938e-01 1.201909e+00 1.293564e+00 -5.780609e-01 -4.193153e-03
<VARIANCE> 25
 9.072312e+00 1.500603e+01 2.880485e+01 3.778146e+01 3.104275e+01 3.984077e+01 3.412911e+01 3.495998e+01 3.364624e+01 3.876219e+01 5.343827e+01 2.531071e+01 2.809538e-01 6.249614e-01 1.068552e+00 1.902290e+00 1.507858e+00 2.219857e+00 1.853966e+00 1.840696e+00 2.168907e+00 2.135639e+00 1.874611e+00 1.980708e+00 3.274824e-04
<GCONST> 8.266679e+01
<MIXTURE> 103 5.694618e-03
<MEAN> 25
 3.331115e+00 -9.444430e+00 -6.082066e+00 -3.030564e+00 -1.298903e+00 -1.981578e+00 2.428068e+00 2.517642e+00 -4.552290e+00 -9.204173e+00 -5.068161e+00 3.679790e-01 -1.609263e-01 -1.487864e+00 -9.822207e-01 3.770236e-01 1.212212e+00 1.008896e+00 1.482577e-01 -2.676557e-01 -7.816096e-01 -9.421859e-01 -3.510381e-02 1.164114e-01 2.703546e-02
<VARIANCE> 25
 1.056883e+01 2.038029e+01 2.343302e+01 3.207923e+01 4.803647e+01 3.486746e+01 4.619017e+01 3.657600e+01 4.241578e+01 2.952734e+01 3.003246e+01 2.627411e+01 6.444839e-01 1.248800e+00 1.539147e+00 1.934695e+00 2.917770e+00 2.416484e+00 2.889753e+00 2.571202e+00 2.549632e+00 2.521905e+00 2.085225e+00 2.010896e+00 8.039098e-04
<GCONST> 8.760226e+01
<MIXTURE> 104 5.694618e-03
<MEAN> 25
 3.331115e+00 -9.444430e+00 -6.082066e+00 -3.030564e+00 -1.298903e+00 -1.981578e+00 2.428068e+00 2.517642e+00 -4.552290e+00 -9.204173e+00 -5.068161e+00 3.679790e-01 -1.609263e-01 -1.487864e+00 -9.822207e-01 3.770236e-01 1.212212e+00 1.008896e+00 1.482577e-01 -2.676557e-01 -7.816096e-01 -9.421859e-01 -3.510381e-02 1.164114e-01 2.703546e-02
<VARIANCE> 25
 1.056883e+01 2.038029e+01 2.343302e+01 3.207923e+01 4.803647e+01 3.486746e+01 4.619017e+01 3.657600e+01 4.241578e+01 2.952734e+01 3.003246e+01 2.627411e+01 6.444839e-01 1.248800e+00 1.539147e+00 1.934695e+00 2.917770e+00 2.416484e+00 2.889753e+00 2.571202e+00 2.549632e+00 2.521905e+00 2.085225e+00 2.010896e+00 8.039098e-04
<GCONST> 8.760226e+01
<MIXTURE> 105 4.710235e-03
<MEAN> 25
 2.149261e+00 -1.222017e+00 8.812177e+00 -2.526168e+00 -1.042716e+01 -4.169798e+00 -4.484929e+00 -4.162498e-01 -3.946482e+00 -2.734830e+00 1.366519e+00 -1.301032e+00 2.637009e-02 -5.976784e-03 3.328324e-02 -5.512364e-03 3.810689e-02 -1.695817e-02 -1.581605e-02 7.013788e-02 4.595865e-02 5.003370e-02 -3.912669e-02 3.162652e-02 -2.803463e-03
<VARIANCE> 25
 1.177183e+01 2.652048e+01 3.825060e+01 4.054007e+01 4.359278e+01 5.326087e+01 3.794833e+01 4.233437e+01 3.774803e+01 4.078064e+01 4.667993e+01 2.738264e+01 8.077299e-02 1.789145e-01 3.306325e-01 2.758018e-01 3.579049e-01 4.174426e-01 4.769264e-01 4.839786e-01 5.567653e-01 4.436102e-01 4.077122e-01 4.236123e-01 8.707284e-05
<GCONST> 6.615897e+01
<MIXTURE> 106 4.710235e-03
<MEAN> 25
 2.149261e+00 -1.222017e+00 8.812177e+00 -2.526168e+00 -1.042716e+01 -4.169798e+00 -4.484929e+00 -4.162498e-01 -3.946482e+00 -2.734830e+00 1.366519e+00 -1.301032e+00 2.637009e-02 -5.976784e-03 3.328324e-02 -5.512364e-03 3.810689e-02 -1.695817e-02 -1.581605e-02 7.013788e-02 4.595865e-02 5.003370e-02 -3.912669e-02 3.162652e-02 -2.803463e-03
<VARIANCE> 25
 1.177183e+01 2.652048e+01 3.825060e+01 4.054007e+01 4.359278e+01 5.326087e+01 3.794833e+01 4.233437e+01 3.774803e+01 4.078064e+01 4.667993e+01 2.738264e+01 8.077299e-02 1.789145e-01 3.306325e-01 2.758018e-01 3.579049e-01 4.174426e-01 4.769264e-01 4.839786e-01 5.567653e-01 4.436102e-01 4.077122e-01 4.236123e-01 8.707284e-05
<GCONST> 6.615897e+01
<MIXTURE> 107 5.452374e-03
<MEAN> 25
 8.263092e+00 -2.522204e+00 -7.957315e+00 -9.899322e+00 5.288720e-01 3.199110e+00 -7.725706e+00 -4.016522e+00 -1.753259e+00 2.953447e+00 1.845521e+00 -5.175760e+00 -5.981184e-01 -7.564024e-01 9.652139e-01 1.668879e+00 1.779360e-01 -1.772555e+00 -9.351243e-01 8.827863e-01 1.871047e+00 -7.610145e-02 -1.946577e+00 -5.179642e-01 -4.716518e-03
<VARIANCE> 25
 9.262235e+00 1.832394e+01 2.634842e+01 3.995330e+01 4.731637e+01 3.418510e+01 5.066853e+01 3.392296e+01 4.818482e+01 3.851410e+01 5.492339e+01 2.985118e+01 3.196915e-01 8.648583e-01 1.607591e+00 2.197861e+00 2.229074e+00 2.984414e+00 2.498412e+00 2.299687e+00 2.319249e+00 2.782582e+00 2.652881e+00 2.700812e+00 6.837284e-04
<GCONST> 8.797240e+01
<MIXTURE> 108 5.452374e-03
<MEAN> 25
 8.263092e+00 -2.522204e+00 -7.957315e+00 -9.899322e+00 5.288720e-01 3.199110e+00 -7.725706e+00 -4.016522e+00 -1.753259e+00 2.953447e+00 1.845521e+00 -5.175760e+00 -5.981184e-01 -7.564024e-01 9.652139e-01 1.668879e+00 1.779360e-01 -1.772555e+00 -9.351243e-01 8.827863e-01 1.871047e+00 -7.610145e-02 -1.946577e+00 -5.179642e-01 -4.716518e-03
<VARIANCE> 25
 9.262235e+00 1.832394e+01 2.634842e+01 3.995330e+01 4.731637e+01 3.418510e+01 5.066853e+01 3.392296e+01 4.818482e+01 3.851410e+01 5.492339e+01 2.985118e+01 3.196915e-01 8.648583e-01 1.607591e+00 2.197861e+00 2.229074e+00 2.984414e+00 2.498412e+00 2.299687e+00 2.319249e+00 2.782582e+00 2.652881e+00 2.700812e+00 6.837284e-04
<GCONST> 8.797240e+01
<MIXTURE> 109 6.661064e-03
<MEAN> 25
 4.070604e+00 -1.052262e+01 -8.229212e+00 -1.367072e+00 2.742101e+00 -2.365462e-02 -1.157320e-01 1.435695e+00 -2.537325e+00 -8.357883e+00 -5.387265e+00 6.526987e-02 -3.146218e-02 -1.312161e-01 -2.646153e-02 2.565162e-01 2.009177e-01 1.157482e-01 -1.249285e-01 -1.098668e-01 -3.812211e-02 -1.263860e-01 2.146641e-01 1.006396e-02 -3.580560e-03
<VARIANCE> 25
 9.115381e+00 1.823684e+01 2.095294e+01 3.150311e+01 4.070325e+01 3.682357e+01 4.667765e+01 3.428049e+01 4.597556e+01 3.527794e+01 2.959831e+01 2.802995e+01 1.927866e-01 4.216340e-01 5.468283e-01 6.373694e-01 1.231053e+00 9.949306e-01 1.254930e+00 1.093115e+00 1.116262e+00 9.564080e-01 8.761377e-01 8.825913e-01 1.831084e-04
<GCONST> 7.451328e+01
<MIXTURE> 110 6.661064e-03
<MEAN> 25
 4.070604e+00 -1.052262e+01 -8.229212e+00 -1.367072e+00 2.742101e+00 -2.365462e-02 -1.157320e-01 1.435695e+00 -2.537325e+00 -8.357883e+00 -5.387265e+00 6.526987e-02 -3.146218e-02 -1.312161e-01 -2.646153e-02 2.565162e-01 2.009177e-01 1.157482e-01 -1.249285e-01 -1.098668e-01 -3.812211e-02 -1.263860e-01 2.146641e-01 1.006396e-02 -3.580560e-03
<VARIANCE> 25
 9.115381e+00 1.823684e+01 2.095294e+01 3.150311e+01 4.070325e+01 3.682357e+01 4.667765e+01 3.428049e+01 4.597556e+01 3.527794e+01 2.959831e+01 2.802995e+01 1.927866e-01 4.216340e-01 5.468283e-01 6.373694e-01 1.231053e+00 9.949306e-01 1.254930e+00 1.093115e+00 1.116262e+00 9.564080e-01 8.761377e-01 8.825913e-01 1.831084e-04
<GCONST> 7.451328e+01
<MIXTURE> 111 4.337247e-03
<MEAN> 25
 -4.295084e+00 -7.993801e-01 -1.562140e+00 1.655758e+00 9.004502e-01 8.914700e-01 2.684970e-01 4.211932e-02 1.929971e-01 -6.275627e-01 -7.865939e-01 2.120625e+00 -1.554001e-02 -3.138573e-02 -6.099388e-02 -4.257991e-02 -8.356135e-03 1.985743e-02 -3.595074e-02 -8.189021e-02 -1.257907e-01 -1.852041e-01 -2.001829e-01 -1.162278e-01 -6.894812e-05
<VARIANCE> 25
 7.632399e+00 5.423387e+00 1.051792e+01 9.032656e+00 1.262627e+01 2.351768e+01 1.517056e+01 1.465859e+01 1.268324e+01 1.197663e+01 1.484838e+01 1.183600e+01 7.819879e-02 1.597571e-01 2.713274e-01 4.199967e-01 5.673907e-01 7.100214e-01 8.493603e-01 8.576265e-01 8.735415e-01 8.336464e-01 8.674764e-01 8.603920e-01 2.364931e-05
<GCONST> 5.647176e+01
<MIXTURE> 112 4.337247e-03
<MEAN> 25
 -4.295084e+00 -7.993801e-01 -1.562140e+00 1.655758e+00 9.004502e-01 8.914700e-01 2.684970e-01 4.211932e-02 1.929971e-01 -6.275627e-01 -7.865939e-01 2.120625e+00 -1.554001e-02 -3.138573e-02 -6.099388e-02 -4.257991e-02 -8.356135e-03 1.985743e-02 -3.595074e-02 -8.189021e-02 -1.257907e-01 -1.852041e-01 -2.001829e-01 -1.162278e-01 -6.894812e-05
<VARIANCE> 25
 7.632399e+00 5.423387e+00 1.051792e+01 9.032656e+00 1.262627e+01 2.351768e+01 1.517056e+01 1.465859e+01 1.268324e+01 1.197663e+01 1.484838e+01 1.183600e+01 7.819879e-02 1.597571e-01 2.713274e-01 4.199967e-01 5.673907e-01 7.100214e-01 8.493603e-01 8.576265e-01 8.735415e-01 8.336464e-01 8.674764e-01 8.603920e-01 2.364931e-05
<GCONST> 5.647176e+01
<MIXTURE> 113 5.938666e-03
<MEAN> 25
 9.973475e+00 1.746640e+00 -8.772670e+00 -1.703858e+01 -1.034988e+00 5.657972e+00 -5.278745e+00 -1.466915e+00 -5.693629e+00 -4.880958e-01 3.050628e-01 -2.025361e-01 4.827478e-03 1.426241e-02 -5.968002e-02 -1.141411e-01 1.035257e-01 1.494358e-01 5.978283e-02 3.691173e-02 -5.725521e-02 -4.925204e-02 1.795335e-01 3.338810e-02 -1.414219e-03
<VARIANCE> 25
 8.879664e+00 1.642852e+01 2.973347e+01 3.423729e+01 5.270808e+01 3.382628e+01 3.966569e+01 3.909624e+01 3.737421e+01 4.638828e+01 3.634539e+01 2.843775e+01 1.217139e-01 3.211065e-01 3.161595e-01 6.321083e-01 6.140913e-01 6.540782e-01 7.760665e-01 8.455786e-01 9.589408e-01 9.099795e-01 7.270031e-01 7.172177e-01 1.249638e-04
<GCONST> 7.112603e+01
<MIXTURE> 114 5.938666e-03
<MEAN> 25
 9.973475e+00 1.746640e+00 -8.772670e+00 -1.703858e+01 -1.034988e+00 5.657972e+00 -5.278745e+00 -1.466915e+00 -5.693629e+00 -4.880958e-01 3.050628e-01 -2.025361e-01 4.827478e-03 1.426241e-02 -5.968002e-02 -1.141411e-01 1.035257e-01 1.494358e-01 5.978283e-02 3.691173e-02 -5.725521e-02 -4.925204e-02 1.795335e-01 3.338810e-02 -1.414219e-03
<VARIANCE> 25
 8.879664e+00 1.642852e+01 2.973347e+01 3.423729e+01 5.270808e+01 3.382628e+01 3.966569e+01 3.909624e+01 3.737421e+01 4.638828e+01 3.634539e+01 2.843775e+01 1.217139e-01 3.211065e-01 3.161595e-01 6.321083e-01 6.140913e-01 6.540782e-01 7.760665e-01 8.455786e-01 9.589408e-01 9.099795e-01 7.270031e-01 7.172177e-01 1.249638e-04
<GCONST> 7.112603e+01
<MIXTURE> 115 2.935202e-03
<MEAN> 25
 -4.004860e+00 -7.002519e-01 -2.996041e+00 3.567107e+00 2.400996e+00 -3.970528e-01 2.222125e+00 3.776774e-01 1.397451e+00 -1.458613e-01 -6.876737e-02 2.672148e+00 4.040390e-02 -7.109910e-02 -2.098777e-01 -4.146617e-01 -6.308795e-01 -6.582605e-01 -6.164520e-01 -5.103074e-01 -4.736264e-01 -4.532144e-01 -3.343060e-01 -1.430705e-01 6.648828e-06
<VARIANCE> 25
 9.358678e+00 9.920118e+00 1.379973e+01 1.274791e+01 1.326234e+01 1.768863e+01 1.739130e+01 2.130642e+01 1.795732e+01 1.754539e+01 1.965891e+01 1.435864e+01 2.034071e-01 3.379905e-01 4.933758e-01 5.729866e-01 6.328069e-01 8.041119e-01 1.010518e+00 1.113447e+00 1.059367e+00 9.837529e-01 1.018739e+00 1.062016e+00 9.932932e-07
<GCONST> 6.021575e+01
<MIXTURE> 116 2.935202e-03
<MEAN> 25
 -4.004860e+00 -7.002519e-01 -2.996041e+00 3.567107e+00 2.400996e+00 -3.970528e-01 2.222125e+00 3.776774e-01 1.397451e+00 -1.458613e-01 -6.876737e-02 2.672148e+00 4.040390e-02 -7.109910e-02 -2.098777e-01 -4.146617e-01 -6.308795e-01 -6.582605e-01 -6.164520e-01 -5.103074e-01 -4.736264e-01 -4.532144e-01 -3.343060e-01 -1.430705e-01 6.648828e-06
<VARIANCE> 25
 9.358678e+00 9.920118e+00 1.379973e+01 1.274791e+01 1.326234e+01 1.768863e+01 1.739130e+01 2.130642e+01 1.795732e+01 1.754539e+01 1.965891e+01 1.435864e+01 2.034071e-01 3.379905e-01 4.933758e-01 5.729866e-01 6.328069e-01 8.041119e-01 1.010518e+00 1.113447e+00 1.059367e+00 9.837529e-01 1.018739e+00 1.062016e+00 9.932932e-07
<GCONST> 6.021575e+01
<MIXTURE> 117 6.506003e-03
<MEAN> 25
 -4.644592e+00 1.117793e+00 1.054499e+00 9.758447e+00 6.260121e+00 6.256477e+00 6.463082e+00 5.044496e+00 6.385674e+00 4.929173e+00 6.367208e+00 2.709929e+00 -7.503008e-02 -2.341336e-01 -3.583474e-01 -4.199596e-01 -3.675186e-01 -3.027199e-01 -2.873273e-01 -3.314594e-01 -3.917833e-01 -3.689738e-01 -2.631080e-01 -1.159785e-01 -9.052962e-06
<VARIANCE> 25
 7.187259e+00 8.753097e+00 9.809425e+00 1.430823e+01 1.561781e+01 1.534934e+01 1.772638e+01 1.796108e+01 1.640261e+01 1.637152e+01 1.674076e+01 1.475332e+01 2.166086e-01 3.075042e-01 4.261350e-01 6.171185e-01 8.536685e-01 1.055364e+00 1.177562e+00 1.232911e+00 1.223976e+00 1.194855e+00 1.167213e+00 1.113683e+00 1.000000e-06
<GCONST> 6.042865e+01
<MIXTURE> 118 6.506003e-03
<MEAN> 25
 -4.644592e+00 1.117793e+00 1.054499e+00 9.758447e+00 6.260121e+00 6.256477e+00 6.463082e+00 5.044496e+00 6.385674e+00 4.929173e+00 6.367208e+00 2.709929e+00 -7.503008e-02 -2.341336e-01 -3.583474e-01 -4.199596e-01 -3.675186e-01 -3.027199e-01 -2.873273e-01 -3.314594e-01 -3.917833e-01 -3.689738e-01 -2.631080e-01 -1.159785e-01 -9.052962e-06
<VARIANCE> 25
 7.187259e+00 8.753097e+00 9.809425e+00 1.430823e+01 1.561781e+01 1.534934e+01 1.772638e+01 1.796108e+01 1.640261e+01 1.637152e+01 1.674076e+01 1.475332e+01 2.166086e-01 3.075042e-01 4.261350e-01 6.171185e-01 8.536685e-01 1.055364e+00 1.177562e+00 1.232911e+00 1.223976e+00 1.194855e+00 1.167213e+00 1.113683e+00 1.000000e-06
<GCONST> 6.042865e+01
<MIXTURE> 119 4.297961e-03
<MEAN> 25
 -4.968555e+00 -7.627574e+00 2.221682e+00 2.021732e+00 2.243469e+00 2.066147e-01 5.259892e+00 5.926821e+00 1.169388e+00 9.697089e-01 6.601096e+00 1.573347e+00 -5.000681e-02 -7.958782e-02 3.842145e-02 -5.527986e-02 -1.261602e-01 -1.805063e-01 -6.944636e-02 -1.273127e-02 -9.311245e-02 -1.120598e-01 -5.587948e-02 -5.931123e-02 1.092388e-03
<VARIANCE> 25
 8.531084e+00 9.837151e+00 1.661583e+01 2.019954e+01 2.285331e+01 2.322921e+01 2.511180e+01 2.656393e+01 2.500199e+01 2.807615e+01 2.054701e+01 2.038959e+01 1.603321e-01 2.827108e-01 4.604588e-01 6.337787e-01 8.025234e-01 1.009526e+00 1.099909e+00 1.276442e+00 1.284919e+00 1.244712e+00 1.192325e+00 1.112532e+00 2.316770e-04
<GCONST> 6.974719e+01
<MIXTURE> 120 4.297961e-03
<MEAN> 25
 -4.968555e+00 -7.627574e+00 2.221682e+00 2.021732e+00 2.243469e+00 2.066147e-01 5.259892e+00 5.926821e+00 1.169388e+00 9.697089e-01 6.601096e+00 1.573347e+00 -5.000681e-02 -7.958782e-02 3.842145e-02 -5.527986e-02 -1.261602e-01 -1.805063e-01 -6.944636e-02 -1.273127e-02 -9.311245e-02 -1.120598e-01 -5.587948e-02 -5.931123e-02 1.092388e-03
<VARIANCE> 25
 8.531084e+00 9.837151e+00 1.661583e+01 2.019954e+01 2.285331e+01 2.322921e+01 2.511180e+01 2.656393e+01 2.500199e+01 2.807615e+01 2.054701e+01 2.038959e+01 1.603321e-01 2.827108e-01 4.604588e-01 6.337787e-01 8.025234e-01 1.009526e+00 1.099909e+00 1.276442e+00 1.284919e+00 1.244712e+00 1.192325e+00 1.112532e+00 2.316770e-04
<GCONST> 6.974719e+01
<MIXTURE> 121 4.567511e-03
<MEAN> 25
 2.965073e-01 -2.531580e+00 5.191405e+00 -1.265897e+01 -1.234020e+01 -1.480548e+00 7.509353e-01 -4.941430e+00 -4.084288e+00 -4.887269e-01 -5.530585e+00 -4.245381e+00 3.149321e-02 1.424565e-01 -3.860149e-02 9.937999e-02 1.677903e-01 7.430147e-02 -6.816611e-02 -1.967985e-01 -2.463471e-01 -2.155394e-01 -1.360348e-01 3.654114e-03 -7.787587e-03
<VARIANCE> 25
 7.838318e+00 1.542200e+01 1.680914e+01 2.179003e+01 2.667759e+01 2.956316e+01 3.064389e+01 2.490129e+01 3.538503e+01 2.846047e+01 1.923421e+01 2.084325e+01 1.573321e-01 6.374444e-01 6.247246e-01 7.101252e-01 7.770376e-01 1.124361e+00 1.140378e+00 1.115233e+00 1.210907e+00 1.242708e+00 9.358483e-01 8.511781e-01 2.092460e-04
<GCONST> 7.156352e+01
<MIXTURE> 122 4.567511e-03
<MEAN> 25
 2.965073e-01 -2.531580e+00 5.191405e+00 -1.265897e+01 -1.234020e+01 -1.480548e+00 7.509353e-01 -4.941430e+00 -4.084288e+00 -4.887269e-01 -5.530585e+00 -4.245381e+00 3.149321e-02 1.424565e-01 -3.860149e-02 9.937999e-02 1.677903e-01 7.430147e-02 -6.816611e-02 -1.967985e-01 -2.463471e-01 -2.155394e-01 -1.360348e-01 3.654114e-03 -7.787587e-03
<VARIANCE> 25
 7.838318e+00 1.542200e+01 1.680914e+01 2.179003e+01 2.667759e+01 2.956316e+01 3.064389e+01 2.490129e+01 3.538503e+01 2.846047e+01 1.923421e+01 2.084325e+01 1.573321e-01 6.374444e-01 6.247246e-01 7.101252e-01 7.770376e-01 1.124361e+00 1.140378e+00 1.115233e+00 1.210907e+00 1.242708e+00 9.358483e-01 8.511781e-01 2.092460e-04
<GCONST> 7.156352e+01
<MIXTURE> 123 4.393044e-03
<MEAN> 25
 -4.219177e+00 9.137362e-01 2.112709e-01 6.074310e+00 5.197136e+00 3.583095e+00 3.324631e+00 4.838157e-01 4.781143e-01 -6.241403e-01 -2.533243e-01 8.540161e-01 -4.717022e-01 -7.450952e-01 -8.469823e-01 -6.013893e-01 -2.614217e-01 5.951710e-02 3.707488e-01 6.410377e-01 7.914600e-01 7.918420e-01 7.285975e-01 5.673236e-01 -2.988134e-03
<VARIANCE> 25
 1.043286e+01 1.009125e+01 1.564693e+01 1.732402e+01 2.160474e+01 2.698412e+01 2.162364e+01 1.881861e+01 2.011448e+01 1.744226e+01 2.417968e+01 1.924306e+01 3.660273e-01 3.877541e-01 5.123619e-01 7.208540e-01 9.536632e-01 1.127128e+00 1.187219e+00 1.161773e+00 1.149825e+00 1.167215e+00 1.190970e+00 1.239032e+00 1.001732e-04
<GCONST> 6.950575e+01
<MIXTURE> 124 4.069876e-03
<MEAN> 25
 -6.502707e+00 -1.221527e+00 -2.647339e+00 5.042348e+00 4.842932e+00 3.396358e+00 5.299577e+00 2.699102e+00 3.519146e+00 1.258259e+00 5.903655e-01 3.228106e+00 -2.096782e-01 -2.979430e-01 -3.642642e-01 -2.022260e-01 1.150686e-01 4.500861e-01 8.154670e-01 8.708390e-01 5.942965e-01 3.265168e-01 5.476683e-02 1.042777e-02 -2.565091e-04
<VARIANCE> 25
 1.051740e+01 6.627806e+00 1.185098e+01 1.210702e+01 1.178575e+01 1.907648e+01 1.498527e+01 1.690029e+01 1.655115e+01 1.542888e+01 2.321973e+01 1.525610e+01 9.994278e-02 1.718108e-01 2.574323e-01 3.996713e-01 5.657311e-01 7.531331e-01 7.191820e-01 7.781478e-01 9.365283e-01 9.423054e-01 9.713330e-01 9.825919e-01 1.876922e-05
<GCONST> 5.869267e+01
<MIXTURE> 125 4.069876e-03
<MEAN> 25
 -6.502707e+00 -1.221527e+00 -2.647339e+00 5.042348e+00 4.842932e+00 3.396358e+00 5.299577e+00 2.699102e+00 3.519146e+00 1.258259e+00 5.903655e-01 3.228106e+00 -2.096782e-01 -2.979430e-01 -3.642642e-01 -2.022260e-01 1.150686e-01 4.500861e-01 8.154670e-01 8.708390e-01 5.942965e-01 3.265168e-01 5.476683e-02 1.042777e-02 -2.565091e-04
<VARIANCE> 25
 1.051740e+01 6.627806e+00 1.185098e+01 1.210702e+01 1.178575e+01 1.907648e+01 1.498527e+01 1.690029e+01 1.655115e+01 1.542888e+01 2.321973e+01 1.525610e+01 9.994278e-02 1.718108e-01 2.574323e-01 3.996713e-01 5.657311e-01 7.531331e-01 7.191820e-01 7.781478e-01 9.365283e-01 9.423054e-01 9.713330e-01 9.825919e-01 1.876922e-05
<GCONST> 5.869267e+01
<MIXTURE> 126 2.402244e-03
<MEAN> 25
 -3.858690e+00 -6.969239e+00 -5.007768e+00 2.868608e+00 4.566753e+00 -3.575090e+00 -1.313715e-01 3.423673e+00 3.343641e+00 -2.926610e+00 -2.042534e+00 2.762352e+00 2.252848e-02 1.297852e-03 4.123350e-02 -8.446322e-02 -3.114310e-01 -3.652638e-01 -2.779317e-01 -1.547829e-01 -1.431404e-01 -1.285377e-01 -1.131981e-01 -4.178342e-02 -8.202352e-04
<VARIANCE> 25
 7.122637e+00 1.226280e+01 1.390491e+01 1.836268e+01 2.457897e+01 2.415221e+01 2.207941e+01 2.699999e+01 2.912123e+01 2.585645e+01 2.641295e+01 1.900875e+01 1.669456e-01 3.384902e-01 5.231088e-01 5.953270e-01 7.112421e-01 1.045437e+00 1.078946e+00 1.198786e+00 1.257229e+00 1.247686e+00 1.169991e+00 1.072575e+00 2.202404e-04
<GCONST> 6.975637e+01
<MIXTURE> 127 2.402244e-03
<MEAN> 25
 -3.858690e+00 -6.969239e+00 -5.007768e+00 2.868608e+00 4.566753e+00 -3.575090e+00 -1.313715e-01 3.423673e+00 3.343641e+00 -2.926610e+00 -2.042534e+00 2.762352e+00 2.252848e-02 1.297852e-03 4.123350e-02 -8.446322e-02 -3.114310e-01 -3.652638e-01 -2.779317e-01 -1.547829e-01 -1.431404e-01 -1.285377e-01 -1.131981e-01 -4.178342e-02 -8.202352e-04
<VARIANCE> 25
 7.122637e+00 1.226280e+01 1.390491e+01 1.836268e+01 2.457897e+01 2.415221e+01 2.207941e+01 2.699999e+01 2.912123e+01 2.585645e+01 2.641295e+01 1.900875e+01 1.669456e-01 3.384902e-01 5.231088e-01 5.953270e-01 7.112421e-01 1.045437e+00 1.078946e+00 1.198786e+00 1.257229e+00 1.247686e+00 1.169991e+00 1.072575e+00 2.202404e-04
<GCONST> 6.975637e+01
<MIXTURE> 128 3.790457e-03
<MEAN> 25
 -3.929064e+00 1.540788e+00 -3.370419e-01 6.573216e+00 3.618973e+00 1.857988e+00 3.576548e+00 2.369090e+00 3.962299e+00 3.698778e+00 3.768059e+00 3.524549e+00 -3.959000e-01 -1.971630e-01 9.877097e-02 7.265046e-01 1.184494e+00 1.135378e+00 7.173958e-01 1.309205e-01 -4.386173e-01 -7.880240e-01 -7.032288e-01 -3.932865e-01 -3.621825e-05
<VARIANCE> 25
 1.023246e+01 1.169809e+01 1.500380e+01 1.931393e+01 2.004516e+01 2.117130e+01 2.430366e+01 2.467598e+01 2.640534e+01 2.387168e+01 2.681166e+01 1.819927e+01 8.922101e-01 1.146066e+00 1.365534e+00 1.502224e+00 1.580035e+00 1.862291e+00 2.248842e+00 2.324574e+00 2.147839e+00 1.856723e+00 1.745290e+00 1.748377e+00 9.996540e-07
<GCONST> 7.364163e+01
<TRANSP> 3
 0.000000e+00 1.000000e+00 0.000000e+00
 0.000000e+00 9.999990e-01 9.999998e-07
 0.000000e+00 0.000000e+00 0.000000e+00
<ENDHMM>
