~o
<STREAMINFO> 1 25
<VECSIZE> 25<NULLD><MFCC_E_D_N><DIAGC>
~h "jmodel"
<BEGINHMM>
<NUMSTATES> 3
<STATE> 2
<NUMMIXES> 128
<MIXTURE> 1 5.748963e-03
<MEAN> 25
 -2.511405e+00 3.147438e+00 2.245848e+00 8.717371e+00 4.385677e+00 3.457786e+00 4.017939e+00 4.028419e+00 5.917769e+00 5.241792e+00 5.773683e+00 3.068900e+00 -1.988704e+00 -1.636834e+00 -8.582447e-01 1.064364e+00 1.544703e+00 2.235769e+00 2.158306e+00 2.028126e+00 1.690718e+00 1.290627e+00 1.550559e+00 6.201237e-01 -4.692227e-02
<VARIANCE> 25
 1.036138e+01 1.171236e+01 1.511163e+01 1.856749e+01 2.292152e+01 2.188863e+01 2.178880e+01 2.241453e+01 2.132872e+01 2.227579e+01 2.167597e+01 1.688609e+01 1.787402e+00 2.086312e+00 2.992028e+00 3.182109e+00 3.714864e+00 3.317101e+00 3.280186e+00 3.596280e+00 3.480679e+00 3.716790e+00 3.493749e+00 2.803255e+00 3.083378e-03
<GCONST> 8.846694e+01
<MIXTURE> 2 4.549242e-03
<MEAN> 25
 -4.874557e+00 1.310067e+00 9.944782e-01 9.897126e+00 6.690104e+00 7.423460e+00 7.846385e+00 6.956044e+00 8.373253e+00 6.372033e+00 7.621228e+00 3.075053e+00 -6.199204e-02 4.171169e-02 1.426242e-01 2.258359e-01 2.652647e-01 2.813704e-01 2.952238e-01 3.195663e-01 3.497193e-01 3.085734e-01 1.969801e-01 8.034505e-02 1.362508e-06
<VARIANCE> 25
 6.953666e+00 8.906769e+00 1.064810e+01 1.592660e+01 1.724429e+01 1.556356e+01 1.689625e+01 1.849186e+01 1.658386e+01 1.738416e+01 1.813340e+01 1.433631e+01 1.252172e-01 2.265967e-01 3.364729e-01 4.671668e-01 6.491061e-01 8.146599e-01 9.298131e-01 1.002916e+00 1.051535e+00 1.077842e+00 1.075949e+00 1.013911e+00 1.000167e-06
<GCONST> 5.804505e+01
<MIXTURE> 3 4.549242e-03
<MEAN> 25
 -4.874557e+00 1.310067e+00 9.944782e-01 9.897126e+00 6.690104e+00 7.423460e+00 7.846385e+00 6.956044e+00 8.373253e+00 6.372033e+00 7.621228e+00 3.075053e+00 -6.199204e-02 4.171169e-02 1.426242e-01 2.258359e-01 2.652647e-01 2.813704e-01 2.952238e-01 3.195663e-01 3.497193e-01 3.085734e-01 1.969801e-01 8.034505e-02 1.362508e-06
<VARIANCE> 25
 6.953666e+00 8.906769e+00 1.064810e+01 1.592660e+01 1.724429e+01 1.556356e+01 1.689625e+01 1.849186e+01 1.658386e+01 1.738416e+01 1.813340e+01 1.433631e+01 1.252172e-01 2.265967e-01 3.364729e-01 4.671668e-01 6.491061e-01 8.146599e-01 9.298131e-01 1.002916e+00 1.051535e+00 1.077842e+00 1.075949e+00 1.013911e+00 1.000167e-06
<GCONST> 5.804505e+01
<MIXTURE> 4 1.671429e-02
<MEAN> 25
 2.902025e+00 4.029202e+00 -5.032457e+00 1.236384e+00 3.470349e+00 -4.262296e-01 -8.269436e-01 -1.475503e+00 1.320516e+00 2.163374e+00 -6.351305e-01 5.768101e-02 -2.861153e+00 1.464097e+00 1.432257e+00 3.073086e+00 6.841975e-01 4.057848e-01 1.699004e+00 1.240968e+00 1.085486e+00 1.532269e-01 5.468763e-01 1.013490e+00 -9.329654e-02
<VARIANCE> 25
 2.242705e+01 4.208868e+01 3.558353e+01 3.580774e+01 4.199234e+01 5.823326e+01 6.099472e+01 6.709454e+01 4.827551e+01 6.230514e+01 5.447778e+01 3.024916e+01 2.330829e+00 4.877131e+00 3.860831e+00 4.408517e+00 4.572086e+00 5.436012e+00 5.374441e+00 5.298933e+00 5.417306e+00 5.885530e+00 7.363065e+00 3.855376e+00 5.684917e-03
<GCONST> 1.049476e+02
<MIXTURE> 5 3.206198e-03
<MEAN> 25
 -3.416945e+00 2.180835e+00 6.105558e-01 9.428327e+00 6.696578e+00 6.315847e+00 7.112240e+00 4.723202e+00 5.496028e+00 3.847720e+00 4.657911e+00 2.606642e+00 -3.246592e-01 7.528676e-01 1.224786e+00 1.032662e+00 3.077184e-01 -1.001740e-01 -8.379760e-02 3.355042e-02 4.579206e-01 6.837035e-01 4.038767e-01 8.807359e-02 -2.779648e-05
<VARIANCE> 25
 1.025007e+01 1.394399e+01 2.348466e+01 2.561771e+01 2.022250e+01 1.942441e+01 2.011256e+01 2.035850e+01 2.141751e+01 2.128396e+01 2.410227e+01 1.635907e+01 1.209993e+00 1.244285e+00 1.357054e+00 1.673412e+00 2.284657e+00 2.376173e+00 2.301363e+00 2.275162e+00 2.315467e+00 2.238035e+00 2.085441e+00 1.873898e+00 1.000014e-06
<GCONST> 7.516563e+01
<MIXTURE> 6 5.475854e-03
<MEAN> 25
 9.699605e+00 -4.194786e-01 -6.691777e+00 -1.102030e+01 -2.107273e+00 6.711753e+00 -5.872110e+00 -5.279712e+00 -3.622890e+00 1.821268e+00 4.623693e+00 -1.274870e+00 4.860942e-01 8.983433e-01 -3.529485e-01 -1.471133e+00 -6.397346e-01 1.303108e+00 1.532154e+00 2.449281e-01 -1.211924e+00 -1.217830e+00 3.221536e-01 1.224416e+00 -8.100525e-03
<VARIANCE> 25
 8.939062e+00 1.702964e+01 2.388379e+01 3.920855e+01 3.670173e+01 3.073278e+01 4.418943e+01 3.805180e+01 4.101265e+01 3.937603e+01 4.211209e+01 2.850194e+01 3.110378e-01 8.561668e-01 9.438464e-01 1.974104e+00 1.601820e+00 2.055803e+00 1.920270e+00 2.047730e+00 2.407029e+00 1.957915e+00 2.239374e+00 1.439931e+00 5.857331e-04
<GCONST> 8.388596e+01
<MIXTURE> 7 5.475854e-03
<MEAN> 25
 9.699605e+00 -4.194786e-01 -6.691777e+00 -1.102030e+01 -2.107273e+00 6.711753e+00 -5.872110e+00 -5.279712e+00 -3.622890e+00 1.821268e+00 4.623693e+00 -1.274870e+00 4.860942e-01 8.983433e-01 -3.529485e-01 -1.471133e+00 -6.397346e-01 1.303108e+00 1.532154e+00 2.449281e-01 -1.211924e+00 -1.217830e+00 3.221536e-01 1.224416e+00 -8.100525e-03
<VARIANCE> 25
 8.939062e+00 1.702964e+01 2.388379e+01 3.920855e+01 3.670173e+01 3.073278e+01 4.418943e+01 3.805180e+01 4.101265e+01 3.937603e+01 4.211209e+01 2.850194e+01 3.110378e-01 8.561668e-01 9.438464e-01 1.974104e+00 1.601820e+00 2.055803e+00 1.920270e+00 2.047730e+00 2.407029e+00 1.957915e+00 2.239374e+00 1.439931e+00 5.857331e-04
<GCONST> 8.388596e+01
<MIXTURE> 8 1.165917e-02
<MEAN> 25
 -4.704776e+00 1.342937e+00 1.280056e+00 9.536026e+00 6.560101e+00 6.259531e+00 6.458383e+00 5.671566e+00 6.668390e+00 5.635445e+00 6.542996e+00 3.136322e+00 -6.319023e-01 -1.427029e+00 -1.070783e+00 -1.730981e+00 -2.334589e-01 -9.381086e-01 -1.766172e-01 -2.956377e-01 -2.559790e-01 -1.687682e-01 -2.079313e-01 8.411001e-02 9.848005e-02
<VARIANCE> 25
 9.477325e+00 9.919509e+00 1.161989e+01 1.613539e+01 1.664279e+01 1.568091e+01 1.818688e+01 1.753568e+01 1.701066e+01 1.733430e+01 1.903803e+01 1.401993e+01 2.749324e+00 2.808391e+00 3.893190e+00 3.749545e+00 3.444629e+00 3.330957e+00 3.118580e+00 3.081996e+00 2.869084e+00 2.654430e+00 2.433945e+00 1.896709e+00 6.699274e-03
<GCONST> 8.630882e+01
<MIXTURE> 9 1.199672e-02
<MEAN> 25
 8.391827e+00 3.047592e+00 -7.402257e+00 -1.154524e+01 -3.912265e+00 5.507628e+00 -1.983623e+00 -6.310991e-01 -5.397681e+00 -7.877483e-01 1.704456e+00 9.171358e-01 1.556688e+00 2.640707e-01 -4.167320e-01 -2.346241e+00 -1.315204e+00 6.743373e-01 -1.354810e+00 -6.710774e-01 -9.134400e-01 -4.437805e-01 1.388612e+00 -1.371478e-02 7.378727e-02
<VARIANCE> 25
 1.324574e+01 2.368569e+01 4.110552e+01 4.289429e+01 4.227708e+01 2.458841e+01 3.630183e+01 4.703396e+01 4.721770e+01 3.310161e+01 4.280650e+01 2.250467e+01 1.556392e+00 2.408638e+00 5.927226e+00 5.060725e+00 4.062635e+00 3.236441e+00 3.568241e+00 5.627464e+00 4.865857e+00 3.243293e+00 5.144461e+00 2.540699e+00 1.640609e-03
<GCONST> 9.699942e+01
<MIXTURE> 10 6.596976e-03
<MEAN> 25
 8.257405e-01 7.627384e+00 5.369931e+00 7.141885e+00 1.586102e+00 -2.110233e+00 -5.260497e-01 -1.680020e+00 8.738013e-01 8.578374e-01 8.319109e-01 6.573181e-01 -1.923455e+00 -6.723965e-01 -4.580134e-01 3.024894e+00 2.462476e+00 2.709869e+00 2.373873e+00 2.273839e+00 1.862147e+00 1.544899e+00 2.329630e+00 5.234262e-01 -1.380320e-01
<VARIANCE> 25
 1.955466e+01 2.071567e+01 2.233125e+01 2.906247e+01 3.826532e+01 3.491023e+01 3.514655e+01 3.387980e+01 2.761008e+01 2.902058e+01 2.698486e+01 2.498017e+01 2.233523e+00 3.422507e+00 5.528209e+00 5.170400e+00 5.546060e+00 4.464510e+00 4.693256e+00 4.850152e+00 4.382613e+00 5.016822e+00 4.463796e+00 3.188339e+00 2.701272e-03
<GCONST> 9.745874e+01
<MIXTURE> 11 1.633820e-02
<MEAN> 25
 7.675732e+00 4.064355e+00 3.389328e+00 5.068933e+00 -2.985109e+00 -1.767072e+00 -2.304730e+00 -5.791019e+00 -3.180178e+00 -8.587801e-02 -2.929019e+00 -2.137270e+00 -3.509927e-01 5.252273e-01 1.597847e-01 2.924243e-01 5.638471e-01 3.467012e-02 3.397299e-01 -1.808367e-01 -6.854479e-02 6.458475e-02 -1.625197e-01 1.250448e-01 -1.881288e-02
<VARIANCE> 25
 1.084563e+01 2.390693e+01 2.006335e+01 2.968828e+01 3.795503e+01 3.924515e+01 4.754688e+01 4.867358e+01 4.402293e+01 3.435231e+01 3.567456e+01 2.746789e+01 1.031912e+00 1.226229e+00 1.640830e+00 2.083888e+00 2.073820e+00 2.293843e+00 2.149768e+00 2.626850e+00 2.223669e+00 2.126755e+00 1.910412e+00 1.549586e+00 1.048410e-03
<GCONST> 8.769056e+01
<MIXTURE> 12 5.904134e-03
<MEAN> 25
 1.076476e+01 3.741547e+00 -4.503791e+00 -1.598798e+01 -8.691749e+00 8.638021e+00 -8.949531e-01 -1.921034e+00 -1.718708e+00 -4.884768e+00 1.773009e+00 7.124137e-01 6.800640e-02 2.943082e-01 7.925868e-02 -3.690606e-01 -3.106529e-01 2.848418e-02 3.052804e-01 4.473188e-01 1.413449e-01 -3.850169e-01 -3.853891e-01 5.396256e-02 -6.298446e-03
<VARIANCE> 25
 8.880310e+00 2.100259e+01 2.334914e+01 3.508905e+01 4.208698e+01 3.099434e+01 4.178651e+01 4.896193e+01 4.408250e+01 3.737920e+01 3.798685e+01 2.895326e+01 2.469134e-01 6.886708e-01 6.861554e-01 1.170761e+00 1.186186e+00 1.056049e+00 1.170851e+00 1.386042e+00 1.240333e+00 1.221898e+00 1.220996e+00 9.562547e-01 5.785999e-04
<GCONST> 7.892570e+01
<MIXTURE> 13 5.904134e-03
<MEAN> 25
 1.076476e+01 3.741547e+00 -4.503791e+00 -1.598798e+01 -8.691749e+00 8.638021e+00 -8.949531e-01 -1.921034e+00 -1.718708e+00 -4.884768e+00 1.773009e+00 7.124137e-01 6.800640e-02 2.943082e-01 7.925868e-02 -3.690606e-01 -3.106529e-01 2.848418e-02 3.052804e-01 4.473188e-01 1.413449e-01 -3.850169e-01 -3.853891e-01 5.396256e-02 -6.298446e-03
<VARIANCE> 25
 8.880310e+00 2.100259e+01 2.334914e+01 3.508905e+01 4.208698e+01 3.099434e+01 4.178651e+01 4.896193e+01 4.408250e+01 3.737920e+01 3.798685e+01 2.895326e+01 2.469134e-01 6.886708e-01 6.861554e-01 1.170761e+00 1.186186e+00 1.056049e+00 1.170851e+00 1.386042e+00 1.240333e+00 1.221898e+00 1.220996e+00 9.562547e-01 5.785999e-04
<GCONST> 7.892570e+01
<MIXTURE> 14 6.488954e-03
<MEAN> 25
 -4.217667e+00 -3.948547e-01 -3.193579e-01 8.772984e+00 7.405613e+00 7.357749e+00 7.814267e+00 7.261792e+00 7.282666e+00 5.173394e+00 6.698518e+00 4.053178e+00 -2.785447e-01 1.767159e-01 3.658019e-01 2.998885e-01 -1.568128e-02 5.550501e-02 8.922904e-02 1.651291e-01 3.135863e-01 5.794658e-01 4.996288e-01 8.178981e-02 -9.716338e-03
<VARIANCE> 25
 9.676817e+00 1.365775e+01 1.834447e+01 1.856020e+01 2.123339e+01 1.927762e+01 2.170237e+01 2.081592e+01 1.988577e+01 2.376336e+01 2.243008e+01 1.585644e+01 9.504222e-01 1.646145e+00 1.753257e+00 1.914571e+00 2.244138e+00 2.297306e+00 2.273133e+00 2.265237e+00 2.288985e+00 2.550075e+00 2.161691e+00 1.787838e+00 1.021398e-03
<GCONST> 8.198810e+01
<MIXTURE> 15 2.475190e-03
<MEAN> 25
 -5.410930e+00 -6.484195e-01 -1.984147e-01 7.355140e+00 5.713791e+00 5.704546e+00 6.055125e+00 4.967232e+00 5.167013e+00 4.148097e+00 5.479149e+00 2.540465e+00 -1.217766e-01 -2.945599e-02 7.583116e-02 2.426499e-01 4.873915e-01 7.841682e-01 1.070943e+00 1.180112e+00 1.057019e+00 7.548189e-01 4.196590e-01 1.528556e-01 -1.027501e-04
<VARIANCE> 25
 7.022775e+00 5.597096e+00 9.014096e+00 1.284343e+01 1.407588e+01 1.426815e+01 1.489777e+01 1.493231e+01 1.407583e+01 1.417097e+01 1.524006e+01 1.247383e+01 1.249225e-01 2.059380e-01 3.200369e-01 5.037473e-01 7.003437e-01 7.958876e-01 7.622328e-01 7.923459e-01 9.115025e-01 1.022756e+00 1.069305e+00 1.038908e+00 2.807959e-05
<GCONST> 5.860098e+01
<MIXTURE> 16 2.475190e-03
<MEAN> 25
 -5.410930e+00 -6.484195e-01 -1.984147e-01 7.355140e+00 5.713791e+00 5.704546e+00 6.055125e+00 4.967232e+00 5.167013e+00 4.148097e+00 5.479149e+00 2.540465e+00 -1.217766e-01 -2.945599e-02 7.583116e-02 2.426499e-01 4.873915e-01 7.841682e-01 1.070943e+00 1.180112e+00 1.057019e+00 7.548189e-01 4.196590e-01 1.528556e-01 -1.027501e-04
<VARIANCE> 25
 7.022775e+00 5.597096e+00 9.014096e+00 1.284343e+01 1.407588e+01 1.426815e+01 1.489777e+01 1.493231e+01 1.407583e+01 1.417097e+01 1.524006e+01 1.247383e+01 1.249225e-01 2.059380e-01 3.200369e-01 5.037473e-01 7.003437e-01 7.958876e-01 7.622328e-01 7.923459e-01 9.115025e-01 1.022756e+00 1.069305e+00 1.038908e+00 2.807959e-05
<GCONST> 5.860098e+01
<MIXTURE> 17 9.518312e-03
<MEAN> 25
 3.677023e+00 -8.986754e-01 6.008253e+00 2.268534e+00 -6.009370e+00 -6.460869e+00 -3.056767e+00 -2.770442e-02 -2.553335e+00 -2.959202e+00 5.633550e-02 -2.529576e-01 -7.115079e-01 -1.294815e+00 1.260365e+00 -2.152511e+00 -2.285877e+00 -1.919906e-01 1.877730e-01 8.298323e-01 -3.155147e-01 -1.238469e-01 1.012310e+00 3.358529e-01 8.211520e-02
<VARIANCE> 25
 1.644995e+01 3.068197e+01 3.204180e+01 3.827073e+01 4.333959e+01 5.140561e+01 4.114197e+01 3.360736e+01 3.494242e+01 2.805479e+01 2.775627e+01 2.824678e+01 1.880041e+00 2.852484e+00 4.090161e+00 2.995190e+00 4.064651e+00 5.361372e+00 4.854815e+00 4.830126e+00 3.917154e+00 4.002981e+00 3.107170e+00 2.811368e+00 2.072526e-03
<GCONST> 9.693781e+01
<MIXTURE> 18 1.221018e-02
<MEAN> 25
 3.533660e+00 4.781169e+00 6.671476e+00 3.781765e+00 -4.296839e+00 -8.713336e+00 -2.720607e+00 -1.118961e+00 -4.675688e+00 -2.862218e+00 -4.052329e-03 7.180210e-01 -8.298288e-01 2.007770e+00 -4.519619e-01 1.631283e+00 2.880996e+00 1.610217e+00 9.201661e-01 -3.333892e-01 8.068172e-01 5.598921e-01 -9.513297e-01 8.814381e-03 -1.099667e-01
<VARIANCE> 25
 1.479589e+01 2.193536e+01 2.811406e+01 2.466862e+01 3.417935e+01 3.632238e+01 3.557986e+01 3.062892e+01 4.206604e+01 3.069418e+01 3.176856e+01 2.573485e+01 2.186404e+00 3.066758e+00 4.087727e+00 3.800339e+00 3.521904e+00 4.156532e+00 4.018981e+00 3.792407e+00 3.810616e+00 3.524261e+00 5.205458e+00 3.126920e+00 4.148916e-03
<GCONST> 9.621457e+01
<MIXTURE> 19 9.912824e-03
<MEAN> 25
 -8.918500e+00 1.737888e+00 -7.337192e-01 -1.509650e-01 2.944664e+00 2.241460e+00 3.450532e+00 1.360574e+00 1.846556e+00 1.287249e+00 1.155239e+00 1.969815e+00 2.042067e+00 1.844537e+00 2.237008e+00 7.283100e-01 -1.073138e+00 -9.980580e-01 -1.129738e+00 -1.441182e+00 -1.626744e+00 -1.213858e+00 -7.530343e-01 -8.382046e-01 5.118214e-03
<VARIANCE> 25
 6.189659e+01 2.831009e+01 5.470533e+01 6.424843e+01 4.185981e+01 3.521925e+01 2.865646e+01 2.837381e+01 2.676972e+01 2.608037e+01 2.804259e+01 1.807667e+01 2.243421e+00 2.195019e+00 2.107204e+00 2.122416e+00 2.337828e+00 2.058201e+00 2.396796e+00 2.438449e+00 2.417071e+00 1.934465e+00 2.218083e+00 1.641374e+00 2.490172e-03
<GCONST> 9.162172e+01
<MIXTURE> 20 6.308331e-03
<MEAN> 25
 -1.417843e+01 7.417971e+00 8.374767e-01 6.147985e+00 4.842499e+00 1.633444e+00 5.206235e+00 8.514632e-01 9.213560e-01 7.995679e-01 2.570282e+00 -3.031096e-01 -3.286440e+00 -8.646960e-01 -1.564123e+00 3.327920e-01 1.540747e+00 2.061151e+00 1.978990e+00 2.057080e+00 2.142798e+00 2.039014e+00 1.683140e+00 9.446078e-01 4.735251e-02
<VARIANCE> 25
 1.967156e+01 2.346840e+01 3.102056e+01 3.718422e+01 3.084369e+01 2.789117e+01 2.993155e+01 3.146545e+01 2.794426e+01 2.820756e+01 2.514982e+01 2.090771e+01 2.092201e+00 2.187188e+00 1.910411e+00 2.540356e+00 2.702698e+00 2.316864e+00 2.308658e+00 2.319795e+00 2.239387e+00 2.653931e+00 2.246044e+00 1.865394e+00 1.890433e-03
<GCONST> 8.922913e+01
<MIXTURE> 21 7.928653e-03
<MEAN> 25
 4.005733e+00 -4.531114e+00 5.773649e+00 -1.546559e+00 -1.058195e+01 -8.726916e+00 -2.615610e+00 4.175086e+00 -2.072156e+00 -3.409831e+00 2.436699e-01 3.401756e-01 -7.194131e-01 1.341614e+00 2.589317e+00 -4.474659e-02 -1.551860e+00 3.358162e-01 5.888953e-01 -1.497860e+00 -1.958023e+00 3.135206e-01 1.326111e+00 2.466158e-01 -1.278742e-02
<VARIANCE> 25
 8.899679e+00 1.872913e+01 2.967239e+01 2.840532e+01 2.857191e+01 3.320667e+01 4.294308e+01 3.937550e+01 4.293009e+01 3.159685e+01 3.383118e+01 2.323613e+01 3.763727e-01 9.497153e-01 1.855034e+00 1.290518e+00 2.212448e+00 2.187766e+00 3.641279e+00 2.501301e+00 2.161702e+00 2.595315e+00 2.018650e+00 2.284775e+00 4.287547e-04
<GCONST> 8.509672e+01
<MIXTURE> 22 8.827789e-03
<MEAN> 25
 -1.792172e+01 7.169802e+00 -4.129321e+00 7.343312e+00 4.612317e+00 2.749281e+00 8.412849e+00 1.782499e+00 5.360206e+00 3.305112e+00 5.690989e+00 1.188674e+00 -3.069112e-01 -2.010634e-01 -1.123349e-01 -1.489006e-01 -5.992140e-03 1.303993e-01 1.738265e-01 1.860186e-01 2.423336e-01 2.046262e-01 1.726855e-01 1.976327e-01 8.848822e-03
<VARIANCE> 25
 8.082620e+00 1.680666e+01 1.731060e+01 2.563000e+01 2.282147e+01 2.078088e+01 1.938819e+01 1.890203e+01 1.814811e+01 2.078202e+01 1.931138e+01 1.373158e+01 1.087780e+00 1.361551e+00 1.399055e+00 1.565388e+00 1.403180e+00 1.530567e+00 1.513763e+00 1.541554e+00 1.616193e+00 1.539886e+00 1.351656e+00 1.169336e+00 1.738191e-03
<GCONST> 7.833531e+01
<MIXTURE> 23 6.455497e-03
<MEAN> 25
 7.820162e+00 2.431173e+00 3.092595e+00 2.423730e+00 -4.838620e+00 -3.175019e+00 -4.189659e+00 -6.349223e+00 -3.465064e+00 -1.018992e+00 -4.087360e+00 -2.147282e+00 2.677096e-02 1.793598e-01 7.666755e-03 7.264802e-02 -1.215571e-03 5.099094e-02 3.274825e-02 -3.501640e-02 2.155370e-02 3.941598e-02 -1.534949e-02 2.695319e-02 -4.426395e-03
<VARIANCE> 25
 1.107260e+01 2.219031e+01 2.444218e+01 4.014500e+01 3.744011e+01 5.343946e+01 5.854398e+01 5.541184e+01 4.758899e+01 4.634545e+01 4.842734e+01 3.960115e+01 1.218280e-01 2.902348e-01 3.723812e-01 5.059146e-01 5.920867e-01 7.032430e-01 7.813895e-01 8.742412e-01 8.751188e-01 8.761191e-01 8.349276e-01 7.627144e-01 8.762798e-05
<GCONST> 7.295535e+01
<MIXTURE> 24 6.455497e-03
<MEAN> 25
 7.820162e+00 2.431173e+00 3.092595e+00 2.423730e+00 -4.838620e+00 -3.175019e+00 -4.189659e+00 -6.349223e+00 -3.465064e+00 -1.018992e+00 -4.087360e+00 -2.147282e+00 2.677096e-02 1.793598e-01 7.666755e-03 7.264802e-02 -1.215571e-03 5.099094e-02 3.274825e-02 -3.501640e-02 2.155370e-02 3.941598e-02 -1.534949e-02 2.695319e-02 -4.426395e-03
<VARIANCE> 25
 1.107260e+01 2.219031e+01 2.444218e+01 4.014500e+01 3.744011e+01 5.343946e+01 5.854398e+01 5.541184e+01 4.758899e+01 4.634545e+01 4.842734e+01 3.960115e+01 1.218280e-01 2.902348e-01 3.723812e-01 5.059146e-01 5.920867e-01 7.032430e-01 7.813895e-01 8.742412e-01 8.751188e-01 8.761191e-01 8.349276e-01 7.627144e-01 8.762798e-05
<GCONST> 7.295535e+01
<MIXTURE> 25 1.118642e-02
<MEAN> 25
 8.552751e-01 3.526061e+00 1.502958e+01 -1.315260e+00 -9.388671e+00 -4.675299e+00 -6.087350e+00 -2.511215e+00 -8.973529e+00 -5.419641e+00 6.327130e+00 -7.693037e-01 -3.551624e-02 4.121886e-01 2.765845e-02 1.857627e-01 6.355479e-02 1.906693e-01 3.028977e-03 5.931491e-02 -1.572018e-01 1.632520e-01 -3.762341e-01 5.123115e-02 -1.468369e-02
<VARIANCE> 25
 7.144864e+00 1.562260e+01 2.027901e+01 2.310209e+01 2.909620e+01 4.495018e+01 2.190684e+01 2.393299e+01 2.758685e+01 2.743005e+01 2.339279e+01 2.297887e+01 6.251748e-01 1.319601e+00 1.183617e+00 1.378772e+00 1.935491e+00 1.695976e+00 1.592819e+00 1.529590e+00 1.384564e+00 1.233460e+00 1.566871e+00 1.155909e+00 1.011091e-03
<GCONST> 7.977470e+01
<MIXTURE> 26 7.727677e-03
<MEAN> 25
 2.096338e+00 -6.054008e+00 -9.007780e+00 -3.003920e-01 7.354839e+00 5.568091e+00 4.024309e+00 -1.655479e-01 2.365156e+00 -1.571285e+00 -2.828313e+00 -1.014842e+00 -6.060024e-01 7.119822e-01 4.819182e-01 6.331463e-01 -2.905057e-02 2.767006e-01 4.592209e-01 1.207998e-01 2.209078e-01 1.732574e-02 1.790905e-01 4.027219e-01 -5.437643e-02
<VARIANCE> 25
 2.130304e+01 3.099917e+01 2.841031e+01 5.422072e+01 3.380372e+01 3.571751e+01 4.243055e+01 4.047421e+01 3.374376e+01 5.267510e+01 3.740945e+01 3.762341e+01 1.476194e+00 1.808194e+00 1.691209e+00 1.765415e+00 2.189800e+00 2.174899e+00 2.293634e+00 2.767255e+00 2.461668e+00 2.764874e+00 2.030707e+00 1.858049e+00 2.980302e-03
<GCONST> 9.197123e+01
<MIXTURE> 27 7.727677e-03
<MEAN> 25
 2.096338e+00 -6.054008e+00 -9.007780e+00 -3.003920e-01 7.354839e+00 5.568091e+00 4.024309e+00 -1.655479e-01 2.365156e+00 -1.571285e+00 -2.828313e+00 -1.014842e+00 -6.060024e-01 7.119822e-01 4.819182e-01 6.331463e-01 -2.905057e-02 2.767006e-01 4.592209e-01 1.207998e-01 2.209078e-01 1.732574e-02 1.790905e-01 4.027219e-01 -5.437643e-02
<VARIANCE> 25
 2.130304e+01 3.099917e+01 2.841031e+01 5.422072e+01 3.380372e+01 3.571751e+01 4.243055e+01 4.047421e+01 3.374376e+01 5.267510e+01 3.740945e+01 3.762341e+01 1.476194e+00 1.808194e+00 1.691209e+00 1.765415e+00 2.189800e+00 2.174899e+00 2.293634e+00 2.767255e+00 2.461668e+00 2.764874e+00 2.030707e+00 1.858049e+00 2.980302e-03
<GCONST> 9.197123e+01
<MIXTURE> 28 5.036674e-03
<MEAN> 25
 -5.259084e+00 -1.372243e-01 -1.439511e+00 6.450562e+00 5.006763e+00 3.559545e+00 5.381948e+00 3.099144e+00 4.021905e+00 2.280417e+00 2.364485e+00 3.239856e+00 -1.274220e-01 2.292510e-01 5.344943e-01 7.983047e-01 8.225477e-01 6.730014e-01 4.943802e-01 3.815347e-01 4.039853e-01 4.567687e-01 3.641188e-01 1.948424e-01 -5.149370e-05
<VARIANCE> 25
 1.068374e+01 8.389442e+00 1.193324e+01 1.490950e+01 1.506490e+01 1.716108e+01 1.729378e+01 1.821947e+01 1.667527e+01 1.656755e+01 2.150349e+01 1.454238e+01 2.536121e-01 3.277127e-01 3.945466e-01 4.594594e-01 6.016279e-01 8.471582e-01 1.037223e+00 1.106156e+00 1.091049e+00 1.005931e+00 1.017326e+00 1.061821e+00 1.004639e-06
<GCONST> 5.992596e+01
<MIXTURE> 29 5.036674e-03
<MEAN> 25
 -5.259084e+00 -1.372243e-01 -1.439511e+00 6.450562e+00 5.006763e+00 3.559545e+00 5.381948e+00 3.099144e+00 4.021905e+00 2.280417e+00 2.364485e+00 3.239856e+00 -1.274220e-01 2.292510e-01 5.344943e-01 7.983047e-01 8.225477e-01 6.730014e-01 4.943802e-01 3.815347e-01 4.039853e-01 4.567687e-01 3.641188e-01 1.948424e-01 -5.149370e-05
<VARIANCE> 25
 1.068374e+01 8.389442e+00 1.193324e+01 1.490950e+01 1.506490e+01 1.716108e+01 1.729378e+01 1.821947e+01 1.667527e+01 1.656755e+01 2.150349e+01 1.454238e+01 2.536121e-01 3.277127e-01 3.945466e-01 4.594594e-01 6.016279e-01 8.471582e-01 1.037223e+00 1.106156e+00 1.091049e+00 1.005931e+00 1.017326e+00 1.061821e+00 1.004639e-06
<GCONST> 5.992596e+01
<MIXTURE> 30 8.917812e-03
<MEAN> 25
 -4.424973e+00 -2.466726e-01 6.979262e-01 8.910730e+00 7.684108e+00 7.496123e+00 7.567157e+00 6.797526e+00 6.534925e+00 4.777872e+00 6.724346e+00 3.490201e+00 -1.961145e-02 3.343356e-02 6.203106e-02 1.012389e-01 8.781585e-02 6.253776e-02 1.216660e-02 -1.721371e-02 5.792546e-03 5.751151e-02 6.261263e-02 2.464377e-02 -6.326179e-04
<VARIANCE> 25
 6.989357e+00 9.704005e+00 1.027026e+01 1.449353e+01 1.575040e+01 1.606173e+01 1.877958e+01 1.803080e+01 1.628247e+01 1.850048e+01 2.370498e+01 1.400496e+01 9.724264e-02 1.968461e-01 3.249713e-01 4.872250e-01 6.180351e-01 7.313548e-01 7.621276e-01 8.071524e-01 8.975682e-01 9.240571e-01 9.175410e-01 8.720313e-01 5.060466e-05
<GCONST> 6.065757e+01
<MIXTURE> 31 4.136493e-03
<MEAN> 25
 -3.267488e+00 -5.542617e+00 1.039546e-02 4.545727e+00 3.566353e+00 1.688150e+00 5.266624e+00 6.407339e+00 2.745233e+00 1.410056e+00 6.225789e+00 2.957745e+00 2.669719e-01 4.669525e-01 -1.641672e-01 3.233508e-01 9.006649e-02 4.067352e-01 1.577959e-01 3.428920e-02 3.848512e-01 3.681282e-01 7.936870e-02 9.506666e-02 -1.899866e-02
<VARIANCE> 25
 7.360971e+00 1.498196e+01 1.706440e+01 1.998637e+01 2.476371e+01 2.324636e+01 2.300433e+01 2.813227e+01 2.572815e+01 3.121537e+01 2.188600e+01 1.896343e+01 1.946352e-01 4.814168e-01 6.210160e-01 7.399449e-01 9.490626e-01 1.094786e+00 1.202856e+00 1.447634e+00 1.375748e+00 1.367213e+00 1.297722e+00 1.160158e+00 2.691592e-04
<GCONST> 7.229541e+01
<MIXTURE> 32 4.136493e-03
<MEAN> 25
 -3.267488e+00 -5.542617e+00 1.039546e-02 4.545727e+00 3.566353e+00 1.688150e+00 5.266624e+00 6.407339e+00 2.745233e+00 1.410056e+00 6.225789e+00 2.957745e+00 2.669719e-01 4.669525e-01 -1.641672e-01 3.233508e-01 9.006649e-02 4.067352e-01 1.577959e-01 3.428920e-02 3.848512e-01 3.681282e-01 7.936870e-02 9.506666e-02 -1.899866e-02
<VARIANCE> 25
 7.360971e+00 1.498196e+01 1.706440e+01 1.998637e+01 2.476371e+01 2.324636e+01 2.300433e+01 2.813227e+01 2.572815e+01 3.121537e+01 2.188600e+01 1.896343e+01 1.946352e-01 4.814168e-01 6.210160e-01 7.399449e-01 9.490626e-01 1.094786e+00 1.202856e+00 1.447634e+00 1.375748e+00 1.367213e+00 1.297722e+00 1.160158e+00 2.691592e-04
<GCONST> 7.229541e+01
<MIXTURE> 33 1.508826e-02
<MEAN> 25
 6.346325e+00 -4.245338e+00 -2.398729e+00 -2.046513e+00 -1.392716e+00 -4.943637e+00 -6.813663e+00 1.528819e+00 2.224500e+00 -1.836943e-01 -4.494701e+00 -3.110399e+00 6.959152e-01 -1.268802e+00 -2.435693e+00 -1.796522e+00 1.414020e+00 1.284873e+00 -5.989407e-01 6.807615e-01 1.104971e+00 5.903453e-01 -2.308670e-01 -1.256042e+00 3.912416e-02
<VARIANCE> 25
 1.030698e+01 2.309104e+01 2.831766e+01 3.582005e+01 4.633162e+01 4.807533e+01 4.320909e+01 4.513589e+01 3.752302e+01 4.089893e+01 3.253167e+01 2.593267e+01 1.104208e+00 2.665889e+00 2.496165e+00 2.298649e+00 4.518621e+00 3.817308e+00 4.158759e+00 5.226937e+00 3.638497e+00 4.135620e+00 3.151551e+00 2.576703e+00 1.434142e-03
<GCONST> 9.471126e+01
<MIXTURE> 34 1.588179e-02
<MEAN> 25
 8.763360e+00 2.578401e-02 -2.465301e-01 1.005360e+00 -2.698645e+00 -1.500761e+00 -5.871171e+00 -4.084072e+00 -1.275926e+00 9.450791e-03 -2.593149e+00 -3.445256e+00 -1.330750e-01 1.277741e+00 1.456780e+00 2.302333e+00 5.205153e-02 6.595066e-02 7.795565e-01 -1.547619e+00 -8.108718e-01 1.834778e-01 -6.863281e-01 3.102733e-01 -6.427650e-02
<VARIANCE> 25
 7.471241e+00 2.854605e+01 2.871393e+01 4.718696e+01 3.960221e+01 4.527400e+01 5.132554e+01 5.796460e+01 5.116727e+01 4.006625e+01 4.604609e+01 2.951653e+01 1.319878e+00 1.916295e+00 4.034193e+00 3.819705e+00 5.316381e+00 5.812421e+00 5.094450e+00 5.678572e+00 5.153271e+00 4.943625e+00 4.770049e+00 3.644365e+00 1.115843e-03
<GCONST> 9.860455e+01
<MIXTURE> 35 1.467755e-02
<MEAN> 25
 -1.527528e+00 -5.841726e+00 -9.348686e+00 4.579759e-01 9.282808e+00 1.344569e+00 7.870868e-01 1.881246e+00 1.589665e+00 4.515427e+00 -1.784713e-01 1.422907e+00 5.462598e-01 -1.261088e+00 -1.692255e+00 -1.329221e+00 5.488696e-01 -6.158373e-01 -5.294261e-01 -4.415121e-02 6.495149e-02 3.868385e-01 -3.461992e-01 -3.452974e-01 1.018274e-01
<VARIANCE> 25
 2.122101e+01 3.255882e+01 4.178812e+01 5.854340e+01 4.559611e+01 5.278985e+01 5.261730e+01 4.219144e+01 4.384584e+01 3.618246e+01 3.510551e+01 2.895301e+01 3.208198e+00 4.094510e+00 6.574883e+00 5.337607e+00 5.522706e+00 5.711912e+00 4.529047e+00 4.341812e+00 5.287913e+00 4.540497e+00 4.278124e+00 3.620955e+00 4.913548e-03
<GCONST> 1.032386e+02
<MIXTURE> 36 1.093293e-02
<MEAN> 25
 4.593187e+00 -2.529035e+00 7.069917e+00 1.970430e+00 -9.286507e+00 -9.074366e+00 -6.987218e+00 3.132169e+00 -3.501360e+00 -3.769471e+00 3.811107e+00 6.602316e-02 3.573400e-01 2.099619e-01 -8.813800e-01 2.298885e-01 6.839232e-01 3.267168e-01 -4.142161e-01 6.973685e-02 5.780025e-01 3.707149e-01 -6.733816e-01 -1.762809e-01 -2.253186e-02
<VARIANCE> 25
 8.611874e+00 2.120879e+01 2.495451e+01 2.579320e+01 2.597805e+01 2.543366e+01 4.053805e+01 3.130680e+01 4.552223e+01 3.240511e+01 2.777668e+01 2.268356e+01 4.255905e-01 6.573077e-01 1.197841e+00 1.252618e+00 1.523069e+00 1.693579e+00 1.847458e+00 1.496217e+00 1.884614e+00 1.598257e+00 1.486695e+00 1.430641e+00 7.490260e-04
<GCONST> 8.076016e+01
<MIXTURE> 37 1.246826e-02
<MEAN> 25
 5.551227e-01 7.742045e+00 1.201272e+01 -5.507546e+00 -7.978828e+00 -1.048792e+00 -5.102782e+00 -8.295866e+00 -3.727880e+00 -9.126149e-01 -3.664726e+00 -1.270172e+00 1.753309e-01 6.357239e-01 -1.351144e+00 3.562408e+00 1.989409e+00 -2.760026e-01 1.098651e+00 4.272189e-01 5.402660e-01 -3.162030e-01 5.109097e-01 -1.032328e-01 -9.455341e-02
<VARIANCE> 25
 1.582318e+01 2.589489e+01 3.082209e+01 5.086552e+01 3.404052e+01 3.193156e+01 4.372936e+01 3.494630e+01 3.836876e+01 3.569512e+01 3.756489e+01 3.070415e+01 2.942337e+00 3.413909e+00 3.000975e+00 4.121108e+00 4.581447e+00 3.800048e+00 4.208595e+00 3.795820e+00 3.441900e+00 3.599252e+00 3.934828e+00 2.775859e+00 3.929441e-03
<GCONST> 9.773405e+01
<MIXTURE> 38 1.154525e-02
<MEAN> 25
 -4.628326e+00 9.795372e+00 3.436233e+00 2.833616e+00 6.479883e-01 -6.105675e+00 -1.339049e+00 -2.787374e+00 -3.600073e+00 -3.101988e+00 -1.054212e+00 -1.210093e-01 -4.180886e+00 1.584118e+00 -3.435575e-01 1.053418e+00 2.210524e+00 1.378372e+00 1.667044e+00 9.573787e-01 9.573746e-01 7.460574e-01 4.498070e-01 1.414192e-01 4.316689e-02
<VARIANCE> 25
 2.606742e+01 3.018689e+01 4.099000e+01 2.816990e+01 3.969242e+01 3.762089e+01 3.254278e+01 3.369483e+01 3.367389e+01 3.079915e+01 2.329283e+01 2.499037e+01 2.376974e+00 3.578054e+00 3.312738e+00 4.944776e+00 3.961024e+00 4.580422e+00 4.535896e+00 4.058600e+00 3.773061e+00 4.323084e+00 5.284859e+00 2.977984e+00 2.227305e-03
<GCONST> 9.747498e+01
<MIXTURE> 39 9.501865e-03
<MEAN> 25
 1.332819e+00 2.603229e+00 1.020748e+01 -9.214058e+00 -1.128366e+01 -9.969770e-01 -2.967585e+00 -6.566068e+00 -4.519006e+00 8.783469e-01 -3.675719e+00 -2.293994e+00 -7.279845e-01 1.521854e+00 1.625073e+00 -1.388295e+00 7.780518e-02 1.221029e+00 -1.199861e+00 -1.248912e+00 4.313285e-01 4.442586e-01 -5.089603e-01 1.216143e-01 1.279823e-03
<VARIANCE> 25
 8.951527e+00 3.010058e+01 3.167511e+01 3.823621e+01 3.721659e+01 4.271277e+01 4.438925e+01 3.352538e+01 3.951562e+01 3.328865e+01 3.623289e+01 2.941124e+01 6.925235e-01 1.547239e+00 1.513135e+00 2.925522e+00 2.417165e+00 2.824200e+00 3.050462e+00 2.759724e+00 2.435104e+00 2.617941e+00 2.127315e+00 2.071481e+00 1.185179e-03
<GCONST> 8.967803e+01
<MIXTURE> 40 1.030800e-02
<MEAN> 25
 -9.144692e+00 1.985266e+00 -1.074053e+00 8.090811e+00 3.745665e+00 5.486657e+00 5.216287e+00 4.161140e+00 4.659467e+00 4.221310e+00 5.558755e+00 1.701889e+00 -1.066891e-01 -2.458174e-01 -3.537051e-02 -2.422996e-01 -1.191803e-01 -1.174751e-01 7.170928e-02 5.875637e-02 -7.920894e-03 2.206608e-02 8.036590e-02 2.626368e-02 3.658306e-03
<VARIANCE> 25
 4.330758e+01 2.105029e+01 2.908758e+01 2.731581e+01 2.596539e+01 1.918446e+01 1.973172e+01 1.891568e+01 1.721026e+01 1.851209e+01 1.943022e+01 1.455017e+01 7.613119e-01 7.609488e-01 8.728802e-01 1.103754e+00 1.127098e+00 1.300990e+00 1.329596e+00 1.308158e+00 1.258663e+00 1.247804e+00 1.165754e+00 1.070938e+00 8.551314e-04
<GCONST> 7.694360e+01
<MIXTURE> 41 6.713375e-03
<MEAN> 25
 1.287754e+00 1.757141e+00 1.042312e+01 -6.952220e+00 -1.044856e+01 -3.858449e+00 -2.479247e+00 -5.032415e+00 -4.633658e+00 2.680314e+00 -1.726114e+00 -9.389510e-01 7.358521e-02 -7.629261e-01 1.684599e+00 -3.551089e+00 -2.451266e+00 -1.213569e-01 -5.073495e-01 -3.580899e-01 -8.288907e-01 1.097598e+00 -1.028142e+00 8.648971e-02 8.636255e-02
<VARIANCE> 25
 1.179343e+01 2.973907e+01 3.311635e+01 3.995527e+01 3.865166e+01 4.014390e+01 3.701959e+01 2.979154e+01 3.308325e+01 2.880002e+01 3.187367e+01 2.717652e+01 3.178011e+00 3.313044e+00 3.852958e+00 3.797564e+00 4.909043e+00 5.868729e+00 4.697460e+00 4.555769e+00 3.961578e+00 4.241049e+00 3.897775e+00 3.220515e+00 2.922455e-03
<GCONST> 9.794850e+01
<MIXTURE> 42 1.106211e-02
<MEAN> 25
 -1.876362e+00 5.552738e+00 3.263271e+00 3.038126e+00 -8.507441e-02 -7.135656e+00 -1.898256e+00 -2.072314e+00 -1.683871e+00 -8.718286e-01 -1.089006e+00 1.441973e+00 4.104741e+00 -1.088715e+00 1.780879e+00 6.789418e-02 -2.823757e+00 -1.701935e+00 -2.362455e+00 -7.108394e-01 -8.782073e-01 -7.487863e-01 6.769816e-01 -1.056373e+00 1.065355e-02
<VARIANCE> 25
 3.114807e+01 2.300180e+01 5.071880e+01 2.327866e+01 3.544809e+01 3.892612e+01 3.284035e+01 2.210196e+01 2.640636e+01 2.375512e+01 2.294375e+01 1.465104e+01 3.216998e+00 6.163205e+00 5.312576e+00 4.131109e+00 3.806188e+00 5.748429e+00 5.406486e+00 5.985328e+00 4.648788e+00 4.286592e+00 5.229774e+00 3.178801e+00 3.678253e-03
<GCONST> 9.850689e+01
<MIXTURE> 43 7.108249e-03
<MEAN> 25
 3.029103e+00 -6.107306e+00 -2.241611e+00 -4.908051e+00 -6.872260e+00 -3.059547e+00 4.082646e+00 1.054259e+00 -4.823997e+00 -6.989867e+00 -4.166354e+00 -1.171343e+00 2.104689e-01 2.091577e+00 1.869405e+00 -9.867939e-02 -1.417859e+00 -7.705154e-01 -9.470195e-01 -7.457098e-01 8.390176e-01 1.519104e+00 3.005308e-01 6.024405e-02 -4.533784e-02
<VARIANCE> 25
 9.591906e+00 1.963165e+01 2.623248e+01 3.525121e+01 4.158553e+01 3.715718e+01 3.216852e+01 3.962614e+01 3.901018e+01 3.746739e+01 2.631205e+01 2.859164e+01 6.847816e-01 1.288842e+00 1.557912e+00 2.413964e+00 2.274724e+00 2.323639e+00 2.584450e+00 2.991797e+00 2.572018e+00 2.676020e+00 2.330783e+00 1.872153e+00 9.297172e-04
<GCONST> 8.775009e+01
<MIXTURE> 44 7.328289e-03
<MEAN> 25
 -1.471609e+01 1.355751e+00 3.285856e+00 -3.434610e+00 3.113902e+00 1.895697e+00 1.003966e-01 2.294232e+00 1.497829e+00 -3.787406e-01 1.931872e+00 1.933759e+00 -1.759058e-01 3.314936e-02 1.942087e-01 2.879131e-01 -1.610581e-01 1.224502e-01 4.344016e-01 1.862891e-01 3.135960e-01 2.354226e-01 2.347159e-02 4.177720e-02 5.056290e-03
<VARIANCE> 25
 4.493263e+01 2.858883e+01 3.417028e+01 2.920621e+01 2.992571e+01 3.004669e+01 2.505661e+01 3.283167e+01 2.668958e+01 3.600322e+01 2.741203e+01 1.957606e+01 1.191324e+00 1.477016e+00 1.339809e+00 1.284474e+00 2.076776e+00 1.711230e+00 1.463088e+00 1.666561e+00 1.674424e+00 1.787860e+00 1.455778e+00 1.231084e+00 1.292907e-03
<GCONST> 8.497439e+01
<MIXTURE> 45 1.364932e-02
<MEAN> 25
 -1.135653e+01 3.660869e+00 -2.320614e+00 1.830926e+00 5.014513e+00 -4.274346e-01 4.386649e+00 1.799479e+00 2.935348e+00 1.825488e+00 2.145130e+00 1.779733e+00 -3.267243e+00 9.310979e-01 -6.470761e-01 -5.148801e-01 5.198687e-01 -3.022189e-01 5.266009e-01 4.306199e-01 -1.862823e-01 2.974775e-01 5.975179e-01 4.212710e-02 1.215159e-01
<VARIANCE> 25
 3.726478e+01 2.878159e+01 3.025921e+01 3.239192e+01 3.041729e+01 2.558478e+01 2.434684e+01 2.563424e+01 2.187300e+01 2.060812e+01 2.524388e+01 1.665628e+01 2.447003e+00 2.807503e+00 2.670671e+00 2.231282e+00 2.428623e+00 2.593324e+00 2.027619e+00 2.820904e+00 1.815019e+00 2.310312e+00 2.830570e+00 1.413316e+00 3.503075e-03
<GCONST> 8.952011e+01
<MIXTURE> 46 9.336259e-03
<MEAN> 25
 -9.366751e+00 2.347654e+00 1.089778e+00 7.438252e+00 5.857947e+00 3.300439e+00 6.982999e+00 4.470967e+00 5.656408e+00 4.653077e+00 5.069426e+00 2.876155e+00 1.030874e+00 -2.262924e-01 5.187914e-02 1.004127e+00 5.920136e-01 9.414895e-01 4.086428e-01 6.705960e-01 4.601968e-01 4.727297e-01 6.162674e-01 5.340748e-01 -1.048677e-01
<VARIANCE> 25
 3.444098e+01 4.475746e+01 3.897061e+01 5.079912e+01 5.068309e+01 4.035154e+01 3.731255e+01 3.542947e+01 3.305825e+01 3.125994e+01 2.815414e+01 2.013755e+01 3.937145e+00 4.105603e+00 3.840406e+00 4.097171e+00 4.140872e+00 3.685655e+00 3.372645e+00 3.191231e+00 3.021549e+00 2.981435e+00 2.367019e+00 1.777560e+00 7.892982e-03
<GCONST> 9.840251e+01
<MIXTURE> 47 7.116147e-03
<MEAN> 25
 7.193087e+00 -7.435997e+00 -7.609888e+00 -6.157830e+00 1.425373e+00 5.907993e-01 -2.391101e+00 1.359991e+00 2.893835e+00 3.650506e-01 -4.076613e+00 -6.613321e+00 -1.779533e-01 -1.293279e+00 -6.677371e-01 -4.510353e-01 6.386440e-01 8.285465e-01 8.949082e-01 3.650369e-01 1.203126e-01 -8.558562e-01 -4.617841e-01 -4.644097e-01 3.051185e-02
<VARIANCE> 25
 1.074295e+01 2.154098e+01 2.070272e+01 3.387977e+01 3.848265e+01 5.610328e+01 4.400303e+01 4.027649e+01 4.243482e+01 4.621515e+01 4.725588e+01 3.294666e+01 5.128699e-01 8.106200e-01 1.325366e+00 1.655130e+00 1.958563e+00 2.146881e+00 2.247410e+00 2.607553e+00 2.264794e+00 2.096092e+00 2.110643e+00 1.974830e+00 5.397171e-04
<GCONST> 8.660624e+01
<MIXTURE> 48 7.116147e-03
<MEAN> 25
 7.193087e+00 -7.435997e+00 -7.609888e+00 -6.157830e+00 1.425373e+00 5.907993e-01 -2.391101e+00 1.359991e+00 2.893835e+00 3.650506e-01 -4.076613e+00 -6.613321e+00 -1.779533e-01 -1.293279e+00 -6.677371e-01 -4.510353e-01 6.386440e-01 8.285465e-01 8.949082e-01 3.650369e-01 1.203126e-01 -8.558562e-01 -4.617841e-01 -4.644097e-01 3.051185e-02
<VARIANCE> 25
 1.074295e+01 2.154098e+01 2.070272e+01 3.387977e+01 3.848265e+01 5.610328e+01 4.400303e+01 4.027649e+01 4.243482e+01 4.621515e+01 4.725588e+01 3.294666e+01 5.128699e-01 8.106200e-01 1.325366e+00 1.655130e+00 1.958563e+00 2.146881e+00 2.247410e+00 2.607553e+00 2.264794e+00 2.096092e+00 2.110643e+00 1.974830e+00 5.397171e-04
<GCONST> 8.660624e+01
<MIXTURE> 49 5.548473e-03
<MEAN> 25
 -5.037390e+00 2.768351e-01 2.324893e-01 8.352789e+00 6.132772e+00 5.632917e+00 6.043138e+00 4.450902e+00 5.042194e+00 3.657882e+00 4.666888e+00 2.793144e+00 3.688117e-01 6.547780e-01 6.945034e-01 3.658258e-01 -2.014168e-01 -6.666287e-01 -1.020941e+00 -1.125259e+00 -9.260766e-01 -6.438518e-01 -4.720513e-01 -2.837983e-01 -1.180715e-04
<VARIANCE> 25
 9.541821e+00 1.012463e+01 1.417438e+01 1.602566e+01 1.567803e+01 1.686875e+01 1.911528e+01 1.930701e+01 1.795628e+01 1.787496e+01 2.374994e+01 1.452259e+01 2.782773e-01 2.589076e-01 3.577555e-01 6.273367e-01 8.662970e-01 9.775894e-01 1.020354e+00 1.047334e+00 1.174552e+00 1.274238e+00 1.292284e+00 1.206241e+00 1.457736e-05
<GCONST> 6.453323e+01
<MIXTURE> 50 6.234641e-03
<MEAN> 25
 -4.423185e+00 -1.667157e-01 -1.070866e+00 5.918514e+00 3.962682e+00 2.442935e+00 3.712229e+00 1.695197e+00 2.996888e+00 1.448807e+00 1.595683e+00 2.764572e+00 5.748359e-02 1.748960e-01 1.341375e-01 -2.077191e-01 -5.321700e-01 -5.747235e-01 -3.743127e-01 -8.321189e-03 4.102886e-01 7.228169e-01 6.867521e-01 4.544638e-01 -1.039982e-04
<VARIANCE> 25
 1.001924e+01 1.077081e+01 1.429369e+01 1.504115e+01 1.474546e+01 1.730395e+01 1.683948e+01 1.876360e+01 1.754567e+01 1.693909e+01 2.245942e+01 1.392240e+01 1.340702e-01 2.323807e-01 3.717532e-01 4.889223e-01 5.830731e-01 7.397161e-01 9.177043e-01 1.093250e+00 1.038230e+00 8.764386e-01 9.171060e-01 1.019086e+00 1.086041e-06
<GCONST> 5.882954e+01
<MIXTURE> 51 6.234641e-03
<MEAN> 25
 -4.423185e+00 -1.667157e-01 -1.070866e+00 5.918514e+00 3.962682e+00 2.442935e+00 3.712229e+00 1.695197e+00 2.996888e+00 1.448807e+00 1.595683e+00 2.764572e+00 5.748359e-02 1.748960e-01 1.341375e-01 -2.077191e-01 -5.321700e-01 -5.747235e-01 -3.743127e-01 -8.321189e-03 4.102886e-01 7.228169e-01 6.867521e-01 4.544638e-01 -1.039982e-04
<VARIANCE> 25
 1.001924e+01 1.077081e+01 1.429369e+01 1.504115e+01 1.474546e+01 1.730395e+01 1.683948e+01 1.876360e+01 1.754567e+01 1.693909e+01 2.245942e+01 1.392240e+01 1.340702e-01 2.323807e-01 3.717532e-01 4.889223e-01 5.830731e-01 7.397161e-01 9.177043e-01 1.093250e+00 1.038230e+00 8.764386e-01 9.171060e-01 1.019086e+00 1.086041e-06
<GCONST> 5.882954e+01
<MIXTURE> 52 6.367945e-03
<MEAN> 25
 1.009861e+01 2.144449e+00 -6.387966e+00 -1.412960e+01 -4.320710e+00 8.403046e+00 -3.576244e+00 -3.774985e+00 -5.488416e+00 -1.653062e+00 5.165146e+00 6.767943e-01 -3.660649e-01 -5.490353e-01 -1.572845e-01 1.147813e+00 1.481243e+00 -5.820226e-01 -6.985225e-01 -9.170096e-01 6.490385e-02 1.420331e+00 6.222827e-01 -6.333837e-01 -7.719755e-03
<VARIANCE> 25
 8.254338e+00 1.827294e+01 2.297888e+01 3.467137e+01 4.151159e+01 2.773693e+01 4.609012e+01 4.743850e+01 4.631980e+01 4.367572e+01 5.843327e+01 2.688139e+01 4.125024e-01 1.414108e+00 1.240727e+00 2.573503e+00 2.212899e+00 2.257410e+00 2.748290e+00 2.957755e+00 2.932653e+00 2.581549e+00 3.364776e+00 2.087356e+00 1.747929e-03
<GCONST> 8.930415e+01
<MIXTURE> 53 6.367945e-03
<MEAN> 25
 1.009861e+01 2.144449e+00 -6.387966e+00 -1.412960e+01 -4.320710e+00 8.403046e+00 -3.576244e+00 -3.774985e+00 -5.488416e+00 -1.653062e+00 5.165146e+00 6.767943e-01 -3.660649e-01 -5.490353e-01 -1.572845e-01 1.147813e+00 1.481243e+00 -5.820226e-01 -6.985225e-01 -9.170096e-01 6.490385e-02 1.420331e+00 6.222827e-01 -6.333837e-01 -7.719755e-03
<VARIANCE> 25
 8.254338e+00 1.827294e+01 2.297888e+01 3.467137e+01 4.151159e+01 2.773693e+01 4.609012e+01 4.743850e+01 4.631980e+01 4.367572e+01 5.843327e+01 2.688139e+01 4.125024e-01 1.414108e+00 1.240727e+00 2.573503e+00 2.212899e+00 2.257410e+00 2.748290e+00 2.957755e+00 2.932653e+00 2.581549e+00 3.364776e+00 2.087356e+00 1.747929e-03
<GCONST> 8.930415e+01
<MIXTURE> 54 7.368620e-03
<MEAN> 25
 -3.457179e+00 -2.165326e-01 -5.246401e-01 7.589520e+00 6.201446e+00 4.844597e+00 4.718375e+00 4.205515e+00 4.160486e+00 3.334700e+00 3.929649e+00 2.247901e+00 -3.689030e-03 7.790337e-03 1.786827e-02 4.174057e-02 2.509353e-02 3.947060e-03 3.339737e-02 5.118068e-02 5.189028e-02 5.326792e-03 -2.707922e-02 2.356285e-02 -1.164289e-05
<VARIANCE> 25
 8.786834e+00 1.040419e+01 8.999032e+00 1.918402e+01 1.376678e+01 1.356150e+01 1.114802e+01 1.215681e+01 1.105878e+01 1.380000e+01 1.935118e+01 1.172098e+01 3.888101e-02 9.494210e-02 1.548543e-01 2.194290e-01 3.001026e-01 4.072286e-01 4.403707e-01 5.390081e-01 5.409134e-01 4.988142e-01 5.500132e-01 4.886028e-01 9.458507e-07
<GCONST> 4.718515e+01
<MIXTURE> 55 7.368620e-03
<MEAN> 25
 -3.457179e+00 -2.165326e-01 -5.246401e-01 7.589520e+00 6.201446e+00 4.844597e+00 4.718375e+00 4.205515e+00 4.160486e+00 3.334700e+00 3.929649e+00 2.247901e+00 -3.689030e-03 7.790337e-03 1.786827e-02 4.174057e-02 2.509353e-02 3.947060e-03 3.339737e-02 5.118068e-02 5.189028e-02 5.326792e-03 -2.707922e-02 2.356285e-02 -1.164289e-05
<VARIANCE> 25
 8.786834e+00 1.040419e+01 8.999032e+00 1.918402e+01 1.376678e+01 1.356150e+01 1.114802e+01 1.215681e+01 1.105878e+01 1.380000e+01 1.935118e+01 1.172098e+01 3.888101e-02 9.494210e-02 1.548543e-01 2.194290e-01 3.001026e-01 4.072286e-01 4.403707e-01 5.390081e-01 5.409134e-01 4.988142e-01 5.500132e-01 4.886028e-01 9.458507e-07
<GCONST> 4.718515e+01
<MIXTURE> 56 6.132464e-03
<MEAN> 25
 7.595701e+00 -6.611204e+00 -9.115984e+00 -8.533703e+00 3.880486e+00 3.681433e+00 -1.991227e+00 -1.383298e+00 2.111995e+00 6.053622e-01 -2.443851e+00 -7.132498e+00 -9.507409e-03 5.214601e-02 -7.474425e-02 -1.532284e-02 2.258355e-01 2.739261e-02 7.191040e-02 -1.469034e-01 -5.155110e-02 -6.976700e-02 -7.462129e-02 5.777305e-02 -7.708513e-03
<VARIANCE> 25
 9.256076e+00 2.332702e+01 1.945704e+01 4.037899e+01 3.227550e+01 5.136922e+01 6.088162e+01 3.594610e+01 3.836945e+01 3.655706e+01 3.894665e+01 3.026827e+01 2.052474e-01 4.429477e-01 4.501437e-01 7.980711e-01 8.059877e-01 1.134070e+00 9.485654e-01 8.814074e-01 9.011531e-01 9.346986e-01 1.003379e+00 8.178235e-01 2.570706e-04
<GCONST> 7.508508e+01
<MIXTURE> 57 6.132464e-03
<MEAN> 25
 7.595701e+00 -6.611204e+00 -9.115984e+00 -8.533703e+00 3.880486e+00 3.681433e+00 -1.991227e+00 -1.383298e+00 2.111995e+00 6.053622e-01 -2.443851e+00 -7.132498e+00 -9.507409e-03 5.214601e-02 -7.474425e-02 -1.532284e-02 2.258355e-01 2.739261e-02 7.191040e-02 -1.469034e-01 -5.155110e-02 -6.976700e-02 -7.462129e-02 5.777305e-02 -7.708513e-03
<VARIANCE> 25
 9.256076e+00 2.332702e+01 1.945704e+01 4.037899e+01 3.227550e+01 5.136922e+01 6.088162e+01 3.594610e+01 3.836945e+01 3.655706e+01 3.894665e+01 3.026827e+01 2.052474e-01 4.429477e-01 4.501437e-01 7.980711e-01 8.059877e-01 1.134070e+00 9.485654e-01 8.814074e-01 9.011531e-01 9.346986e-01 1.003379e+00 8.178235e-01 2.570706e-04
<GCONST> 7.508508e+01
<MIXTURE> 58 6.172147e-03
<MEAN> 25
 2.624974e+00 -3.389297e+00 6.565798e+00 -4.902092e+00 -1.275511e+01 -6.126801e+00 1.249750e+00 1.745099e+00 -2.378124e+00 2.043604e+00 4.718941e-01 -1.288525e+00 -1.041071e-02 -1.647823e-01 -2.983163e-02 -1.475618e-01 1.908083e-02 3.431964e-01 3.254241e-01 2.756569e-01 5.392095e-02 7.796189e-03 -9.389959e-02 -5.722610e-02 -3.902671e-03
<VARIANCE> 25
 6.769646e+00 1.444938e+01 2.329239e+01 2.534813e+01 2.456236e+01 4.371175e+01 3.069819e+01 3.763427e+01 2.965929e+01 2.886600e+01 2.110712e+01 1.984921e+01 3.274291e-01 7.495316e-01 7.298624e-01 9.463992e-01 8.238754e-01 1.201999e+00 1.081550e+00 1.242757e+00 9.843538e-01 9.703726e-01 8.566980e-01 8.818988e-01 7.001383e-04
<GCONST> 7.465280e+01
<MIXTURE> 59 6.172147e-03
<MEAN> 25
 2.624974e+00 -3.389297e+00 6.565798e+00 -4.902092e+00 -1.275511e+01 -6.126801e+00 1.249750e+00 1.745099e+00 -2.378124e+00 2.043604e+00 4.718941e-01 -1.288525e+00 -1.041071e-02 -1.647823e-01 -2.983163e-02 -1.475618e-01 1.908083e-02 3.431964e-01 3.254241e-01 2.756569e-01 5.392095e-02 7.796189e-03 -9.389959e-02 -5.722610e-02 -3.902671e-03
<VARIANCE> 25
 6.769646e+00 1.444938e+01 2.329239e+01 2.534813e+01 2.456236e+01 4.371175e+01 3.069819e+01 3.763427e+01 2.965929e+01 2.886600e+01 2.110712e+01 1.984921e+01 3.274291e-01 7.495316e-01 7.298624e-01 9.463992e-01 8.238754e-01 1.201999e+00 1.081550e+00 1.242757e+00 9.843538e-01 9.703726e-01 8.566980e-01 8.818988e-01 7.001383e-04
<GCONST> 7.465280e+01
<MIXTURE> 60 4.479129e-03
<MEAN> 25
 -3.627086e+00 -9.678169e-01 -2.920062e-01 3.258791e+00 1.506707e+00 2.499834e+00 2.243432e+00 1.291473e+00 2.868717e+00 1.260138e+00 5.449734e-01 1.571342e+00 -4.894221e-02 4.550435e-02 1.424392e-01 8.713201e-02 4.279645e-02 8.754624e-02 1.836303e-01 3.163798e-01 4.543093e-01 6.438948e-01 4.843302e-01 2.858589e-01 -1.257197e-03
<VARIANCE> 25
 6.200107e+00 4.018567e+00 9.271222e+00 9.384627e+00 1.133098e+01 1.432935e+01 1.182644e+01 1.190368e+01 1.186495e+01 1.163812e+01 1.948899e+01 1.211696e+01 8.604178e-02 1.783511e-01 2.762513e-01 4.200086e-01 5.597252e-01 6.918160e-01 7.367139e-01 8.710147e-01 9.408633e-01 8.498005e-01 7.445043e-01 8.294805e-01 2.505704e-05
<GCONST> 5.503447e+01
<MIXTURE> 61 4.479129e-03
<MEAN> 25
 -3.627086e+00 -9.678169e-01 -2.920062e-01 3.258791e+00 1.506707e+00 2.499834e+00 2.243432e+00 1.291473e+00 2.868717e+00 1.260138e+00 5.449734e-01 1.571342e+00 -4.894221e-02 4.550435e-02 1.424392e-01 8.713201e-02 4.279645e-02 8.754624e-02 1.836303e-01 3.163798e-01 4.543093e-01 6.438948e-01 4.843302e-01 2.858589e-01 -1.257197e-03
<VARIANCE> 25
 6.200107e+00 4.018567e+00 9.271222e+00 9.384627e+00 1.133098e+01 1.432935e+01 1.182644e+01 1.190368e+01 1.186495e+01 1.163812e+01 1.948899e+01 1.211696e+01 8.604178e-02 1.783511e-01 2.762513e-01 4.200086e-01 5.597252e-01 6.918160e-01 7.367139e-01 8.710147e-01 9.408633e-01 8.498005e-01 7.445043e-01 8.294805e-01 2.505704e-05
<GCONST> 5.503447e+01
<MIXTURE> 62 3.278034e-03
<MEAN> 25
 -5.090500e+00 1.240745e+00 1.026305e+00 8.818109e+00 6.130788e+00 5.051063e+00 5.499225e+00 4.033258e+00 4.985995e+00 3.917441e+00 4.965460e+00 2.951040e+00 -1.003284e+00 -1.166634e+00 -9.531215e-01 -2.768143e-01 4.275472e-01 1.005109e+00 1.384633e+00 1.552118e+00 1.478584e+00 1.243337e+00 1.066997e+00 7.259955e-01 -1.265521e-03
<VARIANCE> 25
 9.874125e+00 9.959393e+00 1.311488e+01 1.673446e+01 1.741320e+01 1.752390e+01 1.969967e+01 1.911370e+01 1.885867e+01 1.872872e+01 2.156956e+01 1.479437e+01 4.017119e-01 4.320714e-01 5.542471e-01 7.793123e-01 1.035069e+00 1.192293e+00 1.252259e+00 1.279145e+00 1.329900e+00 1.363927e+00 1.400103e+00 1.371260e+00 1.632959e-05
<GCONST> 6.752699e+01
<MIXTURE> 63 4.351215e-03
<MEAN> 25
 -3.515575e+00 -2.565004e+00 -3.610938e+00 2.516809e+00 3.299707e+00 6.558596e-01 2.888593e+00 1.036089e+00 2.665931e+00 -9.013436e-01 -2.141517e+00 1.788128e+00 -1.082302e-01 3.159962e-01 4.389184e-01 5.104383e-01 3.756827e-01 4.625924e-01 3.671182e-01 3.404040e-01 1.655632e-01 2.586642e-01 1.657074e-01 1.088041e-01 -5.403835e-03
<VARIANCE> 25
 8.575676e+00 1.190522e+01 1.862914e+01 1.547959e+01 1.667166e+01 2.503751e+01 1.982065e+01 2.335777e+01 2.254915e+01 2.205029e+01 2.093948e+01 1.715173e+01 3.568152e-01 4.045955e-01 5.291797e-01 6.205921e-01 8.953181e-01 1.114340e+00 1.147223e+00 1.229944e+00 1.628655e+00 1.900200e+00 1.302301e+00 1.234729e+00 1.963807e-04
<GCONST> 7.086391e+01
<MIXTURE> 64 4.351215e-03
<MEAN> 25
 -3.515575e+00 -2.565004e+00 -3.610938e+00 2.516809e+00 3.299707e+00 6.558596e-01 2.888593e+00 1.036089e+00 2.665931e+00 -9.013436e-01 -2.141517e+00 1.788128e+00 -1.082302e-01 3.159962e-01 4.389184e-01 5.104383e-01 3.756827e-01 4.625924e-01 3.671182e-01 3.404040e-01 1.655632e-01 2.586642e-01 1.657074e-01 1.088041e-01 -5.403835e-03
<VARIANCE> 25
 8.575676e+00 1.190522e+01 1.862914e+01 1.547959e+01 1.667166e+01 2.503751e+01 1.982065e+01 2.335777e+01 2.254915e+01 2.205029e+01 2.093948e+01 1.715173e+01 3.568152e-01 4.045955e-01 5.291797e-01 6.205921e-01 8.953181e-01 1.114340e+00 1.147223e+00 1.229944e+00 1.628655e+00 1.900200e+00 1.302301e+00 1.234729e+00 1.963807e-04
<GCONST> 7.086391e+01
<MIXTURE> 65 1.721197e-02
<MEAN> 25
 7.926818e+00 2.070447e+00 2.013897e+00 6.205826e-01 -5.325767e+00 -4.330250e+00 -5.841201e+00 -6.638072e+00 -3.839235e+00 -2.313048e+00 -5.378038e+00 -1.903921e+00 1.849309e-01 1.313377e-01 -5.167063e-03 1.335112e-01 -1.889663e-01 2.423957e-01 -1.359185e-01 -1.807598e-01 2.088976e-01 2.407629e-02 -4.534078e-02 -1.481534e-01 -4.709854e-03
<VARIANCE> 25
 1.051092e+01 1.911326e+01 2.659506e+01 3.581402e+01 3.813060e+01 5.818136e+01 5.821025e+01 5.931676e+01 5.682809e+01 5.719957e+01 5.768023e+01 5.062990e+01 5.551503e-01 9.629217e-01 1.599809e+00 1.842139e+00 2.012040e+00 2.276980e+00 2.322097e+00 2.976035e+00 2.431998e+00 2.487141e+00 2.429795e+00 2.100844e+00 4.309296e-04
<GCONST> 8.961637e+01
<MIXTURE> 66 1.191532e-02
<MEAN> 25
 6.674976e+00 -3.678450e+00 -5.777401e+00 -4.469897e+00 1.364318e+00 -4.501772e+00 -6.051328e+00 9.814490e-01 1.264666e+00 -2.232746e+00 -5.580017e+00 -3.292832e+00 -2.128874e-01 1.579751e+00 2.176719e+00 2.160141e+00 -1.142479e+00 -9.001706e-01 1.173365e-01 -6.255949e-01 -3.519613e-01 -4.605771e-01 -4.487314e-01 1.085688e+00 -6.840828e-02
<VARIANCE> 25
 8.977511e+00 2.209206e+01 2.446211e+01 3.094187e+01 3.492749e+01 4.976978e+01 5.436172e+01 4.105671e+01 4.852745e+01 5.889661e+01 3.398203e+01 3.217355e+01 1.323290e+00 2.344934e+00 2.128979e+00 2.388344e+00 3.893322e+00 4.576353e+00 3.896359e+00 4.333614e+00 4.025395e+00 4.753676e+00 3.753845e+00 3.059471e+00 1.396516e-03
<GCONST> 9.527631e+01
<MIXTURE> 67 1.559142e-02
<MEAN> 25
 8.825375e+00 2.148548e+00 -6.243571e+00 -7.804653e+00 9.978725e-01 2.277106e+00 -4.544682e+00 -4.030183e+00 -4.513636e+00 1.782233e+00 2.536248e+00 -2.060163e+00 -1.371956e+00 2.059195e+00 7.300285e-01 3.242865e+00 1.214629e+00 -6.864957e-01 1.265676e+00 5.425213e-02 6.168386e-01 3.228014e-01 -7.779199e-01 6.474794e-01 -1.144436e-01
<VARIANCE> 25
 9.999825e+00 3.345545e+01 2.615341e+01 4.884450e+01 4.110429e+01 4.785362e+01 6.022419e+01 6.239946e+01 6.138290e+01 5.434738e+01 8.185916e+01 4.037456e+01 2.397046e+00 3.426658e+00 3.449518e+00 4.034544e+00 4.059505e+00 4.429636e+00 4.027333e+00 4.662365e+00 5.973000e+00 4.279236e+00 5.248633e+00 3.205703e+00 3.544029e-03
<GCONST> 1.019263e+02
<MIXTURE> 68 1.485092e-02
<MEAN> 25
 -1.875592e+00 -2.328234e+00 -4.122479e+00 1.190228e+00 5.116488e+00 -4.701871e-01 2.144544e+00 1.867171e+00 1.981526e+00 1.669834e+00 3.792332e-01 1.733907e+00 2.736574e+00 5.677813e-01 -4.721032e-02 -2.585199e+00 -2.402009e+00 -1.587661e+00 -2.284119e+00 -1.717757e+00 -1.589474e+00 -1.435915e+00 -1.902138e+00 -1.051191e+00 1.014639e-01
<VARIANCE> 25
 2.637584e+01 3.131059e+01 5.802588e+01 5.264216e+01 4.701911e+01 5.496633e+01 4.442359e+01 4.138897e+01 3.943600e+01 4.241024e+01 3.733880e+01 2.598227e+01 1.847318e+00 3.692451e+00 6.071001e+00 5.842071e+00 4.569532e+00 5.551687e+00 5.802262e+00 5.071800e+00 5.085164e+00 5.194584e+00 5.188519e+00 3.478429e+00 6.075978e-03
<GCONST> 1.035290e+02
<MIXTURE> 69 1.204884e-02
<MEAN> 25
 4.656611e+00 -4.034750e+00 -3.594251e+00 -3.156663e+00 -3.922584e+00 -8.387621e+00 -1.385089e+00 2.216450e+00 -4.497998e-01 -3.922749e+00 -5.055925e+00 3.690430e-01 1.641081e+00 -2.410260e+00 -1.079583e+00 -2.260336e+00 -5.664004e-01 -4.076219e-01 -3.573289e-01 8.803434e-01 -6.506163e-01 -1.311502e+00 -2.067178e+00 -3.503313e-01 6.328136e-02
<VARIANCE> 25
 8.401737e+00 2.104500e+01 2.474354e+01 2.590022e+01 4.110150e+01 3.757417e+01 4.628411e+01 2.971916e+01 3.670985e+01 4.092629e+01 3.245697e+01 2.661517e+01 3.307794e+00 3.197547e+00 3.923080e+00 3.421675e+00 5.352087e+00 4.748099e+00 6.648023e+00 6.280989e+00 5.439641e+00 5.554774e+00 4.183801e+00 3.744492e+00 2.256226e-03
<GCONST> 9.821857e+01
<MIXTURE> 70 1.329190e-02
<MEAN> 25
 7.392410e+00 -2.178230e+00 -4.106090e+00 -2.874264e+00 -1.064037e-01 -5.913509e-01 -6.597844e+00 -3.392538e+00 7.942570e-01 2.776935e+00 -3.567985e-01 -4.904078e+00 1.893093e+00 -9.844639e-01 -8.681293e-01 -2.211457e+00 -1.495983e+00 6.528067e-01 -1.067553e+00 8.353600e-03 5.140444e-01 -2.352647e-02 5.717764e-01 -1.544311e+00 5.666811e-02
<VARIANCE> 25
 9.234836e+00 2.053511e+01 2.524752e+01 4.458282e+01 3.565125e+01 4.619849e+01 5.224789e+01 4.234087e+01 4.228857e+01 2.869532e+01 4.021019e+01 2.429997e+01 3.063501e+00 3.936390e+00 4.539207e+00 4.422659e+00 4.755830e+00 7.402453e+00 6.312764e+00 6.936049e+00 5.769090e+00 4.731827e+00 5.243130e+00 3.938851e+00 2.269814e-03
<GCONST> 1.003888e+02
<MIXTURE> 71 1.406903e-02
<MEAN> 25
 6.116820e+00 5.122979e+00 4.309279e+00 3.044593e+00 -3.525621e+00 -3.271353e+00 -3.383072e+00 -6.470140e+00 -4.633418e+00 -2.569875e+00 -5.287999e+00 -3.163866e+00 -1.470134e+00 -8.067752e-01 -3.878385e-01 -1.692023e+00 1.182864e+00 -1.033446e-01 -4.987276e-02 1.405183e+00 3.143963e-01 -1.067247e-01 7.114844e-01 1.816916e-01 4.211900e-02
<VARIANCE> 25
 1.939222e+01 2.479533e+01 2.320759e+01 4.287257e+01 3.929744e+01 3.974601e+01 4.147058e+01 4.026136e+01 3.765438e+01 4.216557e+01 3.500236e+01 3.298805e+01 1.989572e+00 3.393744e+00 5.485468e+00 4.840598e+00 4.668769e+00 4.574569e+00 4.922706e+00 5.490287e+00 4.108866e+00 4.040663e+00 3.524718e+00 3.156304e+00 1.460277e-03
<GCONST> 9.845769e+01
<MIXTURE> 72 8.134747e-03
<MEAN> 25
 3.754882e+00 -3.623127e+00 5.416482e+00 -2.425931e+00 -1.031386e+01 -9.534646e+00 -2.467047e+00 1.932983e+00 -4.891645e+00 -2.153321e+00 -1.898744e+00 5.776517e-01 9.302672e-01 -7.833350e-01 -2.552205e+00 4.669804e-01 2.115541e+00 -6.201764e-01 -1.325750e+00 1.489409e+00 1.793958e+00 -6.004879e-01 -1.275448e+00 4.055995e-01 -6.145041e-03
<VARIANCE> 25
 1.088129e+01 1.997324e+01 3.260236e+01 3.797182e+01 3.224779e+01 3.348153e+01 4.043188e+01 3.619672e+01 4.352514e+01 4.146507e+01 3.852569e+01 2.813911e+01 4.265105e-01 1.040742e+00 2.042738e+00 1.450075e+00 2.190312e+00 2.403882e+00 3.035966e+00 2.795826e+00 2.588265e+00 2.923858e+00 2.019356e+00 2.116275e+00 5.587198e-04
<GCONST> 8.726926e+01
<MIXTURE> 73 1.213625e-02
<MEAN> 25
 -5.399426e+00 -9.598771e-01 -1.234614e+00 4.544958e+00 3.828829e+00 2.543495e+00 5.404729e+00 3.249079e+00 4.400857e+00 3.187217e+00 3.633691e+00 2.636711e+00 7.523662e-01 -9.957266e-01 -1.062474e+00 -2.731462e+00 -1.291714e+00 -1.715371e+00 -9.020935e-01 -4.530272e-01 -9.361836e-01 -5.266869e-01 -8.560001e-01 -1.847377e-01 1.501546e-01
<VARIANCE> 25
 1.288400e+01 1.302911e+01 1.430791e+01 2.325265e+01 2.435821e+01 2.434369e+01 1.975724e+01 1.962862e+01 1.679430e+01 1.895261e+01 2.733436e+01 1.688470e+01 3.983445e+00 2.924371e+00 5.944598e+00 4.578053e+00 5.798821e+00 4.540713e+00 4.139338e+00 4.237027e+00 3.709873e+00 4.450341e+00 4.214010e+00 2.666858e+00 4.453750e-03
<GCONST> 9.282391e+01
<MIXTURE> 74 1.756491e-02
<MEAN> 25
 4.437241e+00 -1.485852e+00 4.118416e+00 -8.156334e-01 -7.542218e+00 -7.228230e+00 -3.069504e+00 1.773254e+00 -3.520765e+00 -2.730304e+00 -9.254158e-01 1.111925e-01 1.960477e-01 1.871584e+00 -5.861501e-02 1.528113e+00 1.383570e+00 7.758517e-01 4.208573e-02 -1.189814e+00 3.538810e-01 -1.092594e-01 -5.663350e-01 8.210828e-02 -7.636930e-02
<VARIANCE> 25
 1.050236e+01 2.126058e+01 3.829075e+01 3.243089e+01 3.509118e+01 3.980098e+01 4.819215e+01 4.504186e+01 4.609773e+01 4.085630e+01 3.598991e+01 2.765319e+01 1.733384e+00 1.861263e+00 3.218208e+00 2.181047e+00 3.276100e+00 3.725111e+00 4.322468e+00 3.830375e+00 3.834336e+00 3.789128e+00 3.504448e+00 2.736622e+00 1.490343e-03
<GCONST> 9.470478e+01
<MIXTURE> 75 9.711651e-03
<MEAN> 25
 2.293845e+00 -1.455793e-02 1.083581e+01 1.176486e+00 -9.728417e+00 -9.227859e+00 -5.629426e+00 -1.406253e+00 -6.266988e+00 -4.739381e+00 5.486395e+00 6.132468e-01 1.873321e+00 -1.813013e+00 5.531128e-01 -2.204392e-01 -2.287906e+00 -4.850353e-01 -1.528511e+00 6.127076e-01 -5.002531e-01 -5.373555e-01 1.332078e+00 -5.678675e-01 3.465532e-02
<VARIANCE> 25
 8.984406e+00 1.684995e+01 2.574593e+01 2.204416e+01 2.994146e+01 3.047255e+01 2.706804e+01 2.637708e+01 3.351605e+01 2.546073e+01 2.936408e+01 1.720399e+01 2.091756e+00 1.673422e+00 3.792959e+00 1.914806e+00 3.157800e+00 4.090077e+00 3.614116e+00 3.486685e+00 3.460537e+00 2.834304e+00 3.013110e+00 2.161428e+00 1.499334e-03
<GCONST> 8.965120e+01
<MIXTURE> 76 1.052359e-02
<MEAN> 25
 -5.147747e+00 -2.068727e+00 -2.164757e+00 3.084558e+00 3.263490e+00 2.617264e+00 3.542890e+00 1.392766e+00 2.811739e+00 1.566316e+00 9.700972e-01 2.136890e+00 -1.397068e-01 -5.091417e-01 -3.169980e-01 -8.581827e-01 -6.310403e-01 -8.941867e-01 -4.671110e-01 -4.278779e-01 -5.030460e-01 -1.361035e-01 3.655390e-03 -1.913529e-01 2.352017e-02
<VARIANCE> 25
 3.548154e+01 2.319843e+01 2.504532e+01 2.591334e+01 2.904737e+01 3.042322e+01 2.354036e+01 2.438443e+01 2.105549e+01 2.628348e+01 2.771014e+01 1.855654e+01 1.090816e+00 1.181314e+00 1.222089e+00 1.303188e+00 1.300431e+00 1.806980e+00 1.564880e+00 1.875898e+00 1.812765e+00 1.906290e+00 1.487083e+00 1.269835e+00 1.241676e-03
<GCONST> 8.266560e+01
<MIXTURE> 77 1.244626e-02
<MEAN> 25
 -4.143214e-01 8.527843e+00 1.243975e+01 -1.149018e+01 -6.985620e+00 8.095283e-01 -9.275770e+00 -7.098253e+00 -3.573974e+00 -2.397871e-01 -4.424657e+00 -1.410188e+00 6.473716e-02 1.401213e-01 6.816328e-02 2.738282e-01 -3.770982e-02 7.560103e-02 -8.002680e-02 -5.335224e-02 9.871533e-02 -3.509932e-02 6.834127e-03 1.178468e-01 -1.006832e-02
<VARIANCE> 25
 1.059334e+01 2.011732e+01 2.711879e+01 4.190038e+01 3.273160e+01 3.450359e+01 3.626525e+01 3.235075e+01 3.693808e+01 3.278593e+01 4.025111e+01 3.473492e+01 2.971481e-01 7.679032e-01 6.387053e-01 1.116742e+00 1.233256e+00 9.745966e-01 1.225833e+00 1.065357e+00 1.050030e+00 1.055815e+00 9.844892e-01 9.103400e-01 5.340702e-04
<GCONST> 7.787720e+01
<MIXTURE> 78 9.702551e-03
<MEAN> 25
 -1.108748e+01 1.003532e+00 -1.563321e+00 1.866169e+00 3.828757e+00 -2.251332e+00 3.530338e+00 2.543293e+00 2.679468e+00 1.258057e+00 -4.724480e-01 2.797427e+00 2.249713e+00 -2.340323e-01 2.592325e-01 5.667153e-01 -1.083641e-01 -4.986767e-02 -3.175739e-01 5.994206e-02 3.169664e-01 6.565244e-02 -5.151523e-01 -5.098341e-01 -5.951383e-02
<VARIANCE> 25
 4.141812e+01 3.327342e+01 3.202945e+01 3.350700e+01 4.267944e+01 3.602372e+01 3.480432e+01 3.224907e+01 2.751915e+01 3.173775e+01 2.681772e+01 1.962215e+01 4.855696e+00 2.500700e+00 2.765855e+00 2.901646e+00 2.729294e+00 3.395031e+00 3.105444e+00 3.063557e+00 2.357011e+00 2.436198e+00 2.481454e+00 2.091646e+00 4.459919e-03
<GCONST> 9.459348e+01
<MIXTURE> 79 1.156824e-02
<MEAN> 25
 2.413141e+00 1.590085e+00 9.187058e+00 -6.584006e+00 -1.204978e+01 -1.825877e+00 -1.926774e+00 -6.460813e+00 -6.580406e+00 3.109538e-01 -3.515662e+00 -3.286005e+00 1.219603e+00 -5.286220e-01 -1.432940e+00 2.347912e+00 3.822306e-01 -1.465988e+00 5.236320e-01 8.804352e-01 -4.315051e-01 -5.410771e-01 3.544495e-01 2.787448e-01 -3.613722e-02
<VARIANCE> 25
 1.422912e+01 2.411707e+01 3.778708e+01 4.981248e+01 3.349392e+01 4.345754e+01 4.280701e+01 3.675599e+01 3.894462e+01 3.983868e+01 4.397110e+01 3.061719e+01 9.423919e-01 2.263097e+00 1.894301e+00 2.092483e+00 2.472842e+00 2.824133e+00 3.223644e+00 3.545164e+00 2.514379e+00 2.727894e+00 2.320426e+00 2.026385e+00 1.241479e-03
<GCONST> 9.181796e+01
<MIXTURE> 80 7.550998e-03
<MEAN> 25
 -1.460745e+01 4.299837e+00 3.976693e-01 2.466521e+00 2.703819e+00 1.279599e+00 6.563252e+00 3.279051e+00 2.449217e+00 2.085627e+00 4.029221e+00 5.602987e-01 4.319965e+00 -1.436664e-01 1.956140e+00 -9.490563e-01 -2.842119e+00 -2.821861e+00 -2.525270e+00 -1.974326e+00 -2.048212e+00 -1.688525e+00 -1.255911e+00 -4.814022e-01 -4.428463e-02
<VARIANCE> 25
 1.909230e+01 1.901265e+01 3.216568e+01 3.309660e+01 2.809186e+01 2.676012e+01 2.602754e+01 3.172451e+01 2.503817e+01 2.700874e+01 3.076326e+01 2.014592e+01 2.159057e+00 2.579757e+00 3.375475e+00 4.074749e+00 3.111897e+00 2.481662e+00 3.136995e+00 2.940886e+00 2.554639e+00 2.460477e+00 3.984394e+00 2.090939e+00 1.377270e-03
<GCONST> 9.107162e+01
<MIXTURE> 81 8.025434e-03
<MEAN> 25
 -1.121823e+00 4.061319e+00 1.015907e+01 -1.475556e+01 -9.066196e+00 -1.426728e+00 -6.751987e+00 -8.398216e+00 -4.139469e+00 -4.120594e-01 -7.565839e+00 -2.241931e+00 1.356520e-01 -5.887499e-01 -5.083971e-03 -5.534779e-01 -4.604275e-01 3.348137e-01 3.113191e-01 1.362393e-01 -1.363237e-01 1.040170e-01 -4.723651e-01 -1.270713e-01 1.149017e-02
<VARIANCE> 25
 1.014716e+01 3.275405e+01 2.649004e+01 2.987210e+01 3.365237e+01 3.043261e+01 4.535280e+01 2.841195e+01 3.802366e+01 3.199701e+01 2.525500e+01 3.094685e+01 7.704610e-01 2.275304e+00 1.552463e+00 2.864937e+00 2.664908e+00 2.120928e+00 3.294356e+00 2.297194e+00 2.354063e+00 2.533683e+00 2.301925e+00 2.074821e+00 1.183679e-03
<GCONST> 8.870483e+01
<MIXTURE> 82 8.213053e-03
<MEAN> 25
 -9.337830e+00 -4.042098e+00 1.290050e+00 -3.294619e+00 2.379118e+00 5.402688e-01 1.811492e+00 4.929351e-01 2.835429e+00 2.296091e+00 1.821764e+00 3.045032e+00 -1.351955e+00 -1.349595e-01 1.419910e-01 -2.520327e+00 -1.046031e+00 -1.404672e+00 -1.010881e+00 -9.113163e-01 -4.368835e-01 -9.547613e-04 7.837340e-02 5.000389e-02 1.708959e-01
<VARIANCE> 25
 1.943518e+01 2.260290e+01 2.980405e+01 2.899952e+01 3.389479e+01 3.189403e+01 2.879228e+01 3.098567e+01 2.839857e+01 2.718146e+01 3.014147e+01 1.714541e+01 3.396121e+00 2.760560e+00 3.165956e+00 3.044621e+00 3.246311e+00 3.098313e+00 2.694583e+00 2.772361e+00 2.637100e+00 3.965788e+00 3.438842e+00 1.853295e+00 3.531009e-03
<GCONST> 9.284636e+01
<MIXTURE> 83 1.167529e-02
<MEAN> 25
 -1.987543e+01 5.949203e+00 -1.949599e+00 -7.297986e-01 7.750278e+00 -1.129372e+00 5.975503e+00 3.621081e+00 1.165719e+00 2.368962e+00 6.385398e-01 2.807451e+00 3.165369e-03 -2.975389e-01 2.609593e-01 -3.396993e-01 -4.308350e-01 -2.360243e-01 -2.474005e-01 8.753990e-02 -1.406764e-01 -7.223718e-02 -1.266636e-02 8.964642e-02 4.607416e-03
<VARIANCE> 25
 8.329430e+00 1.697232e+01 2.631643e+01 2.158442e+01 1.951177e+01 2.212201e+01 2.272699e+01 2.459976e+01 1.868434e+01 2.062219e+01 2.127854e+01 1.329898e+01 9.783879e-01 1.082940e+00 1.773476e+00 9.808240e-01 1.286072e+00 1.298919e+00 1.297902e+00 1.609763e+00 1.329278e+00 1.208954e+00 1.119204e+00 1.130312e+00 8.162537e-04
<GCONST> 7.669390e+01
<MIXTURE> 84 1.066614e-02
<MEAN> 25
 1.196562e+00 8.425595e+00 7.147272e+00 7.148431e+00 2.505829e+00 -5.957012e-01 -2.265702e+00 -4.711619e+00 -4.146508e+00 -2.722344e+00 -2.702723e+00 -1.180828e+00 -1.705028e+00 -1.116151e+00 -1.128383e+00 1.326072e+00 2.230976e+00 1.637208e+00 1.573027e+00 1.134851e+00 1.288276e+00 4.017277e-01 8.235420e-02 2.626920e-01 -6.961258e-02
<VARIANCE> 25
 2.101259e+01 1.888441e+01 1.950707e+01 2.653218e+01 2.698893e+01 2.662463e+01 2.968529e+01 2.515045e+01 2.286521e+01 2.305219e+01 2.223249e+01 2.314825e+01 1.947486e+00 2.334867e+00 3.509743e+00 3.057186e+00 2.936252e+00 3.153410e+00 3.152987e+00 3.252612e+00 3.233610e+00 2.912681e+00 4.049245e+00 2.692803e+00 3.236410e-03
<GCONST> 9.122262e+01
<MIXTURE> 85 7.591393e-03
<MEAN> 25
 -3.103162e+00 7.933592e+00 5.631392e+00 1.312027e+00 -3.450662e+00 -5.396355e+00 -3.008839e+00 -6.072002e+00 -3.547452e+00 -3.141042e+00 -4.005101e-01 -1.837044e+00 3.944506e+00 2.669263e-01 1.771782e+00 -2.061920e+00 -3.397941e+00 -2.599692e+00 -2.886386e+00 -2.321683e+00 -2.238024e+00 -1.262414e+00 -2.245103e+00 -6.162532e-01 9.171820e-03
<VARIANCE> 25
 4.193701e+01 2.332402e+01 3.730701e+01 3.796395e+01 3.949072e+01 4.118833e+01 3.183932e+01 2.765755e+01 2.665051e+01 2.601284e+01 2.649656e+01 2.053449e+01 2.683030e+00 4.524200e+00 4.025587e+00 5.177220e+00 4.367498e+00 3.857408e+00 3.882282e+00 4.039102e+00 3.846475e+00 4.002109e+00 4.233604e+00 3.459702e+00 5.371198e-03
<GCONST> 9.840520e+01
<MIXTURE> 86 1.273941e-02
<MEAN> 25
 -4.187369e+00 -1.389006e+00 -2.029571e-01 5.596968e+00 4.521813e+00 4.921586e+00 5.532628e+00 4.052584e+00 5.165298e+00 3.331787e+00 3.732848e+00 2.837692e+00 4.044599e-03 -2.558197e-02 -2.823445e-02 -4.429270e-02 -7.609334e-02 -1.132107e-01 -2.528182e-01 -3.790155e-01 -2.540910e-01 -2.852239e-01 -3.145502e-01 -1.585812e-01 -1.652855e-04
<VARIANCE> 25
 8.263833e+00 4.852143e+00 9.295280e+00 1.171301e+01 1.440542e+01 1.294340e+01 1.162958e+01 1.210544e+01 1.299467e+01 1.318772e+01 1.960051e+01 1.063936e+01 1.077307e-01 1.764697e-01 3.075809e-01 4.668690e-01 6.187804e-01 7.005814e-01 6.299296e-01 7.801208e-01 8.955078e-01 8.521893e-01 9.316837e-01 9.143453e-01 5.352270e-05
<GCONST> 5.727201e+01
<MIXTURE> 87 1.100681e-02
<MEAN> 25
 -2.772380e+00 3.541483e+00 3.084780e+00 6.114048e+00 4.313883e+00 1.313524e+00 1.334314e+00 -1.131528e+00 -2.981875e-01 -9.760160e-01 -1.747663e+00 -4.609222e-01 -1.627043e+00 -2.739570e+00 -2.464426e+00 -2.232247e+00 1.151101e-01 -3.265950e-02 3.631899e-01 1.167977e+00 1.206839e+00 1.190730e+00 1.179108e+00 1.002056e+00 1.015460e-01
<VARIANCE> 25
 3.373712e+01 3.111903e+01 2.655052e+01 3.314137e+01 3.781208e+01 2.974831e+01 3.247333e+01 2.518991e+01 2.482067e+01 2.072611e+01 2.548375e+01 2.073940e+01 4.727826e+00 3.642320e+00 4.083025e+00 4.362064e+00 5.745842e+00 4.185352e+00 3.965391e+00 3.757873e+00 3.606760e+00 3.067950e+00 3.167566e+00 2.394998e+00 4.329064e-03
<GCONST> 9.652373e+01
<MIXTURE> 88 1.256585e-02
<MEAN> 25
 -2.897560e+00 -1.669664e+00 -8.508878e-01 4.261874e+00 4.353970e+00 4.464727e+00 4.390267e+00 2.410921e+00 3.795056e+00 1.491961e+00 9.461327e-01 1.648740e+00 9.710114e-02 1.608469e-01 1.961145e-01 3.778574e-01 7.627613e-04 2.722708e-02 -1.859546e-01 -4.599127e-01 -1.794265e-01 9.718037e-02 1.061049e-01 -4.206060e-03 -1.090814e-02
<VARIANCE> 25
 1.017248e+01 8.421132e+00 1.221459e+01 1.611879e+01 1.618058e+01 1.791263e+01 1.960219e+01 1.900601e+01 1.589379e+01 1.920612e+01 2.815470e+01 1.324927e+01 1.172150e+00 1.436470e+00 1.643098e+00 2.012088e+00 2.189258e+00 2.993879e+00 2.856508e+00 2.743261e+00 2.813503e+00 3.349827e+00 2.100799e+00 1.990555e+00 1.498691e-03
<GCONST> 8.173907e+01
<MIXTURE> 89 9.333527e-03
<MEAN> 25
 6.074133e+00 -6.828455e+00 -3.566180e+00 -3.160795e+00 -1.602226e+00 -5.573665e+00 -6.099572e+00 4.082812e+00 3.469275e+00 -2.803052e+00 -6.028237e+00 -3.289986e+00 -5.720999e-01 1.588587e-01 1.989528e+00 8.976136e-01 -1.867549e+00 -1.645938e+00 8.816313e-01 1.261561e+00 -7.878423e-01 -1.313285e+00 4.008946e-01 1.534508e+00 -4.971705e-03
<VARIANCE> 25
 9.004410e+00 2.665677e+01 3.101879e+01 3.018590e+01 3.606071e+01 4.173389e+01 5.967693e+01 4.222087e+01 3.907313e+01 4.233890e+01 3.574586e+01 3.232763e+01 3.541017e-01 8.417536e-01 1.470554e+00 1.320396e+00 1.915646e+00 2.125622e+00 2.574171e+00 2.041217e+00 2.245917e+00 2.128978e+00 2.331676e+00 1.470131e+00 3.689478e-04
<GCONST> 8.528968e+01
<MIXTURE> 90 7.114505e-03
<MEAN> 25
 2.372319e+00 -9.370993e+00 -4.823319e+00 -3.772856e+00 -2.912304e+00 -1.548298e+00 3.254063e+00 8.474107e-01 -7.185992e+00 -9.831805e+00 -3.474002e+00 -9.679323e-01 -2.250597e-01 9.053006e-01 1.188588e+00 -7.997473e-01 -1.603729e+00 -2.186743e-01 6.377046e-01 -1.768187e-01 -1.173941e-01 7.556839e-01 8.218255e-02 -5.141954e-01 -1.214580e-02
<VARIANCE> 25
 8.205464e+00 1.783878e+01 1.831947e+01 2.795741e+01 3.644397e+01 3.050659e+01 3.600621e+01 3.706894e+01 3.378402e+01 2.766467e+01 2.508694e+01 2.469563e+01 2.651746e-01 5.825539e-01 8.144164e-01 1.039531e+00 1.359668e+00 1.473477e+00 1.643763e+00 1.558483e+00 1.944075e+00 1.640525e+00 1.523946e+00 1.236556e+00 2.858514e-04
<GCONST> 7.788580e+01
<MIXTURE> 91 7.852945e-03
<MEAN> 25
 6.220172e+00 -7.169696e+00 -8.156152e+00 -4.581368e+00 3.699248e+00 -1.214759e-02 -1.675554e+00 9.672690e-01 1.314254e+00 -2.540988e+00 -4.477832e+00 -5.054271e+00 2.457731e-01 1.019538e+00 2.010846e-01 3.365543e-01 -1.149130e-01 -5.390671e-01 -3.360030e-01 -1.566799e-01 -3.548401e-02 3.061551e-01 -1.115356e-01 2.440163e-01 -3.524014e-02
<VARIANCE> 25
 1.053978e+01 2.262886e+01 1.939918e+01 3.969281e+01 3.326945e+01 5.140416e+01 5.144110e+01 4.030837e+01 4.830783e+01 5.817589e+01 3.509166e+01 3.787189e+01 4.527905e-01 8.569928e-01 1.095807e+00 1.449253e+00 2.158238e+00 2.408689e+00 2.272725e+00 2.187100e+00 2.144084e+00 2.260070e+00 1.880450e+00 1.694073e+00 6.249108e-04
<GCONST> 8.640896e+01
<MIXTURE> 92 7.852945e-03
<MEAN> 25
 6.220172e+00 -7.169696e+00 -8.156152e+00 -4.581368e+00 3.699248e+00 -1.214759e-02 -1.675554e+00 9.672690e-01 1.314254e+00 -2.540988e+00 -4.477832e+00 -5.054271e+00 2.457731e-01 1.019538e+00 2.010846e-01 3.365543e-01 -1.149130e-01 -5.390671e-01 -3.360030e-01 -1.566799e-01 -3.548401e-02 3.061551e-01 -1.115356e-01 2.440163e-01 -3.524014e-02
<VARIANCE> 25
 1.053978e+01 2.262886e+01 1.939918e+01 3.969281e+01 3.326945e+01 5.140416e+01 5.144110e+01 4.030837e+01 4.830783e+01 5.817589e+01 3.509166e+01 3.787189e+01 4.527905e-01 8.569928e-01 1.095807e+00 1.449253e+00 2.158238e+00 2.408689e+00 2.272725e+00 2.187100e+00 2.144084e+00 2.260070e+00 1.880450e+00 1.694073e+00 6.249108e-04
<GCONST> 8.640896e+01
<MIXTURE> 93 6.122769e-03
<MEAN> 25
 -6.501296e+00 -1.089762e+00 -2.153695e+00 5.643171e+00 5.720277e+00 4.093606e+00 6.038880e+00 3.332586e+00 4.174962e+00 2.366683e+00 1.497554e+00 3.520513e+00 -6.001728e-02 -1.561602e-01 -2.520398e-01 -3.321133e-01 -3.534587e-01 -2.781060e-01 -2.049012e-01 -1.416402e-01 -1.399891e-01 -1.464435e-01 -1.535058e-01 -3.147205e-02 3.226074e-06
<VARIANCE> 25
 9.886888e+00 6.016905e+00 8.588518e+00 1.118659e+01 1.154751e+01 1.577491e+01 1.461603e+01 1.642789e+01 1.447023e+01 1.455232e+01 1.706640e+01 1.315770e+01 7.815327e-02 1.515407e-01 2.532013e-01 3.810126e-01 5.099069e-01 6.272107e-01 7.620971e-01 8.986825e-01 8.994668e-01 8.501973e-01 9.100063e-01 8.915747e-01 1.000572e-06
<GCONST> 5.346256e+01
<MIXTURE> 94 6.122769e-03
<MEAN> 25
 -6.501296e+00 -1.089762e+00 -2.153695e+00 5.643171e+00 5.720277e+00 4.093606e+00 6.038880e+00 3.332586e+00 4.174962e+00 2.366683e+00 1.497554e+00 3.520513e+00 -6.001728e-02 -1.561602e-01 -2.520398e-01 -3.321133e-01 -3.534587e-01 -2.781060e-01 -2.049012e-01 -1.416402e-01 -1.399891e-01 -1.464435e-01 -1.535058e-01 -3.147205e-02 3.226074e-06
<VARIANCE> 25
 9.886888e+00 6.016905e+00 8.588518e+00 1.118659e+01 1.154751e+01 1.577491e+01 1.461603e+01 1.642789e+01 1.447023e+01 1.455232e+01 1.706640e+01 1.315770e+01 7.815327e-02 1.515407e-01 2.532013e-01 3.810126e-01 5.099069e-01 6.272107e-01 7.620971e-01 8.986825e-01 8.994668e-01 8.501973e-01 9.100063e-01 8.915747e-01 1.000572e-06
<GCONST> 5.346256e+01
<MIXTURE> 95 5.258835e-03
<MEAN> 25
 -5.351822e+00 -9.392625e-01 -1.547080e+00 4.776536e+00 3.869545e+00 2.738496e+00 4.222201e+00 1.710592e+00 2.382758e+00 8.455356e-01 6.245053e-01 2.570645e+00 1.262529e-01 1.182415e-01 8.267910e-02 -7.872057e-02 -4.046497e-01 -6.360954e-01 -9.921885e-01 -1.333014e+00 -1.226847e+00 -9.069714e-01 -5.633441e-01 -2.716348e-01 -3.047218e-04
<VARIANCE> 25
 1.071775e+01 6.221922e+00 1.253529e+01 1.160808e+01 1.398144e+01 1.738189e+01 1.649879e+01 1.599010e+01 1.423238e+01 1.426271e+01 2.056952e+01 1.312234e+01 1.954792e-01 2.881602e-01 4.182318e-01 5.780986e-01 7.830127e-01 9.374725e-01 8.531589e-01 1.032653e+00 1.080969e+00 1.056619e+00 1.163960e+00 1.053038e+00 4.000123e-05
<GCONST> 6.258459e+01
<MIXTURE> 96 7.034694e-03
<MEAN> 25
 -4.663718e+00 -8.852260e-01 -1.600033e+00 4.521482e+00 3.383611e+00 2.035834e+00 3.908588e+00 1.424742e+00 3.042994e+00 9.937740e-01 2.186387e-01 2.704430e+00 -6.441155e-02 5.417969e-02 2.054125e-01 4.177833e-01 6.295852e-01 5.049276e-01 2.416940e-01 -5.180223e-02 -4.325107e-01 -7.257368e-01 -6.021276e-01 -3.468818e-01 3.457679e-05
<VARIANCE> 25
 1.064777e+01 8.787601e+00 1.236937e+01 1.436629e+01 1.379894e+01 1.792340e+01 1.613584e+01 1.788895e+01 1.764365e+01 1.576507e+01 2.016385e+01 1.308970e+01 1.183119e-01 2.128054e-01 2.969570e-01 3.672630e-01 5.043308e-01 5.958476e-01 7.954556e-01 9.903411e-01 8.695790e-01 9.272512e-01 8.301111e-01 9.503515e-01 1.313518e-06
<GCONST> 5.671185e+01
<MIXTURE> 97 7.034694e-03
<MEAN> 25
 -4.663718e+00 -8.852260e-01 -1.600033e+00 4.521482e+00 3.383611e+00 2.035834e+00 3.908588e+00 1.424742e+00 3.042994e+00 9.937740e-01 2.186387e-01 2.704430e+00 -6.441155e-02 5.417969e-02 2.054125e-01 4.177833e-01 6.295852e-01 5.049276e-01 2.416940e-01 -5.180223e-02 -4.325107e-01 -7.257368e-01 -6.021276e-01 -3.468818e-01 3.457679e-05
<VARIANCE> 25
 1.064777e+01 8.787601e+00 1.236937e+01 1.436629e+01 1.379894e+01 1.792340e+01 1.613584e+01 1.788895e+01 1.764365e+01 1.576507e+01 2.016385e+01 1.308970e+01 1.183119e-01 2.128054e-01 2.969570e-01 3.672630e-01 5.043308e-01 5.958476e-01 7.954556e-01 9.903411e-01 8.695790e-01 9.272512e-01 8.301111e-01 9.503515e-01 1.313518e-06
<GCONST> 5.671185e+01
<MIXTURE> 98 9.917808e-03
<MEAN> 25
 -8.035504e-01 7.589226e-01 -3.878506e-01 4.146418e+00 3.669162e+00 3.024174e+00 3.030341e+00 2.402014e+00 2.457748e+00 5.161909e-01 -1.434727e-01 7.716792e-01 -1.656791e+00 -1.338879e+00 -8.591993e-01 1.364743e-01 5.084009e-01 8.686311e-01 1.276351e+00 1.011101e+00 1.589567e+00 1.380361e+00 1.145656e+00 8.529029e-01 -3.346851e-02
<VARIANCE> 25
 1.511349e+01 1.703313e+01 2.665497e+01 3.071004e+01 3.579506e+01 3.090930e+01 2.954141e+01 3.213021e+01 3.054005e+01 3.309756e+01 2.820981e+01 2.068611e+01 1.399507e+00 1.528263e+00 2.136021e+00 2.160366e+00 2.595473e+00 2.810055e+00 2.570410e+00 3.377300e+00 2.517836e+00 2.914478e+00 2.548756e+00 1.935185e+00 2.178290e-03
<GCONST> 8.925461e+01
<MIXTURE> 99 6.696178e-03
<MEAN> 25
 -6.508180e+00 1.164833e+01 5.582452e+00 1.785736e+00 9.910427e-01 -6.712221e+00 -2.581084e+00 -3.603366e+00 -5.331583e+00 -3.522156e+00 -3.382602e-02 3.432671e-02 7.433366e-01 -1.148605e+00 5.339116e-01 -2.633223e-01 -8.864139e-01 -6.941385e-01 -1.725662e-01 -2.242333e-01 -3.182500e-01 -2.353929e-01 6.161098e-01 2.681743e-01 4.154380e-03
<VARIANCE> 25
 2.582564e+01 2.470499e+01 4.488004e+01 2.601135e+01 2.396451e+01 3.270873e+01 2.180526e+01 1.998301e+01 2.368103e+01 2.064479e+01 2.221522e+01 2.013533e+01 2.097540e+00 2.453478e+00 1.493169e+00 1.162975e+00 2.053782e+00 2.380485e+00 1.625064e+00 1.632765e+00 1.205843e+00 1.272324e+00 1.748080e+00 1.251828e+00 1.131192e-03
<GCONST> 8.368409e+01
<MIXTURE> 100 4.498084e-03
<MEAN> 25
 -1.598574e+00 6.344878e+00 1.027602e+01 -7.458653e+00 -1.077508e+01 -5.081753e+00 -4.941491e+00 -9.964548e+00 -4.724319e+00 -8.590161e-01 -2.724498e+00 -2.704433e+00 2.917467e+00 -1.261713e+00 1.300130e+00 -2.184156e+00 -3.418025e+00 -7.833231e-01 -1.219103e+00 -8.194655e-01 -1.475027e+00 3.462868e-01 -1.652902e+00 -2.856211e-01 2.000311e-03
<VARIANCE> 25
 1.361898e+01 2.104881e+01 2.245651e+01 2.643050e+01 2.306595e+01 2.376361e+01 2.909252e+01 2.171637e+01 2.751707e+01 2.265808e+01 2.250194e+01 2.134446e+01 1.798101e+00 3.953140e+00 2.918437e+00 4.287148e+00 4.184204e+00 4.536065e+00 4.013008e+00 4.338139e+00 4.165068e+00 3.893349e+00 3.917549e+00 3.223436e+00 1.674028e-03
<GCONST> 9.257378e+01
<MIXTURE> 101 6.007792e-03
<MEAN> 25
 8.096463e+00 -3.485603e+00 -6.312020e+00 -6.860805e+00 8.461033e-01 -1.259385e+00 -1.057024e+01 -2.054380e+00 1.629900e+00 2.710232e+00 -2.386433e+00 -5.147125e+00 6.737655e-01 6.522825e-01 -1.456351e+00 -1.611029e+00 1.029569e+00 2.312463e+00 1.966991e-01 -1.459216e+00 -1.061559e+00 1.033604e+00 1.371379e+00 -4.149854e-01 -4.792969e-03
<VARIANCE> 25
 9.260098e+00 1.670157e+01 2.980469e+01 4.275994e+01 3.618517e+01 3.577429e+01 3.722680e+01 3.620502e+01 3.785555e+01 4.394353e+01 5.170752e+01 2.421185e+01 2.933490e-01 6.694927e-01 1.171062e+00 1.551359e+00 1.691206e+00 2.124329e+00 2.083493e+00 1.990832e+00 2.352070e+00 2.220579e+00 1.785784e+00 1.933546e+00 3.452416e-04
<GCONST> 8.365156e+01
<MIXTURE> 102 6.007792e-03
<MEAN> 25
 8.096463e+00 -3.485603e+00 -6.312020e+00 -6.860805e+00 8.461033e-01 -1.259385e+00 -1.057024e+01 -2.054380e+00 1.629900e+00 2.710232e+00 -2.386433e+00 -5.147125e+00 6.737655e-01 6.522825e-01 -1.456351e+00 -1.611029e+00 1.029569e+00 2.312463e+00 1.966991e-01 -1.459216e+00 -1.061559e+00 1.033604e+00 1.371379e+00 -4.149854e-01 -4.792969e-03
<VARIANCE> 25
 9.260098e+00 1.670157e+01 2.980469e+01 4.275994e+01 3.618517e+01 3.577429e+01 3.722680e+01 3.620502e+01 3.785555e+01 4.394353e+01 5.170752e+01 2.421185e+01 2.933490e-01 6.694927e-01 1.171062e+00 1.551359e+00 1.691206e+00 2.124329e+00 2.083493e+00 1.990832e+00 2.352070e+00 2.220579e+00 1.785784e+00 1.933546e+00 3.452416e-04
<GCONST> 8.365156e+01
<MIXTURE> 103 5.694618e-03
<MEAN> 25
 3.343959e+00 -9.449861e+00 -6.113454e+00 -3.087181e+00 -1.300031e+00 -1.914304e+00 2.413126e+00 2.513409e+00 -4.575539e+00 -9.184890e+00 -5.040129e+00 3.591448e-01 -1.564109e-01 -1.481629e+00 -9.731075e-01 3.746668e-01 1.208136e+00 1.015345e+00 1.585593e-01 -2.665833e-01 -7.805376e-01 -9.418435e-01 -3.494694e-02 1.180337e-01 2.689255e-02
<VARIANCE> 25
 1.034717e+01 2.040215e+01 2.284961e+01 3.156691e+01 4.791566e+01 3.539521e+01 4.625813e+01 3.647596e+01 4.202760e+01 3.004143e+01 2.991203e+01 2.630513e+01 6.405963e-01 1.254664e+00 1.540839e+00 1.929661e+00 2.918005e+00 2.396801e+00 2.874674e+00 2.574901e+00 2.607984e+00 2.540438e+00 2.080909e+00 2.005195e+00 8.019634e-04
<GCONST> 8.756514e+01
<MIXTURE> 104 5.694618e-03
<MEAN> 25
 3.343959e+00 -9.449861e+00 -6.113454e+00 -3.087181e+00 -1.300031e+00 -1.914304e+00 2.413126e+00 2.513409e+00 -4.575539e+00 -9.184890e+00 -5.040129e+00 3.591448e-01 -1.564109e-01 -1.481629e+00 -9.731075e-01 3.746668e-01 1.208136e+00 1.015345e+00 1.585593e-01 -2.665833e-01 -7.805376e-01 -9.418435e-01 -3.494694e-02 1.180337e-01 2.689255e-02
<VARIANCE> 25
 1.034717e+01 2.040215e+01 2.284961e+01 3.156691e+01 4.791566e+01 3.539521e+01 4.625813e+01 3.647596e+01 4.202760e+01 3.004143e+01 2.991203e+01 2.630513e+01 6.405963e-01 1.254664e+00 1.540839e+00 1.929661e+00 2.918005e+00 2.396801e+00 2.874674e+00 2.574901e+00 2.607984e+00 2.540438e+00 2.080909e+00 2.005195e+00 8.019634e-04
<GCONST> 8.756514e+01
<MIXTURE> 105 4.710235e-03
<MEAN> 25
 2.236712e+00 -1.750101e+00 8.316701e+00 -2.463110e+00 -1.079590e+01 -5.977028e+00 -4.100088e+00 1.190962e-01 -3.943479e+00 -2.643682e+00 1.975988e+00 -1.730351e+00 -4.497280e-03 1.681537e-02 2.911554e-03 -1.430687e-02 6.943644e-03 1.030420e-01 -1.129271e-02 1.610748e-02 9.290521e-03 6.096204e-02 5.000360e-02 -2.175669e-02 -3.126316e-03
<VARIANCE> 25
 1.151188e+01 2.768219e+01 4.186221e+01 3.871642e+01 3.558709e+01 5.094356e+01 3.607387e+01 4.418982e+01 3.847029e+01 4.307913e+01 4.202135e+01 2.844594e+01 8.750116e-02 1.694013e-01 3.160307e-01 2.611637e-01 3.284079e-01 4.044167e-01 4.899118e-01 4.542428e-01 4.874037e-01 4.362712e-01 4.483236e-01 4.594506e-01 1.040332e-04
<GCONST> 6.595113e+01
<MIXTURE> 106 4.710235e-03
<MEAN> 25
 2.236712e+00 -1.750101e+00 8.316701e+00 -2.463110e+00 -1.079590e+01 -5.977028e+00 -4.100088e+00 1.190962e-01 -3.943479e+00 -2.643682e+00 1.975988e+00 -1.730351e+00 -4.497280e-03 1.681537e-02 2.911554e-03 -1.430687e-02 6.943644e-03 1.030420e-01 -1.129271e-02 1.610748e-02 9.290521e-03 6.096204e-02 5.000360e-02 -2.175669e-02 -3.126316e-03
<VARIANCE> 25
 1.151188e+01 2.768219e+01 4.186221e+01 3.871642e+01 3.558709e+01 5.094356e+01 3.607387e+01 4.418982e+01 3.847029e+01 4.307913e+01 4.202135e+01 2.844594e+01 8.750116e-02 1.694013e-01 3.160307e-01 2.611637e-01 3.284079e-01 4.044167e-01 4.899118e-01 4.542428e-01 4.874037e-01 4.362712e-01 4.483236e-01 4.594506e-01 1.040332e-04
<GCONST> 6.595113e+01
<MIXTURE> 107 5.452374e-03
<MEAN> 25
 8.658001e+00 -2.245743e+00 -8.039775e+00 -9.574719e+00 1.926902e+00 2.974134e+00 -8.692320e+00 -4.675586e+00 -1.073070e+00 3.446400e+00 1.142085e+00 -5.031950e+00 -6.123986e-01 -7.488756e-01 8.165049e-01 1.789677e+00 2.630916e-01 -2.031237e+00 -9.159985e-01 7.990031e-01 1.764350e+00 8.540249e-02 -1.642470e+00 -8.258616e-01 -1.819903e-03
<VARIANCE> 25
 9.122456e+00 2.040778e+01 2.790537e+01 4.215363e+01 3.530069e+01 3.791468e+01 5.054329e+01 3.662223e+01 4.728193e+01 4.130217e+01 5.565088e+01 3.003624e+01 3.536731e-01 9.892448e-01 1.463988e+00 2.398844e+00 2.341396e+00 2.800922e+00 2.577595e+00 2.653430e+00 2.270721e+00 3.074375e+00 1.946239e+00 2.176892e+00 6.942265e-04
<GCONST> 8.808863e+01
<MIXTURE> 108 5.452374e-03
<MEAN> 25
 8.658001e+00 -2.245743e+00 -8.039775e+00 -9.574719e+00 1.926902e+00 2.974134e+00 -8.692320e+00 -4.675586e+00 -1.073070e+00 3.446400e+00 1.142085e+00 -5.031950e+00 -6.123986e-01 -7.488756e-01 8.165049e-01 1.789677e+00 2.630916e-01 -2.031237e+00 -9.159985e-01 7.990031e-01 1.764350e+00 8.540249e-02 -1.642470e+00 -8.258616e-01 -1.819903e-03
<VARIANCE> 25
 9.122456e+00 2.040778e+01 2.790537e+01 4.215363e+01 3.530069e+01 3.791468e+01 5.054329e+01 3.662223e+01 4.728193e+01 4.130217e+01 5.565088e+01 3.003624e+01 3.536731e-01 9.892448e-01 1.463988e+00 2.398844e+00 2.341396e+00 2.800922e+00 2.577595e+00 2.653430e+00 2.270721e+00 3.074375e+00 1.946239e+00 2.176892e+00 6.942265e-04
<GCONST> 8.808863e+01
<MIXTURE> 109 6.661064e-03
<MEAN> 25
 3.969825e+00 -1.043546e+01 -8.181937e+00 -1.415230e+00 2.743118e+00 1.662678e-01 -1.271010e-01 1.458899e+00 -2.497300e+00 -8.083789e+00 -5.278535e+00 9.212445e-02 -2.772189e-02 -1.339600e-01 -2.420877e-02 2.599913e-01 2.130059e-01 1.167604e-01 -1.136263e-01 -1.078924e-01 -8.530282e-02 -1.611015e-01 2.142899e-01 5.317421e-03 -2.847378e-03
<VARIANCE> 25
 9.211371e+00 1.810668e+01 1.989520e+01 3.084060e+01 3.980176e+01 3.775031e+01 4.565649e+01 3.360886e+01 4.488993e+01 3.738396e+01 2.899730e+01 2.770423e+01 1.929662e-01 4.129463e-01 5.253392e-01 6.208850e-01 1.229321e+00 9.665419e-01 1.223559e+00 1.077802e+00 1.333080e+00 1.068708e+00 8.534255e-01 8.798262e-01 1.921568e-04
<GCONST> 7.455738e+01
<MIXTURE> 110 6.661064e-03
<MEAN> 25
 3.969825e+00 -1.043546e+01 -8.181937e+00 -1.415230e+00 2.743118e+00 1.662678e-01 -1.271010e-01 1.458899e+00 -2.497300e+00 -8.083789e+00 -5.278535e+00 9.212445e-02 -2.772189e-02 -1.339600e-01 -2.420877e-02 2.599913e-01 2.130059e-01 1.167604e-01 -1.136263e-01 -1.078924e-01 -8.530282e-02 -1.611015e-01 2.142899e-01 5.317421e-03 -2.847378e-03
<VARIANCE> 25
 9.211371e+00 1.810668e+01 1.989520e+01 3.084060e+01 3.980176e+01 3.775031e+01 4.565649e+01 3.360886e+01 4.488993e+01 3.738396e+01 2.899730e+01 2.770423e+01 1.929662e-01 4.129463e-01 5.253392e-01 6.208850e-01 1.229321e+00 9.665419e-01 1.223559e+00 1.077802e+00 1.333080e+00 1.068708e+00 8.534255e-01 8.798262e-01 1.921568e-04
<GCONST> 7.455738e+01
<MIXTURE> 111 4.337247e-03
<MEAN> 25
 -3.285963e+00 -1.110943e+00 1.618170e-01 1.931554e+00 6.714153e-01 1.878643e+00 1.329869e+00 1.017493e-01 1.323833e+00 -6.874502e-01 -2.081597e+00 1.806819e+00 -4.838642e-02 -4.206325e-02 -8.286835e-02 -1.021632e-01 -1.003579e-01 3.724832e-02 -4.714734e-03 1.501510e-02 -1.782287e-01 -2.868766e-01 -2.580487e-01 -2.053751e-01 -4.987243e-04
<VARIANCE> 25
 5.715137e+00 4.096170e+00 1.029027e+01 7.445297e+00 9.830836e+00 1.680968e+01 1.211016e+01 1.127379e+01 1.150179e+01 9.647018e+00 1.168165e+01 1.166201e+01 8.588411e-02 1.456392e-01 2.198155e-01 4.095513e-01 7.381620e-01 6.535442e-01 6.738369e-01 1.123583e+00 8.409270e-01 8.809294e-01 7.927902e-01 7.543398e-01 2.270702e-05
<GCONST> 5.378320e+01
<MIXTURE> 112 4.337247e-03
<MEAN> 25
 -3.285963e+00 -1.110943e+00 1.618170e-01 1.931554e+00 6.714153e-01 1.878643e+00 1.329869e+00 1.017493e-01 1.323833e+00 -6.874502e-01 -2.081597e+00 1.806819e+00 -4.838642e-02 -4.206325e-02 -8.286835e-02 -1.021632e-01 -1.003579e-01 3.724832e-02 -4.714734e-03 1.501510e-02 -1.782287e-01 -2.868766e-01 -2.580487e-01 -2.053751e-01 -4.987243e-04
<VARIANCE> 25
 5.715137e+00 4.096170e+00 1.029027e+01 7.445297e+00 9.830836e+00 1.680968e+01 1.211016e+01 1.127379e+01 1.150179e+01 9.647018e+00 1.168165e+01 1.166201e+01 8.588411e-02 1.456392e-01 2.198155e-01 4.095513e-01 7.381620e-01 6.535442e-01 6.738369e-01 1.123583e+00 8.409270e-01 8.809294e-01 7.927902e-01 7.543398e-01 2.270702e-05
<GCONST> 5.378320e+01
<MIXTURE> 113 5.938666e-03
<MEAN> 25
 9.978288e+00 1.755069e+00 -8.781607e+00 -1.704784e+01 -1.034064e+00 5.659457e+00 -5.280840e+00 -1.466024e+00 -5.695702e+00 -4.937850e-01 2.990062e-01 -1.977057e-01 4.812289e-03 1.384069e-02 -5.951170e-02 -1.134176e-01 1.043134e-01 1.505820e-01 5.927986e-02 3.605633e-02 -5.701605e-02 -5.127963e-02 1.797071e-01 3.525892e-02 -1.410706e-03
<VARIANCE> 25
 8.871910e+00 1.639178e+01 2.967366e+01 3.419632e+01 5.273832e+01 3.386735e+01 3.970934e+01 3.914287e+01 3.737752e+01 4.640434e+01 3.629831e+01 2.844303e+01 1.217905e-01 3.205947e-01 3.161441e-01 6.314209e-01 6.128756e-01 6.536587e-01 7.765891e-01 8.451965e-01 9.595039e-01 9.052894e-01 7.244933e-01 7.135869e-01 1.247977e-04
<GCONST> 7.110416e+01
<MIXTURE> 114 5.938666e-03
<MEAN> 25
 9.978288e+00 1.755069e+00 -8.781607e+00 -1.704784e+01 -1.034064e+00 5.659457e+00 -5.280840e+00 -1.466024e+00 -5.695702e+00 -4.937850e-01 2.990062e-01 -1.977057e-01 4.812289e-03 1.384069e-02 -5.951170e-02 -1.134176e-01 1.043134e-01 1.505820e-01 5.927986e-02 3.605633e-02 -5.701605e-02 -5.127963e-02 1.797071e-01 3.525892e-02 -1.410706e-03
<VARIANCE> 25
 8.871910e+00 1.639178e+01 2.967366e+01 3.419632e+01 5.273832e+01 3.386735e+01 3.970934e+01 3.914287e+01 3.737752e+01 4.640434e+01 3.629831e+01 2.844303e+01 1.217905e-01 3.205947e-01 3.161441e-01 6.314209e-01 6.128756e-01 6.536587e-01 7.765891e-01 8.451965e-01 9.595039e-01 9.052894e-01 7.244933e-01 7.135869e-01 1.247977e-04
<GCONST> 7.110416e+01
<MIXTURE> 115 2.935202e-03
<MEAN> 25
 -3.958715e+00 -8.499708e-01 -2.894199e+00 3.679469e+00 2.427484e+00 -1.693902e-01 2.280560e+00 3.280708e-01 1.490163e+00 6.307653e-02 -1.794334e-01 2.584205e+00 3.084850e-02 -7.107735e-02 -2.236617e-01 -4.625625e-01 -6.688883e-01 -6.484249e-01 -5.449441e-01 -4.752506e-01 -4.636816e-01 -4.233937e-01 -3.721547e-01 -1.866347e-01 -1.445214e-05
<VARIANCE> 25
 8.951077e+00 9.650160e+00 1.380948e+01 1.223622e+01 1.309503e+01 1.817060e+01 1.641726e+01 2.012997e+01 1.757987e+01 1.691407e+01 1.928801e+01 1.434288e+01 1.953632e-01 3.384967e-01 4.788037e-01 5.733548e-01 6.645744e-01 7.997679e-01 1.042316e+00 1.129732e+00 1.045703e+00 9.778924e-01 1.024631e+00 1.058109e+00 1.090682e-06
<GCONST> 6.002261e+01
<MIXTURE> 116 2.935202e-03
<MEAN> 25
 -3.958715e+00 -8.499708e-01 -2.894199e+00 3.679469e+00 2.427484e+00 -1.693902e-01 2.280560e+00 3.280708e-01 1.490163e+00 6.307653e-02 -1.794334e-01 2.584205e+00 3.084850e-02 -7.107735e-02 -2.236617e-01 -4.625625e-01 -6.688883e-01 -6.484249e-01 -5.449441e-01 -4.752506e-01 -4.636816e-01 -4.233937e-01 -3.721547e-01 -1.866347e-01 -1.445214e-05
<VARIANCE> 25
 8.951077e+00 9.650160e+00 1.380948e+01 1.223622e+01 1.309503e+01 1.817060e+01 1.641726e+01 2.012997e+01 1.757987e+01 1.691407e+01 1.928801e+01 1.434288e+01 1.953632e-01 3.384967e-01 4.788037e-01 5.733548e-01 6.645744e-01 7.997679e-01 1.042316e+00 1.129732e+00 1.045703e+00 9.778924e-01 1.024631e+00 1.058109e+00 1.090682e-06
<GCONST> 6.002261e+01
<MIXTURE> 117 6.506003e-03
<MEAN> 25
 -4.640142e+00 1.111259e+00 1.055761e+00 9.747607e+00 6.253403e+00 6.256021e+00 6.458469e+00 5.033115e+00 6.381023e+00 4.920681e+00 6.348825e+00 2.705690e+00 -7.501743e-02 -2.341448e-01 -3.580394e-01 -4.201713e-01 -3.684361e-01 -3.018613e-01 -2.866123e-01 -3.308647e-01 -3.913729e-01 -3.680791e-01 -2.641672e-01 -1.159524e-01 -8.695218e-06
<VARIANCE> 25
 7.184672e+00 8.761690e+00 9.795502e+00 1.434597e+01 1.561765e+01 1.533100e+01 1.771453e+01 1.799697e+01 1.640180e+01 1.639649e+01 1.688574e+01 1.474013e+01 2.162198e-01 3.071667e-01 4.256761e-01 6.171973e-01 8.541850e-01 1.054171e+00 1.176885e+00 1.232838e+00 1.222522e+00 1.193766e+00 1.167002e+00 1.113555e+00 1.000608e-06
<GCONST> 6.043302e+01
<MIXTURE> 118 6.506003e-03
<MEAN> 25
 -4.640142e+00 1.111259e+00 1.055761e+00 9.747607e+00 6.253403e+00 6.256021e+00 6.458469e+00 5.033115e+00 6.381023e+00 4.920681e+00 6.348825e+00 2.705690e+00 -7.501743e-02 -2.341448e-01 -3.580394e-01 -4.201713e-01 -3.684361e-01 -3.018613e-01 -2.866123e-01 -3.308647e-01 -3.913729e-01 -3.680791e-01 -2.641672e-01 -1.159524e-01 -8.695218e-06
<VARIANCE> 25
 7.184672e+00 8.761690e+00 9.795502e+00 1.434597e+01 1.561765e+01 1.533100e+01 1.771453e+01 1.799697e+01 1.640180e+01 1.639649e+01 1.688574e+01 1.474013e+01 2.162198e-01 3.071667e-01 4.256761e-01 6.171973e-01 8.541850e-01 1.054171e+00 1.176885e+00 1.232838e+00 1.222522e+00 1.193766e+00 1.167002e+00 1.113555e+00 1.000608e-06
<GCONST> 6.043302e+01
<MIXTURE> 119 4.297961e-03
<MEAN> 25
 -4.959933e+00 -7.500376e+00 2.178038e+00 1.911785e+00 2.176937e+00 2.408419e-01 5.241127e+00 5.722567e+00 1.151327e+00 1.123292e+00 6.450379e+00 1.569352e+00 -5.059386e-02 -6.878305e-02 4.794773e-02 -4.660818e-02 -1.324424e-01 -1.848910e-01 -6.561186e-02 1.263509e-02 -6.296253e-02 -1.061073e-01 -7.861812e-02 -8.378347e-02 9.030960e-04
<VARIANCE> 25
 8.483154e+00 1.021087e+01 1.655061e+01 2.034501e+01 2.274156e+01 2.315487e+01 2.486456e+01 2.841904e+01 2.486583e+01 3.091415e+01 2.154168e+01 2.012416e+01 1.640752e-01 2.883712e-01 4.664334e-01 6.277104e-01 7.940794e-01 9.903116e-01 1.098845e+00 1.309403e+00 1.332601e+00 1.260758e+00 1.233813e+00 1.127681e+00 2.390172e-04
<GCONST> 7.012566e+01
<MIXTURE> 120 4.297961e-03
<MEAN> 25
 -4.959933e+00 -7.500376e+00 2.178038e+00 1.911785e+00 2.176937e+00 2.408419e-01 5.241127e+00 5.722567e+00 1.151327e+00 1.123292e+00 6.450379e+00 1.569352e+00 -5.059386e-02 -6.878305e-02 4.794773e-02 -4.660818e-02 -1.324424e-01 -1.848910e-01 -6.561186e-02 1.263509e-02 -6.296253e-02 -1.061073e-01 -7.861812e-02 -8.378347e-02 9.030960e-04
<VARIANCE> 25
 8.483154e+00 1.021087e+01 1.655061e+01 2.034501e+01 2.274156e+01 2.315487e+01 2.486456e+01 2.841904e+01 2.486583e+01 3.091415e+01 2.154168e+01 2.012416e+01 1.640752e-01 2.883712e-01 4.664334e-01 6.277104e-01 7.940794e-01 9.903116e-01 1.098845e+00 1.309403e+00 1.332601e+00 1.260758e+00 1.233813e+00 1.127681e+00 2.390172e-04
<GCONST> 7.012566e+01
<MIXTURE> 121 4.567511e-03
<MEAN> 25
 2.061847e-01 -2.523925e+00 5.151930e+00 -1.289904e+01 -1.264396e+01 -1.666661e+00 9.982055e-01 -5.104072e+00 -4.196121e+00 -4.868467e-01 -5.506556e+00 -4.312145e+00 2.414519e-02 1.324473e-01 -4.110958e-02 7.974200e-02 1.581560e-01 7.828515e-02 -7.954163e-02 -1.823534e-01 -2.677870e-01 -2.579621e-01 -1.154107e-01 4.308189e-04 -7.441325e-03
<VARIANCE> 25
 7.738506e+00 1.560215e+01 1.727361e+01 2.039454e+01 2.442077e+01 2.924812e+01 2.952902e+01 2.460379e+01 3.530432e+01 2.836056e+01 1.974482e+01 2.117610e+01 1.550286e-01 6.428791e-01 6.233498e-01 7.046518e-01 7.707615e-01 1.149740e+00 1.117829e+00 1.122550e+00 1.218411e+00 1.192585e+00 9.438624e-01 8.724076e-01 2.109664e-04
<GCONST> 7.140238e+01
<MIXTURE> 122 4.567511e-03
<MEAN> 25
 2.061847e-01 -2.523925e+00 5.151930e+00 -1.289904e+01 -1.264396e+01 -1.666661e+00 9.982055e-01 -5.104072e+00 -4.196121e+00 -4.868467e-01 -5.506556e+00 -4.312145e+00 2.414519e-02 1.324473e-01 -4.110958e-02 7.974200e-02 1.581560e-01 7.828515e-02 -7.954163e-02 -1.823534e-01 -2.677870e-01 -2.579621e-01 -1.154107e-01 4.308189e-04 -7.441325e-03
<VARIANCE> 25
 7.738506e+00 1.560215e+01 1.727361e+01 2.039454e+01 2.442077e+01 2.924812e+01 2.952902e+01 2.460379e+01 3.530432e+01 2.836056e+01 1.974482e+01 2.117610e+01 1.550286e-01 6.428791e-01 6.233498e-01 7.046518e-01 7.707615e-01 1.149740e+00 1.117829e+00 1.122550e+00 1.218411e+00 1.192585e+00 9.438624e-01 8.724076e-01 2.109664e-04
<GCONST> 7.140238e+01
<MIXTURE> 123 4.393044e-03
<MEAN> 25
 -3.978167e+00 6.453361e-01 3.987364e-01 5.927271e+00 4.887690e+00 3.447934e+00 2.962690e+00 8.755445e-02 8.889788e-01 -7.952996e-02 -2.670223e-01 9.852700e-01 -5.317236e-01 -6.979570e-01 -7.947043e-01 -6.258954e-01 -3.119456e-01 -1.077075e-01 4.689511e-01 5.524432e-01 7.519717e-01 7.341021e-01 7.515040e-01 4.862692e-01 -1.394376e-03
<VARIANCE> 25
 1.004364e+01 9.668544e+00 1.457750e+01 1.580959e+01 2.131444e+01 2.592637e+01 2.067448e+01 1.810507e+01 1.937943e+01 1.795943e+01 2.123564e+01 1.887011e+01 3.750255e-01 3.633488e-01 5.084681e-01 6.547912e-01 9.624888e-01 1.376051e+00 1.203200e+00 1.261697e+00 1.071347e+00 1.191605e+00 1.195113e+00 1.144336e+00 1.221111e-04
<GCONST> 6.920036e+01
<MIXTURE> 124 4.069876e-03
<MEAN> 25
 -6.147045e+00 -1.361728e+00 -2.512064e+00 4.797352e+00 4.752308e+00 3.663075e+00 5.330767e+00 2.302674e+00 3.277539e+00 1.226416e+00 6.218950e-01 2.922382e+00 -2.071825e-01 -3.261447e-01 -3.333793e-01 -2.317509e-01 8.286049e-02 4.873915e-01 7.987900e-01 8.408325e-01 6.519106e-01 3.145878e-01 5.016034e-02 -7.249133e-02 -1.969172e-04
<VARIANCE> 25
 1.154237e+01 6.540924e+00 1.176861e+01 1.246992e+01 1.172866e+01 1.929292e+01 1.457145e+01 1.658949e+01 1.466582e+01 1.587811e+01 2.007156e+01 1.367344e+01 1.059275e-01 1.553719e-01 2.786863e-01 4.086792e-01 6.345158e-01 7.153624e-01 7.202196e-01 7.840984e-01 8.651451e-01 9.971837e-01 1.001270e+00 9.629512e-01 1.929868e-05
<GCONST> 5.855426e+01
<MIXTURE> 125 4.069876e-03
<MEAN> 25
 -6.147045e+00 -1.361728e+00 -2.512064e+00 4.797352e+00 4.752308e+00 3.663075e+00 5.330767e+00 2.302674e+00 3.277539e+00 1.226416e+00 6.218950e-01 2.922382e+00 -2.071825e-01 -3.261447e-01 -3.333793e-01 -2.317509e-01 8.286049e-02 4.873915e-01 7.987900e-01 8.408325e-01 6.519106e-01 3.145878e-01 5.016034e-02 -7.249133e-02 -1.969172e-04
<VARIANCE> 25
 1.154237e+01 6.540924e+00 1.176861e+01 1.246992e+01 1.172866e+01 1.929292e+01 1.457145e+01 1.658949e+01 1.466582e+01 1.587811e+01 2.007156e+01 1.367344e+01 1.059275e-01 1.553719e-01 2.786863e-01 4.086792e-01 6.345158e-01 7.153624e-01 7.202196e-01 7.840984e-01 8.651451e-01 9.971837e-01 1.001270e+00 9.629512e-01 1.929868e-05
<GCONST> 5.855426e+01
<MIXTURE> 126 2.402244e-03
<MEAN> 25
 -3.705339e+00 -6.880774e+00 -5.244751e+00 2.179216e+00 4.169928e+00 -3.076037e+00 1.123014e-01 3.542138e+00 3.353080e+00 -2.591193e+00 -1.481093e+00 2.909824e+00 8.674650e-04 -9.880011e-03 -2.730915e-02 -1.410972e-01 -3.110464e-01 -3.823996e-01 -2.625310e-01 -1.460414e-01 -1.058371e-01 -1.004298e-01 -8.055384e-02 -3.156659e-02 -1.216714e-03
<VARIANCE> 25
 7.519951e+00 1.249733e+01 1.390832e+01 1.570541e+01 2.459556e+01 2.464590e+01 2.264545e+01 2.797417e+01 3.110040e+01 2.669374e+01 2.135095e+01 2.012134e+01 1.716591e-01 3.453712e-01 4.762551e-01 5.672386e-01 7.613806e-01 9.760793e-01 1.102140e+00 1.257307e+00 1.457132e+00 1.416555e+00 1.222961e+00 1.126190e+00 2.126133e-04
<GCONST> 7.000345e+01
<MIXTURE> 127 2.402244e-03
<MEAN> 25
 -3.705339e+00 -6.880774e+00 -5.244751e+00 2.179216e+00 4.169928e+00 -3.076037e+00 1.123014e-01 3.542138e+00 3.353080e+00 -2.591193e+00 -1.481093e+00 2.909824e+00 8.674650e-04 -9.880011e-03 -2.730915e-02 -1.410972e-01 -3.110464e-01 -3.823996e-01 -2.625310e-01 -1.460414e-01 -1.058371e-01 -1.004298e-01 -8.055384e-02 -3.156659e-02 -1.216714e-03
<VARIANCE> 25
 7.519951e+00 1.249733e+01 1.390832e+01 1.570541e+01 2.459556e+01 2.464590e+01 2.264545e+01 2.797417e+01 3.110040e+01 2.669374e+01 2.135095e+01 2.012134e+01 1.716591e-01 3.453712e-01 4.762551e-01 5.672386e-01 7.613806e-01 9.760793e-01 1.102140e+00 1.257307e+00 1.457132e+00 1.416555e+00 1.222961e+00 1.126190e+00 2.126133e-04
<GCONST> 7.000345e+01
<MIXTURE> 128 3.790457e-03
<MEAN> 25
 -3.929867e+00 1.532593e+00 -3.374284e-01 6.558913e+00 3.615196e+00 1.862346e+00 3.584078e+00 2.369756e+00 3.963012e+00 3.688060e+00 3.748140e+00 3.524429e+00 -3.960648e-01 -1.972135e-01 9.930375e-02 7.259300e-01 1.184692e+00 1.134841e+00 7.173356e-01 1.332585e-01 -4.380117e-01 -7.875649e-01 -7.034041e-01 -3.949467e-01 -3.492461e-05
<VARIANCE> 25
 1.019650e+01 1.171417e+01 1.496178e+01 1.939288e+01 2.002202e+01 2.114936e+01 2.427714e+01 2.462427e+01 2.637082e+01 2.390468e+01 2.697433e+01 1.817132e+01 8.907433e-01 1.144290e+00 1.363292e+00 1.500249e+00 1.578361e+00 1.859602e+00 2.244912e+00 2.323045e+00 2.144389e+00 1.855940e+00 1.741785e+00 1.748367e+00 1.003251e-06
<GCONST> 7.362844e+01
<TRANSP> 3
 0.000000e+00 1.000000e+00 0.000000e+00
 0.000000e+00 9.999990e-01 9.999998e-07
 0.000000e+00 0.000000e+00 0.000000e+00
<ENDHMM>
