~o
<STREAMINFO> 1 25
<VECSIZE> 25<NULLD><MFCC_E_D_N><DIAGC>
~h "jmodel"
<BEGINHMM>
<NUMSTATES> 3
<STATE> 2
<NUMMIXES> 128
<MIXTURE> 1 5.748963e-03
<MEAN> 25
 -2.587540e+00 3.184325e+00 2.307911e+00 8.753697e+00 4.374609e+00 3.447894e+00 4.064010e+00 3.930542e+00 5.834632e+00 5.250484e+00 5.880986e+00 3.078727e+00 -2.003103e+00 -1.635036e+00 -8.644295e-01 1.076491e+00 1.559966e+00 2.231913e+00 2.154748e+00 2.084368e+00 1.693042e+00 1.269470e+00 1.565833e+00 6.134886e-01 -4.692944e-02
<VARIANCE> 25
 1.008184e+01 1.177007e+01 1.497056e+01 1.867452e+01 2.319050e+01 2.214776e+01 2.190094e+01 2.200956e+01 2.101190e+01 2.253695e+01 2.097252e+01 1.707612e+01 1.792322e+00 2.110516e+00 3.024637e+00 3.208636e+00 3.738765e+00 3.357074e+00 3.317368e+00 3.379387e+00 3.520548e+00 3.725853e+00 3.518306e+00 2.832800e+00 3.120607e-03
<GCONST> 8.847029e+01
<MIXTURE> 2 4.549242e-03
<MEAN> 25
 -4.875936e+00 1.313419e+00 9.929397e-01 9.896365e+00 6.691813e+00 7.424524e+00 7.848987e+00 6.954086e+00 8.374172e+00 6.370354e+00 7.611884e+00 3.072853e+00 -6.224225e-02 4.184256e-02 1.426770e-01 2.258443e-01 2.651700e-01 2.816704e-01 2.951315e-01 3.193127e-01 3.498806e-01 3.085063e-01 1.967997e-01 8.002673e-02 4.567624e-07
<VARIANCE> 25
 6.948278e+00 8.902474e+00 1.064871e+01 1.591981e+01 1.722744e+01 1.555656e+01 1.689312e+01 1.850278e+01 1.657773e+01 1.738358e+01 1.831037e+01 1.434187e+01 1.252957e-01 2.266567e-01 3.364710e-01 4.673244e-01 6.492658e-01 8.150843e-01 9.295290e-01 1.003079e+00 1.051155e+00 1.077910e+00 1.075570e+00 1.013368e+00 1.001228e-06
<GCONST> 5.805383e+01
<MIXTURE> 3 4.549242e-03
<MEAN> 25
 -4.875936e+00 1.313419e+00 9.929397e-01 9.896365e+00 6.691813e+00 7.424524e+00 7.848987e+00 6.954086e+00 8.374172e+00 6.370354e+00 7.611884e+00 3.072853e+00 -6.224225e-02 4.184256e-02 1.426770e-01 2.258443e-01 2.651700e-01 2.816704e-01 2.951315e-01 3.193127e-01 3.498806e-01 3.085063e-01 1.967997e-01 8.002673e-02 4.567624e-07
<VARIANCE> 25
 6.948278e+00 8.902474e+00 1.064871e+01 1.591981e+01 1.722744e+01 1.555656e+01 1.689312e+01 1.850278e+01 1.657773e+01 1.738358e+01 1.831037e+01 1.434187e+01 1.252957e-01 2.266567e-01 3.364710e-01 4.673244e-01 6.492658e-01 8.150843e-01 9.295290e-01 1.003079e+00 1.051155e+00 1.077910e+00 1.075570e+00 1.013368e+00 1.001228e-06
<GCONST> 5.805383e+01
<MIXTURE> 4 1.671429e-02
<MEAN> 25
 3.132167e+00 2.464330e+00 -4.204690e+00 3.746994e-01 4.379958e+00 6.930938e-01 7.875172e-01 1.653186e-01 1.712209e+00 1.138475e+00 -2.332735e+00 -2.032145e-01 -2.691897e+00 1.246289e+00 1.823829e+00 2.990339e+00 9.033900e-01 4.120058e-01 1.356617e+00 1.035016e+00 1.039499e+00 2.890572e-01 8.516188e-01 9.746817e-01 -1.056266e-01
<VARIANCE> 25
 2.096960e+01 2.751614e+01 2.906767e+01 4.030432e+01 4.533632e+01 7.434486e+01 6.570708e+01 5.070237e+01 5.291897e+01 5.788024e+01 4.813194e+01 3.513443e+01 2.238132e+00 4.704979e+00 3.633644e+00 4.667102e+00 4.633414e+00 5.838905e+00 5.932353e+00 5.214116e+00 5.588468e+00 6.180544e+00 7.300008e+00 4.323254e+00 5.665326e-03
<GCONST> 1.048004e+02
<MIXTURE> 5 3.206198e-03
<MEAN> 25
 -3.426953e+00 2.232406e+00 6.056058e-01 9.340876e+00 6.633966e+00 6.317844e+00 7.157724e+00 4.685251e+00 5.544346e+00 3.833859e+00 4.506425e+00 2.602617e+00 -3.262072e-01 7.439414e-01 1.210332e+00 1.025401e+00 3.204157e-01 -1.007518e-01 -9.285202e-02 2.270905e-04 4.386729e-01 6.810510e-01 4.099230e-01 7.932901e-02 -4.983434e-05
<VARIANCE> 25
 1.013441e+01 1.398957e+01 2.321305e+01 2.593775e+01 2.032646e+01 1.925933e+01 2.004328e+01 2.034196e+01 2.135993e+01 2.105103e+01 2.565078e+01 1.618322e+01 1.195710e+00 1.240414e+00 1.364134e+00 1.659592e+00 2.270635e+00 2.349979e+00 2.282703e+00 2.381094e+00 2.328442e+00 2.213149e+00 2.077579e+00 1.859124e+00 1.033665e-06
<GCONST> 7.520629e+01
<MIXTURE> 6 5.475854e-03
<MEAN> 25
 9.172599e+00 -1.339886e+00 -6.291494e+00 -1.087356e+01 -3.055642e+00 6.340711e+00 -4.737984e+00 -5.702114e+00 -4.961940e+00 2.457955e+00 5.378372e+00 -9.493554e-01 4.000502e-01 8.830922e-01 -3.026091e-01 -1.569214e+00 -7.747341e-01 1.605362e+00 1.510515e+00 6.467018e-02 -9.901421e-01 -1.160460e+00 1.099689e-01 1.095140e+00 -8.999972e-03
<VARIANCE> 25
 8.159472e+00 1.666593e+01 2.164063e+01 3.440371e+01 3.347413e+01 2.645917e+01 4.572504e+01 3.207179e+01 3.892816e+01 3.365325e+01 3.632114e+01 2.365843e+01 3.173866e-01 8.331130e-01 1.092726e+00 2.386920e+00 1.735449e+00 2.478690e+00 1.928695e+00 2.041746e+00 2.604866e+00 1.720564e+00 2.047676e+00 1.429176e+00 5.239873e-04
<GCONST> 8.296107e+01
<MIXTURE> 7 5.475854e-03
<MEAN> 25
 9.172599e+00 -1.339886e+00 -6.291494e+00 -1.087356e+01 -3.055642e+00 6.340711e+00 -4.737984e+00 -5.702114e+00 -4.961940e+00 2.457955e+00 5.378372e+00 -9.493554e-01 4.000502e-01 8.830922e-01 -3.026091e-01 -1.569214e+00 -7.747341e-01 1.605362e+00 1.510515e+00 6.467018e-02 -9.901421e-01 -1.160460e+00 1.099689e-01 1.095140e+00 -8.999972e-03
<VARIANCE> 25
 8.159472e+00 1.666593e+01 2.164063e+01 3.440371e+01 3.347413e+01 2.645917e+01 4.572504e+01 3.207179e+01 3.892816e+01 3.365325e+01 3.632114e+01 2.365843e+01 3.173866e-01 8.331130e-01 1.092726e+00 2.386920e+00 1.735449e+00 2.478690e+00 1.928695e+00 2.041746e+00 2.604866e+00 1.720564e+00 2.047676e+00 1.429176e+00 5.239873e-04
<GCONST> 8.296107e+01
<MIXTURE> 8 1.165917e-02
<MEAN> 25
 -4.734431e+00 1.366803e+00 1.281690e+00 9.536731e+00 6.562592e+00 6.244501e+00 6.470402e+00 5.678497e+00 6.667286e+00 5.610031e+00 6.515800e+00 3.154965e+00 -6.258825e-01 -1.427444e+00 -1.067335e+00 -1.723246e+00 -2.362706e-01 -9.493218e-01 -1.784387e-01 -2.816289e-01 -2.480481e-01 -1.739213e-01 -2.062952e-01 8.694792e-02 9.857986e-02
<VARIANCE> 25
 9.305601e+00 9.883577e+00 1.160523e+01 1.610324e+01 1.662241e+01 1.569119e+01 1.809576e+01 1.745997e+01 1.697603e+01 1.740611e+01 1.957769e+01 1.398411e+01 2.750237e+00 2.805656e+00 3.906685e+00 3.757153e+00 3.445317e+00 3.314668e+00 3.115738e+00 3.082661e+00 2.865745e+00 2.644684e+00 2.463167e+00 1.904376e+00 6.690666e-03
<GCONST> 8.631051e+01
<MIXTURE> 9 1.199672e-02
<MEAN> 25
 9.285405e+00 2.102572e+00 -6.817345e+00 -9.550999e+00 -3.127238e+00 4.402985e+00 -1.068180e+00 -3.352493e+00 -5.775649e+00 -5.715542e-01 1.343266e+00 4.007373e-01 1.258783e+00 -1.406115e-01 -2.611459e-01 -2.710960e+00 -1.660395e+00 9.828562e-01 -6.105416e-01 -2.126949e-01 -2.284463e-01 -4.187572e-01 6.560062e-01 -2.965336e-01 6.625745e-02
<VARIANCE> 25
 1.103617e+01 2.967349e+01 3.335108e+01 5.839662e+01 5.066508e+01 3.225927e+01 4.780468e+01 5.327909e+01 3.911317e+01 3.984496e+01 3.599609e+01 2.574973e+01 2.100279e+00 2.310739e+00 4.494643e+00 4.626991e+00 4.891203e+00 3.828843e+00 5.108555e+00 5.437731e+00 4.693062e+00 3.875587e+00 3.821067e+00 2.652431e+00 2.388183e-03
<GCONST> 9.878598e+01
<MIXTURE> 10 6.596976e-03
<MEAN> 25
 8.174742e-01 7.632627e+00 5.373214e+00 7.140447e+00 1.588554e+00 -2.119123e+00 -5.245976e-01 -1.681967e+00 8.771668e-01 8.538001e-01 8.344268e-01 6.597838e-01 -1.922780e+00 -6.722711e-01 -4.620997e-01 3.027951e+00 2.461173e+00 2.706894e+00 2.373242e+00 2.270978e+00 1.864460e+00 1.542694e+00 2.328161e+00 5.242754e-01 -1.379533e-01
<VARIANCE> 25
 1.952758e+01 2.067411e+01 2.228911e+01 2.909390e+01 3.825781e+01 3.490512e+01 3.512401e+01 3.380698e+01 2.758939e+01 2.904054e+01 2.694504e+01 2.498832e+01 2.238975e+00 3.424057e+00 5.537084e+00 5.163951e+00 5.549004e+00 4.471078e+00 4.694149e+00 4.870652e+00 4.388308e+00 5.021187e+00 4.475354e+00 3.188691e+00 2.715961e-03
<GCONST> 9.747012e+01
<MIXTURE> 11 1.633820e-02
<MEAN> 25
 6.885416e+00 3.364401e+00 3.011613e+00 5.613248e+00 -2.577682e+00 -2.459859e+00 -2.168519e+00 -6.524509e+00 -2.541833e+00 -2.007227e-01 -2.720160e+00 -1.069359e+00 -2.380461e-01 4.815086e-01 2.386144e-01 3.865215e-01 4.628167e-01 -1.969069e-01 4.004787e-02 -6.892855e-02 -2.397303e-01 1.702701e-02 -5.088275e-02 1.817967e-01 -1.448153e-02
<VARIANCE> 25
 1.135806e+01 2.313414e+01 1.942745e+01 3.374503e+01 3.330285e+01 3.656329e+01 4.180557e+01 3.873730e+01 3.930885e+01 2.984827e+01 3.590735e+01 2.660943e+01 8.420569e-01 1.408040e+00 1.576761e+00 2.527674e+00 1.938387e+00 1.967743e+00 2.697861e+00 2.224957e+00 2.014859e+00 2.191468e+00 2.166040e+00 1.505467e+00 8.463284e-04
<GCONST> 8.670441e+01
<MIXTURE> 12 5.904134e-03
<MEAN> 25
 1.057437e+01 3.438566e+00 -4.571030e+00 -1.585414e+01 -8.596847e+00 8.555061e+00 -6.147140e-01 -2.205698e+00 -1.964858e+00 -4.546681e+00 1.911528e+00 7.456698e-01 5.645711e-02 3.932594e-01 8.651979e-02 -3.936770e-01 -2.626295e-01 8.529890e-02 2.634554e-01 4.502465e-01 1.932424e-01 -4.118954e-01 -4.387086e-01 8.103876e-02 -8.501911e-03
<VARIANCE> 25
 9.128026e+00 2.174568e+01 2.234206e+01 3.384967e+01 4.040452e+01 2.960755e+01 4.149202e+01 4.817008e+01 4.308191e+01 3.772518e+01 3.662300e+01 2.763924e+01 2.393687e-01 8.605339e-01 6.730072e-01 1.202710e+00 1.199587e+00 1.073031e+00 1.173436e+00 1.337880e+00 1.230699e+00 1.185362e+00 1.233485e+00 9.321014e-01 6.522732e-04
<GCONST> 7.896088e+01
<MIXTURE> 13 5.904134e-03
<MEAN> 25
 1.057437e+01 3.438566e+00 -4.571030e+00 -1.585414e+01 -8.596847e+00 8.555061e+00 -6.147140e-01 -2.205698e+00 -1.964858e+00 -4.546681e+00 1.911528e+00 7.456698e-01 5.645711e-02 3.932594e-01 8.651979e-02 -3.936770e-01 -2.626295e-01 8.529890e-02 2.634554e-01 4.502465e-01 1.932424e-01 -4.118954e-01 -4.387086e-01 8.103876e-02 -8.501911e-03
<VARIANCE> 25
 9.128026e+00 2.174568e+01 2.234206e+01 3.384967e+01 4.040452e+01 2.960755e+01 4.149202e+01 4.817008e+01 4.308191e+01 3.772518e+01 3.662300e+01 2.763924e+01 2.393687e-01 8.605339e-01 6.730072e-01 1.202710e+00 1.199587e+00 1.073031e+00 1.173436e+00 1.337880e+00 1.230699e+00 1.185362e+00 1.233485e+00 9.321014e-01 6.522732e-04
<GCONST> 7.896088e+01
<MIXTURE> 14 6.488954e-03
<MEAN> 25
 -4.320133e+00 -3.508947e-01 -3.123926e-01 8.892586e+00 7.504017e+00 7.368388e+00 7.835810e+00 7.307443e+00 7.260858e+00 5.210044e+00 6.778824e+00 4.105184e+00 -2.688228e-01 1.910602e-01 3.725173e-01 3.093732e-01 -5.551471e-04 5.993280e-02 9.173523e-02 1.834830e-01 2.942520e-01 5.340697e-01 4.957862e-01 7.598212e-02 -9.517559e-03
<VARIANCE> 25
 9.235599e+00 1.390677e+01 1.853151e+01 1.781688e+01 2.084261e+01 1.956217e+01 2.138929e+01 2.061314e+01 1.999347e+01 2.383978e+01 2.251148e+01 1.592082e+01 9.642861e-01 1.636213e+00 1.782725e+00 1.925060e+00 2.245233e+00 2.251798e+00 2.250676e+00 2.256441e+00 2.274314e+00 2.502164e+00 2.224486e+00 1.807055e+00 1.035742e-03
<GCONST> 8.194193e+01
<MIXTURE> 15 2.475190e-03
<MEAN> 25
 -5.423185e+00 -6.364399e-01 -2.013270e-01 7.360122e+00 5.716429e+00 5.704174e+00 6.064185e+00 4.975650e+00 5.170782e+00 4.148150e+00 5.476522e+00 2.539687e+00 -1.212816e-01 -2.919872e-02 7.490826e-02 2.436057e-01 4.879006e-01 7.867451e-01 1.070482e+00 1.180634e+00 1.058005e+00 7.550738e-01 4.186680e-01 1.533564e-01 -8.987730e-05
<VARIANCE> 25
 6.971951e+00 5.627777e+00 9.018987e+00 1.281814e+01 1.405527e+01 1.430370e+01 1.489851e+01 1.489523e+01 1.411225e+01 1.418209e+01 1.541118e+01 1.250016e+01 1.246028e-01 2.062026e-01 3.193682e-01 5.023770e-01 6.995827e-01 7.941725e-01 7.649000e-01 7.913134e-01 9.090304e-01 1.023848e+00 1.070680e+00 1.039415e+00 2.795078e-05
<GCONST> 5.860134e+01
<MIXTURE> 16 2.475190e-03
<MEAN> 25
 -5.423185e+00 -6.364399e-01 -2.013270e-01 7.360122e+00 5.716429e+00 5.704174e+00 6.064185e+00 4.975650e+00 5.170782e+00 4.148150e+00 5.476522e+00 2.539687e+00 -1.212816e-01 -2.919872e-02 7.490826e-02 2.436057e-01 4.879006e-01 7.867451e-01 1.070482e+00 1.180634e+00 1.058005e+00 7.550738e-01 4.186680e-01 1.533564e-01 -8.987730e-05
<VARIANCE> 25
 6.971951e+00 5.627777e+00 9.018987e+00 1.281814e+01 1.405527e+01 1.430370e+01 1.489851e+01 1.489523e+01 1.411225e+01 1.418209e+01 1.541118e+01 1.250016e+01 1.246028e-01 2.062026e-01 3.193682e-01 5.023770e-01 6.995827e-01 7.941725e-01 7.649000e-01 7.913134e-01 9.090304e-01 1.023848e+00 1.070680e+00 1.039415e+00 2.795078e-05
<GCONST> 5.860134e+01
<MIXTURE> 17 9.518312e-03
<MEAN> 25
 2.278952e+00 -1.204723e-01 7.121646e+00 2.249362e+00 -4.796099e+00 -6.051883e+00 -3.813702e+00 1.337265e+00 -3.296590e+00 -3.393152e+00 1.348658e+00 4.363355e-01 -5.408480e-01 -8.058765e-01 1.757821e+00 -1.931279e+00 -1.965066e+00 -3.646747e-01 -3.476006e-01 8.897286e-01 -8.593627e-01 -4.498459e-01 1.507695e+00 2.546335e-01 7.373238e-02
<VARIANCE> 25
 1.845430e+01 3.189483e+01 2.955559e+01 4.113766e+01 3.947614e+01 4.186057e+01 3.660046e+01 3.554835e+01 3.537944e+01 2.385282e+01 2.428001e+01 2.321061e+01 1.485405e+00 2.805517e+00 3.369480e+00 2.632207e+00 3.839084e+00 4.272485e+00 4.616087e+00 4.522195e+00 3.963701e+00 3.382768e+00 2.990109e+00 1.994960e+00 1.777508e-03
<GCONST> 9.457624e+01
<MIXTURE> 18 1.221018e-02
<MEAN> 25
 3.390744e+00 4.554218e+00 6.737869e+00 4.185781e+00 -3.991523e+00 -8.149209e+00 -2.051656e+00 -9.372986e-01 -3.315894e+00 -2.335068e+00 -2.564434e-01 6.862153e-01 -6.834556e-01 2.017933e+00 -4.580512e-01 1.929644e+00 2.984142e+00 1.358132e+00 7.691562e-01 -3.224803e-01 9.248344e-01 5.274316e-01 -6.454377e-01 -1.366630e-02 -1.114167e-01
<VARIANCE> 25
 1.612233e+01 2.359991e+01 2.962916e+01 2.560818e+01 3.768346e+01 3.026200e+01 3.478356e+01 3.214124e+01 3.653193e+01 3.216273e+01 3.361303e+01 2.888728e+01 2.516185e+00 2.917610e+00 4.932939e+00 4.410708e+00 3.742534e+00 4.250740e+00 4.274996e+00 4.237462e+00 4.725580e+00 3.907866e+00 4.958205e+00 3.312394e+00 4.479681e-03
<GCONST> 9.756933e+01
<MIXTURE> 19 9.912824e-03
<MEAN> 25
 -9.154141e+00 2.145563e+00 5.614470e-01 6.947920e-01 3.668903e+00 1.253172e+00 3.201675e+00 1.802972e+00 1.438946e+00 9.210503e-01 7.686926e-01 2.189039e+00 1.848415e+00 1.652666e+00 2.115208e+00 7.526959e-01 -9.209681e-01 -9.531587e-01 -1.118315e+00 -1.444549e+00 -1.501415e+00 -1.259709e+00 -5.727305e-01 -6.847994e-01 2.751863e-03
<VARIANCE> 25
 5.215342e+01 2.737254e+01 5.141301e+01 5.193914e+01 3.101869e+01 2.985115e+01 3.059246e+01 3.438944e+01 3.257181e+01 2.464347e+01 2.910747e+01 1.812358e+01 2.490203e+00 2.116837e+00 2.011847e+00 2.101226e+00 2.454487e+00 2.022782e+00 2.246003e+00 3.037131e+00 1.894770e+00 1.921635e+00 2.553304e+00 1.733651e+00 2.273255e-03
<GCONST> 9.116578e+01
<MIXTURE> 20 6.308331e-03
<MEAN> 25
 -1.417372e+01 7.464141e+00 8.190398e-01 6.164693e+00 4.886512e+00 1.595189e+00 5.190673e+00 7.578962e-01 1.009558e+00 7.970997e-01 2.556224e+00 -2.841252e-01 -3.262926e+00 -8.743455e-01 -1.575270e+00 3.456710e-01 1.536366e+00 2.052362e+00 1.988830e+00 2.021948e+00 2.130823e+00 2.028444e+00 1.664525e+00 9.303296e-01 4.663234e-02
<VARIANCE> 25
 1.949386e+01 2.349088e+01 3.075395e+01 3.685240e+01 3.076515e+01 2.782658e+01 2.970318e+01 3.217513e+01 2.852236e+01 2.795543e+01 2.494830e+01 2.076193e+01 2.130092e+00 2.168204e+00 1.904186e+00 2.536471e+00 2.680495e+00 2.304986e+00 2.299026e+00 2.426280e+00 2.235231e+00 2.642987e+00 2.265057e+00 1.873037e+00 1.920398e-03
<GCONST> 8.926363e+01
<MIXTURE> 21 7.928653e-03
<MEAN> 25
 3.700624e+00 -4.699416e+00 5.550828e+00 -1.362070e+00 -1.034390e+01 -9.227059e+00 -2.500495e+00 5.158902e+00 -2.196658e+00 -3.147528e+00 3.073683e-01 4.656770e-01 -7.652752e-01 1.299919e+00 2.547836e+00 2.943355e-02 -1.458949e+00 4.370103e-01 6.072785e-01 -1.428653e+00 -1.866354e+00 3.007022e-01 1.156729e+00 4.048331e-01 -1.624051e-02
<VARIANCE> 25
 8.920075e+00 1.771794e+01 2.975945e+01 2.652346e+01 2.668906e+01 3.290606e+01 4.048977e+01 4.735775e+01 3.994964e+01 2.921710e+01 3.134319e+01 2.136294e+01 3.756670e-01 8.848692e-01 1.730157e+00 1.288551e+00 2.097606e+00 2.143302e+00 3.406307e+00 2.375783e+00 2.096021e+00 2.385346e+00 2.248362e+00 2.367375e+00 6.304316e-04
<GCONST> 8.479344e+01
<MIXTURE> 22 8.827789e-03
<MEAN> 25
 -1.760655e+01 7.445148e+00 -4.053441e+00 7.379910e+00 4.897921e+00 2.455305e+00 8.157114e+00 1.110664e+00 5.701967e+00 3.150936e+00 5.466980e+00 1.201838e+00 -3.190173e-01 -2.988190e-01 -2.557379e-01 -3.733146e-02 4.820315e-02 1.969921e-01 3.482295e-01 9.954766e-02 2.688292e-01 2.505238e-01 1.218570e-01 1.521900e-01 6.220386e-03
<VARIANCE> 25
 9.233935e+00 1.719045e+01 1.662641e+01 2.370111e+01 2.281775e+01 2.107873e+01 1.952639e+01 2.374891e+01 1.863404e+01 1.996029e+01 1.903625e+01 1.298261e+01 1.054921e+00 1.400541e+00 1.572028e+00 1.663826e+00 1.374053e+00 1.506213e+00 1.834296e+00 1.620055e+00 1.524737e+00 1.488724e+00 1.321135e+00 1.135483e+00 1.759422e-03
<GCONST> 7.878529e+01
<MIXTURE> 23 6.455497e-03
<MEAN> 25
 7.515615e+00 2.250727e+00 3.159496e+00 2.695947e+00 -4.326240e+00 -3.233698e+00 -4.350855e+00 -5.962325e+00 -3.053674e+00 -1.317321e+00 -4.043805e+00 -1.739474e+00 4.187917e-02 1.629282e-01 1.665282e-02 5.941322e-02 -8.307816e-03 1.382588e-02 7.690148e-03 -5.478935e-02 -8.608041e-02 6.258585e-02 8.524620e-04 5.154858e-02 -4.379678e-03
<VARIANCE> 25
 1.156331e+01 2.184084e+01 2.508741e+01 4.330115e+01 3.968443e+01 4.985146e+01 5.978529e+01 5.412120e+01 4.660022e+01 4.473322e+01 4.625452e+01 3.878392e+01 1.170928e-01 3.147027e-01 3.680761e-01 4.945332e-01 6.024719e-01 6.830281e-01 7.596425e-01 8.272083e-01 9.242917e-01 8.609791e-01 7.837788e-01 7.358416e-01 8.170830e-05
<GCONST> 7.272736e+01
<MIXTURE> 24 6.455497e-03
<MEAN> 25
 7.515615e+00 2.250727e+00 3.159496e+00 2.695947e+00 -4.326240e+00 -3.233698e+00 -4.350855e+00 -5.962325e+00 -3.053674e+00 -1.317321e+00 -4.043805e+00 -1.739474e+00 4.187917e-02 1.629282e-01 1.665282e-02 5.941322e-02 -8.307816e-03 1.382588e-02 7.690148e-03 -5.478935e-02 -8.608041e-02 6.258585e-02 8.524620e-04 5.154858e-02 -4.379678e-03
<VARIANCE> 25
 1.156331e+01 2.184084e+01 2.508741e+01 4.330115e+01 3.968443e+01 4.985146e+01 5.978529e+01 5.412120e+01 4.660022e+01 4.473322e+01 4.625452e+01 3.878392e+01 1.170928e-01 3.147027e-01 3.680761e-01 4.945332e-01 6.024719e-01 6.830281e-01 7.596425e-01 8.272083e-01 9.242917e-01 8.609791e-01 7.837788e-01 7.358416e-01 8.170830e-05
<GCONST> 7.272736e+01
<MIXTURE> 25 1.118642e-02
<MEAN> 25
 -1.947600e-01 1.592996e+00 1.608199e+01 -6.506429e-01 -9.932151e+00 -3.285718e+00 -6.151740e+00 -6.673298e-01 -7.914110e+00 -5.548810e+00 5.493780e+00 -1.085819e+00 -2.635974e-01 8.249177e-01 -1.474279e-01 -3.206829e-01 4.774502e-01 4.300271e-01 5.171960e-01 -2.619215e-01 8.482154e-02 -2.452183e-02 -4.597652e-02 -3.034025e-01 -1.789633e-02
<VARIANCE> 25
 6.422703e+00 2.523749e+01 1.670445e+01 2.112417e+01 2.983055e+01 3.317488e+01 2.339874e+01 2.626927e+01 2.109076e+01 2.580066e+01 1.670909e+01 2.100890e+01 5.014880e-01 1.261757e+00 1.428201e+00 1.322399e+00 2.201207e+00 1.620883e+00 1.553045e+00 1.298169e+00 1.415674e+00 1.902058e+00 1.331706e+00 9.243345e-01 9.629204e-04
<GCONST> 7.878385e+01
<MIXTURE> 26 7.727677e-03
<MEAN> 25
 1.913497e+00 -5.526127e+00 -1.058043e+01 -1.517792e+00 7.209320e+00 5.738634e+00 4.742223e+00 1.088133e-01 2.466775e+00 -7.736293e-02 -2.796812e+00 -2.137539e+00 -7.114052e-01 7.141229e-01 4.509840e-01 6.946333e-01 2.633123e-01 3.371049e-01 3.189571e-01 1.989779e-01 3.420803e-01 -1.898823e-01 1.794003e-02 6.099543e-01 -5.699692e-02
<VARIANCE> 25
 2.218515e+01 3.207404e+01 2.589603e+01 5.460202e+01 3.531113e+01 3.739055e+01 4.100113e+01 4.192153e+01 3.407851e+01 4.809192e+01 3.850226e+01 4.654256e+01 1.490496e+00 1.712257e+00 2.127757e+00 1.922658e+00 2.043874e+00 2.492303e+00 2.694153e+00 2.485253e+00 2.213296e+00 2.296785e+00 3.054441e+00 2.158111e+00 3.032136e-03
<GCONST> 9.288499e+01
<MIXTURE> 27 7.727677e-03
<MEAN> 25
 1.913497e+00 -5.526127e+00 -1.058043e+01 -1.517792e+00 7.209320e+00 5.738634e+00 4.742223e+00 1.088133e-01 2.466775e+00 -7.736293e-02 -2.796812e+00 -2.137539e+00 -7.114052e-01 7.141229e-01 4.509840e-01 6.946333e-01 2.633123e-01 3.371049e-01 3.189571e-01 1.989779e-01 3.420803e-01 -1.898823e-01 1.794003e-02 6.099543e-01 -5.699692e-02
<VARIANCE> 25
 2.218515e+01 3.207404e+01 2.589603e+01 5.460202e+01 3.531113e+01 3.739055e+01 4.100113e+01 4.192153e+01 3.407851e+01 4.809192e+01 3.850226e+01 4.654256e+01 1.490496e+00 1.712257e+00 2.127757e+00 1.922658e+00 2.043874e+00 2.492303e+00 2.694153e+00 2.485253e+00 2.213296e+00 2.296785e+00 3.054441e+00 2.158111e+00 3.032136e-03
<GCONST> 9.288499e+01
<MIXTURE> 28 5.036674e-03
<MEAN> 25
 -5.385555e+00 2.805948e-01 -1.438696e+00 6.501034e+00 5.195868e+00 3.803484e+00 5.716846e+00 2.862451e+00 4.118831e+00 2.455665e+00 2.157243e+00 3.239727e+00 -1.230946e-01 2.518310e-01 5.512471e-01 7.980996e-01 8.305866e-01 6.906212e-01 4.821977e-01 3.946323e-01 4.473430e-01 4.604650e-01 3.194069e-01 1.818507e-01 -9.007222e-05
<VARIANCE> 25
 1.007222e+01 9.569014e+00 1.205314e+01 1.450594e+01 1.412870e+01 1.877705e+01 1.914323e+01 1.992351e+01 1.727566e+01 1.612309e+01 2.445880e+01 1.456823e+01 2.471548e-01 3.426162e-01 4.090832e-01 4.542090e-01 6.041880e-01 8.223518e-01 1.051276e+00 1.114965e+00 1.061459e+00 1.003836e+00 1.062171e+00 1.024513e+00 1.133383e-06
<GCONST> 6.047435e+01
<MIXTURE> 29 5.036674e-03
<MEAN> 25
 -5.385555e+00 2.805948e-01 -1.438696e+00 6.501034e+00 5.195868e+00 3.803484e+00 5.716846e+00 2.862451e+00 4.118831e+00 2.455665e+00 2.157243e+00 3.239727e+00 -1.230946e-01 2.518310e-01 5.512471e-01 7.980996e-01 8.305866e-01 6.906212e-01 4.821977e-01 3.946323e-01 4.473430e-01 4.604650e-01 3.194069e-01 1.818507e-01 -9.007222e-05
<VARIANCE> 25
 1.007222e+01 9.569014e+00 1.205314e+01 1.450594e+01 1.412870e+01 1.877705e+01 1.914323e+01 1.992351e+01 1.727566e+01 1.612309e+01 2.445880e+01 1.456823e+01 2.471548e-01 3.426162e-01 4.090832e-01 4.542090e-01 6.041880e-01 8.223518e-01 1.051276e+00 1.114965e+00 1.061459e+00 1.003836e+00 1.062171e+00 1.024513e+00 1.133383e-06
<GCONST> 6.047435e+01
<MIXTURE> 30 8.917812e-03
<MEAN> 25
 -4.630844e+00 3.638348e-01 7.484761e-01 8.506983e+00 7.306436e+00 7.667219e+00 7.818230e+00 6.749062e+00 6.668399e+00 4.263326e+00 5.084835e+00 3.420735e+00 -3.125518e-02 5.222413e-02 4.746744e-02 5.332050e-02 1.597118e-02 -3.652263e-02 -1.217876e-02 6.045225e-02 4.669829e-02 6.830209e-02 6.054921e-02 -1.362597e-03 -1.184425e-03
<VARIANCE> 25
 6.280589e+00 1.102438e+01 9.649454e+00 1.457854e+01 1.609189e+01 1.624309e+01 1.798924e+01 1.746663e+01 1.631736e+01 2.014600e+01 4.460923e+01 1.296835e+01 8.829676e-02 2.175012e-01 2.937927e-01 4.752115e-01 6.626831e-01 7.942271e-01 7.596074e-01 7.926903e-01 8.777318e-01 9.273496e-01 8.557358e-01 8.352532e-01 5.024676e-05
<GCONST> 6.109186e+01
<MIXTURE> 31 4.136493e-03
<MEAN> 25
 -3.307310e+00 -5.684791e+00 5.974875e-02 4.882151e+00 3.688760e+00 1.693033e+00 5.250464e+00 6.650135e+00 2.734458e+00 1.232406e+00 6.522682e+00 3.158099e+00 2.530571e-01 4.759965e-01 -2.108323e-01 3.087022e-01 1.200793e-01 4.234823e-01 1.914556e-01 1.494370e-02 3.796497e-01 3.825499e-01 1.061785e-01 1.154843e-01 -1.840104e-02
<VARIANCE> 25
 7.153246e+00 1.536936e+01 1.747519e+01 1.797783e+01 2.529944e+01 2.387174e+01 2.362421e+01 2.534159e+01 2.591723e+01 2.803229e+01 2.046492e+01 1.870338e+01 1.907403e-01 4.937990e-01 6.036997e-01 7.670493e-01 9.659989e-01 1.091824e+00 1.220991e+00 1.391927e+00 1.344582e+00 1.314628e+00 1.245222e+00 1.133095e+00 2.565327e-04
<GCONST> 7.182757e+01
<MIXTURE> 32 4.136493e-03
<MEAN> 25
 -3.307310e+00 -5.684791e+00 5.974875e-02 4.882151e+00 3.688760e+00 1.693033e+00 5.250464e+00 6.650135e+00 2.734458e+00 1.232406e+00 6.522682e+00 3.158099e+00 2.530571e-01 4.759965e-01 -2.108323e-01 3.087022e-01 1.200793e-01 4.234823e-01 1.914556e-01 1.494370e-02 3.796497e-01 3.825499e-01 1.061785e-01 1.154843e-01 -1.840104e-02
<VARIANCE> 25
 7.153246e+00 1.536936e+01 1.747519e+01 1.797783e+01 2.529944e+01 2.387174e+01 2.362421e+01 2.534159e+01 2.591723e+01 2.803229e+01 2.046492e+01 1.870338e+01 1.907403e-01 4.937990e-01 6.036997e-01 7.670493e-01 9.659989e-01 1.091824e+00 1.220991e+00 1.391927e+00 1.344582e+00 1.314628e+00 1.245222e+00 1.133095e+00 2.565327e-04
<GCONST> 7.182757e+01
<MIXTURE> 33 1.508826e-02
<MEAN> 25
 5.707757e+00 -4.595331e+00 -1.899993e+00 -2.495036e+00 -1.693583e+00 -6.098268e+00 -7.513982e+00 2.158644e+00 2.085734e+00 7.369015e-01 -3.531844e+00 -3.517641e+00 8.351067e-01 -9.388476e-01 -2.571961e+00 -1.995807e+00 1.497811e+00 1.556937e+00 -6.358848e-01 4.582792e-01 8.724825e-01 1.009955e+00 -2.989510e-01 -1.666454e+00 3.132328e-02
<VARIANCE> 25
 1.127734e+01 1.846679e+01 3.330803e+01 3.519143e+01 3.418736e+01 4.245957e+01 3.920617e+01 4.096804e+01 3.603871e+01 4.172151e+01 4.044019e+01 2.576176e+01 1.061684e+00 1.817285e+00 2.980203e+00 2.013640e+00 3.475973e+00 3.323455e+00 3.748957e+00 5.344491e+00 3.365546e+00 4.392286e+00 3.437637e+00 2.965304e+00 1.377128e-03
<GCONST> 9.359966e+01
<MIXTURE> 34 1.588179e-02
<MEAN> 25
 8.759226e+00 -5.940827e-01 -1.234669e-01 1.156699e+00 -3.300430e+00 -1.532501e+00 -5.907264e+00 -5.030676e+00 -2.033633e+00 3.682853e-01 -2.074650e+00 -3.345489e+00 -4.959091e-02 1.297095e+00 1.277916e+00 2.379093e+00 1.091039e-01 -2.356245e-01 6.949265e-01 -1.507598e+00 -7.754076e-01 1.736206e-01 -6.523018e-01 3.496549e-01 -6.027348e-02
<VARIANCE> 25
 7.877403e+00 3.411155e+01 3.397995e+01 4.807138e+01 4.268798e+01 4.816446e+01 5.839066e+01 5.643241e+01 5.087148e+01 4.119423e+01 4.956131e+01 3.116308e+01 1.199270e+00 1.907067e+00 4.493812e+00 3.823761e+00 6.109916e+00 5.602463e+00 5.711379e+00 6.037941e+00 4.992447e+00 4.702590e+00 4.819376e+00 3.725470e+00 1.168756e-03
<GCONST> 9.969473e+01
<MIXTURE> 35 1.467755e-02
<MEAN> 25
 -2.315459e+00 -5.319969e+00 -9.828466e+00 3.427188e-01 9.011650e+00 4.302047e-01 1.762001e+00 2.632325e+00 1.818215e+00 4.329780e+00 8.331952e-02 2.084254e+00 6.414571e-01 -1.132452e+00 -1.410155e+00 -1.438216e+00 3.551113e-01 -7.797046e-01 -7.233772e-01 -7.780445e-02 -1.351287e-01 2.660343e-01 -5.669811e-01 -6.234747e-01 1.084688e-01
<VARIANCE> 25
 1.960074e+01 2.866517e+01 4.139245e+01 5.908099e+01 4.640784e+01 5.589389e+01 4.826526e+01 4.170124e+01 4.980472e+01 3.721613e+01 3.682245e+01 3.177559e+01 3.384505e+00 3.417207e+00 6.377946e+00 5.285108e+00 4.944650e+00 5.345210e+00 4.757953e+00 4.509885e+00 4.776876e+00 4.404553e+00 4.560499e+00 3.902236e+00 5.092801e-03
<GCONST> 1.030899e+02
<MIXTURE> 36 1.093293e-02
<MEAN> 25
 4.716684e+00 -3.528229e+00 7.305092e+00 2.700560e+00 -9.633927e+00 -8.754001e+00 -6.352166e+00 2.926461e+00 -2.032108e+00 -4.510681e+00 2.881412e+00 -1.895412e-01 3.206719e-01 2.365175e-01 -9.198651e-01 2.494256e-02 9.065303e-01 3.698091e-02 -3.828242e-01 -3.557034e-02 4.216998e-01 6.134649e-01 -4.970526e-01 -2.730862e-01 -1.740661e-02
<VARIANCE> 25
 1.043181e+01 1.769526e+01 2.215494e+01 2.852701e+01 3.192728e+01 3.002533e+01 4.575543e+01 3.294162e+01 3.908913e+01 3.113567e+01 2.988327e+01 2.542094e+01 4.867666e-01 8.289578e-01 1.648659e+00 1.329297e+00 1.714193e+00 1.543539e+00 2.140847e+00 1.681540e+00 1.997207e+00 1.821501e+00 1.569933e+00 1.424618e+00 7.273304e-04
<GCONST> 8.253583e+01
<MIXTURE> 37 1.246826e-02
<MEAN> 25
 -1.877658e-01 7.115286e+00 1.235030e+01 -6.156615e+00 -6.442421e+00 -8.270265e-01 -6.058997e+00 -5.926962e+00 -4.516937e+00 -8.013222e-01 -1.207785e+00 -1.860595e+00 -1.860638e-03 2.513819e-01 -1.725750e+00 3.545287e+00 1.845909e+00 -2.419192e-01 1.491125e+00 1.705108e-01 5.833277e-01 -2.402156e-01 -5.547181e-03 1.678103e-01 -9.080093e-02
<VARIANCE> 25
 1.560062e+01 2.307739e+01 2.788562e+01 4.577409e+01 3.737302e+01 2.833090e+01 4.070295e+01 5.153806e+01 3.537701e+01 2.976952e+01 5.586243e+01 2.686658e+01 2.664390e+00 3.500563e+00 3.142112e+00 3.395603e+00 3.898468e+00 3.100271e+00 4.204039e+00 3.431650e+00 3.097188e+00 3.173236e+00 4.455217e+00 2.636347e+00 3.356030e-03
<GCONST> 9.668491e+01
<MIXTURE> 38 1.154525e-02
<MEAN> 25
 -4.276224e+00 9.106424e+00 4.672539e+00 2.579982e+00 1.103996e+00 -5.173993e+00 -1.037437e+00 -2.025001e+00 -2.085793e+00 -3.324309e+00 -1.502568e+00 1.032290e-01 -4.231204e+00 1.247424e+00 -7.296878e-01 1.510178e+00 2.529942e+00 1.339823e+00 2.066115e+00 3.392656e-01 1.249699e+00 7.499714e-01 6.373472e-01 1.338675e-01 4.205032e-02
<VARIANCE> 25
 2.755054e+01 2.601810e+01 3.439740e+01 3.120386e+01 4.285501e+01 3.146207e+01 3.297751e+01 3.935073e+01 3.379744e+01 2.923022e+01 2.135022e+01 2.737684e+01 2.530246e+00 3.509296e+00 4.506423e+00 4.612089e+00 3.705993e+00 4.381668e+00 4.366411e+00 6.266435e+00 5.134097e+00 4.370099e+00 4.741735e+00 3.048881e+00 2.033293e-03
<GCONST> 9.803978e+01
<MIXTURE> 39 9.501865e-03
<MEAN> 25
 1.463339e+00 2.510261e+00 9.329960e+00 -8.553831e+00 -1.019016e+01 -9.940950e-01 -3.380101e+00 -6.072019e+00 -4.672941e+00 8.845783e-01 -2.830610e+00 -1.865681e+00 -7.105770e-01 1.473800e+00 1.641387e+00 -1.594871e+00 1.920186e-01 1.322583e+00 -1.268801e+00 -1.018517e+00 4.004856e-01 4.040823e-01 -4.588000e-01 5.416597e-02 1.083571e-03
<VARIANCE> 25
 9.541206e+00 3.042029e+01 3.877154e+01 3.934187e+01 4.707613e+01 4.022426e+01 5.106300e+01 3.701059e+01 3.599306e+01 3.059664e+01 3.887306e+01 2.810194e+01 6.333535e-01 1.442424e+00 1.379769e+00 3.105063e+00 2.297174e+00 2.636724e+00 2.894203e+00 2.927111e+00 2.248147e+00 2.421626e+00 2.009977e+00 1.907362e+00 1.107121e-03
<GCONST> 8.957337e+01
<MIXTURE> 40 1.030800e-02
<MEAN> 25
 -9.219069e+00 2.284047e+00 -1.133543e+00 8.037128e+00 3.778911e+00 5.457988e+00 5.408096e+00 4.068359e+00 4.559358e+00 4.159735e+00 5.345232e+00 1.723673e+00 -1.000050e-01 -2.048831e-01 -4.077977e-02 -2.151789e-01 -1.051520e-01 -1.481035e-01 4.495160e-02 7.741327e-02 -2.836842e-02 2.811809e-02 1.231725e-01 5.873745e-02 3.486788e-03
<VARIANCE> 25
 4.116103e+01 2.043481e+01 2.877175e+01 2.741692e+01 2.569010e+01 1.864597e+01 1.914749e+01 1.920153e+01 1.719751e+01 1.815257e+01 2.180334e+01 1.409746e+01 7.316509e-01 7.590721e-01 8.468714e-01 1.070488e+00 1.106526e+00 1.240942e+00 1.347188e+00 1.265711e+00 1.240684e+00 1.189917e+00 1.217427e+00 1.088382e+00 8.453687e-04
<GCONST> 7.666253e+01
<MIXTURE> 41 6.713375e-03
<MEAN> 25
 1.275915e+00 1.801300e+00 1.047408e+01 -6.955767e+00 -1.040163e+01 -3.831973e+00 -2.508902e+00 -4.959526e+00 -4.689808e+00 2.632193e+00 -1.710946e+00 -9.529909e-01 7.955668e-02 -7.533554e-01 1.705516e+00 -3.549779e+00 -2.456177e+00 -1.157093e-01 -5.106777e-01 -3.429734e-01 -8.286324e-01 1.072845e+00 -1.025688e+00 8.190301e-02 8.610540e-02
<VARIANCE> 25
 1.188842e+01 2.960213e+01 3.258437e+01 4.001913e+01 3.930238e+01 4.011538e+01 3.714904e+01 3.100326e+01 3.318294e+01 2.884654e+01 3.186613e+01 2.705556e+01 3.162126e+00 3.317002e+00 3.818342e+00 3.794727e+00 4.895088e+00 5.857134e+00 4.698877e+00 4.580016e+00 3.955554e+00 4.244791e+00 3.881202e+00 3.203993e+00 2.922861e-03
<GCONST> 9.797388e+01
<MIXTURE> 42 1.106211e-02
<MEAN> 25
 -1.936177e+00 4.552641e+00 4.686667e+00 2.798340e+00 2.066317e-01 -6.130825e+00 -1.009277e+00 -1.614436e+00 -1.640466e+00 -1.361209e+00 -2.207663e+00 1.258253e+00 4.065162e+00 -3.647284e-01 1.519754e+00 1.859473e-01 -2.896820e+00 -1.124989e+00 -2.195469e+00 -7.672102e-01 -7.655821e-01 -7.592735e-01 5.614464e-01 -1.027363e+00 1.098449e-02
<VARIANCE> 25
 3.522429e+01 2.061027e+01 4.634153e+01 2.678802e+01 3.829755e+01 3.888774e+01 3.641227e+01 2.935602e+01 2.925556e+01 2.773254e+01 2.096430e+01 1.754313e+01 3.800542e+00 4.828985e+00 6.069458e+00 4.791372e+00 4.643213e+00 5.857259e+00 5.073256e+00 5.309043e+00 4.897027e+00 4.786745e+00 4.352386e+00 3.352473e+00 4.479656e-03
<GCONST> 9.984814e+01
<MIXTURE> 43 7.108249e-03
<MEAN> 25
 3.187187e+00 -6.292086e+00 -2.290746e+00 -5.194381e+00 -7.400809e+00 -3.357825e+00 4.148540e+00 1.230243e+00 -5.076719e+00 -7.008580e+00 -4.258807e+00 -1.216863e+00 2.287557e-01 2.158481e+00 1.912452e+00 -1.520826e-01 -1.410030e+00 -7.704211e-01 -9.656386e-01 -7.713985e-01 8.167876e-01 1.449104e+00 3.328570e-01 1.786107e-02 -4.496287e-02
<VARIANCE> 25
 9.709977e+00 1.967740e+01 2.735656e+01 3.509668e+01 3.818500e+01 3.684937e+01 3.311238e+01 4.083392e+01 3.944339e+01 3.916670e+01 2.696485e+01 2.942129e+01 6.937342e-01 1.245822e+00 1.560539e+00 2.569449e+00 2.401681e+00 2.433805e+00 2.642004e+00 3.029491e+00 2.595768e+00 2.598949e+00 2.324507e+00 1.915030e+00 9.398671e-04
<GCONST> 8.806512e+01
<MIXTURE> 44 7.328289e-03
<MEAN> 25
 -1.430665e+01 2.131964e+00 4.098274e+00 -3.252553e+00 3.363331e+00 1.848249e+00 -5.004077e-01 2.791801e+00 8.914023e-01 -1.011858e+00 2.010478e+00 2.042002e+00 -1.853468e-01 2.789148e-02 1.615645e-01 1.838242e-01 -9.720176e-02 2.019661e-01 4.166409e-01 1.549536e-01 3.081293e-01 3.327158e-02 -3.976337e-02 6.045756e-02 3.653346e-03
<VARIANCE> 25
 4.786082e+01 2.829415e+01 3.587766e+01 2.802081e+01 2.700064e+01 2.912501e+01 2.675557e+01 3.302434e+01 3.025237e+01 2.583111e+01 2.772339e+01 1.857936e+01 1.199050e+00 1.558946e+00 1.467090e+00 1.546003e+00 2.094574e+00 1.577389e+00 1.510727e+00 1.629839e+00 1.620013e+00 1.550804e+00 1.894407e+00 1.159677e+00 1.311865e-03
<GCONST> 8.504050e+01
<MIXTURE> 45 1.364932e-02
<MEAN> 25
 -1.240884e+01 3.464875e+00 -1.259346e+00 2.876969e+00 5.732078e+00 9.090052e-02 4.745501e+00 2.785194e+00 3.366451e+00 2.164351e+00 2.340713e+00 2.596145e+00 -2.905351e+00 5.645187e-01 -5.051275e-01 -5.176493e-01 1.942581e-01 -2.470102e-02 4.727493e-01 5.868940e-02 -6.022535e-02 -6.061061e-02 2.567829e-01 9.493603e-02 1.177046e-01
<VARIANCE> 25
 3.342683e+01 3.080235e+01 3.060681e+01 3.474327e+01 3.123245e+01 2.893525e+01 2.942079e+01 2.735183e+01 2.499124e+01 2.311046e+01 2.803086e+01 1.550115e+01 2.486084e+00 3.098437e+00 2.856463e+00 2.686333e+00 2.482413e+00 2.641682e+00 2.341910e+00 2.268129e+00 2.128927e+00 2.097975e+00 1.988690e+00 1.636283e+00 4.216192e-03
<GCONST> 9.062070e+01
<MIXTURE> 46 9.336259e-03
<MEAN> 25
 -9.491434e+00 2.812876e+00 7.137120e-01 7.448648e+00 6.182477e+00 3.085949e+00 7.160212e+00 3.744851e+00 6.134783e+00 4.450895e+00 4.842053e+00 2.770442e+00 1.032590e+00 -3.593222e-01 -2.733545e-02 1.037733e+00 5.915967e-01 1.015047e+00 5.500424e-01 6.895666e-01 4.662960e-01 5.761015e-01 5.059598e-01 5.088973e-01 -1.025067e-01
<VARIANCE> 25
 3.205173e+01 4.403794e+01 3.886826e+01 4.663812e+01 4.803564e+01 3.877131e+01 3.490903e+01 4.003919e+01 3.329245e+01 2.947798e+01 2.692321e+01 1.913139e+01 3.670591e+00 4.027217e+00 3.707627e+00 3.871444e+00 3.890273e+00 3.523882e+00 3.495072e+00 2.985249e+00 2.774390e+00 2.738763e+00 2.383880e+00 1.671323e+00 7.529039e-03
<GCONST> 9.744928e+01
<MIXTURE> 47 7.116147e-03
<MEAN> 25
 6.851375e+00 -7.242212e+00 -8.045700e+00 -6.373185e+00 1.386315e+00 9.803798e-01 -1.865655e+00 1.359386e+00 3.037334e+00 8.354325e-01 -3.633210e+00 -7.005701e+00 -1.063174e-01 -1.195473e+00 -7.877449e-01 -5.331107e-01 5.667484e-01 8.451355e-01 9.033008e-01 2.023159e-01 5.991685e-02 -8.068730e-01 -2.262531e-01 -5.598689e-01 2.995934e-02
<VARIANCE> 25
 1.270730e+01 1.926490e+01 1.962921e+01 3.232317e+01 3.304843e+01 5.001759e+01 4.692647e+01 4.140740e+01 4.081724e+01 4.679282e+01 5.186847e+01 3.365551e+01 5.268377e-01 7.962662e-01 1.168434e+00 1.698745e+00 1.972464e+00 2.082600e+00 2.329400e+00 2.757863e+00 2.139126e+00 2.085137e+00 2.623822e+00 2.091963e+00 5.531191e-04
<GCONST> 8.669016e+01
<MIXTURE> 48 7.116147e-03
<MEAN> 25
 6.851375e+00 -7.242212e+00 -8.045700e+00 -6.373185e+00 1.386315e+00 9.803798e-01 -1.865655e+00 1.359386e+00 3.037334e+00 8.354325e-01 -3.633210e+00 -7.005701e+00 -1.063174e-01 -1.195473e+00 -7.877449e-01 -5.331107e-01 5.667484e-01 8.451355e-01 9.033008e-01 2.023159e-01 5.991685e-02 -8.068730e-01 -2.262531e-01 -5.598689e-01 2.995934e-02
<VARIANCE> 25
 1.270730e+01 1.926490e+01 1.962921e+01 3.232317e+01 3.304843e+01 5.001759e+01 4.692647e+01 4.140740e+01 4.081724e+01 4.679282e+01 5.186847e+01 3.365551e+01 5.268377e-01 7.962662e-01 1.168434e+00 1.698745e+00 1.972464e+00 2.082600e+00 2.329400e+00 2.757863e+00 2.139126e+00 2.085137e+00 2.623822e+00 2.091963e+00 5.531191e-04
<GCONST> 8.669016e+01
<MIXTURE> 49 5.548473e-03
<MEAN> 25
 -5.078839e+00 5.324866e-01 2.018605e-01 8.269477e+00 6.031228e+00 5.564136e+00 6.110386e+00 4.294264e+00 5.144963e+00 3.504145e+00 4.316815e+00 2.853357e+00 3.432840e-01 6.388656e-01 6.905693e-01 3.359510e-01 -1.840955e-01 -6.486730e-01 -9.574777e-01 -1.102594e+00 -9.993761e-01 -6.926812e-01 -4.264752e-01 -2.519574e-01 -5.224083e-05
<VARIANCE> 25
 9.159091e+00 1.062083e+01 1.444696e+01 1.577472e+01 1.553537e+01 1.673292e+01 1.876536e+01 1.952466e+01 1.812368e+01 1.840556e+01 2.636101e+01 1.399477e+01 2.756571e-01 2.660169e-01 3.679758e-01 5.960451e-01 8.483866e-01 9.476647e-01 1.005523e+00 1.095967e+00 1.135625e+00 1.225614e+00 1.304687e+00 1.192996e+00 1.562142e-05
<GCONST> 6.459320e+01
<MIXTURE> 50 6.234641e-03
<MEAN> 25
 -4.682186e+00 2.752352e-01 -1.436445e+00 5.951195e+00 4.328357e+00 2.612586e+00 3.996258e+00 1.981926e+00 3.216110e+00 1.274874e+00 1.250965e+00 2.356757e+00 5.390978e-02 1.654166e-01 7.739721e-02 -1.272660e-01 -4.876794e-01 -6.540040e-01 -4.661239e-01 -1.232378e-02 4.942857e-01 8.069045e-01 7.500799e-01 4.518814e-01 7.804577e-05
<VARIANCE> 25
 9.699052e+00 1.072698e+01 1.342387e+01 1.495149e+01 1.436451e+01 1.834661e+01 1.868964e+01 1.811722e+01 2.073714e+01 1.714907e+01 2.854044e+01 1.662034e+01 1.341625e-01 2.376691e-01 3.524148e-01 5.233132e-01 5.701510e-01 6.958794e-01 8.991103e-01 1.102393e+00 1.028557e+00 8.617355e-01 8.565341e-01 9.362561e-01 1.051875e-06
<GCONST> 5.915271e+01
<MIXTURE> 51 6.234641e-03
<MEAN> 25
 -4.682186e+00 2.752352e-01 -1.436445e+00 5.951195e+00 4.328357e+00 2.612586e+00 3.996258e+00 1.981926e+00 3.216110e+00 1.274874e+00 1.250965e+00 2.356757e+00 5.390978e-02 1.654166e-01 7.739721e-02 -1.272660e-01 -4.876794e-01 -6.540040e-01 -4.661239e-01 -1.232378e-02 4.942857e-01 8.069045e-01 7.500799e-01 4.518814e-01 7.804577e-05
<VARIANCE> 25
 9.699052e+00 1.072698e+01 1.342387e+01 1.495149e+01 1.436451e+01 1.834661e+01 1.868964e+01 1.811722e+01 2.073714e+01 1.714907e+01 2.854044e+01 1.662034e+01 1.341625e-01 2.376691e-01 3.524148e-01 5.233132e-01 5.701510e-01 6.958794e-01 8.991103e-01 1.102393e+00 1.028557e+00 8.617355e-01 8.565341e-01 9.362561e-01 1.051875e-06
<GCONST> 5.915271e+01
<MIXTURE> 52 6.367945e-03
<MEAN> 25
 9.773196e+00 1.388108e+00 -6.116004e+00 -1.347021e+01 -4.691116e+00 8.290507e+00 -2.134316e+00 -4.162485e+00 -4.552494e+00 -1.606921e+00 3.682369e+00 7.509784e-01 -3.191962e-01 -4.224825e-01 -1.675155e-01 1.296365e+00 1.148825e+00 -5.473844e-01 -4.724006e-01 -7.238689e-01 1.310574e-01 1.100592e+00 2.482045e-01 -3.537087e-01 -1.376695e-02
<VARIANCE> 25
 9.177910e+00 2.218682e+01 2.292756e+01 4.083324e+01 4.772936e+01 2.806389e+01 4.466567e+01 5.233010e+01 3.860297e+01 4.264379e+01 3.633006e+01 2.701323e+01 4.565349e-01 1.527440e+00 1.533076e+00 3.018953e+00 2.696499e+00 2.186977e+00 3.169952e+00 2.869746e+00 2.764797e+00 2.557601e+00 2.539863e+00 2.319282e+00 1.516034e-03
<GCONST> 8.974889e+01
<MIXTURE> 53 6.367945e-03
<MEAN> 25
 9.773196e+00 1.388108e+00 -6.116004e+00 -1.347021e+01 -4.691116e+00 8.290507e+00 -2.134316e+00 -4.162485e+00 -4.552494e+00 -1.606921e+00 3.682369e+00 7.509784e-01 -3.191962e-01 -4.224825e-01 -1.675155e-01 1.296365e+00 1.148825e+00 -5.473844e-01 -4.724006e-01 -7.238689e-01 1.310574e-01 1.100592e+00 2.482045e-01 -3.537087e-01 -1.376695e-02
<VARIANCE> 25
 9.177910e+00 2.218682e+01 2.292756e+01 4.083324e+01 4.772936e+01 2.806389e+01 4.466567e+01 5.233010e+01 3.860297e+01 4.264379e+01 3.633006e+01 2.701323e+01 4.565349e-01 1.527440e+00 1.533076e+00 3.018953e+00 2.696499e+00 2.186977e+00 3.169952e+00 2.869746e+00 2.764797e+00 2.557601e+00 2.539863e+00 2.319282e+00 1.516034e-03
<GCONST> 8.974889e+01
<MIXTURE> 54 7.368620e-03
<MEAN> 25
 -3.642166e+00 6.977473e-02 -6.777576e-01 8.004441e+00 6.469785e+00 4.659758e+00 4.692014e+00 4.572557e+00 4.070825e+00 3.566760e+00 4.386353e+00 2.334948e+00 -2.327052e-03 2.561229e-02 3.213150e-02 4.749135e-02 4.811784e-02 5.638683e-02 4.231089e-02 3.029400e-02 3.096847e-02 2.365126e-02 1.307663e-02 1.733051e-03 -2.777031e-05
<VARIANCE> 25
 9.079919e+00 1.035380e+01 9.236444e+00 1.819522e+01 1.326342e+01 1.364052e+01 1.193076e+01 1.131694e+01 1.132327e+01 1.356866e+01 1.838893e+01 1.251223e+01 4.081685e-02 8.697499e-02 1.537717e-01 2.253797e-01 3.084965e-01 4.146728e-01 4.619143e-01 5.196332e-01 5.397480e-01 5.203847e-01 5.117677e-01 5.128675e-01 1.038299e-06
<GCONST> 4.731946e+01
<MIXTURE> 55 7.368620e-03
<MEAN> 25
 -3.642166e+00 6.977473e-02 -6.777576e-01 8.004441e+00 6.469785e+00 4.659758e+00 4.692014e+00 4.572557e+00 4.070825e+00 3.566760e+00 4.386353e+00 2.334948e+00 -2.327052e-03 2.561229e-02 3.213150e-02 4.749135e-02 4.811784e-02 5.638683e-02 4.231089e-02 3.029400e-02 3.096847e-02 2.365126e-02 1.307663e-02 1.733051e-03 -2.777031e-05
<VARIANCE> 25
 9.079919e+00 1.035380e+01 9.236444e+00 1.819522e+01 1.326342e+01 1.364052e+01 1.193076e+01 1.131694e+01 1.132327e+01 1.356866e+01 1.838893e+01 1.251223e+01 4.081685e-02 8.697499e-02 1.537717e-01 2.253797e-01 3.084965e-01 4.146728e-01 4.619143e-01 5.196332e-01 5.397480e-01 5.203847e-01 5.117677e-01 5.128675e-01 1.038299e-06
<GCONST> 4.731946e+01
<MIXTURE> 56 6.132464e-03
<MEAN> 25
 7.521567e+00 -6.664524e+00 -9.231450e+00 -8.469160e+00 3.973567e+00 3.857661e+00 -2.301392e+00 -1.697740e+00 1.868086e+00 6.245893e-01 -2.415971e+00 -6.865406e+00 -5.349187e-03 3.470225e-02 -9.147543e-02 3.535821e-02 2.538147e-01 4.736299e-02 1.324484e-01 -1.170884e-01 -3.703001e-02 -4.175319e-02 -8.677782e-02 3.346267e-02 -7.052124e-03
<VARIANCE> 25
 9.164866e+00 2.325185e+01 1.991151e+01 4.213231e+01 3.240915e+01 5.021949e+01 6.142368e+01 3.794139e+01 3.839913e+01 3.687767e+01 3.982109e+01 3.409306e+01 2.035603e-01 4.275607e-01 4.524136e-01 7.708685e-01 7.805375e-01 1.104591e+00 9.109227e-01 9.072537e-01 8.946065e-01 9.075561e-01 1.014900e+00 7.824972e-01 2.397606e-04
<GCONST> 7.505011e+01
<MIXTURE> 57 6.132464e-03
<MEAN> 25
 7.521567e+00 -6.664524e+00 -9.231450e+00 -8.469160e+00 3.973567e+00 3.857661e+00 -2.301392e+00 -1.697740e+00 1.868086e+00 6.245893e-01 -2.415971e+00 -6.865406e+00 -5.349187e-03 3.470225e-02 -9.147543e-02 3.535821e-02 2.538147e-01 4.736299e-02 1.324484e-01 -1.170884e-01 -3.703001e-02 -4.175319e-02 -8.677782e-02 3.346267e-02 -7.052124e-03
<VARIANCE> 25
 9.164866e+00 2.325185e+01 1.991151e+01 4.213231e+01 3.240915e+01 5.021949e+01 6.142368e+01 3.794139e+01 3.839913e+01 3.687767e+01 3.982109e+01 3.409306e+01 2.035603e-01 4.275607e-01 4.524136e-01 7.708685e-01 7.805375e-01 1.104591e+00 9.109227e-01 9.072537e-01 8.946065e-01 9.075561e-01 1.014900e+00 7.824972e-01 2.397606e-04
<GCONST> 7.505011e+01
<MIXTURE> 58 6.172147e-03
<MEAN> 25
 2.581421e+00 -3.108938e+00 7.387006e+00 -5.260479e+00 -1.346509e+01 -5.621033e+00 1.643896e+00 8.422824e-01 -2.416919e+00 1.830697e+00 5.471174e-01 -8.378845e-01 -3.067041e-02 -1.353932e-01 -7.086800e-02 -1.632058e-01 -1.998690e-02 2.353434e-01 3.781247e-01 2.231679e-01 1.623058e-02 1.545368e-02 -7.672849e-02 -1.405979e-01 -2.899740e-03
<VARIANCE> 25
 7.381046e+00 1.508732e+01 2.031432e+01 2.735626e+01 2.324090e+01 4.637580e+01 3.293244e+01 3.468691e+01 3.239230e+01 3.135647e+01 2.286221e+01 2.017510e+01 3.081430e-01 8.070725e-01 7.510816e-01 1.018757e+00 8.873386e-01 1.211219e+00 1.151751e+00 1.294294e+00 1.073882e+00 1.063403e+00 9.134303e-01 8.769069e-01 7.239783e-04
<GCONST> 7.555302e+01
<MIXTURE> 59 6.172147e-03
<MEAN> 25
 2.581421e+00 -3.108938e+00 7.387006e+00 -5.260479e+00 -1.346509e+01 -5.621033e+00 1.643896e+00 8.422824e-01 -2.416919e+00 1.830697e+00 5.471174e-01 -8.378845e-01 -3.067041e-02 -1.353932e-01 -7.086800e-02 -1.632058e-01 -1.998690e-02 2.353434e-01 3.781247e-01 2.231679e-01 1.623058e-02 1.545368e-02 -7.672849e-02 -1.405979e-01 -2.899740e-03
<VARIANCE> 25
 7.381046e+00 1.508732e+01 2.031432e+01 2.735626e+01 2.324090e+01 4.637580e+01 3.293244e+01 3.468691e+01 3.239230e+01 3.135647e+01 2.286221e+01 2.017510e+01 3.081430e-01 8.070725e-01 7.510816e-01 1.018757e+00 8.873386e-01 1.211219e+00 1.151751e+00 1.294294e+00 1.073882e+00 1.063403e+00 9.134303e-01 8.769069e-01 7.239783e-04
<GCONST> 7.555302e+01
<MIXTURE> 60 4.479129e-03
<MEAN> 25
 -4.311873e+00 -3.859791e-01 -1.054216e+00 3.661424e+00 1.852175e+00 2.329253e+00 1.937760e+00 1.519880e+00 2.303700e+00 1.239085e+00 1.882700e+00 1.841892e+00 -3.307477e-02 5.611695e-02 9.043162e-02 1.411475e-01 1.314827e-01 1.125107e-01 1.544347e-01 2.940380e-01 5.074160e-01 6.624303e-01 5.600788e-01 2.804058e-01 -6.020738e-04
<VARIANCE> 25
 6.625936e+00 5.652121e+00 1.005327e+01 1.080750e+01 1.309065e+01 1.723832e+01 1.469928e+01 1.185661e+01 1.288549e+01 1.288242e+01 1.955392e+01 1.205202e+01 8.599579e-02 1.727712e-01 2.803875e-01 4.307656e-01 5.735157e-01 7.174686e-01 8.484355e-01 9.053873e-01 9.104598e-01 8.265606e-01 8.120092e-01 8.663083e-01 2.467320e-05
<GCONST> 5.669155e+01
<MIXTURE> 61 4.479129e-03
<MEAN> 25
 -4.311873e+00 -3.859791e-01 -1.054216e+00 3.661424e+00 1.852175e+00 2.329253e+00 1.937760e+00 1.519880e+00 2.303700e+00 1.239085e+00 1.882700e+00 1.841892e+00 -3.307477e-02 5.611695e-02 9.043162e-02 1.411475e-01 1.314827e-01 1.125107e-01 1.544347e-01 2.940380e-01 5.074160e-01 6.624303e-01 5.600788e-01 2.804058e-01 -6.020738e-04
<VARIANCE> 25
 6.625936e+00 5.652121e+00 1.005327e+01 1.080750e+01 1.309065e+01 1.723832e+01 1.469928e+01 1.185661e+01 1.288549e+01 1.288242e+01 1.955392e+01 1.205202e+01 8.599579e-02 1.727712e-01 2.803875e-01 4.307656e-01 5.735157e-01 7.174686e-01 8.484355e-01 9.053873e-01 9.104598e-01 8.265606e-01 8.120092e-01 8.663083e-01 2.467320e-05
<GCONST> 5.669155e+01
<MIXTURE> 62 3.278034e-03
<MEAN> 25
 -5.083792e+00 1.260699e+00 1.020985e+00 8.802129e+00 6.127442e+00 5.035775e+00 5.500349e+00 4.005860e+00 4.963007e+00 3.899840e+00 4.904541e+00 2.946110e+00 -1.001349e+00 -1.165121e+00 -9.578742e-01 -2.739628e-01 4.337201e-01 1.005120e+00 1.384259e+00 1.546584e+00 1.474083e+00 1.245178e+00 1.054744e+00 7.199270e-01 -1.289998e-03
<VARIANCE> 25
 9.831710e+00 9.978440e+00 1.305455e+01 1.669837e+01 1.732563e+01 1.747754e+01 1.960017e+01 1.916549e+01 1.890287e+01 1.869389e+01 2.217608e+01 1.472636e+01 4.003716e-01 4.302920e-01 5.563225e-01 7.768703e-01 1.038173e+00 1.186257e+00 1.246476e+00 1.278882e+00 1.327369e+00 1.357860e+00 1.422681e+00 1.371891e+00 1.640560e-05
<GCONST> 6.753231e+01
<MIXTURE> 63 4.351215e-03
<MEAN> 25
 -4.087962e+00 -5.111048e-01 -3.885756e+00 2.348021e+00 3.183830e+00 1.132056e+00 3.731692e+00 6.841916e-01 2.454519e+00 -1.257156e+00 -3.113823e+00 2.430056e+00 -1.426520e-01 4.669682e-01 5.935323e-01 5.400828e-01 2.518089e-01 3.065340e-01 4.089242e-01 1.532565e-01 3.561245e-02 1.957231e-01 7.187526e-02 6.834674e-02 -5.351164e-03
<VARIANCE> 25
 6.577129e+00 1.594378e+01 1.486518e+01 1.447626e+01 1.430821e+01 2.447333e+01 2.084621e+01 2.387983e+01 2.144714e+01 1.660755e+01 2.245380e+01 1.504234e+01 2.043933e-01 4.752811e-01 6.486027e-01 7.292413e-01 7.526683e-01 9.971945e-01 1.207138e+00 1.510988e+00 1.307088e+00 1.267356e+00 1.228067e+00 1.123401e+00 1.465745e-04
<GCONST> 6.896992e+01
<MIXTURE> 64 4.351215e-03
<MEAN> 25
 -4.087962e+00 -5.111048e-01 -3.885756e+00 2.348021e+00 3.183830e+00 1.132056e+00 3.731692e+00 6.841916e-01 2.454519e+00 -1.257156e+00 -3.113823e+00 2.430056e+00 -1.426520e-01 4.669682e-01 5.935323e-01 5.400828e-01 2.518089e-01 3.065340e-01 4.089242e-01 1.532565e-01 3.561245e-02 1.957231e-01 7.187526e-02 6.834674e-02 -5.351164e-03
<VARIANCE> 25
 6.577129e+00 1.594378e+01 1.486518e+01 1.447626e+01 1.430821e+01 2.447333e+01 2.084621e+01 2.387983e+01 2.144714e+01 1.660755e+01 2.245380e+01 1.504234e+01 2.043933e-01 4.752811e-01 6.486027e-01 7.292413e-01 7.526683e-01 9.971945e-01 1.207138e+00 1.510988e+00 1.307088e+00 1.267356e+00 1.228067e+00 1.123401e+00 1.465745e-04
<GCONST> 6.896992e+01
<MIXTURE> 65 1.721197e-02
<MEAN> 25
 7.439171e+00 1.776932e+00 1.515976e+00 1.103213e+00 -4.724840e+00 -4.072768e+00 -5.252022e+00 -6.910208e+00 -3.391475e+00 -2.155640e+00 -4.879703e+00 -1.250191e+00 1.650084e-01 6.828062e-02 1.131208e-01 2.560150e-01 -1.957816e-01 1.647192e-01 -1.054149e-01 -1.475835e-01 1.218654e-01 5.706731e-03 -4.371491e-02 -1.255289e-01 -3.914970e-03
<VARIANCE> 25
 1.154449e+01 1.881998e+01 2.747121e+01 3.941576e+01 3.752929e+01 5.367718e+01 5.535724e+01 5.447346e+01 5.203216e+01 5.198451e+01 5.722668e+01 4.703485e+01 5.283569e-01 1.045103e+00 1.617139e+00 2.095133e+00 2.025843e+00 2.214246e+00 2.647240e+00 2.694803e+00 2.320054e+00 2.445304e+00 2.417430e+00 2.012698e+00 4.210488e-04
<GCONST> 8.937303e+01
<MIXTURE> 66 1.191532e-02
<MEAN> 25
 6.604454e+00 -4.154136e+00 -5.596621e+00 -4.730389e+00 1.218200e+00 -5.104279e+00 -6.827334e+00 1.200527e+00 7.842885e-01 -1.996341e+00 -5.961908e+00 -3.516315e+00 -5.435149e-02 1.644572e+00 2.196868e+00 2.314092e+00 -1.221172e+00 -1.256939e+00 6.902935e-02 -5.043092e-01 -1.425652e-01 -1.973677e-01 -2.533776e-01 1.056089e+00 -6.328548e-02
<VARIANCE> 25
 9.048738e+00 2.249670e+01 2.872498e+01 3.296940e+01 3.791479e+01 5.326986e+01 5.726014e+01 4.572766e+01 5.420507e+01 6.536125e+01 3.762701e+01 3.638396e+01 1.263164e+00 2.416720e+00 2.390232e+00 2.419163e+00 4.146567e+00 4.278314e+00 4.308609e+00 4.933088e+00 4.168888e+00 4.885475e+00 3.947100e+00 3.205903e+00 1.459943e-03
<GCONST> 9.681764e+01
<MIXTURE> 67 1.559142e-02
<MEAN> 25
 8.457863e+00 2.135866e+00 -6.370364e+00 -8.500460e+00 -7.284479e-01 3.781008e+00 -1.230525e+00 -3.339633e+00 -3.953983e+00 4.696465e-01 -5.156598e-01 -6.883934e-01 -1.125123e+00 1.692966e+00 7.217561e-01 2.887143e+00 1.328974e+00 -7.815083e-01 1.172485e+00 4.838123e-01 5.587755e-01 3.912162e-02 -8.353035e-01 4.832808e-01 -1.244829e-01
<VARIANCE> 25
 1.054293e+01 3.335318e+01 2.542837e+01 4.736235e+01 4.794000e+01 4.705438e+01 6.329205e+01 4.719748e+01 5.181402e+01 4.738437e+01 5.289135e+01 4.103707e+01 1.822861e+00 2.907689e+00 3.014282e+00 3.802261e+00 3.823037e+00 3.933851e+00 3.993200e+00 4.521300e+00 4.957532e+00 4.025910e+00 5.093929e+00 3.143537e+00 2.630481e-03
<GCONST> 9.965250e+01
<MIXTURE> 68 1.485092e-02
<MEAN> 25
 -1.993003e+00 -2.231685e+00 -4.104920e+00 1.307518e+00 4.884340e+00 -8.980021e-01 2.194997e+00 2.062096e+00 2.252922e+00 1.735958e+00 3.172786e-01 1.808866e+00 2.720265e+00 5.199277e-01 -1.020031e-02 -2.613841e+00 -2.277482e+00 -1.499393e+00 -2.378929e+00 -1.624199e+00 -1.569577e+00 -1.278396e+00 -1.996385e+00 -1.276591e+00 1.015126e-01
<VARIANCE> 25
 2.478852e+01 3.078730e+01 5.604986e+01 5.006115e+01 4.590483e+01 5.264219e+01 4.271374e+01 4.077069e+01 4.034317e+01 4.102445e+01 3.607769e+01 2.481745e+01 1.789883e+00 3.557302e+00 5.650346e+00 5.543946e+00 4.712720e+00 5.401919e+00 5.477707e+00 5.089926e+00 4.774807e+00 5.601546e+00 4.984889e+00 4.042062e+00 5.842247e-03
<GCONST> 1.029928e+02
<MIXTURE> 69 1.204884e-02
<MEAN> 25
 4.580906e+00 -4.170743e+00 -3.593953e+00 -3.501405e+00 -3.475410e+00 -7.793959e+00 -1.040087e+00 2.185140e+00 -2.940956e-01 -4.641922e+00 -5.677472e+00 9.501215e-01 1.683012e+00 -2.216591e+00 -1.329970e+00 -2.245020e+00 -5.336252e-01 -3.350423e-01 -4.838173e-01 6.205998e-01 -6.220644e-01 -1.399636e+00 -2.155412e+00 -2.312553e-01 6.295650e-02
<VARIANCE> 25
 9.339519e+00 2.172899e+01 2.646565e+01 2.636001e+01 4.201706e+01 3.539881e+01 4.857638e+01 3.147823e+01 3.971940e+01 3.798125e+01 3.113975e+01 2.428522e+01 3.491562e+00 2.930500e+00 3.300982e+00 3.668604e+00 5.679503e+00 4.937165e+00 7.077971e+00 5.974568e+00 5.837945e+00 5.953337e+00 4.654415e+00 3.884108e+00 2.446958e-03
<GCONST> 9.871984e+01
<MIXTURE> 70 1.329190e-02
<MEAN> 25
 7.053605e+00 -2.800686e+00 -4.845944e+00 -3.138396e+00 -1.222531e+00 -2.451654e-01 -5.362710e+00 -4.515296e+00 3.729846e-01 2.983364e+00 1.461166e+00 -4.013470e+00 1.760273e+00 -1.311118e+00 -7.908821e-01 -2.219400e+00 -1.277880e+00 1.056588e+00 -9.616362e-01 3.055070e-02 5.422215e-01 3.182435e-01 1.473796e+00 -1.630273e+00 6.714670e-02
<VARIANCE> 25
 1.095243e+01 1.893264e+01 3.000183e+01 4.505915e+01 3.223777e+01 4.125200e+01 5.970522e+01 3.778266e+01 4.067470e+01 2.497787e+01 5.151231e+01 2.617891e+01 2.987788e+00 2.648159e+00 4.231891e+00 4.276152e+00 4.601868e+00 5.282206e+00 6.293979e+00 6.035511e+00 5.233882e+00 4.687637e+00 8.426199e+00 3.453629e+00 2.875749e-03
<GCONST> 1.000466e+02
<MIXTURE> 71 1.406903e-02
<MEAN> 25
 5.505991e+00 4.861786e+00 4.001691e+00 3.660954e+00 -2.398791e+00 -4.209387e+00 -4.094365e+00 -5.504582e+00 -4.248262e+00 -2.007832e+00 -4.151538e+00 -2.377399e+00 -1.449284e+00 -3.012852e-01 -3.158423e-02 -1.998375e+00 1.188784e+00 3.873029e-02 -6.188116e-01 1.537057e+00 4.661273e-02 -3.629774e-03 9.929222e-01 2.772980e-02 3.704614e-02
<VARIANCE> 25
 1.883398e+01 2.246792e+01 2.111412e+01 4.035743e+01 3.799861e+01 3.722150e+01 4.096745e+01 4.051110e+01 3.297258e+01 3.730714e+01 3.611330e+01 3.132775e+01 1.513433e+00 3.203071e+00 4.599936e+00 4.398984e+00 3.952243e+00 4.205938e+00 5.885796e+00 4.524652e+00 3.831182e+00 3.581153e+00 3.516494e+00 2.808124e+00 1.234862e-03
<GCONST> 9.644803e+01
<MIXTURE> 72 8.134747e-03
<MEAN> 25
 3.687139e+00 -3.835871e+00 5.345883e+00 -1.831013e+00 -9.775183e+00 -9.432111e+00 -2.745560e+00 1.292070e+00 -5.110903e+00 -1.819543e+00 -8.333170e-01 6.438146e-01 9.366676e-01 -6.780001e-01 -2.735504e+00 5.409383e-01 2.234363e+00 -7.416282e-01 -1.285305e+00 1.279619e+00 1.878847e+00 -2.833683e-01 -1.265553e+00 3.575215e-01 -6.816864e-03
<VARIANCE> 25
 1.149999e+01 2.040258e+01 4.370357e+01 3.728687e+01 3.326596e+01 3.387198e+01 4.085557e+01 4.021358e+01 3.979648e+01 3.830503e+01 4.155127e+01 2.613129e+01 4.733331e-01 1.087462e+00 2.174180e+00 1.742821e+00 2.214573e+00 2.297432e+00 2.978874e+00 2.931962e+00 2.441918e+00 3.888551e+00 2.349848e+00 2.195525e+00 5.674519e-04
<GCONST> 8.843115e+01
<MIXTURE> 73 1.213625e-02
<MEAN> 25
 -5.716453e+00 -1.378167e+00 -1.845222e+00 4.626689e+00 3.797635e+00 1.784683e+00 5.572828e+00 3.749161e+00 4.721053e+00 3.193609e+00 4.187965e+00 3.465163e+00 8.498225e-01 -1.093857e+00 -9.933672e-01 -2.493589e+00 -1.215789e+00 -1.802726e+00 -8.669602e-01 -3.536391e-01 -8.173804e-01 -5.172004e-01 -8.945978e-01 -3.275710e-01 1.505688e-01
<VARIANCE> 25
 1.220282e+01 1.547216e+01 1.611959e+01 2.091656e+01 2.238984e+01 2.490352e+01 1.856619e+01 1.859736e+01 1.690231e+01 1.756497e+01 2.160835e+01 1.652906e+01 3.670341e+00 2.878476e+00 5.376461e+00 4.490108e+00 5.537964e+00 4.253318e+00 4.070811e+00 3.980265e+00 3.571473e+00 4.082479e+00 3.938075e+00 2.984375e+00 4.034672e-03
<GCONST> 9.186465e+01
<MIXTURE> 74 1.756491e-02
<MEAN> 25
 3.827911e+00 -2.714424e+00 5.198107e+00 -3.474033e-01 -7.874268e+00 -8.575793e+00 -3.449990e+00 1.937020e+00 -3.135408e+00 -2.036424e+00 -6.118749e-01 2.902662e-01 7.268552e-02 1.914124e+00 -1.124707e-03 1.734862e+00 1.143092e+00 4.643802e-01 3.861771e-01 -1.361154e+00 3.181088e-01 1.238222e-01 -7.120960e-01 2.506244e-01 -7.584509e-02
<VARIANCE> 25
 1.128024e+01 2.629338e+01 3.450763e+01 3.306995e+01 3.298347e+01 3.355732e+01 5.816278e+01 7.612506e+01 4.199050e+01 3.718346e+01 3.782619e+01 2.887042e+01 1.879429e+00 1.723976e+00 3.727424e+00 2.196313e+00 3.451553e+00 3.366316e+00 4.528022e+00 3.517967e+00 3.683660e+00 3.399658e+00 3.601727e+00 2.849201e+00 1.460780e-03
<GCONST> 9.525927e+01
<MIXTURE> 75 9.711651e-03
<MEAN> 25
 1.686246e+00 -1.951915e+00 1.273417e+01 2.155412e+00 -9.906686e+00 -7.138557e+00 -5.267948e+00 1.244412e+00 -6.005666e+00 -5.681839e+00 4.145584e+00 6.156374e-01 1.283026e+00 -1.736146e+00 5.397417e-01 -2.919175e-02 -1.973930e+00 -1.148756e+00 -1.524344e+00 3.216724e-01 -4.918627e-01 9.486540e-02 1.274320e+00 -4.344570e-01 4.947275e-02
<VARIANCE> 25
 8.655670e+00 2.124265e+01 3.350110e+01 2.031378e+01 2.460700e+01 3.197719e+01 2.735832e+01 2.536728e+01 3.050050e+01 2.765701e+01 1.520816e+01 1.635687e+01 1.918376e+00 2.104409e+00 5.497128e+00 2.318023e+00 3.169069e+00 3.871335e+00 2.950399e+00 3.480310e+00 4.936624e+00 4.639351e+00 2.734190e+00 1.787179e+00 1.322296e-03
<GCONST> 9.001455e+01
<MIXTURE> 76 1.052359e-02
<MEAN> 25
 -6.201970e+00 -9.755204e-01 -2.969935e+00 3.291249e+00 3.766941e+00 1.865602e+00 4.056015e+00 1.693924e+00 2.758695e+00 4.559366e-01 9.381657e-01 2.620440e+00 -1.130860e-01 -5.892074e-01 -2.665947e-01 -6.371953e-01 -5.703781e-01 -9.095310e-01 -6.695530e-01 -3.220018e-01 -4.586023e-01 -3.886943e-01 -1.513801e-01 -8.210997e-02 2.008534e-02
<VARIANCE> 25
 3.432119e+01 2.775972e+01 2.865080e+01 2.869497e+01 2.885996e+01 2.946816e+01 2.671118e+01 2.890392e+01 2.354993e+01 2.206768e+01 3.244913e+01 1.792629e+01 1.005291e+00 1.137705e+00 1.318142e+00 1.340048e+00 1.369412e+00 1.565431e+00 1.829314e+00 1.911508e+00 1.637959e+00 1.492982e+00 1.698320e+00 1.404538e+00 1.430087e-03
<GCONST> 8.346334e+01
<MIXTURE> 77 1.244626e-02
<MEAN> 25
 -2.089921e-01 8.025237e+00 1.141090e+01 -9.829069e+00 -3.104325e+00 4.543039e-01 -1.148375e+01 -4.538227e+00 -4.121027e+00 5.327283e-02 -2.123527e+00 -1.845682e+00 -2.156012e-02 1.929355e-01 2.955348e-01 -6.219218e-02 -2.005062e-01 3.695802e-01 3.678140e-02 3.421358e-02 -6.892183e-02 -9.719421e-02 1.254622e-01 -1.474717e-01 -8.766477e-03
<VARIANCE> 25
 7.558195e+00 1.505169e+01 2.170485e+01 3.622352e+01 5.038191e+01 2.569972e+01 3.488786e+01 3.643782e+01 2.695408e+01 2.708196e+01 3.766303e+01 2.665795e+01 2.736558e-01 6.218836e-01 5.993121e-01 1.188666e+00 1.410649e+00 9.935043e-01 1.142890e+00 9.436092e-01 8.455505e-01 7.821035e-01 7.579893e-01 7.829289e-01 4.322068e-04
<GCONST> 7.478799e+01
<MIXTURE> 78 9.702551e-03
<MEAN> 25
 -1.065406e+01 1.637162e+00 -1.698249e+00 2.540123e+00 4.548576e+00 -2.127743e+00 3.957803e+00 1.964566e+00 2.875156e+00 4.165885e-01 -9.487746e-01 2.944698e+00 2.266565e+00 -4.924603e-01 1.774611e-01 5.292782e-01 -1.389607e-01 2.189709e-01 -1.476123e-01 2.230640e-01 1.494858e-01 1.024733e-01 -6.548699e-01 -3.182304e-01 -6.416306e-02
<VARIANCE> 25
 4.171848e+01 3.155557e+01 2.934038e+01 2.950736e+01 3.548404e+01 3.284135e+01 3.248475e+01 3.298505e+01 2.753617e+01 2.488868e+01 2.661478e+01 1.769823e+01 4.581072e+00 2.580189e+00 2.744383e+00 2.965492e+00 2.662255e+00 3.342139e+00 3.212937e+00 3.597740e+00 2.238560e+00 2.162259e+00 2.516816e+00 2.002528e+00 4.354506e-03
<GCONST> 9.357320e+01
<MIXTURE> 79 1.156824e-02
<MEAN> 25
 2.903710e+00 9.417523e-01 7.827198e+00 -6.402718e+00 -1.221869e+01 -1.094710e+00 -1.369009e+00 -7.230581e+00 -6.502694e+00 6.144658e-01 -2.671405e+00 -2.833403e+00 1.159993e+00 -5.705625e-01 -1.542089e+00 2.503865e+00 3.856929e-01 -1.526957e+00 5.705766e-01 6.437134e-01 -3.662436e-01 -4.542452e-01 2.499360e-01 4.013833e-01 -3.254002e-02
<VARIANCE> 25
 1.582520e+01 2.626063e+01 5.329776e+01 4.741566e+01 3.325494e+01 4.495420e+01 4.317515e+01 4.177732e+01 3.591067e+01 3.735458e+01 4.663324e+01 2.991870e+01 9.052907e-01 2.084080e+00 1.864584e+00 2.104210e+00 2.530365e+00 2.695793e+00 3.081265e+00 3.819717e+00 2.418630e+00 2.591597e+00 2.259729e+00 1.995692e+00 1.275545e-03
<GCONST> 9.212592e+01
<MIXTURE> 80 7.550998e-03
<MEAN> 25
 -1.460859e+01 3.982977e+00 6.888463e-01 2.866008e+00 2.449424e+00 1.410302e+00 6.397013e+00 2.496780e+00 2.719671e+00 2.373502e+00 4.852813e+00 1.186995e+00 4.286312e+00 -1.602375e-02 1.637940e+00 -1.135545e+00 -2.889468e+00 -2.777560e+00 -2.323237e+00 -2.021437e+00 -1.975020e+00 -1.685190e+00 -1.650851e+00 -6.027426e-01 -4.423241e-02
<VARIANCE> 25
 2.095027e+01 1.984652e+01 3.444427e+01 3.470759e+01 3.018093e+01 2.920874e+01 2.828666e+01 2.855490e+01 2.674648e+01 2.881112e+01 2.685478e+01 1.810704e+01 2.357309e+00 2.666181e+00 2.673115e+00 4.119894e+00 3.394123e+00 2.705143e+00 3.025242e+00 3.204191e+00 2.749129e+00 2.701684e+00 2.782147e+00 2.145733e+00 1.512159e-03
<GCONST> 9.139675e+01
<MIXTURE> 81 8.025434e-03
<MEAN> 25
 -1.117934e+00 4.080584e+00 1.016725e+01 -1.476295e+01 -9.030647e+00 -1.407400e+00 -6.789899e+00 -8.387684e+00 -4.154491e+00 -4.216122e-01 -7.538559e+00 -2.246116e+00 1.302533e-01 -5.874446e-01 2.226789e-03 -5.571920e-01 -4.660581e-01 3.373478e-01 3.229864e-01 1.417124e-01 -1.406239e-01 1.048996e-01 -4.648202e-01 -1.271439e-01 1.148686e-02
<VARIANCE> 25
 1.011707e+01 3.272701e+01 2.652832e+01 2.961391e+01 3.418697e+01 3.048309e+01 4.559647e+01 2.861976e+01 3.786098e+01 3.180170e+01 2.562464e+01 3.096594e+01 7.743624e-01 2.271372e+00 1.548338e+00 2.870161e+00 2.658162e+00 2.121844e+00 3.273651e+00 2.286769e+00 2.346609e+00 2.530061e+00 2.301990e+00 2.072454e+00 1.180222e-03
<GCONST> 8.870950e+01
<MIXTURE> 82 8.213053e-03
<MEAN> 25
 -9.888646e+00 -4.044046e+00 1.331592e+00 -2.853776e+00 3.033553e+00 4.971957e-01 2.063941e+00 1.102733e+00 3.134763e+00 1.681342e+00 1.849488e+00 3.267275e+00 -1.219718e+00 -1.614648e-01 2.546061e-01 -2.576188e+00 -1.092647e+00 -1.278022e+00 -1.026412e+00 -8.103361e-01 -3.091757e-01 -4.230917e-01 -3.063289e-01 -1.434962e-01 1.768918e-01
<VARIANCE> 25
 1.762934e+01 2.508971e+01 3.469494e+01 3.051529e+01 3.217860e+01 3.234158e+01 3.105552e+01 3.282658e+01 3.128194e+01 2.441532e+01 3.021545e+01 1.813824e+01 3.909140e+00 3.006482e+00 3.281537e+00 3.200500e+00 3.462839e+00 3.200798e+00 2.880590e+00 3.033968e+00 2.710880e+00 2.529568e+00 2.423799e+00 1.923462e+00 3.402258e-03
<GCONST> 9.299361e+01
<MIXTURE> 83 1.167529e-02
<MEAN> 25
 -2.003801e+01 5.507314e+00 -1.789755e+00 -4.017303e-01 7.830367e+00 -1.235250e+00 5.459074e+00 3.039117e+00 1.196299e+00 2.190233e+00 7.246960e-01 2.881224e+00 -2.664899e-02 -4.506888e-01 3.716969e-03 -3.646910e-01 -4.968067e-01 -1.254293e-01 -1.330100e-01 -1.001290e-01 -4.115072e-02 -3.887348e-02 -3.078597e-02 -3.494713e-02 4.389865e-03
<VARIANCE> 25
 8.833976e+00 1.646929e+01 2.850061e+01 2.250288e+01 2.126729e+01 2.407069e+01 2.202058e+01 2.342327e+01 2.045680e+01 2.221051e+01 2.318624e+01 1.448222e+01 1.060725e+00 9.364390e-01 1.243402e+00 1.067170e+00 1.359840e+00 1.291261e+00 1.287176e+00 1.388727e+00 1.348644e+00 1.310435e+00 1.220357e+00 1.071395e+00 8.924268e-04
<GCONST> 7.704580e+01
<MIXTURE> 84 1.066614e-02
<MEAN> 25
 1.004659e+00 8.702342e+00 6.865077e+00 7.668375e+00 2.827407e+00 -1.128836e+00 -1.758673e+00 -4.157116e+00 -3.619482e+00 -2.857763e+00 -2.456367e+00 -1.356971e+00 -1.642197e+00 -1.116975e+00 -1.285545e+00 1.420968e+00 2.122825e+00 1.405231e+00 1.477626e+00 1.089796e+00 1.327691e+00 3.189000e-01 1.541754e-01 4.432714e-01 -6.806622e-02
<VARIANCE> 25
 2.243138e+01 1.883265e+01 2.232678e+01 2.484220e+01 2.749782e+01 2.773105e+01 2.662289e+01 2.607236e+01 2.706689e+01 2.375864e+01 2.244122e+01 2.363028e+01 2.353228e+00 2.499993e+00 3.715500e+00 3.395918e+00 3.318641e+00 3.233254e+00 3.095525e+00 3.766344e+00 3.617208e+00 3.248991e+00 4.143933e+00 2.678864e+00 3.423969e-03
<GCONST> 9.256071e+01
<MIXTURE> 85 7.591393e-03
<MEAN> 25
 -3.110248e+00 7.891162e+00 5.727251e+00 1.285225e+00 -3.491979e+00 -5.323832e+00 -2.980168e+00 -6.114413e+00 -3.544782e+00 -3.187360e+00 -4.773276e-01 -1.899091e+00 3.941980e+00 3.239901e-01 1.756595e+00 -2.090575e+00 -3.414216e+00 -2.582733e+00 -2.885203e+00 -2.340929e+00 -2.248584e+00 -1.264339e+00 -2.301242e+00 -6.156762e-01 9.240307e-03
<VARIANCE> 25
 4.245879e+01 2.342397e+01 3.647024e+01 3.822169e+01 3.974089e+01 4.118339e+01 3.215231e+01 2.799767e+01 2.664750e+01 2.613476e+01 2.622540e+01 2.056300e+01 2.708150e+00 4.327322e+00 4.057710e+00 5.183403e+00 4.407351e+00 3.879932e+00 3.853822e+00 3.988616e+00 3.848741e+00 4.039136e+00 3.946661e+00 3.483713e+00 5.446034e-03
<GCONST> 9.835912e+01
<MIXTURE> 86 1.273941e-02
<MEAN> 25
 -5.047508e+00 -8.092700e-01 -6.739957e-01 6.066552e+00 4.846414e+00 4.681355e+00 5.346865e+00 4.425058e+00 4.880720e+00 3.762445e+00 4.345402e+00 2.705485e+00 -1.838517e-02 -9.750565e-03 -3.479573e-02 -8.849495e-02 -1.121675e-01 -1.971075e-01 -2.593470e-01 -3.774380e-01 -3.795885e-01 -2.784963e-01 -1.209121e-01 -1.301079e-01 -9.069847e-04
<VARIANCE> 25
 7.236357e+00 6.881263e+00 9.997561e+00 1.181729e+01 1.489875e+01 1.345049e+01 1.258043e+01 1.321503e+01 1.298330e+01 1.328788e+01 2.180847e+01 1.195659e+01 9.418287e-02 1.854925e-01 3.236091e-01 4.793463e-01 5.944881e-01 6.954136e-01 7.110946e-01 7.802408e-01 8.344458e-01 9.487177e-01 9.528332e-01 9.528497e-01 5.426543e-05
<GCONST> 5.821956e+01
<MIXTURE> 87 1.100681e-02
<MEAN> 25
 -3.475483e+00 4.108853e+00 2.271692e+00 6.201773e+00 4.685221e+00 1.062288e+00 1.928321e+00 -7.481145e-01 -9.836397e-02 -1.064654e+00 -2.415388e+00 1.427173e-01 -1.597005e+00 -2.858714e+00 -2.116141e+00 -2.021827e+00 -3.008638e-01 -4.185766e-01 5.843228e-01 1.262180e+00 1.362592e+00 1.021497e+00 1.549929e+00 1.000125e+00 1.064500e-01
<VARIANCE> 25
 3.125628e+01 2.537756e+01 2.854209e+01 2.999934e+01 2.793883e+01 2.763038e+01 2.328560e+01 2.299925e+01 2.697984e+01 2.270567e+01 3.038108e+01 1.926884e+01 4.555065e+00 2.260885e+00 3.213262e+00 3.208189e+00 4.124866e+00 4.468958e+00 3.369060e+00 3.183180e+00 2.863019e+00 2.817258e+00 4.202020e+00 3.143517e+00 4.181429e-03
<GCONST> 9.424094e+01
<MIXTURE> 88 1.256585e-02
<MEAN> 25
 -3.967238e+00 -1.186593e-01 -1.441215e+00 5.434283e+00 4.294892e+00 3.041311e+00 5.238608e+00 3.643708e+00 3.865281e+00 2.130402e+00 4.345525e-01 2.794597e+00 4.677211e-02 3.459474e-01 4.747057e-01 5.393247e-01 1.543546e-01 2.857912e-01 -7.255937e-02 -4.904739e-01 -3.020422e-01 -3.513692e-01 -1.776087e-01 1.462335e-01 -1.513662e-02
<VARIANCE> 25
 7.917450e+00 1.059676e+01 1.319280e+01 1.460202e+01 1.994363e+01 1.911285e+01 1.740460e+01 1.791838e+01 1.739549e+01 1.468138e+01 2.983187e+01 1.277806e+01 1.124206e+00 1.861378e+00 2.243901e+00 1.917253e+00 2.288927e+00 2.383657e+00 2.484706e+00 4.338615e+00 2.014671e+00 2.018133e+00 2.666652e+00 1.705035e+00 1.543168e-03
<GCONST> 8.152434e+01
<MIXTURE> 89 9.333527e-03
<MEAN> 25
 5.309718e+00 -6.782712e+00 -3.802051e+00 -1.350009e+00 -1.795546e+00 -6.408943e+00 -4.747489e+00 5.382073e+00 4.312285e+00 -1.590757e+00 -4.247629e+00 -3.442770e+00 -5.767753e-01 1.554088e-01 2.148613e+00 9.229991e-01 -1.668012e+00 -1.499487e+00 5.056600e-01 1.524909e+00 -1.019352e+00 -1.036611e+00 4.707867e-02 1.723757e+00 -6.761509e-03
<VARIANCE> 25
 7.537670e+00 2.019669e+01 3.925409e+01 2.839269e+01 2.479041e+01 3.316983e+01 6.143198e+01 5.466497e+01 3.032352e+01 3.110683e+01 3.510165e+01 2.818394e+01 2.796313e-01 8.843323e-01 1.749812e+00 1.125630e+00 1.521428e+00 1.725179e+00 2.446518e+00 1.915393e+00 2.027506e+00 1.788440e+00 2.375223e+00 1.690898e+00 3.107713e-04
<GCONST> 8.295841e+01
<MIXTURE> 90 7.114505e-03
<MEAN> 25
 2.575411e+00 -9.669175e+00 -4.906516e+00 -3.883283e+00 -3.448981e+00 -1.832652e+00 3.376855e+00 9.673057e-01 -7.536752e+00 -9.971253e+00 -3.281008e+00 -6.218814e-01 -1.635835e-01 8.913495e-01 1.173779e+00 -8.786991e-01 -1.623136e+00 -1.728965e-01 6.822320e-01 -2.053431e-01 -1.817826e-01 7.435872e-01 1.983718e-01 -5.673200e-01 -1.072778e-02
<VARIANCE> 25
 9.209679e+00 1.766316e+01 2.067997e+01 2.818553e+01 3.656416e+01 3.186378e+01 3.809198e+01 3.808154e+01 3.467888e+01 3.038623e+01 2.770094e+01 2.642637e+01 2.244581e-01 6.253152e-01 7.812020e-01 1.107902e+00 1.492322e+00 1.660813e+00 1.863091e+00 1.625729e+00 1.791358e+00 1.658230e+00 1.490891e+00 1.299589e+00 2.239328e-04
<GCONST> 7.855667e+01
<MIXTURE> 91 7.852945e-03
<MEAN> 25
 6.125518e+00 -7.296957e+00 -8.924930e+00 -4.848886e+00 3.610023e+00 -2.744136e-01 -1.595221e+00 6.737566e-01 1.071418e+00 -2.361087e+00 -4.118186e+00 -5.226628e+00 2.265863e-01 9.699075e-01 1.749837e-01 6.044704e-01 2.326375e-02 -6.249852e-01 -3.268403e-01 5.431088e-02 -1.222649e-01 3.708653e-01 -2.316702e-01 3.297426e-01 -3.456239e-02
<VARIANCE> 25
 1.029916e+01 2.229626e+01 1.991325e+01 3.829858e+01 3.313065e+01 5.622068e+01 5.179083e+01 4.656756e+01 5.308952e+01 6.001770e+01 3.990555e+01 4.320590e+01 4.295455e-01 8.157011e-01 1.115420e+00 1.493333e+00 2.215452e+00 2.670721e+00 2.536887e+00 2.914970e+00 2.152572e+00 2.082372e+00 2.189223e+00 1.883972e+00 5.403537e-04
<GCONST> 8.749110e+01
<MIXTURE> 92 7.852945e-03
<MEAN> 25
 6.125518e+00 -7.296957e+00 -8.924930e+00 -4.848886e+00 3.610023e+00 -2.744136e-01 -1.595221e+00 6.737566e-01 1.071418e+00 -2.361087e+00 -4.118186e+00 -5.226628e+00 2.265863e-01 9.699075e-01 1.749837e-01 6.044704e-01 2.326375e-02 -6.249852e-01 -3.268403e-01 5.431088e-02 -1.222649e-01 3.708653e-01 -2.316702e-01 3.297426e-01 -3.456239e-02
<VARIANCE> 25
 1.029916e+01 2.229626e+01 1.991325e+01 3.829858e+01 3.313065e+01 5.622068e+01 5.179083e+01 4.656756e+01 5.308952e+01 6.001770e+01 3.990555e+01 4.320590e+01 4.295455e-01 8.157011e-01 1.115420e+00 1.493333e+00 2.215452e+00 2.670721e+00 2.536887e+00 2.914970e+00 2.152572e+00 2.082372e+00 2.189223e+00 1.883972e+00 5.403537e-04
<GCONST> 8.749110e+01
<MIXTURE> 93 6.122769e-03
<MEAN> 25
 -6.802651e+00 -8.325932e-01 -2.377325e+00 5.849309e+00 5.984658e+00 3.991199e+00 6.229518e+00 3.614393e+00 4.302299e+00 2.476954e+00 1.359445e+00 3.535917e+00 -7.871190e-02 -1.489846e-01 -2.448262e-01 -3.395155e-01 -3.398741e-01 -2.359187e-01 -2.048594e-01 -1.699987e-01 -1.394837e-01 -1.739323e-01 -1.161318e-01 -4.077189e-02 -2.833749e-05
<VARIANCE> 25
 8.792912e+00 6.235210e+00 7.937715e+00 1.114779e+01 1.130641e+01 1.558795e+01 1.513818e+01 1.593490e+01 1.525996e+01 1.419051e+01 2.161754e+01 1.378843e+01 9.017947e-02 1.495906e-01 2.588842e-01 3.730591e-01 4.826098e-01 7.107295e-01 7.640921e-01 8.662552e-01 9.066846e-01 8.786528e-01 8.720156e-01 8.868681e-01 1.008224e-06
<GCONST> 5.374920e+01
<MIXTURE> 94 6.122769e-03
<MEAN> 25
 -6.802651e+00 -8.325932e-01 -2.377325e+00 5.849309e+00 5.984658e+00 3.991199e+00 6.229518e+00 3.614393e+00 4.302299e+00 2.476954e+00 1.359445e+00 3.535917e+00 -7.871190e-02 -1.489846e-01 -2.448262e-01 -3.395155e-01 -3.398741e-01 -2.359187e-01 -2.048594e-01 -1.699987e-01 -1.394837e-01 -1.739323e-01 -1.161318e-01 -4.077189e-02 -2.833749e-05
<VARIANCE> 25
 8.792912e+00 6.235210e+00 7.937715e+00 1.114779e+01 1.130641e+01 1.558795e+01 1.513818e+01 1.593490e+01 1.525996e+01 1.419051e+01 2.161754e+01 1.378843e+01 9.017947e-02 1.495906e-01 2.588842e-01 3.730591e-01 4.826098e-01 7.107295e-01 7.640921e-01 8.662552e-01 9.066846e-01 8.786528e-01 8.720156e-01 8.868681e-01 1.008224e-06
<GCONST> 5.374920e+01
<MIXTURE> 95 5.258835e-03
<MEAN> 25
 -5.826254e+00 8.269519e-01 -1.186214e+00 4.624427e+00 4.292047e+00 3.881614e+00 4.914403e+00 7.775716e-01 3.505105e+00 3.298188e-01 -1.768066e+00 1.964541e+00 7.719771e-02 1.063085e-01 1.292891e-01 -1.818866e-02 -1.668919e-01 -4.202673e-01 -8.751128e-01 -1.256325e+00 -1.429279e+00 -8.811624e-01 -2.412675e-01 -1.956882e-01 -2.056670e-04
<VARIANCE> 25
 7.344785e+00 8.871190e+00 1.251057e+01 1.008512e+01 1.161357e+01 1.588571e+01 1.416968e+01 1.647993e+01 1.498206e+01 1.370765e+01 2.633469e+01 1.178136e+01 1.721554e-01 2.456607e-01 3.818161e-01 6.294083e-01 7.739066e-01 9.115978e-01 7.842954e-01 1.036422e+00 7.831152e-01 9.319080e-01 1.078154e+00 1.046732e+00 4.171400e-05
<GCONST> 6.127066e+01
<MIXTURE> 96 7.034694e-03
<MEAN> 25
 -5.106445e+00 -3.055182e-01 -2.167994e+00 5.156890e+00 3.920414e+00 1.943040e+00 3.700221e+00 1.764380e+00 2.586840e+00 9.545470e-01 8.974800e-01 2.790890e+00 -4.017756e-02 8.600898e-02 2.073017e-01 4.040442e-01 5.416543e-01 5.055208e-01 2.372059e-01 -1.510338e-01 -4.565237e-01 -6.433362e-01 -6.009631e-01 -3.674909e-01 -4.469269e-05
<VARIANCE> 25
 1.074005e+01 1.027813e+01 1.280237e+01 1.400226e+01 1.489491e+01 1.995518e+01 1.850955e+01 1.913019e+01 1.828841e+01 1.633123e+01 2.154231e+01 1.440209e+01 1.218283e-01 2.187885e-01 3.204464e-01 4.025544e-01 5.028648e-01 6.568269e-01 8.555296e-01 1.058949e+00 9.485028e-01 8.610327e-01 8.783199e-01 9.170461e-01 1.165593e-06
<GCONST> 5.788017e+01
<MIXTURE> 97 7.034694e-03
<MEAN> 25
 -5.106445e+00 -3.055182e-01 -2.167994e+00 5.156890e+00 3.920414e+00 1.943040e+00 3.700221e+00 1.764380e+00 2.586840e+00 9.545470e-01 8.974800e-01 2.790890e+00 -4.017756e-02 8.600898e-02 2.073017e-01 4.040442e-01 5.416543e-01 5.055208e-01 2.372059e-01 -1.510338e-01 -4.565237e-01 -6.433362e-01 -6.009631e-01 -3.674909e-01 -4.469269e-05
<VARIANCE> 25
 1.074005e+01 1.027813e+01 1.280237e+01 1.400226e+01 1.489491e+01 1.995518e+01 1.850955e+01 1.913019e+01 1.828841e+01 1.633123e+01 2.154231e+01 1.440209e+01 1.218283e-01 2.187885e-01 3.204464e-01 4.025544e-01 5.028648e-01 6.568269e-01 8.555296e-01 1.058949e+00 9.485028e-01 8.610327e-01 8.783199e-01 9.170461e-01 1.165593e-06
<GCONST> 5.788017e+01
<MIXTURE> 98 9.917808e-03
<MEAN> 25
 -1.574932e+00 1.152697e+00 -9.717676e-01 4.023304e+00 3.374181e+00 2.715189e+00 3.329941e+00 1.379403e+00 1.816063e+00 8.521669e-01 -3.267870e-01 8.661369e-01 -1.734762e+00 -1.372861e+00 -1.008214e+00 2.410197e-01 6.114731e-01 4.371536e-01 1.027209e+00 1.373563e+00 1.617906e+00 9.763383e-01 1.164615e+00 9.821491e-01 -3.699991e-02
<VARIANCE> 25
 1.359936e+01 1.758324e+01 3.155620e+01 3.395007e+01 4.124915e+01 3.206242e+01 3.157914e+01 2.548362e+01 2.804685e+01 2.535477e+01 2.754129e+01 1.987331e+01 1.266348e+00 1.412243e+00 2.158409e+00 2.146498e+00 2.512402e+00 3.239397e+00 3.279775e+00 2.430535e+00 2.359126e+00 2.655925e+00 3.240490e+00 1.857625e+00 2.380470e-03
<GCONST> 8.902702e+01
<MIXTURE> 99 6.696178e-03
<MEAN> 25
 -5.867382e+00 9.515858e+00 6.656323e+00 2.951737e+00 1.023095e+00 -4.503809e+00 -2.011301e+00 -3.393715e+00 -3.593093e+00 -3.771873e+00 -1.479183e+00 4.027433e-01 5.003234e-01 -7.954260e-01 4.179979e-01 -2.875361e-01 -1.152362e+00 -5.061330e-01 -2.568547e-01 -1.224893e-01 -1.022826e-01 -1.565786e-01 2.480344e-01 4.795935e-02 1.415551e-02
<VARIANCE> 25
 3.360332e+01 2.382442e+01 4.643674e+01 3.096108e+01 3.272558e+01 3.568579e+01 2.903568e+01 3.650034e+01 2.505398e+01 2.721656e+01 2.352734e+01 2.587614e+01 2.058101e+00 1.854968e+00 1.535296e+00 1.924849e+00 2.471036e+00 1.939883e+00 1.659112e+00 1.850783e+00 1.447837e+00 1.630813e+00 1.519972e+00 1.265133e+00 1.555722e-03
<GCONST> 8.702776e+01
<MIXTURE> 100 4.498084e-03
<MEAN> 25
 -1.598878e+00 6.344827e+00 1.027700e+01 -7.462759e+00 -1.078206e+01 -5.075294e+00 -4.941668e+00 -9.968847e+00 -4.718240e+00 -8.551691e-01 -2.733300e+00 -2.708267e+00 2.917895e+00 -1.260455e+00 1.299659e+00 -2.185945e+00 -3.419489e+00 -7.841161e-01 -1.218778e+00 -8.197802e-01 -1.475479e+00 3.466953e-01 -1.655620e+00 -2.862392e-01 2.015521e-03
<VARIANCE> 25
 1.362666e+01 2.105913e+01 2.246177e+01 2.642710e+01 2.301848e+01 2.372172e+01 2.911146e+01 2.170685e+01 2.748231e+01 2.265230e+01 2.241141e+01 2.134114e+01 1.799129e+00 3.953767e+00 2.919965e+00 4.286306e+00 4.184435e+00 4.537227e+00 4.015484e+00 4.340374e+00 4.167888e+00 3.896067e+00 3.910382e+00 3.225015e+00 1.674840e-03
<GCONST> 9.256865e+01
<MIXTURE> 101 6.007792e-03
<MEAN> 25
 7.783908e+00 -3.833092e+00 -6.227383e+00 -6.748409e+00 7.493297e-01 -1.530742e+00 -9.948013e+00 -1.744259e+00 1.274309e+00 3.168506e+00 -1.564706e+00 -5.542111e+00 7.256376e-01 6.513502e-01 -1.546558e+00 -1.681067e+00 9.545820e-01 2.459150e+00 4.014058e-01 -1.536040e+00 -1.150207e+00 1.019918e+00 1.394802e+00 -4.195287e-01 -3.874325e-03
<VARIANCE> 25
 9.614410e+00 1.628948e+01 3.181295e+01 3.962768e+01 3.327190e+01 3.645501e+01 4.038449e+01 3.617653e+01 3.683727e+01 4.186209e+01 5.670856e+01 2.444171e+01 2.968432e-01 6.327065e-01 1.297759e+00 2.101997e+00 1.621474e+00 2.438102e+00 2.367286e+00 1.933307e+00 2.258311e+00 2.155387e+00 1.708423e+00 1.840688e+00 3.249682e-04
<GCONST> 8.402612e+01
<MIXTURE> 102 6.007792e-03
<MEAN> 25
 7.783908e+00 -3.833092e+00 -6.227383e+00 -6.748409e+00 7.493297e-01 -1.530742e+00 -9.948013e+00 -1.744259e+00 1.274309e+00 3.168506e+00 -1.564706e+00 -5.542111e+00 7.256376e-01 6.513502e-01 -1.546558e+00 -1.681067e+00 9.545820e-01 2.459150e+00 4.014058e-01 -1.536040e+00 -1.150207e+00 1.019918e+00 1.394802e+00 -4.195287e-01 -3.874325e-03
<VARIANCE> 25
 9.614410e+00 1.628948e+01 3.181295e+01 3.962768e+01 3.327190e+01 3.645501e+01 4.038449e+01 3.617653e+01 3.683727e+01 4.186209e+01 5.670856e+01 2.444171e+01 2.968432e-01 6.327065e-01 1.297759e+00 2.101997e+00 1.621474e+00 2.438102e+00 2.367286e+00 1.933307e+00 2.258311e+00 2.155387e+00 1.708423e+00 1.840688e+00 3.249682e-04
<GCONST> 8.402612e+01
<MIXTURE> 103 5.694618e-03
<MEAN> 25
 3.375365e+00 -9.458649e+00 -6.151802e+00 -3.075166e+00 -1.340784e+00 -1.978238e+00 2.433596e+00 2.479830e+00 -4.607947e+00 -9.223604e+00 -5.041789e+00 3.840656e-01 -1.568518e-01 -1.484247e+00 -9.758798e-01 3.746257e-01 1.204944e+00 1.016593e+00 1.625630e-01 -2.688151e-01 -7.824207e-01 -9.432199e-01 -3.367595e-02 1.192145e-01 2.685907e-02
<VARIANCE> 25
 1.042411e+01 2.043559e+01 2.299969e+01 3.173544e+01 4.790918e+01 3.492945e+01 4.625731e+01 3.696145e+01 4.203516e+01 2.955046e+01 3.013926e+01 2.648556e+01 6.423021e-01 1.254369e+00 1.542081e+00 1.939725e+00 2.962239e+00 2.410865e+00 2.916792e+00 2.580893e+00 2.559232e+00 2.528409e+00 2.096901e+00 2.016140e+00 8.081402e-04
<GCONST> 8.762735e+01
<MIXTURE> 104 5.694618e-03
<MEAN> 25
 3.375365e+00 -9.458649e+00 -6.151802e+00 -3.075166e+00 -1.340784e+00 -1.978238e+00 2.433596e+00 2.479830e+00 -4.607947e+00 -9.223604e+00 -5.041789e+00 3.840656e-01 -1.568518e-01 -1.484247e+00 -9.758798e-01 3.746257e-01 1.204944e+00 1.016593e+00 1.625630e-01 -2.688151e-01 -7.824207e-01 -9.432199e-01 -3.367595e-02 1.192145e-01 2.685907e-02
<VARIANCE> 25
 1.042411e+01 2.043559e+01 2.299969e+01 3.173544e+01 4.790918e+01 3.492945e+01 4.625731e+01 3.696145e+01 4.203516e+01 2.955046e+01 3.013926e+01 2.648556e+01 6.423021e-01 1.254369e+00 1.542081e+00 1.939725e+00 2.962239e+00 2.410865e+00 2.916792e+00 2.580893e+00 2.559232e+00 2.528409e+00 2.096901e+00 2.016140e+00 8.081402e-04
<GCONST> 8.762735e+01
<MIXTURE> 105 4.710235e-03
<MEAN> 25
 2.102863e+00 -9.066596e-01 9.124108e+00 -2.790633e+00 -9.804949e+00 -4.629296e+00 -5.138751e+00 -4.634497e-01 -3.725722e+00 -2.964481e+00 1.620164e+00 -1.096566e+00 8.069973e-03 4.971910e-02 9.021175e-02 -8.845355e-02 3.140241e-02 6.136930e-02 -6.004839e-02 -1.358934e-02 -9.313638e-02 -7.211603e-04 6.153946e-02 -7.548712e-02 -2.025152e-03
<VARIANCE> 25
 1.231353e+01 2.941968e+01 3.737510e+01 4.364877e+01 6.237766e+01 5.008405e+01 4.852314e+01 4.000203e+01 3.640747e+01 3.914463e+01 3.942974e+01 2.819316e+01 7.592069e-02 1.785883e-01 3.315353e-01 3.093452e-01 4.072154e-01 4.189006e-01 4.471572e-01 4.921483e-01 5.170419e-01 4.433955e-01 3.977027e-01 4.055161e-01 8.176806e-05
<GCONST> 6.656039e+01
<MIXTURE> 106 4.710235e-03
<MEAN> 25
 2.102863e+00 -9.066596e-01 9.124108e+00 -2.790633e+00 -9.804949e+00 -4.629296e+00 -5.138751e+00 -4.634497e-01 -3.725722e+00 -2.964481e+00 1.620164e+00 -1.096566e+00 8.069973e-03 4.971910e-02 9.021175e-02 -8.845355e-02 3.140241e-02 6.136930e-02 -6.004839e-02 -1.358934e-02 -9.313638e-02 -7.211603e-04 6.153946e-02 -7.548712e-02 -2.025152e-03
<VARIANCE> 25
 1.231353e+01 2.941968e+01 3.737510e+01 4.364877e+01 6.237766e+01 5.008405e+01 4.852314e+01 4.000203e+01 3.640747e+01 3.914463e+01 3.942974e+01 2.819316e+01 7.592069e-02 1.785883e-01 3.315353e-01 3.093452e-01 4.072154e-01 4.189006e-01 4.471572e-01 4.921483e-01 5.170419e-01 4.433955e-01 3.977027e-01 4.055161e-01 8.176806e-05
<GCONST> 6.656039e+01
<MIXTURE> 107 5.452374e-03
<MEAN> 25
 7.774207e+00 -2.976336e+00 -7.232704e+00 -7.912026e+00 1.463161e+00 2.122960e+00 -7.715207e+00 -4.815723e+00 -3.099205e-01 3.005888e+00 2.589335e+00 -4.780193e+00 -5.355781e-01 -8.539304e-01 7.552658e-01 1.632879e+00 1.345359e-01 -2.145728e+00 -9.585389e-01 1.256977e+00 1.663430e+00 -1.132610e-01 -1.603229e+00 -7.680519e-01 1.704488e-03
<VARIANCE> 25
 9.541939e+00 2.016739e+01 3.139712e+01 4.331493e+01 2.967624e+01 3.375106e+01 4.979015e+01 3.802509e+01 4.309863e+01 3.269950e+01 4.827974e+01 3.090344e+01 3.531360e-01 1.094505e+00 1.448753e+00 2.127656e+00 2.288812e+00 2.585562e+00 2.335024e+00 2.835348e+00 1.977659e+00 2.489238e+00 1.927525e+00 2.004171e+00 8.254110e-04
<GCONST> 8.712507e+01
<MIXTURE> 108 5.452374e-03
<MEAN> 25
 7.774207e+00 -2.976336e+00 -7.232704e+00 -7.912026e+00 1.463161e+00 2.122960e+00 -7.715207e+00 -4.815723e+00 -3.099205e-01 3.005888e+00 2.589335e+00 -4.780193e+00 -5.355781e-01 -8.539304e-01 7.552658e-01 1.632879e+00 1.345359e-01 -2.145728e+00 -9.585389e-01 1.256977e+00 1.663430e+00 -1.132610e-01 -1.603229e+00 -7.680519e-01 1.704488e-03
<VARIANCE> 25
 9.541939e+00 2.016739e+01 3.139712e+01 4.331493e+01 2.967624e+01 3.375106e+01 4.979015e+01 3.802509e+01 4.309863e+01 3.269950e+01 4.827974e+01 3.090344e+01 3.531360e-01 1.094505e+00 1.448753e+00 2.127656e+00 2.288812e+00 2.585562e+00 2.335024e+00 2.835348e+00 1.977659e+00 2.489238e+00 1.927525e+00 2.004171e+00 8.254110e-04
<GCONST> 8.712507e+01
<MIXTURE> 109 6.661064e-03
<MEAN> 25
 4.108680e+00 -1.039871e+01 -8.383932e+00 -1.308812e+00 2.783035e+00 -5.750612e-02 -2.187853e-01 1.248360e+00 -2.544931e+00 -8.250655e+00 -5.313943e+00 1.830148e-01 -2.753990e-02 -1.257518e-01 -4.158549e-02 2.526117e-01 1.926969e-01 1.014902e-01 -1.049698e-01 -8.995273e-02 -3.888483e-02 -1.356334e-01 2.128884e-01 1.961382e-02 -3.460523e-03
<VARIANCE> 25
 9.002752e+00 1.915361e+01 2.017293e+01 3.109596e+01 4.020652e+01 3.614813e+01 4.708201e+01 3.617266e+01 4.530967e+01 3.548439e+01 2.935542e+01 2.843048e+01 1.917196e-01 4.186785e-01 5.346535e-01 6.242089e-01 1.211654e+00 9.922726e-01 1.265913e+00 1.095439e+00 1.102061e+00 9.385439e-01 8.648205e-01 8.732907e-01 1.792319e-04
<GCONST> 7.438737e+01
<MIXTURE> 110 6.661064e-03
<MEAN> 25
 4.108680e+00 -1.039871e+01 -8.383932e+00 -1.308812e+00 2.783035e+00 -5.750612e-02 -2.187853e-01 1.248360e+00 -2.544931e+00 -8.250655e+00 -5.313943e+00 1.830148e-01 -2.753990e-02 -1.257518e-01 -4.158549e-02 2.526117e-01 1.926969e-01 1.014902e-01 -1.049698e-01 -8.995273e-02 -3.888483e-02 -1.356334e-01 2.128884e-01 1.961382e-02 -3.460523e-03
<VARIANCE> 25
 9.002752e+00 1.915361e+01 2.017293e+01 3.109596e+01 4.020652e+01 3.614813e+01 4.708201e+01 3.617266e+01 4.530967e+01 3.548439e+01 2.935542e+01 2.843048e+01 1.917196e-01 4.186785e-01 5.346535e-01 6.242089e-01 1.211654e+00 9.922726e-01 1.265913e+00 1.095439e+00 1.102061e+00 9.385439e-01 8.648205e-01 8.732907e-01 1.792319e-04
<GCONST> 7.438737e+01
<MIXTURE> 111 4.337247e-03
<MEAN> 25
 -4.491129e+00 -5.216529e-01 -1.715912e+00 1.763778e+00 1.143611e+00 1.255979e+00 7.271168e-01 1.723415e-01 4.143056e-01 -4.622104e-01 -1.110945e+00 1.866223e+00 -2.695782e-02 -4.797570e-02 -6.115743e-02 -4.577010e-02 -2.749306e-02 7.044928e-03 -1.695852e-02 -4.539415e-02 -1.852980e-01 -2.080007e-01 -1.675822e-01 -6.747518e-02 -3.811347e-04
<VARIANCE> 25
 6.547974e+00 6.527428e+00 1.018992e+01 8.823066e+00 1.256758e+01 2.358834e+01 1.560292e+01 1.297210e+01 1.265210e+01 1.140883e+01 1.549028e+01 1.099687e+01 7.787391e-02 1.607159e-01 2.712289e-01 4.252216e-01 5.583694e-01 6.812009e-01 8.356652e-01 9.091446e-01 8.964175e-01 8.511952e-01 8.597091e-01 9.325961e-01 2.471465e-05
<GCONST> 5.643137e+01
<MIXTURE> 112 4.337247e-03
<MEAN> 25
 -4.491129e+00 -5.216529e-01 -1.715912e+00 1.763778e+00 1.143611e+00 1.255979e+00 7.271168e-01 1.723415e-01 4.143056e-01 -4.622104e-01 -1.110945e+00 1.866223e+00 -2.695782e-02 -4.797570e-02 -6.115743e-02 -4.577010e-02 -2.749306e-02 7.044928e-03 -1.695852e-02 -4.539415e-02 -1.852980e-01 -2.080007e-01 -1.675822e-01 -6.747518e-02 -3.811347e-04
<VARIANCE> 25
 6.547974e+00 6.527428e+00 1.018992e+01 8.823066e+00 1.256758e+01 2.358834e+01 1.560292e+01 1.297210e+01 1.265210e+01 1.140883e+01 1.549028e+01 1.099687e+01 7.787391e-02 1.607159e-01 2.712289e-01 4.252216e-01 5.583694e-01 6.812009e-01 8.356652e-01 9.091446e-01 8.964175e-01 8.511952e-01 8.597091e-01 9.325961e-01 2.471465e-05
<GCONST> 5.643137e+01
<MIXTURE> 113 5.938666e-03
<MEAN> 25
 9.955834e+00 1.735792e+00 -8.802645e+00 -1.695203e+01 -1.002779e+00 5.627349e+00 -5.301409e+00 -1.513296e+00 -5.673752e+00 -4.967411e-01 2.928786e-01 -1.618659e-01 6.385389e-03 1.514678e-02 -6.223028e-02 -1.111871e-01 1.035143e-01 1.454824e-01 6.491753e-02 4.039243e-02 -5.571890e-02 -5.297006e-02 1.781404e-01 3.710118e-02 -1.400691e-03
<VARIANCE> 25
 8.921621e+00 1.638094e+01 2.966929e+01 3.573399e+01 5.264954e+01 3.388089e+01 3.958365e+01 3.937214e+01 3.727449e+01 4.616086e+01 3.612130e+01 2.853934e+01 1.216088e-01 3.192130e-01 3.160306e-01 6.291987e-01 6.102229e-01 6.555060e-01 7.787144e-01 8.448814e-01 9.547927e-01 9.011190e-01 7.212465e-01 7.105876e-01 1.241512e-04
<GCONST> 7.111246e+01
<MIXTURE> 114 5.938666e-03
<MEAN> 25
 9.955834e+00 1.735792e+00 -8.802645e+00 -1.695203e+01 -1.002779e+00 5.627349e+00 -5.301409e+00 -1.513296e+00 -5.673752e+00 -4.967411e-01 2.928786e-01 -1.618659e-01 6.385389e-03 1.514678e-02 -6.223028e-02 -1.111871e-01 1.035143e-01 1.454824e-01 6.491753e-02 4.039243e-02 -5.571890e-02 -5.297006e-02 1.781404e-01 3.710118e-02 -1.400691e-03
<VARIANCE> 25
 8.921621e+00 1.638094e+01 2.966929e+01 3.573399e+01 5.264954e+01 3.388089e+01 3.958365e+01 3.937214e+01 3.727449e+01 4.616086e+01 3.612130e+01 2.853934e+01 1.216088e-01 3.192130e-01 3.160306e-01 6.291987e-01 6.102229e-01 6.555060e-01 7.787144e-01 8.448814e-01 9.547927e-01 9.011190e-01 7.212465e-01 7.105876e-01 1.241512e-04
<GCONST> 7.111246e+01
<MIXTURE> 115 2.935202e-03
<MEAN> 25
 -4.030499e+00 -7.373214e-01 -3.101241e+00 3.655516e+00 2.414249e+00 -4.132606e-01 2.248007e+00 4.148141e-01 1.403316e+00 -1.996219e-02 1.881133e-02 2.682524e+00 3.070947e-02 -7.254443e-02 -2.312161e-01 -4.372787e-01 -6.295887e-01 -6.702375e-01 -5.926932e-01 -5.131477e-01 -4.872633e-01 -4.534823e-01 -3.399429e-01 -1.657940e-01 -5.839105e-06
<VARIANCE> 25
 9.265201e+00 9.956605e+00 1.353969e+01 1.268791e+01 1.347779e+01 1.761554e+01 1.716343e+01 2.078328e+01 1.800414e+01 1.718813e+01 1.932649e+01 1.465323e+01 2.037333e-01 3.451234e-01 4.843790e-01 5.609853e-01 6.400245e-01 7.964954e-01 1.006434e+00 1.146216e+00 1.076828e+00 9.959048e-01 1.028967e+00 1.062672e+00 1.006095e-06
<GCONST> 6.020660e+01
<MIXTURE> 116 2.935202e-03
<MEAN> 25
 -4.030499e+00 -7.373214e-01 -3.101241e+00 3.655516e+00 2.414249e+00 -4.132606e-01 2.248007e+00 4.148141e-01 1.403316e+00 -1.996219e-02 1.881133e-02 2.682524e+00 3.070947e-02 -7.254443e-02 -2.312161e-01 -4.372787e-01 -6.295887e-01 -6.702375e-01 -5.926932e-01 -5.131477e-01 -4.872633e-01 -4.534823e-01 -3.399429e-01 -1.657940e-01 -5.839105e-06
<VARIANCE> 25
 9.265201e+00 9.956605e+00 1.353969e+01 1.268791e+01 1.347779e+01 1.761554e+01 1.716343e+01 2.078328e+01 1.800414e+01 1.718813e+01 1.932649e+01 1.465323e+01 2.037333e-01 3.451234e-01 4.843790e-01 5.609853e-01 6.400245e-01 7.964954e-01 1.006434e+00 1.146216e+00 1.076828e+00 9.959048e-01 1.028967e+00 1.062672e+00 1.006095e-06
<GCONST> 6.020660e+01
<MIXTURE> 117 6.506003e-03
<MEAN> 25
 -4.645831e+00 1.138715e+00 1.046088e+00 9.726905e+00 6.242508e+00 6.251915e+00 6.480626e+00 5.036647e+00 6.402546e+00 4.916389e+00 6.295757e+00 2.701720e+00 -7.729847e-02 -2.341809e-01 -3.578970e-01 -4.179865e-01 -3.611333e-01 -3.009610e-01 -2.891419e-01 -3.436724e-01 -3.952470e-01 -3.661358e-01 -2.571814e-01 -1.187923e-01 -1.685421e-05
<VARIANCE> 25
 7.157291e+00 8.815855e+00 9.780297e+00 1.448009e+01 1.566429e+01 1.528249e+01 1.770599e+01 1.789168e+01 1.638559e+01 1.632786e+01 1.772322e+01 1.470400e+01 2.166725e-01 3.061747e-01 4.244157e-01 6.157234e-01 8.615512e-01 1.053950e+00 1.174277e+00 1.270027e+00 1.225042e+00 1.193690e+00 1.173158e+00 1.110323e+00 1.009813e-06
<GCONST> 6.052023e+01
<MIXTURE> 118 6.506003e-03
<MEAN> 25
 -4.645831e+00 1.138715e+00 1.046088e+00 9.726905e+00 6.242508e+00 6.251915e+00 6.480626e+00 5.036647e+00 6.402546e+00 4.916389e+00 6.295757e+00 2.701720e+00 -7.729847e-02 -2.341809e-01 -3.578970e-01 -4.179865e-01 -3.611333e-01 -3.009610e-01 -2.891419e-01 -3.436724e-01 -3.952470e-01 -3.661358e-01 -2.571814e-01 -1.187923e-01 -1.685421e-05
<VARIANCE> 25
 7.157291e+00 8.815855e+00 9.780297e+00 1.448009e+01 1.566429e+01 1.528249e+01 1.770599e+01 1.789168e+01 1.638559e+01 1.632786e+01 1.772322e+01 1.470400e+01 2.166725e-01 3.061747e-01 4.244157e-01 6.157234e-01 8.615512e-01 1.053950e+00 1.174277e+00 1.270027e+00 1.225042e+00 1.193690e+00 1.173158e+00 1.110323e+00 1.009813e-06
<GCONST> 6.052023e+01
<MIXTURE> 119 4.297961e-03
<MEAN> 25
 -4.975609e+00 -7.634444e+00 2.231561e+00 2.016680e+00 2.239652e+00 2.078068e-01 5.275230e+00 5.939636e+00 1.166307e+00 9.678015e-01 6.613605e+00 1.570077e+00 -4.997247e-02 -7.930695e-02 3.731015e-02 -5.720689e-02 -1.261393e-01 -1.799087e-01 -6.904387e-02 -1.394912e-02 -9.190585e-02 -1.121217e-01 -5.513109e-02 -5.818511e-02 1.111577e-03
<VARIANCE> 25
 8.501668e+00 9.815175e+00 1.656459e+01 2.018237e+01 2.286621e+01 2.320601e+01 2.499667e+01 2.648529e+01 2.503801e+01 2.807365e+01 2.040571e+01 2.041001e+01 1.604208e-01 2.824823e-01 4.597689e-01 6.328174e-01 8.034460e-01 1.003819e+00 1.099927e+00 1.277778e+00 1.285894e+00 1.245875e+00 1.192394e+00 1.112452e+00 2.316152e-04
<GCONST> 6.971971e+01
<MIXTURE> 120 4.297961e-03
<MEAN> 25
 -4.975609e+00 -7.634444e+00 2.231561e+00 2.016680e+00 2.239652e+00 2.078068e-01 5.275230e+00 5.939636e+00 1.166307e+00 9.678015e-01 6.613605e+00 1.570077e+00 -4.997247e-02 -7.930695e-02 3.731015e-02 -5.720689e-02 -1.261393e-01 -1.799087e-01 -6.904387e-02 -1.394912e-02 -9.190585e-02 -1.121217e-01 -5.513109e-02 -5.818511e-02 1.111577e-03
<VARIANCE> 25
 8.501668e+00 9.815175e+00 1.656459e+01 2.018237e+01 2.286621e+01 2.320601e+01 2.499667e+01 2.648529e+01 2.503801e+01 2.807365e+01 2.040571e+01 2.041001e+01 1.604208e-01 2.824823e-01 4.597689e-01 6.328174e-01 8.034460e-01 1.003819e+00 1.099927e+00 1.277778e+00 1.285894e+00 1.245875e+00 1.192394e+00 1.112452e+00 2.316152e-04
<GCONST> 6.971971e+01
<MIXTURE> 121 4.567511e-03
<MEAN> 25
 2.069383e-01 -2.522709e+00 5.149549e+00 -1.290091e+01 -1.264427e+01 -1.665048e+00 9.989316e-01 -5.107665e+00 -4.198555e+00 -4.906895e-01 -5.507976e+00 -4.310208e+00 2.395561e-02 1.324122e-01 -4.120677e-02 7.996845e-02 1.586967e-01 7.828477e-02 -7.999149e-02 -1.840397e-01 -2.690634e-01 -2.581309e-01 -1.146737e-01 1.194554e-03 -7.437407e-03
<VARIANCE> 25
 7.731409e+00 1.560704e+01 1.731727e+01 2.037021e+01 2.442645e+01 2.924261e+01 2.953024e+01 2.457092e+01 3.528016e+01 2.833254e+01 1.974040e+01 2.120704e+01 1.550275e-01 6.429194e-01 6.231693e-01 7.050394e-01 7.704892e-01 1.149734e+00 1.118896e+00 1.122845e+00 1.218062e+00 1.193108e+00 9.414406e-01 8.719363e-01 2.108059e-04
<GCONST> 7.139888e+01
<MIXTURE> 122 4.567511e-03
<MEAN> 25
 2.069383e-01 -2.522709e+00 5.149549e+00 -1.290091e+01 -1.264427e+01 -1.665048e+00 9.989316e-01 -5.107665e+00 -4.198555e+00 -4.906895e-01 -5.507976e+00 -4.310208e+00 2.395561e-02 1.324122e-01 -4.120677e-02 7.996845e-02 1.586967e-01 7.828477e-02 -7.999149e-02 -1.840397e-01 -2.690634e-01 -2.581309e-01 -1.146737e-01 1.194554e-03 -7.437407e-03
<VARIANCE> 25
 7.731409e+00 1.560704e+01 1.731727e+01 2.037021e+01 2.442645e+01 2.924261e+01 2.953024e+01 2.457092e+01 3.528016e+01 2.833254e+01 1.974040e+01 2.120704e+01 1.550275e-01 6.429194e-01 6.231693e-01 7.050394e-01 7.704892e-01 1.149734e+00 1.118896e+00 1.122845e+00 1.218062e+00 1.193108e+00 9.414406e-01 8.719363e-01 2.108059e-04
<GCONST> 7.139888e+01
<MIXTURE> 123 4.393044e-03
<MEAN> 25
 -4.350277e+00 1.898381e+00 1.305649e-01 5.997572e+00 5.466479e+00 4.097520e+00 4.173221e+00 5.056915e-01 1.235347e+00 -3.256821e-01 -2.035077e+00 1.092669e+00 -4.450172e-01 -7.098308e-01 -8.432524e-01 -4.507635e-01 -1.758433e-01 -1.446597e-02 3.086601e-01 5.782765e-01 7.410494e-01 8.486448e-01 5.878933e-01 4.442744e-01 -3.358934e-03
<VARIANCE> 25
 8.134393e+00 1.011001e+01 1.323721e+01 1.412409e+01 1.741656e+01 2.347234e+01 1.914633e+01 1.589623e+01 2.005099e+01 1.676261e+01 2.785629e+01 1.608291e+01 2.989381e-01 3.384418e-01 5.359662e-01 6.608168e-01 1.158681e+00 1.093475e+00 1.150346e+00 1.079510e+00 1.064725e+00 1.072820e+00 1.267806e+00 1.281669e+00 9.426739e-05
<GCONST> 6.771455e+01
<MIXTURE> 124 4.069876e-03
<MEAN> 25
 -6.358656e+00 -5.374474e-01 -2.595956e+00 5.010769e+00 4.985983e+00 3.612527e+00 5.664109e+00 2.529479e+00 3.895710e+00 1.263715e+00 -8.726365e-02 2.827924e+00 -2.242268e-01 -3.271119e-01 -3.389939e-01 -1.861837e-01 9.781496e-02 5.741882e-01 7.513104e-01 8.364266e-01 6.732709e-01 3.051859e-01 -6.017738e-02 -4.156328e-02 -1.581780e-04
<VARIANCE> 25
 9.883407e+00 8.896862e+00 1.066327e+01 1.110965e+01 1.087934e+01 1.908551e+01 1.411176e+01 1.592738e+01 1.755663e+01 1.450540e+01 2.616406e+01 1.360515e+01 1.044036e-01 1.609977e-01 2.579454e-01 3.898161e-01 5.495164e-01 7.000521e-01 7.947083e-01 7.846166e-01 8.921293e-01 9.186762e-01 1.140142e+00 9.091877e-01 1.845213e-05
<GCONST> 5.848979e+01
<MIXTURE> 125 4.069876e-03
<MEAN> 25
 -6.358656e+00 -5.374474e-01 -2.595956e+00 5.010769e+00 4.985983e+00 3.612527e+00 5.664109e+00 2.529479e+00 3.895710e+00 1.263715e+00 -8.726365e-02 2.827924e+00 -2.242268e-01 -3.271119e-01 -3.389939e-01 -1.861837e-01 9.781496e-02 5.741882e-01 7.513104e-01 8.364266e-01 6.732709e-01 3.051859e-01 -6.017738e-02 -4.156328e-02 -1.581780e-04
<VARIANCE> 25
 9.883407e+00 8.896862e+00 1.066327e+01 1.110965e+01 1.087934e+01 1.908551e+01 1.411176e+01 1.592738e+01 1.755663e+01 1.450540e+01 2.616406e+01 1.360515e+01 1.044036e-01 1.609977e-01 2.579454e-01 3.898161e-01 5.495164e-01 7.000521e-01 7.947083e-01 7.846166e-01 8.921293e-01 9.186762e-01 1.140142e+00 9.091877e-01 1.845213e-05
<GCONST> 5.848979e+01
<MIXTURE> 126 2.402244e-03
<MEAN> 25
 -3.778331e+00 -6.875003e+00 -5.300611e+00 2.275202e+00 4.239901e+00 -3.219674e+00 8.271630e-02 3.509902e+00 3.341153e+00 -2.681853e+00 -1.444543e+00 3.071001e+00 -5.061728e-03 -4.809930e-03 -3.217501e-02 -1.544469e-01 -3.147143e-01 -3.899853e-01 -2.856803e-01 -1.732070e-01 -1.279592e-01 -1.255717e-01 -9.867118e-02 -2.015768e-02 -1.570289e-03
<VARIANCE> 25
 7.412656e+00 1.303778e+01 1.386151e+01 1.544007e+01 2.471061e+01 2.365277e+01 2.263502e+01 2.848762e+01 3.111790e+01 2.608687e+01 2.172496e+01 1.914537e+01 1.708240e-01 3.508644e-01 4.821571e-01 5.668293e-01 7.516949e-01 9.886780e-01 1.144282e+00 1.301507e+00 1.351408e+00 1.317139e+00 1.206939e+00 1.156056e+00 2.116059e-04
<GCONST> 6.989222e+01
<MIXTURE> 127 2.402244e-03
<MEAN> 25
 -3.778331e+00 -6.875003e+00 -5.300611e+00 2.275202e+00 4.239901e+00 -3.219674e+00 8.271630e-02 3.509902e+00 3.341153e+00 -2.681853e+00 -1.444543e+00 3.071001e+00 -5.061728e-03 -4.809930e-03 -3.217501e-02 -1.544469e-01 -3.147143e-01 -3.899853e-01 -2.856803e-01 -1.732070e-01 -1.279592e-01 -1.255717e-01 -9.867118e-02 -2.015768e-02 -1.570289e-03
<VARIANCE> 25
 7.412656e+00 1.303778e+01 1.386151e+01 1.544007e+01 2.471061e+01 2.365277e+01 2.263502e+01 2.848762e+01 3.111790e+01 2.608687e+01 2.172496e+01 1.914537e+01 1.708240e-01 3.508644e-01 4.821571e-01 5.668293e-01 7.516949e-01 9.886780e-01 1.144282e+00 1.301507e+00 1.351408e+00 1.317139e+00 1.206939e+00 1.156056e+00 2.116059e-04
<GCONST> 6.989222e+01
<MIXTURE> 128 3.790457e-03
<MEAN> 25
 -3.944503e+00 1.680298e+00 -3.348858e-01 6.436797e+00 3.542520e+00 1.964336e+00 3.773701e+00 2.384240e+00 4.130308e+00 3.659924e+00 3.439271e+00 3.474974e+00 -3.987759e-01 -1.979873e-01 8.828510e-02 7.128873e-01 1.191054e+00 1.094606e+00 6.711066e-01 2.651924e-02 -4.706261e-01 -7.482616e-01 -6.438938e-01 -4.051004e-01 -8.577878e-05
<VARIANCE> 25
 9.927047e+00 1.200545e+01 1.456598e+01 1.940239e+01 1.971286e+01 2.098165e+01 2.487080e+01 2.404466e+01 2.659148e+01 2.325529e+01 2.961700e+01 1.778158e+01 8.673831e-01 1.118648e+00 1.337268e+00 1.467357e+00 1.537996e+00 1.868572e+00 2.262278e+00 2.650355e+00 2.126381e+00 1.857725e+00 1.818877e+00 1.704110e+00 1.073571e-06
<GCONST> 7.373499e+01
<TRANSP> 3
 0.000000e+00 1.000000e+00 0.000000e+00
 0.000000e+00 9.999990e-01 9.999998e-07
 0.000000e+00 0.000000e+00 0.000000e+00
<ENDHMM>
