~o
<STREAMINFO> 1 25
<VECSIZE> 25<NULLD><MFCC_E_D_N><DIAGC>
~h "jmodel"
<BEGINHMM>
<NUMSTATES> 3
<STATE> 2
<NUMMIXES> 128
<MIXTURE> 1 5.748963e-03
<MEAN> 25
 -2.573341e+00 3.177662e+00 2.300882e+00 8.742724e+00 4.367156e+00 3.445215e+00 4.062862e+00 3.927454e+00 5.827507e+00 5.241824e+00 5.849440e+00 3.072131e+00 -2.007195e+00 -1.630531e+00 -8.599808e-01 1.076532e+00 1.550608e+00 2.223628e+00 2.150220e+00 2.082831e+00 1.695230e+00 1.256803e+00 1.559670e+00 6.118554e-01 -4.689758e-02
<VARIANCE> 25
 1.007734e+01 1.172911e+01 1.496342e+01 1.867397e+01 2.313108e+01 2.213048e+01 2.183348e+01 2.199265e+01 2.094317e+01 2.252181e+01 2.125528e+01 1.705828e+01 1.793818e+00 2.112155e+00 3.025348e+00 3.203469e+00 3.762240e+00 3.370928e+00 3.316226e+00 3.370454e+00 3.512985e+00 3.777114e+00 3.525714e+00 2.828575e+00 3.114815e-03
<GCONST> 8.848494e+01
<MIXTURE> 2 4.549242e-03
<MEAN> 25
 -4.873948e+00 1.301024e+00 9.959601e-01 9.880468e+00 6.655584e+00 7.414458e+00 7.843746e+00 6.961944e+00 8.407459e+00 6.342979e+00 7.557892e+00 3.080749e+00 -6.127385e-02 4.005930e-02 1.395008e-01 2.259261e-01 2.772849e-01 2.878899e-01 2.914215e-01 3.112155e-01 3.411684e-01 3.107681e-01 2.023020e-01 9.019934e-02 1.490875e-06
<VARIANCE> 25
 6.913619e+00 8.874826e+00 1.059944e+01 1.588865e+01 1.738812e+01 1.550851e+01 1.681026e+01 1.838778e+01 1.672395e+01 1.747124e+01 1.880277e+01 1.427480e+01 1.247829e-01 2.259446e-01 3.367645e-01 4.646324e-01 6.749270e-01 8.190723e-01 9.289925e-01 1.012713e+00 1.063894e+00 1.073222e+00 1.074795e+00 1.032178e+00 1.001344e-06
<GCONST> 5.813575e+01
<MIXTURE> 3 4.549242e-03
<MEAN> 25
 -4.873948e+00 1.301024e+00 9.959601e-01 9.880468e+00 6.655584e+00 7.414458e+00 7.843746e+00 6.961944e+00 8.407459e+00 6.342979e+00 7.557892e+00 3.080749e+00 -6.127385e-02 4.005930e-02 1.395008e-01 2.259261e-01 2.772849e-01 2.878899e-01 2.914215e-01 3.112155e-01 3.411684e-01 3.107681e-01 2.023020e-01 9.019934e-02 1.490875e-06
<VARIANCE> 25
 6.913619e+00 8.874826e+00 1.059944e+01 1.588865e+01 1.738812e+01 1.550851e+01 1.681026e+01 1.838778e+01 1.672395e+01 1.747124e+01 1.880277e+01 1.427480e+01 1.247829e-01 2.259446e-01 3.367645e-01 4.646324e-01 6.749270e-01 8.190723e-01 9.289925e-01 1.012713e+00 1.063894e+00 1.073222e+00 1.074795e+00 1.032178e+00 1.001344e-06
<GCONST> 5.813575e+01
<MIXTURE> 4 1.671429e-02
<MEAN> 25
 3.711931e+00 2.309335e+00 -4.461633e+00 8.557349e-01 4.237084e+00 -1.035114e+00 4.851538e-01 4.919879e-01 2.051674e+00 2.384081e+00 -1.257355e+00 -4.544823e-01 -2.911258e+00 1.486506e+00 1.801327e+00 2.476220e+00 9.255354e-01 4.326594e-01 1.152936e+00 1.490610e+00 1.151044e+00 1.888605e-02 4.324454e-01 1.167058e+00 -9.298194e-02
<VARIANCE> 25
 1.858624e+01 2.419211e+01 2.817161e+01 3.281747e+01 3.633659e+01 6.243398e+01 5.216131e+01 5.033344e+01 4.863754e+01 5.432579e+01 4.366959e+01 3.379248e+01 2.510504e+00 5.155152e+00 3.060997e+00 5.495500e+00 4.987960e+00 4.955028e+00 5.206908e+00 5.339042e+00 4.909928e+00 6.243622e+00 7.278107e+00 4.616410e+00 5.379180e-03
<GCONST> 1.032886e+02
<MIXTURE> 5 3.206198e-03
<MEAN> 25
 -3.422265e+00 2.171160e+00 6.169574e-01 9.409208e+00 6.656483e+00 6.293295e+00 7.107494e+00 4.737369e+00 5.550697e+00 3.829392e+00 4.607907e+00 2.620566e+00 -3.237748e-01 7.470952e-01 1.213042e+00 1.022963e+00 3.244303e-01 -9.014070e-02 -8.910319e-02 2.492880e-02 4.440488e-01 6.837699e-01 4.094255e-01 1.003192e-01 -3.009482e-05
<VARIANCE> 25
 1.018943e+01 1.389921e+01 2.333150e+01 2.549098e+01 2.036079e+01 1.957013e+01 1.998388e+01 2.030025e+01 2.189474e+01 2.118809e+01 2.429564e+01 1.627251e+01 1.204297e+00 1.242426e+00 1.367575e+00 1.690452e+00 2.309776e+00 2.378967e+00 2.292949e+00 2.275278e+00 2.328301e+00 2.223578e+00 2.075482e+00 1.890075e+00 9.947303e-07
<GCONST> 7.518790e+01
<MIXTURE> 6 5.475854e-03
<MEAN> 25
 9.695196e+00 -4.376101e-01 -6.707206e+00 -1.102096e+01 -2.096836e+00 6.719548e+00 -5.869595e+00 -5.292757e+00 -3.657683e+00 1.866251e+00 4.629858e+00 -1.266629e+00 4.847041e-01 8.986776e-01 -3.534184e-01 -1.459217e+00 -6.339229e-01 1.310656e+00 1.534056e+00 2.431455e-01 -1.211082e+00 -1.215706e+00 3.268920e-01 1.224661e+00 -8.196850e-03
<VARIANCE> 25
 8.938066e+00 1.719472e+01 2.393464e+01 3.920219e+01 3.686759e+01 3.057655e+01 4.412203e+01 3.794780e+01 4.060420e+01 3.983046e+01 4.204370e+01 2.834719e+01 3.106323e-01 8.582507e-01 9.441731e-01 1.990951e+00 1.603080e+00 2.012441e+00 1.913899e+00 2.047205e+00 2.402972e+00 1.958467e+00 2.241178e+00 1.440169e+00 5.872348e-04
<GCONST> 8.387498e+01
<MIXTURE> 7 5.475854e-03
<MEAN> 25
 9.695196e+00 -4.376101e-01 -6.707206e+00 -1.102096e+01 -2.096836e+00 6.719548e+00 -5.869595e+00 -5.292757e+00 -3.657683e+00 1.866251e+00 4.629858e+00 -1.266629e+00 4.847041e-01 8.986776e-01 -3.534184e-01 -1.459217e+00 -6.339229e-01 1.310656e+00 1.534056e+00 2.431455e-01 -1.211082e+00 -1.215706e+00 3.268920e-01 1.224661e+00 -8.196850e-03
<VARIANCE> 25
 8.938066e+00 1.719472e+01 2.393464e+01 3.920219e+01 3.686759e+01 3.057655e+01 4.412203e+01 3.794780e+01 4.060420e+01 3.983046e+01 4.204370e+01 2.834719e+01 3.106323e-01 8.582507e-01 9.441731e-01 1.990951e+00 1.603080e+00 2.012441e+00 1.913899e+00 2.047205e+00 2.402972e+00 1.958467e+00 2.241178e+00 1.440169e+00 5.872348e-04
<GCONST> 8.387498e+01
<MIXTURE> 8 1.165917e-02
<MEAN> 25
 -4.729332e+00 1.359433e+00 1.285096e+00 9.552863e+00 6.570248e+00 6.253474e+00 6.478999e+00 5.682155e+00 6.657215e+00 5.625953e+00 6.559162e+00 3.153514e+00 -6.322710e-01 -1.424271e+00 -1.070007e+00 -1.727653e+00 -2.313984e-01 -9.452976e-01 -1.771829e-01 -2.879162e-01 -2.529268e-01 -1.758101e-01 -2.122486e-01 8.139187e-02 9.873283e-02
<VARIANCE> 25
 9.348599e+00 9.844695e+00 1.163158e+01 1.605804e+01 1.665885e+01 1.572325e+01 1.810345e+01 1.752882e+01 1.702195e+01 1.738514e+01 1.898593e+01 1.398977e+01 2.761045e+00 2.812203e+00 3.903682e+00 3.765655e+00 3.454535e+00 3.311363e+00 3.124677e+00 3.079339e+00 2.875589e+00 2.658264e+00 2.435766e+00 1.899676e+00 6.688251e-03
<GCONST> 8.629618e+01
<MIXTURE> 9 1.199672e-02
<MEAN> 25
 8.819608e+00 4.699373e+00 -5.704727e+00 -1.225689e+01 -3.942059e+00 4.018847e+00 -2.696364e+00 -1.026068e+00 -3.577322e+00 -2.077766e+00 8.449672e-01 -8.784667e-01 1.382760e+00 2.823706e-01 -5.365465e-01 -2.950980e+00 -1.633444e+00 1.003084e+00 -9.459321e-01 -6.992305e-02 -5.751615e-01 -9.486250e-01 1.419852e+00 -5.592579e-01 8.294833e-02
<VARIANCE> 25
 1.032757e+01 2.153461e+01 2.654788e+01 5.011757e+01 4.603236e+01 2.770788e+01 3.383185e+01 4.469497e+01 4.020653e+01 3.499334e+01 3.595122e+01 2.387059e+01 2.011898e+00 2.608470e+00 3.530661e+00 4.638387e+00 4.017743e+00 3.468258e+00 3.344091e+00 4.752774e+00 4.248460e+00 3.576466e+00 4.877249e+00 2.641321e+00 2.211260e-03
<GCONST> 9.603763e+01
<MIXTURE> 10 6.596976e-03
<MEAN> 25
 8.260276e-01 7.616439e+00 5.370639e+00 7.135269e+00 1.587559e+00 -2.114193e+00 -5.163069e-01 -1.665691e+00 8.788558e-01 8.528344e-01 8.145726e-01 6.504814e-01 -1.917360e+00 -6.678292e-01 -4.617967e-01 3.018651e+00 2.454377e+00 2.698870e+00 2.371098e+00 2.271803e+00 1.866048e+00 1.538776e+00 2.315862e+00 5.268914e-01 -1.378135e-01
<VARIANCE> 25
 1.946718e+01 2.067273e+01 2.222811e+01 2.900585e+01 3.816141e+01 3.481824e+01 3.505359e+01 3.409499e+01 2.754067e+01 2.903812e+01 2.699704e+01 2.495296e+01 2.241490e+00 3.424208e+00 5.515623e+00 5.189857e+00 5.549285e+00 4.490992e+00 4.687229e+00 4.838217e+00 4.378233e+00 5.027775e+00 4.514170e+00 3.186674e+00 2.714104e-03
<GCONST> 9.746629e+01
<MIXTURE> 11 1.633820e-02
<MEAN> 25
 7.047870e+00 3.562342e+00 3.376433e+00 6.083661e+00 -2.346031e+00 -2.101969e+00 -1.552296e+00 -5.725586e+00 -2.400358e+00 -3.075674e-01 -3.180484e+00 -8.232400e-01 -5.145350e-01 6.085507e-01 -1.372547e-02 -9.110579e-02 5.180549e-01 -2.985949e-01 2.774565e-01 -3.588129e-02 2.783384e-02 1.401336e-01 -2.114576e-01 3.299993e-01 -2.420778e-02
<VARIANCE> 25
 9.712379e+00 1.990311e+01 1.554773e+01 2.884162e+01 3.185654e+01 3.066660e+01 4.061987e+01 4.177225e+01 3.755772e+01 3.964495e+01 2.910142e+01 2.886733e+01 1.046839e+00 1.258617e+00 1.455242e+00 2.940069e+00 1.737977e+00 1.912314e+00 1.765332e+00 2.299077e+00 1.896612e+00 2.045921e+00 2.296642e+00 1.568998e+00 1.446039e-03
<GCONST> 8.610733e+01
<MIXTURE> 12 5.904134e-03
<MEAN> 25
 1.016950e+01 4.439091e+00 -4.554000e+00 -1.703773e+01 -9.269432e+00 8.330459e+00 -1.325744e+00 -1.220924e+00 -2.069572e+00 -5.984571e+00 3.621186e+00 -8.862821e-01 1.164603e-01 5.379932e-02 8.299775e-02 -2.424893e-01 -3.095968e-01 -7.953439e-04 3.563004e-01 2.685449e-01 2.477495e-02 -3.585738e-01 -3.996386e-01 6.610993e-02 -3.174249e-03
<VARIANCE> 25
 8.607911e+00 1.894352e+01 1.885426e+01 3.143426e+01 3.503290e+01 2.570910e+01 3.439393e+01 4.119077e+01 3.555383e+01 3.401462e+01 4.118959e+01 3.138908e+01 2.312884e-01 7.762310e-01 5.765125e-01 1.121584e+00 1.005431e+00 1.127999e+00 9.792137e-01 1.226630e+00 1.161075e+00 1.195794e+00 1.556511e+00 8.979129e-01 6.430460e-04
<GCONST> 7.721676e+01
<MIXTURE> 13 5.904134e-03
<MEAN> 25
 1.016950e+01 4.439091e+00 -4.554000e+00 -1.703773e+01 -9.269432e+00 8.330459e+00 -1.325744e+00 -1.220924e+00 -2.069572e+00 -5.984571e+00 3.621186e+00 -8.862821e-01 1.164603e-01 5.379932e-02 8.299775e-02 -2.424893e-01 -3.095968e-01 -7.953439e-04 3.563004e-01 2.685449e-01 2.477495e-02 -3.585738e-01 -3.996386e-01 6.610993e-02 -3.174249e-03
<VARIANCE> 25
 8.607911e+00 1.894352e+01 1.885426e+01 3.143426e+01 3.503290e+01 2.570910e+01 3.439393e+01 4.119077e+01 3.555383e+01 3.401462e+01 4.118959e+01 3.138908e+01 2.312884e-01 7.762310e-01 5.765125e-01 1.121584e+00 1.005431e+00 1.127999e+00 9.792137e-01 1.226630e+00 1.161075e+00 1.195794e+00 1.556511e+00 8.979129e-01 6.430460e-04
<GCONST> 7.721676e+01
<MIXTURE> 14 6.488954e-03
<MEAN> 25
 -4.330609e+00 -3.902594e-01 -3.233625e-01 8.898627e+00 7.493423e+00 7.378656e+00 7.828207e+00 7.302941e+00 7.259293e+00 5.207547e+00 6.815562e+00 4.105424e+00 -2.759345e-01 1.900585e-01 3.609475e-01 3.100609e-01 1.323341e-02 5.892597e-02 9.417954e-02 1.731793e-01 2.870525e-01 5.383813e-01 5.061705e-01 7.841644e-02 -9.229819e-03
<VARIANCE> 25
 9.298249e+00 1.380846e+01 1.859398e+01 1.776713e+01 2.097282e+01 1.958766e+01 2.140306e+01 2.071957e+01 2.004737e+01 2.387943e+01 2.179049e+01 1.595174e+01 9.635199e-01 1.634201e+00 1.771381e+00 1.929651e+00 2.253136e+00 2.253870e+00 2.248736e+00 2.241021e+00 2.303163e+00 2.498341e+00 2.188391e+00 1.811257e+00 1.028868e-03
<GCONST> 8.191032e+01
<MIXTURE> 15 2.475190e-03
<MEAN> 25
 -5.422920e+00 -6.485982e-01 -2.062811e-01 7.353003e+00 5.700602e+00 5.715134e+00 6.070714e+00 4.969495e+00 5.198496e+00 4.097936e+00 5.390848e+00 2.557998e+00 -1.190966e-01 -2.801449e-02 7.716249e-02 2.451600e-01 4.890994e-01 7.874739e-01 1.067349e+00 1.175987e+00 1.055404e+00 7.504627e-01 4.211219e-01 1.511971e-01 -6.054548e-05
<VARIANCE> 25
 6.923676e+00 5.569901e+00 8.960688e+00 1.272312e+01 1.405154e+01 1.420755e+01 1.481269e+01 1.482485e+01 1.414240e+01 1.449786e+01 1.630185e+01 1.247918e+01 1.246338e-01 2.048383e-01 3.178728e-01 4.997808e-01 6.970273e-01 7.909775e-01 7.644224e-01 7.911185e-01 9.033444e-01 1.024108e+00 1.063495e+00 1.042861e+00 2.779140e-05
<GCONST> 5.859128e+01
<MIXTURE> 16 2.475190e-03
<MEAN> 25
 -5.422920e+00 -6.485982e-01 -2.062811e-01 7.353003e+00 5.700602e+00 5.715134e+00 6.070714e+00 4.969495e+00 5.198496e+00 4.097936e+00 5.390848e+00 2.557998e+00 -1.190966e-01 -2.801449e-02 7.716249e-02 2.451600e-01 4.890994e-01 7.874739e-01 1.067349e+00 1.175987e+00 1.055404e+00 7.504627e-01 4.211219e-01 1.511971e-01 -6.054548e-05
<VARIANCE> 25
 6.923676e+00 5.569901e+00 8.960688e+00 1.272312e+01 1.405154e+01 1.420755e+01 1.481269e+01 1.482485e+01 1.414240e+01 1.449786e+01 1.630185e+01 1.247918e+01 1.246338e-01 2.048383e-01 3.178728e-01 4.997808e-01 6.970273e-01 7.909775e-01 7.644224e-01 7.911185e-01 9.033444e-01 1.024108e+00 1.063495e+00 1.042861e+00 2.779140e-05
<GCONST> 5.859128e+01
<MIXTURE> 17 9.518312e-03
<MEAN> 25
 2.552282e+00 -2.948957e-01 7.045560e+00 2.377734e+00 -3.686879e+00 -6.498799e+00 -2.716963e+00 -2.638703e-01 -4.489110e+00 -3.067237e+00 1.584603e+00 6.690307e-01 -3.767372e-01 -1.068834e+00 1.677760e+00 -1.922774e+00 -2.139120e+00 -4.180465e-01 -3.457674e-01 -1.255206e-01 -1.384499e+00 -1.120473e-01 1.652548e+00 5.544988e-02 8.200718e-02
<VARIANCE> 25
 1.379751e+01 2.384233e+01 2.509141e+01 4.226006e+01 4.326112e+01 3.507351e+01 3.796296e+01 2.430651e+01 3.832958e+01 2.115254e+01 3.177294e+01 2.235921e+01 1.744039e+00 1.988691e+00 3.152684e+00 2.702338e+00 3.324519e+00 4.698524e+00 4.233634e+00 5.673760e+00 5.247174e+00 3.518682e+00 3.157728e+00 2.399274e+00 1.844070e-03
<GCONST> 9.408371e+01
<MIXTURE> 18 1.221018e-02
<MEAN> 25
 3.372402e+00 3.304965e+00 7.218324e+00 4.459366e+00 -3.826301e+00 -7.544536e+00 -2.196294e+00 -5.907155e-01 -4.302739e+00 -3.586971e+00 -4.224216e-01 4.046752e-01 -5.842107e-01 1.991086e+00 -6.500449e-01 1.690915e+00 2.777365e+00 1.609197e+00 8.402033e-01 -6.562497e-03 1.380745e+00 6.118871e-01 -1.250154e+00 -1.217424e-01 -1.205733e-01
<VARIANCE> 25
 1.332572e+01 2.621966e+01 2.819889e+01 2.372230e+01 3.483121e+01 3.431766e+01 3.305667e+01 3.327648e+01 4.492999e+01 3.391071e+01 3.744893e+01 2.562803e+01 2.071576e+00 2.420258e+00 4.225057e+00 3.700799e+00 3.476708e+00 3.762302e+00 3.861766e+00 4.823940e+00 4.958213e+00 3.558613e+00 5.791537e+00 3.100436e+00 3.290803e-03
<GCONST> 9.649292e+01
<MIXTURE> 19 9.912824e-03
<MEAN> 25
 -1.001455e+01 1.404758e+00 4.331769e-02 1.792307e+00 3.952571e+00 1.130234e+00 2.826210e+00 1.200076e+00 2.455163e+00 1.163767e+00 8.943593e-01 1.827022e+00 2.191703e+00 1.568390e+00 2.308604e+00 6.926973e-01 -9.986421e-01 -1.073609e+00 -1.131539e+00 -1.311368e+00 -1.609143e+00 -1.219030e+00 -6.478208e-01 -6.559696e-01 3.370449e-03
<VARIANCE> 25
 4.887098e+01 2.914818e+01 4.378997e+01 5.291048e+01 3.063322e+01 3.204408e+01 3.161316e+01 2.717863e+01 2.663263e+01 2.449392e+01 2.833524e+01 1.831515e+01 2.314942e+00 2.269912e+00 2.335794e+00 2.263584e+00 2.382636e+00 2.185311e+00 2.289092e+00 2.326238e+00 2.104219e+00 1.948096e+00 2.348793e+00 1.838931e+00 2.248487e-03
<GCONST> 9.075730e+01
<MIXTURE> 20 6.308331e-03
<MEAN> 25
 -1.417795e+01 7.411932e+00 8.422312e-01 6.151303e+00 4.840672e+00 1.636990e+00 5.209805e+00 8.557767e-01 9.243812e-01 7.979724e-01 2.567960e+00 -3.011759e-01 -3.285614e+00 -8.668582e-01 -1.564972e+00 3.328743e-01 1.540218e+00 2.061495e+00 1.978607e+00 2.055897e+00 2.143637e+00 2.039311e+00 1.684999e+00 9.451265e-01 4.732053e-02
<VARIANCE> 25
 1.968208e+01 2.348162e+01 3.096427e+01 3.716173e+01 3.085305e+01 2.787786e+01 2.992014e+01 3.147068e+01 2.796016e+01 2.820237e+01 2.515151e+01 2.091353e+01 2.091476e+00 2.181189e+00 1.909143e+00 2.540509e+00 2.703143e+00 2.317502e+00 2.309809e+00 2.319080e+00 2.236233e+00 2.652884e+00 2.241277e+00 1.865000e+00 1.885569e-03
<GCONST> 8.921835e+01
<MIXTURE> 21 7.928653e-03
<MEAN> 25
 4.007822e+00 -4.520080e+00 5.779198e+00 -1.535274e+00 -1.055236e+01 -8.692303e+00 -2.632029e+00 4.153353e+00 -2.069328e+00 -3.408368e+00 2.212938e-01 3.554201e-01 -7.165563e-01 1.331194e+00 2.575402e+00 -4.909990e-02 -1.538104e+00 3.367654e-01 5.866271e-01 -1.497081e+00 -1.956497e+00 3.143962e-01 1.326084e+00 2.461544e-01 -1.264159e-02
<VARIANCE> 25
 8.883483e+00 1.866529e+01 2.955277e+01 2.830942e+01 2.864256e+01 3.325920e+01 4.282295e+01 3.930237e+01 4.291924e+01 3.144409e+01 3.411482e+01 2.315475e+01 3.763002e-01 9.646263e-01 1.874955e+00 1.289895e+00 2.229564e+00 2.179220e+00 3.628093e+00 2.490194e+00 2.150626e+00 2.582119e+00 2.011916e+00 2.276343e+00 4.296511e-04
<GCONST> 8.508929e+01
<MIXTURE> 22 8.827789e-03
<MEAN> 25
 -1.786949e+01 7.166512e+00 -4.157989e+00 7.208396e+00 4.675455e+00 2.697216e+00 8.247858e+00 1.814270e+00 5.351973e+00 3.377002e+00 5.682556e+00 1.060835e+00 -2.993563e-01 -2.167294e-01 -1.083667e-01 -1.351723e-01 1.119536e-02 1.362218e-01 1.842129e-01 1.933484e-01 2.443555e-01 2.068183e-01 1.632304e-01 2.048265e-01 8.261871e-03
<VARIANCE> 25
 8.213405e+00 1.691913e+01 1.727216e+01 2.704715e+01 2.329272e+01 2.077682e+01 2.067973e+01 1.869883e+01 1.792895e+01 2.121700e+01 1.933457e+01 1.473087e+01 1.095282e+00 1.339713e+00 1.366377e+00 1.562220e+00 1.406531e+00 1.512265e+00 1.493909e+00 1.542404e+00 1.595990e+00 1.541295e+00 1.350305e+00 1.190447e+00 1.754371e-03
<GCONST> 7.852080e+01
<MIXTURE> 23 6.455497e-03
<MEAN> 25
 7.590122e+00 2.010798e+00 3.228430e+00 3.239615e+00 -4.419198e+00 -3.406902e+00 -3.693981e+00 -5.488107e+00 -2.636862e+00 -1.793123e+00 -4.429823e+00 -1.227039e+00 4.780623e-02 1.117311e-01 -2.523678e-03 4.211201e-02 5.428365e-02 4.960464e-02 5.617169e-02 -4.903456e-02 -1.083540e-01 5.046663e-02 5.458003e-02 8.660697e-02 -3.918127e-03
<VARIANCE> 25
 9.394206e+00 2.051029e+01 2.169247e+01 4.437148e+01 3.685921e+01 4.613174e+01 5.364491e+01 5.136521e+01 4.387590e+01 4.314055e+01 4.301450e+01 3.821040e+01 1.109329e-01 3.058142e-01 3.751223e-01 4.582328e-01 5.580372e-01 6.938625e-01 6.826882e-01 8.119258e-01 8.480188e-01 8.192242e-01 7.998135e-01 6.944913e-01 9.008731e-05
<GCONST> 7.143764e+01
<MIXTURE> 24 6.455497e-03
<MEAN> 25
 7.590122e+00 2.010798e+00 3.228430e+00 3.239615e+00 -4.419198e+00 -3.406902e+00 -3.693981e+00 -5.488107e+00 -2.636862e+00 -1.793123e+00 -4.429823e+00 -1.227039e+00 4.780623e-02 1.117311e-01 -2.523678e-03 4.211201e-02 5.428365e-02 4.960464e-02 5.617169e-02 -4.903456e-02 -1.083540e-01 5.046663e-02 5.458003e-02 8.660697e-02 -3.918127e-03
<VARIANCE> 25
 9.394206e+00 2.051029e+01 2.169247e+01 4.437148e+01 3.685921e+01 4.613174e+01 5.364491e+01 5.136521e+01 4.387590e+01 4.314055e+01 4.301450e+01 3.821040e+01 1.109329e-01 3.058142e-01 3.751223e-01 4.582328e-01 5.580372e-01 6.938625e-01 6.826882e-01 8.119258e-01 8.480188e-01 8.192242e-01 7.998135e-01 6.944913e-01 9.008731e-05
<GCONST> 7.143764e+01
<MIXTURE> 25 1.118642e-02
<MEAN> 25
 -1.045634e-01 2.428530e+00 1.533426e+01 -9.431102e-01 -8.574792e+00 -3.158999e+00 -4.902641e+00 -2.998569e+00 -9.948499e+00 -4.764384e+00 6.070033e+00 -1.739610e+00 -1.172573e-01 6.099431e-01 -4.544635e-02 -1.904157e-01 2.737446e-01 3.453196e-01 -1.290873e-01 -8.984685e-02 8.394224e-02 1.835520e-01 -2.204885e-01 -1.822542e-01 -1.096661e-02
<VARIANCE> 25
 5.951621e+00 1.727045e+01 1.458614e+01 1.831104e+01 2.768186e+01 3.211094e+01 1.689790e+01 1.912758e+01 2.723972e+01 2.652300e+01 1.907011e+01 1.854634e+01 5.649205e-01 1.320836e+00 1.265695e+00 1.359819e+00 2.849641e+00 1.388951e+00 1.462925e+00 1.297109e+00 1.461407e+00 1.462409e+00 1.368525e+00 9.122654e-01 1.244484e-03
<GCONST> 7.774540e+01
<MIXTURE> 26 7.727677e-03
<MEAN> 25
 2.521380e+00 -6.153648e+00 -1.038471e+01 -8.010089e-01 7.896268e+00 5.275092e+00 3.983931e+00 -5.548832e-01 2.054268e+00 -2.084133e-01 -2.765171e+00 -1.021636e+00 -6.682709e-01 7.042900e-01 4.345630e-01 7.492961e-01 1.584443e-01 2.280876e-01 3.036560e-01 3.934008e-01 3.545645e-01 -1.984885e-02 4.039195e-01 4.897590e-01 -5.385573e-02
<VARIANCE> 25
 2.579764e+01 3.331801e+01 2.490256e+01 5.891886e+01 3.706876e+01 4.049904e+01 4.333992e+01 4.263061e+01 3.791459e+01 6.008659e+01 3.842213e+01 4.413379e+01 1.631118e+00 1.957630e+00 1.941775e+00 1.946287e+00 2.201511e+00 2.231056e+00 2.369918e+00 2.637533e+00 2.269429e+00 2.379441e+00 2.142518e+00 1.951766e+00 3.208315e-03
<GCONST> 9.328706e+01
<MIXTURE> 27 7.727677e-03
<MEAN> 25
 2.521380e+00 -6.153648e+00 -1.038471e+01 -8.010089e-01 7.896268e+00 5.275092e+00 3.983931e+00 -5.548832e-01 2.054268e+00 -2.084133e-01 -2.765171e+00 -1.021636e+00 -6.682709e-01 7.042900e-01 4.345630e-01 7.492961e-01 1.584443e-01 2.280876e-01 3.036560e-01 3.934008e-01 3.545645e-01 -1.984885e-02 4.039195e-01 4.897590e-01 -5.385573e-02
<VARIANCE> 25
 2.579764e+01 3.331801e+01 2.490256e+01 5.891886e+01 3.706876e+01 4.049904e+01 4.333992e+01 4.263061e+01 3.791459e+01 6.008659e+01 3.842213e+01 4.413379e+01 1.631118e+00 1.957630e+00 1.941775e+00 1.946287e+00 2.201511e+00 2.231056e+00 2.369918e+00 2.637533e+00 2.269429e+00 2.379441e+00 2.142518e+00 1.951766e+00 3.208315e-03
<GCONST> 9.328706e+01
<MIXTURE> 28 5.036674e-03
<MEAN> 25
 -5.416312e+00 -7.197221e-02 -1.519453e+00 6.529830e+00 5.079500e+00 3.817419e+00 5.577500e+00 3.382782e+00 4.347095e+00 2.093932e+00 2.115340e+00 3.237766e+00 -1.123483e-01 1.919950e-01 5.042117e-01 7.600027e-01 8.401912e-01 7.290627e-01 5.252816e-01 3.514154e-01 4.096335e-01 5.170341e-01 3.863819e-01 1.754626e-01 2.480521e-05
<VARIANCE> 25
 9.805902e+00 7.968231e+00 1.159907e+01 1.408051e+01 1.463280e+01 1.841139e+01 1.735619e+01 1.891245e+01 1.914741e+01 1.801138e+01 2.338878e+01 1.425078e+01 2.460085e-01 3.342320e-01 3.992429e-01 4.493546e-01 6.405259e-01 8.164420e-01 1.047487e+00 1.127848e+00 1.093534e+00 1.016131e+00 9.877246e-01 1.190201e+00 1.061817e-06
<GCONST> 6.025701e+01
<MIXTURE> 29 5.036674e-03
<MEAN> 25
 -5.416312e+00 -7.197221e-02 -1.519453e+00 6.529830e+00 5.079500e+00 3.817419e+00 5.577500e+00 3.382782e+00 4.347095e+00 2.093932e+00 2.115340e+00 3.237766e+00 -1.123483e-01 1.919950e-01 5.042117e-01 7.600027e-01 8.401912e-01 7.290627e-01 5.252816e-01 3.514154e-01 4.096335e-01 5.170341e-01 3.863819e-01 1.754626e-01 2.480521e-05
<VARIANCE> 25
 9.805902e+00 7.968231e+00 1.159907e+01 1.408051e+01 1.463280e+01 1.841139e+01 1.735619e+01 1.891245e+01 1.914741e+01 1.801138e+01 2.338878e+01 1.425078e+01 2.460085e-01 3.342320e-01 3.992429e-01 4.493546e-01 6.405259e-01 8.164420e-01 1.047487e+00 1.127848e+00 1.093534e+00 1.016131e+00 9.877246e-01 1.190201e+00 1.061817e-06
<GCONST> 6.025701e+01
<MIXTURE> 30 8.917812e-03
<MEAN> 25
 -4.645898e+00 -5.126074e-01 5.045711e-01 8.889131e+00 7.537549e+00 7.661877e+00 7.873821e+00 6.440418e+00 6.819522e+00 4.549206e+00 5.389584e+00 3.637745e+00 -1.031630e-02 2.059057e-02 7.712024e-02 1.003887e-01 1.522978e-02 -4.767641e-02 1.882965e-03 -1.062028e-01 5.678997e-02 1.710574e-01 2.634005e-02 1.183696e-02 9.696894e-05
<VARIANCE> 25
 6.239313e+00 9.175252e+00 9.278377e+00 1.241209e+01 1.453018e+01 1.490468e+01 1.867613e+01 1.724814e+01 1.516655e+01 1.717945e+01 3.381003e+01 1.310676e+01 8.923771e-02 1.802158e-01 3.012691e-01 4.282429e-01 7.561780e-01 7.191967e-01 7.054396e-01 8.401692e-01 8.168989e-01 1.105743e+00 8.318219e-01 8.784826e-01 4.833539e-05
<GCONST> 5.988740e+01
<MIXTURE> 31 4.136493e-03
<MEAN> 25
 -3.304394e+00 -5.685531e+00 5.989853e-02 4.882003e+00 3.683968e+00 1.693470e+00 5.245421e+00 6.648465e+00 2.741951e+00 1.236747e+00 6.509986e+00 3.155661e+00 2.527720e-01 4.754428e-01 -2.112437e-01 3.075373e-01 1.210380e-01 4.222620e-01 1.896957e-01 1.266973e-02 3.794876e-01 3.837157e-01 1.075715e-01 1.171767e-01 -1.835702e-02
<VARIANCE> 25
 7.171135e+00 1.527383e+01 1.747224e+01 1.796559e+01 2.528728e+01 2.386739e+01 2.359731e+01 2.530998e+01 2.593498e+01 2.801753e+01 2.055601e+01 1.870727e+01 1.912621e-01 4.927085e-01 6.028728e-01 7.668581e-01 9.672349e-01 1.094195e+00 1.221580e+00 1.394102e+00 1.346409e+00 1.314993e+00 1.243361e+00 1.135075e+00 2.574764e-04
<GCONST> 7.183469e+01
<MIXTURE> 32 4.136493e-03
<MEAN> 25
 -3.304394e+00 -5.685531e+00 5.989853e-02 4.882003e+00 3.683968e+00 1.693470e+00 5.245421e+00 6.648465e+00 2.741951e+00 1.236747e+00 6.509986e+00 3.155661e+00 2.527720e-01 4.754428e-01 -2.112437e-01 3.075373e-01 1.210380e-01 4.222620e-01 1.896957e-01 1.266973e-02 3.794876e-01 3.837157e-01 1.075715e-01 1.171767e-01 -1.835702e-02
<VARIANCE> 25
 7.171135e+00 1.527383e+01 1.747224e+01 1.796559e+01 2.528728e+01 2.386739e+01 2.359731e+01 2.530998e+01 2.593498e+01 2.801753e+01 2.055601e+01 1.870727e+01 1.912621e-01 4.927085e-01 6.028728e-01 7.668581e-01 9.672349e-01 1.094195e+00 1.221580e+00 1.394102e+00 1.346409e+00 1.314993e+00 1.243361e+00 1.135075e+00 2.574764e-04
<GCONST> 7.183469e+01
<MIXTURE> 33 1.508826e-02
<MEAN> 25
 6.121305e+00 -4.096403e+00 -2.049282e+00 -2.105880e+00 -1.751022e+00 -3.662227e+00 -5.923087e+00 -1.065746e+00 1.281496e+00 1.848230e+00 -4.201010e+00 -1.811845e+00 5.186335e-01 -1.359853e+00 -2.554047e+00 -1.933369e+00 1.295007e+00 1.128528e+00 -6.590385e-01 8.725958e-01 4.426631e-01 9.517078e-01 2.833220e-01 -1.566989e+00 4.004531e-02
<VARIANCE> 25
 8.548570e+00 1.688853e+01 2.330071e+01 2.895369e+01 3.314179e+01 3.802085e+01 3.458700e+01 4.914322e+01 3.116984e+01 5.205942e+01 2.746913e+01 2.488846e+01 9.597579e-01 1.761584e+00 1.787701e+00 1.966286e+00 3.232921e+00 2.607262e+00 3.102489e+00 5.121614e+00 3.481017e+00 3.559767e+00 3.705970e+00 2.245711e+00 1.140669e-03
<GCONST> 9.046937e+01
<MIXTURE> 34 1.588179e-02
<MEAN> 25
 8.500943e+00 -4.781869e-01 -2.420441e-01 7.263067e-01 -3.737318e+00 -7.685300e-01 -5.248376e+00 -5.098071e+00 -1.662367e+00 4.259496e-01 -1.492233e+00 -4.062888e+00 -1.190005e-01 1.309411e+00 1.495932e+00 2.467641e+00 2.820895e-01 -2.063194e-01 6.968066e-01 -1.375566e+00 -5.772275e-01 3.523268e-01 -1.045048e+00 4.724106e-01 -6.419232e-02
<VARIANCE> 25
 7.159134e+00 2.748033e+01 2.716852e+01 5.005439e+01 3.999974e+01 4.514297e+01 4.791482e+01 5.086853e+01 4.332249e+01 4.170355e+01 5.387821e+01 3.001963e+01 1.104816e+00 2.346155e+00 3.571676e+00 3.834121e+00 5.022426e+00 4.858442e+00 4.920404e+00 5.313855e+00 4.861827e+00 4.153285e+00 5.281737e+00 3.452810e+00 1.131296e-03
<GCONST> 9.778128e+01
<MIXTURE> 35 1.467755e-02
<MEAN> 25
 -1.936774e+00 -5.338361e+00 -1.110212e+01 -4.645281e-01 9.553848e+00 1.585648e+00 -3.432831e-01 1.629115e+00 -1.742176e-01 6.492510e+00 1.635844e+00 1.368335e+00 5.300210e-01 -1.153432e+00 -1.613827e+00 -1.176261e+00 4.778278e-01 -7.390719e-01 -8.367175e-01 6.037491e-02 -4.153168e-01 4.377220e-01 1.662462e-01 -1.100327e+00 1.110266e-01
<VARIANCE> 25
 1.646208e+01 2.680263e+01 4.737169e+01 5.339635e+01 3.938338e+01 5.044069e+01 5.812599e+01 3.977287e+01 5.374279e+01 5.539553e+01 4.267765e+01 2.842943e+01 2.874887e+00 2.984548e+00 6.142042e+00 4.812984e+00 5.102451e+00 5.115100e+00 4.135730e+00 3.983094e+00 4.666685e+00 4.265500e+00 5.625635e+00 5.442955e+00 4.378128e-03
<GCONST> 1.028931e+02
<MIXTURE> 36 1.093293e-02
<MEAN> 25
 4.795858e+00 -3.570760e+00 6.891423e+00 2.398809e+00 -9.379913e+00 -8.900634e+00 -5.929367e+00 2.732657e+00 -2.329657e+00 -4.100186e+00 3.354320e+00 2.796348e-01 3.082025e-01 1.509958e-01 -9.386736e-01 -9.754853e-02 9.241237e-01 1.289391e-01 -4.767110e-01 5.669760e-02 5.414640e-01 5.413572e-01 -4.325677e-01 -4.070018e-01 -1.482132e-02
<VARIANCE> 25
 9.291248e+00 1.534553e+01 2.273669e+01 2.549281e+01 3.146008e+01 2.948012e+01 4.205005e+01 3.323927e+01 4.017128e+01 3.835948e+01 3.239477e+01 2.506212e+01 4.459050e-01 6.811739e-01 1.807572e+00 1.274996e+00 1.489141e+00 1.553130e+00 1.956438e+00 1.605381e+00 2.759725e+00 1.594684e+00 1.371973e+00 1.367682e+00 6.671292e-04
<GCONST> 8.180869e+01
<MIXTURE> 37 1.246826e-02
<MEAN> 25
 6.316680e-01 7.580439e+00 1.176157e+01 -5.217930e+00 -7.320598e+00 -9.160293e-01 -5.078505e+00 -7.844921e+00 -4.208729e+00 -6.647403e-01 -3.212735e+00 -1.436678e+00 2.465398e-01 5.840268e-01 -1.435400e+00 3.501825e+00 1.957713e+00 -3.250878e-01 1.088634e+00 4.133830e-01 7.995836e-01 -3.440860e-01 2.846066e-01 3.182970e-02 -9.127395e-02
<VARIANCE> 25
 1.492257e+01 2.506246e+01 3.030828e+01 4.891075e+01 3.809316e+01 3.030947e+01 4.081607e+01 3.526533e+01 4.052411e+01 3.475031e+01 3.850904e+01 2.934269e+01 2.790231e+00 3.252445e+00 2.914813e+00 4.032710e+00 4.380486e+00 3.589796e+00 3.937675e+00 3.570648e+00 4.135304e+00 3.481120e+00 4.385862e+00 2.844610e+00 3.828672e-03
<GCONST> 9.746994e+01
<MIXTURE> 38 1.154525e-02
<MEAN> 25
 -4.265341e+00 8.804860e+00 4.091029e+00 2.920472e+00 1.035097e+00 -5.436823e+00 -5.363402e-01 -1.854721e+00 -2.471545e+00 -2.758781e+00 -1.704930e+00 -7.347412e-01 -4.573959e+00 1.416865e+00 -2.169165e-01 1.274067e+00 2.577899e+00 1.367628e+00 1.903068e+00 1.114249e+00 7.658722e-01 5.617295e-01 8.761427e-01 4.486372e-01 4.587715e-02
<VARIANCE> 25
 3.044245e+01 2.844317e+01 4.117838e+01 3.311638e+01 4.679986e+01 3.451672e+01 3.446696e+01 5.325298e+01 3.541215e+01 3.275710e+01 2.381572e+01 2.811495e+01 2.376561e+00 4.229684e+00 3.853045e+00 5.441803e+00 4.032301e+00 4.772960e+00 4.893401e+00 4.859128e+00 4.218383e+00 4.787625e+00 4.463484e+00 3.379801e+00 2.060049e-03
<GCONST> 9.940483e+01
<MIXTURE> 39 9.501865e-03
<MEAN> 25
 1.319241e+00 2.431561e+00 1.029613e+01 -8.630157e+00 -1.093443e+01 -1.152553e+00 -2.898935e+00 -6.307923e+00 -5.059885e+00 6.964957e-01 -3.157714e+00 -2.173776e+00 -7.346888e-01 1.470316e+00 1.591327e+00 -1.485914e+00 5.143064e-02 1.229463e+00 -1.311890e+00 -1.200236e+00 3.385807e-01 4.785716e-01 -4.625540e-01 3.244258e-02 2.787531e-03
<VARIANCE> 25
 8.508757e+00 2.980989e+01 3.159054e+01 4.177013e+01 3.931119e+01 4.103730e+01 4.226931e+01 3.291687e+01 4.527468e+01 3.191434e+01 4.019262e+01 2.833422e+01 6.584770e-01 1.514915e+00 1.473083e+00 2.932197e+00 2.334299e+00 2.673465e+00 3.120310e+00 2.650984e+00 2.475791e+00 2.494034e+00 2.046162e+00 2.096478e+00 1.194360e-03
<GCONST> 8.955663e+01
<MIXTURE> 40 1.030800e-02
<MEAN> 25
 -9.498047e+00 1.657373e+00 -1.707565e+00 7.884335e+00 3.478169e+00 4.865678e+00 5.270289e+00 4.423031e+00 4.777604e+00 3.967064e+00 5.608315e+00 1.698086e+00 -2.110196e-01 -2.673379e-01 7.013530e-03 -5.378275e-02 3.746900e-02 -2.060001e-01 -4.706025e-02 8.675433e-02 3.703285e-03 4.050174e-02 4.342607e-02 -5.746180e-02 6.090277e-03
<VARIANCE> 25
 3.813956e+01 2.051657e+01 2.982696e+01 2.551119e+01 2.466889e+01 2.076178e+01 1.794528e+01 1.685151e+01 1.582613e+01 1.830616e+01 1.897745e+01 1.411232e+01 8.631637e-01 6.813555e-01 9.031101e-01 1.227997e+00 1.181547e+00 1.206371e+00 1.453009e+00 1.245419e+00 1.135052e+00 1.110972e+00 1.124707e+00 1.060463e+00 8.457269e-04
<GCONST> 7.630659e+01
<MIXTURE> 41 6.713375e-03
<MEAN> 25
 1.251374e+00 1.810050e+00 1.032184e+01 -6.615706e+00 -9.501172e+00 -3.787532e+00 -2.912757e+00 -4.739465e+00 -4.951076e+00 2.527941e+00 -1.384880e+00 -8.845465e-01 1.228273e-01 -8.177633e-01 1.715553e+00 -3.341537e+00 -2.535661e+00 -3.931857e-02 -4.962787e-01 -4.457943e-01 -1.003225e+00 1.171995e+00 -7.897623e-01 -3.001172e-02 8.194838e-02
<VARIANCE> 25
 1.085234e+01 2.769120e+01 3.131010e+01 3.989092e+01 4.604746e+01 3.683347e+01 3.803196e+01 2.814427e+01 3.464886e+01 2.745750e+01 3.181484e+01 2.491480e+01 2.916181e+00 3.167023e+00 3.557574e+00 4.125433e+00 4.690724e+00 5.572932e+00 4.709989e+00 4.290586e+00 4.046838e+00 4.117413e+00 4.239853e+00 3.188391e+00 2.854162e-03
<GCONST> 9.746480e+01
<MIXTURE> 42 1.106211e-02
<MEAN> 25
 -1.186037e+00 4.336849e+00 4.153361e+00 2.686806e+00 1.248633e+00 -4.983801e+00 -1.237931e+00 -2.095272e+00 -1.044209e+00 -1.141320e-01 -2.491221e+00 1.974599e+00 3.784301e+00 -6.336876e-01 1.488097e+00 2.153185e-01 -2.734758e+00 -7.670469e-01 -1.912907e+00 -1.305104e+00 -1.062041e+00 -5.097821e-01 5.378553e-01 -6.235651e-01 1.276254e-02
<VARIANCE> 25
 3.126339e+01 1.849863e+01 3.697504e+01 2.624074e+01 3.579559e+01 3.664074e+01 3.260452e+01 2.904782e+01 2.565578e+01 3.092242e+01 1.867871e+01 1.654119e+01 3.904699e+00 4.232194e+00 5.030950e+00 5.157573e+00 3.967372e+00 5.604652e+00 4.949442e+00 6.526322e+00 4.532835e+00 4.189433e+00 4.034114e+00 3.515472e+00 3.733449e-03
<GCONST> 9.826973e+01
<MIXTURE> 43 7.108249e-03
<MEAN> 25
 3.149626e+00 -6.185602e+00 -2.285625e+00 -5.243650e+00 -7.458068e+00 -3.421828e+00 4.086584e+00 1.285789e+00 -4.880737e+00 -7.036882e+00 -4.412537e+00 -1.183173e+00 2.575285e-01 2.146906e+00 1.877099e+00 -1.681040e-01 -1.468095e+00 -8.453084e-01 -9.889047e-01 -7.624313e-01 8.165893e-01 1.470033e+00 3.776252e-01 4.255924e-02 -4.408772e-02
<VARIANCE> 25
 9.472554e+00 2.034329e+01 2.700323e+01 3.487434e+01 3.803838e+01 3.610620e+01 3.296919e+01 3.925396e+01 4.115830e+01 3.827363e+01 2.667811e+01 2.939640e+01 7.057391e-01 1.251079e+00 1.632616e+00 2.533989e+00 2.438035e+00 2.515496e+00 2.639230e+00 2.998204e+00 2.568628e+00 2.537930e+00 2.375504e+00 1.920170e+00 9.954304e-04
<GCONST> 8.813102e+01
<MIXTURE> 44 7.328289e-03
<MEAN> 25
 -1.539700e+01 2.490059e+00 2.435984e+00 -3.581872e+00 3.916663e+00 1.614248e+00 -3.862823e-01 2.709994e+00 1.756248e+00 2.610725e-01 2.092361e+00 8.780921e-01 -1.034610e-01 -9.166929e-02 2.884216e-01 3.482975e-01 1.806013e-02 2.478001e-01 4.375806e-01 1.270228e-01 1.633130e-01 2.296427e-01 4.317624e-02 1.226064e-01 9.425615e-04
<VARIANCE> 25
 3.783574e+01 3.155445e+01 4.019489e+01 2.819643e+01 2.935128e+01 2.814719e+01 2.334294e+01 2.952213e+01 2.505240e+01 3.388678e+01 2.683026e+01 2.567815e+01 1.180140e+00 1.427082e+00 1.354908e+00 1.231014e+00 2.056801e+00 1.532126e+00 1.400829e+00 1.673798e+00 1.489102e+00 1.538613e+00 1.357911e+00 1.350656e+00 1.319483e-03
<GCONST> 8.443410e+01
<MIXTURE> 45 1.364932e-02
<MEAN> 25
 -1.188209e+01 4.604082e+00 -2.714422e+00 1.704205e+00 6.204925e+00 -1.051493e+00 4.328042e+00 4.406353e+00 4.200656e+00 2.264339e+00 1.558228e+00 1.957204e+00 -3.214750e+00 8.216873e-01 -3.901640e-01 -7.299315e-01 3.141336e-01 1.630940e-01 1.577328e-01 -7.248978e-02 -2.269735e-01 -1.680586e-01 5.283117e-01 2.503894e-02 1.024403e-01
<VARIANCE> 25
 3.166143e+01 3.410381e+01 3.147902e+01 3.506613e+01 2.944396e+01 2.955879e+01 2.415688e+01 3.198876e+01 2.367932e+01 1.994735e+01 2.636980e+01 1.465015e+01 2.675749e+00 2.994826e+00 2.285560e+00 2.691888e+00 2.191185e+00 2.461257e+00 2.268619e+00 2.906250e+00 1.800163e+00 1.986366e+00 2.011093e+00 1.501595e+00 3.930620e-03
<GCONST> 8.978072e+01
<MIXTURE> 46 9.336259e-03
<MEAN> 25
 -9.478601e+00 2.374387e+00 1.149273e+00 7.450171e+00 5.990806e+00 3.268606e+00 6.985779e+00 4.513028e+00 5.688041e+00 4.703432e+00 4.966947e+00 2.858860e+00 1.075718e+00 -2.479299e-01 5.374720e-02 1.003906e+00 5.909836e-01 9.310488e-01 3.890504e-01 6.585111e-01 4.674811e-01 5.027635e-01 6.202171e-01 5.397214e-01 -1.050101e-01
<VARIANCE> 25
 3.426397e+01 4.376083e+01 3.830934e+01 5.071066e+01 5.063449e+01 4.073617e+01 3.719977e+01 3.519707e+01 3.284982e+01 3.086383e+01 2.855690e+01 2.058708e+01 3.949648e+00 4.101283e+00 3.852912e+00 4.123791e+00 4.160304e+00 3.673053e+00 3.350084e+00 3.201118e+00 2.975040e+00 2.856761e+00 2.343423e+00 1.794886e+00 7.917036e-03
<GCONST> 9.832610e+01
<MIXTURE> 47 7.116147e-03
<MEAN> 25
 7.172570e+00 -7.530416e+00 -7.929403e+00 -6.432278e+00 1.488766e+00 6.084475e-01 -2.272818e+00 1.149490e+00 2.497395e+00 1.057267e+00 -3.326015e+00 -7.253296e+00 -1.013934e-01 -1.184070e+00 -7.769065e-01 -3.728699e-01 6.361201e-01 6.985899e-01 1.007258e+00 2.958708e-01 1.591766e-01 -8.252341e-01 -4.543602e-01 -4.806536e-01 3.026437e-02
<VARIANCE> 25
 1.009825e+01 1.942064e+01 1.925664e+01 3.018591e+01 3.486505e+01 4.898077e+01 4.138617e+01 3.751440e+01 4.220742e+01 5.329218e+01 5.994519e+01 3.911013e+01 5.331326e-01 7.559945e-01 1.149534e+00 1.690015e+00 1.816155e+00 2.207898e+00 2.341321e+00 2.290215e+00 2.215249e+00 2.044682e+00 2.203217e+00 1.886315e+00 5.161937e-04
<GCONST> 8.604926e+01
<MIXTURE> 48 7.116147e-03
<MEAN> 25
 7.172570e+00 -7.530416e+00 -7.929403e+00 -6.432278e+00 1.488766e+00 6.084475e-01 -2.272818e+00 1.149490e+00 2.497395e+00 1.057267e+00 -3.326015e+00 -7.253296e+00 -1.013934e-01 -1.184070e+00 -7.769065e-01 -3.728699e-01 6.361201e-01 6.985899e-01 1.007258e+00 2.958708e-01 1.591766e-01 -8.252341e-01 -4.543602e-01 -4.806536e-01 3.026437e-02
<VARIANCE> 25
 1.009825e+01 1.942064e+01 1.925664e+01 3.018591e+01 3.486505e+01 4.898077e+01 4.138617e+01 3.751440e+01 4.220742e+01 5.329218e+01 5.994519e+01 3.911013e+01 5.331326e-01 7.559945e-01 1.149534e+00 1.690015e+00 1.816155e+00 2.207898e+00 2.341321e+00 2.290215e+00 2.215249e+00 2.044682e+00 2.203217e+00 1.886315e+00 5.161937e-04
<GCONST> 8.604926e+01
<MIXTURE> 49 5.548473e-03
<MEAN> 25
 -5.098626e+00 2.865458e-01 1.369490e-01 8.404193e+00 6.105091e+00 5.668493e+00 6.090559e+00 4.405737e+00 5.090483e+00 3.681424e+00 4.656060e+00 2.847772e+00 3.675232e-01 6.497313e-01 6.997413e-01 3.425590e-01 -2.090877e-01 -6.713709e-01 -1.000666e+00 -1.081259e+00 -9.085802e-01 -6.575199e-01 -4.789921e-01 -2.565354e-01 1.680335e-05
<VARIANCE> 25
 9.391894e+00 9.967847e+00 1.396591e+01 1.560031e+01 1.583537e+01 1.683969e+01 1.909390e+01 1.927617e+01 1.819562e+01 1.766376e+01 2.313447e+01 1.411240e+01 2.752170e-01 2.607541e-01 3.546705e-01 6.060541e-01 8.720773e-01 9.577401e-01 9.826836e-01 1.113563e+00 1.213501e+00 1.226534e+00 1.260031e+00 1.198674e+00 1.463030e-05
<GCONST> 6.434130e+01
<MIXTURE> 50 6.234641e-03
<MEAN> 25
 -4.736180e+00 -9.983572e-02 -1.437232e+00 6.235146e+00 4.045105e+00 2.627770e+00 3.962331e+00 1.939923e+00 2.982209e+00 1.089384e+00 1.633713e+00 2.834967e+00 6.481478e-02 1.744970e-01 8.291305e-02 -1.901131e-01 -5.719795e-01 -6.294968e-01 -3.661859e-01 -2.710851e-02 4.974043e-01 8.308377e-01 6.699375e-01 3.704238e-01 -7.167460e-06
<VARIANCE> 25
 9.991286e+00 1.103360e+01 1.356480e+01 1.451972e+01 1.551175e+01 1.940970e+01 1.882972e+01 1.854768e+01 1.830648e+01 1.826390e+01 2.439914e+01 1.441744e+01 1.422096e-01 2.288798e-01 3.586214e-01 4.965353e-01 6.882752e-01 7.316640e-01 9.632858e-01 1.126220e+00 1.069299e+00 9.180580e-01 9.697267e-01 1.048192e+00 1.008818e-06
<GCONST> 5.960686e+01
<MIXTURE> 51 6.234641e-03
<MEAN> 25
 -4.736180e+00 -9.983572e-02 -1.437232e+00 6.235146e+00 4.045105e+00 2.627770e+00 3.962331e+00 1.939923e+00 2.982209e+00 1.089384e+00 1.633713e+00 2.834967e+00 6.481478e-02 1.744970e-01 8.291305e-02 -1.901131e-01 -5.719795e-01 -6.294968e-01 -3.661859e-01 -2.710851e-02 4.974043e-01 8.308377e-01 6.699375e-01 3.704238e-01 -7.167460e-06
<VARIANCE> 25
 9.991286e+00 1.103360e+01 1.356480e+01 1.451972e+01 1.551175e+01 1.940970e+01 1.882972e+01 1.854768e+01 1.830648e+01 1.826390e+01 2.439914e+01 1.441744e+01 1.422096e-01 2.288798e-01 3.586214e-01 4.965353e-01 6.882752e-01 7.316640e-01 9.632858e-01 1.126220e+00 1.069299e+00 9.180580e-01 9.697267e-01 1.048192e+00 1.008818e-06
<GCONST> 5.960686e+01
<MIXTURE> 52 6.367945e-03
<MEAN> 25
 9.998722e+00 2.132307e+00 -5.898486e+00 -1.442767e+01 -4.975850e+00 8.188634e+00 -2.594448e+00 -2.776791e+00 -4.257362e+00 -2.669591e+00 3.275518e+00 4.216856e-01 -3.753194e-01 -5.822952e-01 7.216319e-02 1.294254e+00 1.265498e+00 -3.892814e-01 -5.802595e-01 -6.474779e-01 1.218797e-01 1.179698e+00 3.096239e-02 -3.548880e-01 -1.542301e-02
<VARIANCE> 25
 8.780667e+00 2.002906e+01 2.474350e+01 3.714421e+01 4.849078e+01 3.033995e+01 4.335825e+01 4.647934e+01 4.029458e+01 4.618349e+01 3.982431e+01 2.960910e+01 4.208999e-01 1.509486e+00 1.479627e+00 3.016938e+00 2.312165e+00 2.179325e+00 2.844935e+00 2.584084e+00 2.882575e+00 2.537624e+00 4.033298e+00 2.598615e+00 1.503060e-03
<GCONST> 8.993755e+01
<MIXTURE> 53 6.367945e-03
<MEAN> 25
 9.998722e+00 2.132307e+00 -5.898486e+00 -1.442767e+01 -4.975850e+00 8.188634e+00 -2.594448e+00 -2.776791e+00 -4.257362e+00 -2.669591e+00 3.275518e+00 4.216856e-01 -3.753194e-01 -5.822952e-01 7.216319e-02 1.294254e+00 1.265498e+00 -3.892814e-01 -5.802595e-01 -6.474779e-01 1.218797e-01 1.179698e+00 3.096239e-02 -3.548880e-01 -1.542301e-02
<VARIANCE> 25
 8.780667e+00 2.002906e+01 2.474350e+01 3.714421e+01 4.849078e+01 3.033995e+01 4.335825e+01 4.647934e+01 4.029458e+01 4.618349e+01 3.982431e+01 2.960910e+01 4.208999e-01 1.509486e+00 1.479627e+00 3.016938e+00 2.312165e+00 2.179325e+00 2.844935e+00 2.584084e+00 2.882575e+00 2.537624e+00 4.033298e+00 2.598615e+00 1.503060e-03
<GCONST> 8.993755e+01
<MIXTURE> 54 7.368620e-03
<MEAN> 25
 -3.660210e+00 3.705064e-03 -7.015978e-01 7.998429e+00 6.456153e+00 4.660141e+00 4.715180e+00 4.582772e+00 4.130068e+00 3.523736e+00 4.293432e+00 2.378852e+00 -2.205272e-03 2.483153e-02 3.159403e-02 5.256125e-02 5.257663e-02 5.170502e-02 4.972533e-02 2.640383e-02 3.382661e-02 1.832872e-02 2.898364e-02 2.660140e-03 1.182023e-05
<VARIANCE> 25
 9.047366e+00 1.036041e+01 9.201084e+00 1.802292e+01 1.327246e+01 1.349755e+01 1.194945e+01 1.116907e+01 1.161392e+01 1.385238e+01 1.931368e+01 1.257370e+01 4.084701e-02 8.770877e-02 1.527950e-01 2.274059e-01 3.059371e-01 3.942576e-01 4.672422e-01 5.175959e-01 5.378714e-01 5.231277e-01 5.274256e-01 5.130461e-01 1.050288e-06
<GCONST> 4.738590e+01
<MIXTURE> 55 7.368620e-03
<MEAN> 25
 -3.660210e+00 3.705064e-03 -7.015978e-01 7.998429e+00 6.456153e+00 4.660141e+00 4.715180e+00 4.582772e+00 4.130068e+00 3.523736e+00 4.293432e+00 2.378852e+00 -2.205272e-03 2.483153e-02 3.159403e-02 5.256125e-02 5.257663e-02 5.170502e-02 4.972533e-02 2.640383e-02 3.382661e-02 1.832872e-02 2.898364e-02 2.660140e-03 1.182023e-05
<VARIANCE> 25
 9.047366e+00 1.036041e+01 9.201084e+00 1.802292e+01 1.327246e+01 1.349755e+01 1.194945e+01 1.116907e+01 1.161392e+01 1.385238e+01 1.931368e+01 1.257370e+01 4.084701e-02 8.770877e-02 1.527950e-01 2.274059e-01 3.059371e-01 3.942576e-01 4.672422e-01 5.175959e-01 5.378714e-01 5.231277e-01 5.274256e-01 5.130461e-01 1.050288e-06
<GCONST> 4.738590e+01
<MIXTURE> 56 6.132464e-03
<MEAN> 25
 7.542025e+00 -6.787686e+00 -9.103784e+00 -8.352397e+00 3.757586e+00 3.825525e+00 -2.085919e+00 -1.745633e+00 1.550605e+00 1.308122e+00 -2.194864e+00 -7.041882e+00 1.255387e-02 1.009940e-01 -1.511081e-01 7.638524e-02 2.646795e-01 5.745632e-02 2.084933e-01 -1.837463e-01 -1.419784e-02 -4.709159e-02 -2.861842e-03 -2.276311e-02 -7.131886e-03
<VARIANCE> 25
 8.765841e+00 2.179044e+01 1.919802e+01 4.014527e+01 3.403127e+01 4.795209e+01 5.904434e+01 3.621663e+01 3.948244e+01 4.288165e+01 4.057967e+01 2.952980e+01 2.105682e-01 4.877485e-01 5.121922e-01 7.749418e-01 7.470782e-01 1.057016e+00 9.795002e-01 8.810048e-01 8.676329e-01 9.266305e-01 1.071306e+00 8.461797e-01 2.347033e-04
<GCONST> 7.517785e+01
<MIXTURE> 57 6.132464e-03
<MEAN> 25
 7.542025e+00 -6.787686e+00 -9.103784e+00 -8.352397e+00 3.757586e+00 3.825525e+00 -2.085919e+00 -1.745633e+00 1.550605e+00 1.308122e+00 -2.194864e+00 -7.041882e+00 1.255387e-02 1.009940e-01 -1.511081e-01 7.638524e-02 2.646795e-01 5.745632e-02 2.084933e-01 -1.837463e-01 -1.419784e-02 -4.709159e-02 -2.861842e-03 -2.276311e-02 -7.131886e-03
<VARIANCE> 25
 8.765841e+00 2.179044e+01 1.919802e+01 4.014527e+01 3.403127e+01 4.795209e+01 5.904434e+01 3.621663e+01 3.948244e+01 4.288165e+01 4.057967e+01 2.952980e+01 2.105682e-01 4.877485e-01 5.121922e-01 7.749418e-01 7.470782e-01 1.057016e+00 9.795002e-01 8.810048e-01 8.676329e-01 9.266305e-01 1.071306e+00 8.461797e-01 2.347033e-04
<GCONST> 7.517785e+01
<MIXTURE> 58 6.172147e-03
<MEAN> 25
 2.618356e+00 -3.031330e+00 7.163859e+00 -5.345796e+00 -1.339926e+01 -5.648179e+00 1.498414e+00 8.146683e-01 -2.225415e+00 1.762650e+00 3.743867e-01 -7.287288e-01 -1.956421e-02 -1.223161e-01 -6.136612e-02 -1.664681e-01 -2.581771e-02 2.324350e-01 3.642904e-01 2.111450e-01 4.931138e-04 3.595411e-02 -2.369330e-02 -1.255513e-01 -2.851256e-03
<VARIANCE> 25
 7.322443e+00 1.509031e+01 2.191909e+01 2.741781e+01 2.304032e+01 4.555841e+01 3.285023e+01 3.384678e+01 3.298940e+01 3.093352e+01 2.374911e+01 2.010395e+01 3.062963e-01 8.167295e-01 7.392434e-01 9.937782e-01 8.784717e-01 1.191949e+00 1.133789e+00 1.286588e+00 1.076453e+00 1.048708e+00 9.965093e-01 8.670516e-01 7.059158e-04
<GCONST> 7.556562e+01
<MIXTURE> 59 6.172147e-03
<MEAN> 25
 2.618356e+00 -3.031330e+00 7.163859e+00 -5.345796e+00 -1.339926e+01 -5.648179e+00 1.498414e+00 8.146683e-01 -2.225415e+00 1.762650e+00 3.743867e-01 -7.287288e-01 -1.956421e-02 -1.223161e-01 -6.136612e-02 -1.664681e-01 -2.581771e-02 2.324350e-01 3.642904e-01 2.111450e-01 4.931138e-04 3.595411e-02 -2.369330e-02 -1.255513e-01 -2.851256e-03
<VARIANCE> 25
 7.322443e+00 1.509031e+01 2.191909e+01 2.741781e+01 2.304032e+01 4.555841e+01 3.285023e+01 3.384678e+01 3.298940e+01 3.093352e+01 2.374911e+01 2.010395e+01 3.062963e-01 8.167295e-01 7.392434e-01 9.937782e-01 8.784717e-01 1.191949e+00 1.133789e+00 1.286588e+00 1.076453e+00 1.048708e+00 9.965093e-01 8.670516e-01 7.059158e-04
<GCONST> 7.556562e+01
<MIXTURE> 60 4.479129e-03
<MEAN> 25
 -4.395412e+00 -8.341736e-01 -1.115090e+00 3.923205e+00 1.963750e+00 2.659702e+00 2.198060e+00 1.626997e+00 2.790216e+00 1.179905e+00 1.369549e+00 2.049329e+00 5.327069e-03 8.670925e-02 1.309452e-01 1.211029e-01 1.065316e-01 5.781497e-02 8.573101e-02 2.915916e-01 5.595215e-01 6.402330e-01 5.347851e-01 3.538887e-01 -2.380450e-04
<VARIANCE> 25
 6.320639e+00 4.253629e+00 9.208541e+00 1.040120e+01 1.317033e+01 1.714484e+01 1.467797e+01 1.106990e+01 1.492677e+01 1.238668e+01 2.128406e+01 1.163510e+01 9.196492e-02 1.686114e-01 2.866725e-01 4.122175e-01 6.232610e-01 7.508677e-01 8.541428e-01 8.972190e-01 8.445465e-01 8.041967e-01 7.705107e-01 8.411557e-01 2.380243e-05
<GCONST> 5.624875e+01
<MIXTURE> 61 4.479129e-03
<MEAN> 25
 -4.395412e+00 -8.341736e-01 -1.115090e+00 3.923205e+00 1.963750e+00 2.659702e+00 2.198060e+00 1.626997e+00 2.790216e+00 1.179905e+00 1.369549e+00 2.049329e+00 5.327069e-03 8.670925e-02 1.309452e-01 1.211029e-01 1.065316e-01 5.781497e-02 8.573101e-02 2.915916e-01 5.595215e-01 6.402330e-01 5.347851e-01 3.538887e-01 -2.380450e-04
<VARIANCE> 25
 6.320639e+00 4.253629e+00 9.208541e+00 1.040120e+01 1.317033e+01 1.714484e+01 1.467797e+01 1.106990e+01 1.492677e+01 1.238668e+01 2.128406e+01 1.163510e+01 9.196492e-02 1.686114e-01 2.866725e-01 4.122175e-01 6.232610e-01 7.508677e-01 8.541428e-01 8.972190e-01 8.445465e-01 8.041967e-01 7.705107e-01 8.411557e-01 2.380243e-05
<GCONST> 5.624875e+01
<MIXTURE> 62 3.278034e-03
<MEAN> 25
 -5.091007e+00 1.241158e+00 1.026282e+00 8.818655e+00 6.130725e+00 5.050727e+00 5.499612e+00 4.033972e+00 4.986408e+00 3.917875e+00 4.966228e+00 2.951153e+00 -1.003291e+00 -1.166677e+00 -9.532266e-01 -2.767601e-01 4.276490e-01 1.005185e+00 1.384631e+00 1.552181e+00 1.478687e+00 1.243470e+00 1.067138e+00 7.261455e-01 -1.264837e-03
<VARIANCE> 25
 9.872729e+00 9.958795e+00 1.311548e+01 1.673307e+01 1.741492e+01 1.752432e+01 1.970078e+01 1.911267e+01 1.886222e+01 1.872658e+01 2.156393e+01 1.479569e+01 4.017542e-01 4.320599e-01 5.541428e-01 7.793446e-01 1.035128e+00 1.192199e+00 1.252432e+00 1.279222e+00 1.329842e+00 1.363827e+00 1.399997e+00 1.371356e+00 1.632278e-05
<GCONST> 6.752633e+01
<MIXTURE> 63 4.351215e-03
<MEAN> 25
 -4.158802e+00 -2.352293e+00 -4.317248e+00 3.038780e+00 3.310075e+00 4.391364e-02 2.990692e+00 1.699734e+00 2.553753e+00 -8.603042e-01 -1.500446e+00 2.488490e+00 -9.571273e-02 3.414253e-01 4.208751e-01 4.690385e-01 4.070474e-01 3.653545e-01 3.431427e-01 1.093295e-01 9.126128e-02 2.366247e-01 2.351476e-01 1.458523e-01 -3.403649e-03
<VARIANCE> 25
 9.246368e+00 1.377034e+01 1.798200e+01 1.561464e+01 1.753354e+01 2.677073e+01 2.138492e+01 2.414867e+01 2.436329e+01 2.122375e+01 2.054599e+01 1.631170e+01 2.832661e-01 4.297797e-01 5.995910e-01 6.747646e-01 8.978127e-01 1.173851e+00 1.260158e+00 1.400562e+00 1.360468e+00 1.394415e+00 1.262297e+00 1.227016e+00 1.898020e-04
<GCONST> 7.101050e+01
<MIXTURE> 64 4.351215e-03
<MEAN> 25
 -4.158802e+00 -2.352293e+00 -4.317248e+00 3.038780e+00 3.310075e+00 4.391364e-02 2.990692e+00 1.699734e+00 2.553753e+00 -8.603042e-01 -1.500446e+00 2.488490e+00 -9.571273e-02 3.414253e-01 4.208751e-01 4.690385e-01 4.070474e-01 3.653545e-01 3.431427e-01 1.093295e-01 9.126128e-02 2.366247e-01 2.351476e-01 1.458523e-01 -3.403649e-03
<VARIANCE> 25
 9.246368e+00 1.377034e+01 1.798200e+01 1.561464e+01 1.753354e+01 2.677073e+01 2.138492e+01 2.414867e+01 2.436329e+01 2.122375e+01 2.054599e+01 1.631170e+01 2.832661e-01 4.297797e-01 5.995910e-01 6.747646e-01 8.978127e-01 1.173851e+00 1.260158e+00 1.400562e+00 1.360468e+00 1.394415e+00 1.262297e+00 1.227016e+00 1.898020e-04
<GCONST> 7.101050e+01
<MIXTURE> 65 1.721197e-02
<MEAN> 25
 7.638768e+00 1.151900e+00 2.460793e+00 9.309564e-01 -5.435284e+00 -3.886069e+00 -5.613398e+00 -5.840209e+00 -2.917380e+00 -2.920032e+00 -5.974719e+00 -1.095869e+00 1.573251e-01 -4.396235e-02 -4.439857e-02 2.280616e-01 -1.057324e-01 1.497384e-01 -2.314082e-02 -2.633583e-01 6.496193e-02 7.385092e-02 2.008461e-01 -9.745941e-02 -2.445896e-03
<VARIANCE> 25
 8.922093e+00 2.076649e+01 2.366990e+01 3.514387e+01 3.292609e+01 5.019416e+01 5.162042e+01 5.443873e+01 5.072215e+01 5.186156e+01 5.242845e+01 4.665154e+01 5.012347e-01 9.557774e-01 1.519888e+00 1.831873e+00 1.796775e+00 2.497337e+00 2.142704e+00 2.722759e+00 2.376805e+00 2.340995e+00 2.671938e+00 1.998426e+00 3.832457e-04
<GCONST> 8.799837e+01
<MIXTURE> 66 1.191532e-02
<MEAN> 25
 6.687436e+00 -4.087837e+00 -6.158201e+00 -4.506705e+00 1.113052e+00 -5.099269e+00 -6.094563e+00 8.985433e-01 8.221594e-01 -1.465883e+00 -5.214788e+00 -4.066187e+00 -8.624406e-02 1.747029e+00 2.155672e+00 2.278721e+00 -1.029824e+00 -1.218582e+00 1.053710e-01 -4.018324e-01 2.166574e-02 -1.745323e-01 -4.818319e-01 1.216854e+00 -6.434318e-02
<VARIANCE> 25
 8.330810e+00 2.113334e+01 3.027500e+01 3.241654e+01 3.747438e+01 5.154399e+01 5.921073e+01 4.307970e+01 5.079350e+01 6.722890e+01 4.502879e+01 4.050368e+01 1.263950e+00 2.522767e+00 2.315294e+00 2.374805e+00 4.436250e+00 4.014996e+00 4.108778e+00 4.825078e+00 4.244952e+00 4.688874e+00 4.656617e+00 3.446591e+00 1.385356e-03
<GCONST> 9.697720e+01
<MIXTURE> 67 1.559142e-02
<MEAN> 25
 8.707236e+00 1.286796e+00 -6.360214e+00 -7.485313e+00 6.847268e-02 2.374408e+00 -2.379304e+00 -2.312202e+00 -2.982982e+00 1.225506e+00 5.554002e-01 -2.594232e+00 -1.033392e+00 1.759860e+00 1.197458e+00 2.947019e+00 1.373116e+00 -4.368929e-01 1.093961e+00 2.494396e-01 4.266629e-01 2.128620e-01 -9.054002e-01 9.662139e-01 -1.197064e-01
<VARIANCE> 25
 1.000048e+01 3.561313e+01 3.298364e+01 5.732706e+01 5.394488e+01 5.345323e+01 5.544114e+01 4.536363e+01 5.783669e+01 5.888026e+01 5.185617e+01 4.938298e+01 1.947767e+00 3.882571e+00 2.919895e+00 4.188630e+00 3.936331e+00 3.915534e+00 4.227635e+00 4.602544e+00 4.841452e+00 4.199138e+00 6.257389e+00 3.799058e+00 2.983238e-03
<GCONST> 1.017415e+02
<MIXTURE> 68 1.485092e-02
<MEAN> 25
 -2.465715e+00 -2.289016e+00 -3.293720e+00 2.010093e+00 4.881588e+00 -5.339631e-01 2.030026e+00 1.716661e+00 2.698214e+00 1.288645e+00 -3.593368e-01 1.913098e+00 2.731429e+00 5.575348e-01 2.450414e-01 -2.539344e+00 -2.542924e+00 -1.754597e+00 -2.293870e+00 -1.548214e+00 -1.619017e+00 -1.296880e+00 -1.287133e+00 -7.980207e-01 9.693245e-02
<VARIANCE> 25
 2.371954e+01 2.761724e+01 5.225452e+01 4.922526e+01 4.157413e+01 5.087687e+01 3.919713e+01 4.043759e+01 3.742053e+01 3.728222e+01 5.035503e+01 2.317934e+01 1.718920e+00 3.277049e+00 5.848036e+00 5.484690e+00 4.829466e+00 5.528834e+00 5.027456e+00 4.652175e+00 5.681006e+00 4.744112e+00 6.815916e+00 3.420082e+00 5.349578e-03
<GCONST> 1.024584e+02
<MIXTURE> 69 1.204884e-02
<MEAN> 25
 4.532404e+00 -3.919585e+00 -3.583401e+00 -3.819548e+00 -3.822984e+00 -7.671437e+00 -1.029252e+00 2.051389e+00 -1.351203e-03 -4.626794e+00 -5.881513e+00 1.070812e+00 1.666655e+00 -2.083242e+00 -1.302358e+00 -2.246876e+00 -6.794160e-01 -5.121445e-01 -5.567004e-01 6.037281e-01 -5.930652e-01 -1.315573e+00 -1.961196e+00 -1.008355e-01 6.068515e-02
<VARIANCE> 25
 8.782977e+00 2.235165e+01 2.554096e+01 2.601729e+01 4.311450e+01 3.467574e+01 4.658500e+01 3.065373e+01 3.996813e+01 3.650571e+01 3.046470e+01 2.360974e+01 3.382520e+00 3.225831e+00 3.232052e+00 3.565087e+00 5.997990e+00 5.392465e+00 6.900414e+00 5.787886e+00 5.692829e+00 5.973064e+00 5.174334e+00 3.640990e+00 2.395818e-03
<GCONST> 9.858969e+01
<MIXTURE> 70 1.329190e-02
<MEAN> 25
 6.789682e+00 -2.552738e+00 -4.949837e+00 -3.698544e+00 -1.136317e+00 -1.128426e+00 -7.122278e+00 -3.728091e+00 1.410642e-02 3.542948e+00 2.074039e+00 -6.153473e+00 1.766564e+00 -1.083681e+00 -5.560435e-01 -1.848120e+00 -1.775645e+00 4.684552e-01 -6.717295e-01 4.053452e-02 5.782749e-01 -4.715841e-01 9.294401e-01 -2.016490e+00 5.591419e-02
<VARIANCE> 25
 9.620044e+00 2.126451e+01 3.220771e+01 3.948183e+01 3.051547e+01 3.831996e+01 4.070361e+01 3.741682e+01 3.799311e+01 2.929419e+01 6.339234e+01 4.562430e+01 2.886104e+00 2.690196e+00 4.881343e+00 4.304706e+00 5.030639e+00 7.056457e+00 7.079537e+00 6.244555e+00 5.450320e+00 6.792482e+00 5.272292e+00 4.816491e+00 2.043825e-03
<GCONST> 1.008992e+02
<MIXTURE> 71 1.406903e-02
<MEAN> 25
 5.735566e+00 4.795639e+00 3.733331e+00 2.966897e+00 -3.018989e+00 -3.426208e+00 -3.009220e+00 -6.342268e+00 -4.032274e+00 -2.227561e+00 -5.066920e+00 -2.587987e+00 -1.463463e+00 -6.918463e-01 -3.698043e-01 -1.768563e+00 1.111761e+00 -1.450466e-01 -6.258003e-02 1.503622e+00 1.592068e-01 -6.678295e-02 8.232588e-01 1.376487e-01 3.974034e-02
<VARIANCE> 25
 2.040804e+01 2.504827e+01 2.411739e+01 4.370643e+01 4.026784e+01 3.782780e+01 3.997906e+01 3.958175e+01 3.766106e+01 4.242508e+01 3.393433e+01 3.481093e+01 1.777812e+00 3.010342e+00 5.508921e+00 5.184476e+00 4.320456e+00 4.403657e+00 4.817676e+00 5.008379e+00 4.132370e+00 3.880403e+00 3.632436e+00 3.057275e+00 1.423671e-03
<GCONST> 9.807652e+01
<MIXTURE> 72 8.134747e-03
<MEAN> 25
 3.744433e+00 -3.545450e+00 5.329603e+00 -1.860135e+00 -9.512857e+00 -9.236080e+00 -2.409099e+00 2.015722e+00 -4.990858e+00 -9.409232e-01 -6.051869e-01 8.889124e-01 8.775849e-01 -7.156054e-01 -2.682883e+00 5.297459e-01 2.023527e+00 -6.492795e-01 -1.062133e+00 1.478123e+00 2.109805e+00 -4.595313e-01 -1.182094e+00 3.592925e-01 -6.769123e-03
<VARIANCE> 25
 9.378757e+00 1.902166e+01 2.946052e+01 3.558289e+01 3.273533e+01 3.165135e+01 3.535880e+01 3.159749e+01 4.010204e+01 4.410057e+01 4.225164e+01 2.666838e+01 4.003788e-01 9.373472e-01 1.837495e+00 1.448015e+00 2.007238e+00 2.093504e+00 2.990621e+00 2.468319e+00 2.741130e+00 2.683367e+00 1.979780e+00 1.943815e+00 5.103451e-04
<GCONST> 8.574858e+01
<MIXTURE> 73 1.213625e-02
<MEAN> 25
 -5.543778e+00 -8.875498e-01 -1.117804e+00 5.151874e+00 4.045607e+00 1.920587e+00 5.272542e+00 3.371496e+00 4.394801e+00 3.115496e+00 4.188472e+00 3.127231e+00 9.168732e-01 -9.533750e-01 -7.109737e-01 -2.524623e+00 -1.297505e+00 -1.785451e+00 -9.417004e-01 -4.744773e-01 -1.115560e+00 -6.775813e-01 -7.603744e-01 -2.133898e-01 1.495123e-01
<VARIANCE> 25
 1.247774e+01 1.292090e+01 1.483433e+01 2.321340e+01 2.308221e+01 2.719975e+01 1.989833e+01 2.144550e+01 1.701804e+01 1.895402e+01 2.851882e+01 1.591188e+01 4.073294e+00 3.007154e+00 6.637203e+00 4.833802e+00 6.057592e+00 4.468181e+00 4.135729e+00 4.111529e+00 4.574553e+00 4.089242e+00 4.922728e+00 2.670192e+00 4.390520e-03
<GCONST> 9.344583e+01
<MIXTURE> 74 1.756491e-02
<MEAN> 25
 3.880288e+00 -1.722733e+00 6.325610e+00 -7.015068e-01 -7.608562e+00 -7.904009e+00 -3.118958e+00 6.508832e-01 -5.537548e+00 -3.388799e+00 -1.285437e-01 1.359544e-01 2.953490e-01 1.862249e+00 -2.285063e-01 1.649025e+00 1.283461e+00 6.415770e-01 2.721633e-01 -6.798673e-01 7.230201e-01 2.738595e-01 -1.033632e+00 -2.043775e-01 -8.291946e-02
<VARIANCE> 25
 1.124323e+01 1.919141e+01 3.870935e+01 3.348947e+01 3.627424e+01 3.556864e+01 4.490923e+01 4.317168e+01 5.208407e+01 3.989237e+01 4.694957e+01 3.025171e+01 1.760894e+00 1.840938e+00 3.562214e+00 2.383772e+00 3.202845e+00 3.577828e+00 4.481538e+00 5.340318e+00 4.470228e+00 3.568223e+00 5.075321e+00 3.003197e+00 1.559194e-03
<GCONST> 9.607774e+01
<MIXTURE> 75 9.711651e-03
<MEAN> 25
 2.549670e+00 -1.636082e+00 1.088265e+01 2.006194e+00 -9.989032e+00 -7.739274e+00 -4.140649e+00 -7.048408e-01 -6.152026e+00 -4.312370e+00 4.688191e+00 5.039291e-01 1.648373e+00 -1.461053e+00 6.647109e-01 -6.637145e-01 -2.302244e+00 -5.700932e-01 -1.437817e+00 4.175980e-01 -1.016377e+00 -4.576347e-01 1.298237e+00 -5.651085e-01 4.554840e-02
<VARIANCE> 25
 9.068113e+00 1.490862e+01 2.497665e+01 2.757383e+01 3.060469e+01 2.806676e+01 2.755541e+01 2.490086e+01 3.636279e+01 3.080629e+01 2.350913e+01 1.904202e+01 2.229621e+00 1.865884e+00 4.231106e+00 3.120836e+00 3.150574e+00 3.894639e+00 3.814449e+00 4.063685e+00 5.710228e+00 3.244279e+00 3.167471e+00 2.639429e+00 1.428150e-03
<GCONST> 9.154607e+01
<MIXTURE> 76 1.052359e-02
<MEAN> 25
 -6.716520e+00 -1.525422e+00 -2.701165e+00 4.014522e+00 4.341166e+00 2.429032e+00 4.650773e+00 2.071562e+00 2.831687e+00 4.364072e-01 7.302078e-01 2.068140e+00 -4.431291e-02 -4.250273e-01 -2.254430e-01 -8.533074e-01 -6.379213e-01 -9.094638e-01 -6.889412e-01 -3.373855e-01 -3.310398e-01 -3.761398e-01 -3.201428e-01 -2.699171e-01 2.079188e-02
<VARIANCE> 25
 3.358667e+01 2.511862e+01 2.706063e+01 2.451439e+01 2.791230e+01 3.734706e+01 2.740419e+01 2.633273e+01 2.169157e+01 2.242832e+01 3.346222e+01 1.982037e+01 1.228572e+00 1.178783e+00 1.394194e+00 1.607500e+00 2.007566e+00 1.575198e+00 1.635493e+00 1.606751e+00 1.735138e+00 1.466142e+00 1.495404e+00 1.259963e+00 1.111295e-03
<GCONST> 8.345697e+01
<MIXTURE> 77 1.244626e-02
<MEAN> 25
 -4.679401e-01 8.567540e+00 1.245437e+01 -1.159409e+01 -7.002831e+00 9.377748e-01 -9.267409e+00 -7.228707e+00 -3.390354e+00 -2.094953e-01 -4.628614e+00 -1.481010e+00 6.792920e-02 1.375536e-01 7.276046e-02 2.499519e-01 -2.434224e-02 7.971102e-02 -6.478997e-02 -6.101433e-02 8.289627e-02 -4.415873e-02 2.544313e-02 1.184411e-01 -9.912108e-03
<VARIANCE> 25
 1.042513e+01 2.016239e+01 2.757509e+01 4.177288e+01 3.313972e+01 3.388847e+01 3.668068e+01 3.173859e+01 3.537164e+01 3.321169e+01 3.794388e+01 3.487524e+01 2.987698e-01 7.789192e-01 6.453332e-01 1.084921e+00 1.243145e+00 9.847140e-01 1.221345e+00 1.073092e+00 1.043015e+00 1.065549e+00 9.725911e-01 9.203649e-01 5.396913e-04
<GCONST> 7.781304e+01
<MIXTURE> 78 9.702551e-03
<MEAN> 25
 -1.134097e+01 2.673871e+00 -1.874882e+00 9.700113e-01 5.615545e+00 -2.371114e+00 2.894104e+00 3.714464e+00 3.123526e+00 1.669627e+00 -6.524906e-01 2.173246e+00 2.582936e+00 -4.189685e-01 4.440323e-01 7.594960e-01 -2.628473e-01 1.302254e-01 -1.806362e-01 -5.652814e-01 1.537718e-01 2.600896e-01 -6.205837e-01 6.118443e-02 -6.374024e-02
<VARIANCE> 25
 3.743889e+01 3.234931e+01 2.567669e+01 3.355740e+01 3.516019e+01 2.977325e+01 3.075042e+01 3.204976e+01 2.399130e+01 2.754346e+01 2.313021e+01 1.870757e+01 4.973890e+00 2.168682e+00 2.374402e+00 3.340654e+00 2.691229e+00 2.840961e+00 2.938162e+00 4.160337e+00 2.086594e+00 2.148811e+00 2.168050e+00 2.646878e+00 4.062477e-03
<GCONST> 9.294376e+01
<MIXTURE> 79 1.156824e-02
<MEAN> 25
 2.238785e+00 9.213807e-01 9.406452e+00 -5.943078e+00 -1.093767e+01 -2.184779e+00 -2.141041e+00 -5.928969e+00 -7.343386e+00 1.347453e+00 -1.562420e+00 -2.798112e+00 1.209288e+00 -7.838187e-01 -1.431117e+00 2.359597e+00 1.714159e-02 -1.481160e+00 8.199524e-01 1.044208e+00 -2.368447e-01 -2.990461e-01 3.768276e-01 4.278304e-01 -2.925756e-02
<VARIANCE> 25
 1.228185e+01 2.250099e+01 3.190830e+01 4.329632e+01 3.279343e+01 3.688270e+01 3.561729e+01 3.129487e+01 3.524932e+01 4.512895e+01 5.031483e+01 2.609802e+01 7.709281e-01 2.175823e+00 1.771234e+00 1.721479e+00 2.852123e+00 2.408608e+00 2.993766e+00 3.082790e+00 2.596560e+00 2.608725e+00 2.761750e+00 1.751904e+00 1.375081e-03
<GCONST> 9.014787e+01
<MIXTURE> 80 7.550998e-03
<MEAN> 25
 -1.451299e+01 3.982610e+00 6.681349e-01 2.869073e+00 2.528446e+00 1.371162e+00 6.347386e+00 2.522137e+00 2.763055e+00 2.444233e+00 4.751728e+00 1.157979e+00 4.296431e+00 -3.263847e-02 1.646310e+00 -1.092460e+00 -2.877234e+00 -2.738971e+00 -2.295171e+00 -2.049725e+00 -1.976687e+00 -1.655771e+00 -1.637672e+00 -5.744874e-01 -4.416498e-02
<VARIANCE> 25
 2.140779e+01 1.981819e+01 3.407753e+01 3.447672e+01 3.035833e+01 2.898030e+01 2.819599e+01 2.835370e+01 2.654951e+01 2.917517e+01 2.738610e+01 1.795618e+01 2.345821e+00 2.659913e+00 2.661838e+00 4.250877e+00 3.366050e+00 2.820061e+00 3.067473e+00 3.272043e+00 2.732867e+00 2.767737e+00 2.814935e+00 2.181777e+00 1.522392e-03
<GCONST> 9.154497e+01
<MIXTURE> 81 8.025434e-03
<MEAN> 25
 -1.107413e+00 4.054708e+00 1.016533e+01 -1.471750e+01 -8.982744e+00 -1.424108e+00 -6.794654e+00 -8.374850e+00 -4.161838e+00 -3.710886e-01 -7.493257e+00 -2.223017e+00 1.389267e-01 -6.030978e-01 8.758118e-03 -5.470998e-01 -4.974862e-01 3.343825e-01 3.300675e-01 1.228461e-01 -1.588081e-01 1.335691e-01 -4.398424e-01 -1.262372e-01 1.169030e-02
<VARIANCE> 25
 1.008007e+01 3.255106e+01 2.629108e+01 2.975458e+01 3.445595e+01 3.023002e+01 4.518714e+01 2.826424e+01 3.772686e+01 3.193820e+01 2.584278e+01 3.081606e+01 7.679717e-01 2.284335e+00 1.553333e+00 2.869709e+00 2.768380e+00 2.116603e+00 3.280850e+00 2.295691e+00 2.374290e+00 2.591773e+00 2.367310e+00 2.063942e+00 1.176654e-03
<GCONST> 8.877990e+01
<MIXTURE> 82 8.213053e-03
<MEAN> 25
 -9.905087e+00 -3.864553e+00 1.620701e+00 -2.928943e+00 3.106358e+00 6.813496e-01 1.980230e+00 9.196735e-01 3.005964e+00 1.711032e+00 1.648725e+00 3.070128e+00 -1.287150e+00 -1.112333e-01 2.876101e-01 -2.609893e+00 -1.115008e+00 -1.262640e+00 -1.022369e+00 -8.604431e-01 -3.153079e-01 -4.777807e-01 -3.053929e-01 -1.007671e-01 1.774058e-01
<VARIANCE> 25
 1.831466e+01 2.501311e+01 3.216813e+01 3.085466e+01 3.286463e+01 3.222618e+01 3.160480e+01 3.273727e+01 3.084814e+01 2.493805e+01 3.169634e+01 1.739702e+01 3.814171e+00 3.047430e+00 3.291891e+00 3.250989e+00 3.619806e+00 3.332146e+00 2.937947e+00 3.012713e+00 2.794030e+00 2.479634e+00 2.449315e+00 1.861383e+00 3.521047e-03
<GCONST> 9.313702e+01
<MIXTURE> 83 1.167529e-02
<MEAN> 25
 -1.941969e+01 6.577258e+00 -2.539258e+00 -1.491533e+00 8.147028e+00 -1.458465e+00 4.078496e+00 3.387316e+00 1.476507e+00 2.601629e+00 8.660567e-01 1.123333e+00 -3.051969e-02 -5.020794e-01 1.815720e-01 -2.804159e-01 -3.395763e-01 2.217660e-02 -1.780213e-01 -1.434740e-01 -1.492954e-01 1.196831e-01 8.033065e-02 -7.386696e-02 1.214219e-03
<VARIANCE> 25
 8.876880e+00 1.816773e+01 2.721964e+01 2.436686e+01 2.046743e+01 2.104048e+01 2.601506e+01 2.043424e+01 1.720810e+01 2.272090e+01 2.092653e+01 2.399186e+01 1.060074e+00 7.862561e-01 1.154949e+00 9.722429e-01 1.356400e+00 1.260918e+00 1.294840e+00 1.865483e+00 1.355980e+00 1.542877e+00 1.619249e+00 1.619977e+00 1.010471e-03
<GCONST> 7.821332e+01
<MIXTURE> 84 1.066614e-02
<MEAN> 25
 1.258731e+00 8.345645e+00 6.790435e+00 7.178840e+00 2.923841e+00 -8.208417e-01 -1.952541e+00 -4.288512e+00 -3.581012e+00 -2.657643e+00 -2.786264e+00 -1.285553e+00 -1.442026e+00 -9.893305e-01 -1.303995e+00 1.356431e+00 1.981588e+00 1.198486e+00 1.405941e+00 1.024266e+00 1.598905e+00 2.150729e-01 -6.395282e-02 6.057980e-01 -6.883088e-02
<VARIANCE> 25
 1.999479e+01 1.759147e+01 1.935065e+01 2.466482e+01 2.499533e+01 2.483193e+01 2.551327e+01 2.488634e+01 2.634519e+01 2.586414e+01 2.305504e+01 2.242938e+01 2.408273e+00 2.544031e+00 3.376678e+00 3.941658e+00 3.209924e+00 3.853418e+00 2.950630e+00 3.460551e+00 3.966424e+00 3.515206e+00 4.115833e+00 2.772168e+00 3.238621e-03
<GCONST> 9.221129e+01
<MIXTURE> 85 7.591393e-03
<MEAN> 25
 -3.087853e+00 7.864709e+00 5.722299e+00 1.291908e+00 -3.474052e+00 -5.321479e+00 -2.980714e+00 -6.107081e+00 -3.546408e+00 -3.169156e+00 -4.674402e-01 -1.876017e+00 3.938570e+00 3.181816e-01 1.756602e+00 -2.086859e+00 -3.410258e+00 -2.574383e+00 -2.879327e+00 -2.344930e+00 -2.252771e+00 -1.261574e+00 -2.287607e+00 -6.103421e-01 9.348487e-03
<VARIANCE> 25
 4.244524e+01 2.360684e+01 3.637824e+01 3.815343e+01 3.976577e+01 4.115023e+01 3.208258e+01 2.791478e+01 2.665965e+01 2.623382e+01 2.637316e+01 2.064750e+01 2.709792e+00 4.324438e+00 4.049334e+00 5.188017e+00 4.398383e+00 3.898029e+00 3.854704e+00 3.991084e+00 3.848956e+00 4.036826e+00 3.998326e+00 3.484941e+00 5.435335e-03
<GCONST> 9.838400e+01
<MIXTURE> 86 1.273941e-02
<MEAN> 25
 -5.022163e+00 -1.531921e+00 -9.406798e-01 6.408637e+00 5.017275e+00 5.199234e+00 5.606398e+00 3.870306e+00 5.510623e+00 3.375104e+00 2.701413e+00 3.230957e+00 -3.403785e-03 3.406727e-03 -1.640851e-02 -6.621476e-02 -3.068560e-02 -2.446842e-01 -2.910763e-01 -2.976952e-01 -3.667491e-01 -2.990841e-01 -2.945759e-01 -4.560717e-02 1.972089e-04
<VARIANCE> 25
 5.972299e+00 4.516156e+00 8.409680e+00 9.560073e+00 1.400134e+01 1.294146e+01 1.260998e+01 1.147199e+01 1.326091e+01 1.199813e+01 2.624161e+01 1.122287e+01 9.055489e-02 1.751253e-01 3.074951e-01 4.239421e-01 6.596777e-01 6.488312e-01 6.325305e-01 6.916694e-01 9.173745e-01 9.326975e-01 8.155110e-01 9.110076e-01 5.054128e-05
<GCONST> 5.635501e+01
<MIXTURE> 87 1.100681e-02
<MEAN> 25
 -2.954807e+00 4.417624e+00 3.098570e+00 6.466998e+00 5.028372e+00 7.006204e-01 1.618878e+00 -1.131816e+00 -3.626897e-01 -7.197330e-01 -6.332884e-01 4.706654e-01 -2.058815e+00 -2.699228e+00 -2.215063e+00 -2.145019e+00 1.807877e-01 -9.420763e-02 4.396354e-01 1.292682e+00 1.079437e+00 1.132893e+00 1.114597e+00 9.337664e-01 1.031792e-01
<VARIANCE> 25
 3.671270e+01 2.769545e+01 2.790184e+01 3.604337e+01 3.113918e+01 3.106417e+01 2.609286e+01 2.607248e+01 2.462436e+01 2.382492e+01 2.449178e+01 2.379080e+01 3.712577e+00 2.798611e+00 4.363233e+00 3.735999e+00 5.163332e+00 4.249010e+00 4.324898e+00 3.618770e+00 4.737482e+00 3.458097e+00 3.674237e+00 2.615108e+00 4.834852e-03
<GCONST> 9.662173e+01
<MIXTURE> 88 1.256585e-02
<MEAN> 25
 -4.297573e+00 -8.727282e-01 -1.673074e+00 5.170444e+00 4.017743e+00 3.388789e+00 4.644617e+00 2.762555e+00 4.063051e+00 2.050098e+00 1.460006e+00 2.640440e+00 -1.212448e-01 1.350143e-01 2.477866e-01 3.754750e-01 3.459430e-01 1.159543e-01 -1.341024e-01 -8.257485e-02 -3.780329e-01 -3.130268e-01 8.820984e-02 -3.805467e-02 -7.475600e-04
<VARIANCE> 25
 1.072409e+01 9.210834e+00 1.372691e+01 1.459628e+01 2.039297e+01 2.297033e+01 1.612798e+01 1.914371e+01 1.565235e+01 1.682782e+01 2.458269e+01 1.526418e+01 1.761919e+00 1.447759e+00 1.888252e+00 2.260032e+00 2.555668e+00 2.520608e+00 2.351783e+00 2.371014e+00 2.583342e+00 2.379692e+00 2.294755e+00 1.815128e+00 1.477975e-03
<GCONST> 8.191756e+01
<MIXTURE> 89 9.333527e-03
<MEAN> 25
 6.072295e+00 -6.680501e+00 -3.280189e+00 -2.959389e+00 -1.806189e+00 -5.456959e+00 -6.177563e+00 3.997787e+00 3.538290e+00 -3.009404e+00 -6.301092e+00 -3.134099e+00 -5.652781e-01 1.260657e-01 1.938708e+00 9.219697e-01 -1.796901e+00 -1.701934e+00 8.229338e-01 1.225493e+00 -7.414364e-01 -1.235419e+00 3.939430e-01 1.515502e+00 -4.637926e-03
<VARIANCE> 25
 8.671315e+00 2.638520e+01 3.201100e+01 3.035597e+01 3.583764e+01 4.068802e+01 5.773036e+01 4.092876e+01 3.782858e+01 4.198700e+01 3.647935e+01 3.187968e+01 3.435246e-01 8.365591e-01 1.491202e+00 1.287131e+00 1.989611e+00 2.129359e+00 2.590617e+00 2.009723e+00 2.231131e+00 2.232661e+00 2.254592e+00 1.430571e+00 3.553703e-04
<GCONST> 8.507360e+01
<MIXTURE> 90 7.114505e-03
<MEAN> 25
 2.448871e+00 -9.723022e+00 -4.754464e+00 -3.978390e+00 -3.384857e+00 -1.813701e+00 3.364822e+00 1.180361e+00 -7.531180e+00 -1.021511e+01 -3.428966e+00 -7.394991e-01 -1.636140e-01 9.090536e-01 1.168649e+00 -8.537083e-01 -1.612752e+00 -2.119779e-01 6.448655e-01 -2.100006e-01 -1.688502e-01 7.371671e-01 1.832564e-01 -5.501574e-01 -1.114848e-02
<VARIANCE> 25
 8.492660e+00 1.778899e+01 1.981526e+01 2.802151e+01 3.684072e+01 3.217669e+01 3.852903e+01 3.641138e+01 3.522769e+01 2.771375e+01 2.701516e+01 2.613806e+01 2.237465e-01 6.127486e-01 7.867915e-01 1.043177e+00 1.470329e+00 1.591447e+00 1.780247e+00 1.654380e+00 1.810099e+00 1.678113e+00 1.495597e+00 1.308758e+00 2.149640e-04
<GCONST> 7.813519e+01
<MIXTURE> 91 7.852945e-03
<MEAN> 25
 6.483850e+00 -7.519244e+00 -8.819553e+00 -4.991692e+00 3.819369e+00 -9.196453e-02 -1.876872e+00 3.049424e-01 5.921659e-01 -2.010706e+00 -4.249493e+00 -5.362605e+00 2.699923e-01 1.081559e+00 1.493423e-01 5.242497e-01 -4.959858e-03 -5.213699e-01 -2.730537e-01 -1.270270e-01 1.030259e-02 3.982020e-01 -1.259404e-01 3.116663e-01 -3.555319e-02
<VARIANCE> 25
 9.600515e+00 2.119707e+01 1.938903e+01 3.778185e+01 3.453416e+01 5.281487e+01 5.156322e+01 3.904797e+01 4.872047e+01 7.033262e+01 4.252238e+01 4.167346e+01 4.224117e-01 8.943420e-01 1.107402e+00 1.376876e+00 2.097871e+00 2.228515e+00 2.357378e+00 2.236372e+00 2.279102e+00 2.129562e+00 2.258826e+00 1.970191e+00 5.785904e-04
<GCONST> 8.686552e+01
<MIXTURE> 92 7.852945e-03
<MEAN> 25
 6.483850e+00 -7.519244e+00 -8.819553e+00 -4.991692e+00 3.819369e+00 -9.196453e-02 -1.876872e+00 3.049424e-01 5.921659e-01 -2.010706e+00 -4.249493e+00 -5.362605e+00 2.699923e-01 1.081559e+00 1.493423e-01 5.242497e-01 -4.959858e-03 -5.213699e-01 -2.730537e-01 -1.270270e-01 1.030259e-02 3.982020e-01 -1.259404e-01 3.116663e-01 -3.555319e-02
<VARIANCE> 25
 9.600515e+00 2.119707e+01 1.938903e+01 3.778185e+01 3.453416e+01 5.281487e+01 5.156322e+01 3.904797e+01 4.872047e+01 7.033262e+01 4.252238e+01 4.167346e+01 4.224117e-01 8.943420e-01 1.107402e+00 1.376876e+00 2.097871e+00 2.228515e+00 2.357378e+00 2.236372e+00 2.279102e+00 2.129562e+00 2.258826e+00 1.970191e+00 5.785904e-04
<GCONST> 8.686552e+01
<MIXTURE> 93 6.122769e-03
<MEAN> 25
 -6.620008e+00 -1.185077e+00 -2.225788e+00 5.764825e+00 5.866986e+00 4.582676e+00 6.271461e+00 3.500928e+00 4.518557e+00 1.785952e+00 5.629341e-01 3.843418e+00 -7.442658e-02 -1.530968e-01 -2.626153e-01 -3.220887e-01 -3.133496e-01 -2.733631e-01 -1.801021e-01 -1.730251e-01 -1.749954e-01 -1.569089e-01 -1.225316e-01 -6.676515e-02 -6.055906e-05
<VARIANCE> 25
 8.060770e+00 5.612363e+00 7.533466e+00 1.024825e+01 1.107513e+01 1.800221e+01 1.428476e+01 1.489106e+01 1.447755e+01 1.770187e+01 2.311475e+01 1.208136e+01 8.103931e-02 1.613037e-01 2.359822e-01 3.562067e-01 4.754413e-01 5.970393e-01 7.562276e-01 8.350250e-01 8.783658e-01 8.798770e-01 8.885902e-01 8.815922e-01 1.161408e-06
<GCONST> 5.323873e+01
<MIXTURE> 94 6.122769e-03
<MEAN> 25
 -6.620008e+00 -1.185077e+00 -2.225788e+00 5.764825e+00 5.866986e+00 4.582676e+00 6.271461e+00 3.500928e+00 4.518557e+00 1.785952e+00 5.629341e-01 3.843418e+00 -7.442658e-02 -1.530968e-01 -2.626153e-01 -3.220887e-01 -3.133496e-01 -2.733631e-01 -1.801021e-01 -1.730251e-01 -1.749954e-01 -1.569089e-01 -1.225316e-01 -6.676515e-02 -6.055906e-05
<VARIANCE> 25
 8.060770e+00 5.612363e+00 7.533466e+00 1.024825e+01 1.107513e+01 1.800221e+01 1.428476e+01 1.489106e+01 1.447755e+01 1.770187e+01 2.311475e+01 1.208136e+01 8.103931e-02 1.613037e-01 2.359822e-01 3.562067e-01 4.754413e-01 5.970393e-01 7.562276e-01 8.350250e-01 8.783658e-01 8.798770e-01 8.885902e-01 8.815922e-01 1.161408e-06
<GCONST> 5.323873e+01
<MIXTURE> 95 5.258835e-03
<MEAN> 25
 -5.756827e+00 -1.191461e+00 -2.109877e+00 5.092942e+00 4.756251e+00 3.857257e+00 4.405691e+00 1.543421e+00 2.720879e+00 7.077435e-01 -1.788705e-01 3.268306e+00 7.952267e-02 1.082648e-01 2.378116e-02 -1.842425e-01 -1.577140e-01 -6.730127e-01 -9.426413e-01 -1.123286e+00 -1.353773e+00 -8.790306e-01 -6.358521e-01 -2.532873e-01 -1.197704e-03
<VARIANCE> 25
 8.613166e+00 6.025111e+00 1.027544e+01 1.073328e+01 1.370518e+01 2.043959e+01 1.487191e+01 1.514167e+01 1.404111e+01 1.748532e+01 2.470845e+01 1.378086e+01 1.982449e-01 2.811178e-01 4.676859e-01 5.930052e-01 9.983894e-01 8.132670e-01 9.142197e-01 9.430650e-01 1.217971e+00 1.059307e+00 1.079270e+00 1.203201e+00 4.106476e-05
<GCONST> 6.287458e+01
<MIXTURE> 96 7.034694e-03
<MEAN> 25
 -5.090210e+00 -5.078244e-01 -2.217381e+00 5.194332e+00 3.892410e+00 2.025445e+00 3.655307e+00 1.906648e+00 2.720667e+00 7.006744e-01 7.769353e-01 3.067043e+00 -2.143131e-02 8.055531e-02 2.120213e-01 3.889569e-01 5.062268e-01 5.144190e-01 2.555133e-01 -7.911548e-02 -4.206221e-01 -6.761526e-01 -5.822706e-01 -3.746845e-01 -6.993384e-06
<VARIANCE> 25
 1.047593e+01 9.365033e+00 1.235356e+01 1.372474e+01 1.448194e+01 1.982044e+01 1.756651e+01 1.892913e+01 1.879703e+01 1.757597e+01 2.171893e+01 1.540437e+01 1.201624e-01 2.134576e-01 3.056900e-01 3.882368e-01 5.036083e-01 6.455185e-01 8.421007e-01 1.028359e+00 9.621319e-01 9.049383e-01 8.913817e-01 9.242551e-01 1.198196e-06
<GCONST> 5.771648e+01
<MIXTURE> 97 7.034694e-03
<MEAN> 25
 -5.090210e+00 -5.078244e-01 -2.217381e+00 5.194332e+00 3.892410e+00 2.025445e+00 3.655307e+00 1.906648e+00 2.720667e+00 7.006744e-01 7.769353e-01 3.067043e+00 -2.143131e-02 8.055531e-02 2.120213e-01 3.889569e-01 5.062268e-01 5.144190e-01 2.555133e-01 -7.911548e-02 -4.206221e-01 -6.761526e-01 -5.822706e-01 -3.746845e-01 -6.993384e-06
<VARIANCE> 25
 1.047593e+01 9.365033e+00 1.235356e+01 1.372474e+01 1.448194e+01 1.982044e+01 1.756651e+01 1.892913e+01 1.879703e+01 1.757597e+01 2.171893e+01 1.540437e+01 1.201624e-01 2.134576e-01 3.056900e-01 3.882368e-01 5.036083e-01 6.455185e-01 8.421007e-01 1.028359e+00 9.621319e-01 9.049383e-01 8.913817e-01 9.242551e-01 1.198196e-06
<GCONST> 5.771648e+01
<MIXTURE> 98 9.917808e-03
<MEAN> 25
 -1.509551e+00 8.095579e-01 -3.787680e-01 4.189536e+00 2.789696e+00 2.286641e+00 2.974217e+00 1.260197e+00 2.441024e+00 6.383179e-01 -7.054261e-01 5.454712e-01 -1.883124e+00 -1.226563e+00 -8.951306e-01 2.921629e-01 3.056367e-01 4.468288e-01 1.161212e+00 1.394658e+00 1.580186e+00 6.456633e-01 1.250909e+00 9.309660e-01 -2.659267e-02
<VARIANCE> 25
 1.287195e+01 1.632436e+01 2.656502e+01 2.621128e+01 3.598554e+01 3.024812e+01 2.660951e+01 2.918663e+01 2.326091e+01 2.708141e+01 2.985166e+01 2.042352e+01 1.694754e+00 1.478070e+00 1.983968e+00 2.549136e+00 2.728160e+00 2.673733e+00 2.342604e+00 2.188366e+00 2.229925e+00 3.616947e+00 3.279722e+00 1.835952e+00 2.636328e-03
<GCONST> 8.845170e+01
<MIXTURE> 99 6.696178e-03
<MEAN> 25
 -5.958282e+00 9.640250e+00 6.502063e+00 3.461468e+00 1.151457e+00 -5.296918e+00 -1.575174e+00 -4.079896e+00 -3.349545e+00 -3.426658e+00 -1.687138e+00 5.979657e-01 5.534600e-01 -7.335882e-01 3.300538e-01 -4.862672e-01 -1.106472e+00 -4.589923e-01 -4.303814e-01 -3.039771e-01 -1.578852e-01 -7.524952e-03 2.498419e-01 1.311486e-01 1.111937e-02
<VARIANCE> 25
 3.789584e+01 2.613606e+01 4.575853e+01 3.126226e+01 3.557746e+01 3.432734e+01 2.718929e+01 2.917163e+01 2.577158e+01 2.900565e+01 2.004806e+01 2.823252e+01 2.256181e+00 1.956954e+00 1.416932e+00 2.131402e+00 2.762036e+00 2.067801e+00 1.863012e+00 1.767918e+00 1.529016e+00 1.597765e+00 1.281003e+00 1.272814e+00 1.505388e-03
<GCONST> 8.725813e+01
<MIXTURE> 100 4.498084e-03
<MEAN> 25
 -1.588898e+00 6.323909e+00 1.026641e+01 -7.454704e+00 -1.068756e+01 -5.047606e+00 -4.987381e+00 -9.915593e+00 -4.724581e+00 -8.152604e-01 -2.705564e+00 -2.684193e+00 2.900405e+00 -1.268240e+00 1.300336e+00 -2.167387e+00 -3.427695e+00 -7.758688e-01 -1.197527e+00 -8.264483e-01 -1.482494e+00 3.685034e-01 -1.622467e+00 -2.872598e-01 2.245407e-03
<VARIANCE> 25
 1.353676e+01 2.095771e+01 2.235336e+01 2.623776e+01 2.403100e+01 2.363944e+01 2.919176e+01 2.190828e+01 2.731590e+01 2.272097e+01 2.236859e+01 2.125711e+01 1.824474e+00 3.933244e+00 2.899719e+00 4.302365e+00 4.162608e+00 4.517055e+00 4.053291e+00 4.314711e+00 4.144361e+00 3.927709e+00 4.021001e+00 3.201854e+00 1.668723e-03
<GCONST> 9.260660e+01
<MIXTURE> 101 6.007792e-03
<MEAN> 25
 7.846048e+00 -3.734345e+00 -5.853884e+00 -6.399965e+00 3.879309e-01 -1.160116e+00 -9.960550e+00 -2.251584e+00 1.498751e+00 3.048602e+00 -1.827025e+00 -4.897092e+00 6.103859e-01 5.968191e-01 -1.520563e+00 -1.505785e+00 9.659963e-01 2.160060e+00 1.984704e-01 -1.424510e+00 -8.598241e-01 1.130734e+00 1.441469e+00 -5.888897e-01 -3.256738e-03
<VARIANCE> 25
 9.085188e+00 1.584244e+01 2.999467e+01 4.043040e+01 3.540988e+01 3.336526e+01 3.706435e+01 3.457958e+01 3.541372e+01 4.551299e+01 5.181226e+01 2.329852e+01 3.004253e-01 6.531358e-01 1.119264e+00 1.533773e+00 1.615620e+00 2.147220e+00 1.910143e+00 1.824517e+00 2.610373e+00 2.151323e+00 1.975381e+00 2.069774e+00 3.586031e-04
<GCONST> 8.333317e+01
<MIXTURE> 102 6.007792e-03
<MEAN> 25
 7.846048e+00 -3.734345e+00 -5.853884e+00 -6.399965e+00 3.879309e-01 -1.160116e+00 -9.960550e+00 -2.251584e+00 1.498751e+00 3.048602e+00 -1.827025e+00 -4.897092e+00 6.103859e-01 5.968191e-01 -1.520563e+00 -1.505785e+00 9.659963e-01 2.160060e+00 1.984704e-01 -1.424510e+00 -8.598241e-01 1.130734e+00 1.441469e+00 -5.888897e-01 -3.256738e-03
<VARIANCE> 25
 9.085188e+00 1.584244e+01 2.999467e+01 4.043040e+01 3.540988e+01 3.336526e+01 3.706435e+01 3.457958e+01 3.541372e+01 4.551299e+01 5.181226e+01 2.329852e+01 3.004253e-01 6.531358e-01 1.119264e+00 1.533773e+00 1.615620e+00 2.147220e+00 1.910143e+00 1.824517e+00 2.610373e+00 2.151323e+00 1.975381e+00 2.069774e+00 3.586031e-04
<GCONST> 8.333317e+01
<MIXTURE> 103 5.694618e-03
<MEAN> 25
 3.375351e+00 -9.403476e+00 -5.948244e+00 -3.050719e+00 -1.390952e+00 -1.940141e+00 2.356073e+00 2.406749e+00 -4.535923e+00 -9.208653e+00 -5.126876e+00 3.926112e-01 -1.536728e-01 -1.479783e+00 -9.865419e-01 3.739324e-01 1.203202e+00 1.019216e+00 1.610790e-01 -2.830091e-01 -7.837201e-01 -9.150609e-01 1.973148e-02 1.117152e-01 2.691086e-02
<VARIANCE> 25
 1.039189e+01 2.041545e+01 2.468188e+01 3.130870e+01 4.748056e+01 3.450723e+01 4.619900e+01 3.686034e+01 4.199559e+01 2.901110e+01 2.992632e+01 2.607090e+01 6.347048e-01 1.236386e+00 1.525109e+00 1.926060e+00 2.887249e+00 2.390845e+00 2.848287e+00 2.568957e+00 2.534161e+00 2.549980e+00 2.246115e+00 2.012566e+00 7.975331e-04
<GCONST> 8.755848e+01
<MIXTURE> 104 5.694618e-03
<MEAN> 25
 3.375351e+00 -9.403476e+00 -5.948244e+00 -3.050719e+00 -1.390952e+00 -1.940141e+00 2.356073e+00 2.406749e+00 -4.535923e+00 -9.208653e+00 -5.126876e+00 3.926112e-01 -1.536728e-01 -1.479783e+00 -9.865419e-01 3.739324e-01 1.203202e+00 1.019216e+00 1.610790e-01 -2.830091e-01 -7.837201e-01 -9.150609e-01 1.973148e-02 1.117152e-01 2.691086e-02
<VARIANCE> 25
 1.039189e+01 2.041545e+01 2.468188e+01 3.130870e+01 4.748056e+01 3.450723e+01 4.619900e+01 3.686034e+01 4.199559e+01 2.901110e+01 2.992632e+01 2.607090e+01 6.347048e-01 1.236386e+00 1.525109e+00 1.926060e+00 2.887249e+00 2.390845e+00 2.848287e+00 2.568957e+00 2.534161e+00 2.549980e+00 2.246115e+00 2.012566e+00 7.975331e-04
<GCONST> 8.755848e+01
<MIXTURE> 105 4.710235e-03
<MEAN> 25
 2.217439e+00 -1.404251e+00 9.143365e+00 -2.410174e+00 -1.118505e+01 -5.109351e+00 -4.078079e+00 -8.376195e-01 -3.815192e+00 -3.381627e+00 1.501021e+00 -9.794421e-01 1.747538e-02 1.542062e-02 5.386386e-02 -3.234065e-02 -3.423728e-02 6.590121e-02 -1.183822e-02 7.824434e-02 -6.564502e-02 3.497191e-02 2.155841e-02 4.875870e-04 -2.291633e-03
<VARIANCE> 25
 1.344220e+01 2.729393e+01 3.992355e+01 4.661685e+01 3.950299e+01 5.097176e+01 3.949492e+01 4.126493e+01 4.012437e+01 4.038571e+01 4.447408e+01 2.971461e+01 8.330053e-02 1.909687e-01 3.367075e-01 3.003043e-01 4.286931e-01 4.486411e-01 4.501482e-01 4.941309e-01 4.848250e-01 4.419987e-01 4.454662e-01 3.991473e-01 9.066216e-05
<GCONST> 6.680179e+01
<MIXTURE> 106 4.710235e-03
<MEAN> 25
 2.217439e+00 -1.404251e+00 9.143365e+00 -2.410174e+00 -1.118505e+01 -5.109351e+00 -4.078079e+00 -8.376195e-01 -3.815192e+00 -3.381627e+00 1.501021e+00 -9.794421e-01 1.747538e-02 1.542062e-02 5.386386e-02 -3.234065e-02 -3.423728e-02 6.590121e-02 -1.183822e-02 7.824434e-02 -6.564502e-02 3.497191e-02 2.155841e-02 4.875870e-04 -2.291633e-03
<VARIANCE> 25
 1.344220e+01 2.729393e+01 3.992355e+01 4.661685e+01 3.950299e+01 5.097176e+01 3.949492e+01 4.126493e+01 4.012437e+01 4.038571e+01 4.447408e+01 2.971461e+01 8.330053e-02 1.909687e-01 3.367075e-01 3.003043e-01 4.286931e-01 4.486411e-01 4.501482e-01 4.941309e-01 4.848250e-01 4.419987e-01 4.454662e-01 3.991473e-01 9.066216e-05
<GCONST> 6.680179e+01
<MIXTURE> 107 5.452374e-03
<MEAN> 25
 8.556326e+00 -2.282068e+00 -7.351095e+00 -9.192865e+00 1.416996e+00 3.187216e+00 -8.427888e+00 -4.469864e+00 -7.683221e-01 2.748456e+00 2.028201e-01 -4.830904e+00 -6.231657e-01 -7.807234e-01 8.892263e-01 1.924634e+00 3.260265e-01 -2.025002e+00 -9.682184e-01 7.869674e-01 1.735497e+00 5.676785e-02 -1.724965e+00 -7.498559e-01 -3.026125e-03
<VARIANCE> 25
 8.847767e+00 1.939074e+01 3.394810e+01 4.359933e+01 3.883347e+01 3.724559e+01 4.899535e+01 3.462197e+01 4.344183e+01 4.543411e+01 5.569792e+01 2.967873e+01 3.394725e-01 9.278512e-01 1.423314e+00 2.653927e+00 2.323690e+00 2.763104e+00 2.519680e+00 2.452755e+00 2.192920e+00 2.855080e+00 1.989201e+00 2.165947e+00 6.899444e-04
<GCONST> 8.797353e+01
<MIXTURE> 108 5.452374e-03
<MEAN> 25
 8.556326e+00 -2.282068e+00 -7.351095e+00 -9.192865e+00 1.416996e+00 3.187216e+00 -8.427888e+00 -4.469864e+00 -7.683221e-01 2.748456e+00 2.028201e-01 -4.830904e+00 -6.231657e-01 -7.807234e-01 8.892263e-01 1.924634e+00 3.260265e-01 -2.025002e+00 -9.682184e-01 7.869674e-01 1.735497e+00 5.676785e-02 -1.724965e+00 -7.498559e-01 -3.026125e-03
<VARIANCE> 25
 8.847767e+00 1.939074e+01 3.394810e+01 4.359933e+01 3.883347e+01 3.724559e+01 4.899535e+01 3.462197e+01 4.344183e+01 4.543411e+01 5.569792e+01 2.967873e+01 3.394725e-01 9.278512e-01 1.423314e+00 2.653927e+00 2.323690e+00 2.763104e+00 2.519680e+00 2.452755e+00 2.192920e+00 2.855080e+00 1.989201e+00 2.165947e+00 6.899444e-04
<GCONST> 8.797353e+01
<MIXTURE> 109 6.661064e-03
<MEAN> 25
 4.085445e+00 -1.054172e+01 -8.285628e+00 -1.356461e+00 2.738385e+00 -4.754640e-02 -8.153382e-02 1.451821e+00 -2.563792e+00 -8.364838e+00 -5.390525e+00 6.668056e-02 -3.317842e-02 -1.328023e-01 -3.302192e-02 2.506193e-01 1.974856e-01 1.176689e-01 -1.243607e-01 -1.068934e-01 -4.179194e-02 -1.299972e-01 2.214338e-01 1.244385e-02 -3.505436e-03
<VARIANCE> 25
 9.081729e+00 1.823411e+01 2.024574e+01 3.139883e+01 4.092472e+01 3.671801e+01 4.662640e+01 3.434665e+01 4.603711e+01 3.534908e+01 2.961175e+01 2.815335e+01 1.928321e-01 4.236294e-01 5.387527e-01 6.348166e-01 1.229209e+00 9.983869e-01 1.257954e+00 1.093338e+00 1.118858e+00 9.520389e-01 8.802179e-01 8.854192e-01 1.818674e-04
<GCONST> 7.447279e+01
<MIXTURE> 110 6.661064e-03
<MEAN> 25
 4.085445e+00 -1.054172e+01 -8.285628e+00 -1.356461e+00 2.738385e+00 -4.754640e-02 -8.153382e-02 1.451821e+00 -2.563792e+00 -8.364838e+00 -5.390525e+00 6.668056e-02 -3.317842e-02 -1.328023e-01 -3.302192e-02 2.506193e-01 1.974856e-01 1.176689e-01 -1.243607e-01 -1.068934e-01 -4.179194e-02 -1.299972e-01 2.214338e-01 1.244385e-02 -3.505436e-03
<VARIANCE> 25
 9.081729e+00 1.823411e+01 2.024574e+01 3.139883e+01 4.092472e+01 3.671801e+01 4.662640e+01 3.434665e+01 4.603711e+01 3.534908e+01 2.961175e+01 2.815335e+01 1.928321e-01 4.236294e-01 5.387527e-01 6.348166e-01 1.229209e+00 9.983869e-01 1.257954e+00 1.093338e+00 1.118858e+00 9.520389e-01 8.802179e-01 8.854192e-01 1.818674e-04
<GCONST> 7.447279e+01
<MIXTURE> 111 4.337247e-03
<MEAN> 25
 -4.435054e+00 -9.295270e-01 -1.549705e+00 2.008275e+00 1.146846e+00 1.141925e+00 4.966785e-01 -1.623771e-01 3.874619e-01 -7.082664e-01 -1.234542e+00 2.377727e+00 -4.108793e-02 -5.320945e-02 -9.197249e-02 -2.694098e-02 -8.380695e-02 2.125953e-02 5.719022e-02 -4.773982e-02 -1.259190e-01 -2.513465e-01 -2.505985e-01 -7.866934e-02 -6.080729e-04
<VARIANCE> 25
 6.410175e+00 4.687171e+00 9.769320e+00 9.232998e+00 1.330110e+01 2.303969e+01 1.452919e+01 1.655285e+01 1.238754e+01 1.168230e+01 1.533183e+01 1.181697e+01 8.071434e-02 1.616959e-01 2.655360e-01 4.468482e-01 5.930578e-01 6.604044e-01 7.966197e-01 7.816724e-01 8.320394e-01 8.722268e-01 8.538988e-01 8.503451e-01 2.229211e-05
<GCONST> 5.600031e+01
<MIXTURE> 112 4.337247e-03
<MEAN> 25
 -4.435054e+00 -9.295270e-01 -1.549705e+00 2.008275e+00 1.146846e+00 1.141925e+00 4.966785e-01 -1.623771e-01 3.874619e-01 -7.082664e-01 -1.234542e+00 2.377727e+00 -4.108793e-02 -5.320945e-02 -9.197249e-02 -2.694098e-02 -8.380695e-02 2.125953e-02 5.719022e-02 -4.773982e-02 -1.259190e-01 -2.513465e-01 -2.505985e-01 -7.866934e-02 -6.080729e-04
<VARIANCE> 25
 6.410175e+00 4.687171e+00 9.769320e+00 9.232998e+00 1.330110e+01 2.303969e+01 1.452919e+01 1.655285e+01 1.238754e+01 1.168230e+01 1.533183e+01 1.181697e+01 8.071434e-02 1.616959e-01 2.655360e-01 4.468482e-01 5.930578e-01 6.604044e-01 7.966197e-01 7.816724e-01 8.320394e-01 8.722268e-01 8.538988e-01 8.503451e-01 2.229211e-05
<GCONST> 5.600031e+01
<MIXTURE> 113 5.938666e-03
<MEAN> 25
 9.892471e+00 2.028140e+00 -8.516538e+00 -1.732675e+01 -1.674658e+00 5.783200e+00 -5.047887e+00 -1.302706e+00 -5.581693e+00 -1.187769e+00 1.015458e+00 -5.730741e-01 3.242031e-02 -2.281182e-02 -6.161949e-02 -8.022653e-02 6.725818e-02 1.119785e-01 8.725046e-02 1.812787e-02 -6.858863e-02 -2.161769e-02 1.371226e-01 8.231452e-03 -1.325760e-03
<VARIANCE> 25
 8.424881e+00 1.638919e+01 2.871790e+01 3.313473e+01 5.495108e+01 3.205583e+01 3.801232e+01 3.698970e+01 3.521007e+01 5.008302e+01 4.108605e+01 2.858025e+01 1.291584e-01 3.307844e-01 2.991569e-01 6.116073e-01 6.040158e-01 6.476322e-01 7.411509e-01 8.007181e-01 9.027709e-01 8.713482e-01 7.200864e-01 6.886753e-01 1.206513e-04
<GCONST> 7.072289e+01
<MIXTURE> 114 5.938666e-03
<MEAN> 25
 9.892471e+00 2.028140e+00 -8.516538e+00 -1.732675e+01 -1.674658e+00 5.783200e+00 -5.047887e+00 -1.302706e+00 -5.581693e+00 -1.187769e+00 1.015458e+00 -5.730741e-01 3.242031e-02 -2.281182e-02 -6.161949e-02 -8.022653e-02 6.725818e-02 1.119785e-01 8.725046e-02 1.812787e-02 -6.858863e-02 -2.161769e-02 1.371226e-01 8.231452e-03 -1.325760e-03
<VARIANCE> 25
 8.424881e+00 1.638919e+01 2.871790e+01 3.313473e+01 5.495108e+01 3.205583e+01 3.801232e+01 3.698970e+01 3.521007e+01 5.008302e+01 4.108605e+01 2.858025e+01 1.291584e-01 3.307844e-01 2.991569e-01 6.116073e-01 6.040158e-01 6.476322e-01 7.411509e-01 8.007181e-01 9.027709e-01 8.713482e-01 7.200864e-01 6.886753e-01 1.206513e-04
<GCONST> 7.072289e+01
<MIXTURE> 115 2.935202e-03
<MEAN> 25
 -4.071604e+00 -8.171214e-01 -3.142604e+00 3.598405e+00 2.543630e+00 -2.947331e-01 2.381886e+00 4.650906e-01 1.359895e+00 -1.069691e-01 -2.209220e-01 2.757260e+00 1.356221e-02 -6.902745e-02 -2.141555e-01 -4.465760e-01 -6.487298e-01 -6.846865e-01 -5.705787e-01 -5.006862e-01 -4.311232e-01 -4.910583e-01 -4.300419e-01 -2.470953e-01 1.358652e-05
<VARIANCE> 25
 8.958720e+00 9.616433e+00 1.307289e+01 1.235701e+01 1.346237e+01 1.739525e+01 1.698737e+01 2.009724e+01 1.742973e+01 1.678531e+01 2.015605e+01 1.424844e+01 2.054718e-01 3.333855e-01 4.751009e-01 5.424376e-01 6.186884e-01 7.755105e-01 9.828486e-01 1.093172e+00 1.114624e+00 1.002624e+00 1.185323e+00 1.201342e+00 9.790499e-07
<GCONST> 6.004426e+01
<MIXTURE> 116 2.935202e-03
<MEAN> 25
 -4.071604e+00 -8.171214e-01 -3.142604e+00 3.598405e+00 2.543630e+00 -2.947331e-01 2.381886e+00 4.650906e-01 1.359895e+00 -1.069691e-01 -2.209220e-01 2.757260e+00 1.356221e-02 -6.902745e-02 -2.141555e-01 -4.465760e-01 -6.487298e-01 -6.846865e-01 -5.705787e-01 -5.006862e-01 -4.311232e-01 -4.910583e-01 -4.300419e-01 -2.470953e-01 1.358652e-05
<VARIANCE> 25
 8.958720e+00 9.616433e+00 1.307289e+01 1.235701e+01 1.346237e+01 1.739525e+01 1.698737e+01 2.009724e+01 1.742973e+01 1.678531e+01 2.015605e+01 1.424844e+01 2.054718e-01 3.333855e-01 4.751009e-01 5.424376e-01 6.186884e-01 7.755105e-01 9.828486e-01 1.093172e+00 1.114624e+00 1.002624e+00 1.185323e+00 1.201342e+00 9.790499e-07
<GCONST> 6.004426e+01
<MIXTURE> 117 6.506003e-03
<MEAN> 25
 -4.644835e+00 1.109284e+00 1.055671e+00 9.745392e+00 6.237040e+00 6.257017e+00 6.466219e+00 5.052548e+00 6.419112e+00 4.909733e+00 6.322503e+00 2.719167e+00 -7.468181e-02 -2.344714e-01 -3.590529e-01 -4.172533e-01 -3.553030e-01 -2.952917e-01 -2.882611e-01 -3.359794e-01 -3.969341e-01 -3.651823e-01 -2.572753e-01 -1.070955e-01 -1.131468e-05
<VARIANCE> 25
 7.155530e+00 8.736983e+00 9.773008e+00 1.428219e+01 1.569995e+01 1.531359e+01 1.765894e+01 1.792397e+01 1.663031e+01 1.641092e+01 1.711131e+01 1.471116e+01 2.157505e-01 3.062622e-01 4.244595e-01 6.161352e-01 8.886374e-01 1.065250e+00 1.173037e+00 1.233895e+00 1.226858e+00 1.193765e+00 1.170696e+00 1.130036e+00 1.000725e-06
<GCONST> 6.050168e+01
<MIXTURE> 118 6.506003e-03
<MEAN> 25
 -4.644835e+00 1.109284e+00 1.055671e+00 9.745392e+00 6.237040e+00 6.257017e+00 6.466219e+00 5.052548e+00 6.419112e+00 4.909733e+00 6.322503e+00 2.719167e+00 -7.468181e-02 -2.344714e-01 -3.590529e-01 -4.172533e-01 -3.553030e-01 -2.952917e-01 -2.882611e-01 -3.359794e-01 -3.969341e-01 -3.651823e-01 -2.572753e-01 -1.070955e-01 -1.131468e-05
<VARIANCE> 25
 7.155530e+00 8.736983e+00 9.773008e+00 1.428219e+01 1.569995e+01 1.531359e+01 1.765894e+01 1.792397e+01 1.663031e+01 1.641092e+01 1.711131e+01 1.471116e+01 2.157505e-01 3.062622e-01 4.244595e-01 6.161352e-01 8.886374e-01 1.065250e+00 1.173037e+00 1.233895e+00 1.226858e+00 1.193765e+00 1.170696e+00 1.130036e+00 1.000725e-06
<GCONST> 6.050168e+01
<MIXTURE> 119 4.297961e-03
<MEAN> 25
 -4.969638e+00 -7.620590e+00 2.230870e+00 2.021707e+00 2.240070e+00 2.108197e-01 5.271757e+00 5.939924e+00 1.167662e+00 9.654815e-01 6.594851e+00 1.569886e+00 -5.099519e-02 -7.819196e-02 3.780780e-02 -5.712569e-02 -1.252985e-01 -1.812073e-01 -6.816348e-02 -1.598836e-02 -9.294980e-02 -1.107153e-01 -5.471084e-02 -5.771364e-02 1.126233e-03
<VARIANCE> 25
 8.534003e+00 9.899112e+00 1.657174e+01 2.015737e+01 2.282763e+01 2.319470e+01 2.496185e+01 2.644983e+01 2.501705e+01 2.803381e+01 2.056525e+01 2.039135e+01 1.611279e-01 2.828729e-01 4.592606e-01 6.324207e-01 8.033189e-01 1.003276e+00 1.100121e+00 1.280986e+00 1.285491e+00 1.247723e+00 1.192224e+00 1.114619e+00 2.314551e-04
<GCONST> 6.973923e+01
<MIXTURE> 120 4.297961e-03
<MEAN> 25
 -4.969638e+00 -7.620590e+00 2.230870e+00 2.021707e+00 2.240070e+00 2.108197e-01 5.271757e+00 5.939924e+00 1.167662e+00 9.654815e-01 6.594851e+00 1.569886e+00 -5.099519e-02 -7.819196e-02 3.780780e-02 -5.712569e-02 -1.252985e-01 -1.812073e-01 -6.816348e-02 -1.598836e-02 -9.294980e-02 -1.107153e-01 -5.471084e-02 -5.771364e-02 1.126233e-03
<VARIANCE> 25
 8.534003e+00 9.899112e+00 1.657174e+01 2.015737e+01 2.282763e+01 2.319470e+01 2.496185e+01 2.644983e+01 2.501705e+01 2.803381e+01 2.056525e+01 2.039135e+01 1.611279e-01 2.828729e-01 4.592606e-01 6.324207e-01 8.033189e-01 1.003276e+00 1.100121e+00 1.280986e+00 1.285491e+00 1.247723e+00 1.192224e+00 1.114619e+00 2.314551e-04
<GCONST> 6.973923e+01
<MIXTURE> 121 4.567511e-03
<MEAN> 25
 2.636559e-01 -2.443245e+00 4.971147e+00 -1.287881e+01 -1.265376e+01 -1.820697e+00 9.199932e-01 -4.987421e+00 -3.981425e+00 -4.629959e-01 -5.484492e+00 -4.153787e+00 3.565666e-02 1.514106e-01 -3.457102e-02 7.519458e-02 1.416125e-01 7.896176e-02 -8.496752e-02 -1.755911e-01 -2.636735e-01 -2.358608e-01 -7.021773e-02 8.351651e-03 -7.418872e-03
<VARIANCE> 25
 7.731030e+00 1.562859e+01 1.858019e+01 2.010421e+01 2.394941e+01 2.983836e+01 2.923276e+01 2.475462e+01 3.680371e+01 2.783064e+01 1.940512e+01 2.193307e+01 1.584581e-01 6.513885e-01 6.134326e-01 6.914536e-01 7.696075e-01 1.128193e+00 1.097309e+00 1.102957e+00 1.196077e+00 1.190386e+00 1.014550e+00 8.570029e-01 2.067703e-04
<GCONST> 7.145621e+01
<MIXTURE> 122 4.567511e-03
<MEAN> 25
 2.636559e-01 -2.443245e+00 4.971147e+00 -1.287881e+01 -1.265376e+01 -1.820697e+00 9.199932e-01 -4.987421e+00 -3.981425e+00 -4.629959e-01 -5.484492e+00 -4.153787e+00 3.565666e-02 1.514106e-01 -3.457102e-02 7.519458e-02 1.416125e-01 7.896176e-02 -8.496752e-02 -1.755911e-01 -2.636735e-01 -2.358608e-01 -7.021773e-02 8.351651e-03 -7.418872e-03
<VARIANCE> 25
 7.731030e+00 1.562859e+01 1.858019e+01 2.010421e+01 2.394941e+01 2.983836e+01 2.923276e+01 2.475462e+01 3.680371e+01 2.783064e+01 1.940512e+01 2.193307e+01 1.584581e-01 6.513885e-01 6.134326e-01 6.914536e-01 7.696075e-01 1.128193e+00 1.097309e+00 1.102957e+00 1.196077e+00 1.190386e+00 1.014550e+00 8.570029e-01 2.067703e-04
<GCONST> 7.145621e+01
<MIXTURE> 123 4.393044e-03
<MEAN> 25
 -3.695216e+00 1.104500e+00 4.366510e-01 5.481245e+00 4.350107e+00 2.861651e+00 2.503248e+00 -4.246621e-01 4.639374e-01 -8.084755e-01 -9.302922e-01 8.808183e-01 -5.206319e-01 -8.202933e-01 -8.576759e-01 -5.529820e-01 -4.141016e-01 -1.923389e-02 4.717465e-01 4.111010e-01 6.040049e-01 7.280715e-01 6.917450e-01 5.689182e-01 -5.146648e-03
<VARIANCE> 25
 1.037747e+01 8.790087e+00 1.366678e+01 1.704412e+01 2.275158e+01 2.535664e+01 2.134227e+01 1.994081e+01 1.645215e+01 1.566294e+01 2.277891e+01 1.722764e+01 3.236949e-01 3.296381e-01 4.351884e-01 6.526455e-01 9.508817e-01 1.027018e+00 1.104232e+00 1.362811e+00 1.197177e+00 1.212046e+00 1.117013e+00 1.148544e+00 1.134649e-04
<GCONST> 6.827218e+01
<MIXTURE> 124 4.069876e-03
<MEAN> 25
 -6.294416e+00 -1.395935e+00 -2.695527e+00 5.237243e+00 4.814834e+00 4.014890e+00 5.541402e+00 2.608663e+00 3.878945e+00 5.878757e-01 -4.384488e-01 3.515145e+00 -1.706172e-01 -2.719961e-01 -2.839888e-01 -1.394690e-01 7.986671e-02 5.402350e-01 7.707721e-01 7.729762e-01 5.596300e-01 1.583336e-01 9.532567e-02 -6.900489e-02 2.564276e-04
<VARIANCE> 25
 9.179399e+00 6.153041e+00 9.544175e+00 1.037900e+01 1.081823e+01 1.796160e+01 1.328404e+01 1.484013e+01 1.564111e+01 1.723329e+01 2.486133e+01 1.340560e+01 1.010208e-01 1.621026e-01 2.751503e-01 4.124993e-01 5.737716e-01 6.375641e-01 6.762716e-01 7.811456e-01 8.312304e-01 1.179337e+00 9.403029e-01 9.254096e-01 1.704075e-05
<GCONST> 5.746508e+01
<MIXTURE> 125 4.069876e-03
<MEAN> 25
 -6.294416e+00 -1.395935e+00 -2.695527e+00 5.237243e+00 4.814834e+00 4.014890e+00 5.541402e+00 2.608663e+00 3.878945e+00 5.878757e-01 -4.384488e-01 3.515145e+00 -1.706172e-01 -2.719961e-01 -2.839888e-01 -1.394690e-01 7.986671e-02 5.402350e-01 7.707721e-01 7.729762e-01 5.596300e-01 1.583336e-01 9.532567e-02 -6.900489e-02 2.564276e-04
<VARIANCE> 25
 9.179399e+00 6.153041e+00 9.544175e+00 1.037900e+01 1.081823e+01 1.796160e+01 1.328404e+01 1.484013e+01 1.564111e+01 1.723329e+01 2.486133e+01 1.340560e+01 1.010208e-01 1.621026e-01 2.751503e-01 4.124993e-01 5.737716e-01 6.375641e-01 6.762716e-01 7.811456e-01 8.312304e-01 1.179337e+00 9.403029e-01 9.254096e-01 1.704075e-05
<GCONST> 5.746508e+01
<MIXTURE> 126 2.402244e-03
<MEAN> 25
 -3.807824e+00 -6.898880e+00 -5.251366e+00 2.352306e+00 4.278317e+00 -3.152006e+00 1.203916e-01 3.551478e+00 3.351348e+00 -2.701619e+00 -1.494287e+00 3.073691e+00 -3.991604e-03 -4.277493e-03 -3.278436e-02 -1.609187e-01 -3.141733e-01 -3.886949e-01 -2.738881e-01 -1.546847e-01 -1.177190e-01 -1.189999e-01 -1.023545e-01 -3.461586e-02 -1.487329e-03
<VARIANCE> 25
 7.413116e+00 1.265527e+01 1.383659e+01 1.510009e+01 2.446158e+01 2.427473e+01 2.278561e+01 2.818456e+01 3.104593e+01 2.616023e+01 2.204789e+01 1.907823e+01 1.707888e-01 3.500199e-01 4.807302e-01 5.641593e-01 7.583923e-01 9.909080e-01 1.122241e+00 1.257562e+00 1.327899e+00 1.311274e+00 1.211965e+00 1.154423e+00 2.091321e-04
<GCONST> 6.977794e+01
<MIXTURE> 127 2.402244e-03
<MEAN> 25
 -3.807824e+00 -6.898880e+00 -5.251366e+00 2.352306e+00 4.278317e+00 -3.152006e+00 1.203916e-01 3.551478e+00 3.351348e+00 -2.701619e+00 -1.494287e+00 3.073691e+00 -3.991604e-03 -4.277493e-03 -3.278436e-02 -1.609187e-01 -3.141733e-01 -3.886949e-01 -2.738881e-01 -1.546847e-01 -1.177190e-01 -1.189999e-01 -1.023545e-01 -3.461586e-02 -1.487329e-03
<VARIANCE> 25
 7.413116e+00 1.265527e+01 1.383659e+01 1.510009e+01 2.446158e+01 2.427473e+01 2.278561e+01 2.818456e+01 3.104593e+01 2.616023e+01 2.204789e+01 1.907823e+01 1.707888e-01 3.500199e-01 4.807302e-01 5.641593e-01 7.583923e-01 9.909080e-01 1.122241e+00 1.257562e+00 1.327899e+00 1.311274e+00 1.211965e+00 1.154423e+00 2.091321e-04
<GCONST> 6.977794e+01
<MIXTURE> 128 3.790457e-03
<MEAN> 25
 -3.949274e+00 1.485604e+00 -2.386274e-01 6.582873e+00 3.467692e+00 1.959007e+00 3.729645e+00 2.610908e+00 4.479051e+00 3.579308e+00 3.442646e+00 3.585019e+00 -3.817958e-01 -1.944991e-01 6.812172e-02 6.820590e-01 1.265503e+00 1.151734e+00 6.416133e-01 5.612230e-02 -4.996839e-01 -7.163662e-01 -6.035507e-01 -2.707995e-01 -5.705580e-05
<VARIANCE> 25
 9.729188e+00 1.136056e+01 1.443089e+01 1.833183e+01 1.971287e+01 2.134300e+01 2.349803e+01 2.473300e+01 3.078717e+01 2.291665e+01 2.734461e+01 1.733988e+01 8.636347e-01 1.098757e+00 1.315076e+00 1.540051e+00 1.618073e+00 1.797651e+00 2.252576e+00 2.332538e+00 2.109409e+00 1.858425e+00 1.826795e+00 1.962070e+00 9.645130e-07
<GCONST> 7.352884e+01
<TRANSP> 3
 0.000000e+00 1.000000e+00 0.000000e+00
 0.000000e+00 9.999990e-01 9.999998e-07
 0.000000e+00 0.000000e+00 0.000000e+00
<ENDHMM>
