~o
<STREAMINFO> 1 25
<VECSIZE> 25<NULLD><MFCC_E_D_N><DIAGC>
~h "jmodel"
<BEGINHMM>
<NUMSTATES> 3
<STATE> 2
<NUMMIXES> 128
<MIXTURE> 1 5.748963e-03
<MEAN> 25
 -2.581116e+00 3.170200e+00 2.130476e+00 8.543267e+00 4.524042e+00 3.472312e+00 3.963758e+00 3.693790e+00 5.695417e+00 5.388612e+00 5.871583e+00 2.986772e+00 -1.984173e+00 -1.638361e+00 -8.478507e-01 1.161007e+00 1.611030e+00 2.215952e+00 2.110992e+00 2.056082e+00 1.676956e+00 1.212637e+00 1.466972e+00 5.580906e-01 -4.635734e-02
<VARIANCE> 25
 9.808805e+00 1.145325e+01 1.578536e+01 1.977416e+01 2.347111e+01 2.160425e+01 2.166401e+01 2.349698e+01 2.108925e+01 2.283469e+01 2.044343e+01 1.695045e+01 1.756896e+00 2.063596e+00 2.954625e+00 3.401902e+00 3.733010e+00 3.281761e+00 3.298873e+00 3.319994e+00 3.437689e+00 3.741682e+00 3.791020e+00 2.871708e+00 3.049584e-03
<GCONST> 8.854210e+01
<MIXTURE> 2 4.549242e-03
<MEAN> 25
 -4.875861e+00 1.313376e+00 9.949619e-01 9.898209e+00 6.692018e+00 7.423305e+00 7.846969e+00 6.955914e+00 8.371423e+00 6.371644e+00 7.621659e+00 3.073632e+00 -6.199666e-02 4.163681e-02 1.424682e-01 2.257343e-01 2.651320e-01 2.811157e-01 2.956154e-01 3.197162e-01 3.500445e-01 3.091374e-01 1.969292e-01 7.999962e-02 1.121176e-06
<VARIANCE> 25
 6.950880e+00 8.909900e+00 1.065107e+01 1.591771e+01 1.723182e+01 1.556638e+01 1.689600e+01 1.849930e+01 1.659718e+01 1.738914e+01 1.813575e+01 1.434150e+01 1.252207e-01 2.266003e-01 3.364045e-01 4.671290e-01 6.492149e-01 8.150830e-01 9.298193e-01 1.003034e+00 1.051859e+00 1.077684e+00 1.075634e+00 1.013806e+00 1.000185e-06
<GCONST> 5.804650e+01
<MIXTURE> 3 4.549242e-03
<MEAN> 25
 -4.875861e+00 1.313376e+00 9.949619e-01 9.898209e+00 6.692018e+00 7.423305e+00 7.846969e+00 6.955914e+00 8.371423e+00 6.371644e+00 7.621659e+00 3.073632e+00 -6.199666e-02 4.163681e-02 1.424682e-01 2.257343e-01 2.651320e-01 2.811157e-01 2.956154e-01 3.197162e-01 3.500445e-01 3.091374e-01 1.969292e-01 7.999962e-02 1.121176e-06
<VARIANCE> 25
 6.950880e+00 8.909900e+00 1.065107e+01 1.591771e+01 1.723182e+01 1.556638e+01 1.689600e+01 1.849930e+01 1.659718e+01 1.738914e+01 1.813575e+01 1.434150e+01 1.252207e-01 2.266003e-01 3.364045e-01 4.671290e-01 6.492149e-01 8.150830e-01 9.298193e-01 1.003034e+00 1.051859e+00 1.077684e+00 1.075634e+00 1.013806e+00 1.000185e-06
<GCONST> 5.804650e+01
<MIXTURE> 4 1.671429e-02
<MEAN> 25
 3.365353e+00 2.608891e+00 -3.800719e+00 8.241107e-01 4.350881e+00 -8.305429e-02 1.486219e-01 -3.756240e-02 1.516138e+00 1.422052e+00 -1.785354e+00 1.313895e-01 -2.719601e+00 1.158967e+00 1.729883e+00 3.082869e+00 9.760085e-01 4.855566e-01 1.498558e+00 1.031052e+00 9.621801e-01 3.949408e-01 1.194983e+00 8.477443e-01 -1.018011e-01
<VARIANCE> 25
 2.094877e+01 2.893013e+01 2.861794e+01 4.036320e+01 4.508875e+01 6.759342e+01 6.350693e+01 5.256826e+01 5.378389e+01 6.163100e+01 4.999653e+01 3.553512e+01 2.355241e+00 5.132395e+00 3.684165e+00 4.979167e+00 4.991574e+00 6.018314e+00 5.991091e+00 5.404432e+00 5.804356e+00 6.331247e+00 6.125678e+00 4.416358e+00 6.080765e-03
<GCONST> 1.052107e+02
<MIXTURE> 5 3.206198e-03
<MEAN> 25
 -3.419208e+00 2.189719e+00 6.110775e-01 9.419186e+00 6.694714e+00 6.311106e+00 7.114722e+00 4.715172e+00 5.489391e+00 3.846999e+00 4.650699e+00 2.607599e+00 -3.244326e-01 7.521364e-01 1.223829e+00 1.031866e+00 3.086106e-01 -9.918446e-02 -8.390572e-02 3.144147e-02 4.561353e-01 6.834729e-01 4.039312e-01 8.903394e-02 -2.539651e-05
<VARIANCE> 25
 1.024252e+01 1.398756e+01 2.346293e+01 2.566949e+01 2.020349e+01 1.942428e+01 2.009864e+01 2.039349e+01 2.143594e+01 2.126311e+01 2.412622e+01 1.635099e+01 1.208714e+00 1.243448e+00 1.356468e+00 1.672450e+00 2.283706e+00 2.375413e+00 2.299190e+00 2.279706e+00 2.319715e+00 2.235785e+00 2.083639e+00 1.873637e+00 1.006539e-06
<GCONST> 7.517349e+01
<MIXTURE> 6 5.475854e-03
<MEAN> 25
 9.566526e+00 -1.635527e+00 -6.958078e+00 -1.178246e+01 -2.244987e+00 7.574848e+00 -5.135546e+00 -4.921166e+00 -3.300428e+00 1.773452e+00 4.352805e+00 -9.544840e-01 5.194893e-01 1.274156e+00 -4.512115e-01 -1.485796e+00 -6.569226e-01 1.264237e+00 1.514768e+00 -2.958354e-02 -1.030043e+00 -1.268592e+00 2.704859e-01 1.458842e+00 -1.211104e-02
<VARIANCE> 25
 7.839248e+00 2.329916e+01 2.058580e+01 3.557463e+01 3.104289e+01 2.939979e+01 4.054570e+01 3.285993e+01 3.479543e+01 3.417659e+01 3.595763e+01 2.687191e+01 3.048221e-01 1.350884e+00 8.943116e-01 1.699466e+00 1.369184e+00 2.124671e+00 1.664952e+00 2.255357e+00 2.246354e+00 1.722265e+00 2.096683e+00 1.546614e+00 5.611951e-04
<GCONST> 8.268243e+01
<MIXTURE> 7 5.475854e-03
<MEAN> 25
 9.566526e+00 -1.635527e+00 -6.958078e+00 -1.178246e+01 -2.244987e+00 7.574848e+00 -5.135546e+00 -4.921166e+00 -3.300428e+00 1.773452e+00 4.352805e+00 -9.544840e-01 5.194893e-01 1.274156e+00 -4.512115e-01 -1.485796e+00 -6.569226e-01 1.264237e+00 1.514768e+00 -2.958354e-02 -1.030043e+00 -1.268592e+00 2.704859e-01 1.458842e+00 -1.211104e-02
<VARIANCE> 25
 7.839248e+00 2.329916e+01 2.058580e+01 3.557463e+01 3.104289e+01 2.939979e+01 4.054570e+01 3.285993e+01 3.479543e+01 3.417659e+01 3.595763e+01 2.687191e+01 3.048221e-01 1.350884e+00 8.943116e-01 1.699466e+00 1.369184e+00 2.124671e+00 1.664952e+00 2.255357e+00 2.246354e+00 1.722265e+00 2.096683e+00 1.546614e+00 5.611951e-04
<GCONST> 8.268243e+01
<MIXTURE> 8 1.165917e-02
<MEAN> 25
 -4.766215e+00 1.406488e+00 1.219513e+00 9.490012e+00 6.617573e+00 6.192293e+00 6.382508e+00 5.541054e+00 6.526885e+00 5.470635e+00 6.446400e+00 3.056394e+00 -6.162273e-01 -1.434963e+00 -1.077544e+00 -1.730964e+00 -2.738598e-01 -9.834440e-01 -1.825775e-01 -2.831476e-01 -2.520970e-01 -1.487015e-01 -1.930009e-01 6.362943e-02 9.820954e-02
<VARIANCE> 25
 9.187684e+00 1.012177e+01 1.159622e+01 1.585173e+01 1.643601e+01 1.551941e+01 1.808997e+01 1.793631e+01 1.735826e+01 1.835428e+01 1.904631e+01 1.406403e+01 2.712010e+00 2.753629e+00 3.841782e+00 3.707186e+00 3.447007e+00 3.316020e+00 3.061835e+00 3.012384e+00 2.818176e+00 2.641625e+00 2.392840e+00 1.877280e+00 6.544769e-03
<GCONST> 8.617715e+01
<MIXTURE> 9 1.199672e-02
<MEAN> 25
 9.112887e+00 3.529705e+00 -6.336521e+00 -1.109068e+01 -2.437884e+00 4.783864e+00 -2.094522e+00 -2.142185e+00 -5.270093e+00 -1.191775e+00 5.637907e-01 9.548096e-02 1.354063e+00 -1.933728e-01 -4.301932e-01 -2.666716e+00 -1.616983e+00 9.104838e-01 -1.004992e+00 -1.376874e-01 -1.364677e-01 -5.946051e-01 6.550727e-01 -8.498078e-02 7.080927e-02
<VARIANCE> 25
 1.234121e+01 2.136221e+01 3.245973e+01 5.884718e+01 4.907345e+01 3.130867e+01 4.254440e+01 5.002913e+01 4.054029e+01 3.977721e+01 3.429084e+01 2.592501e+01 2.127725e+00 2.436373e+00 4.405437e+00 4.660594e+00 4.819331e+00 3.965626e+00 4.067892e+00 5.887658e+00 4.860490e+00 3.923923e+00 3.854715e+00 2.798672e+00 2.229803e-03
<GCONST> 9.826714e+01
<MIXTURE> 10 6.596976e-03
<MEAN> 25
 8.208041e-01 7.627751e+00 5.370450e+00 7.139642e+00 1.585263e+00 -2.113408e+00 -5.163103e-01 -1.679772e+00 8.713386e-01 8.556641e-01 8.440667e-01 6.616689e-01 -1.924705e+00 -6.713521e-01 -4.578168e-01 3.023432e+00 2.464698e+00 2.706552e+00 2.373871e+00 2.275184e+00 1.861326e+00 1.542222e+00 2.333992e+00 5.230827e-01 -1.380030e-01
<VARIANCE> 25
 1.952138e+01 2.069599e+01 2.231078e+01 2.909838e+01 3.830611e+01 3.490777e+01 3.510811e+01 3.384270e+01 2.758599e+01 2.908460e+01 2.694560e+01 2.500513e+01 2.232512e+00 3.427161e+00 5.528999e+00 5.188825e+00 5.548337e+00 4.477956e+00 4.695474e+00 4.843322e+00 4.383722e+00 5.021754e+00 4.442797e+00 3.189936e+00 2.708330e-03
<GCONST> 9.746281e+01
<MIXTURE> 11 1.633820e-02
<MEAN> 25
 7.334194e+00 2.642337e+00 2.169728e+00 4.385001e+00 -4.504116e+00 -2.279294e+00 -4.419195e-01 -5.782851e+00 -9.495088e-01 2.658153e+00 -5.799006e+00 -2.697006e+00 -3.667707e-01 8.926080e-01 -1.340467e-01 -3.400354e-01 8.339708e-01 -7.681642e-02 2.895149e-01 -3.023396e-01 -2.835747e-01 1.303246e-01 -1.712189e-01 5.610687e-03 -2.943809e-02
<VARIANCE> 25
 7.175492e+00 1.879636e+01 1.293019e+01 2.141083e+01 2.633579e+01 2.542680e+01 3.185187e+01 3.196603e+01 2.977158e+01 2.771937e+01 3.028676e+01 1.991631e+01 6.529115e-01 1.064125e+00 1.060784e+00 1.630760e+00 1.969504e+00 1.865358e+00 1.470893e+00 1.877601e+00 1.551353e+00 1.798100e+00 1.806090e+00 9.470394e-01 7.565836e-04
<GCONST> 7.990206e+01
<MIXTURE> 12 5.904134e-03
<MEAN> 25
 1.033454e+01 3.911175e+00 -5.353271e+00 -1.641385e+01 -8.309599e+00 8.097714e+00 -3.862880e-01 -2.138118e+00 -1.656789e+00 -4.316864e+00 1.513193e+00 1.131503e+00 -3.633088e-02 4.076702e-01 1.557129e-01 -4.294150e-01 -3.424948e-01 -1.317997e-01 2.717477e-01 4.990503e-01 1.137801e-01 -3.510237e-01 -3.181273e-01 6.679886e-02 -9.514038e-03
<VARIANCE> 25
 8.857736e+00 1.998888e+01 2.452193e+01 3.209134e+01 3.700390e+01 3.079494e+01 3.747737e+01 4.279263e+01 3.808590e+01 3.405030e+01 3.301195e+01 2.625447e+01 2.959184e-01 1.023383e+00 9.471921e-01 1.101635e+00 1.056387e+00 1.380726e+00 1.067456e+00 1.332246e+00 1.142569e+00 1.109891e+00 1.198376e+00 9.693678e-01 6.012791e-04
<GCONST> 7.869095e+01
<MIXTURE> 13 5.904134e-03
<MEAN> 25
 1.033454e+01 3.911175e+00 -5.353271e+00 -1.641385e+01 -8.309599e+00 8.097714e+00 -3.862880e-01 -2.138118e+00 -1.656789e+00 -4.316864e+00 1.513193e+00 1.131503e+00 -3.633088e-02 4.076702e-01 1.557129e-01 -4.294150e-01 -3.424948e-01 -1.317997e-01 2.717477e-01 4.990503e-01 1.137801e-01 -3.510237e-01 -3.181273e-01 6.679886e-02 -9.514038e-03
<VARIANCE> 25
 8.857736e+00 1.998888e+01 2.452193e+01 3.209134e+01 3.700390e+01 3.079494e+01 3.747737e+01 4.279263e+01 3.808590e+01 3.405030e+01 3.301195e+01 2.625447e+01 2.959184e-01 1.023383e+00 9.471921e-01 1.101635e+00 1.056387e+00 1.380726e+00 1.067456e+00 1.332246e+00 1.142569e+00 1.109891e+00 1.198376e+00 9.693678e-01 6.012791e-04
<GCONST> 7.869095e+01
<MIXTURE> 14 6.488954e-03
<MEAN> 25
 -4.321144e+00 -3.668186e-01 -3.059885e-01 8.897420e+00 7.526249e+00 7.364222e+00 7.818267e+00 7.294485e+00 7.226157e+00 5.212141e+00 6.846220e+00 4.092568e+00 -2.746803e-01 1.897164e-01 3.653544e-01 3.148933e-01 6.192429e-03 5.889945e-02 9.773238e-02 1.774679e-01 2.966127e-01 5.362486e-01 5.079911e-01 7.625111e-02 -9.216609e-03
<VARIANCE> 25
 9.268612e+00 1.390453e+01 1.862111e+01 1.783865e+01 2.088305e+01 1.960295e+01 2.149411e+01 2.084918e+01 2.019400e+01 2.392345e+01 2.143097e+01 1.595972e+01 9.599797e-01 1.643469e+00 1.768824e+00 1.940524e+00 2.244811e+00 2.264836e+00 2.250972e+00 2.234332e+00 2.277781e+00 2.504134e+00 2.196144e+00 1.817647e+00 1.031141e-03
<GCONST> 8.192527e+01
<MIXTURE> 15 2.475190e-03
<MEAN> 25
 -5.424680e+00 -6.304903e-01 -1.965951e-01 7.358738e+00 5.726961e+00 5.686684e+00 6.063979e+00 4.973806e+00 5.161724e+00 4.148035e+00 5.484910e+00 2.537138e+00 -1.203076e-01 -2.785438e-02 7.442059e-02 2.437271e-01 4.881096e-01 7.858493e-01 1.073054e+00 1.177702e+00 1.055108e+00 7.551942e-01 4.210650e-01 1.560327e-01 -9.853188e-05
<VARIANCE> 25
 6.965629e+00 5.662802e+00 9.017241e+00 1.281049e+01 1.406056e+01 1.434344e+01 1.489422e+01 1.488104e+01 1.407202e+01 1.420625e+01 1.518058e+01 1.251588e+01 1.247562e-01 2.065221e-01 3.190903e-01 5.023850e-01 6.983632e-01 7.921190e-01 7.618718e-01 7.971711e-01 9.139146e-01 1.022070e+00 1.070175e+00 1.041632e+00 2.800425e-05
<GCONST> 5.860098e+01
<MIXTURE> 16 2.475190e-03
<MEAN> 25
 -5.424680e+00 -6.304903e-01 -1.965951e-01 7.358738e+00 5.726961e+00 5.686684e+00 6.063979e+00 4.973806e+00 5.161724e+00 4.148035e+00 5.484910e+00 2.537138e+00 -1.203076e-01 -2.785438e-02 7.442059e-02 2.437271e-01 4.881096e-01 7.858493e-01 1.073054e+00 1.177702e+00 1.055108e+00 7.551942e-01 4.210650e-01 1.560327e-01 -9.853188e-05
<VARIANCE> 25
 6.965629e+00 5.662802e+00 9.017241e+00 1.281049e+01 1.406056e+01 1.434344e+01 1.489422e+01 1.488104e+01 1.407202e+01 1.420625e+01 1.518058e+01 1.251588e+01 1.247562e-01 2.065221e-01 3.190903e-01 5.023850e-01 6.983632e-01 7.921190e-01 7.618718e-01 7.971711e-01 9.139146e-01 1.022070e+00 1.070175e+00 1.041632e+00 2.800425e-05
<GCONST> 5.860098e+01
<MIXTURE> 17 9.518312e-03
<MEAN> 25
 3.396565e+00 -1.699115e+00 4.449144e+00 3.377803e+00 -4.918728e+00 -5.509712e+00 -3.736870e+00 1.058181e-01 -1.141011e+00 -3.959586e+00 2.857183e-01 -6.214178e-01 -5.019965e-01 -1.095113e+00 1.080577e+00 -1.345798e+00 -2.740275e+00 -1.149079e-01 -3.341019e-01 7.088301e-01 -1.487068e-01 -7.576834e-01 1.120227e+00 5.162265e-01 8.141260e-02
<VARIANCE> 25
 1.273282e+01 2.450225e+01 2.848984e+01 3.118757e+01 4.301842e+01 3.787717e+01 4.110001e+01 2.474416e+01 3.067043e+01 2.271096e+01 2.161680e+01 2.218504e+01 1.531419e+00 2.219812e+00 3.061994e+00 3.328850e+00 3.652897e+00 4.156862e+00 4.270617e+00 3.475282e+00 3.224966e+00 3.827020e+00 2.698585e+00 2.206747e+00 1.619601e-03
<GCONST> 9.235375e+01
<MIXTURE> 18 1.221018e-02
<MEAN> 25
 3.833584e+00 4.474855e+00 6.507299e+00 4.487776e+00 -4.523123e+00 -8.006752e+00 -1.607676e+00 -8.608006e-01 -3.299309e+00 -2.627985e+00 -6.021129e-01 8.050379e-01 -8.144316e-01 2.123745e+00 -1.733739e-01 1.817728e+00 3.131435e+00 1.360612e+00 9.187474e-01 -1.991658e-01 6.791713e-01 4.555726e-01 -1.871943e-01 -9.453017e-02 -1.188121e-01
<VARIANCE> 25
 1.552566e+01 2.458565e+01 3.200623e+01 2.614723e+01 3.822812e+01 3.382865e+01 3.710950e+01 3.487620e+01 3.717871e+01 3.329829e+01 3.225157e+01 3.030087e+01 2.497076e+00 2.890233e+00 4.489092e+00 4.588144e+00 3.978343e+00 4.730409e+00 4.652747e+00 4.225111e+00 4.340727e+00 4.187640e+00 4.537183e+00 3.469649e+00 4.290296e-03
<GCONST> 9.807791e+01
<MIXTURE> 19 9.912824e-03
<MEAN> 25
 -9.509731e+00 2.062174e+00 1.973091e-01 1.027214e+00 3.967830e+00 1.402966e+00 3.453441e+00 1.000008e+00 2.103125e+00 1.462614e+00 1.265108e+00 2.098377e+00 1.977513e+00 1.691407e+00 2.085463e+00 7.840139e-01 -1.071205e+00 -9.472262e-01 -1.012369e+00 -1.336434e+00 -1.468178e+00 -1.147247e+00 -7.400043e-01 -7.419735e-01 6.828365e-04
<VARIANCE> 25
 5.612796e+01 3.193870e+01 4.545892e+01 5.384420e+01 3.235833e+01 3.236184e+01 3.108502e+01 2.845986e+01 2.716943e+01 2.668934e+01 2.950850e+01 1.911115e+01 2.507996e+00 2.173225e+00 2.158621e+00 2.273439e+00 2.503096e+00 2.430851e+00 2.506148e+00 2.347556e+00 1.983466e+00 1.969370e+00 2.256380e+00 1.731641e+00 2.437234e-03
<GCONST> 9.147453e+01
<MIXTURE> 20 6.308331e-03
<MEAN> 25
 -1.417900e+01 7.415559e+00 8.464290e-01 6.151663e+00 4.845031e+00 1.636708e+00 5.208189e+00 8.525793e-01 9.216008e-01 7.975908e-01 2.568385e+00 -3.023233e-01 -3.285050e+00 -8.666997e-01 -1.564669e+00 3.327510e-01 1.540736e+00 2.062716e+00 1.978720e+00 2.055641e+00 2.143984e+00 2.039490e+00 1.684496e+00 9.450787e-01 4.731587e-02
<VARIANCE> 25
 1.967948e+01 2.344963e+01 3.095489e+01 3.717349e+01 3.084789e+01 2.788519e+01 2.992839e+01 3.147181e+01 2.795754e+01 2.821020e+01 2.515268e+01 2.091258e+01 2.094153e+00 2.181744e+00 1.910460e+00 2.541480e+00 2.702638e+00 2.312999e+00 2.310383e+00 2.320562e+00 2.236031e+00 2.653206e+00 2.241225e+00 1.865922e+00 1.886049e-03
<GCONST> 8.921959e+01
<MIXTURE> 21 7.928653e-03
<MEAN> 25
 3.718882e+00 -4.327826e+00 5.407968e+00 -4.209827e-01 -9.082684e+00 -7.962306e+00 -2.466518e+00 4.202506e+00 -2.243341e+00 -3.611651e+00 4.289477e-01 7.415823e-01 -6.748226e-01 1.246925e+00 2.346098e+00 -7.748073e-02 -1.347934e+00 6.108548e-01 1.273667e+00 -1.269842e+00 -1.728482e+00 4.027066e-01 1.098500e+00 -2.871218e-02 -1.650631e-02
<VARIANCE> 25
 7.871915e+00 1.599657e+01 2.556676e+01 2.927437e+01 3.375125e+01 3.084999e+01 4.008748e+01 3.309016e+01 3.638953e+01 2.677406e+01 2.859514e+01 2.122937e+01 3.329196e-01 8.777637e-01 1.819663e+00 1.097307e+00 2.067000e+00 2.446185e+00 5.133029e+00 2.331111e+00 2.096659e+00 2.221603e+00 1.934059e+00 2.699077e+00 4.278671e-04
<GCONST> 8.382774e+01
<MIXTURE> 22 8.827789e-03
<MEAN> 25
 -1.791971e+01 7.153450e+00 -4.127512e+00 7.387740e+00 4.605075e+00 2.759359e+00 8.398219e+00 1.747336e+00 5.375401e+00 3.297772e+00 5.716699e+00 1.183623e+00 -3.096638e-01 -2.076421e-01 -1.252007e-01 -1.495597e-01 -7.329678e-03 1.373960e-01 1.807850e-01 1.780179e-01 2.487140e-01 2.070919e-01 1.726944e-01 1.922233e-01 8.857409e-03
<VARIANCE> 25
 8.119310e+00 1.682398e+01 1.741409e+01 2.522177e+01 2.290514e+01 2.083961e+01 1.943214e+01 1.870710e+01 1.817225e+01 2.088644e+01 1.923599e+01 1.378822e+01 1.090622e+00 1.357009e+00 1.363919e+00 1.571935e+00 1.408561e+00 1.527096e+00 1.508989e+00 1.532485e+00 1.614395e+00 1.544642e+00 1.356906e+00 1.167781e+00 1.745027e-03
<GCONST> 7.831464e+01
<MIXTURE> 23 6.455497e-03
<MEAN> 25
 7.636553e+00 2.072124e+00 2.905819e+00 2.720825e+00 -5.220203e+00 -3.019896e+00 -4.025787e+00 -6.055984e+00 -3.322926e+00 -1.017283e+00 -4.025300e+00 -1.936359e+00 5.257655e-02 2.193892e-01 1.443227e-04 7.023809e-03 5.191561e-02 3.094659e-02 2.690054e-02 -4.962056e-02 -1.937549e-02 5.022538e-02 5.372710e-03 6.162620e-02 -5.146038e-03
<VARIANCE> 25
 1.123439e+01 2.222174e+01 2.284420e+01 3.853587e+01 3.682877e+01 5.098716e+01 5.602170e+01 5.318738e+01 4.691278e+01 4.593822e+01 4.770700e+01 3.834692e+01 1.150965e-01 3.312622e-01 3.617659e-01 5.094717e-01 6.079088e-01 7.051945e-01 7.821293e-01 8.699934e-01 8.570926e-01 8.511849e-01 8.033015e-01 7.247874e-01 9.872780e-05
<GCONST> 7.270266e+01
<MIXTURE> 24 6.455497e-03
<MEAN> 25
 7.636553e+00 2.072124e+00 2.905819e+00 2.720825e+00 -5.220203e+00 -3.019896e+00 -4.025787e+00 -6.055984e+00 -3.322926e+00 -1.017283e+00 -4.025300e+00 -1.936359e+00 5.257655e-02 2.193892e-01 1.443227e-04 7.023809e-03 5.191561e-02 3.094659e-02 2.690054e-02 -4.962056e-02 -1.937549e-02 5.022538e-02 5.372710e-03 6.162620e-02 -5.146038e-03
<VARIANCE> 25
 1.123439e+01 2.222174e+01 2.284420e+01 3.853587e+01 3.682877e+01 5.098716e+01 5.602170e+01 5.318738e+01 4.691278e+01 4.593822e+01 4.770700e+01 3.834692e+01 1.150965e-01 3.312622e-01 3.617659e-01 5.094717e-01 6.079088e-01 7.051945e-01 7.821293e-01 8.699934e-01 8.570926e-01 8.511849e-01 8.033015e-01 7.247874e-01 9.872780e-05
<GCONST> 7.270266e+01
<MIXTURE> 25 1.118642e-02
<MEAN> 25
 3.069893e-01 3.403308e+00 1.663383e+01 -9.763146e-01 -1.131119e+01 -1.705110e+00 -4.912886e+00 -2.850073e+00 -6.919913e+00 -5.396687e+00 4.120053e+00 -1.606165e+00 -1.296236e-01 4.292117e-01 1.696442e-01 1.399589e-01 1.940802e-01 1.196013e-01 1.804913e-01 -1.611987e-01 -2.481077e-01 8.013593e-02 -6.120225e-02 -1.062640e-01 -1.237905e-02
<VARIANCE> 25
 8.738394e+00 2.233787e+01 2.222636e+01 2.856047e+01 3.159186e+01 4.085186e+01 2.754465e+01 3.023846e+01 2.802544e+01 3.634039e+01 2.084317e+01 2.752548e+01 5.920352e-01 1.442394e+00 1.386309e+00 1.377790e+00 2.316611e+00 2.048045e+00 1.761433e+00 1.613479e+00 1.534448e+00 1.633613e+00 1.355421e+00 1.284788e+00 1.294249e-03
<GCONST> 8.275478e+01
<MIXTURE> 26 7.727677e-03
<MEAN> 25
 2.118374e+00 -6.328701e+00 -1.027861e+01 -5.913964e-01 8.008303e+00 5.376056e+00 3.993145e+00 -3.520485e-01 2.304394e+00 -8.390375e-01 -2.893461e+00 -9.752570e-01 -6.399435e-01 6.068293e-01 3.690810e-01 7.263651e-01 1.898710e-01 2.499755e-01 2.707889e-01 3.339407e-01 2.801119e-01 6.503568e-02 3.831736e-01 4.234293e-01 -5.171572e-02
<VARIANCE> 25
 2.502692e+01 3.485881e+01 2.587878e+01 6.280170e+01 3.855764e+01 4.359851e+01 4.602584e+01 4.353311e+01 3.868539e+01 5.414712e+01 3.983887e+01 4.607522e+01 1.674557e+00 2.026596e+00 1.892934e+00 2.055692e+00 2.310371e+00 2.383627e+00 2.529583e+00 2.701190e+00 2.294966e+00 2.325114e+00 2.177490e+00 1.978786e+00 3.330545e-03
<GCONST> 9.394273e+01
<MIXTURE> 27 7.727677e-03
<MEAN> 25
 2.118374e+00 -6.328701e+00 -1.027861e+01 -5.913964e-01 8.008303e+00 5.376056e+00 3.993145e+00 -3.520485e-01 2.304394e+00 -8.390375e-01 -2.893461e+00 -9.752570e-01 -6.399435e-01 6.068293e-01 3.690810e-01 7.263651e-01 1.898710e-01 2.499755e-01 2.707889e-01 3.339407e-01 2.801119e-01 6.503568e-02 3.831736e-01 4.234293e-01 -5.171572e-02
<VARIANCE> 25
 2.502692e+01 3.485881e+01 2.587878e+01 6.280170e+01 3.855764e+01 4.359851e+01 4.602584e+01 4.353311e+01 3.868539e+01 5.414712e+01 3.983887e+01 4.607522e+01 1.674557e+00 2.026596e+00 1.892934e+00 2.055692e+00 2.310371e+00 2.383627e+00 2.529583e+00 2.701190e+00 2.294966e+00 2.325114e+00 2.177490e+00 1.978786e+00 3.330545e-03
<GCONST> 9.394273e+01
<MIXTURE> 28 5.036674e-03
<MEAN> 25
 -5.449026e+00 9.211858e-02 -1.541149e+00 6.571035e+00 5.241325e+00 3.497947e+00 5.417847e+00 3.061298e+00 3.874007e+00 2.386973e+00 2.585511e+00 3.213102e+00 -1.139424e-01 2.219916e-01 5.267684e-01 7.789348e-01 8.190367e-01 6.992514e-01 5.179064e-01 3.840034e-01 4.416671e-01 4.811719e-01 3.701666e-01 1.882731e-01 -6.810058e-06
<VARIANCE> 25
 1.033446e+01 8.923209e+00 1.214822e+01 1.493735e+01 1.461977e+01 1.762617e+01 1.800375e+01 1.936441e+01 1.728048e+01 1.661846e+01 2.069994e+01 1.491556e+01 2.550437e-01 3.346452e-01 4.045206e-01 4.663137e-01 6.219746e-01 8.497859e-01 1.053700e+00 1.164521e+00 1.118705e+00 1.021755e+00 1.034465e+00 1.067639e+00 1.025524e-06
<GCONST> 6.035130e+01
<MIXTURE> 29 5.036674e-03
<MEAN> 25
 -5.449026e+00 9.211858e-02 -1.541149e+00 6.571035e+00 5.241325e+00 3.497947e+00 5.417847e+00 3.061298e+00 3.874007e+00 2.386973e+00 2.585511e+00 3.213102e+00 -1.139424e-01 2.219916e-01 5.267684e-01 7.789348e-01 8.190367e-01 6.992514e-01 5.179064e-01 3.840034e-01 4.416671e-01 4.811719e-01 3.701666e-01 1.882731e-01 -6.810058e-06
<VARIANCE> 25
 1.033446e+01 8.923209e+00 1.214822e+01 1.493735e+01 1.461977e+01 1.762617e+01 1.800375e+01 1.936441e+01 1.728048e+01 1.661846e+01 2.069994e+01 1.491556e+01 2.550437e-01 3.346452e-01 4.045206e-01 4.663137e-01 6.219746e-01 8.497859e-01 1.053700e+00 1.164521e+00 1.118705e+00 1.021755e+00 1.034465e+00 1.067639e+00 1.025524e-06
<GCONST> 6.035130e+01
<MIXTURE> 30 8.917812e-03
<MEAN> 25
 -4.544190e+00 6.509881e-03 6.711613e-01 8.864904e+00 7.804948e+00 7.184394e+00 7.588368e+00 6.631182e+00 6.462630e+00 4.892494e+00 6.728289e+00 3.509011e+00 -1.234702e-02 4.959258e-02 4.784995e-02 9.310716e-02 7.999199e-02 5.565618e-02 4.091220e-02 -2.175001e-02 -7.611934e-03 6.933339e-02 1.035131e-01 6.844491e-02 -6.258370e-04
<VARIANCE> 25
 6.713559e+00 1.047974e+01 9.987688e+00 1.435779e+01 1.513562e+01 1.819448e+01 1.851747e+01 1.918096e+01 1.580244e+01 1.781497e+01 2.228469e+01 1.398855e+01 9.660897e-02 2.039335e-01 3.146216e-01 4.790561e-01 5.961029e-01 7.011461e-01 7.773288e-01 7.996963e-01 8.628026e-01 9.140030e-01 9.328031e-01 8.829665e-01 5.116836e-05
<GCONST> 6.056021e+01
<MIXTURE> 31 4.136493e-03
<MEAN> 25
 -3.380820e+00 -5.488731e+00 9.252711e-02 4.777257e+00 3.757989e+00 1.430236e+00 5.195689e+00 6.656295e+00 2.690364e+00 1.370543e+00 6.450007e+00 3.156292e+00 2.457237e-01 4.981815e-01 -2.012152e-01 3.065708e-01 1.101922e-01 4.630366e-01 2.014133e-01 -5.319845e-02 3.593323e-01 3.163931e-01 5.593040e-02 8.226951e-02 -1.825972e-02
<VARIANCE> 25
 7.192055e+00 1.611107e+01 1.698719e+01 1.777460e+01 2.489972e+01 2.541808e+01 2.308116e+01 2.494559e+01 2.525708e+01 2.822851e+01 2.008884e+01 1.824673e+01 1.873359e-01 4.979794e-01 5.890439e-01 7.464297e-01 9.401544e-01 1.110548e+00 1.196365e+00 1.500682e+00 1.317800e+00 1.440946e+00 1.303133e+00 1.145528e+00 2.511980e-04
<GCONST> 7.187648e+01
<MIXTURE> 32 4.136493e-03
<MEAN> 25
 -3.380820e+00 -5.488731e+00 9.252711e-02 4.777257e+00 3.757989e+00 1.430236e+00 5.195689e+00 6.656295e+00 2.690364e+00 1.370543e+00 6.450007e+00 3.156292e+00 2.457237e-01 4.981815e-01 -2.012152e-01 3.065708e-01 1.101922e-01 4.630366e-01 2.014133e-01 -5.319845e-02 3.593323e-01 3.163931e-01 5.593040e-02 8.226951e-02 -1.825972e-02
<VARIANCE> 25
 7.192055e+00 1.611107e+01 1.698719e+01 1.777460e+01 2.489972e+01 2.541808e+01 2.308116e+01 2.494559e+01 2.525708e+01 2.822851e+01 2.008884e+01 1.824673e+01 1.873359e-01 4.979794e-01 5.890439e-01 7.464297e-01 9.401544e-01 1.110548e+00 1.196365e+00 1.500682e+00 1.317800e+00 1.440946e+00 1.303133e+00 1.145528e+00 2.511980e-04
<GCONST> 7.187648e+01
<MIXTURE> 33 1.508826e-02
<MEAN> 25
 5.635159e+00 -6.251297e+00 -2.272377e+00 -3.569419e+00 -1.170178e+00 -4.837660e+00 -8.483253e+00 3.907611e+00 2.237086e+00 -2.599198e-01 -4.797707e+00 -1.828177e+00 7.642254e-01 -1.477319e+00 -2.301866e+00 -1.666448e+00 1.011232e+00 1.508221e+00 -6.046177e-01 3.720815e-01 1.035579e+00 9.335554e-01 -3.669667e-01 -1.419927e+00 3.817625e-02
<VARIANCE> 25
 1.073050e+01 3.313875e+01 2.487446e+01 3.274238e+01 4.170656e+01 3.955575e+01 3.838630e+01 5.717460e+01 3.270775e+01 3.669431e+01 2.851231e+01 2.711330e+01 1.035037e+00 2.036950e+00 2.078049e+00 1.979193e+00 4.489525e+00 2.907663e+00 4.347413e+00 5.739967e+00 3.365830e+00 4.049347e+00 3.072699e+00 2.649177e+00 1.419715e-03
<GCONST> 9.346389e+01
<MIXTURE> 34 1.588179e-02
<MEAN> 25
 8.707334e+00 -7.103223e-01 3.590384e-01 2.157166e+00 -3.530636e+00 -1.617830e+00 -5.329102e+00 -4.300501e+00 -1.001579e+00 4.930848e-01 -3.453677e+00 -3.756415e+00 8.323588e-02 1.416304e+00 1.150973e+00 2.199702e+00 1.113083e-01 -3.830960e-01 9.022038e-01 -1.752501e+00 -6.562861e-01 5.633793e-01 -8.918431e-01 9.955287e-02 -5.857500e-02
<VARIANCE> 25
 6.952523e+00 3.126576e+01 2.541713e+01 4.953100e+01 3.821241e+01 4.261234e+01 5.033589e+01 5.326380e+01 4.977751e+01 3.860339e+01 4.571056e+01 2.736762e+01 1.228530e+00 1.757963e+00 4.172107e+00 3.784226e+00 5.120621e+00 5.394923e+00 4.863106e+00 5.477578e+00 4.845331e+00 5.011594e+00 5.139638e+00 3.428475e+00 1.081452e-03
<GCONST> 9.780819e+01
<MIXTURE> 35 1.467755e-02
<MEAN> 25
 -1.553709e+00 -6.091344e+00 -9.714589e+00 6.073705e-02 1.045363e+01 -9.925084e-01 -1.065100e+00 2.737535e+00 2.830302e+00 4.898600e+00 -4.308382e-01 1.690905e+00 4.828663e-01 -1.322490e+00 -1.163732e+00 -1.388745e+00 9.015137e-02 -2.006771e-01 -9.658155e-01 2.738884e-01 1.819468e-01 5.434645e-01 -4.760803e-01 -4.169034e-01 1.001583e-01
<VARIANCE> 25
 1.799338e+01 2.753918e+01 3.609830e+01 5.347052e+01 3.722514e+01 5.800446e+01 6.697972e+01 3.758290e+01 5.301938e+01 4.063496e+01 3.057491e+01 2.518409e+01 2.892853e+00 3.796210e+00 6.307724e+00 4.678022e+00 7.681627e+00 6.691736e+00 4.989544e+00 4.778753e+00 5.130797e+00 4.383145e+00 3.516861e+00 3.170753e+00 5.020299e-03
<GCONST> 1.026705e+02
<MIXTURE> 36 1.093293e-02
<MEAN> 25
 4.673367e+00 -4.530763e+00 5.436763e+00 3.501667e+00 -9.596536e+00 -5.907325e+00 -5.148757e+00 2.601771e+00 -1.067410e+00 -4.812084e+00 2.507564e+00 -1.699892e-01 4.216195e-01 1.805543e-01 -5.493498e-01 1.243483e-03 1.006780e+00 -1.093018e-01 1.230603e-01 -1.528906e-01 3.111163e-01 7.448913e-01 -7.229798e-01 -1.384843e-01 -2.032239e-02
<VARIANCE> 25
 6.556681e+00 1.481517e+01 1.774076e+01 1.974706e+01 2.325089e+01 2.954438e+01 3.361404e+01 2.928588e+01 2.876816e+01 2.335690e+01 1.883311e+01 2.001771e+01 3.565282e-01 5.719426e-01 1.337229e+00 1.402891e+00 1.369025e+00 1.178310e+00 2.669811e+00 1.353380e+00 1.668447e+00 2.162555e+00 1.977384e+00 1.168500e+00 6.208849e-04
<GCONST> 7.778680e+01
<MIXTURE> 37 1.246826e-02
<MEAN> 25
 5.913825e-01 7.744206e+00 1.196701e+01 -5.525336e+00 -8.029522e+00 -1.044268e+00 -5.045573e+00 -8.369847e+00 -3.693399e+00 -8.403551e-01 -3.709456e+00 -1.307436e+00 1.677572e-01 6.485891e-01 -1.347193e+00 3.560610e+00 2.006044e+00 -3.231384e-01 1.082739e+00 4.348648e-01 5.180079e-01 -3.334951e-01 5.416270e-01 -9.686084e-02 -9.474136e-02
<VARIANCE> 25
 1.607594e+01 2.589012e+01 3.161995e+01 5.072139e+01 3.368488e+01 3.177325e+01 4.378976e+01 3.513727e+01 3.834529e+01 3.629164e+01 3.770493e+01 3.070055e+01 2.960411e+00 3.390859e+00 3.000697e+00 4.128973e+00 4.622585e+00 3.786597e+00 4.187199e+00 3.783895e+00 3.437224e+00 3.606597e+00 3.841789e+00 2.770100e+00 3.903366e-03
<GCONST> 9.774970e+01
<MIXTURE> 38 1.154525e-02
<MEAN> 25
 -4.317325e+00 8.707604e+00 4.501364e+00 2.830575e+00 9.536842e-01 -5.152604e+00 -2.723236e-01 -2.326299e+00 -2.702346e+00 -3.306255e+00 -1.053256e+00 -2.866918e-01 -4.431002e+00 1.258600e+00 -2.829517e-01 1.268389e+00 2.637079e+00 1.237400e+00 1.970954e+00 8.417261e-01 7.795948e-01 6.211849e-01 9.902904e-01 2.285795e-01 4.493796e-02
<VARIANCE> 25
 3.040922e+01 2.875119e+01 3.670506e+01 3.325863e+01 4.665295e+01 3.354566e+01 3.616166e+01 4.164415e+01 3.316555e+01 3.148609e+01 2.554218e+01 2.848006e+01 2.343123e+00 3.715218e+00 3.676205e+00 5.340424e+00 4.086500e+00 5.045005e+00 4.702135e+00 4.542826e+00 4.243917e+00 4.653239e+00 4.166176e+00 3.202213e+00 2.137542e-03
<GCONST> 9.869555e+01
<MIXTURE> 39 9.501865e-03
<MEAN> 25
 1.351419e+00 2.593668e+00 1.018935e+01 -9.172319e+00 -1.127306e+01 -9.766699e-01 -2.942628e+00 -6.555071e+00 -4.513226e+00 8.742233e-01 -3.682661e+00 -2.295165e+00 -7.269210e-01 1.520095e+00 1.620644e+00 -1.389656e+00 7.809029e-02 1.222714e+00 -1.195287e+00 -1.249352e+00 4.268644e-01 4.490775e-01 -5.031516e-01 1.212873e-01 1.251285e-03
<VARIANCE> 25
 8.939131e+00 3.003960e+01 3.171329e+01 3.870267e+01 3.718553e+01 4.260833e+01 4.445889e+01 3.358246e+01 3.943841e+01 3.314439e+01 3.617823e+01 2.939112e+01 6.905659e-01 1.545078e+00 1.515069e+00 2.914348e+00 2.414072e+00 2.817188e+00 3.052989e+00 2.745234e+00 2.431955e+00 2.613661e+00 2.128807e+00 2.065445e+00 1.183737e-03
<GCONST> 8.965808e+01
<MIXTURE> 40 1.030800e-02
<MEAN> 25
 -7.914207e+00 3.254224e+00 -7.658498e-01 6.864959e+00 4.035776e+00 5.130245e+00 5.661630e+00 3.245352e+00 3.761537e+00 3.564271e+00 5.051760e+00 1.853716e+00 -1.350417e-01 -1.753599e-01 -6.672045e-02 -1.083979e-01 -1.608780e-01 -1.393938e-01 1.513808e-02 7.167678e-02 -4.231332e-03 -3.462670e-02 1.193410e-01 -1.214796e-01 4.740580e-03
<VARIANCE> 25
 4.229071e+01 2.264426e+01 2.572911e+01 3.337090e+01 2.644730e+01 1.649902e+01 1.786978e+01 1.952427e+01 1.691160e+01 1.853714e+01 1.778202e+01 1.333914e+01 6.527764e-01 6.763241e-01 8.346115e-01 1.132462e+00 1.053937e+00 1.153611e+00 1.188258e+00 1.170949e+00 1.139865e+00 1.091697e+00 1.037296e+00 1.029810e+00 9.696670e-04
<GCONST> 7.571442e+01
<MIXTURE> 41 6.713375e-03
<MEAN> 25
 1.299104e+00 1.774203e+00 1.043364e+01 -6.948020e+00 -1.043844e+01 -3.855143e+00 -2.477032e+00 -5.033144e+00 -4.638457e+00 2.663953e+00 -1.727025e+00 -9.573715e-01 8.376151e-02 -7.634257e-01 1.698583e+00 -3.548008e+00 -2.467999e+00 -1.146155e-01 -5.045650e-01 -3.531593e-01 -8.284551e-01 1.082067e+00 -1.040432e+00 8.418078e-02 8.627395e-02
<VARIANCE> 25
 1.169520e+01 2.960934e+01 3.305029e+01 3.998360e+01 3.890383e+01 4.004190e+01 3.712838e+01 2.986118e+01 3.308605e+01 2.869245e+01 3.185451e+01 2.713173e+01 3.176425e+00 3.302647e+00 3.812930e+00 3.820932e+00 4.900342e+00 5.872971e+00 4.700270e+00 4.546971e+00 3.963417e+00 4.213719e+00 3.829696e+00 3.215076e+00 2.922347e-03
<GCONST> 9.790214e+01
<MIXTURE> 42 1.106211e-02
<MEAN> 25
 -2.241013e+00 4.030920e+00 4.454649e+00 2.539705e+00 4.200072e-01 -5.990861e+00 -8.994643e-01 -1.666260e+00 -1.279295e+00 -1.167814e+00 -1.626839e+00 1.148971e+00 4.056869e+00 -4.825873e-01 1.443576e+00 2.294530e-01 -3.038796e+00 -1.039211e+00 -2.246650e+00 -4.987133e-01 -7.997632e-01 -7.911094e-01 4.513791e-01 -8.602282e-01 1.408888e-02
<VARIANCE> 25
 3.684051e+01 2.177877e+01 4.434917e+01 2.831880e+01 3.811752e+01 3.697523e+01 3.668896e+01 2.676222e+01 2.709680e+01 2.598344e+01 2.241168e+01 1.698874e+01 3.640907e+00 4.902171e+00 5.943254e+00 4.405955e+00 4.329757e+00 5.775635e+00 4.854006e+00 6.008214e+00 4.500035e+00 4.545362e+00 4.055986e+00 3.495885e+00 4.331540e-03
<GCONST> 9.937684e+01
<MIXTURE> 43 7.108249e-03
<MEAN> 25
 3.209239e+00 -6.275974e+00 -2.184131e+00 -5.050838e+00 -7.384957e+00 -3.390213e+00 4.090806e+00 1.250931e+00 -4.969787e+00 -6.972321e+00 -4.305875e+00 -1.244783e+00 2.437468e-01 2.147553e+00 1.890239e+00 -1.454808e-01 -1.411195e+00 -7.799619e-01 -9.421196e-01 -7.875729e-01 8.198293e-01 1.490368e+00 2.918861e-01 1.327998e-02 -4.504308e-02
<VARIANCE> 25
 9.600616e+00 1.951384e+01 2.724300e+01 3.597456e+01 3.787053e+01 3.612981e+01 3.299543e+01 3.955340e+01 3.973110e+01 3.920909e+01 2.630659e+01 2.915602e+01 6.851412e-01 1.252163e+00 1.585630e+00 2.470608e+00 2.376850e+00 2.370721e+00 2.672155e+00 2.994416e+00 2.571628e+00 2.588107e+00 2.497219e+00 1.897450e+00 9.300650e-04
<GCONST> 8.794803e+01
<MIXTURE> 44 7.328289e-03
<MEAN> 25
 -1.428531e+01 2.728097e+00 3.810642e+00 -3.448753e+00 5.287792e+00 1.183245e+00 7.801195e-01 8.504966e-01 7.703762e-02 -1.466800e+00 2.748511e+00 1.189440e+00 -2.072018e-01 -1.892531e-01 2.564414e-01 2.047023e-01 -6.033860e-02 3.250402e-01 3.019528e-01 6.208373e-02 2.186049e-01 1.060528e-01 1.021760e-01 2.173894e-02 4.418817e-03
<VARIANCE> 25
 3.979485e+01 2.313371e+01 2.611461e+01 2.684992e+01 2.885330e+01 2.625866e+01 2.124603e+01 2.817540e+01 2.445988e+01 2.287488e+01 2.255023e+01 1.800702e+01 1.431055e+00 1.326374e+00 1.132354e+00 1.456069e+00 1.909756e+00 1.572981e+00 1.818096e+00 1.500990e+00 1.755252e+00 1.275726e+00 1.042778e+00 1.027128e+00 1.060363e-03
<GCONST> 8.195354e+01
<MIXTURE> 45 1.364932e-02
<MEAN> 25
 -1.143371e+01 3.986819e+00 -4.662668e-01 1.493955e+00 6.067314e+00 -9.377325e-01 4.393994e+00 2.629787e+00 2.500003e+00 9.125686e-01 3.003354e+00 2.201207e+00 -3.057278e+00 5.636204e-01 -3.506235e-01 -5.491899e-01 6.313975e-01 -1.103290e-01 1.718257e-01 -2.306704e-01 -2.303697e-01 1.185953e-01 1.770723e-01 -1.757977e-01 1.017286e-01
<VARIANCE> 25
 3.355381e+01 2.574639e+01 2.704735e+01 3.529884e+01 2.676630e+01 2.773666e+01 2.719783e+01 2.200306e+01 2.273067e+01 2.660003e+01 2.441205e+01 1.369161e+01 2.149646e+00 2.605626e+00 2.377303e+00 2.245930e+00 2.845986e+00 2.214543e+00 2.275835e+00 2.188831e+00 1.955246e+00 1.859097e+00 1.644073e+00 1.612435e+00 4.375892e-03
<GCONST> 8.846914e+01
<MIXTURE> 46 9.336259e-03
<MEAN> 25
 -9.388181e+00 2.298153e+00 1.178462e+00 7.451753e+00 5.972033e+00 3.264960e+00 6.954935e+00 4.373478e+00 5.654655e+00 4.694527e+00 5.020192e+00 2.896377e+00 1.060420e+00 -2.465183e-01 4.093995e-02 1.015533e+00 5.943152e-01 9.360979e-01 3.636728e-01 6.791039e-01 4.631614e-01 4.902822e-01 6.277556e-01 5.202813e-01 -1.040020e-01
<VARIANCE> 25
 3.459181e+01 4.368365e+01 3.832787e+01 5.087909e+01 5.023945e+01 4.091876e+01 3.754441e+01 3.583455e+01 3.286273e+01 3.078061e+01 2.800998e+01 2.006119e+01 3.937769e+00 4.139131e+00 3.830920e+00 4.125194e+00 4.211419e+00 3.688841e+00 3.411590e+00 3.121876e+00 2.951523e+00 2.843649e+00 2.318582e+00 1.778345e+00 7.998827e-03
<GCONST> 9.830218e+01
<MIXTURE> 47 7.116147e-03
<MEAN> 25
 7.264339e+00 -7.332527e+00 -7.655574e+00 -6.395709e+00 1.437702e+00 8.711089e-01 -2.514185e+00 1.266565e+00 3.017853e+00 3.390011e-01 -4.370530e+00 -6.692601e+00 -1.766012e-01 -1.273941e+00 -6.603825e-01 -4.304954e-01 5.621839e-01 8.334540e-01 8.298608e-01 3.133071e-01 7.633892e-02 -8.969683e-01 -4.311623e-01 -4.514154e-01 2.998695e-02
<VARIANCE> 25
 1.065425e+01 2.262778e+01 2.042100e+01 3.366272e+01 3.595504e+01 5.189236e+01 4.666550e+01 4.063890e+01 4.236241e+01 4.774111e+01 4.840937e+01 3.301901e+01 5.198140e-01 7.825364e-01 1.138488e+00 1.695959e+00 2.270622e+00 2.234223e+00 2.360350e+00 2.433597e+00 2.296805e+00 2.140903e+00 2.272240e+00 2.002699e+00 5.439983e-04
<GCONST> 8.675505e+01
<MIXTURE> 48 7.116147e-03
<MEAN> 25
 7.264339e+00 -7.332527e+00 -7.655574e+00 -6.395709e+00 1.437702e+00 8.711089e-01 -2.514185e+00 1.266565e+00 3.017853e+00 3.390011e-01 -4.370530e+00 -6.692601e+00 -1.766012e-01 -1.273941e+00 -6.603825e-01 -4.304954e-01 5.621839e-01 8.334540e-01 8.298608e-01 3.133071e-01 7.633892e-02 -8.969683e-01 -4.311623e-01 -4.514154e-01 2.998695e-02
<VARIANCE> 25
 1.065425e+01 2.262778e+01 2.042100e+01 3.366272e+01 3.595504e+01 5.189236e+01 4.666550e+01 4.063890e+01 4.236241e+01 4.774111e+01 4.840937e+01 3.301901e+01 5.198140e-01 7.825364e-01 1.138488e+00 1.695959e+00 2.270622e+00 2.234223e+00 2.360350e+00 2.433597e+00 2.296805e+00 2.140903e+00 2.272240e+00 2.002699e+00 5.439983e-04
<GCONST> 8.675505e+01
<MIXTURE> 49 5.548473e-03
<MEAN> 25
 -5.093143e+00 5.237684e-01 2.051021e-01 8.295881e+00 6.150029e+00 5.529524e+00 6.096543e+00 4.356081e+00 4.926248e+00 3.726787e+00 4.799951e+00 2.892158e+00 3.575281e-01 6.479959e-01 6.911705e-01 3.424764e-01 -1.842191e-01 -6.458653e-01 -9.987158e-01 -1.124910e+00 -9.681676e-01 -6.760242e-01 -4.805838e-01 -2.620390e-01 -4.584569e-05
<VARIANCE> 25
 9.391526e+00 1.115186e+01 1.404822e+01 1.665148e+01 1.561955e+01 1.716034e+01 1.920099e+01 1.982227e+01 1.835589e+01 1.758046e+01 2.100210e+01 1.403778e+01 2.780603e-01 2.615936e-01 3.592709e-01 6.205541e-01 8.824890e-01 9.925829e-01 9.852562e-01 1.066595e+00 1.125103e+00 1.214820e+00 1.282141e+00 1.229878e+00 1.437330e-05
<GCONST> 6.446259e+01
<MIXTURE> 50 6.234641e-03
<MEAN> 25
 -4.755868e+00 1.372157e+00 -8.757540e-01 5.557951e+00 4.452521e+00 2.021065e+00 4.087113e+00 1.276941e+00 2.496254e+00 1.145499e+00 1.584561e+00 2.423140e+00 6.323181e-02 2.048312e-01 9.501336e-02 -2.235660e-01 -4.957669e-01 -5.476561e-01 -2.970722e-01 1.564225e-02 5.112103e-01 7.587810e-01 6.409998e-01 3.453431e-01 3.142300e-05
<VARIANCE> 25
 8.834869e+00 1.579949e+01 1.369328e+01 1.503117e+01 1.320904e+01 1.609805e+01 1.805329e+01 1.877062e+01 1.730558e+01 1.523973e+01 2.076200e+01 1.479342e+01 1.286458e-01 2.237974e-01 3.237258e-01 4.813515e-01 5.399322e-01 7.770195e-01 9.535941e-01 1.106595e+00 1.237267e+00 8.051620e-01 9.154766e-01 1.023832e+00 1.250112e-06
<GCONST> 5.881771e+01
<MIXTURE> 51 6.234641e-03
<MEAN> 25
 -4.755868e+00 1.372157e+00 -8.757540e-01 5.557951e+00 4.452521e+00 2.021065e+00 4.087113e+00 1.276941e+00 2.496254e+00 1.145499e+00 1.584561e+00 2.423140e+00 6.323181e-02 2.048312e-01 9.501336e-02 -2.235660e-01 -4.957669e-01 -5.476561e-01 -2.970722e-01 1.564225e-02 5.112103e-01 7.587810e-01 6.409998e-01 3.453431e-01 3.142300e-05
<VARIANCE> 25
 8.834869e+00 1.579949e+01 1.369328e+01 1.503117e+01 1.320904e+01 1.609805e+01 1.805329e+01 1.877062e+01 1.730558e+01 1.523973e+01 2.076200e+01 1.479342e+01 1.286458e-01 2.237974e-01 3.237258e-01 4.813515e-01 5.399322e-01 7.770195e-01 9.535941e-01 1.106595e+00 1.237267e+00 8.051620e-01 9.154766e-01 1.023832e+00 1.250112e-06
<GCONST> 5.881771e+01
<MIXTURE> 52 6.367945e-03
<MEAN> 25
 9.344699e+00 2.456010e+00 -6.680015e+00 -1.498143e+01 -4.208304e+00 7.976020e+00 -2.167228e+00 -2.988285e+00 -3.569084e+00 -1.646782e+00 3.250596e+00 1.758012e+00 -3.963630e-01 -3.108599e-01 7.516453e-03 1.157922e+00 1.338673e+00 -3.514577e-01 -4.996060e-01 -4.636604e-01 2.416039e-01 1.202978e+00 3.814607e-01 -4.726844e-01 -1.773642e-02
<VARIANCE> 25
 1.085171e+01 1.808301e+01 2.446260e+01 3.889531e+01 4.012822e+01 2.883797e+01 3.921884e+01 4.063674e+01 3.829721e+01 4.037863e+01 3.459934e+01 2.792484e+01 3.837258e-01 1.794280e+00 1.143574e+00 2.626675e+00 2.166629e+00 2.636634e+00 2.667275e+00 2.471204e+00 2.891500e+00 2.225562e+00 2.260158e+00 1.997911e+00 1.423305e-03
<GCONST> 8.789853e+01
<MIXTURE> 53 6.367945e-03
<MEAN> 25
 9.344699e+00 2.456010e+00 -6.680015e+00 -1.498143e+01 -4.208304e+00 7.976020e+00 -2.167228e+00 -2.988285e+00 -3.569084e+00 -1.646782e+00 3.250596e+00 1.758012e+00 -3.963630e-01 -3.108599e-01 7.516453e-03 1.157922e+00 1.338673e+00 -3.514577e-01 -4.996060e-01 -4.636604e-01 2.416039e-01 1.202978e+00 3.814607e-01 -4.726844e-01 -1.773642e-02
<VARIANCE> 25
 1.085171e+01 1.808301e+01 2.446260e+01 3.889531e+01 4.012822e+01 2.883797e+01 3.921884e+01 4.063674e+01 3.829721e+01 4.037863e+01 3.459934e+01 2.792484e+01 3.837258e-01 1.794280e+00 1.143574e+00 2.626675e+00 2.166629e+00 2.636634e+00 2.667275e+00 2.471204e+00 2.891500e+00 2.225562e+00 2.260158e+00 1.997911e+00 1.423305e-03
<GCONST> 8.789853e+01
<MIXTURE> 54 7.368620e-03
<MEAN> 25
 -3.663873e+00 2.672743e-01 -6.429964e-01 7.856012e+00 6.437948e+00 4.517868e+00 4.685449e+00 4.470181e+00 4.015870e+00 3.543991e+00 4.291757e+00 2.197799e+00 -2.887819e-03 3.192712e-02 2.964311e-02 3.742041e-02 3.721731e-02 4.713839e-02 7.256345e-02 4.134883e-02 4.093878e-02 5.609341e-02 -2.382399e-03 1.965612e-02 -4.962847e-06
<VARIANCE> 25
 8.919387e+00 1.164768e+01 9.128234e+00 1.879247e+01 1.308360e+01 1.355714e+01 1.169171e+01 1.173085e+01 1.120908e+01 1.325664e+01 1.828191e+01 1.281187e+01 3.989281e-02 8.881068e-02 1.529288e-01 2.268946e-01 3.089998e-01 3.916666e-01 5.070448e-01 5.146104e-01 5.348232e-01 5.514565e-01 5.114675e-01 5.200737e-01 9.910740e-07
<GCONST> 4.746310e+01
<MIXTURE> 55 7.368620e-03
<MEAN> 25
 -3.663873e+00 2.672743e-01 -6.429964e-01 7.856012e+00 6.437948e+00 4.517868e+00 4.685449e+00 4.470181e+00 4.015870e+00 3.543991e+00 4.291757e+00 2.197799e+00 -2.887819e-03 3.192712e-02 2.964311e-02 3.742041e-02 3.721731e-02 4.713839e-02 7.256345e-02 4.134883e-02 4.093878e-02 5.609341e-02 -2.382399e-03 1.965612e-02 -4.962847e-06
<VARIANCE> 25
 8.919387e+00 1.164768e+01 9.128234e+00 1.879247e+01 1.308360e+01 1.355714e+01 1.169171e+01 1.173085e+01 1.120908e+01 1.325664e+01 1.828191e+01 1.281187e+01 3.989281e-02 8.881068e-02 1.529288e-01 2.268946e-01 3.089998e-01 3.916666e-01 5.070448e-01 5.146104e-01 5.348232e-01 5.514565e-01 5.114675e-01 5.200737e-01 9.910740e-07
<GCONST> 4.746310e+01
<MIXTURE> 56 6.132464e-03
<MEAN> 25
 7.559831e+00 -6.772486e+00 -9.155046e+00 -8.658935e+00 3.958713e+00 3.928206e+00 -2.174492e+00 -1.478953e+00 1.957235e+00 6.588053e-01 -2.487785e+00 -7.144040e+00 -1.069243e-02 2.587032e-02 -8.560219e-02 2.165942e-02 2.589579e-01 6.612853e-02 1.144649e-01 -1.376366e-01 -4.645507e-02 -3.642714e-02 -8.237638e-02 1.832239e-02 -7.074254e-03
<VARIANCE> 25
 9.321731e+00 2.332946e+01 2.001968e+01 4.129914e+01 3.317361e+01 5.103375e+01 6.195858e+01 3.681164e+01 3.893914e+01 3.769185e+01 4.029549e+01 3.116356e+01 2.062886e-01 4.328348e-01 4.529564e-01 7.722768e-01 7.977092e-01 1.112877e+00 9.105187e-01 9.072596e-01 9.085274e-01 9.270332e-01 1.034725e+00 7.845951e-01 2.396361e-04
<GCONST> 7.514707e+01
<MIXTURE> 57 6.132464e-03
<MEAN> 25
 7.559831e+00 -6.772486e+00 -9.155046e+00 -8.658935e+00 3.958713e+00 3.928206e+00 -2.174492e+00 -1.478953e+00 1.957235e+00 6.588053e-01 -2.487785e+00 -7.144040e+00 -1.069243e-02 2.587032e-02 -8.560219e-02 2.165942e-02 2.589579e-01 6.612853e-02 1.144649e-01 -1.376366e-01 -4.645507e-02 -3.642714e-02 -8.237638e-02 1.832239e-02 -7.074254e-03
<VARIANCE> 25
 9.321731e+00 2.332946e+01 2.001968e+01 4.129914e+01 3.317361e+01 5.103375e+01 6.195858e+01 3.681164e+01 3.893914e+01 3.769185e+01 4.029549e+01 3.116356e+01 2.062886e-01 4.328348e-01 4.529564e-01 7.722768e-01 7.977092e-01 1.112877e+00 9.105187e-01 9.072596e-01 9.085274e-01 9.270332e-01 1.034725e+00 7.845951e-01 2.396361e-04
<GCONST> 7.514707e+01
<MIXTURE> 58 6.172147e-03
<MEAN> 25
 2.406324e+00 -3.557481e+00 6.797637e+00 -3.082211e+00 -1.249725e+01 -3.190006e+00 1.511037e+00 1.913606e+00 -3.151706e+00 1.233358e+00 1.487130e+00 -1.442582e+00 7.237896e-02 -3.144714e-01 -4.145382e-02 -1.898093e-01 -1.736397e-01 1.074201e-01 5.903881e-02 2.048508e-01 1.225307e-01 -9.662083e-03 -2.036272e-01 -1.239356e-01 3.581199e-03
<VARIANCE> 25
 5.598855e+00 1.332655e+01 1.539667e+01 2.710551e+01 2.082450e+01 4.222030e+01 2.522553e+01 2.849323e+01 2.529135e+01 2.386096e+01 2.058642e+01 1.953039e+01 2.487319e-01 7.532490e-01 5.699744e-01 8.142703e-01 1.149260e+00 1.276992e+00 1.103256e+00 1.043616e+00 9.254706e-01 9.132918e-01 1.073250e+00 7.251403e-01 6.588351e-04
<GCONST> 7.238734e+01
<MIXTURE> 59 6.172147e-03
<MEAN> 25
 2.406324e+00 -3.557481e+00 6.797637e+00 -3.082211e+00 -1.249725e+01 -3.190006e+00 1.511037e+00 1.913606e+00 -3.151706e+00 1.233358e+00 1.487130e+00 -1.442582e+00 7.237896e-02 -3.144714e-01 -4.145382e-02 -1.898093e-01 -1.736397e-01 1.074201e-01 5.903881e-02 2.048508e-01 1.225307e-01 -9.662083e-03 -2.036272e-01 -1.239356e-01 3.581199e-03
<VARIANCE> 25
 5.598855e+00 1.332655e+01 1.539667e+01 2.710551e+01 2.082450e+01 4.222030e+01 2.522553e+01 2.849323e+01 2.529135e+01 2.386096e+01 2.058642e+01 1.953039e+01 2.487319e-01 7.532490e-01 5.699744e-01 8.142703e-01 1.149260e+00 1.276992e+00 1.103256e+00 1.043616e+00 9.254706e-01 9.132918e-01 1.073250e+00 7.251403e-01 6.588351e-04
<GCONST> 7.238734e+01
<MIXTURE> 60 4.479129e-03
<MEAN> 25
 -4.295377e+00 -4.679263e-01 -1.001491e+00 3.690634e+00 1.915184e+00 2.040775e+00 1.770629e+00 1.525155e+00 2.153921e+00 1.226910e+00 2.225956e+00 1.884037e+00 -1.869538e-02 7.020460e-02 9.033117e-02 1.245001e-01 1.259848e-01 1.467611e-01 2.112828e-01 3.036313e-01 5.213559e-01 6.454660e-01 5.581214e-01 3.109602e-01 -5.385515e-04
<VARIANCE> 25
 6.791637e+00 5.467906e+00 1.009254e+01 1.095034e+01 1.449363e+01 1.661983e+01 1.424356e+01 1.185666e+01 1.267188e+01 1.330755e+01 1.614246e+01 1.228403e+01 8.695878e-02 1.701384e-01 2.729363e-01 4.250942e-01 5.685268e-01 7.180744e-01 8.483133e-01 8.862849e-01 9.039414e-01 8.231003e-01 8.277148e-01 8.689100e-01 2.354052e-05
<GCONST> 5.646705e+01
<MIXTURE> 61 4.479129e-03
<MEAN> 25
 -4.295377e+00 -4.679263e-01 -1.001491e+00 3.690634e+00 1.915184e+00 2.040775e+00 1.770629e+00 1.525155e+00 2.153921e+00 1.226910e+00 2.225956e+00 1.884037e+00 -1.869538e-02 7.020460e-02 9.033117e-02 1.245001e-01 1.259848e-01 1.467611e-01 2.112828e-01 3.036313e-01 5.213559e-01 6.454660e-01 5.581214e-01 3.109602e-01 -5.385515e-04
<VARIANCE> 25
 6.791637e+00 5.467906e+00 1.009254e+01 1.095034e+01 1.449363e+01 1.661983e+01 1.424356e+01 1.185666e+01 1.267188e+01 1.330755e+01 1.614246e+01 1.228403e+01 8.695878e-02 1.701384e-01 2.729363e-01 4.250942e-01 5.685268e-01 7.180744e-01 8.483133e-01 8.862849e-01 9.039414e-01 8.231003e-01 8.277148e-01 8.689100e-01 2.354052e-05
<GCONST> 5.646705e+01
<MIXTURE> 62 3.278034e-03
<MEAN> 25
 -5.091080e+00 1.241823e+00 1.026603e+00 8.818255e+00 6.130937e+00 5.050464e+00 5.499739e+00 4.033296e+00 4.985590e+00 3.917536e+00 4.965577e+00 2.950825e+00 -1.003214e+00 -1.166568e+00 -9.531540e-01 -2.767616e-01 4.275312e-01 1.005010e+00 1.384644e+00 1.552171e+00 1.478719e+00 1.243421e+00 1.066971e+00 7.259735e-01 -1.264972e-03
<VARIANCE> 25
 9.872231e+00 9.961679e+00 1.311556e+01 1.673380e+01 1.741280e+01 1.752362e+01 1.970025e+01 1.911503e+01 1.886100e+01 1.872713e+01 2.156751e+01 1.479629e+01 4.017915e-01 4.321688e-01 5.541577e-01 7.792946e-01 1.034949e+00 1.192509e+00 1.252286e+00 1.278988e+00 1.329659e+00 1.363775e+00 1.400170e+00 1.371427e+00 1.632284e-05
<GCONST> 6.752681e+01
<MIXTURE> 63 4.351215e-03
<MEAN> 25
 -4.340337e+00 -1.262505e+00 -3.775857e+00 2.754321e+00 3.805066e+00 -4.369358e-01 2.856518e+00 1.044898e+00 2.268590e+00 -7.085809e-01 -1.287553e+00 2.295237e+00 -5.529789e-02 3.441160e-01 3.689188e-01 5.423788e-01 4.255156e-01 5.078844e-01 3.591615e-01 -5.613232e-02 1.669128e-02 2.138073e-01 1.741239e-01 2.010738e-01 -3.621716e-03
<VARIANCE> 25
 7.733770e+00 2.320759e+01 1.797029e+01 1.553630e+01 1.682676e+01 2.410696e+01 2.092455e+01 2.311257e+01 2.289173e+01 1.949462e+01 1.847046e+01 1.583520e+01 2.561683e-01 4.051726e-01 5.787143e-01 7.682160e-01 8.322782e-01 1.134813e+00 1.271713e+00 1.416342e+00 1.421731e+00 1.307434e+00 1.313545e+00 1.415464e+00 2.112498e-04
<GCONST> 7.096797e+01
<MIXTURE> 64 4.351215e-03
<MEAN> 25
 -4.340337e+00 -1.262505e+00 -3.775857e+00 2.754321e+00 3.805066e+00 -4.369358e-01 2.856518e+00 1.044898e+00 2.268590e+00 -7.085809e-01 -1.287553e+00 2.295237e+00 -5.529789e-02 3.441160e-01 3.689188e-01 5.423788e-01 4.255156e-01 5.078844e-01 3.591615e-01 -5.613232e-02 1.669128e-02 2.138073e-01 1.741239e-01 2.010738e-01 -3.621716e-03
<VARIANCE> 25
 7.733770e+00 2.320759e+01 1.797029e+01 1.553630e+01 1.682676e+01 2.410696e+01 2.092455e+01 2.311257e+01 2.289173e+01 1.949462e+01 1.847046e+01 1.583520e+01 2.561683e-01 4.051726e-01 5.787143e-01 7.682160e-01 8.322782e-01 1.134813e+00 1.271713e+00 1.416342e+00 1.421731e+00 1.307434e+00 1.313545e+00 1.415464e+00 2.112498e-04
<GCONST> 7.096797e+01
<MIXTURE> 65 1.721197e-02
<MEAN> 25
 7.680991e+00 1.454101e+00 1.831347e+00 1.309691e+00 -5.520424e+00 -3.899821e+00 -4.779351e+00 -6.199570e+00 -2.659388e+00 -1.292157e+00 -5.863570e+00 -1.990247e+00 1.560879e-01 2.379915e-01 3.250489e-02 -1.274673e-02 -1.512480e-01 2.664683e-01 -6.938267e-02 -2.734542e-01 1.505159e-01 2.279183e-01 -2.005863e-01 -1.143754e-01 -8.013998e-03
<VARIANCE> 25
 9.563565e+00 1.876131e+01 2.201992e+01 3.345295e+01 3.402682e+01 5.000258e+01 5.761488e+01 5.157240e+01 5.197419e+01 5.521586e+01 5.142426e+01 4.423827e+01 4.950845e-01 1.153521e+00 1.352646e+00 1.642668e+00 1.880383e+00 2.077851e+00 2.185575e+00 2.651507e+00 2.132546e+00 2.614872e+00 2.722976e+00 1.879232e+00 4.940284e-04
<GCONST> 8.796265e+01
<MIXTURE> 66 1.191532e-02
<MEAN> 25
 6.678899e+00 -4.095304e+00 -5.608502e+00 -4.805724e+00 1.265593e+00 -5.083042e+00 -6.914424e+00 1.193563e+00 6.866242e-01 -2.044917e+00 -6.136175e+00 -3.471504e+00 -4.416749e-02 1.664942e+00 2.234255e+00 2.313796e+00 -1.246283e+00 -1.252229e+00 5.954414e-02 -5.490959e-01 -1.430315e-01 -1.903571e-01 -2.053214e-01 1.042298e+00 -6.370724e-02
<VARIANCE> 25
 8.917855e+00 2.237164e+01 2.709743e+01 3.330376e+01 3.850951e+01 5.334031e+01 5.599418e+01 4.533566e+01 5.399636e+01 6.668616e+01 3.695598e+01 3.639737e+01 1.282506e+00 2.447882e+00 2.362750e+00 2.476594e+00 4.199121e+00 4.303134e+00 4.372093e+00 4.842919e+00 4.243734e+00 4.994724e+00 3.909341e+00 3.260636e+00 1.470048e-03
<GCONST> 9.684233e+01
<MIXTURE> 67 1.559142e-02
<MEAN> 25
 8.146096e+00 3.025390e+00 -6.172465e+00 -9.062155e+00 1.001748e+00 3.898423e+00 -2.152670e+00 -1.578273e+00 -2.573018e+00 1.208628e+00 5.767548e-01 -6.409841e-01 -1.058108e+00 1.898153e+00 1.059495e+00 3.332467e+00 1.482419e+00 -6.063299e-01 1.489274e+00 1.408945e-01 5.055053e-02 3.668133e-01 -2.437822e-01 4.173272e-01 -1.247566e-01
<VARIANCE> 25
 1.278087e+01 3.698776e+01 2.619595e+01 5.046055e+01 4.154661e+01 4.896856e+01 5.858790e+01 4.696485e+01 6.161190e+01 4.962086e+01 4.886837e+01 4.509794e+01 1.833414e+00 2.948077e+00 2.775149e+00 4.201882e+00 3.928721e+00 3.900155e+00 4.151862e+00 4.269556e+00 4.715826e+00 4.356120e+00 4.462332e+00 3.346882e+00 2.700326e-03
<GCONST> 1.001132e+02
<MIXTURE> 68 1.485092e-02
<MEAN> 25
 -1.903695e+00 -2.293844e+00 -3.941306e+00 1.754562e+00 5.230954e+00 -7.000052e-01 1.473716e+00 1.621672e+00 2.195403e+00 1.573038e+00 5.091117e-01 1.669164e+00 2.690333e+00 5.703479e-01 4.772345e-02 -2.428436e+00 -2.426347e+00 -1.299561e+00 -2.419871e+00 -1.579587e+00 -1.616692e+00 -1.571208e+00 -1.777071e+00 -1.018776e+00 1.002385e-01
<VARIANCE> 25
 2.466511e+01 2.987620e+01 5.470656e+01 5.347740e+01 4.395694e+01 5.276165e+01 4.845969e+01 4.009235e+01 3.841254e+01 4.191301e+01 3.487482e+01 2.475549e+01 1.836743e+00 3.654640e+00 5.536060e+00 5.709296e+00 4.431310e+00 6.335088e+00 5.508561e+00 5.180745e+00 4.611098e+00 5.099644e+00 5.192645e+00 3.243277e+00 5.786779e-03
<GCONST> 1.028690e+02
<MIXTURE> 69 1.204884e-02
<MEAN> 25
 3.745055e+00 -4.818803e+00 -2.559961e+00 -3.891710e+00 -2.813170e+00 -7.208570e+00 -2.511065e+00 4.197259e+00 -5.039024e-01 -4.777798e+00 -4.417910e+00 1.131704e+00 2.104961e+00 -2.582444e+00 -1.413931e+00 -1.888441e+00 -9.063359e-01 -2.224463e-01 -9.445842e-01 1.201270e+00 -6.041819e-01 -1.192069e+00 -2.369138e+00 4.471200e-03 6.185603e-02
<VARIANCE> 25
 1.186140e+01 2.113054e+01 2.724834e+01 2.295101e+01 3.930181e+01 3.238632e+01 5.264061e+01 4.448619e+01 3.348720e+01 3.283738e+01 3.329227e+01 2.198908e+01 4.069818e+00 3.050698e+00 2.865419e+00 3.591993e+00 5.742206e+00 4.363664e+00 6.872932e+00 6.846554e+00 5.096655e+00 5.285241e+00 4.053102e+00 3.300536e+00 2.101060e-03
<GCONST> 9.806020e+01
<MIXTURE> 70 1.329190e-02
<MEAN> 25
 6.539866e+00 -2.799525e+00 -3.556858e+00 -3.081358e+00 -3.257076e-01 1.288383e-01 -8.613067e+00 -2.382255e+00 1.256477e+00 2.844540e+00 -3.968104e-01 -4.210785e+00 1.742154e+00 -9.727147e-01 -5.268436e-01 -2.093065e+00 -2.029120e+00 1.494686e+00 -1.378725e+00 1.872354e-01 -1.490082e-01 -2.770352e-01 4.953358e-01 -1.438893e+00 5.683974e-02
<VARIANCE> 25
 1.105572e+01 2.534498e+01 2.384644e+01 5.181796e+01 3.114224e+01 3.880014e+01 4.475457e+01 4.643316e+01 4.034441e+01 3.570671e+01 3.782696e+01 2.458961e+01 2.940742e+00 2.844807e+00 4.069424e+00 4.090204e+00 5.299631e+00 5.937027e+00 6.061459e+00 6.277803e+00 5.847976e+00 5.336446e+00 4.930669e+00 3.487500e+00 2.162956e-03
<GCONST> 9.971927e+01
<MIXTURE> 71 1.406903e-02
<MEAN> 25
 5.798990e+00 4.666006e+00 3.226562e+00 2.823982e+00 -2.643924e+00 -3.398696e+00 -2.396176e+00 -6.535326e+00 -3.701483e+00 -1.524124e+00 -5.669691e+00 -3.182661e+00 -1.476456e+00 -1.031403e+00 -3.386844e-01 -1.336330e+00 1.623407e+00 -4.761956e-01 -3.869214e-01 1.773348e+00 3.428026e-01 -6.453554e-01 1.074097e+00 3.185136e-01 3.802444e-02
<VARIANCE> 25
 1.706785e+01 2.304261e+01 2.367363e+01 3.879893e+01 4.051518e+01 3.430099e+01 3.997509e+01 3.820036e+01 3.578704e+01 4.110511e+01 3.326494e+01 3.143322e+01 1.466437e+00 3.075268e+00 4.644078e+00 4.687868e+00 6.270869e+00 4.696696e+00 4.914964e+00 5.174098e+00 3.569803e+00 4.130498e+00 3.639219e+00 2.764003e+00 1.359906e-03
<GCONST> 9.716278e+01
<MIXTURE> 72 8.134747e-03
<MEAN> 25
 3.794927e+00 -3.791250e+00 5.469532e+00 -2.401214e+00 -1.040621e+01 -9.468391e+00 -2.444264e+00 2.019004e+00 -4.868354e+00 -2.211159e+00 -1.814196e+00 5.388013e-01 9.306812e-01 -7.754914e-01 -2.551515e+00 4.818721e-01 2.126728e+00 -6.524377e-01 -1.309106e+00 1.488457e+00 1.805748e+00 -5.983998e-01 -1.289090e+00 4.099101e-01 -6.410865e-03
<VARIANCE> 25
 1.061483e+01 1.983140e+01 3.234207e+01 3.807256e+01 3.179211e+01 3.423299e+01 4.041257e+01 3.613795e+01 4.331774e+01 4.068958e+01 3.848291e+01 2.846641e+01 4.266078e-01 1.020878e+00 2.028440e+00 1.471111e+00 2.158713e+00 2.316993e+00 3.019515e+00 2.775559e+00 2.566297e+00 2.925821e+00 2.010147e+00 2.097744e+00 5.408472e-04
<GCONST> 8.709519e+01
<MIXTURE> 73 1.213625e-02
<MEAN> 25
 -5.578474e+00 -7.095047e-01 -1.423144e+00 4.748780e+00 4.266535e+00 2.061918e+00 5.282087e+00 3.087325e+00 4.002679e+00 3.282237e+00 4.175151e+00 2.731883e+00 8.029225e-01 -1.083922e+00 -8.482130e-01 -2.539029e+00 -1.375812e+00 -1.784223e+00 -8.388779e-01 -4.666774e-01 -8.924312e-01 -6.245509e-01 -9.808255e-01 -2.538914e-01 1.493079e-01
<VARIANCE> 25
 1.217520e+01 1.343841e+01 1.456384e+01 2.257926e+01 2.291680e+01 2.516162e+01 1.971585e+01 2.032000e+01 1.854997e+01 1.873814e+01 2.158090e+01 1.570645e+01 3.830615e+00 2.927575e+00 5.817419e+00 4.595796e+00 5.911894e+00 4.374370e+00 4.077417e+00 3.984651e+00 3.698573e+00 4.088979e+00 3.491133e+00 2.554787e+00 4.365493e-03
<GCONST> 9.208141e+01
<MIXTURE> 74 1.756491e-02
<MEAN> 25
 4.604138e+00 -2.272200e+00 4.905075e+00 -2.702067e-01 -8.309790e+00 -7.382128e+00 -2.609849e+00 1.190418e+00 -3.467393e+00 -2.798315e+00 -1.701668e+00 9.310221e-02 3.475691e-01 1.931289e+00 -4.972219e-02 1.639055e+00 1.214759e+00 2.251714e-01 2.289333e-01 -1.410860e+00 3.320961e-01 3.597152e-01 -5.362651e-01 -1.706716e-01 -7.317466e-02
<VARIANCE> 25
 1.062971e+01 2.378284e+01 3.325101e+01 3.820936e+01 3.381987e+01 3.897092e+01 4.535115e+01 4.308252e+01 4.462984e+01 3.993179e+01 3.782993e+01 3.111857e+01 1.960232e+00 1.840852e+00 3.548507e+00 2.699904e+00 3.568528e+00 3.700962e+00 4.978021e+00 3.960442e+00 3.840820e+00 3.857567e+00 4.202663e+00 2.866566e+00 1.671462e-03
<GCONST> 9.584029e+01
<MIXTURE> 75 9.711651e-03
<MEAN> 25
 2.319603e+00 -1.674403e+00 9.361044e+00 2.391215e+00 -1.143426e+01 -6.587821e+00 -3.812383e+00 -1.191664e-02 -3.929451e+00 -4.649073e+00 3.389540e+00 3.555758e-01 1.505984e+00 -1.458586e+00 3.623777e-01 -4.993055e-02 -2.677274e+00 -1.523760e-01 -1.408754e+00 9.099854e-01 -2.767443e-01 -4.660022e-01 9.330045e-01 -2.615113e-01 4.422994e-02
<VARIANCE> 25
 9.692819e+00 1.469628e+01 3.234129e+01 2.370359e+01 2.596943e+01 2.953988e+01 3.095521e+01 2.536833e+01 3.185958e+01 2.652679e+01 1.753824e+01 1.833453e+01 2.112731e+00 1.798864e+00 3.645874e+00 2.161452e+00 3.376767e+00 3.875974e+00 3.283729e+00 2.966009e+00 3.360866e+00 2.798050e+00 2.578052e+00 2.427456e+00 1.324098e-03
<GCONST> 8.906464e+01
<MIXTURE> 76 1.052359e-02
<MEAN> 25
 -5.297796e+00 6.174479e-01 -2.193645e+00 3.047355e+00 4.704015e+00 1.122564e+00 3.693106e+00 9.175470e-01 1.688392e+00 9.733840e-01 1.833665e+00 1.273057e+00 -1.821354e-01 -8.447753e-01 -3.075710e-01 -5.987833e-01 -6.608705e-01 -1.177149e+00 -8.595136e-01 -2.663728e-01 -2.621074e-01 -3.418218e-01 -2.494299e-01 -3.184152e-01 3.164236e-02
<VARIANCE> 25
 2.320238e+01 3.504172e+01 2.140508e+01 2.907981e+01 2.643897e+01 2.631859e+01 2.058750e+01 1.772366e+01 1.868312e+01 1.689450e+01 1.863405e+01 1.620666e+01 8.039286e-01 9.064595e-01 1.058429e+00 1.168093e+00 1.625809e+00 1.797860e+00 1.688451e+00 1.452293e+00 1.622838e+00 1.362815e+00 1.150442e+00 9.928814e-01 1.101050e-03
<GCONST> 7.897162e+01
<MIXTURE> 77 1.244626e-02
<MEAN> 25
 -5.024697e-01 8.587708e+00 1.227912e+01 -1.151400e+01 -6.851507e+00 9.491628e-01 -9.132766e+00 -7.207130e+00 -3.375288e+00 -2.043908e-01 -4.605662e+00 -1.469462e+00 6.696504e-02 1.262198e-01 7.830375e-02 2.657343e-01 -1.061419e-02 7.391449e-02 -7.757798e-02 -7.577046e-02 7.716695e-02 -4.635488e-02 3.755685e-02 1.188125e-01 -9.621110e-03
<VARIANCE> 25
 1.049553e+01 1.981819e+01 2.959027e+01 4.194566e+01 3.456123e+01 3.340813e+01 3.775966e+01 3.149534e+01 3.484448e+01 3.286145e+01 3.750684e+01 3.488128e+01 2.965562e-01 7.790170e-01 6.439105e-01 1.105026e+00 1.231537e+00 9.763635e-01 1.228479e+00 1.075677e+00 1.035957e+00 1.065953e+00 9.707865e-01 9.116756e-01 5.423094e-04
<GCONST> 7.787549e+01
<MIXTURE> 78 9.702551e-03
<MEAN> 25
 -1.136879e+01 9.474518e-01 -1.109285e+00 1.931269e+00 4.913763e+00 -2.386355e+00 3.179348e+00 2.023635e+00 2.692348e+00 9.072983e-01 -1.240019e-02 2.690205e+00 2.414547e+00 -3.529794e-01 1.126599e-01 6.017809e-01 -1.929475e-01 3.266475e-02 -5.261239e-01 1.018968e-01 1.619600e-01 1.096234e-01 -3.455949e-01 -3.034845e-01 -5.402553e-02
<VARIANCE> 25
 4.067420e+01 3.214864e+01 3.373439e+01 3.865711e+01 3.710806e+01 3.540818e+01 3.545939e+01 3.261506e+01 2.549379e+01 2.593276e+01 2.749595e+01 1.910926e+01 4.881246e+00 2.899945e+00 2.641345e+00 2.780701e+00 3.086776e+00 3.524048e+00 3.492807e+00 3.373665e+00 2.157021e+00 2.176371e+00 2.148083e+00 2.116618e+00 4.637800e-03
<GCONST> 9.447304e+01
<MIXTURE> 79 1.156824e-02
<MEAN> 25
 2.428551e+00 1.581162e+00 9.182163e+00 -6.602413e+00 -1.207351e+01 -1.815461e+00 -1.913028e+00 -6.487803e+00 -6.571339e+00 3.369197e-01 -3.526445e+00 -3.296708e+00 1.217744e+00 -5.238251e-01 -1.431804e+00 2.352204e+00 3.861587e-01 -1.476241e+00 5.338824e-01 8.861899e-01 -4.364755e-01 -5.440795e-01 3.591873e-01 2.796633e-01 -3.637821e-02
<VARIANCE> 25
 1.424427e+01 2.414307e+01 3.795832e+01 4.977029e+01 3.336120e+01 4.347265e+01 4.282251e+01 3.685785e+01 3.896302e+01 3.985605e+01 4.393689e+01 3.066410e+01 9.541762e-01 2.263324e+00 1.893961e+00 2.089063e+00 2.491426e+00 2.816263e+00 3.195629e+00 3.533328e+00 2.514036e+00 2.734919e+00 2.316880e+00 2.028330e+00 1.233229e-03
<GCONST> 9.182349e+01
<MIXTURE> 80 7.550998e-03
<MEAN> 25
 -1.461502e+01 3.901242e+00 8.732174e-01 2.598846e+00 2.611099e+00 1.349630e+00 6.203747e+00 2.441783e+00 2.735473e+00 2.322454e+00 4.924410e+00 1.196604e+00 4.304189e+00 -1.005640e-01 1.562655e+00 -1.088107e+00 -2.902210e+00 -2.736602e+00 -2.352159e+00 -1.860556e+00 -1.939909e+00 -1.647245e+00 -1.639491e+00 -5.505763e-01 -4.319774e-02
<VARIANCE> 25
 2.043292e+01 1.961172e+01 3.489635e+01 3.658581e+01 3.043669e+01 2.862809e+01 2.901867e+01 2.796820e+01 2.609321e+01 2.819787e+01 2.638651e+01 1.766781e+01 2.313902e+00 2.875160e+00 2.824379e+00 4.104170e+00 3.317646e+00 2.702649e+00 2.982841e+00 4.120594e+00 2.729355e+00 2.690405e+00 2.718490e+00 2.197153e+00 1.515965e-03
<GCONST> 9.164380e+01
<MIXTURE> 81 8.025434e-03
<MEAN> 25
 -1.119164e+00 4.069954e+00 1.017203e+01 -1.480133e+01 -9.074835e+00 -1.420582e+00 -6.762771e+00 -8.426338e+00 -4.153397e+00 -4.159229e-01 -7.569441e+00 -2.244181e+00 1.341121e-01 -5.875496e-01 -2.911832e-03 -5.562680e-01 -4.633033e-01 3.348839e-01 3.185432e-01 1.359789e-01 -1.407753e-01 1.070677e-01 -4.689234e-01 -1.249347e-01 1.152596e-02
<VARIANCE> 25
 1.014882e+01 3.280042e+01 2.655837e+01 2.926972e+01 3.375408e+01 3.051563e+01 4.546581e+01 2.824123e+01 3.797957e+01 3.187341e+01 2.534707e+01 3.105258e+01 7.718994e-01 2.276268e+00 1.545316e+00 2.871545e+00 2.662934e+00 2.125216e+00 3.282242e+00 2.288429e+00 2.354635e+00 2.538312e+00 2.298042e+00 2.077711e+00 1.183138e-03
<GCONST> 8.868790e+01
<MIXTURE> 82 8.213053e-03
<MEAN> 25
 -9.887305e+00 -3.839089e+00 1.570301e+00 -2.941767e+00 3.107370e+00 6.011682e-01 1.998371e+00 8.877948e-01 2.906594e+00 1.735716e+00 1.782268e+00 3.014537e+00 -1.280144e+00 -1.476738e-01 3.014105e-01 -2.582151e+00 -1.129838e+00 -1.277192e+00 -9.967750e-01 -8.591342e-01 -3.266816e-01 -4.663056e-01 -3.030874e-01 -8.683143e-02 1.770995e-01
<VARIANCE> 25
 1.823924e+01 2.494315e+01 3.229159e+01 3.062395e+01 3.266690e+01 3.221392e+01 3.134671e+01 3.272124e+01 3.080593e+01 2.482712e+01 3.048491e+01 1.764187e+01 3.808216e+00 3.045037e+00 3.295687e+00 3.267557e+00 3.587873e+00 3.257487e+00 2.925286e+00 2.987345e+00 2.767961e+00 2.472685e+00 2.430447e+00 1.850822e+00 3.506345e-03
<GCONST> 9.301028e+01
<MIXTURE> 83 1.167529e-02
<MEAN> 25
 -1.926308e+01 5.142149e+00 -2.385939e-01 -1.403119e+00 8.613622e+00 -1.473697e+00 5.038954e+00 2.264881e+00 1.760177e-01 7.285201e-01 1.798694e+00 1.842013e+00 -9.622985e-02 -4.954621e-01 1.476574e-01 -4.216701e-01 -4.296211e-01 8.141205e-02 -1.002618e-01 -2.184865e-02 1.492433e-01 -4.166711e-02 2.489081e-02 -4.019823e-02 4.093928e-03
<VARIANCE> 25
 9.241850e+00 1.397479e+01 3.110822e+01 2.233162e+01 1.942761e+01 2.080548e+01 1.907220e+01 2.118173e+01 2.082005e+01 2.542575e+01 2.246480e+01 1.521113e+01 1.053513e+00 8.220189e-01 1.106222e+00 9.924744e-01 1.234857e+00 1.347286e+00 1.641647e+00 1.251201e+00 1.567700e+00 1.338322e+00 1.012655e+00 1.006033e+00 7.685440e-04
<GCONST> 7.622733e+01
<MIXTURE> 84 1.066614e-02
<MEAN> 25
 1.128757e+00 8.958782e+00 7.195055e+00 7.946769e+00 2.855406e+00 -9.138408e-01 -1.488634e+00 -4.451856e+00 -4.084185e+00 -2.894133e+00 -2.353219e+00 -1.540194e+00 -1.772921e+00 -1.165544e+00 -1.186298e+00 1.278864e+00 2.245713e+00 1.489700e+00 1.449833e+00 1.276484e+00 1.160794e+00 3.924153e-01 4.281720e-01 4.170756e-01 -7.064205e-02
<VARIANCE> 25
 2.352473e+01 1.839578e+01 2.157526e+01 2.422889e+01 2.931760e+01 2.801272e+01 2.771202e+01 2.669197e+01 2.504692e+01 2.514211e+01 2.366976e+01 2.461764e+01 2.100457e+00 2.551211e+00 3.827930e+00 3.323778e+00 3.276800e+00 3.368955e+00 3.274874e+00 3.378963e+00 3.455527e+00 3.223548e+00 3.563515e+00 2.791248e+00 3.571227e-03
<GCONST> 9.250654e+01
<MIXTURE> 85 7.591393e-03
<MEAN> 25
 -3.111115e+00 7.883347e+00 5.717060e+00 1.282459e+00 -3.488626e+00 -5.322894e+00 -2.977678e+00 -6.117959e+00 -3.538523e+00 -3.179856e+00 -4.740519e-01 -1.900666e+00 3.941547e+00 3.224774e-01 1.755821e+00 -2.089354e+00 -3.415226e+00 -2.581868e+00 -2.883856e+00 -2.337651e+00 -2.247795e+00 -1.263580e+00 -2.299845e+00 -6.145035e-01 9.286414e-03
<VARIANCE> 25
 4.245053e+01 2.347756e+01 3.651082e+01 3.821473e+01 3.973935e+01 4.115926e+01 3.217578e+01 2.788422e+01 2.663204e+01 2.612176e+01 2.622638e+01 2.055342e+01 2.706270e+00 4.327437e+00 4.056496e+00 5.181706e+00 4.404086e+00 3.879632e+00 3.856759e+00 3.998795e+00 3.847000e+00 4.037457e+00 3.946297e+00 3.483705e+00 5.446618e-03
<GCONST> 9.835702e+01
<MIXTURE> 86 1.273941e-02
<MEAN> 25
 -5.014803e+00 -8.722124e-01 -6.954385e-01 6.165815e+00 5.200736e+00 4.387010e+00 5.416665e+00 4.337338e+00 4.655649e+00 3.966587e+00 5.041326e+00 2.739720e+00 6.307578e-03 1.671006e-02 -4.539962e-02 -6.105549e-02 -1.079343e-01 -1.595386e-01 -2.284845e-01 -3.359371e-01 -3.627833e-01 -2.871105e-01 -1.710606e-01 -7.055748e-02 -5.723347e-04
<VARIANCE> 25
 7.490697e+00 7.370556e+00 9.621141e+00 1.218009e+01 1.558381e+01 1.501380e+01 1.325022e+01 1.376782e+01 1.258667e+01 1.376995e+01 1.512146e+01 1.232903e+01 9.787293e-02 1.999651e-01 3.038364e-01 4.859440e-01 6.074872e-01 7.148442e-01 7.629741e-01 7.446220e-01 7.987006e-01 8.789974e-01 9.529912e-01 9.314219e-01 5.425122e-05
<GCONST> 5.822562e+01
<MIXTURE> 87 1.100681e-02
<MEAN> 25
 -3.119554e+00 4.448263e+00 3.236291e+00 6.925987e+00 5.897279e+00 1.005322e-01 1.310958e+00 -1.228289e+00 -4.708721e-01 -7.521429e-01 -1.108210e+00 -7.077543e-02 -2.011683e+00 -2.840628e+00 -2.073898e+00 -2.075314e+00 3.209281e-01 -3.842562e-01 2.329566e-01 1.520720e+00 1.365743e+00 8.235925e-01 1.041347e+00 9.847783e-01 1.024365e-01
<VARIANCE> 25
 3.535450e+01 2.690393e+01 2.591570e+01 3.024363e+01 2.661899e+01 3.853868e+01 2.650389e+01 2.569692e+01 2.327838e+01 2.288927e+01 2.395015e+01 2.098872e+01 3.654178e+00 2.616085e+00 3.597934e+00 3.545442e+00 6.614115e+00 4.251831e+00 5.159142e+00 4.457467e+00 3.295360e+00 3.559906e+00 3.195622e+00 2.507534e+00 4.482470e-03
<GCONST> 9.583508e+01
<MIXTURE> 88 1.256585e-02
<MEAN> 25
 -4.133674e+00 -4.130021e-02 -9.991540e-01 5.465639e+00 5.639505e+00 2.453097e+00 3.921856e+00 1.999894e+00 2.877778e+00 2.392198e+00 2.025312e+00 2.106177e+00 -5.193784e-02 4.460022e-02 2.584611e-01 6.571010e-01 2.592617e-01 4.092910e-01 -2.836804e-02 -1.553338e-01 -1.826827e-01 -5.261960e-01 -2.019140e-01 -2.333087e-01 -1.784968e-03
<VARIANCE> 25
 8.420515e+00 1.333166e+01 1.604879e+01 1.376499e+01 2.167848e+01 2.390013e+01 1.708035e+01 1.832905e+01 1.483560e+01 1.769348e+01 1.906958e+01 1.166445e+01 1.223279e+00 2.054188e+00 1.493896e+00 2.544678e+00 2.516051e+00 3.347026e+00 2.872802e+00 2.126257e+00 1.899422e+00 2.483906e+00 2.438009e+00 2.128222e+00 1.266444e-03
<GCONST> 8.176054e+01
<MIXTURE> 89 9.333527e-03
<MEAN> 25
 5.487607e+00 -6.171685e+00 -3.100275e+00 -1.509430e+00 -1.751013e+00 -5.141977e+00 -7.636462e+00 3.972059e+00 2.690799e+00 -3.540322e+00 -5.024455e+00 -3.035832e+00 -4.353644e-01 1.044467e-02 1.872767e+00 6.630296e-01 -1.581392e+00 -1.682706e+00 1.122047e+00 1.226685e+00 -8.873715e-01 -1.025334e+00 3.410659e-01 1.679661e+00 -2.925912e-03
<VARIANCE> 25
 9.184221e+00 2.445934e+01 2.702980e+01 3.720663e+01 3.046737e+01 3.616646e+01 6.063220e+01 3.571779e+01 3.618747e+01 3.810409e+01 3.457703e+01 2.912082e+01 3.797279e-01 8.058518e-01 1.310000e+00 1.349915e+00 2.043234e+00 1.843442e+00 2.866112e+00 1.725018e+00 1.939236e+00 2.205882e+00 1.982020e+00 1.428405e+00 4.033940e-04
<GCONST> 8.409256e+01
<MIXTURE> 90 7.114505e-03
<MEAN> 25
 2.436032e+00 -9.604364e+00 -4.613565e+00 -3.825699e+00 -3.370310e+00 -1.786262e+00 3.342772e+00 1.217140e+00 -7.465144e+00 -1.012354e+01 -3.376445e+00 -7.270328e-01 -1.677622e-01 9.049432e-01 1.160430e+00 -8.501707e-01 -1.589535e+00 -1.718044e-01 6.864606e-01 -2.017270e-01 -1.789055e-01 7.433625e-01 1.841248e-01 -5.695402e-01 -1.127049e-02
<VARIANCE> 25
 8.383577e+00 1.842141e+01 2.075639e+01 2.902716e+01 3.631388e+01 3.199692e+01 3.849763e+01 3.594056e+01 3.502366e+01 2.783258e+01 2.678890e+01 2.595527e+01 2.222091e-01 6.074773e-01 7.831491e-01 1.030500e+00 1.485034e+00 1.695634e+00 1.905289e+00 1.635616e+00 1.794446e+00 1.658380e+00 1.481246e+00 1.353077e+00 2.176863e-04
<GCONST> 7.830122e+01
<MIXTURE> 91 7.852945e-03
<MEAN> 25
 6.399868e+00 -7.621124e+00 -8.531802e+00 -5.138633e+00 3.892145e+00 -1.107485e-01 -2.176503e+00 7.086991e-01 7.901776e-01 -2.897942e+00 -4.926426e+00 -5.152286e+00 2.611996e-01 1.009967e+00 1.873007e-01 4.393846e-01 -7.023501e-02 -5.563424e-01 -3.764177e-01 -1.142300e-01 -1.015370e-01 4.647883e-01 -1.270590e-01 2.073614e-01 -3.500117e-02
<VARIANCE> 25
 1.005271e+01 2.291710e+01 2.030954e+01 4.134406e+01 3.558241e+01 5.535001e+01 5.414375e+01 3.949072e+01 5.153617e+01 6.405018e+01 3.815308e+01 4.140751e+01 4.465044e-01 8.928029e-01 1.129526e+00 1.398306e+00 2.183377e+00 2.392594e+00 2.377284e+00 2.409005e+00 2.234071e+00 2.223154e+00 2.044499e+00 1.817799e+00 5.820954e-04
<GCONST> 8.724237e+01
<MIXTURE> 92 7.852945e-03
<MEAN> 25
 6.399868e+00 -7.621124e+00 -8.531802e+00 -5.138633e+00 3.892145e+00 -1.107485e-01 -2.176503e+00 7.086991e-01 7.901776e-01 -2.897942e+00 -4.926426e+00 -5.152286e+00 2.611996e-01 1.009967e+00 1.873007e-01 4.393846e-01 -7.023501e-02 -5.563424e-01 -3.764177e-01 -1.142300e-01 -1.015370e-01 4.647883e-01 -1.270590e-01 2.073614e-01 -3.500117e-02
<VARIANCE> 25
 1.005271e+01 2.291710e+01 2.030954e+01 4.134406e+01 3.558241e+01 5.535001e+01 5.414375e+01 3.949072e+01 5.153617e+01 6.405018e+01 3.815308e+01 4.140751e+01 4.465044e-01 8.928029e-01 1.129526e+00 1.398306e+00 2.183377e+00 2.392594e+00 2.377284e+00 2.409005e+00 2.234071e+00 2.223154e+00 2.044499e+00 1.817799e+00 5.820954e-04
<GCONST> 8.724237e+01
<MIXTURE> 93 6.122769e-03
<MEAN> 25
 -6.826393e+00 -9.352124e-01 -2.381008e+00 5.785343e+00 5.920247e+00 3.898286e+00 6.105787e+00 3.589661e+00 4.103496e+00 2.485545e+00 1.798171e+00 3.690521e+00 -6.245834e-02 -1.532259e-01 -2.555377e-01 -3.307205e-01 -3.333181e-01 -2.867460e-01 -2.189714e-01 -1.752507e-01 -1.645922e-01 -1.492482e-01 -1.080277e-01 -3.626127e-02 -7.762023e-06
<VARIANCE> 25
 9.060693e+00 6.200871e+00 8.241301e+00 1.135362e+01 1.150483e+01 1.605657e+01 1.544648e+01 1.646318e+01 1.475132e+01 1.464526e+01 1.680534e+01 1.344789e+01 8.262099e-02 1.533919e-01 2.631912e-01 3.791567e-01 4.963834e-01 6.414464e-01 7.805995e-01 8.871372e-01 9.168532e-01 8.746256e-01 8.947891e-01 9.157000e-01 1.013686e-06
<GCONST> 5.366087e+01
<MIXTURE> 94 6.122769e-03
<MEAN> 25
 -6.826393e+00 -9.352124e-01 -2.381008e+00 5.785343e+00 5.920247e+00 3.898286e+00 6.105787e+00 3.589661e+00 4.103496e+00 2.485545e+00 1.798171e+00 3.690521e+00 -6.245834e-02 -1.532259e-01 -2.555377e-01 -3.307205e-01 -3.333181e-01 -2.867460e-01 -2.189714e-01 -1.752507e-01 -1.645922e-01 -1.492482e-01 -1.080277e-01 -3.626127e-02 -7.762023e-06
<VARIANCE> 25
 9.060693e+00 6.200871e+00 8.241301e+00 1.135362e+01 1.150483e+01 1.605657e+01 1.544648e+01 1.646318e+01 1.475132e+01 1.464526e+01 1.680534e+01 1.344789e+01 8.262099e-02 1.533919e-01 2.631912e-01 3.791567e-01 4.963834e-01 6.414464e-01 7.805995e-01 8.871372e-01 9.168532e-01 8.746256e-01 8.947891e-01 9.157000e-01 1.013686e-06
<GCONST> 5.366087e+01
<MIXTURE> 95 5.258835e-03
<MEAN> 25
 -5.852666e+00 -6.408366e-02 -1.515542e+00 4.554115e+00 4.596210e+00 2.536270e+00 4.065067e+00 1.431026e+00 2.098899e+00 9.816319e-01 9.403118e-01 2.625028e+00 1.255174e-01 1.616911e-01 7.329743e-02 -1.575177e-01 -3.783784e-01 -6.728914e-01 -1.054338e+00 -1.187920e+00 -1.219151e+00 -1.011009e+00 -6.898017e-01 -3.801104e-01 -4.172146e-04
<VARIANCE> 25
 9.371393e+00 1.062863e+01 1.294128e+01 1.258406e+01 1.407520e+01 1.790780e+01 1.739339e+01 1.626953e+01 1.422472e+01 1.562671e+01 1.873286e+01 1.304208e+01 1.954405e-01 2.751079e-01 4.109773e-01 6.405745e-01 7.431884e-01 8.608211e-01 8.532017e-01 9.561220e-01 9.308020e-01 1.020087e+00 1.088946e+00 1.121764e+00 4.028300e-05
<GCONST> 6.283917e+01
<MIXTURE> 96 7.034694e-03
<MEAN> 25
 -5.126172e+00 2.434202e-01 -1.947232e+00 4.874312e+00 4.179400e+00 1.737822e+00 3.595676e+00 1.260489e+00 2.112826e+00 9.682010e-01 7.677769e-01 2.629596e+00 -3.859717e-02 6.376728e-02 2.285556e-01 3.923173e-01 5.264348e-01 4.572295e-01 1.834845e-01 -1.517988e-01 -4.275697e-01 -6.044932e-01 -5.695153e-01 -3.472468e-01 8.931921e-05
<VARIANCE> 25
 1.014396e+01 1.386894e+01 1.261434e+01 1.396245e+01 1.542552e+01 1.815370e+01 1.748412e+01 2.111272e+01 1.774355e+01 1.575370e+01 1.950845e+01 1.455372e+01 1.145992e-01 2.169435e-01 3.028329e-01 3.831211e-01 4.819156e-01 6.648569e-01 8.571067e-01 1.032525e+00 9.882810e-01 8.357110e-01 8.781666e-01 9.617556e-01 1.293232e-06
<GCONST> 5.786521e+01
<MIXTURE> 97 7.034694e-03
<MEAN> 25
 -5.126172e+00 2.434202e-01 -1.947232e+00 4.874312e+00 4.179400e+00 1.737822e+00 3.595676e+00 1.260489e+00 2.112826e+00 9.682010e-01 7.677769e-01 2.629596e+00 -3.859717e-02 6.376728e-02 2.285556e-01 3.923173e-01 5.264348e-01 4.572295e-01 1.834845e-01 -1.517988e-01 -4.275697e-01 -6.044932e-01 -5.695153e-01 -3.472468e-01 8.931921e-05
<VARIANCE> 25
 1.014396e+01 1.386894e+01 1.261434e+01 1.396245e+01 1.542552e+01 1.815370e+01 1.748412e+01 2.111272e+01 1.774355e+01 1.575370e+01 1.950845e+01 1.455372e+01 1.145992e-01 2.169435e-01 3.028329e-01 3.831211e-01 4.819156e-01 6.648569e-01 8.571067e-01 1.032525e+00 9.882810e-01 8.357110e-01 8.781666e-01 9.617556e-01 1.293232e-06
<GCONST> 5.786521e+01
<MIXTURE> 98 9.917808e-03
<MEAN> 25
 -1.314099e+00 1.109617e+00 -1.893356e-01 4.254684e+00 3.715174e+00 2.572022e+00 3.070695e+00 1.569496e+00 1.346430e+00 8.049600e-01 8.132845e-01 1.110766e+00 -1.771692e+00 -1.370306e+00 -8.778653e-01 2.252783e-01 8.581442e-01 7.020436e-01 1.269439e+00 1.344261e+00 1.604586e+00 9.203542e-01 1.227853e+00 7.822061e-01 -3.274840e-02
<VARIANCE> 25
 1.351782e+01 1.841987e+01 3.006862e+01 3.105247e+01 4.304243e+01 3.480470e+01 2.963458e+01 2.806388e+01 2.557560e+01 3.122760e+01 2.668591e+01 2.282578e+01 1.275704e+00 1.845820e+00 2.245801e+00 3.100693e+00 3.206217e+00 2.872058e+00 2.802733e+00 2.592515e+00 2.473491e+00 3.134699e+00 3.005964e+00 2.235410e+00 2.215748e-03
<GCONST> 9.027532e+01
<MIXTURE> 99 6.696178e-03
<MEAN> 25
 -6.124800e+00 9.305103e+00 5.395170e+00 2.670882e+00 1.992540e+00 -4.240970e+00 -9.576536e-01 -4.435640e+00 -3.286693e+00 -2.944960e+00 -1.239366e+00 2.850937e-01 4.773399e-01 -6.372024e-01 2.881773e-01 -1.235426e-01 -8.647138e-01 -3.812033e-01 -3.454922e-01 -3.589135e-01 -2.184300e-01 -1.430872e-02 3.027973e-01 2.028082e-01 1.274424e-02
<VARIANCE> 25
 2.951062e+01 2.205316e+01 4.381179e+01 3.505280e+01 3.305942e+01 3.157837e+01 2.430694e+01 2.468319e+01 2.237279e+01 2.417628e+01 1.921468e+01 2.510879e+01 1.911147e+00 1.665071e+00 1.277216e+00 1.917374e+00 2.744756e+00 1.826454e+00 1.567466e+00 1.511924e+00 1.347841e+00 1.378764e+00 1.161267e+00 1.041678e+00 1.492287e-03
<GCONST> 8.441238e+01
<MIXTURE> 100 4.498084e-03
<MEAN> 25
 -1.598915e+00 6.344499e+00 1.027635e+01 -7.462509e+00 -1.078153e+01 -5.075257e+00 -4.941309e+00 -9.968551e+00 -4.718044e+00 -8.549973e-01 -2.732950e+00 -2.708309e+00 2.917841e+00 -1.260479e+00 1.299714e+00 -2.185839e+00 -3.419529e+00 -7.841571e-01 -1.218712e+00 -8.197109e-01 -1.475455e+00 3.466524e-01 -1.655496e+00 -2.861862e-01 2.020091e-03
<VARIANCE> 25
 1.362600e+01 2.106019e+01 2.246932e+01 2.642712e+01 2.302293e+01 2.372055e+01 2.911264e+01 2.170754e+01 2.748168e+01 2.265178e+01 2.241269e+01 2.134029e+01 1.799096e+00 3.953582e+00 2.919878e+00 4.286326e+00 4.184257e+00 4.537062e+00 4.015369e+00 4.340254e+00 4.167689e+00 3.895917e+00 3.910490e+00 3.224910e+00 1.675169e-03
<GCONST> 9.256906e+01
<MIXTURE> 101 6.007792e-03
<MEAN> 25
 7.813929e+00 -4.956843e+00 -6.379317e+00 -7.043147e+00 6.577453e-01 -7.835147e-01 -1.010083e+01 -1.182662e+00 1.588912e+00 2.936762e+00 -2.302202e+00 -5.344319e+00 7.198403e-01 7.144645e-01 -1.456568e+00 -1.610317e+00 8.840065e-01 2.370692e+00 3.924084e-01 -1.743162e+00 -1.018665e+00 1.061671e+00 1.481125e+00 -5.063105e-01 -7.688249e-03
<VARIANCE> 25
 8.954424e+00 3.171921e+01 2.679244e+01 3.919451e+01 3.278967e+01 3.466934e+01 3.538443e+01 3.990517e+01 3.401249e+01 4.044822e+01 4.686044e+01 2.222347e+01 2.807081e-01 7.647640e-01 1.098106e+00 1.419805e+00 1.686717e+00 1.936309e+00 2.169487e+00 2.402509e+00 2.139689e+00 2.090046e+00 1.700304e+00 2.160457e+00 3.763823e-04
<GCONST> 8.367057e+01
<MIXTURE> 102 6.007792e-03
<MEAN> 25
 7.813929e+00 -4.956843e+00 -6.379317e+00 -7.043147e+00 6.577453e-01 -7.835147e-01 -1.010083e+01 -1.182662e+00 1.588912e+00 2.936762e+00 -2.302202e+00 -5.344319e+00 7.198403e-01 7.144645e-01 -1.456568e+00 -1.610317e+00 8.840065e-01 2.370692e+00 3.924084e-01 -1.743162e+00 -1.018665e+00 1.061671e+00 1.481125e+00 -5.063105e-01 -7.688249e-03
<VARIANCE> 25
 8.954424e+00 3.171921e+01 2.679244e+01 3.919451e+01 3.278967e+01 3.466934e+01 3.538443e+01 3.990517e+01 3.401249e+01 4.044822e+01 4.686044e+01 2.222347e+01 2.807081e-01 7.647640e-01 1.098106e+00 1.419805e+00 1.686717e+00 1.936309e+00 2.169487e+00 2.402509e+00 2.139689e+00 2.090046e+00 1.700304e+00 2.160457e+00 3.763823e-04
<GCONST> 8.367057e+01
<MIXTURE> 103 5.694618e-03
<MEAN> 25
 3.365005e+00 -9.453092e+00 -6.096786e+00 -3.045935e+00 -1.338357e+00 -1.969265e+00 2.377305e+00 2.514710e+00 -4.572307e+00 -9.230678e+00 -5.049830e+00 3.446945e-01 -1.569127e-01 -1.487958e+00 -9.747763e-01 3.744837e-01 1.198480e+00 1.013547e+00 1.535787e-01 -2.645264e-01 -7.770525e-01 -9.465068e-01 -2.640735e-02 1.217973e-01 2.706978e-02
<VARIANCE> 25
 1.028143e+01 2.048045e+01 2.299492e+01 3.199270e+01 4.804194e+01 3.482452e+01 4.706266e+01 3.664877e+01 4.217387e+01 2.938298e+01 2.999296e+01 2.636300e+01 6.438632e-01 1.254866e+00 1.542290e+00 1.931562e+00 2.962157e+00 2.415333e+00 2.893594e+00 2.574640e+00 2.557509e+00 2.533113e+00 2.121515e+00 2.020886e+00 8.085157e-04
<GCONST> 8.762607e+01
<MIXTURE> 104 5.694618e-03
<MEAN> 25
 3.365005e+00 -9.453092e+00 -6.096786e+00 -3.045935e+00 -1.338357e+00 -1.969265e+00 2.377305e+00 2.514710e+00 -4.572307e+00 -9.230678e+00 -5.049830e+00 3.446945e-01 -1.569127e-01 -1.487958e+00 -9.747763e-01 3.744837e-01 1.198480e+00 1.013547e+00 1.535787e-01 -2.645264e-01 -7.770525e-01 -9.465068e-01 -2.640735e-02 1.217973e-01 2.706978e-02
<VARIANCE> 25
 1.028143e+01 2.048045e+01 2.299492e+01 3.199270e+01 4.804194e+01 3.482452e+01 4.706266e+01 3.664877e+01 4.217387e+01 2.938298e+01 2.999296e+01 2.636300e+01 6.438632e-01 1.254866e+00 1.542290e+00 1.931562e+00 2.962157e+00 2.415333e+00 2.893594e+00 2.574640e+00 2.557509e+00 2.533113e+00 2.121515e+00 2.020886e+00 8.085157e-04
<GCONST> 8.762607e+01
<MIXTURE> 105 4.710235e-03
<MEAN> 25
 2.171223e+00 -1.829947e+00 7.559484e+00 -8.478052e-01 -1.141458e+01 -3.668901e+00 -3.750986e+00 -5.858829e-01 -3.670409e+00 -3.306028e+00 1.552822e+00 -5.070131e-01 6.932574e-02 5.861432e-02 -1.716822e-02 -1.638050e-02 1.190200e-01 5.314955e-02 -3.492944e-02 1.111477e-02 -7.777506e-02 3.312147e-03 -2.111787e-02 3.982158e-02 -1.799317e-03
<VARIANCE> 25
 1.063876e+01 2.312451e+01 3.903057e+01 4.354382e+01 3.110510e+01 4.662235e+01 3.380227e+01 3.408511e+01 3.811142e+01 3.549935e+01 3.352599e+01 2.511514e+01 7.754617e-02 1.949939e-01 3.107977e-01 2.597149e-01 4.516150e-01 4.772795e-01 5.024078e-01 5.188743e-01 4.286889e-01 3.835293e-01 5.347368e-01 4.075094e-01 9.999496e-05
<GCONST> 6.503821e+01
<MIXTURE> 106 4.710235e-03
<MEAN> 25
 2.171223e+00 -1.829947e+00 7.559484e+00 -8.478052e-01 -1.141458e+01 -3.668901e+00 -3.750986e+00 -5.858829e-01 -3.670409e+00 -3.306028e+00 1.552822e+00 -5.070131e-01 6.932574e-02 5.861432e-02 -1.716822e-02 -1.638050e-02 1.190200e-01 5.314955e-02 -3.492944e-02 1.111477e-02 -7.777506e-02 3.312147e-03 -2.111787e-02 3.982158e-02 -1.799317e-03
<VARIANCE> 25
 1.063876e+01 2.312451e+01 3.903057e+01 4.354382e+01 3.110510e+01 4.662235e+01 3.380227e+01 3.408511e+01 3.811142e+01 3.549935e+01 3.352599e+01 2.511514e+01 7.754617e-02 1.949939e-01 3.107977e-01 2.597149e-01 4.516150e-01 4.772795e-01 5.024078e-01 5.188743e-01 4.286889e-01 3.835293e-01 5.347368e-01 4.075094e-01 9.999496e-05
<GCONST> 6.503821e+01
<MIXTURE> 107 5.452374e-03
<MEAN> 25
 8.518993e+00 -2.116132e+00 -7.999799e+00 -9.568179e+00 2.028977e+00 2.994101e+00 -8.520897e+00 -4.565809e+00 -8.694524e-01 3.495786e+00 1.013774e+00 -4.850785e+00 -5.998695e-01 -7.892841e-01 8.136204e-01 1.808273e+00 2.820777e-01 -1.931756e+00 -8.934375e-01 8.506756e-01 1.784427e+00 7.609110e-02 -1.659247e+00 -8.260926e-01 -2.110819e-03
<VARIANCE> 25
 9.727778e+00 2.169546e+01 2.782370e+01 4.198205e+01 3.522429e+01 3.772221e+01 5.076699e+01 3.549448e+01 4.482327e+01 4.139043e+01 5.157834e+01 3.199455e+01 3.531014e-01 9.718684e-01 1.453945e+00 2.427809e+00 2.385248e+00 3.063737e+00 2.595602e+00 2.487544e+00 2.270864e+00 3.008299e+00 1.912503e+00 2.162169e+00 6.931262e-04
<GCONST> 8.809775e+01
<MIXTURE> 108 5.452374e-03
<MEAN> 25
 8.518993e+00 -2.116132e+00 -7.999799e+00 -9.568179e+00 2.028977e+00 2.994101e+00 -8.520897e+00 -4.565809e+00 -8.694524e-01 3.495786e+00 1.013774e+00 -4.850785e+00 -5.998695e-01 -7.892841e-01 8.136204e-01 1.808273e+00 2.820777e-01 -1.931756e+00 -8.934375e-01 8.506756e-01 1.784427e+00 7.609110e-02 -1.659247e+00 -8.260926e-01 -2.110819e-03
<VARIANCE> 25
 9.727778e+00 2.169546e+01 2.782370e+01 4.198205e+01 3.522429e+01 3.772221e+01 5.076699e+01 3.549448e+01 4.482327e+01 4.139043e+01 5.157834e+01 3.199455e+01 3.531014e-01 9.718684e-01 1.453945e+00 2.427809e+00 2.385248e+00 3.063737e+00 2.595602e+00 2.487544e+00 2.270864e+00 3.008299e+00 1.912503e+00 2.162169e+00 6.931262e-04
<GCONST> 8.809775e+01
<MIXTURE> 109 6.661064e-03
<MEAN> 25
 4.078796e+00 -1.053064e+01 -8.274801e+00 -1.328956e+00 2.700305e+00 -5.120456e-02 -9.344426e-02 1.448759e+00 -2.548082e+00 -8.376434e+00 -5.352973e+00 6.645641e-02 -3.203025e-02 -1.325287e-01 -3.177331e-02 2.491100e-01 1.971959e-01 1.198204e-01 -1.227752e-01 -1.070118e-01 -4.199453e-02 -1.298768e-01 2.216777e-01 1.400636e-02 -3.482427e-03
<VARIANCE> 25
 9.059800e+00 1.827460e+01 2.020150e+01 3.156434e+01 4.149337e+01 3.665856e+01 4.662551e+01 3.428125e+01 4.611338e+01 3.515202e+01 2.977547e+01 2.808765e+01 1.926639e-01 4.217715e-01 5.372335e-01 6.333642e-01 1.229840e+00 9.926234e-01 1.258714e+00 1.090823e+00 1.115527e+00 9.503293e-01 8.790598e-01 8.842465e-01 1.832319e-04
<GCONST> 7.446787e+01
<MIXTURE> 110 6.661064e-03
<MEAN> 25
 4.078796e+00 -1.053064e+01 -8.274801e+00 -1.328956e+00 2.700305e+00 -5.120456e-02 -9.344426e-02 1.448759e+00 -2.548082e+00 -8.376434e+00 -5.352973e+00 6.645641e-02 -3.203025e-02 -1.325287e-01 -3.177331e-02 2.491100e-01 1.971959e-01 1.198204e-01 -1.227752e-01 -1.070118e-01 -4.199453e-02 -1.298768e-01 2.216777e-01 1.400636e-02 -3.482427e-03
<VARIANCE> 25
 9.059800e+00 1.827460e+01 2.020150e+01 3.156434e+01 4.149337e+01 3.665856e+01 4.662551e+01 3.428125e+01 4.611338e+01 3.515202e+01 2.977547e+01 2.808765e+01 1.926639e-01 4.217715e-01 5.372335e-01 6.333642e-01 1.229840e+00 9.926234e-01 1.258714e+00 1.090823e+00 1.115527e+00 9.503293e-01 8.790598e-01 8.842465e-01 1.832319e-04
<GCONST> 7.446787e+01
<MIXTURE> 111 4.337247e-03
<MEAN> 25
 -4.451700e+00 -4.731093e-01 -1.410600e+00 1.849134e+00 1.228526e+00 7.820982e-01 4.327940e-01 7.518471e-02 -9.525331e-02 -6.805075e-01 -8.093752e-01 1.854280e+00 -9.606382e-03 7.590527e-03 -8.454689e-02 -7.619626e-02 -2.124098e-02 2.114226e-02 -8.400642e-03 -5.855313e-02 -9.823354e-02 -2.199071e-01 -2.187987e-01 -1.427859e-01 -4.593974e-04
<VARIANCE> 25
 7.606384e+00 7.581602e+00 9.887887e+00 8.871432e+00 1.843190e+01 2.199019e+01 1.436254e+01 1.268511e+01 1.192043e+01 1.171597e+01 1.287061e+01 1.111375e+01 8.273558e-02 1.766564e-01 2.548528e-01 3.893978e-01 5.340706e-01 7.028605e-01 8.194439e-01 8.265660e-01 8.467498e-01 7.845278e-01 8.686501e-01 8.554453e-01 2.239264e-05
<GCONST> 5.626979e+01
<MIXTURE> 112 4.337247e-03
<MEAN> 25
 -4.451700e+00 -4.731093e-01 -1.410600e+00 1.849134e+00 1.228526e+00 7.820982e-01 4.327940e-01 7.518471e-02 -9.525331e-02 -6.805075e-01 -8.093752e-01 1.854280e+00 -9.606382e-03 7.590527e-03 -8.454689e-02 -7.619626e-02 -2.124098e-02 2.114226e-02 -8.400642e-03 -5.855313e-02 -9.823354e-02 -2.199071e-01 -2.187987e-01 -1.427859e-01 -4.593974e-04
<VARIANCE> 25
 7.606384e+00 7.581602e+00 9.887887e+00 8.871432e+00 1.843190e+01 2.199019e+01 1.436254e+01 1.268511e+01 1.192043e+01 1.171597e+01 1.287061e+01 1.111375e+01 8.273558e-02 1.766564e-01 2.548528e-01 3.893978e-01 5.340706e-01 7.028605e-01 8.194439e-01 8.265660e-01 8.467498e-01 7.845278e-01 8.686501e-01 8.554453e-01 2.239264e-05
<GCONST> 5.626979e+01
<MIXTURE> 113 5.938666e-03
<MEAN> 25
 9.959112e+00 1.767670e+00 -8.771769e+00 -1.703067e+01 -1.033593e+00 5.640502e+00 -5.263802e+00 -1.470629e+00 -5.693812e+00 -4.849553e-01 3.102273e-01 -1.770644e-01 4.899704e-03 1.032785e-02 -5.947435e-02 -1.107195e-01 1.066222e-01 1.509421e-01 5.336715e-02 3.433395e-02 -5.540372e-02 -4.691928e-02 1.829446e-01 3.608612e-02 -1.377404e-03
<VARIANCE> 25
 8.988194e+00 1.640650e+01 2.963501e+01 3.426839e+01 5.261722e+01 3.392092e+01 3.971055e+01 3.905070e+01 3.728172e+01 4.631798e+01 3.625406e+01 2.852735e+01 1.216898e-01 3.244014e-01 3.156257e-01 6.346219e-01 6.139180e-01 6.531814e-01 7.880972e-01 8.457472e-01 9.587679e-01 9.110993e-01 7.265466e-01 7.123531e-01 1.251437e-04
<GCONST> 7.115337e+01
<MIXTURE> 114 5.938666e-03
<MEAN> 25
 9.959112e+00 1.767670e+00 -8.771769e+00 -1.703067e+01 -1.033593e+00 5.640502e+00 -5.263802e+00 -1.470629e+00 -5.693812e+00 -4.849553e-01 3.102273e-01 -1.770644e-01 4.899704e-03 1.032785e-02 -5.947435e-02 -1.107195e-01 1.066222e-01 1.509421e-01 5.336715e-02 3.433395e-02 -5.540372e-02 -4.691928e-02 1.829446e-01 3.608612e-02 -1.377404e-03
<VARIANCE> 25
 8.988194e+00 1.640650e+01 2.963501e+01 3.426839e+01 5.261722e+01 3.392092e+01 3.971055e+01 3.905070e+01 3.728172e+01 4.631798e+01 3.625406e+01 2.852735e+01 1.216898e-01 3.244014e-01 3.156257e-01 6.346219e-01 6.139180e-01 6.531814e-01 7.880972e-01 8.457472e-01 9.587679e-01 9.110993e-01 7.265466e-01 7.123531e-01 1.251437e-04
<GCONST> 7.115337e+01
<MIXTURE> 115 2.935202e-03
<MEAN> 25
 -4.084699e+00 -5.525412e-01 -2.999031e+00 3.588355e+00 2.533316e+00 -4.393654e-01 2.240237e+00 3.507051e-01 1.364892e+00 -3.268194e-02 -7.067115e-02 2.615202e+00 2.848956e-02 -6.978150e-02 -2.207293e-01 -4.320218e-01 -6.158710e-01 -6.507719e-01 -5.912120e-01 -5.063813e-01 -4.759987e-01 -4.490345e-01 -3.351576e-01 -1.549923e-01 -1.624675e-05
<VARIANCE> 25
 9.144075e+00 1.112886e+01 1.353697e+01 1.260496e+01 1.378888e+01 1.716342e+01 1.696353e+01 2.049780e+01 1.768100e+01 1.699144e+01 1.920128e+01 1.469568e+01 2.002420e-01 3.430775e-01 4.761928e-01 5.504059e-01 6.310656e-01 8.038893e-01 9.927945e-01 1.120184e+00 1.089549e+00 9.833549e-01 1.021702e+00 1.092964e+00 1.111029e-06
<GCONST> 6.025452e+01
<MIXTURE> 116 2.935202e-03
<MEAN> 25
 -4.084699e+00 -5.525412e-01 -2.999031e+00 3.588355e+00 2.533316e+00 -4.393654e-01 2.240237e+00 3.507051e-01 1.364892e+00 -3.268194e-02 -7.067115e-02 2.615202e+00 2.848956e-02 -6.978150e-02 -2.207293e-01 -4.320218e-01 -6.158710e-01 -6.507719e-01 -5.912120e-01 -5.063813e-01 -4.759987e-01 -4.490345e-01 -3.351576e-01 -1.549923e-01 -1.624675e-05
<VARIANCE> 25
 9.144075e+00 1.112886e+01 1.353697e+01 1.260496e+01 1.378888e+01 1.716342e+01 1.696353e+01 2.049780e+01 1.768100e+01 1.699144e+01 1.920128e+01 1.469568e+01 2.002420e-01 3.430775e-01 4.761928e-01 5.504059e-01 6.310656e-01 8.038893e-01 9.927945e-01 1.120184e+00 1.089549e+00 9.833549e-01 1.021702e+00 1.092964e+00 1.111029e-06
<GCONST> 6.025452e+01
<MIXTURE> 117 6.506003e-03
<MEAN> 25
 -4.645481e+00 1.122974e+00 1.056295e+00 9.753403e+00 6.260011e+00 6.253196e+00 6.464224e+00 5.038862e+00 6.380597e+00 4.926273e+00 6.360038e+00 2.708210e+00 -7.501135e-02 -2.338519e-01 -3.580514e-01 -4.198232e-01 -3.675320e-01 -3.031141e-01 -2.867904e-01 -3.308097e-01 -3.909129e-01 -3.682114e-01 -2.633480e-01 -1.161291e-01 -9.423303e-06
<VARIANCE> 25
 7.182844e+00 8.778549e+00 9.808361e+00 1.433095e+01 1.560626e+01 1.535145e+01 1.771811e+01 1.798654e+01 1.642431e+01 1.637000e+01 1.679542e+01 1.474955e+01 2.164386e-01 3.074391e-01 4.259330e-01 6.168739e-01 8.531752e-01 1.055147e+00 1.177558e+00 1.233115e+00 1.225405e+00 1.195250e+00 1.166729e+00 1.113386e+00 1.002087e-06
<GCONST> 6.043740e+01
<MIXTURE> 118 6.506003e-03
<MEAN> 25
 -4.645481e+00 1.122974e+00 1.056295e+00 9.753403e+00 6.260011e+00 6.253196e+00 6.464224e+00 5.038862e+00 6.380597e+00 4.926273e+00 6.360038e+00 2.708210e+00 -7.501135e-02 -2.338519e-01 -3.580514e-01 -4.198232e-01 -3.675320e-01 -3.031141e-01 -2.867904e-01 -3.308097e-01 -3.909129e-01 -3.682114e-01 -2.633480e-01 -1.161291e-01 -9.423303e-06
<VARIANCE> 25
 7.182844e+00 8.778549e+00 9.808361e+00 1.433095e+01 1.560626e+01 1.535145e+01 1.771811e+01 1.798654e+01 1.642431e+01 1.637000e+01 1.679542e+01 1.474955e+01 2.164386e-01 3.074391e-01 4.259330e-01 6.168739e-01 8.531752e-01 1.055147e+00 1.177558e+00 1.233115e+00 1.225405e+00 1.195250e+00 1.166729e+00 1.113386e+00 1.002087e-06
<GCONST> 6.043740e+01
<MIXTURE> 119 4.297961e-03
<MEAN> 25
 -4.811677e+00 -7.445085e+00 2.298614e+00 2.027368e+00 2.092029e+00 3.867783e-01 5.319180e+00 5.958625e+00 9.222251e-01 9.739681e-01 6.543820e+00 1.352734e+00 -4.115137e-02 -1.024733e-01 4.565056e-02 -8.414391e-02 -1.586025e-01 -1.788470e-01 -9.178738e-02 -2.515584e-03 -8.736254e-02 -7.891881e-02 3.606558e-03 -5.912641e-02 1.882871e-03
<VARIANCE> 25
 9.098049e+00 1.064302e+01 1.630045e+01 1.958170e+01 2.313016e+01 2.380568e+01 2.451399e+01 2.570108e+01 2.619324e+01 2.725603e+01 2.015626e+01 2.139021e+01 1.597846e-01 2.997759e-01 4.486994e-01 6.455621e-01 8.256007e-01 1.001716e+00 1.085061e+00 1.267920e+00 1.255684e+00 1.267673e+00 1.318507e+00 1.082258e+00 2.449089e-04
<GCONST> 7.003694e+01
<MIXTURE> 120 4.297961e-03
<MEAN> 25
 -4.811677e+00 -7.445085e+00 2.298614e+00 2.027368e+00 2.092029e+00 3.867783e-01 5.319180e+00 5.958625e+00 9.222251e-01 9.739681e-01 6.543820e+00 1.352734e+00 -4.115137e-02 -1.024733e-01 4.565056e-02 -8.414391e-02 -1.586025e-01 -1.788470e-01 -9.178738e-02 -2.515584e-03 -8.736254e-02 -7.891881e-02 3.606558e-03 -5.912641e-02 1.882871e-03
<VARIANCE> 25
 9.098049e+00 1.064302e+01 1.630045e+01 1.958170e+01 2.313016e+01 2.380568e+01 2.451399e+01 2.570108e+01 2.619324e+01 2.725603e+01 2.015626e+01 2.139021e+01 1.597846e-01 2.997759e-01 4.486994e-01 6.455621e-01 8.256007e-01 1.001716e+00 1.085061e+00 1.267920e+00 1.255684e+00 1.267673e+00 1.318507e+00 1.082258e+00 2.449089e-04
<GCONST> 7.003694e+01
<MIXTURE> 121 4.567511e-03
<MEAN> 25
 2.112006e-01 -2.523807e+00 5.151557e+00 -1.288670e+01 -1.264478e+01 -1.661358e+00 9.980178e-01 -5.104618e+00 -4.196434e+00 -4.877440e-01 -5.505916e+00 -4.309652e+00 2.408192e-02 1.328622e-01 -4.185874e-02 7.935566e-02 1.588771e-01 7.864478e-02 -7.976782e-02 -1.837265e-01 -2.681692e-01 -2.570013e-01 -1.150247e-01 9.279619e-04 -7.441550e-03
<VARIANCE> 25
 7.745091e+00 1.559972e+01 1.726357e+01 2.059835e+01 2.439644e+01 2.923632e+01 2.951160e+01 2.459056e+01 3.528905e+01 2.832771e+01 1.976957e+01 2.118064e+01 1.549321e-01 6.435483e-01 6.226502e-01 7.048720e-01 7.706835e-01 1.149557e+00 1.117296e+00 1.120633e+00 1.216819e+00 1.192584e+00 9.414280e-01 8.712991e-01 2.110260e-04
<GCONST> 7.140206e+01
<MIXTURE> 122 4.567511e-03
<MEAN> 25
 2.112006e-01 -2.523807e+00 5.151557e+00 -1.288670e+01 -1.264478e+01 -1.661358e+00 9.980178e-01 -5.104618e+00 -4.196434e+00 -4.877440e-01 -5.505916e+00 -4.309652e+00 2.408192e-02 1.328622e-01 -4.185874e-02 7.935566e-02 1.588771e-01 7.864478e-02 -7.976782e-02 -1.837265e-01 -2.681692e-01 -2.570013e-01 -1.150247e-01 9.279619e-04 -7.441550e-03
<VARIANCE> 25
 7.745091e+00 1.559972e+01 1.726357e+01 2.059835e+01 2.439644e+01 2.923632e+01 2.951160e+01 2.459056e+01 3.528905e+01 2.832771e+01 1.976957e+01 2.118064e+01 1.549321e-01 6.435483e-01 6.226502e-01 7.048720e-01 7.706835e-01 1.149557e+00 1.117296e+00 1.120633e+00 1.216819e+00 1.192584e+00 9.414280e-01 8.712991e-01 2.110260e-04
<GCONST> 7.140206e+01
<MIXTURE> 123 4.393044e-03
<MEAN> 25
 -4.166460e+00 1.523137e+00 4.593781e-01 5.698407e+00 5.183924e+00 3.451668e+00 3.565263e+00 2.834793e-01 -5.277012e-02 -1.997824e-01 -1.276588e-02 6.433903e-01 -4.104274e-01 -6.932565e-01 -7.588432e-01 -6.366290e-01 -2.474752e-01 7.454655e-02 3.195578e-01 6.554744e-01 7.017196e-01 7.199868e-01 7.402711e-01 3.825978e-01 -1.229802e-03
<VARIANCE> 25
 1.001850e+01 1.306434e+01 1.456689e+01 1.659270e+01 2.146185e+01 2.509614e+01 2.066706e+01 2.069528e+01 2.000997e+01 1.697910e+01 2.009407e+01 2.150876e+01 3.567409e-01 3.732753e-01 5.344937e-01 6.743998e-01 8.742214e-01 1.093919e+00 1.137638e+00 1.049464e+00 1.135232e+00 1.143983e+00 1.281628e+00 1.253816e+00 1.168457e-04
<GCONST> 6.933054e+01
<MIXTURE> 124 4.069876e-03
<MEAN> 25
 -6.496750e+00 -7.797350e-01 -2.660831e+00 4.999306e+00 5.135224e+00 3.320323e+00 5.393143e+00 2.405899e+00 3.034912e+00 1.194323e+00 9.457935e-01 2.802365e+00 -1.934190e-01 -3.077667e-01 -3.565673e-01 -2.198401e-01 1.228297e-01 5.055760e-01 8.146076e-01 8.398781e-01 6.180595e-01 2.949876e-01 5.578040e-02 -4.930151e-02 5.780766e-06
<VARIANCE> 25
 1.049610e+01 9.810655e+00 1.172587e+01 1.204997e+01 1.193454e+01 1.891140e+01 1.487252e+01 1.768866e+01 1.544023e+01 1.579532e+01 1.882468e+01 1.518806e+01 1.029706e-01 1.662585e-01 2.571941e-01 3.991241e-01 5.629063e-01 6.933038e-01 7.480622e-01 7.906403e-01 9.051543e-01 9.639901e-01 9.955405e-01 1.047613e+00 1.892016e-05
<GCONST> 5.889669e+01
<MIXTURE> 125 4.069876e-03
<MEAN> 25
 -6.496750e+00 -7.797350e-01 -2.660831e+00 4.999306e+00 5.135224e+00 3.320323e+00 5.393143e+00 2.405899e+00 3.034912e+00 1.194323e+00 9.457935e-01 2.802365e+00 -1.934190e-01 -3.077667e-01 -3.565673e-01 -2.198401e-01 1.228297e-01 5.055760e-01 8.146076e-01 8.398781e-01 6.180595e-01 2.949876e-01 5.578040e-02 -4.930151e-02 5.780766e-06
<VARIANCE> 25
 1.049610e+01 9.810655e+00 1.172587e+01 1.204997e+01 1.193454e+01 1.891140e+01 1.487252e+01 1.768866e+01 1.544023e+01 1.579532e+01 1.882468e+01 1.518806e+01 1.029706e-01 1.662585e-01 2.571941e-01 3.991241e-01 5.629063e-01 6.933038e-01 7.480622e-01 7.906403e-01 9.051543e-01 9.639901e-01 9.955405e-01 1.047613e+00 1.892016e-05
<GCONST> 5.889669e+01
<MIXTURE> 126 2.402244e-03
<MEAN> 25
 -3.811996e+00 -6.921073e+00 -5.255860e+00 2.370245e+00 4.295969e+00 -3.271251e+00 6.612647e-02 3.537638e+00 3.371894e+00 -2.666567e+00 -1.464383e+00 2.992198e+00 3.474602e-03 -1.264172e-03 -3.046577e-02 -1.407176e-01 -3.068585e-01 -3.927854e-01 -2.866032e-01 -1.664976e-01 -1.085090e-01 -1.082675e-01 -1.014267e-01 -2.196476e-02 -1.140177e-03
<VARIANCE> 25
 7.410089e+00 1.270076e+01 1.380031e+01 1.520236e+01 2.450639e+01 2.351388e+01 2.251451e+01 2.813296e+01 3.106556e+01 2.610233e+01 2.167053e+01 1.935937e+01 1.733560e-01 3.526005e-01 4.817791e-01 5.922239e-01 7.631360e-01 9.942830e-01 1.127141e+00 1.254845e+00 1.317938e+00 1.304267e+00 1.206779e+00 1.148596e+00 2.231252e-04
<GCONST> 6.986456e+01
<MIXTURE> 127 2.402244e-03
<MEAN> 25
 -3.811996e+00 -6.921073e+00 -5.255860e+00 2.370245e+00 4.295969e+00 -3.271251e+00 6.612647e-02 3.537638e+00 3.371894e+00 -2.666567e+00 -1.464383e+00 2.992198e+00 3.474602e-03 -1.264172e-03 -3.046577e-02 -1.407176e-01 -3.068585e-01 -3.927854e-01 -2.866032e-01 -1.664976e-01 -1.085090e-01 -1.082675e-01 -1.014267e-01 -2.196476e-02 -1.140177e-03
<VARIANCE> 25
 7.410089e+00 1.270076e+01 1.380031e+01 1.520236e+01 2.450639e+01 2.351388e+01 2.251451e+01 2.813296e+01 3.106556e+01 2.610233e+01 2.167053e+01 1.935937e+01 1.733560e-01 3.526005e-01 4.817791e-01 5.922239e-01 7.631360e-01 9.942830e-01 1.127141e+00 1.254845e+00 1.317938e+00 1.304267e+00 1.206779e+00 1.148596e+00 2.231252e-04
<GCONST> 6.986456e+01
<MIXTURE> 128 3.790457e-03
<MEAN> 25
 -3.944238e+00 1.638027e+00 -3.327220e-01 6.499622e+00 3.627343e+00 1.856138e+00 3.639145e+00 2.315629e+00 3.911912e+00 3.695837e+00 3.698901e+00 3.537295e+00 -3.930868e-01 -1.934159e-01 1.024022e-01 7.238130e-01 1.187210e+00 1.135936e+00 7.040327e-01 1.007414e-01 -4.571522e-01 -7.752821e-01 -6.851184e-01 -3.726788e-01 -1.037057e-05
<VARIANCE> 25
 1.010357e+01 1.231982e+01 1.481759e+01 1.955235e+01 1.982872e+01 2.094649e+01 2.440898e+01 2.464143e+01 2.635903e+01 2.360911e+01 2.692335e+01 1.802221e+01 8.827341e-01 1.134128e+00 1.351497e+00 1.487220e+00 1.565567e+00 1.841967e+00 2.238562e+00 2.383975e+00 2.159376e+00 1.849261e+00 1.749098e+00 1.771724e+00 1.077744e-06
<GCONST> 7.369441e+01
<TRANSP> 3
 0.000000e+00 1.000000e+00 0.000000e+00
 0.000000e+00 9.999990e-01 9.999998e-07
 0.000000e+00 0.000000e+00 0.000000e+00
<ENDHMM>
