~o
<STREAMINFO> 1 25
<VECSIZE> 25<NULLD><MFCC_E_D_N><DIAGC>
~h "jmodel"
<BEGINHMM>
<NUMSTATES> 3
<STATE> 2
<NUMMIXES> 128
<MIXTURE> 1 5.748963e-03
<MEAN> 25
 -2.479492e+00 3.302174e+00 2.116009e+00 8.605803e+00 4.320655e+00 3.451581e+00 3.966340e+00 3.662827e+00 5.897852e+00 5.205599e+00 5.771047e+00 3.131109e+00 -1.982418e+00 -1.710685e+00 -8.641090e-01 1.094345e+00 1.543007e+00 2.124512e+00 2.192679e+00 2.106636e+00 1.648531e+00 1.342589e+00 1.553285e+00 6.166110e-01 -4.426832e-02
<VARIANCE> 25
 1.014621e+01 1.191330e+01 1.578743e+01 1.896129e+01 2.266270e+01 2.152129e+01 2.165788e+01 2.380372e+01 2.077365e+01 2.204087e+01 2.076700e+01 1.669545e+01 1.756355e+00 2.277694e+00 2.954600e+00 3.132793e+00 3.647656e+00 3.643224e+00 3.285427e+00 3.301359e+00 3.491068e+00 3.830918e+00 3.421042e+00 2.760494e+00 3.265721e-03
<GCONST> 8.855022e+01
<MIXTURE> 2 4.549242e-03
<MEAN> 25
 -4.875607e+00 1.311794e+00 9.942357e-01 9.899732e+00 6.692342e+00 7.424665e+00 7.847031e+00 6.957942e+00 8.373190e+00 6.372948e+00 7.624326e+00 3.074704e+00 -6.200482e-02 4.161602e-02 1.425270e-01 2.258429e-01 2.652715e-01 2.813682e-01 2.954259e-01 3.195483e-01 3.497623e-01 3.088959e-01 1.971502e-01 8.004841e-02 1.196230e-06
<VARIANCE> 25
 6.952513e+00 8.902186e+00 1.065212e+01 1.591120e+01 1.723592e+01 1.556289e+01 1.689899e+01 1.848704e+01 1.658693e+01 1.738634e+01 1.811049e+01 1.433983e+01 1.252491e-01 2.266256e-01 3.364675e-01 4.671389e-01 6.492953e-01 8.148772e-01 9.298677e-01 1.003166e+00 1.051650e+00 1.077790e+00 1.075696e+00 1.013942e+00 1.000064e-06
<GCONST> 5.804335e+01
<MIXTURE> 3 4.549242e-03
<MEAN> 25
 -4.875607e+00 1.311794e+00 9.942357e-01 9.899732e+00 6.692342e+00 7.424665e+00 7.847031e+00 6.957942e+00 8.373190e+00 6.372948e+00 7.624326e+00 3.074704e+00 -6.200482e-02 4.161602e-02 1.425270e-01 2.258429e-01 2.652715e-01 2.813682e-01 2.954259e-01 3.195483e-01 3.497623e-01 3.088959e-01 1.971502e-01 8.004841e-02 1.196230e-06
<VARIANCE> 25
 6.952513e+00 8.902186e+00 1.065212e+01 1.591120e+01 1.723592e+01 1.556289e+01 1.689899e+01 1.848704e+01 1.658693e+01 1.738634e+01 1.811049e+01 1.433983e+01 1.252491e-01 2.266256e-01 3.364675e-01 4.671389e-01 6.492953e-01 8.148772e-01 9.298677e-01 1.003166e+00 1.051650e+00 1.077790e+00 1.075696e+00 1.013942e+00 1.000064e-06
<GCONST> 5.804335e+01
<MIXTURE> 4 1.671429e-02
<MEAN> 25
 3.180034e+00 2.243008e+00 -3.604666e+00 2.307979e-01 4.131678e+00 -4.708008e-01 5.641444e-01 4.195063e-01 2.215358e+00 3.946982e-01 -3.080615e+00 -2.291304e-01 -2.899507e+00 1.708178e+00 1.420023e+00 2.798109e+00 1.293406e+00 1.196718e-01 1.635975e+00 6.340005e-01 1.066962e+00 4.353107e-01 1.143493e+00 1.136870e+00 -9.530953e-02
<VARIANCE> 25
 1.875332e+01 3.419104e+01 2.460235e+01 3.405296e+01 4.057448e+01 5.931344e+01 5.660992e+01 5.527351e+01 4.673955e+01 5.209448e+01 4.785321e+01 2.898605e+01 2.166356e+00 7.506036e+00 3.330324e+00 4.426539e+00 5.410200e+00 5.559354e+00 5.044981e+00 5.252091e+00 4.883828e+00 5.179689e+00 5.319248e+00 3.796315e+00 5.099446e-03
<GCONST> 1.031257e+02
<MIXTURE> 5 3.206198e-03
<MEAN> 25
 -3.408720e+00 2.199674e+00 5.893766e-01 9.423680e+00 6.712691e+00 6.324084e+00 7.107979e+00 4.700083e+00 5.485932e+00 3.833822e+00 4.637983e+00 2.607128e+00 -3.237537e-01 7.504314e-01 1.223650e+00 1.029546e+00 3.061173e-01 -1.013046e-01 -8.830185e-02 2.658785e-02 4.545082e-01 6.829489e-01 4.016317e-01 8.881508e-02 -2.535709e-05
<VARIANCE> 25
 1.024934e+01 1.403070e+01 2.358767e+01 2.555945e+01 2.025734e+01 1.939983e+01 2.007501e+01 2.051995e+01 2.141035e+01 2.130621e+01 2.420332e+01 1.631706e+01 1.207148e+00 1.243328e+00 1.354536e+00 1.672688e+00 2.280005e+00 2.371322e+00 2.305245e+00 2.292663e+00 2.314342e+00 2.235788e+00 2.082041e+00 1.870044e+00 1.009399e-06
<GCONST> 7.518671e+01
<MIXTURE> 6 5.475854e-03
<MEAN> 25
 9.698626e+00 -6.774210e-01 -6.274494e+00 -1.150224e+01 -2.096878e+00 6.738274e+00 -6.514518e+00 -5.298628e+00 -3.900359e+00 1.948947e+00 4.340302e+00 -1.678497e+00 4.849279e-01 9.395806e-01 -3.791379e-01 -1.404501e+00 -6.064293e-01 1.192895e+00 1.527950e+00 2.865793e-01 -1.168014e+00 -1.185858e+00 2.833162e-01 1.234531e+00 -8.319500e-03
<VARIANCE> 25
 8.475299e+00 1.710295e+01 2.519786e+01 3.995009e+01 3.463925e+01 2.885393e+01 4.716682e+01 3.586537e+01 3.938189e+01 3.739251e+01 4.103648e+01 2.952302e+01 2.966675e-01 8.481774e-01 9.046490e-01 2.047873e+00 1.529249e+00 2.137106e+00 1.926222e+00 1.957510e+00 2.300978e+00 1.936588e+00 2.144375e+00 1.386907e+00 5.990368e-04
<GCONST> 8.348508e+01
<MIXTURE> 7 5.475854e-03
<MEAN> 25
 9.698626e+00 -6.774210e-01 -6.274494e+00 -1.150224e+01 -2.096878e+00 6.738274e+00 -6.514518e+00 -5.298628e+00 -3.900359e+00 1.948947e+00 4.340302e+00 -1.678497e+00 4.849279e-01 9.395806e-01 -3.791379e-01 -1.404501e+00 -6.064293e-01 1.192895e+00 1.527950e+00 2.865793e-01 -1.168014e+00 -1.185858e+00 2.833162e-01 1.234531e+00 -8.319500e-03
<VARIANCE> 25
 8.475299e+00 1.710295e+01 2.519786e+01 3.995009e+01 3.463925e+01 2.885393e+01 4.716682e+01 3.586537e+01 3.938189e+01 3.739251e+01 4.103648e+01 2.952302e+01 2.966675e-01 8.481774e-01 9.046490e-01 2.047873e+00 1.529249e+00 2.137106e+00 1.926222e+00 1.957510e+00 2.300978e+00 1.936588e+00 2.144375e+00 1.386907e+00 5.990368e-04
<GCONST> 8.348508e+01
<MIXTURE> 8 1.165917e-02
<MEAN> 25
 -4.672840e+00 1.370940e+00 1.240507e+00 9.464108e+00 6.490742e+00 6.085153e+00 6.465724e+00 5.568737e+00 6.609414e+00 5.503573e+00 6.402414e+00 3.200303e+00 -6.217354e-01 -1.447592e+00 -1.042571e+00 -1.675637e+00 -2.298046e-01 -9.649855e-01 -1.557916e-01 -2.419709e-01 -2.747684e-01 -1.556336e-01 -1.956038e-01 6.914835e-02 9.853515e-02
<VARIANCE> 25
 9.299716e+00 9.678940e+00 1.152136e+01 1.608242e+01 1.687590e+01 1.665095e+01 1.779744e+01 1.784225e+01 1.681117e+01 1.769604e+01 1.966224e+01 1.387265e+01 2.723245e+00 2.826553e+00 3.864390e+00 3.811750e+00 3.394032e+00 3.263761e+00 3.086013e+00 3.107012e+00 2.849154e+00 2.629661e+00 2.398771e+00 1.872389e+00 6.547004e-03
<GCONST> 8.625527e+01
<MIXTURE> 9 1.199672e-02
<MEAN> 25
 8.783632e+00 3.130704e+00 -7.228312e+00 -1.151001e+01 -3.266069e+00 4.933575e+00 -2.342624e+00 -2.079940e+00 -4.903781e+00 6.899637e-01 1.964784e+00 1.521813e-01 1.554710e+00 -5.820084e-01 -1.969816e-01 -2.716157e+00 -1.946219e+00 6.312899e-01 -1.213320e+00 -7.093254e-02 -3.977661e-01 -1.429932e-01 5.482275e-01 3.773833e-02 8.611951e-02
<VARIANCE> 25
 1.094548e+01 1.903451e+01 4.821104e+01 4.682561e+01 4.849716e+01 2.475086e+01 3.937633e+01 5.860669e+01 3.107198e+01 3.696966e+01 3.124611e+01 2.126385e+01 2.080399e+00 2.361032e+00 7.287891e+00 4.954719e+00 4.000729e+00 3.322022e+00 5.798343e+00 6.501495e+00 3.773333e+00 4.452313e+00 4.423817e+00 2.953336e+00 2.471022e-03
<GCONST> 9.817088e+01
<MIXTURE> 10 6.596976e-03
<MEAN> 25
 8.167702e-01 7.628381e+00 5.374326e+00 7.146235e+00 1.584722e+00 -2.104091e+00 -5.212244e-01 -1.703195e+00 8.721741e-01 8.505929e-01 8.423001e-01 6.622318e-01 -1.922405e+00 -6.720365e-01 -4.623139e-01 3.024787e+00 2.462837e+00 2.706994e+00 2.373822e+00 2.273890e+00 1.860636e+00 1.544088e+00 2.330368e+00 5.246790e-01 -1.380059e-01
<VARIANCE> 25
 1.952734e+01 2.067916e+01 2.231112e+01 2.904135e+01 3.826438e+01 3.496835e+01 3.510579e+01 3.398869e+01 2.758166e+01 2.905832e+01 2.692455e+01 2.499734e+01 2.235765e+00 3.423587e+00 5.536180e+00 5.169907e+00 5.545925e+00 4.472089e+00 4.692716e+00 4.847487e+00 4.382576e+00 5.013885e+00 4.453698e+00 3.187229e+00 2.704076e-03
<GCONST> 9.745787e+01
<MIXTURE> 11 1.633820e-02
<MEAN> 25
 7.732670e+00 4.580129e+00 3.666820e+00 4.612422e+00 -2.755246e+00 -7.455005e-01 -2.702839e+00 -7.295396e+00 -3.558013e+00 -1.192852e-01 -2.255519e+00 -1.725288e+00 -2.716236e-01 4.279881e-01 -1.626451e-02 3.580708e-01 5.143284e-01 -2.943937e-01 2.682030e-01 -2.603434e-01 -2.166738e-01 -1.178078e-01 -1.478960e-01 1.917182e-01 -1.906910e-02
<VARIANCE> 25
 1.147749e+01 2.248777e+01 1.986021e+01 3.371432e+01 3.806291e+01 4.934750e+01 4.625767e+01 4.423703e+01 4.189672e+01 3.285469e+01 3.278127e+01 2.888704e+01 8.727477e-01 1.434029e+00 1.828235e+00 2.233844e+00 1.932667e+00 2.613714e+00 2.016687e+00 2.831527e+00 2.090705e+00 1.952547e+00 1.704889e+00 1.527717e+00 9.506530e-04
<GCONST> 8.764835e+01
<MIXTURE> 12 5.904134e-03
<MEAN> 25
 1.076361e+01 3.735794e+00 -4.496370e+00 -1.599557e+01 -8.688257e+00 8.641829e+00 -9.131367e-01 -1.925545e+00 -1.728289e+00 -4.876873e+00 1.773066e+00 7.077079e-01 6.805436e-02 2.947665e-01 7.911026e-02 -3.684566e-01 -3.101681e-01 2.914263e-02 3.056674e-01 4.477310e-01 1.407041e-01 -3.846987e-01 -3.855319e-01 5.471022e-02 -6.304103e-03
<VARIANCE> 25
 8.877798e+00 2.105697e+01 2.336588e+01 3.500475e+01 4.207316e+01 3.092854e+01 4.198956e+01 4.893881e+01 4.405819e+01 3.743365e+01 3.795958e+01 2.897900e+01 2.470230e-01 6.894623e-01 6.871804e-01 1.172099e+00 1.185297e+00 1.054684e+00 1.173007e+00 1.385554e+00 1.239956e+00 1.222676e+00 1.220569e+00 9.570639e-01 5.796253e-04
<GCONST> 7.893558e+01
<MIXTURE> 13 5.904134e-03
<MEAN> 25
 1.076361e+01 3.735794e+00 -4.496370e+00 -1.599557e+01 -8.688257e+00 8.641829e+00 -9.131367e-01 -1.925545e+00 -1.728289e+00 -4.876873e+00 1.773066e+00 7.077079e-01 6.805436e-02 2.947665e-01 7.911026e-02 -3.684566e-01 -3.101681e-01 2.914263e-02 3.056674e-01 4.477310e-01 1.407041e-01 -3.846987e-01 -3.855319e-01 5.471022e-02 -6.304103e-03
<VARIANCE> 25
 8.877798e+00 2.105697e+01 2.336588e+01 3.500475e+01 4.207316e+01 3.092854e+01 4.198956e+01 4.893881e+01 4.405819e+01 3.743365e+01 3.795958e+01 2.897900e+01 2.470230e-01 6.894623e-01 6.871804e-01 1.172099e+00 1.185297e+00 1.054684e+00 1.173007e+00 1.385554e+00 1.239956e+00 1.222676e+00 1.220569e+00 9.570639e-01 5.796253e-04
<GCONST> 7.893558e+01
<MIXTURE> 14 6.488954e-03
<MEAN> 25
 -4.214351e+00 -1.035950e-01 -5.086215e-01 8.876810e+00 7.605714e+00 7.330166e+00 7.830146e+00 6.991883e+00 7.164207e+00 5.072271e+00 6.638318e+00 4.121728e+00 -2.685540e-01 1.770453e-01 3.639444e-01 3.142907e-01 1.259262e-02 4.483043e-02 1.192283e-01 2.090278e-01 2.714726e-01 5.135575e-01 4.998661e-01 6.723806e-02 -8.805735e-03
<VARIANCE> 25
 9.347942e+00 1.538872e+01 1.918411e+01 1.733658e+01 2.067983e+01 1.922838e+01 2.091628e+01 2.305859e+01 2.043500e+01 2.397263e+01 2.215060e+01 1.572935e+01 9.333413e-01 1.608672e+00 1.733914e+00 1.895019e+00 2.195834e+00 2.237331e+00 2.260407e+00 2.273448e+00 2.265387e+00 2.543813e+00 2.166005e+00 1.778542e+00 1.010822e-03
<GCONST> 8.196211e+01
<MIXTURE> 15 2.475190e-03
<MEAN> 25
 -5.420522e+00 -6.373010e-01 -2.049404e-01 7.368088e+00 5.723843e+00 5.701449e+00 6.061529e+00 4.971740e+00 5.167624e+00 4.152549e+00 5.498527e+00 2.541967e+00 -1.211218e-01 -2.919219e-02 7.497643e-02 2.432691e-01 4.884862e-01 7.855570e-01 1.071916e+00 1.181317e+00 1.059479e+00 7.558345e-01 4.185067e-01 1.529028e-01 -8.333634e-05
<VARIANCE> 25
 6.990518e+00 5.663984e+00 9.046403e+00 1.280096e+01 1.408506e+01 1.431361e+01 1.491461e+01 1.494881e+01 1.409885e+01 1.418060e+01 1.510286e+01 1.250359e+01 1.246801e-01 2.060666e-01 3.194757e-01 5.030776e-01 7.000786e-01 7.941389e-01 7.632558e-01 7.916006e-01 9.091473e-01 1.023698e+00 1.072262e+00 1.040581e+00 2.803183e-05
<GCONST> 5.860466e+01
<MIXTURE> 16 2.475190e-03
<MEAN> 25
 -5.420522e+00 -6.373010e-01 -2.049404e-01 7.368088e+00 5.723843e+00 5.701449e+00 6.061529e+00 4.971740e+00 5.167624e+00 4.152549e+00 5.498527e+00 2.541967e+00 -1.211218e-01 -2.919219e-02 7.497643e-02 2.432691e-01 4.884862e-01 7.855570e-01 1.071916e+00 1.181317e+00 1.059479e+00 7.558345e-01 4.185067e-01 1.529028e-01 -8.333634e-05
<VARIANCE> 25
 6.990518e+00 5.663984e+00 9.046403e+00 1.280096e+01 1.408506e+01 1.431361e+01 1.491461e+01 1.494881e+01 1.409885e+01 1.418060e+01 1.510286e+01 1.250359e+01 1.246801e-01 2.060666e-01 3.194757e-01 5.030776e-01 7.000786e-01 7.941389e-01 7.632558e-01 7.916006e-01 9.091473e-01 1.023698e+00 1.072262e+00 1.040581e+00 2.803183e-05
<GCONST> 5.860466e+01
<MIXTURE> 17 9.518312e-03
<MEAN> 25
 4.176449e+00 -1.710982e+00 5.447979e+00 2.455190e+00 -6.891000e+00 -6.734841e+00 -3.553378e+00 -5.905251e-01 -2.569365e+00 -3.125954e+00 -2.532434e-02 -5.173915e-01 -7.631414e-01 -1.272777e+00 1.514661e+00 -2.366286e+00 -2.564322e+00 5.100615e-03 -1.326035e-01 6.109535e-01 -5.344079e-01 2.215472e-01 1.313979e+00 1.049382e-01 8.102147e-02
<VARIANCE> 25
 1.621814e+01 3.621979e+01 3.601662e+01 3.830075e+01 5.112895e+01 4.530707e+01 4.068178e+01 3.454159e+01 3.329239e+01 2.581849e+01 2.762362e+01 2.791210e+01 1.726820e+00 2.464134e+00 4.055325e+00 3.293924e+00 4.085833e+00 5.135912e+00 5.562480e+00 4.489446e+00 4.231362e+00 5.043411e+00 3.594227e+00 3.195905e+00 1.934058e-03
<GCONST> 9.750748e+01
<MIXTURE> 18 1.221018e-02
<MEAN> 25
 3.436594e+00 4.263992e+00 7.880911e+00 4.632367e+00 -5.313155e+00 -7.381679e+00 -2.480190e+00 -1.966006e+00 -3.735723e+00 -3.230158e+00 2.947589e-01 1.407149e+00 -7.909446e-01 2.294261e+00 -6.591767e-01 1.943715e+00 3.070346e+00 1.479560e+00 8.811719e-01 -4.436742e-01 7.651218e-01 4.084651e-01 -3.890814e-01 -2.760105e-02 -1.243399e-01
<VARIANCE> 25
 1.572828e+01 2.369939e+01 3.859774e+01 2.305808e+01 3.873791e+01 3.513226e+01 3.751781e+01 3.553259e+01 3.551319e+01 3.397490e+01 3.868833e+01 3.210269e+01 2.272061e+00 3.063942e+00 5.444593e+00 3.632608e+00 3.719933e+00 4.123958e+00 4.148872e+00 4.218174e+00 4.035036e+00 3.947195e+00 4.108481e+00 3.282577e+00 3.667384e-03
<GCONST> 9.756940e+01
<MIXTURE> 19 9.912824e-03
<MEAN> 25
 -9.666328e+00 1.779659e+00 -1.303472e+00 2.011095e-01 4.478598e+00 1.378648e+00 4.285424e+00 1.999925e+00 1.419680e+00 5.761029e-01 1.634292e+00 2.769395e+00 1.964718e+00 1.703508e+00 2.359146e+00 8.512655e-01 -1.009258e+00 -9.472657e-01 -1.282191e+00 -1.595923e+00 -1.514637e+00 -1.029747e+00 -8.732236e-01 -8.185360e-01 -1.634107e-03
<VARIANCE> 25
 5.262530e+01 2.760612e+01 7.041009e+01 5.632958e+01 3.117932e+01 2.930343e+01 3.133182e+01 3.025951e+01 2.706851e+01 2.700149e+01 2.774966e+01 2.053556e+01 2.402902e+00 1.934280e+00 2.148044e+00 2.110739e+00 2.581272e+00 2.179669e+00 2.505945e+00 2.254836e+00 1.996218e+00 1.903343e+00 2.046640e+00 2.123915e+00 2.163769e-03
<GCONST> 9.130090e+01
<MIXTURE> 20 6.308331e-03
<MEAN> 25
 -1.417487e+01 7.383202e+00 8.402889e-01 6.101403e+00 4.847279e+00 1.580617e+00 5.219788e+00 9.033448e-01 9.523816e-01 7.812113e-01 2.531272e+00 -2.988400e-01 -3.280612e+00 -8.698134e-01 -1.556296e+00 3.327543e-01 1.533717e+00 2.059196e+00 1.971111e+00 2.051511e+00 2.133978e+00 2.030193e+00 1.686012e+00 9.365320e-01 4.711091e-02
<VARIANCE> 25
 1.960682e+01 2.351366e+01 3.079225e+01 3.742737e+01 3.068667e+01 2.832450e+01 2.980948e+01 3.178493e+01 2.803986e+01 2.816173e+01 2.531437e+01 2.081476e+01 2.088136e+00 2.173337e+00 1.913250e+00 2.528857e+00 2.699493e+00 2.309026e+00 2.310677e+00 2.312697e+00 2.247627e+00 2.659884e+00 2.229368e+00 1.872629e+00 1.887234e-03
<GCONST> 8.922956e+01
<MIXTURE> 21 7.928653e-03
<MEAN> 25
 3.924980e+00 -5.462212e+00 7.544221e+00 -1.688627e+00 -1.170405e+01 -8.927111e+00 -4.420284e+00 5.230994e+00 -3.903452e+00 -3.584529e+00 2.844376e-01 -1.196529e+00 -6.735418e-01 1.130943e+00 2.510607e+00 -6.616628e-02 -1.302868e+00 2.178321e-01 7.437660e-01 -1.201982e+00 -2.013320e+00 1.133149e-02 1.228446e+00 3.963158e-01 -8.932319e-03
<VARIANCE> 25
 7.551633e+00 1.993308e+01 3.823057e+01 2.377306e+01 2.919606e+01 2.818896e+01 4.988734e+01 3.764422e+01 5.077547e+01 2.762267e+01 2.841591e+01 2.991678e+01 3.309011e-01 9.895303e-01 1.613272e+00 1.152961e+00 2.114113e+00 1.981227e+00 3.346570e+00 2.473288e+00 1.932414e+00 2.767511e+00 1.725214e+00 2.071840e+00 4.201743e-04
<GCONST> 8.424123e+01
<MIXTURE> 22 8.827789e-03
<MEAN> 25
 -1.769947e+01 6.561969e+00 -3.824314e+00 6.881116e+00 4.695196e+00 2.279370e+00 8.561687e+00 1.917839e+00 5.149605e+00 3.543873e+00 5.584174e+00 9.413667e-01 -3.636934e-01 -2.397756e-01 -1.469692e-01 -1.515859e-01 3.039501e-02 1.483617e-01 1.856809e-01 1.302163e-01 2.343359e-01 2.485527e-01 1.537475e-01 1.715270e-01 1.211176e-02
<VARIANCE> 25
 8.107289e+00 1.959756e+01 1.725577e+01 2.650670e+01 2.192310e+01 2.211666e+01 1.852961e+01 1.816099e+01 1.795808e+01 2.105165e+01 1.840992e+01 1.396091e+01 1.057205e+00 1.274075e+00 1.285073e+00 1.501553e+00 1.368154e+00 1.563183e+00 1.413569e+00 1.514675e+00 1.611751e+00 1.478264e+00 1.334737e+00 1.249185e+00 1.787820e-03
<GCONST> 7.815663e+01
<MIXTURE> 23 6.455497e-03
<MEAN> 25
 7.950660e+00 2.467213e+00 3.027714e+00 2.437223e+00 -4.863321e+00 -3.152417e+00 -4.263722e+00 -6.517329e+00 -3.445837e+00 -1.032923e+00 -4.127184e+00 -2.126260e+00 3.421237e-02 1.765728e-01 7.924363e-03 5.515097e-02 2.451010e-03 4.775009e-02 2.072253e-02 -4.675239e-02 9.236684e-03 4.825366e-02 3.284597e-03 4.021177e-02 -4.362560e-03
<VARIANCE> 25
 1.047943e+01 2.230755e+01 2.470756e+01 4.077184e+01 3.821731e+01 5.394371e+01 5.924125e+01 5.494989e+01 4.819658e+01 4.702976e+01 4.840474e+01 4.036828e+01 1.181334e-01 2.943799e-01 3.796013e-01 4.895900e-01 5.981627e-01 7.120443e-01 7.746702e-01 8.789096e-01 8.799459e-01 8.792785e-01 8.193550e-01 7.588360e-01 8.789050e-05
<GCONST> 7.298863e+01
<MIXTURE> 24 6.455497e-03
<MEAN> 25
 7.950660e+00 2.467213e+00 3.027714e+00 2.437223e+00 -4.863321e+00 -3.152417e+00 -4.263722e+00 -6.517329e+00 -3.445837e+00 -1.032923e+00 -4.127184e+00 -2.126260e+00 3.421237e-02 1.765728e-01 7.924363e-03 5.515097e-02 2.451010e-03 4.775009e-02 2.072253e-02 -4.675239e-02 9.236684e-03 4.825366e-02 3.284597e-03 4.021177e-02 -4.362560e-03
<VARIANCE> 25
 1.047943e+01 2.230755e+01 2.470756e+01 4.077184e+01 3.821731e+01 5.394371e+01 5.924125e+01 5.494989e+01 4.819658e+01 4.702976e+01 4.840474e+01 4.036828e+01 1.181334e-01 2.943799e-01 3.796013e-01 4.895900e-01 5.981627e-01 7.120443e-01 7.746702e-01 8.789096e-01 8.799459e-01 8.792785e-01 8.193550e-01 7.588360e-01 8.789050e-05
<GCONST> 7.298863e+01
<MIXTURE> 25 1.118642e-02
<MEAN> 25
 1.260207e+00 -7.394138e-01 1.998993e+01 -3.010194e-01 -1.085359e+01 -1.520725e+00 -5.284507e+00 -1.079829e+00 -8.384691e+00 -3.778521e+00 4.605316e+00 -1.221516e+00 -3.214923e-01 -2.056268e-01 2.886551e-01 1.271386e-01 9.119833e-02 2.976157e-01 7.698288e-02 -5.060353e-01 -4.102888e-01 -5.220729e-02 3.266539e-03 1.631581e-02 -6.764997e-03
<VARIANCE> 25
 7.886216e+00 3.553206e+01 2.478862e+01 1.954289e+01 2.159092e+01 2.774951e+01 1.775587e+01 2.470212e+01 2.113111e+01 2.569037e+01 1.459346e+01 1.953051e+01 5.560681e-01 1.767129e+00 1.563593e+00 1.260558e+00 1.644654e+00 1.876251e+00 1.578784e+00 1.189505e+00 1.586493e+00 1.152243e+00 1.173556e+00 1.041179e+00 1.295077e-03
<GCONST> 7.876645e+01
<MIXTURE> 26 7.727677e-03
<MEAN> 25
 2.122495e+00 -5.863710e+00 -1.070530e+01 -1.228694e+00 7.725491e+00 5.305016e+00 4.169998e+00 1.174836e-01 2.287620e+00 -9.237810e-01 -2.283188e+00 -2.213569e-01 -6.919020e-01 6.196055e-01 3.845133e-01 7.360913e-01 2.722207e-01 2.881896e-01 2.705012e-01 2.625711e-01 2.614656e-01 -4.626633e-02 3.120209e-01 3.930316e-01 -5.062925e-02
<VARIANCE> 25
 2.346072e+01 3.676075e+01 2.752621e+01 6.876111e+01 3.762514e+01 4.238105e+01 4.398639e+01 4.572614e+01 3.663488e+01 5.036723e+01 4.203994e+01 5.098201e+01 1.759788e+00 1.835182e+00 1.833237e+00 1.959733e+00 2.401573e+00 2.260177e+00 2.408497e+00 2.679497e+00 2.250290e+00 2.516209e+00 2.168258e+00 1.903412e+00 3.283269e-03
<GCONST> 9.386372e+01
<MIXTURE> 27 7.727677e-03
<MEAN> 25
 2.122495e+00 -5.863710e+00 -1.070530e+01 -1.228694e+00 7.725491e+00 5.305016e+00 4.169998e+00 1.174836e-01 2.287620e+00 -9.237810e-01 -2.283188e+00 -2.213569e-01 -6.919020e-01 6.196055e-01 3.845133e-01 7.360913e-01 2.722207e-01 2.881896e-01 2.705012e-01 2.625711e-01 2.614656e-01 -4.626633e-02 3.120209e-01 3.930316e-01 -5.062925e-02
<VARIANCE> 25
 2.346072e+01 3.676075e+01 2.752621e+01 6.876111e+01 3.762514e+01 4.238105e+01 4.398639e+01 4.572614e+01 3.663488e+01 5.036723e+01 4.203994e+01 5.098201e+01 1.759788e+00 1.835182e+00 1.833237e+00 1.959733e+00 2.401573e+00 2.260177e+00 2.408497e+00 2.679497e+00 2.250290e+00 2.516209e+00 2.168258e+00 1.903412e+00 3.283269e-03
<GCONST> 9.386372e+01
<MIXTURE> 28 5.036674e-03
<MEAN> 25
 -5.451385e+00 1.214662e-02 -1.569624e+00 6.616254e+00 5.232790e+00 3.518402e+00 5.416345e+00 3.129719e+00 3.922796e+00 2.394011e+00 2.638081e+00 3.220415e+00 -1.152356e-01 2.231999e-01 5.287505e-01 7.848317e-01 8.221014e-01 7.029104e-01 5.231243e-01 3.919116e-01 4.448244e-01 4.824019e-01 3.709725e-01 1.896109e-01 -1.244124e-05
<VARIANCE> 25
 1.043455e+01 8.355419e+00 1.216128e+01 1.484305e+01 1.471241e+01 1.773265e+01 1.803971e+01 1.901873e+01 1.718402e+01 1.673148e+01 2.060968e+01 1.500298e+01 2.565261e-01 3.365448e-01 4.068427e-01 4.642165e-01 6.216928e-01 8.470604e-01 1.056583e+00 1.145053e+00 1.102577e+00 1.029902e+00 1.036777e+00 1.066799e+00 1.000191e-06
<GCONST> 6.025361e+01
<MIXTURE> 29 5.036674e-03
<MEAN> 25
 -5.451385e+00 1.214662e-02 -1.569624e+00 6.616254e+00 5.232790e+00 3.518402e+00 5.416345e+00 3.129719e+00 3.922796e+00 2.394011e+00 2.638081e+00 3.220415e+00 -1.152356e-01 2.231999e-01 5.287505e-01 7.848317e-01 8.221014e-01 7.029104e-01 5.231243e-01 3.919116e-01 4.448244e-01 4.824019e-01 3.709725e-01 1.896109e-01 -1.244124e-05
<VARIANCE> 25
 1.043455e+01 8.355419e+00 1.216128e+01 1.484305e+01 1.471241e+01 1.773265e+01 1.803971e+01 1.901873e+01 1.718402e+01 1.673148e+01 2.060968e+01 1.500298e+01 2.565261e-01 3.365448e-01 4.068427e-01 4.642165e-01 6.216928e-01 8.470604e-01 1.056583e+00 1.145053e+00 1.102577e+00 1.029902e+00 1.036777e+00 1.066799e+00 1.000191e-06
<GCONST> 6.025361e+01
<MIXTURE> 30 8.917812e-03
<MEAN> 25
 -3.857612e+00 1.406930e+00 -5.621874e-01 8.672985e+00 8.430139e+00 7.925498e+00 7.923857e+00 5.171333e+00 6.748168e+00 3.983137e+00 5.833448e+00 3.839931e+00 -2.618069e-02 4.159171e-02 7.104553e-02 9.602642e-02 1.788527e-02 8.340132e-02 7.675784e-02 3.281694e-02 1.627579e-01 8.202862e-02 -1.945014e-02 -2.735984e-02 -6.011006e-04
<VARIANCE> 25
 7.002621e+00 1.706269e+01 1.402739e+01 1.183244e+01 1.534267e+01 1.762264e+01 1.726113e+01 2.571456e+01 1.500957e+01 2.022893e+01 2.242487e+01 1.264017e+01 9.020142e-02 1.818092e-01 2.750001e-01 4.537569e-01 6.083604e-01 6.457122e-01 7.818378e-01 7.371272e-01 9.659032e-01 8.238103e-01 1.018928e+00 7.602157e-01 5.725583e-05
<GCONST> 6.097108e+01
<MIXTURE> 31 4.136493e-03
<MEAN> 25
 -3.286552e+00 -5.540928e+00 5.435724e-02 4.917179e+00 3.685355e+00 1.717236e+00 5.248378e+00 6.474225e+00 2.704459e+00 1.180980e+00 6.482952e+00 3.177488e+00 2.527027e-01 4.793771e-01 -2.283875e-01 3.011771e-01 1.328954e-01 4.218648e-01 1.926342e-01 1.643245e-02 3.800788e-01 3.814107e-01 9.836020e-02 1.138851e-01 -1.845581e-02
<VARIANCE> 25
 7.091945e+00 1.676175e+01 1.733782e+01 1.791879e+01 2.509509e+01 2.369399e+01 2.363073e+01 2.748479e+01 2.585453e+01 2.795857e+01 2.026090e+01 1.871107e+01 1.890047e-01 4.910505e-01 6.304407e-01 7.655252e-01 9.695382e-01 1.080362e+00 1.224196e+00 1.412631e+00 1.337327e+00 1.305283e+00 1.241149e+00 1.125365e+00 2.576558e-04
<GCONST> 7.196455e+01
<MIXTURE> 32 4.136493e-03
<MEAN> 25
 -3.286552e+00 -5.540928e+00 5.435724e-02 4.917179e+00 3.685355e+00 1.717236e+00 5.248378e+00 6.474225e+00 2.704459e+00 1.180980e+00 6.482952e+00 3.177488e+00 2.527027e-01 4.793771e-01 -2.283875e-01 3.011771e-01 1.328954e-01 4.218648e-01 1.926342e-01 1.643245e-02 3.800788e-01 3.814107e-01 9.836020e-02 1.138851e-01 -1.845581e-02
<VARIANCE> 25
 7.091945e+00 1.676175e+01 1.733782e+01 1.791879e+01 2.509509e+01 2.369399e+01 2.363073e+01 2.748479e+01 2.585453e+01 2.795857e+01 2.026090e+01 1.871107e+01 1.890047e-01 4.910505e-01 6.304407e-01 7.655252e-01 9.695382e-01 1.080362e+00 1.224196e+00 1.412631e+00 1.337327e+00 1.305283e+00 1.241149e+00 1.125365e+00 2.576558e-04
<GCONST> 7.196455e+01
<MIXTURE> 33 1.508826e-02
<MEAN> 25
 6.688976e+00 -4.717112e+00 -2.022662e+00 -3.212795e+00 -3.181152e+00 -5.223088e+00 -7.497056e+00 1.220472e+00 1.591253e+00 -2.124536e-01 -4.494973e+00 -3.559383e+00 6.483462e-01 -1.246353e+00 -2.203043e+00 -1.981320e+00 1.233337e+00 1.303888e+00 -7.134711e-01 8.426897e-01 9.907818e-01 6.354033e-01 -3.846476e-01 -1.421162e+00 3.957683e-02
<VARIANCE> 25
 9.224426e+00 2.594715e+01 2.755292e+01 3.717095e+01 5.295191e+01 4.478362e+01 4.094490e+01 4.882285e+01 4.071095e+01 4.264716e+01 3.236295e+01 3.042963e+01 1.118219e+00 1.987292e+00 2.527126e+00 2.520640e+00 4.250937e+00 3.384137e+00 4.354824e+00 5.515381e+00 3.691353e+00 4.074385e+00 3.330685e+00 2.506982e+00 1.466450e-03
<GCONST> 9.488326e+01
<MIXTURE> 34 1.588179e-02
<MEAN> 25
 9.062598e+00 5.060930e-02 3.102833e-01 -7.417297e-01 -3.130135e+00 1.201481e+00 -7.177877e+00 -4.921946e+00 -1.171083e+00 1.130346e-01 -3.171948e+00 -3.747001e+00 -1.383704e-01 1.333929e+00 1.045440e+00 2.638418e+00 6.714425e-01 -2.201098e-01 1.050452e+00 -1.301759e+00 -2.462712e-01 -4.221744e-01 -8.134122e-01 2.206735e-01 -6.035447e-02
<VARIANCE> 25
 6.823195e+00 3.302585e+01 3.776917e+01 5.632795e+01 3.530142e+01 7.923174e+01 4.592641e+01 4.452151e+01 5.268186e+01 3.415524e+01 4.550535e+01 2.410606e+01 9.699112e-01 1.681567e+00 3.749360e+00 3.068609e+00 5.361814e+00 5.192528e+00 4.211476e+00 7.460202e+00 5.248437e+00 4.519426e+00 4.414974e+00 3.183642e+00 8.823637e-04
<GCONST> 9.756438e+01
<MIXTURE> 35 1.467755e-02
<MEAN> 25
 -2.267166e+00 -5.287073e+00 -9.645111e+00 7.030847e-01 8.435746e+00 9.418599e-03 2.015298e+00 3.094541e+00 1.691337e+00 4.641880e+00 1.261152e-01 1.858231e+00 4.766316e-01 -1.255221e+00 -1.422316e+00 -1.272582e+00 6.144766e-03 -8.818133e-01 -5.442840e-01 3.664310e-02 -1.579250e-01 2.546197e-01 -6.463889e-01 -6.264004e-01 1.090123e-01
<VARIANCE> 25
 1.804929e+01 3.392291e+01 4.095441e+01 6.159826e+01 5.215818e+01 6.064740e+01 4.608151e+01 4.468021e+01 4.475875e+01 3.762174e+01 3.360320e+01 2.757779e+01 3.297807e+00 3.420498e+00 6.066846e+00 5.995074e+00 5.696202e+00 5.180792e+00 4.565205e+00 4.708572e+00 4.602244e+00 4.119243e+00 4.148973e+00 3.658782e+00 4.846321e-03
<GCONST> 1.029491e+02
<MIXTURE> 36 1.093293e-02
<MEAN> 25
 4.974443e+00 -3.743022e+00 7.384864e+00 2.474869e+00 -1.042557e+01 -9.006388e+00 -6.321349e+00 3.319586e+00 -2.243575e+00 -4.553248e+00 2.757606e+00 -4.458244e-01 3.494298e-01 1.407569e-01 -8.809307e-01 -2.378848e-02 8.367629e-01 5.072306e-02 -3.824565e-01 2.674460e-02 4.157470e-01 6.000959e-01 -4.105968e-01 -3.229549e-01 -1.496565e-02
<VARIANCE> 25
 9.731415e+00 1.772762e+01 2.456207e+01 2.911032e+01 3.241870e+01 3.126887e+01 4.540084e+01 3.575472e+01 4.208168e+01 3.232974e+01 2.718784e+01 2.861557e+01 4.603284e-01 7.356826e-01 1.546469e+00 1.268690e+00 1.640930e+00 1.599898e+00 2.393236e+00 1.708994e+00 1.978380e+00 1.719273e+00 1.389010e+00 1.410700e+00 7.397218e-04
<GCONST> 8.250816e+01
<MIXTURE> 37 1.246826e-02
<MEAN> 25
 5.363677e-01 7.351435e+00 1.221072e+01 -4.831116e+00 -8.099038e+00 -8.692966e-01 -5.335371e+00 -8.380101e+00 -3.798337e+00 -1.445189e+00 -2.788780e+00 -7.627320e-01 9.377100e-02 7.677382e-01 -1.540834e+00 3.366273e+00 2.014994e+00 -1.646903e-01 1.110300e+00 2.198995e-01 6.170435e-01 -2.933917e-01 4.026643e-01 -6.269693e-02 -9.605311e-02
<VARIANCE> 25
 1.494039e+01 2.671724e+01 3.272633e+01 5.246272e+01 3.233448e+01 3.056681e+01 4.113452e+01 3.283553e+01 3.662195e+01 3.586521e+01 4.257831e+01 3.162872e+01 2.781850e+00 3.512735e+00 3.172626e+00 4.251291e+00 4.402258e+00 3.759553e+00 3.921696e+00 3.970511e+00 3.238104e+00 3.454546e+00 3.788914e+00 2.682472e+00 3.679746e-03
<GCONST> 9.743652e+01
<MIXTURE> 38 1.154525e-02
<MEAN> 25
 -4.453881e+00 8.932125e+00 4.532388e+00 3.151176e+00 9.497791e-01 -5.234005e+00 -5.078628e-01 -2.633467e+00 -2.732768e+00 -3.081532e+00 -1.581716e+00 -5.398741e-01 -4.517266e+00 1.277344e+00 -3.064850e-01 1.438831e+00 2.546204e+00 1.353583e+00 2.039861e+00 9.365057e-01 7.885671e-01 6.320637e-01 1.023696e+00 3.342063e-01 4.758400e-02
<VARIANCE> 25
 3.109863e+01 2.934186e+01 3.891259e+01 3.312552e+01 4.910390e+01 3.523589e+01 3.669598e+01 4.217396e+01 3.566288e+01 3.215142e+01 2.464734e+01 2.837594e+01 2.326614e+00 3.979186e+00 3.863104e+00 5.123322e+00 4.224630e+00 5.076618e+00 4.735537e+00 4.625596e+00 4.394954e+00 4.880762e+00 4.368338e+00 3.229643e+00 2.105198e-03
<GCONST> 9.923221e+01
<MIXTURE> 39 9.501865e-03
<MEAN> 25
 1.418605e+00 2.474455e+00 1.014082e+01 -9.233275e+00 -1.133338e+01 -9.746718e-01 -3.126039e+00 -6.486407e+00 -4.505520e+00 9.860295e-01 -3.624494e+00 -2.435567e+00 -7.241242e-01 1.504888e+00 1.632711e+00 -1.388214e+00 8.703461e-02 1.228959e+00 -1.193585e+00 -1.204898e+00 4.188823e-01 4.536543e-01 -5.141069e-01 9.591090e-02 1.323105e-03
<VARIANCE> 25
 9.252288e+00 3.108677e+01 3.191270e+01 3.793130e+01 3.722184e+01 4.256350e+01 4.575671e+01 3.373866e+01 3.918527e+01 3.385170e+01 3.601809e+01 3.126614e+01 6.846650e-01 1.558933e+00 1.499784e+00 2.921675e+00 2.395147e+00 2.794065e+00 3.022709e+00 2.950990e+00 2.417144e+00 2.622742e+00 2.104182e+00 2.109448e+00 1.171062e-03
<GCONST> 8.985329e+01
<MIXTURE> 40 1.030800e-02
<MEAN> 25
 -6.624050e+00 4.077462e+00 -2.927280e+00 7.547865e+00 5.951998e+00 5.472110e+00 5.788761e+00 2.101167e+00 4.863762e+00 3.089881e+00 3.890073e+00 2.636613e+00 -8.419269e-02 -2.235124e-01 -4.221178e-02 -8.225629e-02 -2.090207e-03 -1.299995e-01 8.006184e-02 1.178284e-01 -3.361089e-02 9.463949e-02 4.523059e-02 -4.283392e-02 3.691817e-03
<VARIANCE> 25
 3.967307e+01 1.973962e+01 2.595240e+01 1.908843e+01 2.564024e+01 1.748512e+01 1.562485e+01 2.036828e+01 1.900398e+01 1.696596e+01 1.892283e+01 1.361956e+01 5.324582e-01 5.763264e-01 7.641113e-01 9.303705e-01 9.682223e-01 1.205433e+00 1.174524e+00 1.333168e+00 1.043077e+00 1.198821e+00 1.253962e+00 1.120895e+00 7.011798e-04
<GCONST> 7.439327e+01
<MIXTURE> 41 6.713375e-03
<MEAN> 25
 1.518655e+00 1.351167e+00 1.015144e+01 -6.911309e+00 -1.076894e+01 -3.886774e+00 -2.837386e+00 -4.968833e+00 -4.546955e+00 2.746390e+00 -1.657851e+00 -1.276515e+00 8.858114e-02 -7.807611e-01 1.727489e+00 -3.590549e+00 -2.476029e+00 -5.006718e-02 -5.696431e-01 -3.279314e-01 -8.562539e-01 1.173109e+00 -9.604738e-01 -8.808143e-03 8.554678e-02
<VARIANCE> 25
 1.251156e+01 3.423246e+01 3.462375e+01 3.945056e+01 4.033010e+01 3.963036e+01 4.005356e+01 3.013870e+01 3.254504e+01 2.858411e+01 3.129555e+01 3.004774e+01 3.151802e+00 3.247146e+00 3.781478e+00 3.717622e+00 4.780739e+00 5.783618e+00 4.806983e+00 4.478425e+00 3.894248e+00 4.409606e+00 3.969899e+00 3.359417e+00 2.864033e-03
<GCONST> 9.831699e+01
<MIXTURE> 42 1.106211e-02
<MEAN> 25
 -1.823435e+00 4.439972e+00 5.105379e+00 2.892140e+00 -1.849177e-01 -6.871056e+00 -1.120832e+00 -1.549130e+00 -1.911388e+00 -1.282952e+00 -1.708404e+00 1.180170e+00 4.272678e+00 -3.132417e-01 1.710847e+00 3.248445e-02 -3.162701e+00 -1.226807e+00 -2.377977e+00 -9.591206e-01 -7.206429e-01 -6.819244e-01 5.107886e-01 -1.227023e+00 1.299770e-02
<VARIANCE> 25
 3.386945e+01 2.020201e+01 4.981218e+01 2.414796e+01 3.744992e+01 4.061196e+01 3.389282e+01 2.652435e+01 2.731828e+01 2.513666e+01 2.165811e+01 1.644209e+01 3.325263e+00 4.428621e+00 6.028061e+00 4.554918e+00 4.574700e+00 5.717799e+00 4.708426e+00 5.063595e+00 4.730772e+00 4.430355e+00 3.821793e+00 3.317169e+00 4.274363e-03
<GCONST> 9.866821e+01
<MIXTURE> 43 7.108249e-03
<MEAN> 25
 3.167638e+00 -6.312355e+00 -2.252700e+00 -5.190284e+00 -7.400491e+00 -3.406485e+00 4.139629e+00 1.313218e+00 -5.062485e+00 -7.093095e+00 -4.324745e+00 -1.251190e+00 2.379534e-01 2.165015e+00 1.913539e+00 -1.328671e-01 -1.428771e+00 -7.941009e-01 -9.693660e-01 -7.785626e-01 8.217158e-01 1.468028e+00 3.422227e-01 2.115964e-02 -4.511877e-02
<VARIANCE> 25
 9.607819e+00 1.972723e+01 2.735085e+01 3.520385e+01 3.842202e+01 3.664154e+01 3.328573e+01 3.981135e+01 3.965655e+01 3.863992e+01 2.654366e+01 2.957484e+01 6.910605e-01 1.249028e+00 1.570800e+00 2.491056e+00 2.382936e+00 2.383369e+00 2.653916e+00 3.029431e+00 2.606658e+00 2.577452e+00 2.331964e+00 1.919248e+00 9.440897e-04
<GCONST> 8.797737e+01
<MIXTURE> 44 7.328289e-03
<MEAN> 25
 -1.500829e+01 1.486744e+00 3.049832e+00 -2.935838e+00 3.620536e+00 9.468206e-01 7.663233e-01 3.249177e+00 2.482832e+00 -5.651618e-01 1.304130e+00 1.687748e+00 -3.316208e-01 -1.369860e-01 1.688333e-01 3.926401e-01 4.861731e-02 4.062145e-01 5.243430e-01 2.428317e-01 1.255572e-01 1.735263e-01 2.569906e-01 1.130035e-01 2.982202e-03
<VARIANCE> 25
 3.902147e+01 2.454582e+01 3.126096e+01 2.781812e+01 2.596556e+01 3.485780e+01 2.622963e+01 3.694450e+01 3.198474e+01 2.551048e+01 2.580361e+01 1.893361e+01 1.327790e+00 1.482346e+00 1.356553e+00 1.292520e+00 2.151893e+00 1.890716e+00 1.349240e+00 1.531916e+00 1.681072e+00 1.324374e+00 1.482140e+00 1.226862e+00 1.163564e-03
<GCONST> 8.416989e+01
<MIXTURE> 45 1.364932e-02
<MEAN> 25
 -1.117297e+01 3.185879e+00 -4.917479e-01 2.041806e+00 6.167386e+00 -2.171024e+00 5.949758e+00 3.920313e+00 2.833389e+00 1.488405e+00 1.169130e+00 2.487297e+00 -2.905539e+00 2.565280e-01 -2.433201e-01 -5.346884e-01 9.518334e-02 -2.823653e-01 4.583554e-01 3.496882e-01 -1.598263e-01 3.257710e-01 5.870402e-01 -4.481366e-02 9.684103e-02
<VARIANCE> 25
 2.843339e+01 2.111264e+01 2.186703e+01 2.749982e+01 2.255734e+01 3.038463e+01 2.211584e+01 2.219144e+01 2.099306e+01 1.862829e+01 2.542239e+01 1.281532e+01 1.939222e+00 2.517601e+00 2.021911e+00 1.966609e+00 1.894297e+00 2.199058e+00 1.705274e+00 1.866656e+00 1.944508e+00 2.064144e+00 1.614224e+00 1.509062e+00 3.944696e-03
<GCONST> 8.552004e+01
<MIXTURE> 46 9.336259e-03
<MEAN> 25
 -9.935169e+00 1.983972e+00 1.061463e+00 6.868516e+00 6.192033e+00 2.779645e+00 7.354461e+00 5.086773e+00 5.468340e+00 4.241857e+00 4.835091e+00 2.654883e+00 9.644845e-01 -2.771275e-01 1.161794e-01 1.040611e+00 6.573519e-01 9.957402e-01 3.859037e-01 5.871788e-01 1.246803e-01 4.636359e-01 7.049516e-01 7.127742e-01 -9.791886e-02
<VARIANCE> 25
 3.465383e+01 4.116940e+01 3.585418e+01 5.104800e+01 4.747418e+01 4.040714e+01 3.547448e+01 3.736687e+01 3.121905e+01 3.027243e+01 2.615711e+01 2.031352e+01 3.675262e+00 3.811028e+00 3.615154e+00 3.810899e+00 3.866514e+00 3.446648e+00 3.105402e+00 2.943324e+00 4.001204e+00 2.747119e+00 2.245742e+00 2.042063e+00 7.777749e-03
<GCONST> 9.772633e+01
<MIXTURE> 47 7.116147e-03
<MEAN> 25
 7.364614e+00 -7.918753e+00 -7.463022e+00 -6.674014e+00 6.605427e-01 4.751035e-01 -2.354500e+00 1.239449e+00 2.628635e+00 1.341604e-01 -4.392958e+00 -6.821132e+00 -1.427604e-01 -1.247433e+00 -6.977784e-01 -4.225214e-01 6.360599e-01 7.936288e-01 9.585071e-01 3.402945e-01 1.354192e-01 -8.933803e-01 -5.076807e-01 -4.765648e-01 2.997098e-02
<VARIANCE> 25
 1.021304e+01 2.590995e+01 2.138190e+01 3.267430e+01 4.886515e+01 5.306057e+01 4.340952e+01 3.897566e+01 4.452549e+01 4.495177e+01 4.682372e+01 3.227386e+01 5.312868e-01 7.490196e-01 1.078565e+00 1.602211e+00 1.908799e+00 2.116010e+00 2.353894e+00 2.413970e+00 2.103706e+00 2.055291e+00 2.122026e+00 1.931787e+00 5.308235e-04
<GCONST> 8.638354e+01
<MIXTURE> 48 7.116147e-03
<MEAN> 25
 7.364614e+00 -7.918753e+00 -7.463022e+00 -6.674014e+00 6.605427e-01 4.751035e-01 -2.354500e+00 1.239449e+00 2.628635e+00 1.341604e-01 -4.392958e+00 -6.821132e+00 -1.427604e-01 -1.247433e+00 -6.977784e-01 -4.225214e-01 6.360599e-01 7.936288e-01 9.585071e-01 3.402945e-01 1.354192e-01 -8.933803e-01 -5.076807e-01 -4.765648e-01 2.997098e-02
<VARIANCE> 25
 1.021304e+01 2.590995e+01 2.138190e+01 3.267430e+01 4.886515e+01 5.306057e+01 4.340952e+01 3.897566e+01 4.452549e+01 4.495177e+01 4.682372e+01 3.227386e+01 5.312868e-01 7.490196e-01 1.078565e+00 1.602211e+00 1.908799e+00 2.116010e+00 2.353894e+00 2.413970e+00 2.103706e+00 2.055291e+00 2.122026e+00 1.931787e+00 5.308235e-04
<GCONST> 8.638354e+01
<MIXTURE> 49 5.548473e-03
<MEAN> 25
 -4.557368e+00 1.351008e+00 -7.799523e-01 8.430516e+00 6.718973e+00 5.774227e+00 6.715302e+00 3.994858e+00 4.921237e+00 3.073371e+00 4.623779e+00 2.586571e+00 3.476401e-01 6.207941e-01 6.251892e-01 2.659699e-01 -1.650393e-01 -6.429198e-01 -1.240893e+00 -1.358825e+00 -8.623486e-01 -5.069987e-01 -5.093233e-01 -2.501061e-01 -3.655152e-04
<VARIANCE> 25
 9.558454e+00 1.346029e+01 1.879812e+01 1.392450e+01 1.613005e+01 1.514356e+01 1.975353e+01 1.880874e+01 1.865228e+01 1.827704e+01 1.921793e+01 1.288391e+01 2.511961e-01 2.417375e-01 3.893518e-01 5.592649e-01 8.622213e-01 9.167085e-01 1.202611e+00 1.198216e+00 1.270253e+00 1.311456e+00 1.153684e+00 1.085610e+00 1.406526e-05
<GCONST> 6.449878e+01
<MIXTURE> 50 6.234641e-03
<MEAN> 25
 -4.506687e+00 4.088754e-01 -1.648881e+00 6.225204e+00 4.488369e+00 2.508931e+00 3.722811e+00 1.732276e+00 2.716143e+00 1.283920e+00 1.950760e+00 2.842344e+00 5.313791e-02 1.595095e-01 1.253481e-01 -1.731430e-01 -5.105250e-01 -6.172575e-01 -4.693131e-01 -1.428357e-01 3.985757e-01 7.634370e-01 7.022154e-01 4.486751e-01 3.013277e-05
<VARIANCE> 25
 1.084292e+01 1.340255e+01 1.485728e+01 1.494442e+01 1.682224e+01 1.951169e+01 1.799382e+01 2.053269e+01 1.801052e+01 1.726500e+01 2.204811e+01 1.467497e+01 1.400356e-01 2.399902e-01 3.942006e-01 5.007002e-01 5.852803e-01 7.127261e-01 9.827771e-01 1.325911e+00 1.074690e+00 8.896898e-01 9.252924e-01 9.618729e-01 1.071846e-06
<GCONST> 6.002071e+01
<MIXTURE> 51 6.234641e-03
<MEAN> 25
 -4.506687e+00 4.088754e-01 -1.648881e+00 6.225204e+00 4.488369e+00 2.508931e+00 3.722811e+00 1.732276e+00 2.716143e+00 1.283920e+00 1.950760e+00 2.842344e+00 5.313791e-02 1.595095e-01 1.253481e-01 -1.731430e-01 -5.105250e-01 -6.172575e-01 -4.693131e-01 -1.428357e-01 3.985757e-01 7.634370e-01 7.022154e-01 4.486751e-01 3.013277e-05
<VARIANCE> 25
 1.084292e+01 1.340255e+01 1.485728e+01 1.494442e+01 1.682224e+01 1.951169e+01 1.799382e+01 2.053269e+01 1.801052e+01 1.726500e+01 2.204811e+01 1.467497e+01 1.400356e-01 2.399902e-01 3.942006e-01 5.007002e-01 5.852803e-01 7.127261e-01 9.827771e-01 1.325911e+00 1.074690e+00 8.896898e-01 9.252924e-01 9.618729e-01 1.071846e-06
<GCONST> 6.002071e+01
<MIXTURE> 52 6.367945e-03
<MEAN> 25
 9.980582e+00 2.273293e+00 -5.839250e+00 -1.408951e+01 -4.005989e+00 8.678144e+00 -3.064967e+00 -3.135541e+00 -4.135517e+00 -2.022825e+00 3.274451e+00 6.430651e-01 -4.093547e-01 -4.055435e-01 -5.231797e-02 1.162494e+00 1.255468e+00 -4.552706e-01 -6.098830e-01 -6.941404e-01 1.247160e-01 1.148687e+00 3.602603e-01 -5.118276e-01 -1.645058e-02
<VARIANCE> 25
 9.214980e+00 2.184152e+01 2.650135e+01 3.813611e+01 4.459203e+01 2.982310e+01 4.627721e+01 4.665439e+01 4.463519e+01 4.494960e+01 3.810302e+01 2.870831e+01 4.519502e-01 1.617753e+00 1.407443e+00 2.643129e+00 2.350719e+00 2.306620e+00 2.878706e+00 2.676514e+00 3.026695e+00 2.729813e+00 2.459006e+00 2.203731e+00 1.663028e-03
<GCONST> 8.977718e+01
<MIXTURE> 53 6.367945e-03
<MEAN> 25
 9.980582e+00 2.273293e+00 -5.839250e+00 -1.408951e+01 -4.005989e+00 8.678144e+00 -3.064967e+00 -3.135541e+00 -4.135517e+00 -2.022825e+00 3.274451e+00 6.430651e-01 -4.093547e-01 -4.055435e-01 -5.231797e-02 1.162494e+00 1.255468e+00 -4.552706e-01 -6.098830e-01 -6.941404e-01 1.247160e-01 1.148687e+00 3.602603e-01 -5.118276e-01 -1.645058e-02
<VARIANCE> 25
 9.214980e+00 2.184152e+01 2.650135e+01 3.813611e+01 4.459203e+01 2.982310e+01 4.627721e+01 4.665439e+01 4.463519e+01 4.494960e+01 3.810302e+01 2.870831e+01 4.519502e-01 1.617753e+00 1.407443e+00 2.643129e+00 2.350719e+00 2.306620e+00 2.878706e+00 2.676514e+00 3.026695e+00 2.729813e+00 2.459006e+00 2.203731e+00 1.663028e-03
<GCONST> 8.977718e+01
<MIXTURE> 54 7.368620e-03
<MEAN> 25
 -3.628301e+00 5.981343e-02 -6.938763e-01 8.030456e+00 6.491959e+00 4.631342e+00 4.673723e+00 4.587530e+00 4.050621e+00 3.589730e+00 4.453399e+00 2.328187e+00 -2.497324e-03 2.619439e-02 3.395097e-02 4.598781e-02 4.957213e-02 4.776822e-02 3.879253e-02 2.860023e-02 3.188369e-02 2.319055e-02 1.178411e-02 -3.794745e-05 -1.590474e-05
<VARIANCE> 25
 9.143203e+00 1.041940e+01 9.356540e+00 1.818155e+01 1.334246e+01 1.353606e+01 1.195495e+01 1.138371e+01 1.132959e+01 1.354060e+01 1.778680e+01 1.251814e+01 4.090763e-02 8.729032e-02 1.538791e-01 2.277002e-01 3.095703e-01 3.966497e-01 4.601542e-01 5.208548e-01 5.420064e-01 5.226319e-01 5.185680e-01 5.178614e-01 1.007458e-06
<GCONST> 4.729227e+01
<MIXTURE> 55 7.368620e-03
<MEAN> 25
 -3.628301e+00 5.981343e-02 -6.938763e-01 8.030456e+00 6.491959e+00 4.631342e+00 4.673723e+00 4.587530e+00 4.050621e+00 3.589730e+00 4.453399e+00 2.328187e+00 -2.497324e-03 2.619439e-02 3.395097e-02 4.598781e-02 4.957213e-02 4.776822e-02 3.879253e-02 2.860023e-02 3.188369e-02 2.319055e-02 1.178411e-02 -3.794745e-05 -1.590474e-05
<VARIANCE> 25
 9.143203e+00 1.041940e+01 9.356540e+00 1.818155e+01 1.334246e+01 1.353606e+01 1.195495e+01 1.138371e+01 1.132959e+01 1.354060e+01 1.778680e+01 1.251814e+01 4.090763e-02 8.729032e-02 1.538791e-01 2.277002e-01 3.095703e-01 3.966497e-01 4.601542e-01 5.208548e-01 5.420064e-01 5.226319e-01 5.185680e-01 5.178614e-01 1.007458e-06
<GCONST> 4.729227e+01
<MIXTURE> 56 6.132464e-03
<MEAN> 25
 7.559023e+00 -6.774806e+00 -9.158351e+00 -8.662098e+00 3.963563e+00 3.933834e+00 -2.177472e+00 -1.479144e+00 1.957789e+00 6.567826e-01 -2.485245e+00 -7.144209e+00 -1.043079e-02 2.596935e-02 -8.571142e-02 2.183882e-02 2.585238e-01 6.604680e-02 1.148650e-01 -1.375422e-01 -4.653047e-02 -3.675345e-02 -8.250096e-02 1.883185e-02 -7.061726e-03
<VARIANCE> 25
 9.334216e+00 2.331197e+01 2.000006e+01 4.128844e+01 3.316222e+01 5.100782e+01 6.198100e+01 3.682350e+01 3.896029e+01 3.768622e+01 4.025713e+01 3.117690e+01 2.060989e-01 4.324406e-01 4.530589e-01 7.721641e-01 7.972031e-01 1.112831e+00 9.103519e-01 9.072805e-01 9.087583e-01 9.267026e-01 1.034829e+00 7.849895e-01 2.392561e-04
<GCONST> 7.514246e+01
<MIXTURE> 57 6.132464e-03
<MEAN> 25
 7.559023e+00 -6.774806e+00 -9.158351e+00 -8.662098e+00 3.963563e+00 3.933834e+00 -2.177472e+00 -1.479144e+00 1.957789e+00 6.567826e-01 -2.485245e+00 -7.144209e+00 -1.043079e-02 2.596935e-02 -8.571142e-02 2.183882e-02 2.585238e-01 6.604680e-02 1.148650e-01 -1.375422e-01 -4.653047e-02 -3.675345e-02 -8.250096e-02 1.883185e-02 -7.061726e-03
<VARIANCE> 25
 9.334216e+00 2.331197e+01 2.000006e+01 4.128844e+01 3.316222e+01 5.100782e+01 6.198100e+01 3.682350e+01 3.896029e+01 3.768622e+01 4.025713e+01 3.117690e+01 2.060989e-01 4.324406e-01 4.530589e-01 7.721641e-01 7.972031e-01 1.112831e+00 9.103519e-01 9.072805e-01 9.087583e-01 9.267026e-01 1.034829e+00 7.849895e-01 2.392561e-04
<GCONST> 7.514246e+01
<MIXTURE> 58 6.172147e-03
<MEAN> 25
 2.611435e+00 -4.596492e+00 8.971661e+00 -5.651921e+00 -1.450541e+01 -6.278755e+00 6.850567e-01 2.487098e+00 -4.164062e+00 1.632571e+00 5.131533e-01 -2.451621e+00 -5.440932e-02 -2.356549e-01 -2.206893e-01 -3.255210e-01 -9.452366e-02 3.304906e-01 6.188102e-01 1.555707e-01 1.636309e-01 3.197091e-01 -1.300188e-01 -1.433832e-01 6.321827e-04
<VARIANCE> 25
 6.185551e+00 2.157757e+01 2.775142e+01 2.386149e+01 2.342885e+01 4.065800e+01 3.219110e+01 3.934493e+01 3.908634e+01 2.811548e+01 1.912842e+01 2.705912e+01 2.618147e-01 7.271845e-01 8.865787e-01 1.004992e+00 7.590780e-01 1.077488e+00 1.393649e+00 1.095489e+00 1.011284e+00 1.365993e+00 8.156624e-01 7.482002e-01 6.568123e-04
<GCONST> 7.554002e+01
<MIXTURE> 59 6.172147e-03
<MEAN> 25
 2.611435e+00 -4.596492e+00 8.971661e+00 -5.651921e+00 -1.450541e+01 -6.278755e+00 6.850567e-01 2.487098e+00 -4.164062e+00 1.632571e+00 5.131533e-01 -2.451621e+00 -5.440932e-02 -2.356549e-01 -2.206893e-01 -3.255210e-01 -9.452366e-02 3.304906e-01 6.188102e-01 1.555707e-01 1.636309e-01 3.197091e-01 -1.300188e-01 -1.433832e-01 6.321827e-04
<VARIANCE> 25
 6.185551e+00 2.157757e+01 2.775142e+01 2.386149e+01 2.342885e+01 4.065800e+01 3.219110e+01 3.934493e+01 3.908634e+01 2.811548e+01 1.912842e+01 2.705912e+01 2.618147e-01 7.271845e-01 8.865787e-01 1.004992e+00 7.590780e-01 1.077488e+00 1.393649e+00 1.095489e+00 1.011284e+00 1.365993e+00 8.156624e-01 7.482002e-01 6.568123e-04
<GCONST> 7.554002e+01
<MIXTURE> 60 4.479129e-03
<MEAN> 25
 -4.250924e+00 -6.480360e-01 -1.079765e+00 3.710879e+00 1.794070e+00 2.053224e+00 1.669677e+00 1.438949e+00 2.243658e+00 1.267747e+00 2.377467e+00 1.913200e+00 -2.495148e-02 7.130496e-02 9.867608e-02 1.231680e-01 1.229315e-01 1.323084e-01 1.826254e-01 3.210448e-01 5.184230e-01 6.464499e-01 5.497124e-01 2.990524e-01 -5.801607e-04
<VARIANCE> 25
 6.820286e+00 4.524260e+00 1.013349e+01 1.112646e+01 1.353552e+01 1.691412e+01 1.381167e+01 1.208260e+01 1.287849e+01 1.299416e+01 1.566132e+01 1.206463e+01 8.650949e-02 1.787204e-01 2.747518e-01 4.267548e-01 5.789744e-01 7.171540e-01 8.169263e-01 8.830726e-01 9.299265e-01 8.448828e-01 8.282802e-01 8.485229e-01 2.528391e-05
<GCONST> 5.631614e+01
<MIXTURE> 61 4.479129e-03
<MEAN> 25
 -4.250924e+00 -6.480360e-01 -1.079765e+00 3.710879e+00 1.794070e+00 2.053224e+00 1.669677e+00 1.438949e+00 2.243658e+00 1.267747e+00 2.377467e+00 1.913200e+00 -2.495148e-02 7.130496e-02 9.867608e-02 1.231680e-01 1.229315e-01 1.323084e-01 1.826254e-01 3.210448e-01 5.184230e-01 6.464499e-01 5.497124e-01 2.990524e-01 -5.801607e-04
<VARIANCE> 25
 6.820286e+00 4.524260e+00 1.013349e+01 1.112646e+01 1.353552e+01 1.691412e+01 1.381167e+01 1.208260e+01 1.287849e+01 1.299416e+01 1.566132e+01 1.206463e+01 8.650949e-02 1.787204e-01 2.747518e-01 4.267548e-01 5.789744e-01 7.171540e-01 8.169263e-01 8.830726e-01 9.299265e-01 8.448828e-01 8.282802e-01 8.485229e-01 2.528391e-05
<GCONST> 5.631614e+01
<MIXTURE> 62 3.278034e-03
<MEAN> 25
 -5.088255e+00 1.246424e+00 1.020456e+00 8.817100e+00 6.134409e+00 5.051471e+00 5.500863e+00 4.028522e+00 4.987183e+00 3.916087e+00 4.961197e+00 2.951993e+00 -1.002519e+00 -1.165963e+00 -9.528651e-01 -2.769534e-01 4.273994e-01 1.005104e+00 1.384124e+00 1.552059e+00 1.477752e+00 1.241834e+00 1.065766e+00 7.254763e-01 -1.267658e-03
<VARIANCE> 25
 9.883038e+00 9.986484e+00 1.314989e+01 1.672996e+01 1.741921e+01 1.752436e+01 1.969052e+01 1.914651e+01 1.885363e+01 1.872201e+01 2.158364e+01 1.479028e+01 4.024130e-01 4.324947e-01 5.540734e-01 7.794291e-01 1.034900e+00 1.191684e+00 1.252191e+00 1.279124e+00 1.331702e+00 1.368467e+00 1.401726e+00 1.371355e+00 1.633623e-05
<GCONST> 6.754248e+01
<MIXTURE> 63 4.351215e-03
<MEAN> 25
 -3.184329e+00 5.762540e-01 -5.385396e+00 3.598022e+00 4.966868e+00 1.383951e+00 3.288438e+00 -2.829468e-01 2.930471e+00 -8.785641e-01 -1.116849e+00 2.801635e+00 -9.869468e-02 2.165041e-01 2.999074e-01 5.179248e-01 3.689114e-01 2.350104e-01 4.366983e-01 2.773920e-01 -4.956972e-02 1.835695e-01 1.978927e-01 7.172548e-03 -3.732160e-03
<VARIANCE> 25
 7.641561e+00 2.457693e+01 1.411304e+01 1.383592e+01 1.810552e+01 2.603167e+01 1.870174e+01 2.619377e+01 2.203492e+01 1.864106e+01 1.678432e+01 1.414062e+01 2.088298e-01 3.810976e-01 6.004577e-01 6.673208e-01 9.000533e-01 1.107346e+00 1.146740e+00 1.400072e+00 1.413115e+00 1.241062e+00 1.173146e+00 1.263585e+00 1.769506e-04
<GCONST> 6.963425e+01
<MIXTURE> 64 4.351215e-03
<MEAN> 25
 -3.184329e+00 5.762540e-01 -5.385396e+00 3.598022e+00 4.966868e+00 1.383951e+00 3.288438e+00 -2.829468e-01 2.930471e+00 -8.785641e-01 -1.116849e+00 2.801635e+00 -9.869468e-02 2.165041e-01 2.999074e-01 5.179248e-01 3.689114e-01 2.350104e-01 4.366983e-01 2.773920e-01 -4.956972e-02 1.835695e-01 1.978927e-01 7.172548e-03 -3.732160e-03
<VARIANCE> 25
 7.641561e+00 2.457693e+01 1.411304e+01 1.383592e+01 1.810552e+01 2.603167e+01 1.870174e+01 2.619377e+01 2.203492e+01 1.864106e+01 1.678432e+01 1.414062e+01 2.088298e-01 3.810976e-01 6.004577e-01 6.673208e-01 9.000533e-01 1.107346e+00 1.146740e+00 1.400072e+00 1.413115e+00 1.241062e+00 1.173146e+00 1.263585e+00 1.769506e-04
<GCONST> 6.963425e+01
<MIXTURE> 65 1.721197e-02
<MEAN> 25
 7.983853e+00 1.547756e+00 2.134708e+00 1.762340e-02 -5.896322e+00 -3.806079e+00 -6.482148e+00 -6.621348e+00 -3.769270e+00 -1.548033e+00 -5.067203e+00 -2.600680e+00 1.325193e-01 8.627445e-02 7.679103e-02 4.176139e-02 -1.055749e-01 2.286068e-01 -1.399303e-01 1.387919e-02 1.185898e-01 6.599049e-02 -1.222810e-01 -2.663467e-01 -4.568496e-03
<VARIANCE> 25
 9.399826e+00 2.407232e+01 2.435320e+01 3.890041e+01 4.394305e+01 5.925963e+01 5.875068e+01 6.024843e+01 5.220077e+01 6.239948e+01 5.383801e+01 5.986857e+01 5.357495e-01 9.886484e-01 1.780989e+00 1.926854e+00 1.903236e+00 2.491518e+00 2.140272e+00 3.568175e+00 2.346839e+00 2.529531e+00 2.312820e+00 2.224787e+00 3.980066e-04
<GCONST> 9.020293e+01
<MIXTURE> 66 1.191532e-02
<MEAN> 25
 6.800057e+00 -4.290229e+00 -5.612687e+00 -4.750861e+00 9.307590e-01 -5.116920e+00 -6.831708e+00 1.301283e+00 8.375956e-01 -2.050721e+00 -6.292710e+00 -3.624762e+00 -7.623417e-02 1.675944e+00 2.153872e+00 2.323729e+00 -1.054911e+00 -1.215713e+00 1.163251e-01 -4.516467e-01 -5.768687e-02 -2.388208e-01 -2.495870e-01 1.018295e+00 -6.374996e-02
<VARIANCE> 25
 9.177624e+00 2.509574e+01 2.689417e+01 3.402164e+01 4.059216e+01 5.304010e+01 5.538502e+01 4.582790e+01 5.443068e+01 6.444418e+01 3.739854e+01 3.620869e+01 1.274601e+00 2.466578e+00 2.457844e+00 2.388768e+00 5.103318e+00 4.258283e+00 4.339815e+00 5.020638e+00 4.302822e+00 4.907707e+00 3.867777e+00 3.255644e+00 1.431690e-03
<GCONST> 9.720271e+01
<MIXTURE> 67 1.559142e-02
<MEAN> 25
 8.612760e+00 1.419907e+00 -4.478829e+00 -8.969088e+00 -2.131143e-01 3.795187e+00 -4.453279e+00 -1.688908e+00 -2.773505e+00 -3.447109e-01 -1.137508e+00 -2.287704e+00 -1.050576e+00 2.138534e+00 5.204480e-01 2.921810e+00 1.579063e+00 -2.000319e-01 1.447164e+00 2.142619e-02 9.305532e-01 -1.205145e-01 -1.359611e-01 9.232343e-01 -1.168630e-01
<VARIANCE> 25
 8.486725e+00 4.991252e+01 2.499323e+01 4.751380e+01 3.827852e+01 5.207510e+01 5.134130e+01 5.239484e+01 5.191615e+01 4.194139e+01 4.620923e+01 3.336021e+01 1.618276e+00 3.531528e+00 2.618177e+00 3.059307e+00 4.667752e+00 3.879426e+00 3.903678e+00 3.820289e+00 4.715110e+00 3.747019e+00 3.720399e+00 2.861117e+00 2.313208e-03
<GCONST> 9.818668e+01
<MIXTURE> 68 1.485092e-02
<MEAN> 25
 -2.434971e+00 -3.483027e+00 -5.676815e+00 9.159669e-01 3.008130e+00 -2.314482e+00 2.051347e+00 2.929909e+00 2.591656e+00 2.500986e+00 6.103817e-01 1.358448e+00 2.691117e+00 1.836425e-01 4.480188e-01 -2.140220e+00 -2.654442e+00 -1.074195e+00 -2.649795e+00 -2.048913e+00 -1.832255e+00 -1.282060e+00 -1.766009e+00 -1.468905e+00 9.424911e-02
<VARIANCE> 25
 2.486480e+01 4.632739e+01 4.841877e+01 4.659678e+01 5.762756e+01 7.110852e+01 3.356454e+01 4.298143e+01 3.545509e+01 4.091748e+01 3.283134e+01 1.877773e+01 1.574949e+00 3.166471e+00 5.769059e+00 4.786846e+00 3.874615e+00 4.757981e+00 4.631468e+00 3.939194e+00 3.773289e+00 5.258634e+00 4.175591e+00 2.776746e+00 5.388320e-03
<GCONST> 1.009720e+02
<MIXTURE> 69 1.204884e-02
<MEAN> 25
 4.703049e+00 -5.461035e+00 -3.071564e+00 -3.399391e+00 -5.183639e+00 -8.450801e+00 -2.095195e+00 2.374109e+00 -1.003843e+00 -4.480771e+00 -5.769609e+00 -2.794340e-01 1.946982e+00 -2.177293e+00 -8.716147e-01 -2.556874e+00 -7.910262e-01 4.928451e-02 -5.501466e-01 3.143206e-01 -9.727746e-01 -1.274605e+00 -1.877810e+00 -5.015199e-01 6.279968e-02
<VARIANCE> 25
 7.930912e+00 2.757693e+01 2.393544e+01 2.836234e+01 4.828643e+01 3.325385e+01 4.476770e+01 2.879435e+01 3.494257e+01 3.690955e+01 2.676221e+01 2.725771e+01 3.473428e+00 2.617533e+00 3.837005e+00 3.559241e+00 5.169518e+00 4.840001e+00 6.660215e+00 5.628871e+00 5.640606e+00 5.267059e+00 4.073118e+00 3.549635e+00 2.278188e-03
<GCONST> 9.779626e+01
<MIXTURE> 70 1.329190e-02
<MEAN> 25
 7.650247e+00 -3.226160e+00 -3.168311e+00 -4.091668e+00 -3.592268e+00 -9.915844e-02 -8.385262e+00 -4.573878e+00 -3.821111e-01 2.077085e+00 -4.903578e-01 -5.633729e+00 1.519443e+00 -1.261925e+00 -1.165094e-01 -2.580129e+00 -1.876319e+00 9.586809e-01 -1.860591e+00 1.247242e-01 -2.592250e-02 7.104712e-01 6.706935e-01 -1.728399e+00 6.194532e-02
<VARIANCE> 25
 7.399166e+00 2.330293e+01 2.561094e+01 5.667315e+01 6.055090e+01 4.314782e+01 4.566794e+01 3.980252e+01 3.647765e+01 3.416181e+01 3.560119e+01 2.715191e+01 3.445912e+00 2.461328e+00 5.521313e+00 4.805632e+00 4.585874e+00 4.824605e+00 5.304741e+00 7.561801e+00 5.938134e+00 5.561229e+00 6.160706e+00 3.255176e+00 1.956020e-03
<GCONST> 1.002158e+02
<MIXTURE> 71 1.406903e-02
<MEAN> 25
 6.546335e+00 4.981451e+00 4.139364e+00 2.821627e+00 -3.040230e+00 -2.563611e+00 -3.761077e+00 -7.610137e+00 -5.118610e+00 -2.745252e+00 -4.918332e+00 -2.783804e+00 -1.482819e+00 -9.115057e-01 -3.602189e-01 -1.876814e+00 8.855607e-01 -2.952509e-01 -1.324124e-01 1.566542e+00 3.266782e-01 -2.128414e-01 5.799667e-01 -3.395763e-02 3.970240e-02
<VARIANCE> 25
 1.765403e+01 2.450111e+01 2.250442e+01 4.259441e+01 3.978918e+01 4.551543e+01 4.053156e+01 4.879639e+01 3.845287e+01 4.136149e+01 3.487069e+01 3.454119e+01 1.709987e+00 3.306356e+00 5.025135e+00 4.644710e+00 4.990659e+00 4.624291e+00 4.874281e+00 5.007909e+00 3.985217e+00 3.819761e+00 3.486791e+00 3.565721e+00 1.337135e-03
<GCONST> 9.828130e+01
<MIXTURE> 72 8.134747e-03
<MEAN> 25
 4.272231e+00 -4.621571e+00 4.737496e+00 -2.875072e+00 -1.095360e+01 -9.284781e+00 -2.437804e+00 1.736959e+00 -4.959697e+00 -2.003166e+00 -2.238990e+00 -4.626167e-02 9.116048e-01 -6.981384e-01 -2.420151e+00 5.147790e-01 2.148654e+00 -6.303551e-01 -1.148245e+00 1.640771e+00 1.844182e+00 -5.567515e-01 -1.409343e+00 3.632269e-01 -5.691336e-03
<VARIANCE> 25
 1.233126e+01 2.936021e+01 3.635567e+01 3.866739e+01 3.316187e+01 3.265804e+01 4.030321e+01 4.098142e+01 4.018762e+01 3.870625e+01 3.890129e+01 3.181132e+01 4.258218e-01 1.088003e+00 2.142102e+00 1.380011e+00 2.288305e+00 2.304696e+00 3.308109e+00 2.671475e+00 2.540956e+00 2.741560e+00 2.103092e+00 2.019733e+00 5.462622e-04
<GCONST> 8.798577e+01
<MIXTURE> 73 1.213625e-02
<MEAN> 25
 -5.247230e+00 -7.706235e-01 -1.482217e+00 4.780134e+00 3.995873e+00 1.302358e+00 5.199309e+00 3.849480e+00 4.488607e+00 3.268457e+00 4.043946e+00 3.462858e+00 5.805533e-01 -1.262370e+00 -8.463386e-01 -2.174943e+00 -1.408776e+00 -1.772274e+00 -6.168255e-01 -2.216048e-01 -8.937894e-01 -4.193907e-01 -1.029389e+00 -4.190251e-01 1.491610e-01
<VARIANCE> 25
 1.226670e+01 1.324215e+01 1.390658e+01 2.017314e+01 2.192513e+01 2.989221e+01 1.903189e+01 2.110477e+01 1.567920e+01 1.751731e+01 2.159668e+01 1.538695e+01 4.010110e+00 3.065345e+00 5.315140e+00 5.562892e+00 5.835079e+00 4.012880e+00 4.331152e+00 4.246711e+00 3.467064e+00 4.206048e+00 3.301758e+00 2.495934e+00 3.964456e-03
<GCONST> 9.179597e+01
<MIXTURE> 74 1.756491e-02
<MEAN> 25
 4.212099e+00 -3.186964e+00 7.422902e+00 -1.347738e+00 -9.509589e+00 -7.421803e+00 -3.593016e+00 4.743180e-01 -4.678392e+00 -2.926760e+00 -7.345250e-01 2.299613e-01 1.330948e-01 2.368099e+00 -3.163515e-01 1.692165e+00 1.235662e+00 3.403168e-01 -3.297264e-02 -1.283991e+00 4.474991e-01 -1.540965e-01 -6.799358e-02 3.341136e-01 -8.621421e-02
<VARIANCE> 25
 1.204141e+01 3.531369e+01 7.073790e+01 3.603476e+01 3.368149e+01 3.612405e+01 4.994058e+01 4.877209e+01 4.304142e+01 3.756610e+01 4.709410e+01 3.609067e+01 1.856094e+00 2.211372e+00 3.925930e+00 2.171415e+00 4.426193e+00 3.281118e+00 4.323566e+00 3.869596e+00 3.678968e+00 3.767981e+00 3.404211e+00 3.348473e+00 1.790870e-03
<GCONST> 9.735703e+01
<MIXTURE> 75 9.711651e-03
<MEAN> 25
 2.939046e+00 -1.210251e+00 1.252064e+01 1.083339e+00 -1.121380e+01 -8.041780e+00 -4.588098e+00 4.341907e-01 -4.273633e+00 -3.872260e+00 3.308050e+00 -4.209916e-02 1.926353e+00 -1.651986e+00 7.599164e-01 -3.254350e-01 -2.437544e+00 -3.389031e-02 -1.489220e+00 7.720443e-01 -2.232366e-01 -1.734847e-01 1.023102e+00 -7.083589e-01 3.816599e-02
<VARIANCE> 25
 9.653320e+00 1.451035e+01 3.219828e+01 2.338597e+01 2.378416e+01 2.822198e+01 2.519658e+01 2.806355e+01 2.746876e+01 2.685805e+01 1.655911e+01 1.793820e+01 2.627756e+00 1.568231e+00 4.422226e+00 2.118164e+00 3.526041e+00 4.692418e+00 3.440504e+00 2.927800e+00 3.453372e+00 2.798081e+00 2.491146e+00 2.324916e+00 1.257989e-03
<GCONST> 8.899667e+01
<MIXTURE> 76 1.052359e-02
<MEAN> 25
 -5.486393e+00 1.323351e+00 -3.465088e+00 4.808596e+00 6.119958e+00 2.643521e+00 4.594622e+00 -2.117745e-01 2.993225e+00 1.877468e-01 6.395503e-01 3.177352e+00 -2.008951e-01 -5.606788e-01 -2.152799e-01 -6.172154e-01 -4.390113e-01 -8.346947e-01 -5.176718e-01 -5.793824e-02 -1.519161e-01 -1.820775e-01 -3.202432e-01 -2.649721e-01 1.560527e-02
<VARIANCE> 25
 3.379582e+01 3.055891e+01 2.175475e+01 1.956888e+01 2.442560e+01 2.778260e+01 2.041944e+01 3.310545e+01 1.924488e+01 1.945219e+01 2.048207e+01 1.743050e+01 8.038800e-01 1.086694e+00 1.282089e+00 1.046096e+00 1.233963e+00 1.707735e+00 1.346847e+00 1.792414e+00 1.496816e+00 1.285404e+00 1.303744e+00 1.580406e+00 1.120640e-03
<GCONST> 8.014849e+01
<MIXTURE> 77 1.244626e-02
<MEAN> 25
 -4.669444e-01 8.587848e+00 1.246052e+01 -1.161587e+01 -7.004573e+00 9.600896e-01 -9.278099e+00 -7.240496e+00 -3.376692e+00 -1.989357e-01 -4.655185e+00 -1.483145e+00 6.817903e-02 1.377504e-01 7.269324e-02 2.504871e-01 -2.179534e-02 7.808965e-02 -6.455889e-02 -6.146149e-02 8.272217e-02 -4.460514e-02 2.561623e-02 1.180296e-01 -9.926849e-03
<VARIANCE> 25
 1.044159e+01 2.005296e+01 2.755119e+01 4.166819e+01 3.320594e+01 3.380142e+01 3.673767e+01 3.176420e+01 3.523797e+01 3.321903e+01 3.757421e+01 3.497011e+01 2.988265e-01 7.783133e-01 6.474205e-01 1.086127e+00 1.238050e+00 9.856249e-01 1.223519e+00 1.074585e+00 1.043460e+00 1.065904e+00 9.711740e-01 9.222270e-01 5.402580e-04
<GCONST> 7.780308e+01
<MIXTURE> 78 9.702551e-03
<MEAN> 25
 -1.104998e+01 -2.032136e-01 -2.769118e+00 1.775194e+00 4.806913e+00 -4.797096e+00 4.124107e+00 4.753599e+00 3.728943e+00 9.725559e-01 -2.736476e-01 3.447113e+00 2.528680e+00 -3.997146e-01 -2.155224e-01 2.447499e-01 -2.111745e-01 2.371754e-01 -7.455686e-01 -1.257231e-01 1.598254e-01 -2.747211e-02 -1.160585e-01 -2.131233e-01 -5.850277e-02
<VARIANCE> 25
 4.578769e+01 2.842829e+01 3.256726e+01 2.700762e+01 3.046460e+01 4.309935e+01 3.037525e+01 3.844758e+01 2.463078e+01 2.034496e+01 2.029139e+01 1.579906e+01 4.854991e+00 2.106600e+00 3.014322e+00 2.617188e+00 2.309872e+00 2.905825e+00 3.039278e+00 2.418766e+00 2.398181e+00 1.937941e+00 1.986493e+00 1.975269e+00 3.986300e-03
<GCONST> 9.179558e+01
<MIXTURE> 79 1.156824e-02
<MEAN> 25
 2.455254e+00 1.572450e+00 9.177484e+00 -6.603335e+00 -1.201723e+01 -1.747642e+00 -1.962670e+00 -6.507128e+00 -6.577069e+00 3.142732e-01 -3.491187e+00 -3.277482e+00 1.211367e+00 -5.192357e-01 -1.433057e+00 2.349870e+00 3.821210e-01 -1.474763e+00 5.388570e-01 8.747504e-01 -4.340870e-01 -5.496764e-01 3.549328e-01 2.869540e-01 -3.644133e-02
<VARIANCE> 25
 1.439174e+01 2.430512e+01 3.808570e+01 4.986804e+01 3.401154e+01 4.418018e+01 4.298951e+01 3.689969e+01 3.877696e+01 3.961816e+01 4.380143e+01 3.070842e+01 9.536068e-01 2.280485e+00 1.887436e+00 2.085892e+00 2.463358e+00 2.816071e+00 3.197832e+00 3.554616e+00 2.511435e+00 2.729861e+00 2.311334e+00 2.030614e+00 1.235793e-03
<GCONST> 9.186904e+01
<MIXTURE> 80 7.550998e-03
<MEAN> 25
 -1.454211e+01 3.443214e+00 1.173841e+00 2.735279e+00 3.120775e+00 9.545988e-01 6.431183e+00 3.218821e+00 1.714703e+00 1.726867e+00 4.335259e+00 2.164393e+00 4.278759e+00 1.425313e-01 1.894139e+00 -1.018825e+00 -3.080403e+00 -2.798705e+00 -2.484093e+00 -2.087285e+00 -1.942706e+00 -1.555462e+00 -1.433810e+00 -5.947532e-01 -4.060856e-02
<VARIANCE> 25
 1.836559e+01 1.936415e+01 3.159281e+01 3.062418e+01 2.951754e+01 2.679563e+01 2.480593e+01 2.815823e+01 2.953217e+01 2.914013e+01 2.533971e+01 2.164954e+01 2.157569e+00 2.481461e+00 2.745495e+00 3.796712e+00 3.354661e+00 2.391271e+00 2.800183e+00 2.826615e+00 2.471836e+00 2.460130e+00 2.711481e+00 2.111328e+00 1.433720e-03
<GCONST> 9.015802e+01
<MIXTURE> 81 8.025434e-03
<MEAN> 25
 -1.113723e+00 4.060638e+00 1.017647e+01 -1.480455e+01 -9.081178e+00 -1.420355e+00 -6.772560e+00 -8.422217e+00 -4.151671e+00 -4.124711e-01 -7.570862e+00 -2.252626e+00 1.340263e-01 -5.868318e-01 -2.287981e-03 -5.575303e-01 -4.638066e-01 3.355062e-01 3.192361e-01 1.377756e-01 -1.406113e-01 1.074045e-01 -4.694875e-01 -1.258944e-01 1.152105e-02
<VARIANCE> 25
 1.018865e+01 3.287160e+01 2.646973e+01 2.925641e+01 3.371815e+01 3.053872e+01 4.546728e+01 2.827916e+01 3.797952e+01 3.190587e+01 2.531863e+01 3.110347e+01 7.720807e-01 2.276994e+00 1.546378e+00 2.874099e+00 2.662209e+00 2.125556e+00 3.280504e+00 2.289791e+00 2.354436e+00 2.539426e+00 2.297720e+00 2.078719e+00 1.183254e-03
<GCONST> 8.869566e+01
<MIXTURE> 82 8.213053e-03
<MEAN> 25
 -9.948262e+00 -3.905620e+00 1.620524e+00 -2.939903e+00 3.104649e+00 6.326284e-01 2.011784e+00 9.715389e-01 2.978225e+00 1.741516e+00 1.740463e+00 3.086160e+00 -1.314388e+00 -1.334689e-01 2.865183e-01 -2.590391e+00 -1.110553e+00 -1.268119e+00 -1.005761e+00 -8.616894e-01 -3.156797e-01 -4.712383e-01 -3.187288e-01 -1.008332e-01 1.781278e-01
<VARIANCE> 25
 1.806992e+01 2.501708e+01 3.236230e+01 3.101808e+01 3.304335e+01 3.254605e+01 3.174425e+01 3.314581e+01 3.074723e+01 2.513984e+01 3.068417e+01 1.746800e+01 3.744190e+00 3.059810e+00 3.307475e+00 3.306695e+00 3.563430e+00 3.278059e+00 2.947639e+00 3.023370e+00 2.788382e+00 2.495024e+00 2.448428e+00 1.872015e+00 3.441654e-03
<GCONST> 9.311221e+01
<MIXTURE> 83 1.167529e-02
<MEAN> 25
 -1.864694e+01 3.547585e+00 -1.483039e+00 1.889018e-01 8.105116e+00 -2.834090e+00 6.666825e+00 3.687071e+00 1.300021e+00 2.869936e+00 6.442054e-01 2.530380e+00 -1.733735e-01 -4.546646e-01 -1.511576e-01 -2.123702e-01 -3.801005e-01 -4.625764e-01 -1.576920e-01 2.580499e-01 2.390949e-01 -1.054098e-01 -1.325783e-01 2.468147e-01 1.387877e-02
<VARIANCE> 25
 9.140886e+00 1.750047e+01 2.063567e+01 1.755833e+01 1.686148e+01 2.541926e+01 1.837870e+01 1.930993e+01 1.763714e+01 1.901643e+01 1.858249e+01 1.441327e+01 9.678894e-01 7.256712e-01 1.016618e+00 8.291409e-01 1.348301e+00 1.823499e+00 1.109734e+00 1.315853e+00 1.555984e+00 1.171319e+00 1.215981e+00 1.318455e+00 8.148318e-04
<GCONST> 7.496623e+01
<MIXTURE> 84 1.066614e-02
<MEAN> 25
 4.114951e-01 7.911114e+00 6.977148e+00 7.746672e+00 2.276286e+00 1.220770e-01 -1.633835e+00 -6.139520e+00 -3.515477e+00 -3.330777e+00 -1.283308e+00 -4.493185e-01 -1.464495e+00 -8.541922e-01 -1.572833e+00 1.164922e+00 2.313321e+00 1.415064e+00 1.597114e+00 9.520285e-01 1.224262e+00 4.833496e-01 1.055085e-01 3.600284e-01 -6.883412e-02
<VARIANCE> 25
 2.062176e+01 1.860926e+01 1.936658e+01 2.032318e+01 2.541452e+01 2.743580e+01 2.366882e+01 3.097249e+01 2.179366e+01 2.086141e+01 2.292213e+01 2.462923e+01 2.037193e+00 2.384332e+00 3.522980e+00 2.782494e+00 2.883544e+00 2.766103e+00 2.745593e+00 3.338471e+00 2.846279e+00 2.610231e+00 3.240631e+00 2.372671e+00 2.856043e-03
<GCONST> 8.981427e+01
<MIXTURE> 85 7.591393e-03
<MEAN> 25
 -3.014418e+00 7.761725e+00 5.726002e+00 1.320416e+00 -3.516647e+00 -5.423710e+00 -2.976526e+00 -6.013864e+00 -3.575614e+00 -3.146412e+00 -4.079520e-01 -1.864412e+00 3.960785e+00 3.144073e-01 1.774002e+00 -2.076982e+00 -3.450031e+00 -2.553944e+00 -2.901187e+00 -2.350451e+00 -2.213895e+00 -1.244355e+00 -2.250833e+00 -6.578270e-01 1.035740e-02
<VARIANCE> 25
 4.234174e+01 2.394526e+01 3.743013e+01 3.763728e+01 3.931070e+01 4.175478e+01 3.151274e+01 2.848996e+01 2.615728e+01 2.573626e+01 2.611696e+01 2.021640e+01 2.677001e+00 4.239795e+00 4.067294e+00 5.088113e+00 4.386778e+00 3.907440e+00 3.781418e+00 3.945668e+00 3.885874e+00 3.978605e+00 3.988219e+00 3.490870e+00 5.438636e-03
<GCONST> 9.826414e+01
<MIXTURE> 86 1.273941e-02
<MEAN> 25
 -4.775099e+00 -9.624818e-01 -7.402982e-01 6.318663e+00 5.280684e+00 3.965024e+00 5.201750e+00 3.890146e+00 5.061840e+00 3.838123e+00 4.975547e+00 2.670608e+00 -9.272084e-03 4.065944e-03 -2.618564e-02 -1.211922e-01 -1.001791e-01 -2.129037e-01 -2.683115e-01 -2.576580e-01 -2.679558e-01 -2.383673e-01 -2.035315e-01 -9.319722e-02 1.628927e-04
<VARIANCE> 25
 7.290755e+00 5.921743e+00 9.719435e+00 1.101012e+01 1.466117e+01 1.648623e+01 1.246717e+01 1.470659e+01 1.293402e+01 1.334833e+01 1.354112e+01 1.127861e+01 9.086122e-02 2.156531e-01 2.811308e-01 4.525150e-01 5.687177e-01 7.071003e-01 7.302750e-01 7.216584e-01 9.494113e-01 9.519801e-01 8.272082e-01 8.063839e-01 7.186218e-05
<GCONST> 5.767149e+01
<MIXTURE> 87 1.100681e-02
<MEAN> 25
 -3.018239e+00 4.851936e+00 1.688903e+00 6.673155e+00 6.316160e+00 1.615433e+00 1.869305e+00 -1.382592e+00 6.167239e-03 -1.218772e+00 -1.060540e+00 3.002074e-01 -1.596099e+00 -2.498948e+00 -2.163345e+00 -2.587509e+00 -2.762340e-01 -1.228665e-01 6.830347e-01 1.616432e+00 1.052795e+00 1.203263e+00 1.237895e+00 8.112044e-01 1.065414e-01
<VARIANCE> 25
 3.238163e+01 2.537886e+01 3.821529e+01 2.916987e+01 2.827373e+01 3.169169e+01 2.520150e+01 2.475990e+01 2.381137e+01 2.276298e+01 2.184747e+01 2.135983e+01 4.754958e+00 2.874082e+00 3.646930e+00 4.940673e+00 4.463632e+00 3.755572e+00 3.618838e+00 3.877296e+00 3.617105e+00 3.116066e+00 3.547297e+00 2.560719e+00 4.636254e-03
<GCONST> 9.557151e+01
<MIXTURE> 88 1.256585e-02
<MEAN> 25
 -3.756620e+00 7.348623e-01 -1.790278e+00 6.018592e+00 5.391656e+00 3.153950e+00 5.023016e+00 1.608913e+00 3.043917e+00 1.563810e+00 2.331428e+00 2.805155e+00 -1.187067e-01 3.816218e-02 2.896622e-01 3.356236e-01 2.642109e-01 3.221737e-02 2.707689e-01 3.096499e-01 -3.273424e-01 -1.987198e-01 -1.123535e-01 -1.214266e-01 -3.325478e-04
<VARIANCE> 25
 9.004036e+00 1.389125e+01 1.349782e+01 1.616348e+01 1.862626e+01 1.894403e+01 1.666200e+01 2.487028e+01 1.592224e+01 1.472059e+01 1.626281e+01 1.280169e+01 1.047148e+00 1.550552e+00 2.103491e+00 1.948318e+00 2.178226e+00 2.339709e+00 2.639344e+00 2.998326e+00 2.449686e+00 2.444688e+00 1.946123e+00 1.717786e+00 1.432589e-03
<GCONST> 8.089029e+01
<MIXTURE> 89 9.333527e-03
<MEAN> 25
 6.245814e+00 -7.247699e+00 -1.260956e+00 -3.102647e+00 -5.909171e+00 -5.829812e+00 -8.062644e+00 4.686988e+00 2.042354e+00 -6.418861e-01 -5.456747e+00 -6.439067e+00 -6.699791e-01 -8.317029e-02 2.063873e+00 9.459437e-01 -1.344066e+00 -1.667418e+00 7.546732e-01 1.421900e+00 -1.247819e+00 -1.698315e+00 3.951150e-01 1.366865e+00 2.041945e-03
<VARIANCE> 25
 8.156010e+00 2.074435e+01 4.667629e+01 3.214890e+01 6.066810e+01 3.086872e+01 4.982811e+01 3.276287e+01 4.245066e+01 4.382925e+01 3.304654e+01 4.000689e+01 2.802755e-01 6.992003e-01 1.132093e+00 9.859557e-01 1.839907e+00 1.473731e+00 1.881052e+00 1.783900e+00 2.002625e+00 2.131977e+00 2.303242e+00 1.149241e+00 3.318448e-04
<GCONST> 8.314257e+01
<MIXTURE> 90 7.114505e-03
<MEAN> 25
 2.448446e+00 -9.724396e+00 -4.755031e+00 -3.978441e+00 -3.383939e+00 -1.813659e+00 3.366373e+00 1.181461e+00 -7.533004e+00 -1.021724e+01 -3.429930e+00 -7.393031e-01 -1.636460e-01 9.090887e-01 1.168848e+00 -8.539482e-01 -1.613020e+00 -2.119259e-01 6.448499e-01 -2.099492e-01 -1.688355e-01 7.371302e-01 1.829597e-01 -5.501335e-01 -1.114929e-02
<VARIANCE> 25
 8.492760e+00 1.778195e+01 1.981245e+01 2.802145e+01 3.684097e+01 3.217677e+01 3.852322e+01 3.640627e+01 3.521447e+01 2.769267e+01 2.700386e+01 2.613810e+01 2.237505e-01 6.127436e-01 7.867000e-01 1.042903e+00 1.470294e+00 1.591672e+00 1.780404e+00 1.654705e+00 1.810392e+00 1.678406e+00 1.495452e+00 1.308617e+00 2.149863e-04
<GCONST> 7.813309e+01
<MIXTURE> 91 7.852945e-03
<MEAN> 25
 6.420855e+00 -7.761545e+00 -8.507519e+00 -5.220354e+00 3.765756e+00 -1.976786e-01 -2.158444e+00 7.827780e-01 7.223388e-01 -2.926307e+00 -4.983988e+00 -5.233831e+00 2.596346e-01 1.003060e+00 1.873355e-01 4.572794e-01 -3.184775e-02 -5.489363e-01 -3.662683e-01 -6.545869e-02 -8.708520e-02 4.522849e-01 -1.377930e-01 2.136960e-01 -3.484344e-02
<VARIANCE> 25
 1.007452e+01 2.367462e+01 2.023052e+01 4.047341e+01 3.866379e+01 5.552890e+01 5.404318e+01 3.953860e+01 5.182092e+01 6.361223e+01 3.810095e+01 4.129266e+01 4.421186e-01 8.793052e-01 1.117769e+00 1.379125e+00 2.309104e+00 2.365513e+00 2.394978e+00 2.483609e+00 2.245254e+00 2.197258e+00 2.029665e+00 1.803879e+00 5.836731e-04
<GCONST> 8.734616e+01
<MIXTURE> 92 7.852945e-03
<MEAN> 25
 6.420855e+00 -7.761545e+00 -8.507519e+00 -5.220354e+00 3.765756e+00 -1.976786e-01 -2.158444e+00 7.827780e-01 7.223388e-01 -2.926307e+00 -4.983988e+00 -5.233831e+00 2.596346e-01 1.003060e+00 1.873355e-01 4.572794e-01 -3.184775e-02 -5.489363e-01 -3.662683e-01 -6.545869e-02 -8.708520e-02 4.522849e-01 -1.377930e-01 2.136960e-01 -3.484344e-02
<VARIANCE> 25
 1.007452e+01 2.367462e+01 2.023052e+01 4.047341e+01 3.866379e+01 5.552890e+01 5.404318e+01 3.953860e+01 5.182092e+01 6.361223e+01 3.810095e+01 4.129266e+01 4.421186e-01 8.793052e-01 1.117769e+00 1.379125e+00 2.309104e+00 2.365513e+00 2.394978e+00 2.483609e+00 2.245254e+00 2.197258e+00 2.029665e+00 1.803879e+00 5.836731e-04
<GCONST> 8.734616e+01
<MIXTURE> 93 6.122769e-03
<MEAN> 25
 -6.780616e+00 -9.089525e-01 -2.437486e+00 5.786625e+00 5.946741e+00 3.953316e+00 6.106553e+00 3.556579e+00 4.108339e+00 2.499133e+00 1.818164e+00 3.705186e+00 -6.286439e-02 -1.547035e-01 -2.563157e-01 -3.357095e-01 -3.389609e-01 -2.792905e-01 -2.165551e-01 -1.743518e-01 -1.608192e-01 -1.575363e-01 -1.155202e-01 -4.329861e-02 -1.984282e-05
<VARIANCE> 25
 9.336256e+00 6.392287e+00 8.314757e+00 1.131293e+01 1.163748e+01 1.601660e+01 1.521756e+01 1.674376e+01 1.467901e+01 1.446115e+01 1.667908e+01 1.335965e+01 8.239918e-02 1.523661e-01 2.621886e-01 3.804219e-01 4.985767e-01 6.420635e-01 7.744753e-01 8.816113e-01 9.157341e-01 8.775172e-01 9.048750e-01 9.207587e-01 1.031636e-06
<GCONST> 5.372347e+01
<MIXTURE> 94 6.122769e-03
<MEAN> 25
 -6.780616e+00 -9.089525e-01 -2.437486e+00 5.786625e+00 5.946741e+00 3.953316e+00 6.106553e+00 3.556579e+00 4.108339e+00 2.499133e+00 1.818164e+00 3.705186e+00 -6.286439e-02 -1.547035e-01 -2.563157e-01 -3.357095e-01 -3.389609e-01 -2.792905e-01 -2.165551e-01 -1.743518e-01 -1.608192e-01 -1.575363e-01 -1.155202e-01 -4.329861e-02 -1.984282e-05
<VARIANCE> 25
 9.336256e+00 6.392287e+00 8.314757e+00 1.131293e+01 1.163748e+01 1.601660e+01 1.521756e+01 1.674376e+01 1.467901e+01 1.446115e+01 1.667908e+01 1.335965e+01 8.239918e-02 1.523661e-01 2.621886e-01 3.804219e-01 4.985767e-01 6.420635e-01 7.744753e-01 8.816113e-01 9.157341e-01 8.775172e-01 9.048750e-01 9.207587e-01 1.031636e-06
<GCONST> 5.372347e+01
<MIXTURE> 95 5.258835e-03
<MEAN> 25
 -5.481438e+00 -2.030374e-01 -2.256220e+00 5.046481e+00 4.599171e+00 3.016458e+00 4.249679e+00 1.272470e+00 2.285056e+00 6.117816e-01 1.036063e+00 2.706053e+00 1.177556e-01 1.429237e-01 8.088841e-02 -8.818207e-02 -3.611178e-01 -7.205223e-01 -1.044084e+00 -1.263422e+00 -1.198386e+00 -9.381313e-01 -6.452733e-01 -3.178750e-01 -6.261616e-04
<VARIANCE> 25
 1.094973e+01 9.637120e+00 1.275201e+01 1.237450e+01 1.490391e+01 1.830626e+01 1.828221e+01 1.898998e+01 1.504980e+01 1.587900e+01 1.955941e+01 1.395649e+01 2.099514e-01 2.882226e-01 4.312079e-01 6.024445e-01 7.741104e-01 9.194700e-01 8.856231e-01 9.348404e-01 1.002126e+00 1.060367e+00 1.108188e+00 1.083078e+00 4.665859e-05
<GCONST> 6.380059e+01
<MIXTURE> 96 7.034694e-03
<MEAN> 25
 -5.041899e+00 -3.678552e-01 -2.305687e+00 5.155201e+00 3.943879e+00 1.856119e+00 3.539106e+00 1.723732e+00 2.453127e+00 9.405867e-01 1.136130e+00 2.839807e+00 -3.166099e-02 8.426543e-02 2.089662e-01 3.913974e-01 5.234368e-01 4.988079e-01 2.426921e-01 -1.262579e-01 -4.517442e-01 -6.543934e-01 -6.172714e-01 -3.757572e-01 -4.206735e-05
<VARIANCE> 25
 1.114234e+01 1.025108e+01 1.306028e+01 1.413678e+01 1.544226e+01 1.973445e+01 1.788485e+01 1.967864e+01 1.779937e+01 1.645517e+01 1.965690e+01 1.438863e+01 1.194843e-01 2.167391e-01 3.166193e-01 4.111137e-01 5.135170e-01 6.543050e-01 8.612558e-01 9.943374e-01 9.598213e-01 8.617674e-01 8.894877e-01 9.385667e-01 1.058022e-06
<GCONST> 5.774338e+01
<MIXTURE> 97 7.034694e-03
<MEAN> 25
 -5.041899e+00 -3.678552e-01 -2.305687e+00 5.155201e+00 3.943879e+00 1.856119e+00 3.539106e+00 1.723732e+00 2.453127e+00 9.405867e-01 1.136130e+00 2.839807e+00 -3.166099e-02 8.426543e-02 2.089662e-01 3.913974e-01 5.234368e-01 4.988079e-01 2.426921e-01 -1.262579e-01 -4.517442e-01 -6.543934e-01 -6.172714e-01 -3.757572e-01 -4.206735e-05
<VARIANCE> 25
 1.114234e+01 1.025108e+01 1.306028e+01 1.413678e+01 1.544226e+01 1.973445e+01 1.788485e+01 1.967864e+01 1.779937e+01 1.645517e+01 1.965690e+01 1.438863e+01 1.194843e-01 2.167391e-01 3.166193e-01 4.111137e-01 5.135170e-01 6.543050e-01 8.612558e-01 9.943374e-01 9.598213e-01 8.617674e-01 8.894877e-01 9.385667e-01 1.058022e-06
<GCONST> 5.774338e+01
<MIXTURE> 98 9.917808e-03
<MEAN> 25
 -1.329768e+00 1.785253e+00 -6.713920e-01 4.701403e+00 3.721226e+00 2.800193e+00 3.023551e+00 3.524245e-01 1.928102e+00 6.678854e-01 8.891171e-01 1.515421e+00 -1.673523e+00 -1.592365e+00 -8.989808e-01 2.962920e-01 6.056455e-01 4.890353e-01 1.370798e+00 1.495951e+00 1.544781e+00 1.274117e+00 1.180759e+00 8.511548e-01 -2.692341e-02
<VARIANCE> 25
 1.300101e+01 2.024631e+01 2.946353e+01 2.997982e+01 3.762779e+01 3.212259e+01 2.896905e+01 3.491521e+01 2.620161e+01 2.767003e+01 2.302224e+01 2.204461e+01 1.338017e+00 1.957402e+00 2.469502e+00 2.379508e+00 2.568248e+00 3.163867e+00 2.904974e+00 2.560003e+00 2.432260e+00 2.986883e+00 2.589583e+00 2.027253e+00 2.594833e-03
<GCONST> 8.965794e+01
<MIXTURE> 99 6.696178e-03
<MEAN> 25
 -6.269205e+00 9.945955e+00 6.457055e+00 3.669963e+00 1.174004e+00 -4.896161e+00 -1.540887e+00 -4.413820e+00 -3.265774e+00 -3.767037e+00 -1.624322e+00 5.601960e-01 5.510132e-01 -6.741233e-01 2.501706e-01 -4.198982e-01 -1.086000e+00 -4.899476e-01 -3.481728e-01 -2.365395e-01 -6.608113e-02 -3.069622e-02 1.931023e-01 1.913482e-01 9.220799e-03
<VARIANCE> 25
 3.534948e+01 2.444718e+01 4.857645e+01 3.121013e+01 3.686750e+01 3.796607e+01 2.739978e+01 2.981132e+01 2.718144e+01 2.693245e+01 2.027594e+01 2.898723e+01 2.129074e+00 1.909527e+00 1.525513e+00 1.749998e+00 2.667731e+00 2.075018e+00 1.658248e+00 1.657063e+00 1.561575e+00 1.536715e+00 1.336163e+00 1.286542e+00 1.561319e-03
<GCONST> 8.701559e+01
<MIXTURE> 100 4.498084e-03
<MEAN> 25
 -1.598001e+00 6.344032e+00 1.027621e+01 -7.462214e+00 -1.078232e+01 -5.074989e+00 -4.941771e+00 -9.968701e+00 -4.718236e+00 -8.549753e-01 -2.732819e+00 -2.708197e+00 2.917990e+00 -1.260328e+00 1.299681e+00 -2.185781e+00 -3.419557e+00 -7.840825e-01 -1.218997e+00 -8.199448e-01 -1.475349e+00 3.465294e-01 -1.655635e+00 -2.864068e-01 2.021397e-03
<VARIANCE> 25
 1.363530e+01 2.106385e+01 2.247176e+01 2.642876e+01 2.302003e+01 2.372980e+01 2.910882e+01 2.171351e+01 2.747945e+01 2.265207e+01 2.241264e+01 2.133924e+01 1.799122e+00 3.953517e+00 2.919961e+00 4.286258e+00 4.184109e+00 4.536934e+00 4.015511e+00 4.340278e+00 4.167734e+00 3.896001e+00 3.910298e+00 3.224984e+00 1.675032e-03
<GCONST> 9.257028e+01
<MIXTURE> 101 6.007792e-03
<MEAN> 25
 8.092098e+00 -3.550101e+00 -6.071546e+00 -7.209596e+00 7.673403e-01 -1.000340e+00 -1.076572e+01 -2.110968e+00 1.434898e+00 2.723228e+00 -2.306324e+00 -5.288881e+00 6.814253e-01 6.529492e-01 -1.428088e+00 -1.658203e+00 9.879112e-01 2.256143e+00 1.490495e-01 -1.402939e+00 -1.058800e+00 1.051689e+00 1.342030e+00 -4.079477e-01 -3.374147e-03
<VARIANCE> 25
 8.997488e+00 1.634171e+01 3.080800e+01 4.525967e+01 3.537395e+01 3.689036e+01 3.692385e+01 3.524277e+01 3.786449e+01 4.269477e+01 5.045758e+01 2.419259e+01 2.871217e-01 6.496176e-01 1.164773e+00 1.577505e+00 1.700724e+00 2.158947e+00 2.097874e+00 2.039836e+00 2.280694e+00 2.158040e+00 1.764199e+00 1.880337e+00 4.003706e-04
<GCONST> 8.367141e+01
<MIXTURE> 102 6.007792e-03
<MEAN> 25
 8.092098e+00 -3.550101e+00 -6.071546e+00 -7.209596e+00 7.673403e-01 -1.000340e+00 -1.076572e+01 -2.110968e+00 1.434898e+00 2.723228e+00 -2.306324e+00 -5.288881e+00 6.814253e-01 6.529492e-01 -1.428088e+00 -1.658203e+00 9.879112e-01 2.256143e+00 1.490495e-01 -1.402939e+00 -1.058800e+00 1.051689e+00 1.342030e+00 -4.079477e-01 -3.374147e-03
<VARIANCE> 25
 8.997488e+00 1.634171e+01 3.080800e+01 4.525967e+01 3.537395e+01 3.689036e+01 3.692385e+01 3.524277e+01 3.786449e+01 4.269477e+01 5.045758e+01 2.419259e+01 2.871217e-01 6.496176e-01 1.164773e+00 1.577505e+00 1.700724e+00 2.158947e+00 2.097874e+00 2.039836e+00 2.280694e+00 2.158040e+00 1.764199e+00 1.880337e+00 4.003706e-04
<GCONST> 8.367141e+01
<MIXTURE> 103 5.694618e-03
<MEAN> 25
 3.409525e+00 -9.562231e+00 -6.092429e+00 -3.156899e+00 -1.460352e+00 -2.017568e+00 2.416323e+00 2.523527e+00 -4.621215e+00 -9.186147e+00 -5.088673e+00 2.807335e-01 -1.514781e-01 -1.478643e+00 -9.775055e-01 3.736009e-01 1.220107e+00 1.015055e+00 1.770362e-01 -2.478623e-01 -7.674615e-01 -9.433439e-01 -4.843012e-02 1.165282e-01 2.680288e-02
<VARIANCE> 25
 1.045845e+01 2.090252e+01 2.290419e+01 3.192595e+01 4.953899e+01 3.496438e+01 4.610034e+01 3.642558e+01 4.177411e+01 2.968698e+01 2.989721e+01 2.696278e+01 6.433642e-01 1.262704e+00 1.526989e+00 1.931838e+00 2.922864e+00 2.393861e+00 2.906612e+00 2.609523e+00 2.565053e+00 2.507469e+00 2.101489e+00 2.005392e+00 8.080089e-04
<GCONST> 8.765173e+01
<MIXTURE> 104 5.694618e-03
<MEAN> 25
 3.409525e+00 -9.562231e+00 -6.092429e+00 -3.156899e+00 -1.460352e+00 -2.017568e+00 2.416323e+00 2.523527e+00 -4.621215e+00 -9.186147e+00 -5.088673e+00 2.807335e-01 -1.514781e-01 -1.478643e+00 -9.775055e-01 3.736009e-01 1.220107e+00 1.015055e+00 1.770362e-01 -2.478623e-01 -7.674615e-01 -9.433439e-01 -4.843012e-02 1.165282e-01 2.680288e-02
<VARIANCE> 25
 1.045845e+01 2.090252e+01 2.290419e+01 3.192595e+01 4.953899e+01 3.496438e+01 4.610034e+01 3.642558e+01 4.177411e+01 2.968698e+01 2.989721e+01 2.696278e+01 6.433642e-01 1.262704e+00 1.526989e+00 1.931838e+00 2.922864e+00 2.393861e+00 2.906612e+00 2.609523e+00 2.565053e+00 2.507469e+00 2.101489e+00 2.005392e+00 8.080089e-04
<GCONST> 8.765173e+01
<MIXTURE> 105 4.710235e-03
<MEAN> 25
 2.221836e+00 -1.718832e+00 9.310716e+00 -2.792189e+00 -1.176142e+01 -5.058514e+00 -4.142432e+00 -5.748971e-01 -3.935967e+00 -3.086632e+00 1.462125e+00 -1.313835e+00 3.771567e-03 1.850098e-02 2.252518e-02 -5.028030e-02 -8.064931e-04 5.897499e-02 4.696120e-04 4.542981e-02 -1.944593e-02 3.472883e-02 1.742802e-02 -2.592600e-02 -2.063804e-03
<VARIANCE> 25
 1.307434e+01 3.057695e+01 4.047629e+01 4.459868e+01 3.835814e+01 5.278930e+01 4.070273e+01 4.459834e+01 3.968489e+01 4.210289e+01 4.128264e+01 3.146723e+01 8.364258e-02 1.911152e-01 3.901754e-01 2.891314e-01 3.678985e-01 4.311018e-01 4.817308e-01 4.839854e-01 5.114698e-01 4.379796e-01 4.231543e-01 3.912003e-01 8.861215e-05
<GCONST> 6.690260e+01
<MIXTURE> 106 4.710235e-03
<MEAN> 25
 2.221836e+00 -1.718832e+00 9.310716e+00 -2.792189e+00 -1.176142e+01 -5.058514e+00 -4.142432e+00 -5.748971e-01 -3.935967e+00 -3.086632e+00 1.462125e+00 -1.313835e+00 3.771567e-03 1.850098e-02 2.252518e-02 -5.028030e-02 -8.064931e-04 5.897499e-02 4.696120e-04 4.542981e-02 -1.944593e-02 3.472883e-02 1.742802e-02 -2.592600e-02 -2.063804e-03
<VARIANCE> 25
 1.307434e+01 3.057695e+01 4.047629e+01 4.459868e+01 3.835814e+01 5.278930e+01 4.070273e+01 4.459834e+01 3.968489e+01 4.210289e+01 4.128264e+01 3.146723e+01 8.364258e-02 1.911152e-01 3.901754e-01 2.891314e-01 3.678985e-01 4.311018e-01 4.817308e-01 4.839854e-01 5.114698e-01 4.379796e-01 4.231543e-01 3.912003e-01 8.861215e-05
<GCONST> 6.690260e+01
<MIXTURE> 107 5.452374e-03
<MEAN> 25
 8.744993e+00 -2.372580e+00 -7.757543e+00 -9.463084e+00 1.497870e+00 2.965570e+00 -8.803383e+00 -4.577961e+00 -9.390889e-01 3.406658e+00 6.625649e-01 -4.941457e+00 -5.799776e-01 -7.599982e-01 8.427486e-01 1.784387e+00 3.152487e-01 -1.899757e+00 -8.923151e-01 8.769665e-01 1.783070e+00 -4.762811e-02 -1.726337e+00 -8.319187e-01 -2.509912e-03
<VARIANCE> 25
 9.158228e+00 1.968775e+01 3.087604e+01 4.585070e+01 3.834612e+01 3.948741e+01 4.903374e+01 3.482421e+01 4.776665e+01 4.043671e+01 5.161626e+01 2.994395e+01 3.602039e-01 9.366276e-01 1.667997e+00 2.355607e+00 2.483306e+00 3.329985e+00 2.586027e+00 2.861824e+00 2.415290e+00 3.046821e+00 2.041856e+00 2.099885e+00 6.982334e-04
<GCONST> 8.865234e+01
<MIXTURE> 108 5.452374e-03
<MEAN> 25
 8.744993e+00 -2.372580e+00 -7.757543e+00 -9.463084e+00 1.497870e+00 2.965570e+00 -8.803383e+00 -4.577961e+00 -9.390889e-01 3.406658e+00 6.625649e-01 -4.941457e+00 -5.799776e-01 -7.599982e-01 8.427486e-01 1.784387e+00 3.152487e-01 -1.899757e+00 -8.923151e-01 8.769665e-01 1.783070e+00 -4.762811e-02 -1.726337e+00 -8.319187e-01 -2.509912e-03
<VARIANCE> 25
 9.158228e+00 1.968775e+01 3.087604e+01 4.585070e+01 3.834612e+01 3.948741e+01 4.903374e+01 3.482421e+01 4.776665e+01 4.043671e+01 5.161626e+01 2.994395e+01 3.602039e-01 9.366276e-01 1.667997e+00 2.355607e+00 2.483306e+00 3.329985e+00 2.586027e+00 2.861824e+00 2.415290e+00 3.046821e+00 2.041856e+00 2.099885e+00 6.982334e-04
<GCONST> 8.865234e+01
<MIXTURE> 109 6.661064e-03
<MEAN> 25
 4.080686e+00 -1.054889e+01 -8.306539e+00 -1.357528e+00 2.755199e+00 -4.330776e-02 -6.909648e-02 1.456724e+00 -2.568609e+00 -8.374041e+00 -5.385753e+00 6.566028e-02 -3.318007e-02 -1.321925e-01 -3.281754e-02 2.507579e-01 1.974428e-01 1.186200e-01 -1.253652e-01 -1.053167e-01 -4.052897e-02 -1.311216e-01 2.190192e-01 1.214050e-02 -3.517575e-03
<VARIANCE> 25
 9.092546e+00 1.828937e+01 1.999285e+01 3.143791e+01 4.086049e+01 3.679074e+01 4.662664e+01 3.437473e+01 4.608085e+01 3.525097e+01 2.957159e+01 2.818706e+01 1.929348e-01 4.229331e-01 5.382493e-01 6.343631e-01 1.231757e+00 9.937706e-01 1.258301e+00 1.093815e+00 1.117408e+00 9.520933e-01 8.779027e-01 8.853053e-01 1.820073e-04
<GCONST> 7.445708e+01
<MIXTURE> 110 6.661064e-03
<MEAN> 25
 4.080686e+00 -1.054889e+01 -8.306539e+00 -1.357528e+00 2.755199e+00 -4.330776e-02 -6.909648e-02 1.456724e+00 -2.568609e+00 -8.374041e+00 -5.385753e+00 6.566028e-02 -3.318007e-02 -1.321925e-01 -3.281754e-02 2.507579e-01 1.974428e-01 1.186200e-01 -1.253652e-01 -1.053167e-01 -4.052897e-02 -1.311216e-01 2.190192e-01 1.214050e-02 -3.517575e-03
<VARIANCE> 25
 9.092546e+00 1.828937e+01 1.999285e+01 3.143791e+01 4.086049e+01 3.679074e+01 4.662664e+01 3.437473e+01 4.608085e+01 3.525097e+01 2.957159e+01 2.818706e+01 1.929348e-01 4.229331e-01 5.382493e-01 6.343631e-01 1.231757e+00 9.937706e-01 1.258301e+00 1.093815e+00 1.117408e+00 9.520933e-01 8.779027e-01 8.853053e-01 1.820073e-04
<GCONST> 7.445708e+01
<MIXTURE> 111 4.337247e-03
<MEAN> 25
 -4.434335e+00 -8.171889e-01 -1.767151e+00 1.749586e+00 1.054428e+00 9.459555e-01 3.523973e-01 9.533051e-02 1.917151e-01 -5.297214e-01 -6.357223e-01 1.952864e+00 -2.048437e-02 -2.390259e-02 -7.666601e-02 -7.974981e-02 -3.554390e-02 1.358731e-02 9.450712e-03 -4.583898e-02 -1.480095e-01 -2.077764e-01 -1.877334e-01 -1.097104e-01 -3.725253e-04
<VARIANCE> 25
 6.955330e+00 5.479588e+00 1.028930e+01 9.410110e+00 1.326255e+01 2.350947e+01 1.448192e+01 1.373231e+01 1.194084e+01 1.185256e+01 1.362237e+01 1.141964e+01 7.856155e-02 1.703279e-01 2.747844e-01 4.150390e-01 5.611809e-01 6.940907e-01 7.933336e-01 8.528439e-01 8.929087e-01 8.548189e-01 8.506665e-01 8.452134e-01 2.345073e-05
<GCONST> 5.611564e+01
<MIXTURE> 112 4.337247e-03
<MEAN> 25
 -4.434335e+00 -8.171889e-01 -1.767151e+00 1.749586e+00 1.054428e+00 9.459555e-01 3.523973e-01 9.533051e-02 1.917151e-01 -5.297214e-01 -6.357223e-01 1.952864e+00 -2.048437e-02 -2.390259e-02 -7.666601e-02 -7.974981e-02 -3.554390e-02 1.358731e-02 9.450712e-03 -4.583898e-02 -1.480095e-01 -2.077764e-01 -1.877334e-01 -1.097104e-01 -3.725253e-04
<VARIANCE> 25
 6.955330e+00 5.479588e+00 1.028930e+01 9.410110e+00 1.326255e+01 2.350947e+01 1.448192e+01 1.373231e+01 1.194084e+01 1.185256e+01 1.362237e+01 1.141964e+01 7.856155e-02 1.703279e-01 2.747844e-01 4.150390e-01 5.611809e-01 6.940907e-01 7.933336e-01 8.528439e-01 8.929087e-01 8.548189e-01 8.506665e-01 8.452134e-01 2.345073e-05
<GCONST> 5.611564e+01
<MIXTURE> 113 5.938666e-03
<MEAN> 25
 9.978361e+00 1.754849e+00 -8.781179e+00 -1.704819e+01 -1.034154e+00 5.659626e+00 -5.281546e+00 -1.466299e+00 -5.696068e+00 -4.935590e-01 2.989944e-01 -1.980413e-01 4.834068e-03 1.392861e-02 -5.956640e-02 -1.133875e-01 1.043113e-01 1.505360e-01 5.940567e-02 3.611936e-02 -5.700029e-02 -5.130941e-02 1.796730e-01 3.532126e-02 -1.411485e-03
<VARIANCE> 25
 8.871059e+00 1.639263e+01 2.967667e+01 3.419221e+01 5.273658e+01 3.386478e+01 3.971328e+01 3.914247e+01 3.737436e+01 4.640392e+01 3.629718e+01 2.844471e+01 1.217934e-01 3.207515e-01 3.161669e-01 6.313974e-01 6.128393e-01 6.536946e-01 7.767369e-01 8.452150e-01 9.594115e-01 9.052807e-01 7.244963e-01 7.136735e-01 1.247990e-04
<GCONST> 7.110480e+01
<MIXTURE> 114 5.938666e-03
<MEAN> 25
 9.978361e+00 1.754849e+00 -8.781179e+00 -1.704819e+01 -1.034154e+00 5.659626e+00 -5.281546e+00 -1.466299e+00 -5.696068e+00 -4.935590e-01 2.989944e-01 -1.980413e-01 4.834068e-03 1.392861e-02 -5.956640e-02 -1.133875e-01 1.043113e-01 1.505360e-01 5.940567e-02 3.611936e-02 -5.700029e-02 -5.130941e-02 1.796730e-01 3.532126e-02 -1.411485e-03
<VARIANCE> 25
 8.871059e+00 1.639263e+01 2.967667e+01 3.419221e+01 5.273658e+01 3.386478e+01 3.971328e+01 3.914247e+01 3.737436e+01 4.640392e+01 3.629718e+01 2.844471e+01 1.217934e-01 3.207515e-01 3.161669e-01 6.313974e-01 6.128393e-01 6.536946e-01 7.767369e-01 8.452150e-01 9.594115e-01 9.052807e-01 7.244963e-01 7.136735e-01 1.247990e-04
<GCONST> 7.110480e+01
<MIXTURE> 115 2.935202e-03
<MEAN> 25
 -3.820921e+00 -3.035325e-01 -3.317582e+00 3.698843e+00 2.730891e+00 -1.330750e-01 2.188196e+00 4.247752e-02 1.345043e+00 -1.142138e-01 -9.314661e-02 2.670983e+00 2.838060e-02 -1.079469e-01 -1.637483e-01 -4.250609e-01 -6.704776e-01 -6.811057e-01 -5.964341e-01 -5.558051e-01 -4.979500e-01 -4.577724e-01 -3.258806e-01 -1.407496e-01 -4.998403e-05
<VARIANCE> 25
 9.495574e+00 1.261724e+01 1.350323e+01 1.205329e+01 1.457420e+01 1.821470e+01 1.624683e+01 2.198350e+01 1.703934e+01 1.647292e+01 1.862155e+01 1.389442e+01 1.931684e-01 3.519181e-01 5.624915e-01 5.399230e-01 6.401666e-01 7.798650e-01 9.639846e-01 1.149349e+00 1.043058e+00 9.496718e-01 9.998586e-01 1.050796e+00 1.031662e-06
<GCONST> 6.026099e+01
<MIXTURE> 116 2.935202e-03
<MEAN> 25
 -3.820921e+00 -3.035325e-01 -3.317582e+00 3.698843e+00 2.730891e+00 -1.330750e-01 2.188196e+00 4.247752e-02 1.345043e+00 -1.142138e-01 -9.314661e-02 2.670983e+00 2.838060e-02 -1.079469e-01 -1.637483e-01 -4.250609e-01 -6.704776e-01 -6.811057e-01 -5.964341e-01 -5.558051e-01 -4.979500e-01 -4.577724e-01 -3.258806e-01 -1.407496e-01 -4.998403e-05
<VARIANCE> 25
 9.495574e+00 1.261724e+01 1.350323e+01 1.205329e+01 1.457420e+01 1.821470e+01 1.624683e+01 2.198350e+01 1.703934e+01 1.647292e+01 1.862155e+01 1.389442e+01 1.931684e-01 3.519181e-01 5.624915e-01 5.399230e-01 6.401666e-01 7.798650e-01 9.639846e-01 1.149349e+00 1.043058e+00 9.496718e-01 9.998586e-01 1.050796e+00 1.031662e-06
<GCONST> 6.026099e+01
<MIXTURE> 117 6.506003e-03
<MEAN> 25
 -4.635300e+00 1.129899e+00 1.036925e+00 9.747987e+00 6.271077e+00 6.260733e+00 6.458635e+00 5.026314e+00 6.377764e+00 4.920720e+00 6.357269e+00 2.711410e+00 -7.529666e-02 -2.340133e-01 -3.578512e-01 -4.209023e-01 -3.686251e-01 -3.010874e-01 -2.870321e-01 -3.313740e-01 -3.898080e-01 -3.706555e-01 -2.660137e-01 -1.179049e-01 -1.410547e-05
<VARIANCE> 25
 7.214156e+00 8.805882e+00 9.941414e+00 1.433756e+01 1.564591e+01 1.532796e+01 1.770912e+01 1.808765e+01 1.640493e+01 1.637403e+01 1.675916e+01 1.472557e+01 2.162304e-01 3.069701e-01 4.255638e-01 6.163506e-01 8.533261e-01 1.054727e+00 1.176126e+00 1.232423e+00 1.224140e+00 1.194765e+00 1.169117e+00 1.113656e+00 1.011683e-06
<GCONST> 6.046437e+01
<MIXTURE> 118 6.506003e-03
<MEAN> 25
 -4.635300e+00 1.129899e+00 1.036925e+00 9.747987e+00 6.271077e+00 6.260733e+00 6.458635e+00 5.026314e+00 6.377764e+00 4.920720e+00 6.357269e+00 2.711410e+00 -7.529666e-02 -2.340133e-01 -3.578512e-01 -4.209023e-01 -3.686251e-01 -3.010874e-01 -2.870321e-01 -3.313740e-01 -3.898080e-01 -3.706555e-01 -2.660137e-01 -1.179049e-01 -1.410547e-05
<VARIANCE> 25
 7.214156e+00 8.805882e+00 9.941414e+00 1.433756e+01 1.564591e+01 1.532796e+01 1.770912e+01 1.808765e+01 1.640493e+01 1.637403e+01 1.675916e+01 1.472557e+01 2.162304e-01 3.069701e-01 4.255638e-01 6.163506e-01 8.533261e-01 1.054727e+00 1.176126e+00 1.232423e+00 1.224140e+00 1.194765e+00 1.169117e+00 1.113656e+00 1.011683e-06
<GCONST> 6.046437e+01
<MIXTURE> 119 4.297961e-03
<MEAN> 25
 -4.975226e+00 -7.630916e+00 2.230872e+00 2.018632e+00 2.241560e+00 2.067976e-01 5.275193e+00 5.936940e+00 1.168676e+00 9.687338e-01 6.612148e+00 1.570403e+00 -4.996173e-02 -7.929455e-02 3.734678e-02 -5.729415e-02 -1.260554e-01 -1.800685e-01 -6.912147e-02 -1.384783e-02 -9.169114e-02 -1.117722e-01 -5.498463e-02 -5.809562e-02 1.114199e-03
<VARIANCE> 25
 8.501505e+00 9.840438e+00 1.655841e+01 2.018478e+01 2.286669e+01 2.319710e+01 2.498849e+01 2.649373e+01 2.504786e+01 2.806603e+01 2.040008e+01 2.040158e+01 1.603726e-01 2.825211e-01 4.596333e-01 6.328123e-01 8.032162e-01 1.003671e+00 1.099722e+00 1.277258e+00 1.286178e+00 1.245722e+00 1.191982e+00 1.112154e+00 2.316396e-04
<GCONST> 6.971913e+01
<MIXTURE> 120 4.297961e-03
<MEAN> 25
 -4.975226e+00 -7.630916e+00 2.230872e+00 2.018632e+00 2.241560e+00 2.067976e-01 5.275193e+00 5.936940e+00 1.168676e+00 9.687338e-01 6.612148e+00 1.570403e+00 -4.996173e-02 -7.929455e-02 3.734678e-02 -5.729415e-02 -1.260554e-01 -1.800685e-01 -6.912147e-02 -1.384783e-02 -9.169114e-02 -1.117722e-01 -5.498463e-02 -5.809562e-02 1.114199e-03
<VARIANCE> 25
 8.501505e+00 9.840438e+00 1.655841e+01 2.018478e+01 2.286669e+01 2.319710e+01 2.498849e+01 2.649373e+01 2.504786e+01 2.806603e+01 2.040008e+01 2.040158e+01 1.603726e-01 2.825211e-01 4.596333e-01 6.328123e-01 8.032162e-01 1.003671e+00 1.099722e+00 1.277258e+00 1.286178e+00 1.245722e+00 1.191982e+00 1.112154e+00 2.316396e-04
<GCONST> 6.971913e+01
<MIXTURE> 121 4.567511e-03
<MEAN> 25
 2.085180e-01 -2.530030e+00 5.156806e+00 -1.290100e+01 -1.265109e+01 -1.667979e+00 9.975110e-01 -5.099650e+00 -4.202102e+00 -4.873630e-01 -5.505844e+00 -4.316528e+00 2.392947e-02 1.319461e-01 -4.238152e-02 7.950774e-02 1.583131e-01 7.885008e-02 -7.914122e-02 -1.831787e-01 -2.677623e-01 -2.572126e-01 -1.148870e-01 9.605281e-04 -7.427296e-03
<VARIANCE> 25
 7.730681e+00 1.566324e+01 1.729123e+01 2.035569e+01 2.442905e+01 2.924925e+01 2.952870e+01 2.468489e+01 3.528247e+01 2.833668e+01 1.974430e+01 2.118752e+01 1.549721e-01 6.430692e-01 6.242710e-01 7.044959e-01 7.702667e-01 1.149686e+00 1.117645e+00 1.120422e+00 1.217946e+00 1.192438e+00 9.413731e-01 8.714339e-01 2.108013e-04
<GCONST> 7.140048e+01
<MIXTURE> 122 4.567511e-03
<MEAN> 25
 2.085180e-01 -2.530030e+00 5.156806e+00 -1.290100e+01 -1.265109e+01 -1.667979e+00 9.975110e-01 -5.099650e+00 -4.202102e+00 -4.873630e-01 -5.505844e+00 -4.316528e+00 2.392947e-02 1.319461e-01 -4.238152e-02 7.950774e-02 1.583131e-01 7.885008e-02 -7.914122e-02 -1.831787e-01 -2.677623e-01 -2.572126e-01 -1.148870e-01 9.605281e-04 -7.427296e-03
<VARIANCE> 25
 7.730681e+00 1.566324e+01 1.729123e+01 2.035569e+01 2.442905e+01 2.924925e+01 2.952870e+01 2.468489e+01 3.528247e+01 2.833668e+01 1.974430e+01 2.118752e+01 1.549721e-01 6.430692e-01 6.242710e-01 7.044959e-01 7.702667e-01 1.149686e+00 1.117645e+00 1.120422e+00 1.217946e+00 1.192438e+00 9.413731e-01 8.714339e-01 2.108013e-04
<GCONST> 7.140048e+01
<MIXTURE> 123 4.393044e-03
<MEAN> 25
 -3.343346e+00 2.964850e+00 -1.745081e+00 6.003104e+00 6.325054e+00 4.156217e+00 4.067312e+00 -8.251701e-01 1.185580e+00 -9.656096e-01 -4.425248e-01 1.512393e+00 -3.304360e-01 -5.910801e-01 -7.908670e-01 -5.799151e-01 -1.668951e-01 1.622590e-01 3.003815e-01 7.629949e-01 7.869453e-01 4.980963e-01 4.783225e-01 4.080939e-01 -3.130079e-03
<VARIANCE> 25
 9.114236e+00 1.477494e+01 1.856794e+01 1.352438e+01 2.041262e+01 2.234571e+01 2.089954e+01 2.011794e+01 1.805764e+01 1.585643e+01 1.885879e+01 1.781006e+01 3.370431e-01 3.578061e-01 4.499300e-01 7.583110e-01 8.698684e-01 1.051887e+00 9.811323e-01 1.230642e+00 1.089161e+00 1.163052e+00 1.150190e+00 1.336744e+00 9.758623e-05
<GCONST> 6.835452e+01
<MIXTURE> 124 4.069876e-03
<MEAN> 25
 -6.082549e+00 -4.282216e-01 -3.288927e+00 5.131133e+00 5.292280e+00 3.621587e+00 5.398997e+00 1.907520e+00 3.283893e+00 1.031518e+00 8.749513e-01 3.111272e+00 -1.888008e-01 -3.178092e-01 -3.778956e-01 -2.292694e-01 1.332887e-01 5.206956e-01 7.827566e-01 8.566801e-01 6.215816e-01 2.545799e-01 3.450899e-02 -4.616639e-02 -1.265245e-04
<VARIANCE> 25
 1.230208e+01 1.222609e+01 1.160995e+01 1.167002e+01 1.275911e+01 1.954904e+01 1.552293e+01 2.075596e+01 1.471882e+01 1.637213e+01 1.892973e+01 1.409181e+01 1.021815e-01 1.586882e-01 2.588878e-01 3.951756e-01 5.910137e-01 6.601114e-01 7.197825e-01 8.016735e-01 9.301502e-01 1.045968e+00 9.979808e-01 9.797181e-01 1.986361e-05
<GCONST> 5.946518e+01
<MIXTURE> 125 4.069876e-03
<MEAN> 25
 -6.082549e+00 -4.282216e-01 -3.288927e+00 5.131133e+00 5.292280e+00 3.621587e+00 5.398997e+00 1.907520e+00 3.283893e+00 1.031518e+00 8.749513e-01 3.111272e+00 -1.888008e-01 -3.178092e-01 -3.778956e-01 -2.292694e-01 1.332887e-01 5.206956e-01 7.827566e-01 8.566801e-01 6.215816e-01 2.545799e-01 3.450899e-02 -4.616639e-02 -1.265245e-04
<VARIANCE> 25
 1.230208e+01 1.222609e+01 1.160995e+01 1.167002e+01 1.275911e+01 1.954904e+01 1.552293e+01 2.075596e+01 1.471882e+01 1.637213e+01 1.892973e+01 1.409181e+01 1.021815e-01 1.586882e-01 2.588878e-01 3.951756e-01 5.910137e-01 6.601114e-01 7.197825e-01 8.016735e-01 9.301502e-01 1.045968e+00 9.979808e-01 9.797181e-01 1.986361e-05
<GCONST> 5.946518e+01
<MIXTURE> 126 2.402244e-03
<MEAN> 25
 -3.785427e+00 -6.911900e+00 -5.282470e+00 2.326976e+00 4.285615e+00 -3.227714e+00 7.642271e-02 3.537628e+00 3.344318e+00 -2.692153e+00 -1.427261e+00 3.056644e+00 -2.586335e-03 -6.096079e-03 -3.558706e-02 -1.581064e-01 -3.182873e-01 -3.891921e-01 -2.731747e-01 -1.573067e-01 -1.141987e-01 -1.160042e-01 -9.851147e-02 -3.152690e-02 -1.490026e-03
<VARIANCE> 25
 7.423879e+00 1.292827e+01 1.382879e+01 1.511843e+01 2.466412e+01 2.376836e+01 2.272524e+01 2.849027e+01 3.123536e+01 2.621969e+01 2.173367e+01 1.915698e+01 1.705292e-01 3.518425e-01 4.823454e-01 5.663097e-01 7.524443e-01 9.957556e-01 1.121241e+00 1.260952e+00 1.327953e+00 1.309492e+00 1.212092e+00 1.147212e+00 2.106231e-04
<GCONST> 6.980405e+01
<MIXTURE> 127 2.402244e-03
<MEAN> 25
 -3.785427e+00 -6.911900e+00 -5.282470e+00 2.326976e+00 4.285615e+00 -3.227714e+00 7.642271e-02 3.537628e+00 3.344318e+00 -2.692153e+00 -1.427261e+00 3.056644e+00 -2.586335e-03 -6.096079e-03 -3.558706e-02 -1.581064e-01 -3.182873e-01 -3.891921e-01 -2.731747e-01 -1.573067e-01 -1.141987e-01 -1.160042e-01 -9.851147e-02 -3.152690e-02 -1.490026e-03
<VARIANCE> 25
 7.423879e+00 1.292827e+01 1.382879e+01 1.511843e+01 2.466412e+01 2.376836e+01 2.272524e+01 2.849027e+01 3.123536e+01 2.621969e+01 2.173367e+01 1.915698e+01 1.705292e-01 3.518425e-01 4.823454e-01 5.663097e-01 7.524443e-01 9.957556e-01 1.121241e+00 1.260952e+00 1.327953e+00 1.309492e+00 1.212092e+00 1.147212e+00 2.106231e-04
<GCONST> 6.980405e+01
<MIXTURE> 128 3.790457e-03
<MEAN> 25
 -3.869959e+00 1.663203e+00 -4.873183e-01 6.642892e+00 3.818630e+00 1.966667e+00 3.664764e+00 2.315145e+00 3.964494e+00 3.668195e+00 3.647680e+00 3.542709e+00 -3.880914e-01 -2.010338e-01 8.282236e-02 6.927997e-01 1.181185e+00 1.144349e+00 7.322910e-01 1.885537e-01 -4.640580e-01 -8.497921e-01 -7.066802e-01 -4.085834e-01 -1.112484e-04
<VARIANCE> 25
 1.016153e+01 1.209322e+01 1.562767e+01 1.911761e+01 2.134365e+01 2.123847e+01 2.412356e+01 2.428804e+01 2.584614e+01 2.340744e+01 2.690020e+01 1.782403e+01 8.759462e-01 1.122429e+00 1.347758e+00 1.520997e+00 1.549060e+00 1.827086e+00 2.212291e+00 2.431068e+00 2.131547e+00 1.990791e+00 1.707647e+00 1.720858e+00 1.230021e-06
<GCONST> 7.386388e+01
<TRANSP> 3
 0.000000e+00 1.000000e+00 0.000000e+00
 0.000000e+00 9.999990e-01 9.999998e-07
 0.000000e+00 0.000000e+00 0.000000e+00
<ENDHMM>
