~o
<STREAMINFO> 1 25
<VECSIZE> 25<NULLD><MFCC_E_D_N><DIAGC>
~h "jmodel"
<BEGINHMM>
<NUMSTATES> 3
<STATE> 2
<NUMMIXES> 128
<MIXTURE> 1 5.748963e-03
<MEAN> 25
 -2.584653e+00 3.181453e+00 2.311662e+00 8.755660e+00 4.372460e+00 3.449112e+00 4.062760e+00 3.934619e+00 5.832172e+00 5.252860e+00 5.884970e+00 3.080149e+00 -2.004669e+00 -1.635172e+00 -8.643356e-01 1.076049e+00 1.560748e+00 2.232270e+00 2.154434e+00 2.085075e+00 1.693588e+00 1.269504e+00 1.567655e+00 6.134552e-01 -4.691436e-02
<VARIANCE> 25
 1.006493e+01 1.176246e+01 1.494735e+01 1.867803e+01 2.318904e+01 2.215200e+01 2.189367e+01 2.198532e+01 2.099928e+01 2.253760e+01 2.094495e+01 1.708239e+01 1.789147e+00 2.111880e+00 3.026119e+00 3.209894e+00 3.739652e+00 3.357393e+00 3.319033e+00 3.380349e+00 3.521331e+00 3.727449e+00 3.513950e+00 2.834782e+00 3.124092e-03
<GCONST> 8.846591e+01
<MIXTURE> 2 4.549242e-03
<MEAN> 25
 -4.873856e+00 1.317790e+00 9.533740e-01 9.883585e+00 6.690988e+00 7.416162e+00 7.840183e+00 6.887194e+00 8.364029e+00 6.396803e+00 7.569285e+00 3.033198e+00 -6.298392e-02 4.410186e-02 1.447989e-01 2.212459e-01 2.632031e-01 2.826997e-01 2.938055e-01 3.076113e-01 3.395971e-01 3.099526e-01 2.050336e-01 7.226035e-02 3.808820e-06
<VARIANCE> 25
 6.895256e+00 8.840808e+00 1.077139e+01 1.581395e+01 1.712676e+01 1.545308e+01 1.678713e+01 1.895618e+01 1.648559e+01 1.743927e+01 1.836880e+01 1.443095e+01 1.243726e-01 2.257137e-01 3.351865e-01 4.661435e-01 6.544966e-01 8.088096e-01 9.255576e-01 1.026574e+00 1.066509e+00 1.071184e+00 1.077161e+00 1.015510e+00 9.933813e-07
<GCONST> 5.806157e+01
<MIXTURE> 3 4.549242e-03
<MEAN> 25
 -4.873856e+00 1.317790e+00 9.533740e-01 9.883585e+00 6.690988e+00 7.416162e+00 7.840183e+00 6.887194e+00 8.364029e+00 6.396803e+00 7.569285e+00 3.033198e+00 -6.298392e-02 4.410186e-02 1.447989e-01 2.212459e-01 2.632031e-01 2.826997e-01 2.938055e-01 3.076113e-01 3.395971e-01 3.099526e-01 2.050336e-01 7.226035e-02 3.808820e-06
<VARIANCE> 25
 6.895256e+00 8.840808e+00 1.077139e+01 1.581395e+01 1.712676e+01 1.545308e+01 1.678713e+01 1.895618e+01 1.648559e+01 1.743927e+01 1.836880e+01 1.443095e+01 1.243726e-01 2.257137e-01 3.351865e-01 4.661435e-01 6.544966e-01 8.088096e-01 9.255576e-01 1.026574e+00 1.066509e+00 1.071184e+00 1.077161e+00 1.015510e+00 9.933813e-07
<GCONST> 5.806157e+01
<MIXTURE> 4 1.671429e-02
<MEAN> 25
 3.425900e+00 2.585861e+00 -3.814482e+00 9.494456e-01 4.283144e+00 -1.908778e-01 9.793279e-02 -3.465399e-02 1.516564e+00 1.297846e+00 -1.914699e+00 7.492414e-02 -2.765581e+00 1.203675e+00 1.749945e+00 3.091237e+00 9.237756e-01 4.703671e-01 1.506329e+00 1.056955e+00 9.735065e-01 4.310412e-01 1.228902e+00 8.873782e-01 -1.030419e-01
<VARIANCE> 25
 2.123354e+01 2.949915e+01 2.907593e+01 3.971545e+01 4.595290e+01 6.833621e+01 6.502834e+01 5.359728e+01 5.514876e+01 6.184100e+01 4.948080e+01 3.581270e+01 2.361872e+00 5.033041e+00 3.785400e+00 4.903964e+00 4.982594e+00 6.214942e+00 6.069582e+00 5.558033e+00 5.918729e+00 6.384614e+00 6.115986e+00 4.451623e+00 6.148248e-03
<GCONST> 1.054541e+02
<MIXTURE> 5 3.206198e-03
<MEAN> 25
 -3.418338e+00 2.181302e+00 6.022075e-01 9.427187e+00 6.703305e+00 6.315631e+00 7.112458e+00 4.714023e+00 5.494989e+00 3.848875e+00 4.647100e+00 2.599764e+00 -3.243870e-01 7.518862e-01 1.222722e+00 1.031054e+00 3.064677e-01 -9.878771e-02 -8.110940e-02 3.566251e-02 4.593120e-01 6.834908e-01 4.030817e-01 8.785298e-02 -2.858935e-05
<VARIANCE> 25
 1.023573e+01 1.392166e+01 2.349208e+01 2.557992e+01 2.023345e+01 1.939815e+01 2.009265e+01 2.038802e+01 2.140105e+01 2.126533e+01 2.414863e+01 1.636776e+01 1.208335e+00 1.243021e+00 1.357906e+00 1.672888e+00 2.283990e+00 2.374213e+00 2.304251e+00 2.279823e+00 2.316504e+00 2.235280e+00 2.084452e+00 1.873484e+00 1.000352e-06
<GCONST> 7.516087e+01
<MIXTURE> 6 5.475854e-03
<MEAN> 25
 9.795898e+00 -5.774544e-01 -6.494078e+00 -1.140046e+01 -2.194483e+00 7.413967e+00 -7.158405e+00 -5.520900e+00 -3.553689e+00 1.826766e+00 5.595110e+00 -7.640464e-01 5.410446e-01 8.428394e-01 -5.959159e-01 -1.671389e+00 -6.390187e-01 1.374588e+00 1.510511e+00 5.899139e-01 -1.080856e+00 -1.062050e+00 3.488974e-01 1.162949e+00 -2.143089e-03
<VARIANCE> 25
 7.619557e+00 1.471909e+01 2.169774e+01 3.555856e+01 3.187788e+01 2.786485e+01 4.421574e+01 3.677138e+01 3.393142e+01 3.290458e+01 3.921360e+01 2.460321e+01 2.951701e-01 7.643865e-01 1.069951e+00 1.868952e+00 1.531430e+00 2.022551e+00 1.617509e+00 2.663790e+00 2.263432e+00 1.744863e+00 2.114152e+00 1.238794e+00 6.533131e-04
<GCONST> 8.218631e+01
<MIXTURE> 7 5.475854e-03
<MEAN> 25
 9.795898e+00 -5.774544e-01 -6.494078e+00 -1.140046e+01 -2.194483e+00 7.413967e+00 -7.158405e+00 -5.520900e+00 -3.553689e+00 1.826766e+00 5.595110e+00 -7.640464e-01 5.410446e-01 8.428394e-01 -5.959159e-01 -1.671389e+00 -6.390187e-01 1.374588e+00 1.510511e+00 5.899139e-01 -1.080856e+00 -1.062050e+00 3.488974e-01 1.162949e+00 -2.143089e-03
<VARIANCE> 25
 7.619557e+00 1.471909e+01 2.169774e+01 3.555856e+01 3.187788e+01 2.786485e+01 4.421574e+01 3.677138e+01 3.393142e+01 3.290458e+01 3.921360e+01 2.460321e+01 2.951701e-01 7.643865e-01 1.069951e+00 1.868952e+00 1.531430e+00 2.022551e+00 1.617509e+00 2.663790e+00 2.263432e+00 1.744863e+00 2.114152e+00 1.238794e+00 6.533131e-04
<GCONST> 8.218631e+01
<MIXTURE> 8 1.165917e-02
<MEAN> 25
 -4.812036e+00 1.526050e+00 1.110096e+00 9.331959e+00 6.743798e+00 6.347576e+00 6.811656e+00 5.118454e+00 6.597157e+00 5.512451e+00 6.143177e+00 2.585189e+00 -5.451461e-01 -1.628640e+00 -1.100321e+00 -1.932766e+00 -1.509893e-02 -8.354731e-01 -2.022012e-01 -2.102770e-01 -2.967862e-01 -2.609826e-01 -1.899782e-01 1.983103e-01 1.014174e-01
<VARIANCE> 25
 8.758785e+00 9.561823e+00 1.118852e+01 1.558766e+01 1.579799e+01 1.495224e+01 1.837189e+01 2.018790e+01 1.597389e+01 1.634647e+01 1.974551e+01 1.698653e+01 2.657262e+00 3.145320e+00 3.636826e+00 4.035956e+00 3.804675e+00 3.228690e+00 2.912493e+00 2.950819e+00 2.705920e+00 2.556709e+00 2.291392e+00 1.937616e+00 6.313657e-03
<GCONST> 8.612580e+01
<MIXTURE> 9 1.199672e-02
<MEAN> 25
 9.287617e+00 3.347435e+00 -6.157480e+00 -1.063360e+01 -2.184903e+00 4.978586e+00 -2.310511e+00 -2.370112e+00 -5.339346e+00 -1.202215e+00 6.091952e-01 -1.995324e-02 1.442081e+00 -1.307551e-01 -4.912598e-01 -2.702826e+00 -1.647226e+00 8.875725e-01 -9.606104e-01 -2.399977e-01 -1.938123e-01 -5.791810e-01 6.313412e-01 -1.413511e-01 7.281733e-02
<VARIANCE> 25
 1.213677e+01 2.151882e+01 3.357700e+01 5.320242e+01 4.985964e+01 3.205594e+01 4.432648e+01 5.226105e+01 4.206590e+01 4.150269e+01 3.600661e+01 2.669026e+01 2.070512e+00 2.432874e+00 4.532373e+00 4.858705e+00 4.978940e+00 4.189653e+00 4.215182e+00 6.012136e+00 5.055030e+00 4.044584e+00 4.046712e+00 2.795153e+00 2.225189e-03
<GCONST> 9.877239e+01
<MIXTURE> 10 6.596976e-03
<MEAN> 25
 8.184399e-01 7.635782e+00 5.373189e+00 7.149709e+00 1.585978e+00 -2.116035e+00 -5.155104e-01 -1.685867e+00 8.749023e-01 8.579111e-01 8.384524e-01 6.582894e-01 -1.924292e+00 -6.730968e-01 -4.585162e-01 3.027406e+00 2.462692e+00 2.710103e+00 2.373220e+00 2.277185e+00 1.860990e+00 1.544713e+00 2.335231e+00 5.245140e-01 -1.381261e-01
<VARIANCE> 25
 1.956026e+01 2.068662e+01 2.232285e+01 2.905615e+01 3.830935e+01 3.493921e+01 3.516160e+01 3.383422e+01 2.760723e+01 2.905703e+01 2.695502e+01 2.501153e+01 2.236123e+00 3.425714e+00 5.534059e+00 5.170467e+00 5.551927e+00 4.469231e+00 4.701254e+00 4.845020e+00 4.388723e+00 5.021422e+00 4.442780e+00 3.191056e+00 2.697750e-03
<GCONST> 9.746244e+01
<MIXTURE> 11 1.633820e-02
<MEAN> 25
 7.792969e+00 4.944770e+00 3.194417e+00 3.686054e+00 -3.763926e+00 -8.658922e-01 -1.211249e+00 -7.037883e+00 -3.681834e+00 3.928175e-01 -2.758502e+00 -2.126785e+00 -3.288772e-01 5.658035e-01 -5.013699e-02 4.481371e-01 4.228501e-01 -1.953701e-01 4.010820e-01 -1.939892e-01 9.147362e-02 -1.593840e-01 -2.873093e-01 1.163966e-01 -1.745461e-02
<VARIANCE> 25
 9.829037e+00 2.271767e+01 1.972396e+01 3.642253e+01 3.424001e+01 5.131813e+01 4.694075e+01 4.297057e+01 3.996738e+01 3.125139e+01 3.212554e+01 2.783403e+01 1.005346e+00 1.073230e+00 1.669917e+00 2.033936e+00 1.928522e+00 2.485931e+00 1.884259e+00 3.555024e+00 2.357607e+00 1.856040e+00 1.910423e+00 1.602246e+00 8.422971e-04
<GCONST> 8.722280e+01
<MIXTURE> 12 5.904134e-03
<MEAN> 25
 1.051398e+01 3.902429e+00 -5.267627e+00 -1.596526e+01 -7.606855e+00 8.892948e+00 -1.462982e+00 -1.481729e+00 -1.277039e+00 -3.693552e+00 2.226831e+00 1.091485e+00 -2.879475e-02 5.137722e-01 9.736206e-02 -2.508523e-01 -3.928069e-01 -1.784190e-01 5.613247e-01 4.773088e-01 3.203280e-01 -4.274929e-01 -5.676422e-01 2.699421e-02 -1.043284e-02
<VARIANCE> 25
 8.801321e+00 1.826018e+01 2.333237e+01 3.641641e+01 3.730858e+01 2.587160e+01 3.981150e+01 4.724408e+01 3.659379e+01 3.426159e+01 3.529769e+01 2.429316e+01 2.762683e-01 7.548220e-01 6.720201e-01 1.229472e+00 1.227732e+00 1.050202e+00 1.203385e+00 1.454920e+00 1.361308e+00 1.010672e+00 1.161202e+00 8.272247e-01 6.670111e-04
<GCONST> 7.809300e+01
<MIXTURE> 13 5.904134e-03
<MEAN> 25
 1.051398e+01 3.902429e+00 -5.267627e+00 -1.596526e+01 -7.606855e+00 8.892948e+00 -1.462982e+00 -1.481729e+00 -1.277039e+00 -3.693552e+00 2.226831e+00 1.091485e+00 -2.879475e-02 5.137722e-01 9.736206e-02 -2.508523e-01 -3.928069e-01 -1.784190e-01 5.613247e-01 4.773088e-01 3.203280e-01 -4.274929e-01 -5.676422e-01 2.699421e-02 -1.043284e-02
<VARIANCE> 25
 8.801321e+00 1.826018e+01 2.333237e+01 3.641641e+01 3.730858e+01 2.587160e+01 3.981150e+01 4.724408e+01 3.659379e+01 3.426159e+01 3.529769e+01 2.429316e+01 2.762683e-01 7.548220e-01 6.720201e-01 1.229472e+00 1.227732e+00 1.050202e+00 1.203385e+00 1.454920e+00 1.361308e+00 1.010672e+00 1.161202e+00 8.272247e-01 6.670111e-04
<GCONST> 7.809300e+01
<MIXTURE> 14 6.488954e-03
<MEAN> 25
 -4.341883e+00 -4.304012e-01 -3.085933e-01 8.977756e+00 7.521049e+00 7.292516e+00 7.788531e+00 7.276284e+00 7.234793e+00 5.168451e+00 6.755131e+00 4.038855e+00 -2.660690e-01 1.987817e-01 3.579133e-01 3.095477e-01 5.858257e-03 6.157064e-02 8.285287e-02 1.571401e-01 2.958180e-01 5.432777e-01 5.056927e-01 8.296093e-02 -9.512135e-03
<VARIANCE> 25
 9.203941e+00 1.393914e+01 1.856369e+01 1.795746e+01 2.079889e+01 2.001930e+01 2.136469e+01 2.078474e+01 2.013192e+01 2.388382e+01 2.207235e+01 1.611210e+01 9.552028e-01 1.635844e+00 1.761515e+00 1.937807e+00 2.220416e+00 2.242474e+00 2.243764e+00 2.288737e+00 2.262916e+00 2.478577e+00 2.180407e+00 1.800745e+00 1.023889e-03
<GCONST> 8.191081e+01
<MIXTURE> 15 2.475190e-03
<MEAN> 25
 -5.416408e+00 -6.141919e-01 -2.585458e-01 7.485021e+00 5.843683e+00 5.661533e+00 6.109411e+00 4.821760e+00 5.059047e+00 4.067375e+00 5.212307e+00 2.363776e+00 -1.202068e-01 -2.883777e-02 6.571487e-02 2.515889e-01 4.881742e-01 7.841088e-01 1.090649e+00 1.215484e+00 1.078758e+00 7.340512e-01 3.953304e-01 1.549784e-01 -1.667247e-04
<VARIANCE> 25
 6.806805e+00 5.744226e+00 9.377793e+00 1.277541e+01 1.511431e+01 1.392442e+01 1.453669e+01 1.531878e+01 1.398701e+01 1.427714e+01 1.668122e+01 1.302816e+01 1.221192e-01 1.991382e-01 3.211575e-01 4.937832e-01 6.961709e-01 7.759605e-01 7.828053e-01 8.546922e-01 9.300342e-01 1.012673e+00 1.071315e+00 1.047193e+00 2.757459e-05
<GCONST> 5.881289e+01
<MIXTURE> 16 2.475190e-03
<MEAN> 25
 -5.416408e+00 -6.141919e-01 -2.585458e-01 7.485021e+00 5.843683e+00 5.661533e+00 6.109411e+00 4.821760e+00 5.059047e+00 4.067375e+00 5.212307e+00 2.363776e+00 -1.202068e-01 -2.883777e-02 6.571487e-02 2.515889e-01 4.881742e-01 7.841088e-01 1.090649e+00 1.215484e+00 1.078758e+00 7.340512e-01 3.953304e-01 1.549784e-01 -1.667247e-04
<VARIANCE> 25
 6.806805e+00 5.744226e+00 9.377793e+00 1.277541e+01 1.511431e+01 1.392442e+01 1.453669e+01 1.531878e+01 1.398701e+01 1.427714e+01 1.668122e+01 1.302816e+01 1.221192e-01 1.991382e-01 3.211575e-01 4.937832e-01 6.961709e-01 7.759605e-01 7.828053e-01 8.546922e-01 9.300342e-01 1.012673e+00 1.071315e+00 1.047193e+00 2.757459e-05
<GCONST> 5.881289e+01
<MIXTURE> 17 9.518312e-03
<MEAN> 25
 3.597166e+00 -1.464935e+00 6.520631e+00 1.663192e+00 -5.488529e+00 -7.009981e+00 -3.433495e+00 8.180990e-01 -2.267146e+00 -3.080425e+00 -3.489571e-01 -9.690198e-02 -7.725505e-01 -1.201364e+00 1.428083e+00 -2.184582e+00 -2.311574e+00 -3.855979e-01 -1.012384e-01 8.509994e-01 -5.674040e-01 -1.522291e-01 1.118329e+00 4.040441e-01 7.777492e-02
<VARIANCE> 25
 1.508892e+01 3.970659e+01 2.787369e+01 4.025975e+01 4.726775e+01 4.674474e+01 3.997701e+01 4.142343e+01 4.084814e+01 2.457386e+01 3.445070e+01 2.522824e+01 1.737025e+00 2.421177e+00 3.796942e+00 2.849587e+00 3.902200e+00 5.918529e+00 5.126308e+00 4.333547e+00 4.465493e+00 3.657915e+00 2.785918e+00 2.513474e+00 2.064137e-03
<GCONST> 9.677183e+01
<MIXTURE> 18 1.221018e-02
<MEAN> 25
 3.932616e+00 4.565425e+00 6.757244e+00 4.643680e+00 -4.758827e+00 -8.437160e+00 -1.732288e+00 -1.062363e+00 -3.541365e+00 -2.419111e+00 -8.211988e-01 4.756644e-01 -7.404476e-01 2.143055e+00 -2.085495e-01 2.034430e+00 3.069971e+00 1.474723e+00 8.311457e-01 -2.185212e-01 6.852673e-01 5.003109e-01 -2.701136e-01 -6.439771e-02 -1.225541e-01
<VARIANCE> 25
 1.589471e+01 2.582690e+01 3.240821e+01 2.617979e+01 4.034238e+01 3.365154e+01 3.801543e+01 3.537433e+01 4.006746e+01 3.397818e+01 3.219966e+01 3.119622e+01 2.558472e+00 2.988116e+00 4.648018e+00 4.015259e+00 4.115924e+00 4.606882e+00 4.610172e+00 4.588106e+00 4.632543e+00 4.273564e+00 4.505280e+00 3.585594e+00 4.112215e-03
<GCONST> 9.848238e+01
<MIXTURE> 19 9.912824e-03
<MEAN> 25
 -1.017474e+01 1.970827e+00 1.773705e-01 1.390241e+00 3.886547e+00 1.539906e+00 3.500711e+00 1.052137e+00 2.238893e+00 9.794633e-01 1.102385e+00 2.037360e+00 2.016686e+00 1.770070e+00 2.127697e+00 7.711715e-01 -1.029931e+00 -9.895357e-01 -1.021404e+00 -1.397863e+00 -1.452445e+00 -1.147377e+00 -8.489025e-01 -7.658249e-01 1.973568e-03
<VARIANCE> 25
 5.225842e+01 3.022237e+01 4.764555e+01 5.531771e+01 3.329578e+01 3.239436e+01 3.088943e+01 2.979001e+01 2.896433e+01 2.825119e+01 2.952617e+01 1.942886e+01 2.593302e+00 2.275540e+00 2.175166e+00 2.366482e+00 2.548451e+00 2.262130e+00 2.444917e+00 2.360899e+00 2.112180e+00 2.056331e+00 2.223436e+00 1.817077e+00 2.386560e-03
<GCONST> 9.180135e+01
<MIXTURE> 20 6.308331e-03
<MEAN> 25
 -1.409203e+01 7.450980e+00 7.498288e-01 6.172274e+00 4.819204e+00 1.557051e+00 5.263709e+00 8.585382e-01 9.213748e-01 7.863501e-01 2.532583e+00 -3.289866e-01 -3.288418e+00 -8.636937e-01 -1.558023e+00 3.550070e-01 1.547711e+00 2.029547e+00 1.949414e+00 2.024820e+00 2.135063e+00 2.035218e+00 1.695500e+00 9.334844e-01 4.726626e-02
<VARIANCE> 25
 2.023240e+01 2.337387e+01 3.152954e+01 3.683516e+01 3.060019e+01 2.822480e+01 2.992428e+01 3.116684e+01 2.768949e+01 2.794960e+01 2.503717e+01 2.078523e+01 2.072773e+00 2.162661e+00 1.895732e+00 2.564927e+00 2.682974e+00 2.398401e+00 2.373674e+00 2.394214e+00 2.221541e+00 2.631324e+00 2.232233e+00 1.861291e+00 1.869571e-03
<GCONST> 8.925740e+01
<MIXTURE> 21 7.928653e-03
<MEAN> 25
 2.911000e+00 -6.169284e+00 7.435515e+00 -5.329186e+00 -9.074727e+00 -1.166992e+01 -4.300258e+00 5.974744e+00 -3.317683e+00 -3.155355e+00 -2.849921e-01 2.143607e+00 -6.857898e-01 1.630426e+00 2.336564e+00 -2.849018e-01 -1.204284e+00 3.200363e-01 5.112178e-01 -1.759281e+00 -2.338584e+00 1.374240e-01 9.926348e-01 1.646019e-03 -1.714477e-02
<VARIANCE> 25
 8.776993e+00 2.285283e+01 2.699635e+01 4.628238e+01 2.299622e+01 4.121222e+01 3.518447e+01 3.736991e+01 4.359923e+01 2.463518e+01 3.358332e+01 2.311479e+01 2.727603e-01 9.338548e-01 1.746655e+00 1.226473e+00 2.057195e+00 1.802706e+00 2.888830e+00 2.013215e+00 2.313639e+00 1.924404e+00 2.474990e+00 2.648546e+00 3.519591e-04
<GCONST> 8.393501e+01
<MIXTURE> 22 8.827789e-03
<MEAN> 25
 -1.750327e+01 7.417301e+00 -4.118406e+00 8.494979e+00 4.419934e+00 2.721371e+00 8.381926e+00 1.309815e+00 5.501121e+00 1.587498e+00 5.102826e+00 1.354898e+00 -3.074468e-01 -4.784107e-02 -1.993978e-01 1.184974e-02 -7.892292e-02 -1.319423e-01 -7.766142e-03 5.344196e-02 2.362449e-01 1.926656e-01 4.703570e-02 3.731603e-01 8.943736e-03
<VARIANCE> 25
 8.388297e+00 1.524271e+01 1.529218e+01 2.966089e+01 2.095392e+01 1.955461e+01 1.720707e+01 1.773988e+01 1.652029e+01 3.671730e+01 1.917725e+01 1.243059e+01 1.035587e+00 1.544963e+00 1.263620e+00 1.594112e+00 1.264199e+00 1.926578e+00 1.582055e+00 1.494136e+00 1.427473e+00 1.396839e+00 1.323678e+00 1.231786e+00 1.546533e-03
<GCONST> 7.816140e+01
<MIXTURE> 23 6.455497e-03
<MEAN> 25
 7.976655e+00 2.809711e+00 2.488656e+00 1.778870e+00 -4.377141e+00 -1.473934e+00 -3.215451e+00 -7.036133e+00 -3.115483e+00 -6.425606e-01 -4.228514e+00 -1.801845e+00 4.045691e-02 2.275887e-01 -3.987432e-03 6.295307e-02 1.715304e-03 -8.672632e-02 3.270411e-02 2.005139e-02 3.396618e-02 -1.069608e-01 -7.249643e-02 1.436806e-01 -3.906941e-03
<VARIANCE> 25
 9.262687e+00 2.006908e+01 2.366937e+01 3.807995e+01 3.490514e+01 6.470159e+01 5.690001e+01 5.010854e+01 4.290691e+01 4.174007e+01 4.232564e+01 3.666643e+01 1.071493e-01 2.958845e-01 3.725920e-01 4.607905e-01 6.886325e-01 7.662650e-01 7.176850e-01 8.513497e-01 8.401428e-01 9.083365e-01 7.902074e-01 7.718806e-01 8.353023e-05
<GCONST> 7.199126e+01
<MIXTURE> 24 6.455497e-03
<MEAN> 25
 7.976655e+00 2.809711e+00 2.488656e+00 1.778870e+00 -4.377141e+00 -1.473934e+00 -3.215451e+00 -7.036133e+00 -3.115483e+00 -6.425606e-01 -4.228514e+00 -1.801845e+00 4.045691e-02 2.275887e-01 -3.987432e-03 6.295307e-02 1.715304e-03 -8.672632e-02 3.270411e-02 2.005139e-02 3.396618e-02 -1.069608e-01 -7.249643e-02 1.436806e-01 -3.906941e-03
<VARIANCE> 25
 9.262687e+00 2.006908e+01 2.366937e+01 3.807995e+01 3.490514e+01 6.470159e+01 5.690001e+01 5.010854e+01 4.290691e+01 4.174007e+01 4.232564e+01 3.666643e+01 1.071493e-01 2.958845e-01 3.725920e-01 4.607905e-01 6.886325e-01 7.662650e-01 7.176850e-01 8.513497e-01 8.401428e-01 9.083365e-01 7.902074e-01 7.718806e-01 8.353023e-05
<GCONST> 7.199126e+01
<MIXTURE> 25 1.118642e-02
<MEAN> 25
 7.554923e-01 2.253014e+00 1.572279e+01 -2.624013e+00 -1.055725e+01 -3.505352e+00 -5.648288e+00 -1.093056e+00 -9.120330e+00 -3.733706e+00 3.555235e+00 -2.129894e+00 -1.032342e-01 3.271284e-01 9.788055e-02 1.001016e-01 1.571020e-02 4.125493e-01 2.902719e-01 -2.269494e-01 -4.822948e-01 1.711397e-01 -1.553063e-01 -2.824540e-01 -9.238354e-03
<VARIANCE> 25
 7.549168e+00 2.050043e+01 1.854201e+01 2.870767e+01 2.688507e+01 4.162333e+01 2.364563e+01 2.881602e+01 2.918615e+01 3.281525e+01 2.202215e+01 2.268712e+01 4.480929e-01 1.713722e+00 1.411761e+00 1.273683e+00 2.061125e+00 1.860146e+00 1.647488e+00 1.378762e+00 1.605198e+00 1.292513e+00 1.426185e+00 1.717517e+00 1.190303e-03
<GCONST> 8.126796e+01
<MIXTURE> 26 7.727677e-03
<MEAN> 25
 2.073861e+00 -5.988983e+00 -1.033785e+01 -2.756071e-01 8.156078e+00 5.397323e+00 3.601150e+00 -3.531948e-01 2.653271e+00 -5.770283e-01 -2.963751e+00 -1.203683e+00 -6.325921e-01 5.461467e-01 3.122029e-01 7.749799e-01 2.435494e-01 9.077727e-02 2.374446e-01 4.210073e-01 2.636875e-01 1.087476e-01 3.085502e-01 4.697216e-01 -4.914456e-02
<VARIANCE> 25
 2.405056e+01 3.704828e+01 2.429762e+01 6.457404e+01 3.966610e+01 4.064636e+01 4.705390e+01 4.183773e+01 4.003681e+01 5.427589e+01 3.819157e+01 4.554404e+01 1.571871e+00 1.955868e+00 1.874034e+00 2.028340e+00 2.421213e+00 2.595746e+00 2.438580e+00 2.783956e+00 2.306724e+00 2.245140e+00 2.160472e+00 2.020062e+00 3.347120e-03
<GCONST> 9.384340e+01
<MIXTURE> 27 7.727677e-03
<MEAN> 25
 2.073861e+00 -5.988983e+00 -1.033785e+01 -2.756071e-01 8.156078e+00 5.397323e+00 3.601150e+00 -3.531948e-01 2.653271e+00 -5.770283e-01 -2.963751e+00 -1.203683e+00 -6.325921e-01 5.461467e-01 3.122029e-01 7.749799e-01 2.435494e-01 9.077727e-02 2.374446e-01 4.210073e-01 2.636875e-01 1.087476e-01 3.085502e-01 4.697216e-01 -4.914456e-02
<VARIANCE> 25
 2.405056e+01 3.704828e+01 2.429762e+01 6.457404e+01 3.966610e+01 4.064636e+01 4.705390e+01 4.183773e+01 4.003681e+01 5.427589e+01 3.819157e+01 4.554404e+01 1.571871e+00 1.955868e+00 1.874034e+00 2.028340e+00 2.421213e+00 2.595746e+00 2.438580e+00 2.783956e+00 2.306724e+00 2.245140e+00 2.160472e+00 2.020062e+00 3.347120e-03
<GCONST> 9.384340e+01
<MIXTURE> 28 5.036674e-03
<MEAN> 25
 -5.367044e+00 1.210598e-01 -1.686052e+00 6.720034e+00 5.465101e+00 3.627829e+00 5.331616e+00 2.778748e+00 3.889399e+00 2.425241e+00 2.364514e+00 3.005085e+00 -1.331708e-01 2.111888e-01 4.809130e-01 7.810802e-01 8.148988e-01 7.011070e-01 5.857663e-01 4.438776e-01 4.748423e-01 4.766309e-01 3.048072e-01 1.190159e-01 -7.899198e-05
<VARIANCE> 25
 1.000234e+01 8.400286e+00 1.226183e+01 1.436076e+01 1.548261e+01 1.695205e+01 1.736829e+01 2.052752e+01 1.628767e+01 1.613956e+01 2.054447e+01 1.484113e+01 2.575117e-01 3.196975e-01 4.231364e-01 4.472701e-01 6.139436e-01 8.139231e-01 1.079813e+00 1.211286e+00 1.121503e+00 9.877858e-01 1.064491e+00 1.181996e+00 1.098487e-06
<GCONST> 6.031070e+01
<MIXTURE> 29 5.036674e-03
<MEAN> 25
 -5.367044e+00 1.210598e-01 -1.686052e+00 6.720034e+00 5.465101e+00 3.627829e+00 5.331616e+00 2.778748e+00 3.889399e+00 2.425241e+00 2.364514e+00 3.005085e+00 -1.331708e-01 2.111888e-01 4.809130e-01 7.810802e-01 8.148988e-01 7.011070e-01 5.857663e-01 4.438776e-01 4.748423e-01 4.766309e-01 3.048072e-01 1.190159e-01 -7.899198e-05
<VARIANCE> 25
 1.000234e+01 8.400286e+00 1.226183e+01 1.436076e+01 1.548261e+01 1.695205e+01 1.736829e+01 2.052752e+01 1.628767e+01 1.613956e+01 2.054447e+01 1.484113e+01 2.575117e-01 3.196975e-01 4.231364e-01 4.472701e-01 6.139436e-01 8.139231e-01 1.079813e+00 1.211286e+00 1.121503e+00 9.877858e-01 1.064491e+00 1.181996e+00 1.098487e-06
<GCONST> 6.031070e+01
<MIXTURE> 30 8.917812e-03
<MEAN> 25
 -4.553296e+00 1.231957e-01 2.385370e-01 9.301573e+00 7.854354e+00 7.368083e+00 7.595173e+00 5.955822e+00 6.390438e+00 4.986629e+00 6.037520e+00 2.678711e+00 -3.122353e-02 3.621709e-02 1.144643e-01 1.254585e-01 9.268163e-02 3.708687e-02 -1.795232e-03 -4.945279e-02 2.767590e-02 1.436263e-01 1.369028e-01 6.121168e-02 -1.331315e-03
<VARIANCE> 25
 6.136346e+00 9.711554e+00 1.052880e+01 1.268571e+01 1.434353e+01 1.494724e+01 1.736987e+01 2.217043e+01 1.535193e+01 1.674823e+01 2.467412e+01 1.846210e+01 9.773533e-02 1.787527e-01 3.553898e-01 5.685388e-01 5.688738e-01 6.543810e-01 7.217928e-01 7.793327e-01 8.286857e-01 9.262219e-01 9.700772e-01 7.926139e-01 5.092593e-05
<GCONST> 6.029893e+01
<MIXTURE> 31 4.136493e-03
<MEAN> 25
 -3.685741e+00 -5.643557e+00 1.819759e-01 5.836864e+00 3.859400e+00 1.459013e+00 5.369420e+00 6.629948e+00 3.019899e+00 1.028079e+00 5.623811e+00 2.811565e+00 2.561354e-01 4.518551e-01 -2.903407e-01 3.034339e-01 1.915193e-01 2.995006e-01 1.144147e-01 -1.019520e-02 4.301962e-01 4.021310e-01 1.953151e-02 7.474978e-02 -1.832246e-02
<VARIANCE> 25
 7.089921e+00 1.363028e+01 1.658149e+01 2.155565e+01 2.486541e+01 2.160176e+01 2.089078e+01 2.503024e+01 2.510782e+01 2.489685e+01 2.386502e+01 1.795551e+01 1.781936e-01 4.861093e-01 6.022704e-01 7.135682e-01 9.372198e-01 1.152127e+00 1.163240e+00 1.572275e+00 1.265172e+00 1.227482e+00 1.293165e+00 1.091769e+00 2.408152e-04
<GCONST> 7.128405e+01
<MIXTURE> 32 4.136493e-03
<MEAN> 25
 -3.685741e+00 -5.643557e+00 1.819759e-01 5.836864e+00 3.859400e+00 1.459013e+00 5.369420e+00 6.629948e+00 3.019899e+00 1.028079e+00 5.623811e+00 2.811565e+00 2.561354e-01 4.518551e-01 -2.903407e-01 3.034339e-01 1.915193e-01 2.995006e-01 1.144147e-01 -1.019520e-02 4.301962e-01 4.021310e-01 1.953151e-02 7.474978e-02 -1.832246e-02
<VARIANCE> 25
 7.089921e+00 1.363028e+01 1.658149e+01 2.155565e+01 2.486541e+01 2.160176e+01 2.089078e+01 2.503024e+01 2.510782e+01 2.489685e+01 2.386502e+01 1.795551e+01 1.781936e-01 4.861093e-01 6.022704e-01 7.135682e-01 9.372198e-01 1.152127e+00 1.163240e+00 1.572275e+00 1.265172e+00 1.227482e+00 1.293165e+00 1.091769e+00 2.408152e-04
<GCONST> 7.128405e+01
<MIXTURE> 33 1.508826e-02
<MEAN> 25
 6.586020e+00 -4.295026e+00 -2.338708e+00 -2.502194e+00 -1.829784e+00 -5.398357e+00 -7.174277e+00 1.827150e+00 3.024798e+00 -5.712267e-01 -4.938728e+00 -2.840857e+00 6.359859e-01 -1.162521e+00 -2.337277e+00 -1.879939e+00 1.559250e+00 1.305530e+00 -7.422703e-01 6.552616e-01 1.043296e+00 5.579709e-01 -3.903614e-01 -1.181628e+00 3.874671e-02
<VARIANCE> 25
 9.541946e+00 2.234888e+01 2.833851e+01 3.535268e+01 3.975647e+01 4.384164e+01 4.183855e+01 4.524363e+01 5.195766e+01 4.273719e+01 3.513783e+01 2.819109e+01 1.130937e+00 1.879559e+00 2.399008e+00 2.124285e+00 4.352027e+00 3.649361e+00 4.174276e+00 5.426858e+00 3.667779e+00 4.247564e+00 3.442667e+00 3.123219e+00 1.462765e-03
<GCONST> 9.469370e+01
<MIXTURE> 34 1.588179e-02
<MEAN> 25
 8.766392e+00 2.813589e-01 3.657098e-01 6.426591e-01 -3.147072e+00 -5.107778e-01 -5.279416e+00 -5.122113e+00 -2.131396e+00 7.228710e-01 -2.237129e+00 -3.485515e+00 8.728856e-02 1.354730e+00 1.175693e+00 2.254511e+00 -1.266856e-02 9.891107e-03 8.641343e-01 -1.879436e+00 -5.821024e-01 2.821040e-01 -7.468774e-01 1.778628e-01 -6.068363e-02
<VARIANCE> 25
 7.342408e+00 2.913873e+01 2.770217e+01 4.878524e+01 3.904960e+01 5.544393e+01 5.764103e+01 5.594835e+01 4.957578e+01 4.282869e+01 4.631580e+01 2.925073e+01 1.275746e+00 1.813255e+00 4.733723e+00 3.881493e+00 5.147871e+00 5.596386e+00 5.075945e+00 6.239044e+00 5.711913e+00 4.562187e+00 4.930155e+00 3.583405e+00 1.081726e-03
<GCONST> 9.902103e+01
<MIXTURE> 35 1.467755e-02
<MEAN> 25
 -1.704190e+00 -6.959846e+00 -9.643967e+00 -1.632735e+00 1.233781e+01 3.702844e+00 2.144623e+00 2.060371e+00 2.059913e+00 4.784209e+00 -5.731788e-01 1.344792e+00 7.653322e-01 -1.323687e+00 -1.159531e+00 -1.130112e+00 2.328536e-02 -6.398916e-01 -9.047787e-01 3.784094e-01 4.067319e-01 3.476135e-03 -7.452669e-01 -4.607071e-01 1.030844e-01
<VARIANCE> 25
 1.696789e+01 2.590822e+01 2.882243e+01 5.026396e+01 4.341790e+01 5.067958e+01 3.692273e+01 3.711876e+01 3.969333e+01 2.642298e+01 2.860784e+01 3.155789e+01 2.558420e+00 3.598141e+00 4.582819e+00 5.158721e+00 8.556320e+00 3.863844e+00 3.261476e+00 3.850111e+00 5.187613e+00 3.433817e+00 3.012493e+00 5.294406e+00 4.017972e-03
<GCONST> 9.953532e+01
<MIXTURE> 36 1.093293e-02
<MEAN> 25
 5.123230e+00 -3.751750e+00 8.145912e+00 2.031172e+00 -9.584637e+00 -8.930397e+00 -6.500320e+00 4.985137e+00 -4.347150e+00 -3.644501e+00 3.329426e+00 -1.494101e-01 3.004276e-01 2.518693e-01 -6.310329e-01 -1.365139e-01 8.369014e-01 1.509032e-01 -3.976910e-01 -2.361200e-02 1.920349e-01 5.108790e-01 -3.755372e-01 -3.268808e-01 -1.551936e-02
<VARIANCE> 25
 7.666408e+00 1.529844e+01 1.909647e+01 3.432845e+01 2.425310e+01 3.189728e+01 5.270190e+01 3.531245e+01 4.853313e+01 2.867647e+01 2.790293e+01 2.268043e+01 4.460296e-01 7.720101e-01 1.362808e+00 1.227835e+00 1.270674e+00 1.304451e+00 2.290469e+00 1.638640e+00 2.221496e+00 1.292134e+00 1.668928e+00 1.382196e+00 6.651227e-04
<GCONST> 8.091694e+01
<MIXTURE> 37 1.246826e-02
<MEAN> 25
 5.737865e-01 7.759396e+00 1.201150e+01 -5.541406e+00 -8.030560e+00 -1.045526e+00 -5.041032e+00 -8.305870e+00 -3.727480e+00 -9.030300e-01 -3.672969e+00 -1.283945e+00 1.725242e-01 6.470770e-01 -1.355569e+00 3.577653e+00 1.979559e+00 -3.076860e-01 1.093272e+00 4.405312e-01 5.309598e-01 -3.234214e-01 5.369787e-01 -1.010271e-01 -9.450522e-02
<VARIANCE> 25
 1.607700e+01 2.604314e+01 3.123678e+01 5.083853e+01 3.381028e+01 3.217124e+01 4.422623e+01 3.509674e+01 3.866605e+01 3.582415e+01 3.769761e+01 3.079764e+01 2.986083e+00 3.400320e+00 3.005153e+00 4.084836e+00 4.615262e+00 3.768226e+00 4.187699e+00 3.844925e+00 3.445107e+00 3.607212e+00 3.863449e+00 2.785151e+00 3.947574e-03
<GCONST> 9.780560e+01
<MIXTURE> 38 1.154525e-02
<MEAN> 25
 -4.150922e+00 8.935559e+00 3.085250e+00 3.523019e+00 5.007713e-01 -5.157155e+00 6.913204e-01 -2.286674e+00 -2.523077e+00 -3.328475e+00 -1.790568e+00 -7.926699e-01 -4.461304e+00 1.039345e+00 -4.724114e-01 1.694471e+00 2.477507e+00 8.217814e-01 1.760823e+00 9.825118e-01 8.235415e-01 6.753415e-01 1.221939e+00 1.566033e-01 4.663714e-02
<VARIANCE> 25
 2.910537e+01 2.606189e+01 4.579144e+01 2.954392e+01 4.369687e+01 3.122790e+01 4.009544e+01 3.737402e+01 3.076692e+01 2.953283e+01 2.183880e+01 2.555065e+01 2.220023e+00 3.652365e+00 3.540333e+00 4.801317e+00 3.749220e+00 6.175869e+00 4.632409e+00 4.316354e+00 3.823977e+00 4.379799e+00 4.170833e+00 3.049076e+00 1.815024e-03
<GCONST> 9.756870e+01
<MIXTURE> 39 9.501865e-03
<MEAN> 25
 1.244336e+00 2.382877e+00 1.049683e+01 -9.269471e+00 -1.086209e+01 -1.863979e+00 -3.214995e+00 -6.055113e+00 -5.054673e+00 5.931386e-01 -3.662586e+00 -2.165536e+00 -6.889734e-01 1.500552e+00 1.607442e+00 -1.295864e+00 1.035065e-01 1.234565e+00 -1.121685e+00 -1.206262e+00 3.681460e-01 4.024503e-01 -4.949692e-01 6.780287e-02 6.645684e-04
<VARIANCE> 25
 8.592972e+00 3.045418e+01 3.217043e+01 3.944940e+01 3.789949e+01 5.166488e+01 4.380029e+01 3.543520e+01 4.112006e+01 3.292394e+01 3.495761e+01 2.978895e+01 6.725180e-01 1.555918e+00 1.474843e+00 2.871715e+00 2.286695e+00 2.644309e+00 2.998684e+00 2.683843e+00 2.526736e+00 2.483772e+00 2.055042e+00 2.219970e+00 1.144302e-03
<GCONST> 8.970146e+01
<MIXTURE> 40 1.030800e-02
<MEAN> 25
 -9.079744e+00 1.860545e+00 -8.418064e-01 8.502271e+00 3.814133e+00 5.387335e+00 5.281328e+00 3.552959e+00 4.230583e+00 3.879140e+00 5.335576e+00 1.569446e+00 -6.648466e-02 -2.571017e-01 -1.490246e-02 -1.234278e-01 -8.351278e-02 -1.030304e-01 -7.419252e-03 7.526136e-02 -2.778623e-02 4.150695e-03 8.860929e-02 4.434020e-02 4.579617e-03
<VARIANCE> 25
 3.862744e+01 2.173905e+01 3.007462e+01 2.529963e+01 2.518697e+01 1.959485e+01 1.802085e+01 2.295049e+01 1.753712e+01 1.842603e+01 1.828291e+01 1.397045e+01 7.065835e-01 7.370977e-01 8.737910e-01 1.463544e+00 1.160576e+00 1.310814e+00 1.253852e+00 1.290802e+00 1.175089e+00 1.150830e+00 1.124838e+00 1.025085e+00 8.257292e-04
<GCONST> 7.670157e+01
<MIXTURE> 41 6.713375e-03
<MEAN> 25
 1.315219e+00 1.808480e+00 1.047920e+01 -6.923251e+00 -1.045901e+01 -3.908679e+00 -2.474553e+00 -4.995256e+00 -4.703513e+00 2.644725e+00 -1.698334e+00 -9.596573e-01 7.816290e-02 -7.664316e-01 1.695143e+00 -3.538298e+00 -2.446814e+00 -1.017087e-01 -5.221535e-01 -3.430319e-01 -8.307813e-01 1.080285e+00 -1.024382e+00 9.153704e-02 8.599274e-02
<VARIANCE> 25
 1.160718e+01 2.955693e+01 3.232026e+01 3.986982e+01 3.837300e+01 4.007646e+01 3.693549e+01 2.988249e+01 3.307708e+01 2.855800e+01 3.186506e+01 2.696651e+01 3.149162e+00 3.284882e+00 3.795171e+00 3.815682e+00 4.884897e+00 5.838958e+00 4.705974e+00 4.543046e+00 3.949444e+00 4.187627e+00 3.847993e+00 3.203611e+00 2.914792e-03
<GCONST> 9.779967e+01
<MIXTURE> 42 1.106211e-02
<MEAN> 25
 -2.026129e+00 4.585085e+00 3.625315e+00 3.850366e+00 4.083468e-01 -6.689988e+00 -1.052031e+00 -2.375959e+00 -5.313339e-01 -1.398759e+00 -2.305706e+00 1.379930e+00 4.138297e+00 -4.819977e-01 1.512352e+00 -1.860413e-01 -2.541803e+00 -9.878440e-01 -2.503402e+00 -9.432802e-01 -8.083123e-01 -3.600299e-01 4.688881e-01 -1.266237e+00 8.733822e-03
<VARIANCE> 25
 3.299003e+01 2.048586e+01 5.068950e+01 3.290554e+01 3.604650e+01 3.733821e+01 3.604142e+01 2.695515e+01 3.396399e+01 2.542548e+01 1.841950e+01 1.637401e+01 3.244900e+00 4.571648e+00 5.545259e+00 5.590422e+00 5.619765e+00 5.746802e+00 5.123127e+00 4.900011e+00 4.515134e+00 5.570747e+00 4.018922e+00 3.433863e+00 4.159744e-03
<GCONST> 9.963231e+01
<MIXTURE> 43 7.108249e-03
<MEAN> 25
 3.173371e+00 -6.321512e+00 -2.260096e+00 -5.167837e+00 -7.406856e+00 -3.403246e+00 4.136005e+00 1.314086e+00 -5.022321e+00 -7.088080e+00 -4.330102e+00 -1.249485e+00 2.387051e-01 2.163700e+00 1.912351e+00 -1.318015e-01 -1.425817e+00 -7.963354e-01 -9.697223e-01 -7.772187e-01 8.209043e-01 1.463377e+00 3.376493e-01 2.087039e-02 -4.510774e-02
<VARIANCE> 25
 9.604066e+00 1.973531e+01 2.736870e+01 3.538694e+01 3.835022e+01 3.660601e+01 3.323386e+01 3.973363e+01 4.038385e+01 3.857299e+01 2.649722e+01 2.949597e+01 6.896707e-01 1.247387e+00 1.568383e+00 2.487238e+00 2.379910e+00 2.378973e+00 2.647628e+00 3.023333e+00 2.603427e+00 2.583426e+00 2.337832e+00 1.915600e+00 9.411763e-04
<GCONST> 8.797359e+01
<MIXTURE> 44 7.328289e-03
<MEAN> 25
 -1.514974e+01 1.641723e+00 3.509685e+00 -3.156100e+00 3.227185e+00 2.051743e+00 5.711686e-02 2.329356e+00 1.555016e+00 -8.323053e-01 1.803124e+00 1.939856e+00 -1.617902e-01 3.208893e-04 1.767820e-01 3.443070e-01 -1.147869e-01 1.928310e-01 4.568516e-01 1.026320e-01 2.278597e-01 1.213544e-01 5.352601e-02 9.918252e-02 4.158303e-03
<VARIANCE> 25
 4.309410e+01 2.866636e+01 3.482542e+01 3.142550e+01 2.978187e+01 3.037072e+01 2.487277e+01 3.175423e+01 2.726958e+01 2.695667e+01 2.659709e+01 1.920703e+01 1.204858e+00 1.528349e+00 1.378902e+00 1.406018e+00 2.135040e+00 1.623932e+00 1.540836e+00 1.650465e+00 1.575163e+00 1.506519e+00 1.345330e+00 1.216830e+00 1.278340e-03
<GCONST> 8.452344e+01
<MIXTURE> 45 1.364932e-02
<MEAN> 25
 -1.181499e+01 2.725034e+00 -2.579105e+00 4.444566e+00 4.628377e+00 -4.512802e-01 5.208881e+00 2.290634e+00 4.401567e+00 7.341292e-01 2.836704e+00 2.366817e+00 -2.734467e+00 9.282705e-01 -4.946018e-01 -3.977275e-02 4.937300e-03 1.584380e-01 5.581021e-01 7.160722e-02 3.117388e-02 -4.324778e-01 1.640564e-01 2.518689e-01 1.083856e-01
<VARIANCE> 25
 2.785243e+01 3.546262e+01 2.833689e+01 3.370746e+01 2.727066e+01 2.498968e+01 2.447426e+01 2.235749e+01 2.411730e+01 2.546318e+01 2.496380e+01 1.317884e+01 2.042206e+00 3.533016e+00 2.417130e+00 2.810567e+00 2.329735e+00 2.333260e+00 2.004819e+00 1.937622e+00 1.804413e+00 2.336821e+00 2.193339e+00 1.476433e+00 3.668554e-03
<GCONST> 8.869779e+01
<MIXTURE> 46 9.336259e-03
<MEAN> 25
 -9.429573e+00 2.882450e+00 8.099464e-01 7.862412e+00 5.521781e+00 2.867168e+00 7.275390e+00 4.146360e+00 5.520346e+00 4.027359e+00 4.674819e+00 2.966580e+00 1.045207e+00 -2.640168e-01 2.027373e-02 9.384933e-01 6.236693e-01 1.045213e+00 3.019958e-01 5.487798e-01 4.052316e-01 5.661368e-01 6.772058e-01 4.144074e-01 -1.062559e-01
<VARIANCE> 25
 3.236871e+01 4.603535e+01 3.815869e+01 4.807097e+01 5.008289e+01 4.231861e+01 3.635693e+01 3.531849e+01 3.223420e+01 3.549846e+01 2.853336e+01 1.953073e+01 3.716132e+00 3.962705e+00 3.657314e+00 3.984746e+00 3.927019e+00 3.717734e+00 3.377243e+00 3.206392e+00 2.868809e+00 2.809088e+00 2.281534e+00 1.882547e+00 7.619094e-03
<GCONST> 9.804940e+01
<MIXTURE> 47 7.116147e-03
<MEAN> 25
 7.255650e+00 -7.748476e+00 -7.611266e+00 -5.905133e+00 1.612408e+00 6.524443e-01 -2.424533e+00 1.480125e+00 4.336959e+00 -2.375829e-01 -4.848997e+00 -5.918929e+00 -1.728010e-01 -1.217001e+00 -5.587622e-01 -5.638436e-01 8.198546e-01 5.659032e-01 8.163225e-01 3.456330e-01 1.255768e-01 -7.785677e-01 -5.990151e-01 -2.730545e-01 3.166600e-02
<VARIANCE> 25
 9.896779e+00 2.120354e+01 1.910916e+01 3.439054e+01 3.468373e+01 5.010383e+01 4.177153e+01 3.819617e+01 5.925355e+01 4.539729e+01 4.948398e+01 3.902016e+01 4.806920e-01 7.454078e-01 1.237945e+00 1.778463e+00 2.357587e+00 2.717720e+00 2.194455e+00 2.352016e+00 2.158818e+00 2.100477e+00 2.210860e+00 2.262285e+00 5.625329e-04
<GCONST> 8.697949e+01
<MIXTURE> 48 7.116147e-03
<MEAN> 25
 7.255650e+00 -7.748476e+00 -7.611266e+00 -5.905133e+00 1.612408e+00 6.524443e-01 -2.424533e+00 1.480125e+00 4.336959e+00 -2.375829e-01 -4.848997e+00 -5.918929e+00 -1.728010e-01 -1.217001e+00 -5.587622e-01 -5.638436e-01 8.198546e-01 5.659032e-01 8.163225e-01 3.456330e-01 1.255768e-01 -7.785677e-01 -5.990151e-01 -2.730545e-01 3.166600e-02
<VARIANCE> 25
 9.896779e+00 2.120354e+01 1.910916e+01 3.439054e+01 3.468373e+01 5.010383e+01 4.177153e+01 3.819617e+01 5.925355e+01 4.539729e+01 4.948398e+01 3.902016e+01 4.806920e-01 7.454078e-01 1.237945e+00 1.778463e+00 2.357587e+00 2.717720e+00 2.194455e+00 2.352016e+00 2.158818e+00 2.100477e+00 2.210860e+00 2.262285e+00 5.625329e-04
<GCONST> 8.697949e+01
<MIXTURE> 49 5.548473e-03
<MEAN> 25
 -5.109544e+00 4.179042e-01 8.051609e-02 8.402766e+00 6.167549e+00 5.620703e+00 6.122073e+00 4.074699e+00 4.893795e+00 3.755706e+00 4.715430e+00 2.710859e+00 3.560790e-01 6.326495e-01 6.955485e-01 3.499825e-01 -1.803767e-01 -6.204502e-01 -9.960374e-01 -1.122904e+00 -9.380193e-01 -6.257539e-01 -4.305238e-01 -2.789142e-01 -5.750901e-05
<VARIANCE> 25
 9.186820e+00 1.001332e+01 1.405949e+01 1.545426e+01 1.542037e+01 1.647564e+01 1.868275e+01 2.169493e+01 1.816104e+01 1.759059e+01 2.064906e+01 1.443106e+01 2.720757e-01 2.620678e-01 3.476664e-01 6.035231e-01 8.497515e-01 9.694800e-01 9.690655e-01 1.017653e+00 1.110343e+00 1.230639e+00 1.318920e+00 1.155636e+00 1.635762e-05
<GCONST> 6.415855e+01
<MIXTURE> 50 6.234641e-03
<MEAN> 25
 -4.657053e+00 2.291797e-01 -1.575087e+00 6.305846e+00 4.418962e+00 2.562556e+00 4.008828e+00 1.933751e+00 3.086086e+00 1.507434e+00 1.858119e+00 2.637400e+00 5.116789e-02 1.741456e-01 9.456000e-02 -1.959214e-01 -5.833433e-01 -5.812091e-01 -3.779419e-01 -3.532291e-02 4.535261e-01 7.949620e-01 7.519307e-01 4.221249e-01 1.841420e-05
<VARIANCE> 25
 9.995681e+00 1.090182e+01 1.385948e+01 1.481465e+01 1.538618e+01 1.918530e+01 1.949779e+01 1.892532e+01 1.946634e+01 1.697875e+01 2.211463e+01 1.553216e+01 1.380970e-01 2.274993e-01 3.602531e-01 4.968156e-01 6.908208e-01 7.238324e-01 9.658478e-01 1.105554e+00 1.050213e+00 9.031090e-01 9.178455e-01 9.606000e-01 1.008280e-06
<GCONST> 5.940634e+01
<MIXTURE> 51 6.234641e-03
<MEAN> 25
 -4.657053e+00 2.291797e-01 -1.575087e+00 6.305846e+00 4.418962e+00 2.562556e+00 4.008828e+00 1.933751e+00 3.086086e+00 1.507434e+00 1.858119e+00 2.637400e+00 5.116789e-02 1.741456e-01 9.456000e-02 -1.959214e-01 -5.833433e-01 -5.812091e-01 -3.779419e-01 -3.532291e-02 4.535261e-01 7.949620e-01 7.519307e-01 4.221249e-01 1.841420e-05
<VARIANCE> 25
 9.995681e+00 1.090182e+01 1.385948e+01 1.481465e+01 1.538618e+01 1.918530e+01 1.949779e+01 1.892532e+01 1.946634e+01 1.697875e+01 2.211463e+01 1.553216e+01 1.380970e-01 2.274993e-01 3.602531e-01 4.968156e-01 6.908208e-01 7.238324e-01 9.658478e-01 1.105554e+00 1.050213e+00 9.031090e-01 9.178455e-01 9.606000e-01 1.008280e-06
<GCONST> 5.940634e+01
<MIXTURE> 52 6.367945e-03
<MEAN> 25
 8.565908e+00 3.821429e+00 -6.446578e+00 -1.364901e+01 -3.996106e+00 8.789482e+00 -1.310228e+00 -2.992073e+00 -3.050963e+00 -2.308502e+00 2.848055e+00 7.783815e-01 -4.926163e-01 -3.504570e-01 -2.628114e-02 1.217623e+00 1.248874e+00 -3.328894e-01 -3.225788e-01 -8.074302e-01 -9.600431e-02 9.006466e-01 2.556397e-01 -4.455481e-01 -2.367972e-02
<VARIANCE> 25
 1.190493e+01 1.958129e+01 1.885349e+01 3.626861e+01 3.534316e+01 2.343738e+01 4.027835e+01 4.286054e+01 3.604147e+01 3.303160e+01 2.987938e+01 2.384935e+01 3.693357e-01 1.213544e+00 1.063947e+00 2.096498e+00 2.041029e+00 1.864313e+00 2.877254e+00 2.661825e+00 2.480191e+00 2.334179e+00 2.119097e+00 2.199568e+00 1.447655e-03
<GCONST> 8.587977e+01
<MIXTURE> 53 6.367945e-03
<MEAN> 25
 8.565908e+00 3.821429e+00 -6.446578e+00 -1.364901e+01 -3.996106e+00 8.789482e+00 -1.310228e+00 -2.992073e+00 -3.050963e+00 -2.308502e+00 2.848055e+00 7.783815e-01 -4.926163e-01 -3.504570e-01 -2.628114e-02 1.217623e+00 1.248874e+00 -3.328894e-01 -3.225788e-01 -8.074302e-01 -9.600431e-02 9.006466e-01 2.556397e-01 -4.455481e-01 -2.367972e-02
<VARIANCE> 25
 1.190493e+01 1.958129e+01 1.885349e+01 3.626861e+01 3.534316e+01 2.343738e+01 4.027835e+01 4.286054e+01 3.604147e+01 3.303160e+01 2.987938e+01 2.384935e+01 3.693357e-01 1.213544e+00 1.063947e+00 2.096498e+00 2.041029e+00 1.864313e+00 2.877254e+00 2.661825e+00 2.480191e+00 2.334179e+00 2.119097e+00 2.199568e+00 1.447655e-03
<GCONST> 8.587977e+01
<MIXTURE> 54 7.368620e-03
<MEAN> 25
 -3.633540e+00 9.272649e-02 -7.160258e-01 8.043352e+00 6.514167e+00 4.642087e+00 4.682760e+00 4.473381e+00 4.079568e+00 3.643852e+00 4.365867e+00 2.199870e+00 -1.092744e-03 3.052229e-02 3.418016e-02 3.874474e-02 5.071304e-02 3.925381e-02 3.749999e-02 2.547002e-02 2.411539e-02 2.051551e-02 9.096035e-03 -1.650678e-02 9.215106e-06
<VARIANCE> 25
 9.017391e+00 1.036893e+01 9.261992e+00 1.792482e+01 1.326722e+01 1.335974e+01 1.183701e+01 1.225349e+01 1.124809e+01 1.366320e+01 1.819114e+01 1.356278e+01 4.094043e-02 8.740115e-02 1.539009e-01 2.300455e-01 3.093998e-01 4.042203e-01 4.566770e-01 5.355028e-01 5.472236e-01 5.177429e-01 5.314184e-01 5.325338e-01 1.026276e-06
<GCONST> 4.752065e+01
<MIXTURE> 55 7.368620e-03
<MEAN> 25
 -3.633540e+00 9.272649e-02 -7.160258e-01 8.043352e+00 6.514167e+00 4.642087e+00 4.682760e+00 4.473381e+00 4.079568e+00 3.643852e+00 4.365867e+00 2.199870e+00 -1.092744e-03 3.052229e-02 3.418016e-02 3.874474e-02 5.071304e-02 3.925381e-02 3.749999e-02 2.547002e-02 2.411539e-02 2.051551e-02 9.096035e-03 -1.650678e-02 9.215106e-06
<VARIANCE> 25
 9.017391e+00 1.036893e+01 9.261992e+00 1.792482e+01 1.326722e+01 1.335974e+01 1.183701e+01 1.225349e+01 1.124809e+01 1.366320e+01 1.819114e+01 1.356278e+01 4.094043e-02 8.740115e-02 1.539009e-01 2.300455e-01 3.093998e-01 4.042203e-01 4.566770e-01 5.355028e-01 5.472236e-01 5.177429e-01 5.314184e-01 5.325338e-01 1.026276e-06
<GCONST> 4.752065e+01
<MIXTURE> 56 6.132464e-03
<MEAN> 25
 7.556164e+00 -6.732661e+00 -9.138123e+00 -8.647589e+00 3.945620e+00 3.954563e+00 -2.156289e+00 -1.502790e+00 1.948794e+00 6.564807e-01 -2.485957e+00 -7.124294e+00 -1.064339e-02 2.622744e-02 -8.577980e-02 2.546998e-02 2.616039e-01 6.447381e-02 1.145759e-01 -1.364192e-01 -4.499526e-02 -3.849934e-02 -8.465741e-02 1.946809e-02 -7.082150e-03
<VARIANCE> 25
 9.323114e+00 2.379105e+01 2.006359e+01 4.122239e+01 3.313399e+01 5.098397e+01 6.187407e+01 3.698031e+01 3.886917e+01 3.761323e+01 4.016669e+01 3.118617e+01 2.056345e-01 4.312194e-01 4.535028e-01 7.776494e-01 7.997580e-01 1.111812e+00 9.086844e-01 9.072456e-01 9.079150e-01 9.291428e-01 1.034010e+00 7.848008e-01 2.392586e-04
<GCONST> 7.516221e+01
<MIXTURE> 57 6.132464e-03
<MEAN> 25
 7.556164e+00 -6.732661e+00 -9.138123e+00 -8.647589e+00 3.945620e+00 3.954563e+00 -2.156289e+00 -1.502790e+00 1.948794e+00 6.564807e-01 -2.485957e+00 -7.124294e+00 -1.064339e-02 2.622744e-02 -8.577980e-02 2.546998e-02 2.616039e-01 6.447381e-02 1.145759e-01 -1.364192e-01 -4.499526e-02 -3.849934e-02 -8.465741e-02 1.946809e-02 -7.082150e-03
<VARIANCE> 25
 9.323114e+00 2.379105e+01 2.006359e+01 4.122239e+01 3.313399e+01 5.098397e+01 6.187407e+01 3.698031e+01 3.886917e+01 3.761323e+01 4.016669e+01 3.118617e+01 2.056345e-01 4.312194e-01 4.535028e-01 7.776494e-01 7.997580e-01 1.111812e+00 9.086844e-01 9.072456e-01 9.079150e-01 9.291428e-01 1.034010e+00 7.848008e-01 2.392586e-04
<GCONST> 7.516221e+01
<MIXTURE> 58 6.172147e-03
<MEAN> 25
 2.645224e+00 -2.469902e+00 8.025974e+00 -5.488748e+00 -1.274755e+01 -4.421124e+00 7.330627e-01 1.007080e+00 -4.463538e+00 2.066661e+00 1.648639e+00 -1.121922e+00 2.821033e-02 -1.530432e-01 -2.505571e-01 -2.210552e-01 1.677517e-01 5.187504e-01 4.371548e-01 1.999347e-01 2.618970e-02 4.394532e-02 3.649180e-02 2.851455e-04 -5.429770e-03
<VARIANCE> 25
 6.187566e+00 1.398840e+01 1.922934e+01 2.330616e+01 2.156137e+01 4.689672e+01 3.081783e+01 2.931436e+01 4.085752e+01 2.575124e+01 2.422470e+01 1.768264e+01 2.780609e-01 7.165335e-01 8.704833e-01 9.260182e-01 9.291118e-01 1.387782e+00 1.064482e+00 1.152483e+00 9.590514e-01 8.856391e-01 9.419103e-01 8.624006e-01 6.700067e-04
<GCONST> 7.420682e+01
<MIXTURE> 59 6.172147e-03
<MEAN> 25
 2.645224e+00 -2.469902e+00 8.025974e+00 -5.488748e+00 -1.274755e+01 -4.421124e+00 7.330627e-01 1.007080e+00 -4.463538e+00 2.066661e+00 1.648639e+00 -1.121922e+00 2.821033e-02 -1.530432e-01 -2.505571e-01 -2.210552e-01 1.677517e-01 5.187504e-01 4.371548e-01 1.999347e-01 2.618970e-02 4.394532e-02 3.649180e-02 2.851455e-04 -5.429770e-03
<VARIANCE> 25
 6.187566e+00 1.398840e+01 1.922934e+01 2.330616e+01 2.156137e+01 4.689672e+01 3.081783e+01 2.931436e+01 4.085752e+01 2.575124e+01 2.422470e+01 1.768264e+01 2.780609e-01 7.165335e-01 8.704833e-01 9.260182e-01 9.291118e-01 1.387782e+00 1.064482e+00 1.152483e+00 9.590514e-01 8.856391e-01 9.419103e-01 8.624006e-01 6.700067e-04
<GCONST> 7.420682e+01
<MIXTURE> 60 4.479129e-03
<MEAN> 25
 -4.308992e+00 -6.596668e-01 -1.053812e+00 3.797542e+00 1.772473e+00 2.170577e+00 1.736898e+00 1.488771e+00 2.141025e+00 1.233581e+00 2.324517e+00 1.875381e+00 -2.544056e-02 5.493983e-02 9.799784e-02 1.372073e-01 1.375276e-01 1.328326e-01 1.715442e-01 3.242903e-01 5.323856e-01 6.562729e-01 5.514084e-01 2.897368e-01 -4.702812e-04
<VARIANCE> 25
 6.944102e+00 4.619460e+00 1.034319e+01 1.170215e+01 1.372371e+01 1.689488e+01 1.438287e+01 1.205013e+01 1.263082e+01 1.339641e+01 1.594738e+01 1.233218e+01 8.696334e-02 1.681515e-01 2.826029e-01 4.336671e-01 5.934640e-01 7.179650e-01 8.262919e-01 9.210538e-01 9.043222e-01 8.299665e-01 8.419275e-01 8.615358e-01 2.389002e-05
<GCONST> 5.652448e+01
<MIXTURE> 61 4.479129e-03
<MEAN> 25
 -4.308992e+00 -6.596668e-01 -1.053812e+00 3.797542e+00 1.772473e+00 2.170577e+00 1.736898e+00 1.488771e+00 2.141025e+00 1.233581e+00 2.324517e+00 1.875381e+00 -2.544056e-02 5.493983e-02 9.799784e-02 1.372073e-01 1.375276e-01 1.328326e-01 1.715442e-01 3.242903e-01 5.323856e-01 6.562729e-01 5.514084e-01 2.897368e-01 -4.702812e-04
<VARIANCE> 25
 6.944102e+00 4.619460e+00 1.034319e+01 1.170215e+01 1.372371e+01 1.689488e+01 1.438287e+01 1.205013e+01 1.263082e+01 1.339641e+01 1.594738e+01 1.233218e+01 8.696334e-02 1.681515e-01 2.826029e-01 4.336671e-01 5.934640e-01 7.179650e-01 8.262919e-01 9.210538e-01 9.043222e-01 8.299665e-01 8.419275e-01 8.615358e-01 2.389002e-05
<GCONST> 5.652448e+01
<MIXTURE> 62 3.278034e-03
<MEAN> 25
 -5.083438e+00 1.242146e+00 9.812374e-01 8.824795e+00 6.194479e+00 5.046667e+00 5.519503e+00 3.993654e+00 4.958407e+00 3.908195e+00 4.899353e+00 2.906451e+00 -9.945056e-01 -1.156961e+00 -9.490625e-01 -2.728232e-01 4.249426e-01 1.006413e+00 1.393671e+00 1.565202e+00 1.488350e+00 1.234196e+00 1.050875e+00 7.286336e-01 -1.264366e-03
<VARIANCE> 25
 9.799569e+00 9.893005e+00 1.327943e+01 1.660839e+01 1.779658e+01 1.738241e+01 1.959430e+01 1.917756e+01 1.880279e+01 1.860111e+01 2.192976e+01 1.491500e+01 4.077648e-01 4.399065e-01 5.520591e-01 7.750002e-01 1.028076e+00 1.186618e+00 1.255032e+00 1.290025e+00 1.332285e+00 1.363083e+00 1.419824e+00 1.364001e+00 1.620362e-05
<GCONST> 6.756879e+01
<MIXTURE> 63 4.351215e-03
<MEAN> 25
 -4.193840e+00 -1.956543e+00 -4.741200e+00 3.411796e+00 3.760042e+00 4.362121e-02 2.976062e+00 1.127180e+00 2.633365e+00 -5.356638e-01 -1.426624e+00 2.108290e+00 -1.225372e-01 3.331551e-01 3.760737e-01 5.042153e-01 4.093095e-01 3.808274e-01 3.814818e-01 1.049351e-01 4.761852e-02 2.425566e-01 2.301212e-01 1.111041e-01 -4.244815e-03
<VARIANCE> 25
 8.257110e+00 1.512000e+01 1.634594e+01 1.671683e+01 1.811069e+01 2.609591e+01 2.216930e+01 2.376216e+01 2.352910e+01 2.057448e+01 1.976197e+01 1.673818e+01 2.687708e-01 4.132322e-01 6.504986e-01 7.192875e-01 8.529304e-01 1.212868e+00 1.195886e+00 1.329158e+00 1.422688e+00 1.335631e+00 1.407236e+00 1.366480e+00 1.704624e-04
<GCONST> 7.095226e+01
<MIXTURE> 64 4.351215e-03
<MEAN> 25
 -4.193840e+00 -1.956543e+00 -4.741200e+00 3.411796e+00 3.760042e+00 4.362121e-02 2.976062e+00 1.127180e+00 2.633365e+00 -5.356638e-01 -1.426624e+00 2.108290e+00 -1.225372e-01 3.331551e-01 3.760737e-01 5.042153e-01 4.093095e-01 3.808274e-01 3.814818e-01 1.049351e-01 4.761852e-02 2.425566e-01 2.301212e-01 1.111041e-01 -4.244815e-03
<VARIANCE> 25
 8.257110e+00 1.512000e+01 1.634594e+01 1.671683e+01 1.811069e+01 2.609591e+01 2.216930e+01 2.376216e+01 2.352910e+01 2.057448e+01 1.976197e+01 1.673818e+01 2.687708e-01 4.132322e-01 6.504986e-01 7.192875e-01 8.529304e-01 1.212868e+00 1.195886e+00 1.329158e+00 1.422688e+00 1.335631e+00 1.407236e+00 1.366480e+00 1.704624e-04
<GCONST> 7.095226e+01
<MIXTURE> 65 1.721197e-02
<MEAN> 25
 7.868485e+00 2.454796e+00 2.040628e+00 1.008873e-01 -5.374624e+00 -2.994506e+00 -4.853286e+00 -7.112506e+00 -3.901288e+00 -1.629707e+00 -5.089019e+00 -1.885800e+00 1.898440e-01 2.004073e-01 -1.298766e-01 2.133816e-01 -8.290630e-02 3.059785e-01 -1.208947e-02 -3.655772e-01 3.839290e-01 -3.726020e-02 -2.428432e-01 -8.738295e-02 -6.620284e-03
<VARIANCE> 25
 9.821131e+00 1.844216e+01 2.429980e+01 3.567761e+01 3.480767e+01 7.262470e+01 5.918069e+01 5.768994e+01 5.150951e+01 5.538597e+01 5.257624e+01 4.772462e+01 5.536275e-01 9.094276e-01 1.653832e+00 1.690572e+00 1.943620e+00 2.132673e+00 2.158887e+00 3.209280e+00 2.532861e+00 2.298318e+00 2.653644e+00 2.040759e+00 4.263639e-04
<GCONST> 8.905582e+01
<MIXTURE> 66 1.191532e-02
<MEAN> 25
 6.497451e+00 -4.746363e+00 -5.784151e+00 -4.627609e+00 1.185887e+00 -4.477970e+00 -6.528306e+00 1.265358e+00 1.536513e+00 -2.038210e+00 -5.975174e+00 -3.332170e+00 -7.105367e-03 1.582533e+00 2.165252e+00 2.331032e+00 -1.447672e+00 -1.321012e+00 7.030785e-02 -5.744804e-01 -6.088844e-02 -3.085042e-01 -2.344923e-01 1.094898e+00 -6.199573e-02
<VARIANCE> 25
 9.175963e+00 2.836924e+01 2.617780e+01 3.225423e+01 3.692912e+01 5.705849e+01 5.581459e+01 4.326926e+01 6.336856e+01 6.323844e+01 3.561593e+01 3.521854e+01 1.243570e+00 2.465157e+00 2.327435e+00 2.372747e+00 4.759443e+00 4.169438e+00 4.151652e+00 4.642614e+00 4.201060e+00 4.949038e+00 3.715841e+00 3.169551e+00 1.476285e-03
<GCONST> 9.687841e+01
<MIXTURE> 67 1.559142e-02
<MEAN> 25
 8.941792e+00 2.305255e+00 -5.998010e+00 -8.616498e+00 5.468212e-01 3.284706e+00 -3.156794e+00 -2.124319e+00 -3.399776e+00 6.970055e-01 2.795154e-02 -1.552971e+00 -1.079549e+00 1.789122e+00 1.051433e+00 2.990244e+00 1.369746e+00 -4.255194e-01 1.341459e+00 8.480633e-02 1.482274e-01 1.870623e-01 -3.383767e-01 5.173361e-01 -1.274235e-01
<VARIANCE> 25
 1.111430e+01 3.864398e+01 2.962488e+01 5.623838e+01 4.958800e+01 5.254974e+01 6.007871e+01 5.122863e+01 6.498258e+01 5.480680e+01 5.353190e+01 4.606830e+01 2.094874e+00 3.351718e+00 3.163350e+00 4.457129e+00 4.343227e+00 4.544803e+00 4.531042e+00 4.913946e+00 5.265759e+00 4.655567e+00 4.992384e+00 3.829954e+00 3.050017e-03
<GCONST> 1.023518e+02
<MIXTURE> 68 1.485092e-02
<MEAN> 25
 -1.979723e+00 -2.173050e+00 -4.247282e+00 1.628601e+00 5.391730e+00 -1.038684e+00 1.916549e+00 1.456732e+00 2.340213e+00 1.536712e+00 1.988839e-01 1.812761e+00 2.806665e+00 4.127554e-01 6.732847e-02 -2.575831e+00 -2.296689e+00 -1.474430e+00 -2.450096e+00 -1.722629e+00 -1.532984e+00 -1.272593e+00 -1.867721e+00 -1.190768e+00 9.836736e-02
<VARIANCE> 25
 2.479856e+01 3.321280e+01 5.526147e+01 5.599714e+01 4.773736e+01 5.710734e+01 4.448674e+01 4.345428e+01 4.024903e+01 4.203875e+01 3.636258e+01 2.480586e+01 1.808045e+00 3.784947e+00 5.634369e+00 5.828646e+00 5.089959e+00 5.499701e+00 5.706985e+00 4.964136e+00 5.108509e+00 5.839059e+00 5.010343e+00 3.528789e+00 6.113674e-03
<GCONST> 1.036754e+02
<MIXTURE> 69 1.204884e-02
<MEAN> 25
 4.712642e+00 -4.644708e+00 -3.583806e+00 -3.553546e+00 -3.130780e+00 -7.643788e+00 -1.228181e+00 2.404913e+00 5.297754e-01 -4.661544e+00 -5.972855e+00 1.023384e+00 1.584740e+00 -2.171840e+00 -1.210565e+00 -2.234060e+00 -4.493777e-01 -4.410322e-01 -4.875621e-01 6.501378e-01 -6.255947e-01 -1.385898e+00 -2.145797e+00 -9.994476e-02 6.201913e-02
<VARIANCE> 25
 8.592180e+00 2.400189e+01 2.614190e+01 2.530877e+01 4.370097e+01 3.672049e+01 4.709163e+01 3.158252e+01 5.374873e+01 3.633162e+01 3.152376e+01 2.407125e+01 3.581224e+00 2.860610e+00 3.562953e+00 3.611814e+00 6.224908e+00 4.994844e+00 6.835822e+00 5.860112e+00 5.981114e+00 5.731883e+00 4.356288e+00 3.839144e+00 2.356303e-03
<GCONST> 9.897449e+01
<MIXTURE> 70 1.329190e-02
<MEAN> 25
 6.702817e+00 -2.396029e+00 -3.808226e+00 -2.986428e+00 5.214797e-01 -7.688969e-01 -8.886292e+00 -4.341640e+00 1.999934e+00 3.013232e+00 1.536628e-01 -4.431077e+00 2.043147e+00 -1.194423e+00 -4.355413e-01 -2.485813e+00 -1.628337e+00 1.870195e+00 -1.598541e+00 -2.911702e-01 -1.114432e-01 1.040630e-01 1.154302e+00 -1.091736e+00 5.003050e-02
<VARIANCE> 25
 1.021177e+01 2.396550e+01 2.363589e+01 3.891626e+01 2.984973e+01 4.848488e+01 5.014746e+01 3.957082e+01 4.348482e+01 2.585905e+01 3.809264e+01 2.208787e+01 2.784582e+00 2.473145e+00 3.905558e+00 5.678020e+00 5.192741e+00 6.647150e+00 6.097598e+00 5.684358e+00 6.995956e+00 5.112645e+00 4.998725e+00 4.137608e+00 2.085471e-03
<GCONST> 9.945113e+01
<MIXTURE> 71 1.406903e-02
<MEAN> 25
 6.387278e+00 5.596877e+00 3.807307e+00 2.840032e+00 -3.707955e+00 -2.852878e+00 -2.486695e+00 -6.818307e+00 -4.414414e+00 -2.256617e+00 -5.448058e+00 -2.985493e+00 -1.728945e+00 -6.355274e-01 -3.559678e-01 -1.324406e+00 1.119811e+00 -4.340385e-01 1.479131e-01 1.706952e+00 3.465377e-01 -2.371866e-01 6.987829e-01 4.866096e-02 3.860041e-02
<VARIANCE> 25
 1.898237e+01 2.436679e+01 2.355787e+01 4.293806e+01 3.941837e+01 3.972000e+01 4.533345e+01 3.776372e+01 3.592989e+01 4.078672e+01 3.362506e+01 3.316872e+01 1.936188e+00 2.920732e+00 5.022915e+00 6.080845e+00 4.271201e+00 5.063655e+00 4.509923e+00 5.129391e+00 3.898477e+00 3.698290e+00 3.355135e+00 3.154676e+00 1.358092e-03
<GCONST> 9.790429e+01
<MIXTURE> 72 8.134747e-03
<MEAN> 25
 3.755242e+00 -3.700198e+00 5.500108e+00 -2.467113e+00 -1.043938e+01 -9.630112e+00 -2.503859e+00 1.901566e+00 -5.076874e+00 -2.159817e+00 -1.866533e+00 6.582265e-01 9.364905e-01 -7.752288e-01 -2.564511e+00 4.842762e-01 2.102621e+00 -6.402627e-01 -1.286658e+00 1.530444e+00 1.827842e+00 -5.982736e-01 -1.252769e+00 4.002551e-01 -6.380138e-03
<VARIANCE> 25
 1.082186e+01 1.936710e+01 3.267937e+01 3.815339e+01 3.227271e+01 3.360371e+01 4.096484e+01 3.592609e+01 4.486322e+01 4.107798e+01 3.852542e+01 2.841431e+01 4.302092e-01 1.026469e+00 2.015534e+00 1.507903e+00 2.284384e+00 2.351962e+00 3.113646e+00 2.760661e+00 2.605809e+00 2.938990e+00 2.154866e+00 2.107308e+00 5.420248e-04
<GCONST> 8.737637e+01
<MIXTURE> 73 1.213625e-02
<MEAN> 25
 -5.645533e+00 -7.199125e-01 -1.319468e+00 4.943231e+00 4.345999e+00 2.449087e+00 5.623158e+00 3.333645e+00 4.399159e+00 3.436330e+00 4.199308e+00 2.873038e+00 7.920476e-01 -1.098807e+00 -9.589424e-01 -2.683470e+00 -1.176210e+00 -1.701013e+00 -8.928074e-01 -4.765112e-01 -9.134517e-01 -7.139613e-01 -1.075984e+00 -2.348919e-01 1.545004e-01
<VARIANCE> 25
 1.259079e+01 1.356718e+01 1.497352e+01 2.226443e+01 2.341868e+01 2.498590e+01 2.057562e+01 2.021018e+01 1.748278e+01 1.871659e+01 2.255960e+01 1.639966e+01 3.977773e+00 3.257247e+00 5.842145e+00 4.675805e+00 6.367542e+00 4.574221e+00 4.218893e+00 4.205984e+00 3.828593e+00 4.153568e+00 3.513535e+00 2.720031e+00 4.216413e-03
<GCONST> 9.267480e+01
<MIXTURE> 74 1.756491e-02
<MEAN> 25
 4.036417e+00 -1.394756e+00 6.985159e+00 -1.989098e+00 -9.000223e+00 -8.499737e+00 -3.070318e+00 2.759572e+00 -7.430436e+00 -1.987036e+00 -4.708559e-02 -1.126143e+00 3.973984e-01 1.858115e+00 -2.162027e-01 1.727166e+00 1.010354e+00 5.912535e-01 6.693083e-01 -1.131147e+00 1.020880e+00 1.465623e-03 -3.409759e-01 -4.551146e-01 -6.976093e-02
<VARIANCE> 25
 8.628592e+00 2.072835e+01 3.039601e+01 3.242822e+01 2.967562e+01 4.717708e+01 3.578697e+01 4.041611e+01 5.037042e+01 3.292765e+01 3.509458e+01 3.356153e+01 1.604736e+00 1.473568e+00 3.032234e+00 2.386446e+00 2.768966e+00 3.141129e+00 3.898346e+00 5.871113e+00 5.599608e+00 2.999838e+00 3.211266e+00 2.519127e+00 1.323263e-03
<GCONST> 9.345061e+01
<MIXTURE> 75 9.711651e-03
<MEAN> 25
 2.778069e+00 -1.512870e+00 1.113545e+01 1.131641e+00 -1.145373e+01 -8.215720e+00 -4.921465e+00 6.344121e-01 -5.550103e+00 -3.697278e+00 4.245106e+00 1.432771e-01 1.461577e+00 -1.667739e+00 3.293592e-01 -6.632084e-01 -1.894935e+00 -5.259079e-01 -1.851181e+00 8.434353e-01 -6.288270e-01 -5.814322e-03 1.221743e+00 -2.214940e-01 4.100637e-02
<VARIANCE> 25
 9.388251e+00 2.055015e+01 2.382589e+01 2.502634e+01 2.173836e+01 2.648352e+01 2.995509e+01 2.950455e+01 3.290196e+01 2.676448e+01 2.303120e+01 1.772418e+01 2.052874e+00 1.503743e+00 3.506805e+00 2.981017e+00 3.807995e+00 3.803409e+00 4.294246e+00 3.033800e+00 4.122025e+00 3.013544e+00 2.516778e+00 2.428604e+00 1.284218e-03
<GCONST> 8.991860e+01
<MIXTURE> 76 1.052359e-02
<MEAN> 25
 -7.014605e+00 -4.317642e-01 -3.131515e+00 5.224762e+00 4.077126e+00 1.562064e+00 4.276951e+00 9.668190e-01 2.676556e+00 3.854831e-01 1.687464e+00 2.158488e+00 -5.853300e-02 -4.964406e-01 -2.172721e-01 -7.051763e-01 -5.169808e-01 -8.943433e-01 -6.883886e-01 -3.255760e-01 -3.290564e-01 -4.111025e-01 -2.228122e-01 7.884747e-02 2.025735e-02
<VARIANCE> 25
 3.259148e+01 3.066851e+01 2.671883e+01 3.253471e+01 2.870410e+01 3.299003e+01 2.413293e+01 3.194427e+01 2.334325e+01 2.589894e+01 2.291634e+01 1.861505e+01 1.093750e+00 1.099386e+00 1.402561e+00 1.257377e+00 1.552013e+00 2.041187e+00 1.474783e+00 1.572591e+00 1.495797e+00 1.557785e+00 1.373903e+00 1.542964e+00 1.136673e-03
<GCONST> 8.314670e+01
<MIXTURE> 77 1.244626e-02
<MEAN> 25
 -5.105278e-01 7.755489e+00 1.272708e+01 -1.181912e+01 -6.678987e+00 -1.125690e-01 -9.396705e+00 -6.324045e+00 -4.080332e+00 -4.612437e-01 -4.727924e+00 -1.420741e+00 4.913837e-02 1.036209e-01 6.226268e-02 3.211500e-01 -3.716988e-02 1.589391e-01 -1.294595e-01 -1.125846e-01 3.943105e-03 3.200167e-02 7.862765e-02 3.773144e-02 -9.360153e-03
<VARIANCE> 25
 9.737566e+00 2.629336e+01 2.741847e+01 3.958556e+01 3.195282e+01 4.492815e+01 3.596770e+01 3.837033e+01 3.804564e+01 3.154205e+01 3.572464e+01 3.243901e+01 2.800790e-01 8.035148e-01 6.130524e-01 1.107403e+00 1.208722e+00 9.916171e-01 1.217380e+00 1.047626e+00 1.140095e+00 1.053669e+00 9.400954e-01 9.729987e-01 5.077490e-04
<GCONST> 7.818082e+01
<MIXTURE> 78 9.702551e-03
<MEAN> 25
 -1.047739e+01 3.759249e+00 -3.051106e+00 5.413261e+00 2.624680e+00 -2.955268e+00 4.412594e+00 8.442029e-01 3.437298e+00 -1.104569e+00 8.054946e-02 3.622690e+00 2.225611e+00 -4.343080e-01 1.875611e-01 1.679137e-01 2.829576e-01 7.677501e-02 -7.776261e-01 -5.281851e-01 1.281272e-01 6.337932e-01 -2.666471e-01 -6.947107e-01 -6.740743e-02
<VARIANCE> 25
 3.230413e+01 3.463218e+01 2.695688e+01 3.674207e+01 3.142846e+01 3.348010e+01 3.011992e+01 3.187899e+01 2.673424e+01 2.915291e+01 2.205437e+01 1.988734e+01 3.808186e+00 1.900108e+00 2.051773e+00 2.551670e+00 2.268936e+00 4.566330e+00 3.164569e+00 2.739013e+00 1.725941e+00 2.312804e+00 2.136033e+00 2.001724e+00 4.176942e-03
<GCONST> 9.192412e+01
<MIXTURE> 79 1.156824e-02
<MEAN> 25
 1.697606e+00 1.382340e-01 9.824705e+00 -6.587853e+00 -1.194823e+01 -4.037565e+00 -3.239498e+00 -5.257174e+00 -9.209267e+00 3.825724e-01 -3.325808e+00 -2.498370e+00 1.124608e+00 -4.799541e-01 -1.530370e+00 2.419880e+00 -2.185711e-01 -1.222506e+00 7.218298e-01 7.850847e-01 -1.921303e-01 -3.523307e-01 6.011952e-01 3.771753e-01 -2.964645e-02
<VARIANCE> 25
 1.354980e+01 2.662336e+01 3.418316e+01 4.248523e+01 2.986982e+01 5.345710e+01 4.046697e+01 3.498226e+01 5.458117e+01 3.208743e+01 3.585545e+01 2.908670e+01 8.426299e-01 1.903402e+00 1.578048e+00 1.743063e+00 3.391568e+00 2.547813e+00 2.672372e+00 3.630807e+00 3.042464e+00 2.549231e+00 2.308573e+00 1.755127e+00 1.209983e-03
<GCONST> 9.080864e+01
<MIXTURE> 80 7.550998e-03
<MEAN> 25
 -1.459543e+01 3.988801e+00 6.652349e-01 2.900470e+00 2.441505e+00 1.379180e+00 6.385472e+00 2.492420e+00 2.744384e+00 2.340510e+00 4.836318e+00 1.208848e+00 4.283053e+00 -1.916603e-02 1.633633e+00 -1.136434e+00 -2.878093e+00 -2.776821e+00 -2.323900e+00 -2.019999e+00 -1.968450e+00 -1.675364e+00 -1.648781e+00 -6.030012e-01 -4.415865e-02
<VARIANCE> 25
 2.094923e+01 1.980775e+01 3.454899e+01 3.498085e+01 3.011187e+01 2.943151e+01 2.824361e+01 2.849689e+01 2.686182e+01 2.912330e+01 2.687285e+01 1.821758e+01 2.354033e+00 2.661207e+00 2.671493e+00 4.108969e+00 3.427312e+00 2.698917e+00 3.016835e+00 3.196943e+00 2.754766e+00 2.724271e+00 2.774922e+00 2.141472e+00 1.509933e-03
<GCONST> 9.142937e+01
<MIXTURE> 81 8.025434e-03
<MEAN> 25
 -1.157067e+00 3.278270e+00 1.084232e+01 -1.455541e+01 -8.551135e+00 -2.586428e+00 -7.245725e+00 -7.269523e+00 -5.256446e+00 -6.877077e-01 -7.303840e+00 -2.088304e+00 1.093147e-01 -5.955446e-01 -7.218140e-02 -3.273999e-01 -5.884408e-01 3.471285e-01 3.005289e-01 8.949246e-03 -3.135633e-01 2.117027e-01 -3.667352e-01 -1.343866e-01 1.080581e-02
<VARIANCE> 25
 9.171957e+00 3.486041e+01 2.757160e+01 2.763736e+01 3.304953e+01 3.887765e+01 4.346045e+01 3.680420e+01 4.483076e+01 2.983998e+01 2.354992e+01 2.844675e+01 7.052567e-01 2.154789e+00 1.564334e+00 3.082731e+00 2.732394e+00 1.961806e+00 3.038493e+00 2.229285e+00 2.427192e+00 2.410141e+00 2.193713e+00 1.983119e+00 1.081269e-03
<GCONST> 8.858311e+01
<MIXTURE> 82 8.213053e-03
<MEAN> 25
 -9.964262e+00 -3.905216e+00 1.632887e+00 -2.965645e+00 3.115735e+00 6.703534e-01 1.996710e+00 9.363280e-01 2.979165e+00 1.727003e+00 1.745603e+00 3.084503e+00 -1.314585e+00 -1.252087e-01 2.883012e-01 -2.602404e+00 -1.105228e+00 -1.264156e+00 -1.012304e+00 -8.688247e-01 -3.159455e-01 -4.788084e-01 -3.158815e-01 -9.369411e-02 1.783984e-01
<VARIANCE> 25
 1.800643e+01 2.493585e+01 3.241099e+01 3.095142e+01 3.303971e+01 3.229489e+01 3.176508e+01 3.296302e+01 3.084972e+01 2.512331e+01 3.078166e+01 1.749535e+01 3.753102e+00 3.049574e+00 3.317122e+00 3.273050e+00 3.562650e+00 3.286407e+00 2.943877e+00 3.016708e+00 2.794453e+00 2.489975e+00 2.449224e+00 1.867615e+00 3.430664e-03
<GCONST> 9.308497e+01
<MIXTURE> 83 1.167529e-02
<MEAN> 25
 -2.003918e+01 5.505195e+00 -1.790441e+00 -4.003470e-01 7.828101e+00 -1.233849e+00 5.460702e+00 3.043181e+00 1.193972e+00 2.187569e+00 7.244800e-01 2.881628e+00 -2.629525e-02 -4.499215e-01 4.658675e-03 -3.652784e-01 -4.974899e-01 -1.265130e-01 -1.347667e-01 -9.956734e-02 -4.133860e-02 -3.910316e-02 -3.072432e-02 -3.415599e-02 4.403739e-03
<VARIANCE> 25
 8.827127e+00 1.645293e+01 2.850690e+01 2.256041e+01 2.127930e+01 2.407815e+01 2.202314e+01 2.336476e+01 2.043418e+01 2.225535e+01 2.318977e+01 1.448466e+01 1.060840e+00 9.365320e-01 1.240684e+00 1.065875e+00 1.359017e+00 1.292829e+00 1.283712e+00 1.388024e+00 1.348718e+00 1.310410e+00 1.220604e+00 1.072228e+00 8.921668e-04
<GCONST> 7.704147e+01
<MIXTURE> 84 1.066614e-02
<MEAN> 25
 9.998277e-01 9.133837e+00 6.880473e+00 8.058058e+00 2.860589e+00 -9.143985e-01 -1.353576e+00 -4.713133e+00 -3.865181e+00 -2.596073e+00 -2.486694e+00 -1.851402e+00 -1.744481e+00 -1.230805e+00 -1.108314e+00 1.269842e+00 2.245523e+00 1.406512e+00 1.393028e+00 1.313208e+00 1.188134e+00 3.608174e-01 3.531636e-01 4.030237e-01 -6.654587e-02
<VARIANCE> 25
 2.337300e+01 1.772219e+01 2.352265e+01 2.329766e+01 2.838993e+01 2.739929e+01 2.752924e+01 2.675986e+01 2.562869e+01 2.694594e+01 2.278544e+01 2.574514e+01 2.065553e+00 2.538924e+00 3.904725e+00 3.175045e+00 3.160036e+00 3.451403e+00 3.247305e+00 3.284125e+00 3.353655e+00 3.162086e+00 3.530335e+00 2.705721e+00 3.987924e-03
<GCONST> 9.247475e+01
<MIXTURE> 85 7.591393e-03
<MEAN> 25
 -3.114660e+00 7.887885e+00 5.657317e+00 1.370111e+00 -3.465993e+00 -5.349169e+00 -2.952420e+00 -6.119502e+00 -3.479028e+00 -3.189120e+00 -4.932130e-01 -1.873562e+00 3.942878e+00 3.150564e-01 1.755409e+00 -2.097255e+00 -3.385138e+00 -2.569253e+00 -2.894346e+00 -2.340333e+00 -2.239310e+00 -1.242538e+00 -2.295593e+00 -6.313371e-01 9.150049e-03
<VARIANCE> 25
 4.222746e+01 2.330559e+01 3.702778e+01 3.920491e+01 3.964822e+01 4.108607e+01 3.212075e+01 2.773443e+01 2.717433e+01 2.597716e+01 2.612728e+01 2.056899e+01 2.689785e+00 4.316877e+00 4.035129e+00 5.159440e+00 4.528143e+00 3.893421e+00 3.842926e+00 3.964524e+00 3.843174e+00 4.095254e+00 3.928591e+00 3.505122e+00 5.422146e-03
<GCONST> 9.839577e+01
<MIXTURE> 86 1.273941e-02
<MEAN> 25
 -5.162127e+00 -8.317400e-01 -7.775745e-01 6.752142e+00 5.121982e+00 4.570105e+00 5.638361e+00 3.280154e+00 4.718511e+00 3.939255e+00 3.947183e+00 2.090833e+00 5.350373e-03 2.873248e-02 -1.775896e-02 -9.519144e-02 -7.951643e-02 -1.482043e-01 -3.014055e-01 -3.751071e-01 -3.821992e-01 -2.976550e-01 -2.107632e-01 -1.699047e-01 -6.762740e-04
<VARIANCE> 25
 6.324686e+00 7.371889e+00 1.116884e+01 1.185176e+01 1.582013e+01 1.220118e+01 1.153444e+01 1.504084e+01 1.174853e+01 1.342471e+01 1.672102e+01 1.215499e+01 7.944071e-02 1.660236e-01 3.327687e-01 5.695393e-01 5.963648e-01 6.347840e-01 7.364815e-01 8.359426e-01 8.698758e-01 7.649490e-01 1.001357e+00 7.126037e-01 5.312958e-05
<GCONST> 5.743319e+01
<MIXTURE> 87 1.100681e-02
<MEAN> 25
 -3.632021e+00 4.262679e+00 2.817347e+00 7.481881e+00 5.781983e+00 6.847525e-01 2.162841e+00 -1.257104e+00 6.255007e-01 -8.886961e-01 -7.444259e-01 -4.272704e-01 -2.082649e+00 -3.012643e+00 -1.919852e+00 -1.829777e+00 -3.175656e-02 -3.498008e-01 5.889606e-01 1.565602e+00 1.498761e+00 5.720778e-01 1.097695e+00 1.143033e+00 1.082581e-01
<VARIANCE> 25
 3.294430e+01 2.881283e+01 2.492602e+01 2.886343e+01 2.397064e+01 2.751261e+01 2.483908e+01 2.415471e+01 2.771337e+01 2.145616e+01 2.406975e+01 2.330133e+01 3.243895e+00 2.465617e+00 3.504838e+00 3.780735e+00 4.204630e+00 3.673019e+00 3.429743e+00 3.507924e+00 2.981923e+00 3.578238e+00 3.332606e+00 2.639262e+00 4.209779e-03
<GCONST> 9.394616e+01
<MIXTURE> 88 1.256585e-02
<MEAN> 25
 -4.413247e+00 -5.699754e-01 -1.388758e+00 6.771979e+00 4.674056e+00 2.713032e+00 4.016231e+00 2.024923e+00 3.800132e+00 2.159290e+00 2.236633e+00 2.022717e+00 2.105166e-01 4.066403e-01 7.960339e-02 3.804012e-02 2.648345e-01 4.565324e-01 -1.873498e-01 -6.083516e-01 -4.288674e-01 -1.527820e-01 2.047062e-02 2.013107e-01 -9.514415e-03
<VARIANCE> 25
 7.411358e+00 1.028191e+01 1.480885e+01 1.629567e+01 1.643201e+01 2.004792e+01 1.566672e+01 2.224538e+01 1.836255e+01 1.424033e+01 1.800379e+01 1.459773e+01 1.059033e+00 1.769478e+00 1.746561e+00 2.724014e+00 2.150880e+00 2.343550e+00 2.021574e+00 2.733112e+00 1.912912e+00 2.012792e+00 2.063191e+00 1.793882e+00 1.264889e-03
<GCONST> 8.005399e+01
<MIXTURE> 89 9.333527e-03
<MEAN> 25
 5.578938e+00 -8.901500e+00 -2.813418e+00 -3.947627e+00 -3.779604e-01 -6.380707e+00 -5.313052e+00 5.694677e+00 5.676676e+00 -3.286525e+00 -7.554565e+00 -1.578625e+00 -6.855090e-01 4.260202e-02 2.103436e+00 2.202458e-01 -1.954798e+00 -2.016366e+00 3.958048e-01 1.354678e+00 -1.342222e+00 -1.041398e+00 5.590614e-01 1.144071e+00 1.398172e-05
<VARIANCE> 25
 8.434448e+00 2.915766e+01 3.171710e+01 2.742079e+01 3.313097e+01 4.609740e+01 5.022848e+01 4.222146e+01 4.539515e+01 3.254882e+01 3.548674e+01 3.371214e+01 4.084623e-01 6.560143e-01 1.318302e+00 2.766226e+00 2.505616e+00 1.882772e+00 2.613513e+00 2.141880e+00 3.215369e+00 1.995090e+00 2.012865e+00 2.249274e+00 3.896957e-04
<GCONST> 8.636525e+01
<MIXTURE> 90 7.114505e-03
<MEAN> 25
 2.448430e+00 -9.724418e+00 -4.754939e+00 -3.978386e+00 -3.383927e+00 -1.813840e+00 3.366238e+00 1.181629e+00 -7.532591e+00 -1.021719e+01 -3.429969e+00 -7.391458e-01 -1.636501e-01 9.090935e-01 1.168863e+00 -8.539758e-01 -1.613013e+00 -2.119681e-01 6.448083e-01 -2.099919e-01 -1.688675e-01 7.371172e-01 1.829729e-01 -5.500939e-01 -1.114933e-02
<VARIANCE> 25
 8.492542e+00 1.778156e+01 1.981387e+01 2.802344e+01 3.683964e+01 3.218152e+01 3.852358e+01 3.640788e+01 3.522160e+01 2.769208e+01 2.700331e+01 2.613789e+01 2.237563e-01 6.127425e-01 7.866696e-01 1.042903e+00 1.470291e+00 1.591686e+00 1.780401e+00 1.654608e+00 1.810464e+00 1.678392e+00 1.495547e+00 1.308690e+00 2.149998e-04
<GCONST> 7.813364e+01
<MIXTURE> 91 7.852945e-03
<MEAN> 25
 6.404377e+00 -8.110279e+00 -8.621591e+00 -4.246454e+00 2.862612e+00 5.983534e-02 -2.061400e+00 1.053980e+00 2.305175e+00 -3.075908e+00 -5.040290e+00 -4.585492e+00 2.985413e-01 1.040748e+00 2.668068e-01 5.038114e-01 -9.145075e-02 -6.961356e-01 -4.112717e-01 -6.046236e-02 -4.930776e-02 3.026201e-01 -2.610614e-01 2.264488e-01 -3.657068e-02
<VARIANCE> 25
 9.222448e+00 2.301939e+01 1.849593e+01 4.410234e+01 4.327331e+01 5.164491e+01 5.036845e+01 3.710236e+01 6.714817e+01 5.843264e+01 3.480584e+01 4.158493e+01 4.249891e-01 8.491117e-01 1.072541e+00 1.404575e+00 2.363212e+00 2.322827e+00 2.161674e+00 2.190432e+00 2.077477e+00 2.247658e+00 2.011694e+00 1.668780e+00 6.288641e-04
<GCONST> 8.683505e+01
<MIXTURE> 92 7.852945e-03
<MEAN> 25
 6.404377e+00 -8.110279e+00 -8.621591e+00 -4.246454e+00 2.862612e+00 5.983534e-02 -2.061400e+00 1.053980e+00 2.305175e+00 -3.075908e+00 -5.040290e+00 -4.585492e+00 2.985413e-01 1.040748e+00 2.668068e-01 5.038114e-01 -9.145075e-02 -6.961356e-01 -4.112717e-01 -6.046236e-02 -4.930776e-02 3.026201e-01 -2.610614e-01 2.264488e-01 -3.657068e-02
<VARIANCE> 25
 9.222448e+00 2.301939e+01 1.849593e+01 4.410234e+01 4.327331e+01 5.164491e+01 5.036845e+01 3.710236e+01 6.714817e+01 5.843264e+01 3.480584e+01 4.158493e+01 4.249891e-01 8.491117e-01 1.072541e+00 1.404575e+00 2.363212e+00 2.322827e+00 2.161674e+00 2.190432e+00 2.077477e+00 2.247658e+00 2.011694e+00 1.668780e+00 6.288641e-04
<GCONST> 8.683505e+01
<MIXTURE> 93 6.122769e-03
<MEAN> 25
 -6.709424e+00 -8.077180e-01 -2.454244e+00 5.915191e+00 6.033966e+00 4.003996e+00 6.168555e+00 3.370965e+00 4.206984e+00 2.635092e+00 1.631319e+00 3.383499e+00 -5.745712e-02 -1.377629e-01 -2.459330e-01 -3.394653e-01 -3.595668e-01 -2.769147e-01 -1.885516e-01 -1.624122e-01 -1.634765e-01 -1.316455e-01 -8.760531e-02 -5.682315e-02 4.816258e-05
<VARIANCE> 25
 9.027320e+00 6.312425e+00 7.924695e+00 1.120652e+01 1.160057e+01 1.559074e+01 1.510419e+01 1.736955e+01 1.448225e+01 1.455572e+01 1.701799e+01 1.563615e+01 8.055431e-02 1.537767e-01 2.587510e-01 3.681517e-01 5.343988e-01 6.366967e-01 7.955208e-01 9.275748e-01 9.314996e-01 8.735526e-01 9.325778e-01 9.099780e-01 1.080573e-06
<GCONST> 5.394584e+01
<MIXTURE> 94 6.122769e-03
<MEAN> 25
 -6.709424e+00 -8.077180e-01 -2.454244e+00 5.915191e+00 6.033966e+00 4.003996e+00 6.168555e+00 3.370965e+00 4.206984e+00 2.635092e+00 1.631319e+00 3.383499e+00 -5.745712e-02 -1.377629e-01 -2.459330e-01 -3.394653e-01 -3.595668e-01 -2.769147e-01 -1.885516e-01 -1.624122e-01 -1.634765e-01 -1.316455e-01 -8.760531e-02 -5.682315e-02 4.816258e-05
<VARIANCE> 25
 9.027320e+00 6.312425e+00 7.924695e+00 1.120652e+01 1.160057e+01 1.559074e+01 1.510419e+01 1.736955e+01 1.448225e+01 1.455572e+01 1.701799e+01 1.563615e+01 8.055431e-02 1.537767e-01 2.587510e-01 3.681517e-01 5.343988e-01 6.366967e-01 7.955208e-01 9.275748e-01 9.314996e-01 8.735526e-01 9.325778e-01 9.099780e-01 1.080573e-06
<GCONST> 5.394584e+01
<MIXTURE> 95 5.258835e-03
<MEAN> 25
 -5.673619e+00 -8.608852e-02 -1.684259e+00 5.238205e+00 4.431474e+00 2.929358e+00 4.262164e+00 5.664020e-01 2.189492e+00 1.108313e+00 7.532629e-01 1.732163e+00 1.077941e-01 7.759438e-02 1.549013e-01 2.604350e-02 -3.671029e-01 -5.818531e-01 -1.023263e+00 -1.294398e+00 -1.279265e+00 -8.798665e-01 -4.030539e-01 -2.369238e-01 1.139074e-03
<VARIANCE> 25
 8.716834e+00 8.305067e+00 1.223528e+01 1.227460e+01 1.445313e+01 1.608104e+01 1.552913e+01 1.855799e+01 1.391719e+01 1.373233e+01 1.808256e+01 1.495931e+01 1.891434e-01 2.726640e-01 4.150150e-01 7.258526e-01 7.212430e-01 8.075783e-01 8.057177e-01 8.218138e-01 8.715150e-01 9.510913e-01 1.210479e+00 9.459045e-01 4.342523e-05
<GCONST> 6.199213e+01
<MIXTURE> 96 7.034694e-03
<MEAN> 25
 -5.080329e+00 -3.736646e-01 -2.217378e+00 5.373863e+00 4.099781e+00 1.930425e+00 3.551959e+00 1.512944e+00 2.506140e+00 1.101183e+00 1.069588e+00 2.651263e+00 -3.260848e-02 8.108799e-02 1.835728e-01 4.091253e-01 5.702461e-01 4.762297e-01 2.711446e-01 -7.212631e-02 -4.183600e-01 -6.209769e-01 -6.068428e-01 -3.793878e-01 -1.380217e-05
<VARIANCE> 25
 1.054876e+01 9.755161e+00 1.275010e+01 1.452121e+01 1.605187e+01 1.899692e+01 1.735006e+01 2.118518e+01 1.735202e+01 1.687414e+01 1.901693e+01 1.478619e+01 1.190471e-01 2.112105e-01 3.268563e-01 3.937786e-01 5.129926e-01 6.524632e-01 8.520020e-01 1.072336e+00 9.806949e-01 8.486928e-01 8.773975e-01 9.329333e-01 1.011317e-06
<GCONST> 5.764121e+01
<MIXTURE> 97 7.034694e-03
<MEAN> 25
 -5.080329e+00 -3.736646e-01 -2.217378e+00 5.373863e+00 4.099781e+00 1.930425e+00 3.551959e+00 1.512944e+00 2.506140e+00 1.101183e+00 1.069588e+00 2.651263e+00 -3.260848e-02 8.108799e-02 1.835728e-01 4.091253e-01 5.702461e-01 4.762297e-01 2.711446e-01 -7.212631e-02 -4.183600e-01 -6.209769e-01 -6.068428e-01 -3.793878e-01 -1.380217e-05
<VARIANCE> 25
 1.054876e+01 9.755161e+00 1.275010e+01 1.452121e+01 1.605187e+01 1.899692e+01 1.735006e+01 2.118518e+01 1.735202e+01 1.687414e+01 1.901693e+01 1.478619e+01 1.190471e-01 2.112105e-01 3.268563e-01 3.937786e-01 5.129926e-01 6.524632e-01 8.520020e-01 1.072336e+00 9.806949e-01 8.486928e-01 8.773975e-01 9.329333e-01 1.011317e-06
<GCONST> 5.764121e+01
<MIXTURE> 98 9.917808e-03
<MEAN> 25
 -1.476633e+00 1.184960e+00 -4.352098e-01 4.542014e+00 3.781541e+00 2.683017e+00 3.100044e+00 1.485516e+00 1.703166e+00 9.797434e-01 6.503152e-01 7.732079e-01 -1.782671e+00 -1.475893e+00 -9.950020e-01 2.203054e-01 6.783624e-01 7.164095e-01 1.160170e+00 1.414235e+00 1.686736e+00 1.148366e+00 1.281481e+00 9.261540e-01 -3.318310e-02
<VARIANCE> 25
 1.402045e+01 2.073908e+01 3.231126e+01 3.294538e+01 4.194479e+01 3.645651e+01 3.233696e+01 2.932594e+01 2.710778e+01 2.959415e+01 2.607487e+01 2.432551e+01 1.381186e+00 1.471518e+00 2.297411e+00 2.503426e+00 2.809175e+00 3.058276e+00 3.066928e+00 2.801889e+00 2.575646e+00 2.923607e+00 2.820085e+00 2.137922e+00 2.401980e-03
<GCONST> 9.046122e+01
<MIXTURE> 99 6.696178e-03
<MEAN> 25
 -6.432557e+00 1.018966e+01 5.285855e+00 4.185997e+00 1.731967e-01 -5.723680e+00 -5.281698e-01 -4.184180e+00 -2.584999e+00 -3.668774e+00 -1.382084e+00 5.146621e-01 3.527102e-01 -4.718870e-01 3.774999e-01 -2.312974e-01 -9.948379e-01 -4.841026e-01 -1.337218e-01 1.920019e-02 2.110570e-02 -3.235235e-01 9.251384e-02 4.241116e-01 9.380433e-03
<VARIANCE> 25
 3.111780e+01 2.244435e+01 4.965568e+01 3.011596e+01 3.422327e+01 3.170595e+01 2.897602e+01 2.596741e+01 2.729253e+01 2.721870e+01 1.809432e+01 2.747667e+01 2.028389e+00 2.129869e+00 1.310647e+00 1.636384e+00 2.442021e+00 1.938397e+00 2.028091e+00 1.938861e+00 1.370624e+00 1.796443e+00 1.340401e+00 1.466589e+00 1.464380e-03
<GCONST> 8.643894e+01
<MIXTURE> 100 4.498084e-03
<MEAN> 25
 -1.598582e+00 6.344558e+00 1.027706e+01 -7.462242e+00 -1.078169e+01 -5.075836e+00 -4.941314e+00 -9.967747e+00 -4.718891e+00 -8.549947e-01 -2.732817e+00 -2.708272e+00 2.917540e+00 -1.260456e+00 1.299626e+00 -2.185754e+00 -3.419207e+00 -7.838863e-01 -1.218818e+00 -8.196018e-01 -1.475376e+00 3.466904e-01 -1.655263e+00 -2.860442e-01 2.020393e-03
<VARIANCE> 25
 1.362602e+01 2.105984e+01 2.246041e+01 2.642697e+01 2.301703e+01 2.372143e+01 2.911060e+01 2.171434e+01 2.748477e+01 2.264987e+01 2.241150e+01 2.133874e+01 1.799963e+00 3.953295e+00 2.919852e+00 4.286417e+00 4.184769e+00 4.537177e+00 4.015245e+00 4.340264e+00 4.167582e+00 3.895638e+00 3.910972e+00 3.224953e+00 1.674869e-03
<GCONST> 9.256895e+01
<MIXTURE> 101 6.007792e-03
<MEAN> 25
 8.096229e+00 -3.481045e+00 -6.289306e+00 -6.865181e+00 8.490435e-01 -1.234693e+00 -1.060992e+01 -2.090225e+00 1.617682e+00 2.720622e+00 -2.356675e+00 -5.125750e+00 6.776870e-01 6.462935e-01 -1.452292e+00 -1.617471e+00 1.020608e+00 2.329157e+00 1.966613e-01 -1.458897e+00 -1.070502e+00 1.028920e+00 1.380838e+00 -4.089481e-01 -4.677763e-03
<VARIANCE> 25
 9.237058e+00 1.666166e+01 2.986454e+01 4.262789e+01 3.608982e+01 3.582622e+01 3.700345e+01 3.633676e+01 3.773155e+01 4.382626e+01 5.181435e+01 2.420972e+01 2.970148e-01 6.724705e-01 1.173924e+00 1.557607e+00 1.716255e+00 2.116315e+00 2.078593e+00 1.985902e+00 2.350086e+00 2.223816e+00 1.794120e+00 1.938983e+00 3.482087e-04
<GCONST> 8.368410e+01
<MIXTURE> 102 6.007792e-03
<MEAN> 25
 8.096229e+00 -3.481045e+00 -6.289306e+00 -6.865181e+00 8.490435e-01 -1.234693e+00 -1.060992e+01 -2.090225e+00 1.617682e+00 2.720622e+00 -2.356675e+00 -5.125750e+00 6.776870e-01 6.462935e-01 -1.452292e+00 -1.617471e+00 1.020608e+00 2.329157e+00 1.966613e-01 -1.458897e+00 -1.070502e+00 1.028920e+00 1.380838e+00 -4.089481e-01 -4.677763e-03
<VARIANCE> 25
 9.237058e+00 1.666166e+01 2.986454e+01 4.262789e+01 3.608982e+01 3.582622e+01 3.700345e+01 3.633676e+01 3.773155e+01 4.382626e+01 5.181435e+01 2.420972e+01 2.970148e-01 6.724705e-01 1.173924e+00 1.557607e+00 1.716255e+00 2.116315e+00 2.078593e+00 1.985902e+00 2.350086e+00 2.223816e+00 1.794120e+00 1.938983e+00 3.482087e-04
<GCONST> 8.368410e+01
<MIXTURE> 103 5.694618e-03
<MEAN> 25
 3.390067e+00 -9.484486e+00 -6.133549e+00 -3.034061e+00 -1.332635e+00 -1.926733e+00 2.400885e+00 2.537066e+00 -4.443301e+00 -9.241758e+00 -5.079639e+00 3.435951e-01 -1.564154e-01 -1.478512e+00 -9.627331e-01 3.598902e-01 1.226015e+00 9.961640e-01 1.549325e-01 -2.654485e-01 -7.630986e-01 -9.380180e-01 -5.256639e-02 1.300200e-01 2.696688e-02
<VARIANCE> 25
 1.030730e+01 2.019575e+01 2.270672e+01 3.181687e+01 4.770368e+01 3.504172e+01 4.617431e+01 3.641802e+01 4.502399e+01 2.916293e+01 2.991397e+01 2.631138e+01 6.390359e-01 1.255926e+00 1.563558e+00 1.965085e+00 3.000267e+00 2.459908e+00 2.867984e+00 2.558224e+00 2.590241e+00 2.517185e+00 2.120707e+00 2.013813e+00 8.028097e-04
<GCONST> 8.765897e+01
<MIXTURE> 104 5.694618e-03
<MEAN> 25
 3.390067e+00 -9.484486e+00 -6.133549e+00 -3.034061e+00 -1.332635e+00 -1.926733e+00 2.400885e+00 2.537066e+00 -4.443301e+00 -9.241758e+00 -5.079639e+00 3.435951e-01 -1.564154e-01 -1.478512e+00 -9.627331e-01 3.598902e-01 1.226015e+00 9.961640e-01 1.549325e-01 -2.654485e-01 -7.630986e-01 -9.380180e-01 -5.256639e-02 1.300200e-01 2.696688e-02
<VARIANCE> 25
 1.030730e+01 2.019575e+01 2.270672e+01 3.181687e+01 4.770368e+01 3.504172e+01 4.617431e+01 3.641802e+01 4.502399e+01 2.916293e+01 2.991397e+01 2.631138e+01 6.390359e-01 1.255926e+00 1.563558e+00 1.965085e+00 3.000267e+00 2.459908e+00 2.867984e+00 2.558224e+00 2.590241e+00 2.517185e+00 2.120707e+00 2.013813e+00 8.028097e-04
<GCONST> 8.765897e+01
<MIXTURE> 105 4.710235e-03
<MEAN> 25
 2.017849e+00 -1.478131e+00 9.906000e+00 -3.576529e+00 -1.092224e+01 -5.635646e+00 -4.395980e+00 -3.289813e-01 -4.456718e+00 -3.295500e+00 1.052689e+00 -1.106912e+00 5.139970e-03 4.481699e-02 1.495780e-02 1.474426e-02 1.645206e-02 1.469798e-01 -7.226305e-02 5.861168e-02 -3.824890e-02 5.978521e-02 7.490845e-02 -1.005127e-01 -2.712284e-03
<VARIANCE> 25
 1.291669e+01 2.637852e+01 4.295321e+01 5.028909e+01 4.028761e+01 5.600709e+01 3.865984e+01 4.219717e+01 4.090820e+01 3.935752e+01 4.297330e+01 2.845197e+01 7.847495e-02 1.896140e-01 3.420664e-01 3.232380e-01 3.799560e-01 5.056248e-01 5.084424e-01 4.570208e-01 4.653844e-01 4.235146e-01 4.154786e-01 4.590318e-01 8.863144e-05
<GCONST> 6.693639e+01
<MIXTURE> 106 4.710235e-03
<MEAN> 25
 2.017849e+00 -1.478131e+00 9.906000e+00 -3.576529e+00 -1.092224e+01 -5.635646e+00 -4.395980e+00 -3.289813e-01 -4.456718e+00 -3.295500e+00 1.052689e+00 -1.106912e+00 5.139970e-03 4.481699e-02 1.495780e-02 1.474426e-02 1.645206e-02 1.469798e-01 -7.226305e-02 5.861168e-02 -3.824890e-02 5.978521e-02 7.490845e-02 -1.005127e-01 -2.712284e-03
<VARIANCE> 25
 1.291669e+01 2.637852e+01 4.295321e+01 5.028909e+01 4.028761e+01 5.600709e+01 3.865984e+01 4.219717e+01 4.090820e+01 3.935752e+01 4.297330e+01 2.845197e+01 7.847495e-02 1.896140e-01 3.420664e-01 3.232380e-01 3.799560e-01 5.056248e-01 5.084424e-01 4.570208e-01 4.653844e-01 4.235146e-01 4.154786e-01 4.590318e-01 8.863144e-05
<GCONST> 6.693639e+01
<MIXTURE> 107 5.452374e-03
<MEAN> 25
 7.584333e+00 -1.434677e+00 -7.948256e+00 -8.505403e+00 2.606186e+00 3.343454e+00 -7.913439e+00 -4.996159e+00 -1.521683e-01 3.418381e+00 1.085528e+00 -4.861810e+00 -6.035654e-01 -7.838773e-01 6.581182e-01 1.874474e+00 3.327156e-01 -2.004052e+00 -9.753011e-01 8.464691e-01 1.804253e+00 2.461253e-01 -1.620951e+00 -8.182456e-01 -3.407991e-03
<VARIANCE> 25
 1.471981e+01 2.247081e+01 2.491352e+01 4.499646e+01 3.501855e+01 3.495424e+01 4.788803e+01 3.340098e+01 4.434523e+01 3.668680e+01 4.689326e+01 2.724850e+01 3.172289e-01 8.492742e-01 1.470980e+00 2.380673e+00 2.067435e+00 2.496521e+00 2.417184e+00 2.404887e+00 2.063702e+00 2.878097e+00 1.866143e+00 2.005417e+00 6.325748e-04
<GCONST> 8.688377e+01
<MIXTURE> 108 5.452374e-03
<MEAN> 25
 7.584333e+00 -1.434677e+00 -7.948256e+00 -8.505403e+00 2.606186e+00 3.343454e+00 -7.913439e+00 -4.996159e+00 -1.521683e-01 3.418381e+00 1.085528e+00 -4.861810e+00 -6.035654e-01 -7.838773e-01 6.581182e-01 1.874474e+00 3.327156e-01 -2.004052e+00 -9.753011e-01 8.464691e-01 1.804253e+00 2.461253e-01 -1.620951e+00 -8.182456e-01 -3.407991e-03
<VARIANCE> 25
 1.471981e+01 2.247081e+01 2.491352e+01 4.499646e+01 3.501855e+01 3.495424e+01 4.788803e+01 3.340098e+01 4.434523e+01 3.668680e+01 4.689326e+01 2.724850e+01 3.172289e-01 8.492742e-01 1.470980e+00 2.380673e+00 2.067435e+00 2.496521e+00 2.417184e+00 2.404887e+00 2.063702e+00 2.878097e+00 1.866143e+00 2.005417e+00 6.325748e-04
<GCONST> 8.688377e+01
<MIXTURE> 109 6.661064e-03
<MEAN> 25
 4.086817e+00 -1.054825e+01 -8.300326e+00 -1.342014e+00 2.739788e+00 -3.650508e-02 -7.617027e-02 1.467609e+00 -2.528679e+00 -8.377872e+00 -5.387858e+00 5.712824e-02 -3.338945e-02 -1.318524e-01 -2.921280e-02 2.455533e-01 2.063476e-01 1.132844e-01 -1.259645e-01 -1.057769e-01 -3.725586e-02 -1.300631e-01 2.123145e-01 1.422893e-02 -3.458147e-03
<VARIANCE> 25
 9.074345e+00 1.815331e+01 1.995739e+01 3.144685e+01 4.080344e+01 3.670841e+01 4.651869e+01 3.432003e+01 4.661633e+01 3.516065e+01 2.950303e+01 2.812431e+01 1.924944e-01 4.219884e-01 5.418202e-01 6.425839e-01 1.260032e+00 1.001839e+00 1.254978e+00 1.090099e+00 1.118207e+00 9.503145e-01 8.931112e-01 8.850405e-01 1.829960e-04
<GCONST> 7.450384e+01
<MIXTURE> 110 6.661064e-03
<MEAN> 25
 4.086817e+00 -1.054825e+01 -8.300326e+00 -1.342014e+00 2.739788e+00 -3.650508e-02 -7.617027e-02 1.467609e+00 -2.528679e+00 -8.377872e+00 -5.387858e+00 5.712824e-02 -3.338945e-02 -1.318524e-01 -2.921280e-02 2.455533e-01 2.063476e-01 1.132844e-01 -1.259645e-01 -1.057769e-01 -3.725586e-02 -1.300631e-01 2.123145e-01 1.422893e-02 -3.458147e-03
<VARIANCE> 25
 9.074345e+00 1.815331e+01 1.995739e+01 3.144685e+01 4.080344e+01 3.670841e+01 4.651869e+01 3.432003e+01 4.661633e+01 3.516065e+01 2.950303e+01 2.812431e+01 1.924944e-01 4.219884e-01 5.418202e-01 6.425839e-01 1.260032e+00 1.001839e+00 1.254978e+00 1.090099e+00 1.118207e+00 9.503145e-01 8.931112e-01 8.850405e-01 1.829960e-04
<GCONST> 7.450384e+01
<MIXTURE> 111 4.337247e-03
<MEAN> 25
 -4.500030e+00 -9.185605e-01 -1.671543e+00 1.772818e+00 9.780274e-01 9.875761e-01 3.772669e-01 1.844548e-01 1.091967e-01 -5.305560e-01 -6.224042e-01 1.951200e+00 -2.147923e-02 -2.927271e-02 -7.589373e-02 -6.922780e-02 -2.429551e-02 9.680552e-03 1.412545e-03 -5.352499e-02 -1.432965e-01 -2.097731e-01 -2.009437e-01 -1.145904e-01 -2.624658e-04
<VARIANCE> 25
 6.978662e+00 5.090135e+00 1.041022e+01 9.806277e+00 1.325705e+01 2.355068e+01 1.480540e+01 1.322634e+01 1.160236e+01 1.185802e+01 1.355039e+01 1.168746e+01 7.852998e-02 1.659803e-01 2.787819e-01 4.261715e-01 5.856376e-01 7.002901e-01 8.008516e-01 8.658267e-01 8.890178e-01 8.515937e-01 8.729804e-01 8.456065e-01 2.345276e-05
<GCONST> 5.618272e+01
<MIXTURE> 112 4.337247e-03
<MEAN> 25
 -4.500030e+00 -9.185605e-01 -1.671543e+00 1.772818e+00 9.780274e-01 9.875761e-01 3.772669e-01 1.844548e-01 1.091967e-01 -5.305560e-01 -6.224042e-01 1.951200e+00 -2.147923e-02 -2.927271e-02 -7.589373e-02 -6.922780e-02 -2.429551e-02 9.680552e-03 1.412545e-03 -5.352499e-02 -1.432965e-01 -2.097731e-01 -2.009437e-01 -1.145904e-01 -2.624658e-04
<VARIANCE> 25
 6.978662e+00 5.090135e+00 1.041022e+01 9.806277e+00 1.325705e+01 2.355068e+01 1.480540e+01 1.322634e+01 1.160236e+01 1.185802e+01 1.355039e+01 1.168746e+01 7.852998e-02 1.659803e-01 2.787819e-01 4.261715e-01 5.856376e-01 7.002901e-01 8.008516e-01 8.658267e-01 8.890178e-01 8.515937e-01 8.729804e-01 8.456065e-01 2.345276e-05
<GCONST> 5.618272e+01
<MIXTURE> 113 5.938666e-03
<MEAN> 25
 9.974409e+00 1.771646e+00 -8.742318e+00 -1.697388e+01 -1.032936e+00 5.719603e+00 -5.245246e+00 -1.507334e+00 -5.648325e+00 -4.718342e-01 3.019522e-01 -1.725117e-01 5.917691e-03 2.149893e-02 -6.141489e-02 -1.178530e-01 1.029567e-01 1.387604e-01 6.420069e-02 4.932956e-02 -5.180075e-02 -5.740779e-02 1.702209e-01 3.930210e-02 -1.376085e-03
<VARIANCE> 25
 8.820687e+00 1.631669e+01 2.967070e+01 3.513748e+01 5.221670e+01 3.391113e+01 3.984484e+01 3.929779e+01 3.723151e+01 4.599875e+01 3.642430e+01 2.823922e+01 1.207730e-01 3.255333e-01 3.174484e-01 6.338053e-01 6.123926e-01 6.622891e-01 7.765617e-01 8.661335e-01 9.579966e-01 9.038355e-01 7.275082e-01 7.130567e-01 1.240871e-04
<GCONST> 7.114918e+01
<MIXTURE> 114 5.938666e-03
<MEAN> 25
 9.974409e+00 1.771646e+00 -8.742318e+00 -1.697388e+01 -1.032936e+00 5.719603e+00 -5.245246e+00 -1.507334e+00 -5.648325e+00 -4.718342e-01 3.019522e-01 -1.725117e-01 5.917691e-03 2.149893e-02 -6.141489e-02 -1.178530e-01 1.029567e-01 1.387604e-01 6.420069e-02 4.932956e-02 -5.180075e-02 -5.740779e-02 1.702209e-01 3.930210e-02 -1.376085e-03
<VARIANCE> 25
 8.820687e+00 1.631669e+01 2.967070e+01 3.513748e+01 5.221670e+01 3.391113e+01 3.984484e+01 3.929779e+01 3.723151e+01 4.599875e+01 3.642430e+01 2.823922e+01 1.207730e-01 3.255333e-01 3.174484e-01 6.338053e-01 6.123926e-01 6.622891e-01 7.765617e-01 8.661335e-01 9.579966e-01 9.038355e-01 7.275082e-01 7.130567e-01 1.240871e-04
<GCONST> 7.114918e+01
<MIXTURE> 115 2.935202e-03
<MEAN> 25
 -4.026058e+00 -7.314946e-01 -3.105983e+00 3.679423e+00 2.447704e+00 -3.992692e-01 2.244640e+00 3.874944e-01 1.407144e+00 5.480511e-03 2.390118e-02 2.635816e+00 3.244833e-02 -7.052883e-02 -2.304236e-01 -4.400907e-01 -6.318828e-01 -6.721112e-01 -5.901999e-01 -5.057487e-01 -4.846765e-01 -4.571981e-01 -3.475545e-01 -1.704758e-01 5.906630e-06
<VARIANCE> 25
 9.232025e+00 9.933384e+00 1.347181e+01 1.275623e+01 1.368206e+01 1.765836e+01 1.703084e+01 2.085508e+01 1.792704e+01 1.727594e+01 1.917001e+01 1.519303e+01 2.029985e-01 3.446199e-01 4.833591e-01 5.595225e-01 6.320431e-01 7.954499e-01 1.004487e+00 1.129366e+00 1.071512e+00 9.900923e-01 1.025161e+00 1.066821e+00 1.013839e-06
<GCONST> 6.019968e+01
<MIXTURE> 116 2.935202e-03
<MEAN> 25
 -4.026058e+00 -7.314946e-01 -3.105983e+00 3.679423e+00 2.447704e+00 -3.992692e-01 2.244640e+00 3.874944e-01 1.407144e+00 5.480511e-03 2.390118e-02 2.635816e+00 3.244833e-02 -7.052883e-02 -2.304236e-01 -4.400907e-01 -6.318828e-01 -6.721112e-01 -5.901999e-01 -5.057487e-01 -4.846765e-01 -4.571981e-01 -3.475545e-01 -1.704758e-01 5.906630e-06
<VARIANCE> 25
 9.232025e+00 9.933384e+00 1.347181e+01 1.275623e+01 1.368206e+01 1.765836e+01 1.703084e+01 2.085508e+01 1.792704e+01 1.727594e+01 1.917001e+01 1.519303e+01 2.029985e-01 3.446199e-01 4.833591e-01 5.595225e-01 6.320431e-01 7.954499e-01 1.004487e+00 1.129366e+00 1.071512e+00 9.900923e-01 1.025161e+00 1.066821e+00 1.013839e-06
<GCONST> 6.019968e+01
<MIXTURE> 117 6.506003e-03
<MEAN> 25
 -4.633093e+00 1.149086e+00 9.570659e-01 9.725800e+00 6.292875e+00 6.254432e+00 6.454435e+00 4.879737e+00 6.390983e+00 4.999467e+00 6.226989e+00 2.567600e+00 -7.461222e-02 -2.224814e-01 -3.459188e-01 -4.208632e-01 -3.621804e-01 -2.967316e-01 -2.796773e-01 -3.379470e-01 -3.972024e-01 -3.594677e-01 -2.494457e-01 -1.346711e-01 8.332066e-06
<VARIANCE> 25
 7.058957e+00 8.633420e+00 1.005511e+01 1.406981e+01 1.546201e+01 1.504597e+01 1.743209e+01 1.893120e+01 1.610728e+01 1.650274e+01 1.749502e+01 1.559430e+01 2.128891e-01 3.077537e-01 4.274182e-01 6.055813e-01 8.540206e-01 1.046156e+00 1.164737e+00 1.247657e+00 1.221317e+00 1.181002e+00 1.182326e+00 1.112368e+00 1.009014e-06
<GCONST> 6.046703e+01
<MIXTURE> 118 6.506003e-03
<MEAN> 25
 -4.633093e+00 1.149086e+00 9.570659e-01 9.725800e+00 6.292875e+00 6.254432e+00 6.454435e+00 4.879737e+00 6.390983e+00 4.999467e+00 6.226989e+00 2.567600e+00 -7.461222e-02 -2.224814e-01 -3.459188e-01 -4.208632e-01 -3.621804e-01 -2.967316e-01 -2.796773e-01 -3.379470e-01 -3.972024e-01 -3.594677e-01 -2.494457e-01 -1.346711e-01 8.332066e-06
<VARIANCE> 25
 7.058957e+00 8.633420e+00 1.005511e+01 1.406981e+01 1.546201e+01 1.504597e+01 1.743209e+01 1.893120e+01 1.610728e+01 1.650274e+01 1.749502e+01 1.559430e+01 2.128891e-01 3.077537e-01 4.274182e-01 6.055813e-01 8.540206e-01 1.046156e+00 1.164737e+00 1.247657e+00 1.221317e+00 1.181002e+00 1.182326e+00 1.112368e+00 1.009014e-06
<GCONST> 6.046703e+01
<MIXTURE> 119 4.297961e-03
<MEAN> 25
 -5.146729e+00 -7.407582e+00 2.541397e+00 2.871594e+00 1.878454e+00 3.822920e-01 5.236284e+00 5.468205e+00 1.097458e+00 7.996344e-01 6.358449e+00 1.781718e+00 -3.428197e-02 -8.598045e-02 -2.715584e-02 7.423499e-03 -9.150838e-02 -2.082574e-01 -1.854560e-02 8.427644e-02 -9.127322e-02 -1.185651e-01 -1.214417e-01 -6.015912e-02 2.257479e-04
<VARIANCE> 25
 7.936597e+00 9.386853e+00 1.615202e+01 2.490486e+01 2.260445e+01 2.139334e+01 2.275036e+01 2.777703e+01 2.366922e+01 2.590458e+01 1.966963e+01 1.932226e+01 1.512994e-01 2.953066e-01 4.679834e-01 7.012656e-01 8.231937e-01 9.660619e-01 1.038717e+00 1.267213e+00 1.195479e+00 1.187703e+00 1.167438e+00 1.060600e+00 2.181251e-04
<GCONST> 6.920082e+01
<MIXTURE> 120 4.297961e-03
<MEAN> 25
 -5.146729e+00 -7.407582e+00 2.541397e+00 2.871594e+00 1.878454e+00 3.822920e-01 5.236284e+00 5.468205e+00 1.097458e+00 7.996344e-01 6.358449e+00 1.781718e+00 -3.428197e-02 -8.598045e-02 -2.715584e-02 7.423499e-03 -9.150838e-02 -2.082574e-01 -1.854560e-02 8.427644e-02 -9.127322e-02 -1.185651e-01 -1.214417e-01 -6.015912e-02 2.257479e-04
<VARIANCE> 25
 7.936597e+00 9.386853e+00 1.615202e+01 2.490486e+01 2.260445e+01 2.139334e+01 2.275036e+01 2.777703e+01 2.366922e+01 2.590458e+01 1.966963e+01 1.932226e+01 1.512994e-01 2.953066e-01 4.679834e-01 7.012656e-01 8.231937e-01 9.660619e-01 1.038717e+00 1.267213e+00 1.195479e+00 1.187703e+00 1.167438e+00 1.060600e+00 2.181251e-04
<GCONST> 6.920082e+01
<MIXTURE> 121 4.567511e-03
<MEAN> 25
 2.056935e-01 -2.514682e+00 5.222303e+00 -1.290225e+01 -1.258742e+01 -1.720822e+00 9.416464e-01 -5.043326e+00 -4.256600e+00 -5.013146e-01 -5.495208e+00 -4.286723e+00 2.371386e-02 1.329216e-01 -4.332691e-02 8.228675e-02 1.614038e-01 8.742906e-02 -8.368283e-02 -1.838220e-01 -2.671342e-01 -2.512103e-01 -1.102782e-01 -4.502952e-03 -7.448327e-03
<VARIANCE> 25
 7.706121e+00 1.553061e+01 1.794763e+01 2.036005e+01 2.480492e+01 2.987832e+01 2.994118e+01 2.503548e+01 3.551424e+01 2.823618e+01 1.996647e+01 2.115556e+01 1.543048e-01 6.430565e-01 6.222504e-01 7.057179e-01 7.714227e-01 1.155292e+00 1.122353e+00 1.115585e+00 1.215851e+00 1.191327e+00 9.394117e-01 8.792644e-01 2.101316e-04
<GCONST> 7.150488e+01
<MIXTURE> 122 4.567511e-03
<MEAN> 25
 2.056935e-01 -2.514682e+00 5.222303e+00 -1.290225e+01 -1.258742e+01 -1.720822e+00 9.416464e-01 -5.043326e+00 -4.256600e+00 -5.013146e-01 -5.495208e+00 -4.286723e+00 2.371386e-02 1.329216e-01 -4.332691e-02 8.228675e-02 1.614038e-01 8.742906e-02 -8.368283e-02 -1.838220e-01 -2.671342e-01 -2.512103e-01 -1.102782e-01 -4.502952e-03 -7.448327e-03
<VARIANCE> 25
 7.706121e+00 1.553061e+01 1.794763e+01 2.036005e+01 2.480492e+01 2.987832e+01 2.994118e+01 2.503548e+01 3.551424e+01 2.823618e+01 1.996647e+01 2.115556e+01 1.543048e-01 6.430565e-01 6.222504e-01 7.057179e-01 7.714227e-01 1.155292e+00 1.122353e+00 1.115585e+00 1.215851e+00 1.191327e+00 9.394117e-01 8.792644e-01 2.101316e-04
<GCONST> 7.150488e+01
<MIXTURE> 123 4.393044e-03
<MEAN> 25
 -4.332346e+00 8.127301e-01 -5.964402e-03 6.643262e+00 5.514930e+00 3.525430e+00 3.075313e+00 -1.616027e-02 -7.925474e-04 -4.556214e-01 1.942268e-02 9.024333e-02 -3.880993e-01 -7.633007e-01 -8.629180e-01 -4.850520e-01 -5.410395e-02 -5.097101e-02 3.229175e-01 7.235208e-01 7.909822e-01 7.455453e-01 5.511943e-01 4.329782e-01 -2.451197e-03
<VARIANCE> 25
 9.423104e+00 1.067221e+01 1.521405e+01 1.894233e+01 1.980591e+01 2.393514e+01 2.053056e+01 2.808412e+01 1.775088e+01 1.646154e+01 1.975974e+01 2.127865e+01 3.810685e-01 3.217354e-01 4.831547e-01 7.269981e-01 1.153052e+00 1.235795e+00 1.171551e+00 1.173306e+00 1.072958e+00 1.046385e+00 1.258083e+00 1.165142e+00 9.223011e-05
<GCONST> 6.919279e+01
<MIXTURE> 124 4.069876e-03
<MEAN> 25
 -6.425495e+00 -1.056822e+00 -2.723180e+00 5.656023e+00 5.234141e+00 3.539545e+00 5.442435e+00 2.220928e+00 3.115744e+00 1.135226e+00 6.365027e-01 2.480264e+00 -1.894016e-01 -2.842913e-01 -3.763663e-01 -1.674055e-01 1.529527e-01 5.294495e-01 8.600619e-01 9.622712e-01 6.866598e-01 2.834422e-01 5.902928e-03 -9.127801e-02 -3.739779e-04
<VARIANCE> 25
 1.027207e+01 7.101007e+00 1.194579e+01 1.318414e+01 1.426228e+01 1.781142e+01 1.430031e+01 1.773763e+01 1.452085e+01 1.639844e+01 1.869350e+01 1.516831e+01 1.028807e-01 1.696133e-01 2.477703e-01 4.244266e-01 6.972539e-01 6.501417e-01 7.903535e-01 9.154897e-01 8.951823e-01 9.076082e-01 9.762272e-01 1.014446e+00 1.969960e-05
<GCONST> 5.902185e+01
<MIXTURE> 125 4.069876e-03
<MEAN> 25
 -6.425495e+00 -1.056822e+00 -2.723180e+00 5.656023e+00 5.234141e+00 3.539545e+00 5.442435e+00 2.220928e+00 3.115744e+00 1.135226e+00 6.365027e-01 2.480264e+00 -1.894016e-01 -2.842913e-01 -3.763663e-01 -1.674055e-01 1.529527e-01 5.294495e-01 8.600619e-01 9.622712e-01 6.866598e-01 2.834422e-01 5.902928e-03 -9.127801e-02 -3.739779e-04
<VARIANCE> 25
 1.027207e+01 7.101007e+00 1.194579e+01 1.318414e+01 1.426228e+01 1.781142e+01 1.430031e+01 1.773763e+01 1.452085e+01 1.639844e+01 1.869350e+01 1.516831e+01 1.028807e-01 1.696133e-01 2.477703e-01 4.244266e-01 6.972539e-01 6.501417e-01 7.903535e-01 9.154897e-01 8.951823e-01 9.076082e-01 9.762272e-01 1.014446e+00 1.969960e-05
<GCONST> 5.902185e+01
<MIXTURE> 126 2.402244e-03
<MEAN> 25
 -3.836975e+00 -6.831565e+00 -5.295232e+00 2.642977e+00 4.338102e+00 -3.250275e+00 2.562818e-01 3.913742e+00 3.434760e+00 -2.530380e+00 -1.616270e+00 2.812516e+00 -2.937541e-03 5.532655e-03 -7.998481e-02 -1.461279e-01 -2.923680e-01 -4.457510e-01 -2.872724e-01 -1.770775e-01 -1.345076e-02 -7.263128e-02 -1.227528e-01 -1.007577e-02 -2.017780e-03
<VARIANCE> 25
 7.321347e+00 1.302630e+01 1.348645e+01 1.617936e+01 2.398605e+01 2.250978e+01 2.333382e+01 3.143797e+01 2.981147e+01 2.604614e+01 2.156882e+01 1.952504e+01 1.618772e-01 3.417541e-01 4.979134e-01 5.427394e-01 7.348216e-01 1.016982e+00 1.070378e+00 1.271233e+00 1.586762e+00 1.284406e+00 1.204867e+00 1.205344e+00 2.183524e-04
<GCONST> 6.994657e+01
<MIXTURE> 127 2.402244e-03
<MEAN> 25
 -3.836975e+00 -6.831565e+00 -5.295232e+00 2.642977e+00 4.338102e+00 -3.250275e+00 2.562818e-01 3.913742e+00 3.434760e+00 -2.530380e+00 -1.616270e+00 2.812516e+00 -2.937541e-03 5.532655e-03 -7.998481e-02 -1.461279e-01 -2.923680e-01 -4.457510e-01 -2.872724e-01 -1.770775e-01 -1.345076e-02 -7.263128e-02 -1.227528e-01 -1.007577e-02 -2.017780e-03
<VARIANCE> 25
 7.321347e+00 1.302630e+01 1.348645e+01 1.617936e+01 2.398605e+01 2.250978e+01 2.333382e+01 3.143797e+01 2.981147e+01 2.604614e+01 2.156882e+01 1.952504e+01 1.618772e-01 3.417541e-01 4.979134e-01 5.427394e-01 7.348216e-01 1.016982e+00 1.070378e+00 1.271233e+00 1.586762e+00 1.284406e+00 1.204867e+00 1.205344e+00 2.183524e-04
<GCONST> 6.994657e+01
<MIXTURE> 128 3.790457e-03
<MEAN> 25
 -3.931358e+00 1.545875e+00 -3.590916e-01 6.582007e+00 3.653340e+00 1.877604e+00 3.580576e+00 2.344023e+00 3.960806e+00 3.698882e+00 3.742689e+00 3.505605e+00 -3.958971e-01 -1.959174e-01 9.679715e-02 7.263750e-01 1.181362e+00 1.133536e+00 7.226976e-01 1.371626e-01 -4.313182e-01 -7.818093e-01 -7.030249e-01 -3.960760e-01 -4.189293e-05
<VARIANCE> 25
 1.016683e+01 1.165773e+01 1.501187e+01 1.924600e+01 2.020400e+01 2.115043e+01 2.421601e+01 2.474331e+01 2.629062e+01 2.377811e+01 2.682980e+01 1.820642e+01 8.890625e-01 1.141101e+00 1.360138e+00 1.496284e+00 1.577369e+00 1.856095e+00 2.245223e+00 2.328892e+00 2.154489e+00 1.857143e+00 1.737003e+00 1.751436e+00 1.006990e-06
<GCONST> 7.361459e+01
<TRANSP> 3
 0.000000e+00 1.000000e+00 0.000000e+00
 0.000000e+00 9.999990e-01 9.999998e-07
 0.000000e+00 0.000000e+00 0.000000e+00
<ENDHMM>
