~o
<STREAMINFO> 1 25
<VECSIZE> 25<NULLD><MFCC_E_D_N><DIAGC>
~h "jmodel"
<BEGINHMM>
<NUMSTATES> 3
<STATE> 2
<NUMMIXES> 128
<MIXTURE> 1 5.748963e-03
<MEAN> 25
 -2.560695e+00 3.275996e+00 2.306176e+00 8.739983e+00 4.301794e+00 3.417274e+00 4.051550e+00 3.847348e+00 5.828516e+00 5.240246e+00 5.874086e+00 3.045524e+00 -2.004553e+00 -1.606796e+00 -8.700297e-01 1.097065e+00 1.569767e+00 2.211481e+00 2.137168e+00 2.054921e+00 1.680471e+00 1.231295e+00 1.548844e+00 6.117145e-01 -4.622197e-02
<VARIANCE> 25
 1.001140e+01 1.237808e+01 1.480374e+01 1.860101e+01 2.341146e+01 2.197574e+01 2.165869e+01 2.240549e+01 2.080937e+01 2.235133e+01 2.071440e+01 1.698733e+01 1.774898e+00 2.151967e+00 2.997537e+00 3.213164e+00 3.705401e+00 3.354550e+00 3.319164e+00 3.419216e+00 3.499287e+00 3.846504e+00 3.513424e+00 2.804179e+00 3.144609e-03
<GCONST> 8.849791e+01
<MIXTURE> 2 4.549242e-03
<MEAN> 25
 -4.858840e+00 1.382735e+00 9.468942e-01 9.898587e+00 6.642480e+00 7.361574e+00 7.894184e+00 6.883414e+00 8.312964e+00 6.376008e+00 7.555468e+00 2.977406e+00 -5.902426e-02 4.385095e-02 1.387022e-01 2.241919e-01 2.748443e-01 2.746895e-01 2.843798e-01 3.137027e-01 3.446882e-01 3.178028e-01 2.039367e-01 7.552187e-02 4.498845e-06
<VARIANCE> 25
 6.870868e+00 9.121934e+00 1.065185e+01 1.568871e+01 1.718018e+01 1.562195e+01 1.684151e+01 1.867326e+01 1.669980e+01 1.718207e+01 1.817064e+01 1.479673e+01 1.240359e-01 2.244572e-01 3.349901e-01 4.629624e-01 6.528456e-01 8.106586e-01 9.271351e-01 9.960006e-01 1.045422e+00 1.089249e+00 1.067471e+00 1.001809e+00 1.002408e-06
<GCONST> 5.802333e+01
<MIXTURE> 3 4.549242e-03
<MEAN> 25
 -4.858840e+00 1.382735e+00 9.468942e-01 9.898587e+00 6.642480e+00 7.361574e+00 7.894184e+00 6.883414e+00 8.312964e+00 6.376008e+00 7.555468e+00 2.977406e+00 -5.902426e-02 4.385095e-02 1.387022e-01 2.241919e-01 2.748443e-01 2.746895e-01 2.843798e-01 3.137027e-01 3.446882e-01 3.178028e-01 2.039367e-01 7.552187e-02 4.498845e-06
<VARIANCE> 25
 6.870868e+00 9.121934e+00 1.065185e+01 1.568871e+01 1.718018e+01 1.562195e+01 1.684151e+01 1.867326e+01 1.669980e+01 1.718207e+01 1.817064e+01 1.479673e+01 1.240359e-01 2.244572e-01 3.349901e-01 4.629624e-01 6.528456e-01 8.106586e-01 9.271351e-01 9.960006e-01 1.045422e+00 1.089249e+00 1.067471e+00 1.001809e+00 1.002408e-06
<GCONST> 5.802333e+01
<MIXTURE> 4 1.671429e-02
<MEAN> 25
 2.863683e+00 1.903549e+00 -5.221610e+00 2.761287e-01 3.818851e+00 6.671011e-02 8.819252e-02 -2.192735e+00 1.017849e+00 8.086968e-01 -6.044666e-01 -3.880410e-01 -2.526469e+00 1.356649e+00 1.296906e+00 2.842738e+00 5.754975e-01 8.109748e-01 1.862122e+00 7.345095e-01 1.073530e+00 -3.414597e-01 1.840643e+00 7.567689e-01 -9.403576e-02
<VARIANCE> 25
 2.148891e+01 2.753897e+01 2.756695e+01 3.648803e+01 4.286473e+01 7.189738e+01 5.130804e+01 5.905891e+01 4.560864e+01 5.011475e+01 4.738408e+01 3.280710e+01 2.145992e+00 5.888653e+00 3.837500e+00 4.086069e+00 4.127959e+00 6.063468e+00 5.295831e+00 5.124124e+00 4.571059e+00 6.510713e+00 9.481081e+00 4.672564e+00 5.930220e-03
<GCONST> 1.042432e+02
<MIXTURE> 5 3.206198e-03
<MEAN> 25
 -3.417392e+00 2.181533e+00 6.079214e-01 9.431534e+00 6.694309e+00 6.312997e+00 7.111189e+00 4.719106e+00 5.493382e+00 3.845367e+00 4.655912e+00 2.602606e+00 -3.240975e-01 7.522856e-01 1.223201e+00 1.032266e+00 3.088962e-01 -1.010241e-01 -8.456037e-02 3.359905e-02 4.572023e-01 6.837093e-01 4.042555e-01 8.787996e-02 -2.664502e-05
<VARIANCE> 25
 1.023855e+01 1.395123e+01 2.346640e+01 2.560260e+01 2.021142e+01 1.941035e+01 2.014392e+01 2.035402e+01 2.140243e+01 2.132890e+01 2.407616e+01 1.637537e+01 1.208905e+00 1.243304e+00 1.357962e+00 1.673078e+00 2.283517e+00 2.374214e+00 2.299371e+00 2.272702e+00 2.313419e+00 2.238586e+00 2.083545e+00 1.871778e+00 1.000809e-06
<GCONST> 7.515868e+01
<MIXTURE> 6 5.475854e-03
<MEAN> 25
 9.772839e+00 -2.286760e-01 -6.835355e+00 -1.108629e+01 -2.032777e+00 6.904050e+00 -6.141201e+00 -5.519576e+00 -3.226431e+00 2.116986e+00 4.843523e+00 -7.694863e-01 5.299039e-01 8.659441e-01 -4.319972e-01 -1.534163e+00 -6.859565e-01 1.326524e+00 1.477881e+00 2.017504e-01 -1.175793e+00 -1.249394e+00 3.131935e-01 1.204643e+00 -6.329780e-03
<VARIANCE> 25
 8.829580e+00 1.685752e+01 2.315066e+01 3.740804e+01 3.532404e+01 3.103557e+01 4.304332e+01 3.725065e+01 4.261959e+01 3.927692e+01 4.077608e+01 3.179001e+01 3.381350e-01 8.714618e-01 1.026604e+00 1.966922e+00 1.564781e+00 1.928223e+00 1.958710e+00 2.019885e+00 2.310973e+00 1.923115e+00 2.136037e+00 1.381099e+00 6.469743e-04
<GCONST> 8.387427e+01
<MIXTURE> 7 5.475854e-03
<MEAN> 25
 9.772839e+00 -2.286760e-01 -6.835355e+00 -1.108629e+01 -2.032777e+00 6.904050e+00 -6.141201e+00 -5.519576e+00 -3.226431e+00 2.116986e+00 4.843523e+00 -7.694863e-01 5.299039e-01 8.659441e-01 -4.319972e-01 -1.534163e+00 -6.859565e-01 1.326524e+00 1.477881e+00 2.017504e-01 -1.175793e+00 -1.249394e+00 3.131935e-01 1.204643e+00 -6.329780e-03
<VARIANCE> 25
 8.829580e+00 1.685752e+01 2.315066e+01 3.740804e+01 3.532404e+01 3.103557e+01 4.304332e+01 3.725065e+01 4.261959e+01 3.927692e+01 4.077608e+01 3.179001e+01 3.381350e-01 8.714618e-01 1.026604e+00 1.966922e+00 1.564781e+00 1.928223e+00 1.958710e+00 2.019885e+00 2.310973e+00 1.923115e+00 2.136037e+00 1.381099e+00 6.469743e-04
<GCONST> 8.387427e+01
<MIXTURE> 8 1.165917e-02
<MEAN> 25
 -4.735688e+00 1.716756e+00 8.002097e-01 9.956907e+00 6.617159e+00 5.710516e+00 7.012016e+00 5.498724e+00 6.526474e+00 5.091014e+00 5.471663e+00 1.910357e+00 -4.421292e-01 -1.430921e+00 -1.160425e+00 -1.785929e+00 -3.239368e-01 -1.032639e+00 -4.192146e-01 -2.684430e-01 -2.054618e-01 1.827465e-02 4.510342e-03 2.461212e-01 9.786967e-02
<VARIANCE> 25
 8.000619e+00 1.040851e+01 1.100324e+01 1.442632e+01 1.490557e+01 1.487697e+01 1.763852e+01 1.562792e+01 1.499424e+01 1.696637e+01 2.213456e+01 1.917305e+01 2.656211e+00 2.784663e+00 3.646549e+00 3.294625e+00 3.743256e+00 3.949638e+00 3.162723e+00 2.705142e+00 2.519671e+00 2.543092e+00 2.356154e+00 2.224171e+00 6.690082e-03
<GCONST> 8.588062e+01
<MIXTURE> 9 1.199672e-02
<MEAN> 25
 8.550189e+00 3.409040e+00 -6.148976e+00 -1.118777e+01 -1.491815e+00 5.694534e+00 -3.020189e+00 -3.276816e+00 -4.997383e+00 -1.678614e+00 2.307963e-01 -6.268252e-02 1.609761e+00 -2.913758e-01 -1.174579e-01 -3.118428e+00 -1.718891e+00 7.647387e-01 -1.685504e+00 1.532772e-02 -3.411678e-01 -3.326050e-01 5.767860e-02 4.615626e-01 7.985981e-02
<VARIANCE> 25
 1.120675e+01 3.056323e+01 2.732541e+01 7.429961e+01 3.776021e+01 2.704440e+01 7.108054e+01 4.294872e+01 3.702985e+01 5.502438e+01 3.971746e+01 2.502767e+01 1.977455e+00 2.334368e+00 3.888532e+00 4.723271e+00 3.641563e+00 4.359024e+00 5.488798e+00 4.919318e+00 5.051914e+00 3.986635e+00 4.617822e+00 3.083925e+00 1.895448e-03
<GCONST> 9.876417e+01
<MIXTURE> 10 6.596976e-03
<MEAN> 25
 8.317736e-01 7.658610e+00 5.351942e+00 7.111641e+00 1.485345e+00 -2.060663e+00 -4.827763e-01 -1.706202e+00 8.993180e-01 9.307940e-01 8.986946e-01 6.317183e-01 -1.915751e+00 -6.544469e-01 -4.652709e-01 3.025825e+00 2.466075e+00 2.680920e+00 2.325889e+00 2.221648e+00 1.852827e+00 1.535500e+00 2.317766e+00 5.329557e-01 -1.367414e-01
<VARIANCE> 25
 1.927761e+01 2.042060e+01 2.207459e+01 2.879431e+01 3.843732e+01 3.463004e+01 3.471922e+01 3.343087e+01 2.725952e+01 2.899072e+01 2.681132e+01 2.470247e+01 2.208034e+00 3.399900e+00 5.459638e+00 5.094645e+00 5.472929e+00 4.460648e+00 4.813686e+00 4.982383e+00 4.328953e+00 4.981289e+00 4.397932e+00 3.151847e+00 2.795478e-03
<GCONST> 9.732993e+01
<MIXTURE> 11 1.633820e-02
<MEAN> 25
 7.632288e+00 4.576850e+00 2.984951e+00 4.394868e+00 -4.023941e+00 -8.899583e-01 -1.166726e+00 -6.642457e+00 -3.379544e+00 9.633837e-01 -1.534118e+00 -2.553716e+00 -4.387292e-01 5.301519e-01 2.290239e-01 3.353513e-01 6.289503e-01 2.401691e-02 2.900127e-01 -2.516913e-01 3.570935e-02 -4.770163e-02 -3.539086e-02 2.556697e-01 -1.893303e-02
<VARIANCE> 25
 1.074648e+01 2.326904e+01 2.233933e+01 3.245532e+01 3.804910e+01 4.447509e+01 5.033015e+01 3.866519e+01 4.135053e+01 3.847879e+01 3.532492e+01 2.774944e+01 1.041672e+00 1.104976e+00 1.807334e+00 2.741678e+00 2.260968e+00 1.935241e+00 2.027827e+00 2.645263e+00 2.059621e+00 2.205312e+00 1.751022e+00 1.506537e+00 1.196423e-03
<GCONST> 8.797400e+01
<MIXTURE> 12 5.904134e-03
<MEAN> 25
 1.075086e+01 3.737598e+00 -4.473415e+00 -1.595521e+01 -8.701181e+00 8.636283e+00 -8.790024e-01 -1.934097e+00 -1.723230e+00 -4.831711e+00 1.786699e+00 6.858757e-01 6.785018e-02 2.911719e-01 7.893936e-02 -3.649677e-01 -3.145841e-01 3.076161e-02 3.076803e-01 4.476425e-01 1.412035e-01 -3.793404e-01 -3.831704e-01 5.493445e-02 -6.323521e-03
<VARIANCE> 25
 8.931358e+00 2.100348e+01 2.362161e+01 3.534148e+01 4.191363e+01 3.102468e+01 4.174895e+01 4.884298e+01 4.392184e+01 3.801188e+01 3.789040e+01 2.908395e+01 2.462592e-01 6.907527e-01 6.863807e-01 1.168413e+00 1.191844e+00 1.054047e+00 1.171761e+00 1.396033e+00 1.238777e+00 1.231923e+00 1.224856e+00 9.561055e-01 5.788230e-04
<GCONST> 7.897867e+01
<MIXTURE> 13 5.904134e-03
<MEAN> 25
 1.075086e+01 3.737598e+00 -4.473415e+00 -1.595521e+01 -8.701181e+00 8.636283e+00 -8.790024e-01 -1.934097e+00 -1.723230e+00 -4.831711e+00 1.786699e+00 6.858757e-01 6.785018e-02 2.911719e-01 7.893936e-02 -3.649677e-01 -3.145841e-01 3.076161e-02 3.076803e-01 4.476425e-01 1.412035e-01 -3.793404e-01 -3.831704e-01 5.493445e-02 -6.323521e-03
<VARIANCE> 25
 8.931358e+00 2.100348e+01 2.362161e+01 3.534148e+01 4.191363e+01 3.102468e+01 4.174895e+01 4.884298e+01 4.392184e+01 3.801188e+01 3.789040e+01 2.908395e+01 2.462592e-01 6.907527e-01 6.863807e-01 1.168413e+00 1.191844e+00 1.054047e+00 1.171761e+00 1.396033e+00 1.238777e+00 1.231923e+00 1.224856e+00 9.561055e-01 5.788230e-04
<GCONST> 7.897867e+01
<MIXTURE> 14 6.488954e-03
<MEAN> 25
 -4.274129e+00 -2.062501e-01 -3.990136e-01 9.092437e+00 7.366573e+00 7.031128e+00 7.829948e+00 7.203682e+00 7.320012e+00 4.998970e+00 6.550653e+00 3.924472e+00 -2.309866e-01 2.186157e-01 3.798941e-01 2.581355e-01 -1.229379e-02 1.081717e-01 9.727566e-02 1.381344e-01 2.341535e-01 5.920006e-01 5.219029e-01 1.253429e-02 -1.166509e-02
<VARIANCE> 25
 8.852762e+00 1.434156e+01 1.794746e+01 1.778471e+01 2.031064e+01 2.074475e+01 2.051189e+01 2.008886e+01 1.928413e+01 2.476284e+01 2.282130e+01 1.633649e+01 9.591632e-01 1.580475e+00 1.726706e+00 1.886872e+00 2.149551e+00 2.208925e+00 2.239181e+00 2.164358e+00 2.255504e+00 2.444177e+00 2.156884e+00 1.829363e+00 1.139578e-03
<GCONST> 8.174670e+01
<MIXTURE> 15 2.475190e-03
<MEAN> 25
 -5.414186e+00 -6.297711e-01 -2.091689e-01 7.398571e+00 5.703377e+00 5.675235e+00 6.070450e+00 4.973976e+00 5.159173e+00 4.125542e+00 5.470966e+00 2.518580e+00 -1.209865e-01 -2.658135e-02 7.409047e-02 2.420864e-01 4.877957e-01 7.808462e-01 1.070308e+00 1.178433e+00 1.054891e+00 7.523113e-01 4.148819e-01 1.521788e-01 -1.091587e-04
<VARIANCE> 25
 6.956865e+00 5.706752e+00 8.998320e+00 1.291137e+01 1.405177e+01 1.434275e+01 1.492375e+01 1.490764e+01 1.407446e+01 1.440017e+01 1.521666e+01 1.264520e+01 1.241614e-01 2.061862e-01 3.194079e-01 5.027497e-01 6.980492e-01 7.944452e-01 7.621531e-01 7.918403e-01 9.085979e-01 1.024359e+00 1.070889e+00 1.035850e+00 2.800703e-05
<GCONST> 5.862574e+01
<MIXTURE> 16 2.475190e-03
<MEAN> 25
 -5.414186e+00 -6.297711e-01 -2.091689e-01 7.398571e+00 5.703377e+00 5.675235e+00 6.070450e+00 4.973976e+00 5.159173e+00 4.125542e+00 5.470966e+00 2.518580e+00 -1.209865e-01 -2.658135e-02 7.409047e-02 2.420864e-01 4.877957e-01 7.808462e-01 1.070308e+00 1.178433e+00 1.054891e+00 7.523113e-01 4.148819e-01 1.521788e-01 -1.091587e-04
<VARIANCE> 25
 6.956865e+00 5.706752e+00 8.998320e+00 1.291137e+01 1.405177e+01 1.434275e+01 1.492375e+01 1.490764e+01 1.407446e+01 1.440017e+01 1.521666e+01 1.264520e+01 1.241614e-01 2.061862e-01 3.194079e-01 5.027497e-01 6.980492e-01 7.944452e-01 7.621531e-01 7.918403e-01 9.085979e-01 1.024359e+00 1.070889e+00 1.035850e+00 2.800703e-05
<GCONST> 5.862574e+01
<MIXTURE> 17 9.518312e-03
<MEAN> 25
 4.031233e+00 -8.048502e-01 6.302158e+00 2.388779e+00 -5.454908e+00 -5.650390e+00 -3.159046e+00 8.631185e-01 -1.552479e+00 -3.211484e+00 8.558033e-01 4.908194e-01 -6.437514e-01 -1.662771e+00 1.331729e+00 -1.781035e+00 -1.873218e+00 -7.951154e-01 -6.727558e-01 8.791566e-01 -3.463062e-01 -6.926850e-02 1.004959e+00 5.759444e-01 8.322773e-02
<VARIANCE> 25
 1.538983e+01 3.279288e+01 2.860088e+01 3.904955e+01 4.276430e+01 5.294425e+01 4.424716e+01 3.538593e+01 4.577948e+01 2.521049e+01 2.840719e+01 2.630034e+01 1.710511e+00 3.851062e+00 3.750886e+00 3.540504e+00 5.004157e+00 7.212404e+00 8.379899e+00 4.341565e+00 4.451345e+00 3.903299e+00 2.646048e+00 2.923317e+00 1.867506e-03
<GCONST> 9.820670e+01
<MIXTURE> 18 1.221018e-02
<MEAN> 25
 3.840052e+00 5.158495e+00 6.436474e+00 4.146468e+00 -5.086544e+00 -7.564844e+00 -8.454908e-01 -9.868982e-01 -2.869461e+00 -2.171896e+00 -6.015927e-01 1.600212e-01 -7.618192e-01 2.068551e+00 -3.206628e-01 2.147055e+00 3.053860e+00 1.295260e+00 5.003724e-01 -3.156173e-01 5.735419e-01 6.689193e-01 -2.476554e-01 -1.659352e-01 -1.214985e-01
<VARIANCE> 25
 1.468210e+01 2.497108e+01 3.085844e+01 2.705387e+01 3.844152e+01 3.503237e+01 4.408067e+01 3.239364e+01 3.733096e+01 3.232116e+01 3.033197e+01 3.002019e+01 2.305032e+00 2.808093e+00 4.388132e+00 3.769992e+00 3.711428e+00 4.523068e+00 5.030574e+00 4.072994e+00 4.058387e+00 4.095564e+00 4.137796e+00 3.548726e+00 3.798928e-03
<GCONST> 9.739602e+01
<MIXTURE> 19 9.912824e-03
<MEAN> 25
 -9.384658e+00 2.331710e+00 -1.011306e-01 2.412994e+00 4.198067e+00 1.347597e+00 3.576308e+00 9.111204e-01 2.428457e+00 1.237808e+00 9.614002e-01 1.162372e+00 2.118661e+00 1.722054e+00 2.080326e+00 6.408325e-01 -8.969532e-01 -8.957177e-01 -9.172281e-01 -1.199997e+00 -1.505076e+00 -1.149231e+00 -7.334221e-01 -7.667621e-01 1.902323e-03
<VARIANCE> 25
 5.234904e+01 2.911246e+01 4.537819e+01 6.224540e+01 3.141268e+01 3.269108e+01 3.021694e+01 2.740154e+01 3.018405e+01 2.564130e+01 2.820273e+01 2.442317e+01 2.196498e+00 2.117965e+00 2.109573e+00 2.509274e+00 2.703061e+00 2.212823e+00 2.377023e+00 2.635110e+00 2.024597e+00 1.855371e+00 2.179429e+00 1.660355e+00 3.124093e-03
<GCONST> 9.173009e+01
<MIXTURE> 20 6.308331e-03
<MEAN> 25
 -1.413361e+01 7.454535e+00 5.309437e-01 6.551179e+00 4.755497e+00 1.410579e+00 5.144077e+00 7.967430e-01 1.318592e+00 5.439547e-01 2.357968e+00 -1.832352e-01 -3.247800e+00 -9.145345e-01 -1.534694e+00 3.355498e-01 1.540565e+00 1.891508e+00 1.978150e+00 2.058952e+00 2.205335e+00 2.010143e+00 1.547171e+00 9.728524e-01 4.926856e-02
<VARIANCE> 25
 1.914575e+01 2.265502e+01 3.259057e+01 4.016174e+01 3.002067e+01 2.822143e+01 2.920237e+01 3.073909e+01 3.115183e+01 2.890449e+01 2.576575e+01 2.057974e+01 2.062836e+00 2.166858e+00 1.867910e+00 2.455997e+00 2.606208e+00 2.990365e+00 2.235150e+00 2.238966e+00 2.256145e+00 2.595121e+00 2.646621e+00 1.818739e+00 1.932006e-03
<GCONST> 8.958815e+01
<MIXTURE> 21 7.928653e-03
<MEAN> 25
 3.255340e+00 -6.207435e+00 6.349852e+00 -2.372809e+00 -9.834916e+00 -8.921179e+00 -2.689997e+00 4.865279e+00 -3.501278e+00 -4.342771e+00 -2.069232e+00 7.941601e-01 -6.833946e-01 1.472421e+00 2.612745e+00 6.180683e-02 -1.602147e+00 4.152574e-01 4.926598e-01 -1.701834e+00 -2.400884e+00 3.309050e-01 1.697195e+00 3.952798e-01 -1.450166e-02
<VARIANCE> 25
 1.111447e+01 3.295760e+01 2.820350e+01 2.867473e+01 2.877250e+01 2.917053e+01 3.743596e+01 3.779203e+01 5.198890e+01 3.290709e+01 6.313000e+01 2.185081e+01 3.359187e-01 1.070264e+00 1.690186e+00 1.392137e+00 1.982409e+00 2.240404e+00 3.288209e+00 2.582859e+00 3.178623e+00 2.267334e+00 2.645396e+00 2.128321e+00 4.040868e-04
<GCONST> 8.655956e+01
<MIXTURE> 22 8.827789e-03
<MEAN> 25
 -1.789764e+01 7.126207e+00 -4.123101e+00 7.767079e+00 4.749446e+00 2.475690e+00 8.580200e+00 1.905290e+00 5.812571e+00 3.031860e+00 5.327173e+00 1.350097e+00 -2.788879e-01 -2.763921e-01 -1.326887e-01 -8.321363e-02 1.217493e-01 9.391156e-02 2.240918e-01 1.982298e-01 3.424945e-01 2.782033e-01 6.538083e-02 1.919084e-01 7.301192e-03
<VARIANCE> 25
 7.792071e+00 1.614408e+01 1.666256e+01 2.722554e+01 2.242232e+01 2.176940e+01 1.934529e+01 1.847738e+01 2.153316e+01 2.159999e+01 2.178915e+01 1.381510e+01 1.066508e+00 1.405519e+00 1.308382e+00 1.603115e+00 1.717731e+00 1.504625e+00 1.487726e+00 1.478300e+00 1.742499e+00 1.591575e+00 1.555230e+00 1.119563e+00 1.727273e-03
<GCONST> 7.891454e+01
<MIXTURE> 23 6.455497e-03
<MEAN> 25
 8.030756e+00 2.293058e+00 3.052618e+00 2.199158e+00 -5.170121e+00 -2.612941e+00 -3.855907e+00 -6.553439e+00 -3.457663e+00 -5.405510e-01 -3.754642e+00 -2.412973e+00 2.356217e-02 1.304221e-01 3.549254e-02 5.589430e-02 -1.452168e-04 8.591513e-02 3.064718e-02 -6.862985e-02 -9.746842e-03 6.219984e-02 -2.140276e-02 5.609510e-02 -3.925165e-03
<VARIANCE> 25
 1.010728e+01 2.214734e+01 2.370650e+01 4.061039e+01 3.866445e+01 5.927083e+01 6.129803e+01 5.298514e+01 4.640329e+01 5.119394e+01 5.008987e+01 4.069018e+01 1.181460e-01 3.369539e-01 4.017465e-01 4.770756e-01 5.777178e-01 7.214678e-01 7.497644e-01 8.716488e-01 8.560270e-01 8.662757e-01 8.035281e-01 7.382236e-01 8.957056e-05
<GCONST> 7.312537e+01
<MIXTURE> 24 6.455497e-03
<MEAN> 25
 8.030756e+00 2.293058e+00 3.052618e+00 2.199158e+00 -5.170121e+00 -2.612941e+00 -3.855907e+00 -6.553439e+00 -3.457663e+00 -5.405510e-01 -3.754642e+00 -2.412973e+00 2.356217e-02 1.304221e-01 3.549254e-02 5.589430e-02 -1.452168e-04 8.591513e-02 3.064718e-02 -6.862985e-02 -9.746842e-03 6.219984e-02 -2.140276e-02 5.609510e-02 -3.925165e-03
<VARIANCE> 25
 1.010728e+01 2.214734e+01 2.370650e+01 4.061039e+01 3.866445e+01 5.927083e+01 6.129803e+01 5.298514e+01 4.640329e+01 5.119394e+01 5.008987e+01 4.069018e+01 1.181460e-01 3.369539e-01 4.017465e-01 4.770756e-01 5.777178e-01 7.214678e-01 7.497644e-01 8.716488e-01 8.560270e-01 8.662757e-01 8.035281e-01 7.382236e-01 8.957056e-05
<GCONST> 7.312537e+01
<MIXTURE> 25 1.118642e-02
<MEAN> 25
 7.618473e-01 2.096518e+00 1.704747e+01 -1.660983e+00 -1.123678e+01 -2.001513e+00 -5.421836e+00 -1.059499e+00 -7.081505e+00 -4.930567e+00 4.045323e+00 -1.523602e+00 -8.284836e-02 4.736432e-01 2.239576e-01 -1.579266e-01 3.232542e-01 6.778913e-02 4.025315e-01 -7.975790e-02 -2.485214e-01 2.824651e-01 2.625275e-03 -5.599003e-02 -1.317571e-02
<VARIANCE> 25
 8.629511e+00 2.786201e+01 1.870567e+01 2.862104e+01 2.783269e+01 3.630867e+01 2.636118e+01 4.272530e+01 2.708512e+01 3.365549e+01 1.818230e+01 2.362975e+01 5.538745e-01 1.424565e+00 1.368989e+00 1.872193e+00 2.063323e+00 1.927321e+00 1.912201e+00 1.674536e+00 2.152769e+00 1.711083e+00 1.210113e+00 1.132696e+00 1.246304e-03
<GCONST> 8.271552e+01
<MIXTURE> 26 7.727677e-03
<MEAN> 25
 1.793145e+00 -5.786770e+00 -1.027904e+01 -5.720933e-01 7.780520e+00 5.437280e+00 3.663525e+00 -8.386858e-01 2.069119e+00 -1.429475e+00 -2.294546e+00 -1.044707e+00 -6.872327e-01 6.941581e-01 3.815809e-01 6.098351e-01 9.848965e-02 3.288946e-01 3.544913e-01 5.022657e-01 2.625522e-01 -5.112110e-02 4.353254e-01 4.754419e-01 -5.179001e-02
<VARIANCE> 25
 2.477307e+01 3.727827e+01 2.458783e+01 6.543804e+01 3.735730e+01 4.281892e+01 4.441779e+01 4.523642e+01 3.839272e+01 5.252112e+01 4.520638e+01 4.371592e+01 1.634520e+00 1.890815e+00 1.803808e+00 2.022197e+00 2.205510e+00 2.319180e+00 2.389513e+00 2.869267e+00 2.222518e+00 2.377312e+00 2.359580e+00 1.945044e+00 3.115874e-03
<GCONST> 9.373641e+01
<MIXTURE> 27 7.727677e-03
<MEAN> 25
 1.793145e+00 -5.786770e+00 -1.027904e+01 -5.720933e-01 7.780520e+00 5.437280e+00 3.663525e+00 -8.386858e-01 2.069119e+00 -1.429475e+00 -2.294546e+00 -1.044707e+00 -6.872327e-01 6.941581e-01 3.815809e-01 6.098351e-01 9.848965e-02 3.288946e-01 3.544913e-01 5.022657e-01 2.625522e-01 -5.112110e-02 4.353254e-01 4.754419e-01 -5.179001e-02
<VARIANCE> 25
 2.477307e+01 3.727827e+01 2.458783e+01 6.543804e+01 3.735730e+01 4.281892e+01 4.441779e+01 4.523642e+01 3.839272e+01 5.252112e+01 4.520638e+01 4.371592e+01 1.634520e+00 1.890815e+00 1.803808e+00 2.022197e+00 2.205510e+00 2.319180e+00 2.389513e+00 2.869267e+00 2.222518e+00 2.377312e+00 2.359580e+00 1.945044e+00 3.115874e-03
<GCONST> 9.373641e+01
<MIXTURE> 28 5.036674e-03
<MEAN> 25
 -5.422502e+00 2.395500e-02 -1.563604e+00 6.711399e+00 5.235973e+00 3.516347e+00 5.390651e+00 3.114854e+00 3.919811e+00 2.337219e+00 2.629600e+00 3.178431e+00 -1.112238e-01 2.259347e-01 5.205662e-01 7.892672e-01 8.265350e-01 6.798535e-01 5.065051e-01 3.876120e-01 4.365557e-01 4.732670e-01 3.722177e-01 1.867904e-01 1.180651e-05
<VARIANCE> 25
 1.031967e+01 8.534781e+00 1.200209e+01 1.528689e+01 1.456902e+01 1.746722e+01 1.846878e+01 1.875634e+01 1.697503e+01 1.743966e+01 2.028980e+01 1.515755e+01 2.534020e-01 3.323634e-01 4.071304e-01 4.759890e-01 6.153295e-01 8.693312e-01 1.058553e+00 1.128927e+00 1.094529e+00 1.050274e+00 1.022919e+00 1.050451e+00 1.031413e-06
<GCONST> 6.030708e+01
<MIXTURE> 29 5.036674e-03
<MEAN> 25
 -5.422502e+00 2.395500e-02 -1.563604e+00 6.711399e+00 5.235973e+00 3.516347e+00 5.390651e+00 3.114854e+00 3.919811e+00 2.337219e+00 2.629600e+00 3.178431e+00 -1.112238e-01 2.259347e-01 5.205662e-01 7.892672e-01 8.265350e-01 6.798535e-01 5.065051e-01 3.876120e-01 4.365557e-01 4.732670e-01 3.722177e-01 1.867904e-01 1.180651e-05
<VARIANCE> 25
 1.031967e+01 8.534781e+00 1.200209e+01 1.528689e+01 1.456902e+01 1.746722e+01 1.846878e+01 1.875634e+01 1.697503e+01 1.743966e+01 2.028980e+01 1.515755e+01 2.534020e-01 3.323634e-01 4.071304e-01 4.759890e-01 6.153295e-01 8.693312e-01 1.058553e+00 1.128927e+00 1.094529e+00 1.050274e+00 1.022919e+00 1.050451e+00 1.031413e-06
<GCONST> 6.030708e+01
<MIXTURE> 30 8.917812e-03
<MEAN> 25
 -4.275551e+00 6.661723e-01 2.903672e-01 9.706441e+00 6.996386e+00 6.605503e+00 8.160328e+00 5.803017e+00 5.818403e+00 4.376915e+00 5.799213e+00 1.787086e+00 -2.354382e-02 9.884427e-02 5.164925e-02 1.540649e-02 1.259169e-02 8.111870e-02 3.300535e-02 -1.255972e-01 -1.002859e-01 1.012336e-01 9.082578e-02 -5.453498e-02 -1.653804e-03
<VARIANCE> 25
 5.672893e+00 1.147966e+01 8.695818e+00 1.243412e+01 1.531291e+01 1.583497e+01 1.730264e+01 1.902583e+01 1.582993e+01 1.695183e+01 2.318219e+01 2.140020e+01 8.533505e-02 2.040152e-01 2.906567e-01 5.001518e-01 5.703423e-01 6.247472e-01 7.157424e-01 7.704665e-01 8.634555e-01 9.232292e-01 9.082448e-01 8.925015e-01 5.664187e-05
<GCONST> 6.007141e+01
<MIXTURE> 31 4.136493e-03
<MEAN> 25
 -3.487934e+00 -5.252798e+00 1.140515e-02 6.780932e+00 4.029298e+00 1.330536e+00 5.368013e+00 6.552362e+00 4.027038e+00 -1.858336e-01 4.660290e+00 3.562707e+00 2.866285e-01 6.130794e-01 -1.437467e-01 1.590333e-01 -4.915464e-03 4.644642e-01 3.815224e-01 -1.408499e-02 3.063293e-01 6.021290e-01 9.005683e-02 -1.384181e-01 -2.052031e-02
<VARIANCE> 25
 5.943552e+00 1.431275e+01 1.407459e+01 2.496687e+01 2.046064e+01 1.996001e+01 1.951643e+01 2.097906e+01 2.666005e+01 2.912458e+01 2.642014e+01 1.753958e+01 1.923481e-01 4.643505e-01 5.160303e-01 6.985976e-01 8.498263e-01 1.004580e+00 1.233534e+00 1.196059e+00 1.176251e+00 1.258143e+00 1.093861e+00 1.209443e+00 2.289435e-04
<GCONST> 7.015739e+01
<MIXTURE> 32 4.136493e-03
<MEAN> 25
 -3.487934e+00 -5.252798e+00 1.140515e-02 6.780932e+00 4.029298e+00 1.330536e+00 5.368013e+00 6.552362e+00 4.027038e+00 -1.858336e-01 4.660290e+00 3.562707e+00 2.866285e-01 6.130794e-01 -1.437467e-01 1.590333e-01 -4.915464e-03 4.644642e-01 3.815224e-01 -1.408499e-02 3.063293e-01 6.021290e-01 9.005683e-02 -1.384181e-01 -2.052031e-02
<VARIANCE> 25
 5.943552e+00 1.431275e+01 1.407459e+01 2.496687e+01 2.046064e+01 1.996001e+01 1.951643e+01 2.097906e+01 2.666005e+01 2.912458e+01 2.642014e+01 1.753958e+01 1.923481e-01 4.643505e-01 5.160303e-01 6.985976e-01 8.498263e-01 1.004580e+00 1.233534e+00 1.196059e+00 1.176251e+00 1.258143e+00 1.093861e+00 1.209443e+00 2.289435e-04
<GCONST> 7.015739e+01
<MIXTURE> 33 1.508826e-02
<MEAN> 25
 6.032954e+00 -6.018679e+00 -1.600577e+00 -2.748252e+00 -9.847318e-01 -7.362522e+00 -8.538751e+00 3.319958e+00 2.647329e-01 -2.007365e-01 -5.820377e+00 -2.079475e+00 8.239008e-01 -7.910824e-01 -2.788171e+00 -1.745219e+00 1.991799e+00 1.435884e+00 -6.731993e-01 -3.618251e-01 8.546942e-01 1.060430e+00 -6.077818e-01 -1.716136e+00 2.923550e-02
<VARIANCE> 25
 1.147308e+01 3.559472e+01 2.587334e+01 3.444260e+01 3.778033e+01 4.656433e+01 4.075684e+01 4.740501e+01 5.042224e+01 3.646852e+01 6.522491e+01 2.600607e+01 1.023975e+00 2.501669e+00 2.165410e+00 2.024935e+00 4.899281e+00 4.468690e+00 3.739628e+00 9.107327e+00 5.592942e+00 4.604597e+00 5.053454e+00 2.619435e+00 2.051329e-03
<GCONST> 9.741902e+01
<MIXTURE> 34 1.588179e-02
<MEAN> 25
 8.409479e+00 -2.719528e-01 -4.569564e-01 -5.374495e-01 -2.194085e+00 -1.579194e+00 -6.076653e+00 -4.740044e+00 -2.685957e+00 1.003794e+00 -3.129606e+00 -4.104817e+00 1.331954e-01 1.603988e+00 7.580875e-01 2.136240e+00 -8.941787e-02 4.801239e-01 1.263920e+00 -1.961969e+00 -4.294491e-01 2.968630e-01 -4.791286e-03 -1.666863e-01 -6.597612e-02
<VARIANCE> 25
 8.897045e+00 4.127361e+01 2.938876e+01 5.352471e+01 4.816489e+01 4.619736e+01 5.754725e+01 4.832700e+01 4.816069e+01 4.360836e+01 7.809927e+01 2.858501e+01 1.224717e+00 2.297634e+00 5.756093e+00 4.053044e+00 5.373060e+00 8.064793e+00 5.602596e+00 8.035343e+00 5.434011e+00 4.338346e+00 6.191574e+00 4.032919e+00 1.200738e-03
<GCONST> 1.016257e+02
<MIXTURE> 35 1.467755e-02
<MEAN> 25
 -2.131408e+00 -5.429661e+00 -1.117971e+01 1.889717e+00 9.451954e+00 -2.122039e+00 -1.211818e+00 1.502763e-01 3.701249e+00 5.483389e+00 1.874616e+00 3.258723e+00 2.044876e-01 -1.482167e+00 -1.204256e+00 -1.247195e+00 5.425923e-01 -9.380156e-01 -1.217574e+00 -1.986916e-01 2.642502e-01 1.337185e-01 -4.191287e-01 -1.888414e-01 1.108929e-01
<VARIANCE> 25
 1.668919e+01 2.274905e+01 4.599058e+01 5.390590e+01 3.542080e+01 6.878589e+01 5.268994e+01 5.342710e+01 3.993108e+01 3.778435e+01 3.743603e+01 3.091419e+01 2.823334e+00 3.669797e+00 6.103930e+00 4.495729e+00 4.526894e+00 6.317467e+00 6.949516e+00 3.527912e+00 4.116587e+00 4.877550e+00 4.452083e+00 6.142055e+00 4.109674e-03
<GCONST> 1.028324e+02
<MIXTURE> 36 1.093293e-02
<MEAN> 25
 4.707750e+00 -3.722403e+00 8.451755e+00 2.156496e+00 -1.085227e+01 -7.939093e+00 -6.756749e+00 3.947247e+00 -1.834625e+00 -4.885292e+00 2.908022e+00 -3.848104e-01 3.880838e-01 1.331801e-01 -7.145337e-01 9.165113e-02 9.526370e-01 1.804621e-01 -1.131612e-01 2.034691e-01 4.412489e-01 5.601110e-01 -3.116622e-01 -2.557375e-01 -1.763239e-02
<VARIANCE> 25
 8.984534e+00 1.453731e+01 2.832399e+01 2.735481e+01 3.079856e+01 3.225055e+01 4.132083e+01 3.324720e+01 4.079616e+01 3.055566e+01 2.377168e+01 2.313333e+01 4.124281e-01 6.820831e-01 1.527202e+00 1.789821e+00 1.420604e+00 1.815700e+00 2.505915e+00 1.658041e+00 2.125356e+00 1.626407e+00 1.264513e+00 1.245568e+00 7.266563e-04
<GCONST> 8.161262e+01
<MIXTURE> 37 1.246826e-02
<MEAN> 25
 9.652851e-01 7.171788e+00 1.134326e+01 -5.719713e+00 -8.632961e+00 -6.528029e-01 -3.748093e+00 -6.974352e+00 -3.185722e+00 -9.471673e-01 -2.599627e+00 -1.071968e+00 1.409895e-01 8.339469e-01 -1.490042e+00 3.582370e+00 1.725790e+00 -4.583342e-01 1.135992e+00 3.175145e-01 6.852176e-01 -2.603566e-01 4.454195e-01 -3.765931e-01 -9.352544e-02
<VARIANCE> 25
 1.429642e+01 2.663035e+01 3.300932e+01 4.645655e+01 3.485520e+01 2.889862e+01 5.854932e+01 3.849073e+01 3.722380e+01 3.315383e+01 3.734624e+01 3.021280e+01 2.566110e+00 3.100352e+00 2.836321e+00 3.620017e+00 4.587002e+00 4.242396e+00 4.525203e+00 3.505403e+00 3.331420e+00 3.437567e+00 3.493886e+00 3.098485e+00 3.498538e-03
<GCONST> 9.730607e+01
<MIXTURE> 38 1.154525e-02
<MEAN> 25
 -4.192772e+00 8.995447e+00 4.130888e+00 3.248956e+00 5.793288e-01 -4.951530e+00 -3.812600e-01 -2.744453e+00 -2.350242e+00 -2.737910e+00 -1.058635e+00 -5.077076e-01 -4.401281e+00 1.080469e+00 -3.735029e-01 1.540824e+00 2.488566e+00 1.256768e+00 2.023330e+00 8.870879e-01 8.095184e-01 4.107056e-01 9.183062e-01 3.957985e-01 4.893107e-02
<VARIANCE> 25
 3.135965e+01 2.869579e+01 4.039715e+01 3.524598e+01 4.749462e+01 3.449917e+01 3.476891e+01 3.904214e+01 3.640128e+01 3.288681e+01 2.502038e+01 2.710435e+01 2.390078e+00 4.353199e+00 3.743082e+00 4.922172e+00 4.075695e+00 4.971076e+00 4.552280e+00 4.402570e+00 4.222453e+00 5.344438e+00 4.248075e+00 3.212860e+00 1.982014e-03
<GCONST> 9.900112e+01
<MIXTURE> 39 9.501865e-03
<MEAN> 25
 1.378377e+00 1.561382e+00 1.066232e+01 -1.021389e+01 -1.013840e+01 1.514699e+00 -2.135886e+00 -5.991582e+00 -4.867700e+00 5.309022e-01 -2.115653e+00 -1.526510e+00 -7.588664e-01 1.565909e+00 1.599911e+00 -1.820151e+00 1.415901e-01 1.209360e+00 -1.339675e+00 -6.938857e-01 2.825246e-01 -5.058578e-03 -1.181572e-01 5.419886e-01 3.820675e-03
<VARIANCE> 25
 9.619905e+00 3.132897e+01 2.636023e+01 3.564459e+01 3.286244e+01 5.948018e+01 4.404860e+01 2.955932e+01 5.471921e+01 3.404029e+01 4.487450e+01 3.077634e+01 8.333038e-01 2.016809e+00 1.711488e+00 2.848520e+00 2.008626e+00 2.664338e+00 2.481012e+00 3.878441e+00 2.134063e+00 2.836836e+00 2.221633e+00 2.508479e+00 1.364539e-03
<GCONST> 9.097730e+01
<MIXTURE> 40 1.030800e-02
<MEAN> 25
 -8.396983e+00 2.574993e+00 -1.265818e+00 8.545198e+00 3.867276e+00 4.674294e+00 5.820614e+00 3.768008e+00 4.718440e+00 4.128431e+00 5.253033e+00 1.036265e+00 -4.458492e-02 -1.856401e-01 7.768920e-02 -2.279886e-01 4.789011e-03 -1.504499e-02 7.927617e-02 -7.067297e-02 -2.285409e-01 -1.916289e-02 5.118905e-02 -5.787182e-02 2.052992e-03
<VARIANCE> 25
 3.936955e+01 1.899284e+01 2.507792e+01 2.384623e+01 2.252841e+01 1.972069e+01 1.838335e+01 1.720835e+01 1.614425e+01 1.697459e+01 1.839765e+01 1.545467e+01 6.817358e-01 7.497491e-01 8.667173e-01 9.966409e-01 1.138251e+00 1.112784e+00 1.220333e+00 1.248393e+00 1.326741e+00 1.252054e+00 1.162666e+00 1.137112e+00 8.621484e-04
<GCONST> 7.564474e+01
<MIXTURE> 41 6.713375e-03
<MEAN> 25
 8.654134e-01 4.645336e-01 1.091627e+01 -7.346594e+00 -1.099123e+01 -4.484726e+00 -3.925380e+00 -3.941218e+00 -6.162344e+00 2.550867e+00 -2.242570e+00 -2.086656e-01 2.096566e-01 -6.991922e-01 2.163424e+00 -3.508251e+00 -2.487990e+00 -7.231225e-02 -1.428016e+00 -1.226920e-01 -1.236669e+00 1.034136e+00 -8.110533e-01 -8.172466e-03 8.356272e-02
<VARIANCE> 25
 1.098982e+01 3.302853e+01 2.939956e+01 3.566374e+01 3.552523e+01 4.376213e+01 4.601878e+01 3.152383e+01 4.217149e+01 2.474664e+01 3.102899e+01 2.611496e+01 2.855700e+00 2.865199e+00 4.485518e+00 3.380110e+00 4.448584e+00 5.242878e+00 8.047113e+00 4.052220e+00 4.894449e+00 3.826416e+00 3.719863e+00 2.946388e+00 2.506711e-03
<GCONST> 9.786330e+01
<MIXTURE> 42 1.106211e-02
<MEAN> 25
 -1.922159e+00 4.479768e+00 4.555006e+00 2.944614e+00 7.880162e-02 -6.361597e+00 -6.879869e-01 -1.862422e+00 -1.499565e+00 -1.456560e+00 -2.224506e+00 1.178874e+00 4.070285e+00 -3.627619e-01 1.662172e+00 9.468944e-02 -2.935059e+00 -1.145104e+00 -2.362250e+00 -7.475907e-01 -9.367278e-01 -6.688555e-01 4.301566e-01 -1.008021e+00 1.398407e-02
<VARIANCE> 25
 3.548506e+01 2.126812e+01 4.531111e+01 2.558433e+01 3.904799e+01 4.048135e+01 3.843962e+01 2.659881e+01 2.818039e+01 2.868259e+01 1.962468e+01 1.807283e+01 3.772490e+00 4.912400e+00 6.634044e+00 4.926812e+00 4.545595e+00 5.884391e+00 5.428011e+00 5.248124e+00 5.866210e+00 4.854643e+00 4.485865e+00 3.392174e+00 4.775768e-03
<GCONST> 1.002601e+02
<MIXTURE> 43 7.108249e-03
<MEAN> 25
 3.148524e+00 -6.310627e+00 -2.193619e+00 -5.211946e+00 -7.388665e+00 -3.397498e+00 4.099947e+00 1.304056e+00 -5.119555e+00 -7.096708e+00 -4.337522e+00 -1.218608e+00 2.382029e-01 2.171707e+00 1.904966e+00 -1.405232e-01 -1.425763e+00 -7.814118e-01 -9.696481e-01 -7.828557e-01 8.149009e-01 1.464523e+00 3.516590e-01 1.921612e-02 -4.511286e-02
<VARIANCE> 25
 9.665062e+00 1.984273e+01 2.818224e+01 3.524887e+01 3.829032e+01 3.653398e+01 3.358904e+01 3.967289e+01 4.043271e+01 3.855100e+01 2.652719e+01 2.976035e+01 6.885841e-01 1.262554e+00 1.589670e+00 2.498097e+00 2.375393e+00 2.428600e+00 2.651438e+00 3.031928e+00 2.620186e+00 2.573391e+00 2.347285e+00 1.916602e+00 9.403786e-04
<GCONST> 8.808457e+01
<MIXTURE> 44 7.328289e-03
<MEAN> 25
 -1.540015e+01 1.556596e+00 3.551899e+00 -3.286176e+00 3.385638e+00 2.119467e+00 -4.827370e-02 2.405673e+00 1.522318e+00 -8.081067e-01 1.841436e+00 1.967002e+00 -1.651310e-01 4.853683e-03 1.633083e-01 2.936383e-01 -1.166581e-01 1.980955e-01 4.702933e-01 1.161921e-01 2.453890e-01 1.322670e-01 5.731586e-02 9.867958e-02 4.368150e-03
<VARIANCE> 25
 4.128391e+01 2.795056e+01 3.539181e+01 3.025097e+01 2.947911e+01 3.023854e+01 2.491767e+01 3.229432e+01 2.781603e+01 2.752814e+01 2.725170e+01 1.944363e+01 1.224863e+00 1.552208e+00 1.397258e+00 1.350950e+00 2.162727e+00 1.657598e+00 1.510690e+00 1.666180e+00 1.570881e+00 1.512077e+00 1.365375e+00 1.223084e+00 1.293209e-03
<GCONST> 8.457553e+01
<MIXTURE> 45 1.364932e-02
<MEAN> 25
 -1.093117e+01 4.757740e+00 -1.952168e+00 4.789042e+00 4.611022e+00 -7.093851e-02 4.504463e+00 1.409814e+00 3.804150e+00 9.081665e-01 2.593857e+00 2.069105e+00 -2.910341e+00 2.294308e-01 -8.119875e-01 4.222788e-02 3.703973e-01 -3.193626e-01 4.372692e-01 1.357903e-01 2.307518e-01 -5.480121e-01 -9.640897e-02 2.725261e-01 1.155368e-01
<VARIANCE> 25
 3.435806e+01 3.345025e+01 3.194414e+01 4.126546e+01 2.956484e+01 2.645166e+01 2.611777e+01 2.725662e+01 2.095552e+01 2.404886e+01 2.318433e+01 1.455655e+01 1.961135e+00 2.978306e+00 2.945812e+00 3.140834e+00 2.109674e+00 2.477684e+00 2.193215e+00 1.963869e+00 2.228135e+00 2.770849e+00 2.009967e+00 1.468878e+00 3.486817e-03
<GCONST> 8.979974e+01
<MIXTURE> 46 9.336259e-03
<MEAN> 25
 -8.949977e+00 3.014457e+00 -3.708172e-01 9.005374e+00 6.191220e+00 1.810046e+00 7.241734e+00 4.102410e+00 6.878884e+00 3.939773e+00 3.506309e+00 2.215575e+00 1.075566e+00 -6.884028e-02 3.254328e-01 8.579594e-01 4.879989e-01 1.153780e+00 3.714271e-01 6.875200e-01 3.480764e-01 6.288823e-01 5.274159e-01 1.396283e-01 -1.040730e-01
<VARIANCE> 25
 3.303156e+01 3.796692e+01 4.070318e+01 5.003842e+01 4.457068e+01 4.384408e+01 3.258635e+01 3.072463e+01 3.314315e+01 3.001317e+01 3.316581e+01 2.465131e+01 3.322284e+00 3.802335e+00 3.639468e+00 3.591783e+00 3.928346e+00 4.011292e+00 3.145595e+00 2.647667e+00 2.951154e+00 2.630746e+00 2.194670e+00 2.254025e+00 7.082168e-03
<GCONST> 9.747752e+01
<MIXTURE> 47 7.116147e-03
<MEAN> 25
 7.033995e+00 -7.719803e+00 -7.340420e+00 -7.233549e+00 1.906443e+00 1.061720e+00 -2.432297e+00 1.014614e+00 2.825542e+00 -2.051110e-01 -4.711656e+00 -6.656928e+00 -2.343035e-01 -1.248327e+00 -6.028993e-01 -5.438201e-01 6.019291e-01 6.990025e-01 9.152373e-01 3.359444e-01 4.646060e-02 -9.910365e-01 -5.630617e-01 -3.320868e-01 3.076200e-02
<VARIANCE> 25
 1.178150e+01 2.202814e+01 2.264082e+01 4.225761e+01 3.730909e+01 5.099604e+01 4.307997e+01 3.955091e+01 4.196552e+01 4.693988e+01 4.990959e+01 3.191314e+01 5.386671e-01 7.363926e-01 1.213709e+00 1.962785e+00 1.897176e+00 2.342681e+00 2.234800e+00 2.390969e+00 2.182507e+00 2.246593e+00 2.238276e+00 2.190526e+00 5.367904e-04
<GCONST> 8.708064e+01
<MIXTURE> 48 7.116147e-03
<MEAN> 25
 7.033995e+00 -7.719803e+00 -7.340420e+00 -7.233549e+00 1.906443e+00 1.061720e+00 -2.432297e+00 1.014614e+00 2.825542e+00 -2.051110e-01 -4.711656e+00 -6.656928e+00 -2.343035e-01 -1.248327e+00 -6.028993e-01 -5.438201e-01 6.019291e-01 6.990025e-01 9.152373e-01 3.359444e-01 4.646060e-02 -9.910365e-01 -5.630617e-01 -3.320868e-01 3.076200e-02
<VARIANCE> 25
 1.178150e+01 2.202814e+01 2.264082e+01 4.225761e+01 3.730909e+01 5.099604e+01 4.307997e+01 3.955091e+01 4.196552e+01 4.693988e+01 4.990959e+01 3.191314e+01 5.386671e-01 7.363926e-01 1.213709e+00 1.962785e+00 1.897176e+00 2.342681e+00 2.234800e+00 2.390969e+00 2.182507e+00 2.246593e+00 2.238276e+00 2.190526e+00 5.367904e-04
<GCONST> 8.708064e+01
<MIXTURE> 49 5.548473e-03
<MEAN> 25
 -4.865184e+00 8.392907e-01 2.291381e-02 8.982440e+00 6.040792e+00 5.393486e+00 6.198911e+00 3.984550e+00 4.701816e+00 3.533790e+00 4.751259e+00 2.117768e+00 3.205201e-01 5.840618e-01 6.528986e-01 4.033609e-01 -1.357082e-01 -6.295279e-01 -9.480452e-01 -1.088294e+00 -8.782263e-01 -6.606526e-01 -4.765157e-01 -3.238367e-01 1.310268e-04
<VARIANCE> 25
 8.671484e+00 1.224613e+01 1.259987e+01 1.577636e+01 1.448948e+01 1.544518e+01 2.029721e+01 1.892252e+01 1.703799e+01 1.926887e+01 1.921839e+01 1.788762e+01 2.608543e-01 2.844426e-01 3.304026e-01 6.243982e-01 8.468031e-01 8.859129e-01 9.004433e-01 9.520769e-01 1.045962e+00 1.095582e+00 1.246212e+00 1.158433e+00 1.521375e-05
<GCONST> 6.368911e+01
<MIXTURE> 50 6.234641e-03
<MEAN> 25
 -4.597360e+00 4.972502e-01 -1.523675e+00 6.468667e+00 4.213054e+00 2.373971e+00 4.088574e+00 1.740874e+00 2.784293e+00 1.525240e+00 2.063245e+00 2.460294e+00 5.749203e-02 1.684854e-01 4.053382e-02 -1.962422e-01 -4.380395e-01 -5.990618e-01 -4.232636e-01 -3.104067e-02 3.856074e-01 8.333259e-01 7.373377e-01 4.451449e-01 -1.238267e-05
<VARIANCE> 25
 9.794328e+00 1.227759e+01 1.333699e+01 1.508359e+01 1.449314e+01 1.728360e+01 1.952864e+01 1.934153e+01 1.745767e+01 1.724704e+01 2.035027e+01 1.612479e+01 1.338719e-01 2.244951e-01 3.854192e-01 4.933202e-01 6.829930e-01 6.862418e-01 8.959641e-01 1.041883e+00 1.019804e+00 9.198394e-01 8.588058e-01 9.336651e-01 1.030631e-06
<GCONST> 5.893754e+01
<MIXTURE> 51 6.234641e-03
<MEAN> 25
 -4.597360e+00 4.972502e-01 -1.523675e+00 6.468667e+00 4.213054e+00 2.373971e+00 4.088574e+00 1.740874e+00 2.784293e+00 1.525240e+00 2.063245e+00 2.460294e+00 5.749203e-02 1.684854e-01 4.053382e-02 -1.962422e-01 -4.380395e-01 -5.990618e-01 -4.232636e-01 -3.104067e-02 3.856074e-01 8.333259e-01 7.373377e-01 4.451449e-01 -1.238267e-05
<VARIANCE> 25
 9.794328e+00 1.227759e+01 1.333699e+01 1.508359e+01 1.449314e+01 1.728360e+01 1.952864e+01 1.934153e+01 1.745767e+01 1.724704e+01 2.035027e+01 1.612479e+01 1.338719e-01 2.244951e-01 3.854192e-01 4.933202e-01 6.829930e-01 6.862418e-01 8.959641e-01 1.041883e+00 1.019804e+00 9.198394e-01 8.588058e-01 9.336651e-01 1.030631e-06
<GCONST> 5.893754e+01
<MIXTURE> 52 6.367945e-03
<MEAN> 25
 9.376178e+00 1.642474e+00 -5.745123e+00 -1.535562e+01 -4.125691e+00 8.659972e+00 -4.448606e+00 -3.039505e+00 -5.126221e+00 -1.769870e+00 2.418780e+00 1.631201e+00 -4.036381e-01 -3.673117e-01 6.870130e-02 1.183517e+00 1.229426e+00 -5.782084e-01 -6.166406e-01 -6.816216e-01 3.770681e-02 1.499240e+00 4.202189e-01 -3.239849e-01 -1.252968e-02
<VARIANCE> 25
 1.193806e+01 1.929714e+01 2.395419e+01 4.573513e+01 4.075356e+01 2.778177e+01 6.421486e+01 4.374924e+01 4.170718e+01 4.311277e+01 4.143391e+01 3.440371e+01 4.222152e-01 1.417328e+00 1.360842e+00 2.724502e+00 2.246102e+00 2.235827e+00 2.877800e+00 2.591939e+00 2.784343e+00 2.959681e+00 2.238142e+00 2.541270e+00 1.488187e-03
<GCONST> 8.987238e+01
<MIXTURE> 53 6.367945e-03
<MEAN> 25
 9.376178e+00 1.642474e+00 -5.745123e+00 -1.535562e+01 -4.125691e+00 8.659972e+00 -4.448606e+00 -3.039505e+00 -5.126221e+00 -1.769870e+00 2.418780e+00 1.631201e+00 -4.036381e-01 -3.673117e-01 6.870130e-02 1.183517e+00 1.229426e+00 -5.782084e-01 -6.166406e-01 -6.816216e-01 3.770681e-02 1.499240e+00 4.202189e-01 -3.239849e-01 -1.252968e-02
<VARIANCE> 25
 1.193806e+01 1.929714e+01 2.395419e+01 4.573513e+01 4.075356e+01 2.778177e+01 6.421486e+01 4.374924e+01 4.170718e+01 4.311277e+01 4.143391e+01 3.440371e+01 4.222152e-01 1.417328e+00 1.360842e+00 2.724502e+00 2.246102e+00 2.235827e+00 2.877800e+00 2.591939e+00 2.784343e+00 2.959681e+00 2.238142e+00 2.541270e+00 1.488187e-03
<GCONST> 8.987238e+01
<MIXTURE> 54 7.368620e-03
<MEAN> 25
 -3.631257e+00 1.035709e+00 -9.060254e-01 8.472600e+00 6.188872e+00 4.249862e+00 5.645285e+00 4.136920e+00 4.109678e+00 3.862130e+00 3.964362e+00 9.616420e-01 2.125350e-02 5.538523e-02 4.006593e-02 5.085354e-02 6.418511e-02 6.634510e-02 2.100969e-02 5.246710e-02 6.925497e-02 -3.246510e-02 4.528270e-02 2.266447e-02 5.649168e-05
<VARIANCE> 25
 7.520929e+00 1.229599e+01 8.019109e+00 1.588870e+01 1.153417e+01 1.192216e+01 1.388342e+01 1.095410e+01 1.034359e+01 1.263117e+01 1.597789e+01 1.876567e+01 3.619865e-02 9.684478e-02 1.485607e-01 2.309703e-01 3.020083e-01 3.591171e-01 3.905261e-01 5.014777e-01 5.720454e-01 6.060933e-01 4.838282e-01 5.278791e-01 1.395415e-06
<GCONST> 4.706125e+01
<MIXTURE> 55 7.368620e-03
<MEAN> 25
 -3.631257e+00 1.035709e+00 -9.060254e-01 8.472600e+00 6.188872e+00 4.249862e+00 5.645285e+00 4.136920e+00 4.109678e+00 3.862130e+00 3.964362e+00 9.616420e-01 2.125350e-02 5.538523e-02 4.006593e-02 5.085354e-02 6.418511e-02 6.634510e-02 2.100969e-02 5.246710e-02 6.925497e-02 -3.246510e-02 4.528270e-02 2.266447e-02 5.649168e-05
<VARIANCE> 25
 7.520929e+00 1.229599e+01 8.019109e+00 1.588870e+01 1.153417e+01 1.192216e+01 1.388342e+01 1.095410e+01 1.034359e+01 1.263117e+01 1.597789e+01 1.876567e+01 3.619865e-02 9.684478e-02 1.485607e-01 2.309703e-01 3.020083e-01 3.591171e-01 3.905261e-01 5.014777e-01 5.720454e-01 6.060933e-01 4.838282e-01 5.278791e-01 1.395415e-06
<GCONST> 4.706125e+01
<MIXTURE> 56 6.132464e-03
<MEAN> 25
 7.560012e+00 -6.777655e+00 -9.148677e+00 -8.665230e+00 3.953490e+00 3.937597e+00 -2.172856e+00 -1.481910e+00 1.952544e+00 6.623127e-01 -2.483682e+00 -7.148267e+00 -1.088690e-02 2.495185e-02 -8.508676e-02 2.197411e-02 2.578800e-01 6.629510e-02 1.150830e-01 -1.373505e-01 -4.668756e-02 -3.675011e-02 -8.347663e-02 1.944642e-02 -7.047321e-03
<VARIANCE> 25
 9.333420e+00 2.327970e+01 2.010193e+01 4.126859e+01 3.330401e+01 5.100834e+01 6.196248e+01 3.681868e+01 3.894773e+01 3.775925e+01 4.032786e+01 3.112086e+01 2.063214e-01 4.327220e-01 4.534959e-01 7.717696e-01 7.970113e-01 1.113593e+00 9.093740e-01 9.086896e-01 9.080520e-01 9.274361e-01 1.035222e+00 7.857574e-01 2.393028e-04
<GCONST> 7.515568e+01
<MIXTURE> 57 6.132464e-03
<MEAN> 25
 7.560012e+00 -6.777655e+00 -9.148677e+00 -8.665230e+00 3.953490e+00 3.937597e+00 -2.172856e+00 -1.481910e+00 1.952544e+00 6.623127e-01 -2.483682e+00 -7.148267e+00 -1.088690e-02 2.495185e-02 -8.508676e-02 2.197411e-02 2.578800e-01 6.629510e-02 1.150830e-01 -1.373505e-01 -4.668756e-02 -3.675011e-02 -8.347663e-02 1.944642e-02 -7.047321e-03
<VARIANCE> 25
 9.333420e+00 2.327970e+01 2.010193e+01 4.126859e+01 3.330401e+01 5.100834e+01 6.196248e+01 3.681868e+01 3.894773e+01 3.775925e+01 4.032786e+01 3.112086e+01 2.063214e-01 4.327220e-01 4.534959e-01 7.717696e-01 7.970113e-01 1.113593e+00 9.093740e-01 9.086896e-01 9.080520e-01 9.274361e-01 1.035222e+00 7.857574e-01 2.393028e-04
<GCONST> 7.515568e+01
<MIXTURE> 58 6.172147e-03
<MEAN> 25
 2.715343e+00 -3.156831e+00 7.721900e+00 -5.211881e+00 -1.333566e+01 -5.280589e+00 1.431647e+00 1.055628e+00 -2.620898e+00 1.845269e+00 6.748775e-01 -9.996223e-01 -2.548507e-02 -1.195359e-01 -5.474886e-02 -1.914071e-01 2.512361e-02 2.334340e-01 4.192434e-01 2.253442e-01 3.976796e-02 7.702202e-02 -7.710411e-02 -1.254018e-01 -3.345015e-03
<VARIANCE> 25
 7.794689e+00 1.468007e+01 2.387834e+01 2.696579e+01 2.249606e+01 4.845521e+01 3.387839e+01 3.688480e+01 3.321597e+01 3.206712e+01 2.215607e+01 2.018790e+01 2.965668e-01 8.245225e-01 7.417824e-01 1.066075e+00 9.190603e-01 1.180024e+00 1.165584e+00 1.312350e+00 1.111865e+00 1.096672e+00 8.794883e-01 8.432875e-01 7.105453e-04
<GCONST> 7.586601e+01
<MIXTURE> 59 6.172147e-03
<MEAN> 25
 2.715343e+00 -3.156831e+00 7.721900e+00 -5.211881e+00 -1.333566e+01 -5.280589e+00 1.431647e+00 1.055628e+00 -2.620898e+00 1.845269e+00 6.748775e-01 -9.996223e-01 -2.548507e-02 -1.195359e-01 -5.474886e-02 -1.914071e-01 2.512361e-02 2.334340e-01 4.192434e-01 2.253442e-01 3.976796e-02 7.702202e-02 -7.710411e-02 -1.254018e-01 -3.345015e-03
<VARIANCE> 25
 7.794689e+00 1.468007e+01 2.387834e+01 2.696579e+01 2.249606e+01 4.845521e+01 3.387839e+01 3.688480e+01 3.321597e+01 3.206712e+01 2.215607e+01 2.018790e+01 2.965668e-01 8.245225e-01 7.417824e-01 1.066075e+00 9.190603e-01 1.180024e+00 1.165584e+00 1.312350e+00 1.111865e+00 1.096672e+00 8.794883e-01 8.432875e-01 7.105453e-04
<GCONST> 7.586601e+01
<MIXTURE> 60 4.479129e-03
<MEAN> 25
 -4.259530e+00 -5.911248e-01 -1.089407e+00 3.808504e+00 1.739863e+00 2.131052e+00 1.767467e+00 1.539754e+00 2.160150e+00 1.275375e+00 2.371113e+00 1.824858e+00 -2.967523e-02 6.106555e-02 9.458578e-02 1.213346e-01 1.259001e-01 1.259710e-01 1.785488e-01 3.190695e-01 5.354550e-01 6.601042e-01 5.506472e-01 3.013077e-01 -4.411779e-04
<VARIANCE> 25
 6.832211e+00 4.826715e+00 1.015599e+01 1.193290e+01 1.340093e+01 1.678965e+01 1.493690e+01 1.178897e+01 1.264776e+01 1.307908e+01 1.581247e+01 1.269995e+01 8.618651e-02 1.677625e-01 2.811629e-01 4.332057e-01 5.871313e-01 7.199718e-01 8.192726e-01 8.942478e-01 9.015750e-01 8.387166e-01 8.333871e-01 8.565286e-01 2.299312e-05
<GCONST> 5.642717e+01
<MIXTURE> 61 4.479129e-03
<MEAN> 25
 -4.259530e+00 -5.911248e-01 -1.089407e+00 3.808504e+00 1.739863e+00 2.131052e+00 1.767467e+00 1.539754e+00 2.160150e+00 1.275375e+00 2.371113e+00 1.824858e+00 -2.967523e-02 6.106555e-02 9.458578e-02 1.213346e-01 1.259001e-01 1.259710e-01 1.785488e-01 3.190695e-01 5.354550e-01 6.601042e-01 5.506472e-01 3.013077e-01 -4.411779e-04
<VARIANCE> 25
 6.832211e+00 4.826715e+00 1.015599e+01 1.193290e+01 1.340093e+01 1.678965e+01 1.493690e+01 1.178897e+01 1.264776e+01 1.307908e+01 1.581247e+01 1.269995e+01 8.618651e-02 1.677625e-01 2.811629e-01 4.332057e-01 5.871313e-01 7.199718e-01 8.192726e-01 8.942478e-01 9.015750e-01 8.387166e-01 8.333871e-01 8.565286e-01 2.299312e-05
<GCONST> 5.642717e+01
<MIXTURE> 62 3.278034e-03
<MEAN> 25
 -5.090890e+00 1.241710e+00 1.026018e+00 8.819005e+00 6.130155e+00 5.050570e+00 5.500385e+00 4.033430e+00 4.986065e+00 3.917587e+00 4.965732e+00 2.949953e+00 -1.003182e+00 -1.166493e+00 -9.531938e-01 -2.768416e-01 4.275292e-01 1.005016e+00 1.384549e+00 1.552050e+00 1.478535e+00 1.243407e+00 1.066980e+00 7.260728e-01 -1.265289e-03
<VARIANCE> 25
 9.871730e+00 9.959235e+00 1.311464e+01 1.673165e+01 1.741591e+01 1.752290e+01 1.970381e+01 1.911176e+01 1.885842e+01 1.872573e+01 2.156418e+01 1.480375e+01 4.018105e-01 4.322977e-01 5.540863e-01 7.792877e-01 1.034952e+00 1.192235e+00 1.252341e+00 1.279176e+00 1.329844e+00 1.363811e+00 1.400020e+00 1.371203e+00 1.632272e-05
<GCONST> 6.752667e+01
<MIXTURE> 63 4.351215e-03
<MEAN> 25
 -4.161930e+00 -2.364600e+00 -4.512575e+00 3.677504e+00 3.526319e+00 -2.371364e-01 3.135918e+00 1.803699e+00 2.665457e+00 -1.089443e+00 -1.152371e+00 2.494773e+00 -6.861936e-02 3.752148e-01 4.049965e-01 4.657833e-01 3.752651e-01 4.022008e-01 4.460280e-01 1.443552e-01 9.155795e-02 2.770547e-01 1.900449e-01 3.064802e-02 -5.087491e-03
<VARIANCE> 25
 8.200660e+00 1.540139e+01 1.579559e+01 2.222578e+01 1.677660e+01 2.498907e+01 2.284604e+01 2.443427e+01 2.498821e+01 2.270059e+01 1.892148e+01 1.688090e+01 2.722987e-01 4.428236e-01 5.839573e-01 6.901289e-01 8.649853e-01 1.064476e+00 1.220858e+00 1.332523e+00 1.331310e+00 1.384106e+00 1.291960e+00 1.293373e+00 1.901037e-04
<GCONST> 7.105356e+01
<MIXTURE> 64 4.351215e-03
<MEAN> 25
 -4.161930e+00 -2.364600e+00 -4.512575e+00 3.677504e+00 3.526319e+00 -2.371364e-01 3.135918e+00 1.803699e+00 2.665457e+00 -1.089443e+00 -1.152371e+00 2.494773e+00 -6.861936e-02 3.752148e-01 4.049965e-01 4.657833e-01 3.752651e-01 4.022008e-01 4.460280e-01 1.443552e-01 9.155795e-02 2.770547e-01 1.900449e-01 3.064802e-02 -5.087491e-03
<VARIANCE> 25
 8.200660e+00 1.540139e+01 1.579559e+01 2.222578e+01 1.677660e+01 2.498907e+01 2.284604e+01 2.443427e+01 2.498821e+01 2.270059e+01 1.892148e+01 1.688090e+01 2.722987e-01 4.428236e-01 5.839573e-01 6.901289e-01 8.649853e-01 1.064476e+00 1.220858e+00 1.332523e+00 1.331310e+00 1.384106e+00 1.291960e+00 1.293373e+00 1.901037e-04
<GCONST> 7.105356e+01
<MIXTURE> 65 1.721197e-02
<MEAN> 25
 8.110877e+00 2.301288e+00 1.878045e+00 -1.100310e-01 -5.944417e+00 -3.050473e+00 -4.547784e+00 -6.664359e+00 -3.379559e+00 -1.100866e+00 -4.272110e+00 -2.736445e+00 2.343224e-01 3.179929e-02 -1.773085e-01 2.623246e-01 -2.728432e-01 3.818190e-01 2.026472e-03 -2.997154e-01 2.255123e-01 2.721700e-01 -1.643002e-02 -2.312341e-01 -4.906782e-03
<VARIANCE> 25
 9.262403e+00 1.850170e+01 2.453749e+01 3.569867e+01 3.542577e+01 6.549149e+01 6.342158e+01 5.271556e+01 5.129075e+01 6.216879e+01 6.004026e+01 4.974331e+01 5.858308e-01 9.952418e-01 1.822811e+00 1.791653e+00 1.999040e+00 2.163909e+00 2.222264e+00 3.231507e+00 2.236328e+00 2.682373e+00 2.302244e+00 1.999601e+00 4.385654e-04
<GCONST> 8.946584e+01
<MIXTURE> 66 1.191532e-02
<MEAN> 25
 6.647716e+00 -4.090896e+00 -5.582421e+00 -4.895584e+00 1.270189e+00 -5.065053e+00 -6.937060e+00 1.165577e+00 6.330475e-01 -2.046810e+00 -6.166056e+00 -3.430407e+00 -4.429198e-02 1.666551e+00 2.225059e+00 2.323566e+00 -1.250489e+00 -1.254353e+00 7.790980e-02 -5.419055e-01 -1.392327e-01 -1.947631e-01 -1.883269e-01 1.023947e+00 -6.383473e-02
<VARIANCE> 25
 9.038167e+00 2.308726e+01 2.719347e+01 3.358677e+01 3.835125e+01 5.327864e+01 5.593298e+01 4.562328e+01 5.407159e+01 6.661432e+01 3.753375e+01 3.670974e+01 1.276738e+00 2.442213e+00 2.385021e+00 2.469282e+00 4.186688e+00 4.318715e+00 4.424449e+00 4.865403e+00 4.295940e+00 4.964413e+00 3.919317e+00 3.355646e+00 1.481802e-03
<GCONST> 9.698575e+01
<MIXTURE> 67 1.559142e-02
<MEAN> 25
 8.211365e+00 2.235040e+00 -6.267363e+00 -8.410353e+00 7.866727e-01 1.852690e+00 -4.458109e+00 -3.779123e+00 -4.837451e+00 2.253295e+00 6.120811e-01 -8.963841e-01 -9.192982e-01 2.018604e+00 4.580582e-01 2.954240e+00 4.323597e-01 -1.029251e-01 2.239999e+00 -3.389469e-01 5.881831e-01 -5.579513e-01 2.288263e-02 -2.210705e-01 -1.282881e-01
<VARIANCE> 25
 1.333842e+01 3.353870e+01 2.456928e+01 5.028374e+01 3.656670e+01 4.046786e+01 6.502374e+01 4.157338e+01 4.522379e+01 4.689887e+01 6.259175e+01 4.173967e+01 1.960582e+00 2.606783e+00 2.919849e+00 3.621041e+00 4.844129e+00 5.790347e+00 4.407986e+00 4.388070e+00 3.986940e+00 4.590900e+00 7.117606e+00 5.037240e+00 2.219600e-03
<GCONST> 1.005610e+02
<MIXTURE> 68 1.485092e-02
<MEAN> 25
 -1.984498e+00 -1.459057e+00 -4.960744e+00 1.349730e+00 5.509701e+00 -2.100895e-01 1.468046e+00 2.669781e-01 2.305668e+00 8.629034e-01 1.480785e+00 1.183533e+00 2.664179e+00 3.555692e-01 4.456843e-01 -3.154843e+00 -2.211826e+00 -7.471092e-01 -2.667450e+00 -1.406015e+00 -1.619712e+00 -1.055393e+00 -2.090359e+00 -7.437263e-01 9.738620e-02
<VARIANCE> 25
 1.997425e+01 2.842642e+01 5.076072e+01 4.537144e+01 4.110341e+01 7.865047e+01 4.808163e+01 3.738038e+01 3.729846e+01 4.988910e+01 3.288800e+01 3.737371e+01 1.878204e+00 3.534986e+00 6.493068e+00 5.383134e+00 3.638063e+00 6.521959e+00 6.566945e+00 5.780486e+00 4.763200e+00 6.025438e+00 6.942805e+00 4.029558e+00 4.752270e-03
<GCONST> 1.038380e+02
<MIXTURE> 69 1.204884e-02
<MEAN> 25
 4.469804e+00 -4.876664e+00 -3.046954e+00 -3.961927e+00 -3.293055e+00 -7.674316e+00 -1.824357e+00 2.529746e+00 -7.628518e-01 -4.521805e+00 -5.721123e+00 8.740575e-01 1.582740e+00 -2.322684e+00 -1.272776e+00 -2.224617e+00 -2.733319e-01 -4.615617e-01 -5.489205e-01 6.368906e-01 -6.936395e-01 -1.314033e+00 -2.332912e+00 -2.101330e-01 6.222215e-02
<VARIANCE> 25
 9.045540e+00 2.622383e+01 2.915290e+01 3.158899e+01 4.256578e+01 4.146119e+01 5.039267e+01 3.505073e+01 4.699701e+01 3.556643e+01 3.503479e+01 2.662548e+01 3.369639e+00 2.918543e+00 4.175829e+00 4.481596e+00 6.450372e+00 5.312521e+00 7.478649e+00 5.800679e+00 5.733973e+00 6.345354e+00 4.797435e+00 3.816038e+00 2.412982e-03
<GCONST> 1.004473e+02
<MIXTURE> 70 1.329190e-02
<MEAN> 25
 6.940405e+00 -2.664851e+00 -3.818681e+00 -4.441326e+00 1.052187e+00 5.097805e-01 -8.501374e+00 -4.200739e+00 1.108993e+00 4.188118e+00 2.042715e-01 -4.246357e+00 1.975179e+00 -7.980101e-01 -4.173144e-01 -2.966848e+00 -1.509041e+00 1.782767e+00 -1.037832e+00 -3.610513e-01 -2.517108e-01 -3.098484e-01 -3.752261e-02 -1.069556e+00 5.468456e-02
<VARIANCE> 25
 1.096251e+01 3.353988e+01 2.549231e+01 5.222535e+01 3.246836e+01 4.563153e+01 4.328452e+01 3.778682e+01 4.268862e+01 3.901974e+01 6.021009e+01 3.603887e+01 3.694036e+00 4.470837e+00 6.762794e+00 6.256866e+00 4.414581e+00 8.889410e+00 8.195650e+00 7.697157e+00 5.620539e+00 6.511721e+00 7.887270e+00 3.963791e+00 2.392306e-03
<GCONST> 1.042197e+02
<MIXTURE> 71 1.406903e-02
<MEAN> 25
 6.463372e+00 4.882632e+00 4.110689e+00 2.130533e+00 -4.030801e+00 -2.178515e+00 -2.324126e+00 -6.368978e+00 -4.202885e+00 -1.562673e+00 -4.112693e+00 -3.391253e+00 -1.653350e+00 -7.515096e-01 -3.028046e-02 -1.717172e+00 1.136224e+00 -1.632033e-01 -5.026870e-02 1.431608e+00 4.807645e-01 -4.044196e-01 6.985107e-01 4.687979e-01 4.178265e-02
<VARIANCE> 25
 1.726399e+01 2.578542e+01 2.566539e+01 4.860852e+01 3.895688e+01 5.091887e+01 4.654630e+01 3.980888e+01 3.780731e+01 4.770477e+01 4.017328e+01 3.274949e+01 1.695727e+00 3.469223e+00 5.284003e+00 5.272101e+00 4.282584e+00 4.388526e+00 5.108952e+00 4.937787e+00 4.020361e+00 4.235829e+00 3.199364e+00 3.453065e+00 1.293088e-03
<GCONST> 9.881821e+01
<MIXTURE> 72 8.134747e-03
<MEAN> 25
 3.434460e+00 -4.437870e+00 5.580644e+00 -2.909667e+00 -1.036272e+01 -1.000101e+01 -2.977329e+00 2.793662e+00 -5.946539e+00 -2.262359e+00 -2.232111e+00 1.035327e+00 9.286082e-01 -1.067889e+00 -2.711921e+00 5.258700e-01 2.315185e+00 -7.656689e-01 -1.298584e+00 1.550255e+00 1.663860e+00 -3.005586e-01 -1.629087e+00 1.911079e-01 -3.927360e-03
<VARIANCE> 25
 1.131843e+01 2.425648e+01 3.080922e+01 3.751733e+01 3.011652e+01 3.250544e+01 4.080079e+01 4.243708e+01 5.127676e+01 3.815995e+01 3.750512e+01 2.827044e+01 4.009304e-01 1.830160e+00 2.091346e+00 1.415811e+00 2.419206e+00 2.351964e+00 2.827153e+00 2.578927e+00 2.658052e+00 3.681639e+00 3.160672e+00 2.467715e+00 5.590054e-04
<GCONST> 8.885014e+01
<MIXTURE> 73 1.213625e-02
<MEAN> 25
 -5.676737e+00 -9.797708e-01 -1.911198e+00 4.954409e+00 3.622583e+00 1.891020e+00 6.073072e+00 2.995909e+00 4.771283e+00 2.770354e+00 4.197483e+00 2.887839e+00 6.421815e-01 -1.167970e+00 -5.988380e-01 -2.381497e+00 -1.195676e+00 -1.757468e+00 -9.982915e-01 -4.020371e-01 -1.082876e+00 -7.162418e-01 -1.158765e+00 -1.135264e-01 1.489486e-01
<VARIANCE> 25
 1.180724e+01 1.505565e+01 1.637020e+01 2.270946e+01 2.675840e+01 2.819866e+01 2.171618e+01 1.983874e+01 1.762141e+01 2.090942e+01 2.125456e+01 1.668453e+01 3.954019e+00 3.100638e+00 6.954239e+00 5.004214e+00 5.549409e+00 4.308796e+00 4.083192e+00 3.826512e+00 4.012854e+00 3.958852e+00 3.605027e+00 2.671166e+00 4.188229e-03
<GCONST> 9.305180e+01
<MIXTURE> 74 1.756491e-02
<MEAN> 25
 3.619011e+00 -1.403666e+00 8.231535e+00 -4.015214e+00 -9.512027e+00 -5.543571e+00 -2.624388e+00 1.543290e+00 -5.089887e+00 -2.367785e+00 -3.464416e-01 2.198922e-01 4.946264e-01 2.056886e+00 -8.091118e-01 1.476029e+00 8.593937e-01 1.061755e+00 5.772721e-01 -1.581533e+00 6.775088e-01 3.262714e-01 2.328815e-01 -7.303359e-01 -7.572179e-02
<VARIANCE> 25
 1.104580e+01 3.004342e+01 4.542983e+01 3.718817e+01 3.450250e+01 3.960287e+01 6.981851e+01 3.620433e+01 5.287340e+01 3.513344e+01 4.216233e+01 2.954389e+01 1.645133e+00 1.939629e+00 4.292472e+00 3.808711e+00 3.148815e+00 4.792392e+00 5.737825e+00 4.790658e+00 4.364885e+00 3.694930e+00 3.158887e+00 2.883151e+00 1.357667e-03
<GCONST> 9.726319e+01
<MIXTURE> 75 9.711651e-03
<MEAN> 25
 1.954407e+00 -2.106918e+00 1.180947e+01 -8.161085e-01 -1.199025e+01 -7.458894e+00 -6.014609e+00 4.213241e-01 -5.926708e+00 -4.964675e+00 2.835094e+00 1.206701e+00 1.383182e+00 -1.879384e+00 2.645498e-01 -3.600749e-04 -1.708439e+00 -8.212330e-01 -1.469687e+00 1.107612e+00 -2.119405e-01 2.117531e-01 8.921172e-01 -4.378721e-01 3.768129e-02
<VARIANCE> 25
 1.094444e+01 1.688444e+01 2.533884e+01 4.280228e+01 2.530378e+01 2.888984e+01 2.888926e+01 2.694413e+01 3.454143e+01 3.176742e+01 1.925675e+01 2.264816e+01 2.091886e+00 2.612870e+00 3.826947e+00 3.243521e+00 4.524227e+00 4.913493e+00 3.983524e+00 2.897835e+00 5.388863e+00 4.717000e+00 3.347631e+00 2.277335e+00 1.550062e-03
<GCONST> 9.304740e+01
<MIXTURE> 76 1.052359e-02
<MEAN> 25
 -6.761384e+00 -1.394043e+00 -2.824263e+00 4.531684e+00 4.564087e+00 1.626068e+00 4.228302e+00 2.199598e+00 2.774871e+00 4.844568e-01 1.509367e+00 2.514172e+00 -5.121152e-02 -5.080786e-01 -2.532351e-01 -8.460441e-01 -5.991629e-01 -7.596553e-01 -5.376052e-01 -2.989259e-01 -5.106366e-01 -4.019700e-01 -2.491987e-01 -2.020711e-01 1.977685e-02
<VARIANCE> 25
 3.459328e+01 2.809318e+01 2.858829e+01 3.476294e+01 3.182019e+01 3.507086e+01 2.643963e+01 2.701736e+01 2.457003e+01 2.521535e+01 2.947350e+01 1.958563e+01 1.101231e+00 1.147632e+00 1.446511e+00 1.255369e+00 1.419787e+00 1.792516e+00 1.673913e+00 1.695991e+00 1.582510e+00 1.573768e+00 1.490734e+00 1.318922e+00 1.297598e-03
<GCONST> 8.385336e+01
<MIXTURE> 77 1.244626e-02
<MEAN> 25
 -3.768223e-01 8.143217e+00 1.217851e+01 -1.199303e+01 -6.916768e+00 1.124883e+00 -9.047181e+00 -6.812468e+00 -4.310977e+00 -5.467469e-01 -4.686908e+00 -1.329562e+00 8.108418e-02 2.101071e-01 4.167427e-02 2.160785e-01 -1.262326e-01 -1.203968e-02 1.734701e-02 -2.091072e-02 5.528279e-02 -1.260209e-01 6.574692e-02 7.823049e-02 -1.080243e-02
<VARIANCE> 25
 9.899127e+00 2.151628e+01 2.714083e+01 4.081415e+01 3.124986e+01 3.279224e+01 3.547704e+01 3.240394e+01 4.636027e+01 3.337340e+01 3.644335e+01 3.305800e+01 2.879506e-01 8.448331e-01 6.646010e-01 1.049864e+00 1.307422e+00 1.039272e+00 1.248513e+00 1.073684e+00 1.008457e+00 1.117005e+00 9.659995e-01 9.841043e-01 5.349515e-04
<GCONST> 7.809711e+01
<MIXTURE> 78 9.702551e-03
<MEAN> 25
 -1.071225e+01 1.509104e+00 -3.611464e+00 6.251062e+00 5.854962e+00 -4.487514e+00 4.589290e+00 1.916355e+00 5.761586e+00 2.705271e-01 -1.633658e+00 3.252729e+00 2.117111e+00 -2.512349e-02 4.892558e-01 4.221333e-01 7.235675e-02 4.234681e-01 -8.560564e-02 -2.931542e-02 -4.573607e-02 2.807039e-01 -2.156024e-01 -8.757501e-01 -7.594462e-02
<VARIANCE> 25
 3.482409e+01 2.466768e+01 3.253705e+01 5.590353e+01 3.581738e+01 3.917063e+01 3.023090e+01 2.691186e+01 4.153589e+01 2.185361e+01 2.732135e+01 2.004135e+01 4.250999e+00 2.559830e+00 2.729445e+00 2.458576e+00 2.439306e+00 3.833740e+00 4.180886e+00 2.416861e+00 2.339947e+00 2.060015e+00 1.736776e+00 2.333203e+00 4.456634e-03
<GCONST> 9.367100e+01
<MIXTURE> 79 1.156824e-02
<MEAN> 25
 2.568053e+00 1.377036e+00 1.025929e+01 -8.654246e+00 -1.178860e+01 3.086924e-01 -1.249040e+00 -4.668680e+00 -5.811943e+00 -9.526106e-03 -1.668841e+00 -1.706638e+00 1.056117e+00 -3.921236e-01 -1.367593e+00 2.353703e+00 -2.761103e-02 -1.692455e+00 7.932196e-01 9.229243e-01 -1.600725e-01 -5.277064e-01 5.011780e-02 3.173949e-01 -3.603007e-02
<VARIANCE> 25
 1.233306e+01 2.079636e+01 3.572468e+01 5.409053e+01 2.783193e+01 5.551334e+01 4.134629e+01 3.762589e+01 3.730075e+01 3.499233e+01 4.450644e+01 3.520582e+01 8.463495e-01 2.616466e+00 2.052194e+00 2.082011e+00 2.582009e+00 3.298766e+00 3.270081e+00 3.528095e+00 2.385986e+00 2.907892e+00 2.272230e+00 2.098188e+00 1.285742e-03
<GCONST> 9.196136e+01
<MIXTURE> 80 7.550998e-03
<MEAN> 25
 -1.460788e+01 3.982950e+00 6.882441e-01 2.865927e+00 2.449552e+00 1.410852e+00 6.396858e+00 2.496386e+00 2.719819e+00 2.373097e+00 4.852993e+00 1.186817e+00 4.286161e+00 -1.600881e-02 1.637895e+00 -1.135671e+00 -2.889262e+00 -2.777344e+00 -2.323174e+00 -2.021248e+00 -1.975013e+00 -1.685153e+00 -1.650921e+00 -6.026441e-01 -4.422871e-02
<VARIANCE> 25
 2.095661e+01 1.984541e+01 3.444722e+01 3.471136e+01 3.017914e+01 2.921782e+01 2.828570e+01 2.855507e+01 2.674584e+01 2.881161e+01 2.685422e+01 1.810653e+01 2.357495e+00 2.666005e+00 2.673008e+00 4.120403e+00 3.394641e+00 2.705714e+00 3.025128e+00 3.204526e+00 2.748949e+00 2.701535e+00 2.782137e+00 2.145741e+00 1.512499e-03
<GCONST> 9.139799e+01
<MIXTURE> 81 8.025434e-03
<MEAN> 25
 -8.427914e-01 3.148823e+00 9.865434e+00 -1.525322e+01 -8.345766e+00 -1.154315e+00 -6.880051e+00 -6.075317e+00 -7.189415e+00 -3.051231e+00 -7.407895e+00 -8.805165e-01 1.267909e-01 -2.353785e-01 -4.424579e-02 -4.603294e-01 -6.306539e-01 8.625491e-02 2.133506e-01 1.910605e-01 1.779118e-01 1.188242e-03 -1.180478e-01 -1.077488e-01 6.942458e-03
<VARIANCE> 25
 8.031971e+00 2.847918e+01 2.118263e+01 2.323390e+01 2.945633e+01 2.558513e+01 3.621158e+01 3.529438e+01 5.343090e+01 4.431643e+01 2.136366e+01 2.918487e+01 7.028079e-01 3.624399e+00 1.858902e+00 3.033418e+00 2.246618e+00 2.451712e+00 2.744317e+00 1.859919e+00 2.431177e+00 2.531614e+00 2.149673e+00 2.513575e+00 1.390073e-03
<GCONST> 8.848824e+01
<MIXTURE> 82 8.213053e-03
<MEAN> 25
 -9.912321e+00 -3.946153e+00 1.462266e+00 -2.849676e+00 2.993549e+00 5.318649e-01 2.171211e+00 9.007914e-01 3.101806e+00 1.634235e+00 1.808681e+00 3.133571e+00 -1.306188e+00 -1.738599e-01 3.493790e-01 -2.549424e+00 -1.099185e+00 -1.278352e+00 -1.033537e+00 -8.468841e-01 -3.668352e-01 -4.903768e-01 -3.533751e-01 -6.867479e-02 1.772473e-01
<VARIANCE> 25
 1.781588e+01 2.463441e+01 3.325460e+01 3.104115e+01 3.363176e+01 3.336475e+01 3.281791e+01 3.246106e+01 3.103967e+01 2.519007e+01 3.038771e+01 1.729338e+01 3.713761e+00 3.114792e+00 3.479130e+00 3.409897e+00 3.494852e+00 3.239266e+00 2.948340e+00 2.993267e+00 2.941067e+00 2.504201e+00 2.527586e+00 1.881743e+00 3.437850e-03
<GCONST> 9.329994e+01
<MIXTURE> 83 1.167529e-02
<MEAN> 25
 -2.004069e+01 5.504281e+00 -1.789798e+00 -4.043584e-01 7.829653e+00 -1.234616e+00 5.460426e+00 3.044643e+00 1.193047e+00 2.190668e+00 7.242917e-01 2.881818e+00 -2.629273e-02 -4.502338e-01 4.858525e-03 -3.655169e-01 -4.973040e-01 -1.258866e-01 -1.342970e-01 -9.939302e-02 -4.132950e-02 -3.911514e-02 -3.068849e-02 -3.464578e-02 4.401766e-03
<VARIANCE> 25
 8.819206e+00 1.645333e+01 2.851164e+01 2.249718e+01 2.127413e+01 2.407884e+01 2.202885e+01 2.336343e+01 2.043822e+01 2.221916e+01 2.319580e+01 1.448738e+01 1.060872e+00 9.362518e-01 1.240739e+00 1.065786e+00 1.359915e+00 1.291358e+00 1.283472e+00 1.388121e+00 1.349245e+00 1.310849e+00 1.220976e+00 1.071604e+00 8.923935e-04
<GCONST> 7.703673e+01
<MIXTURE> 84 1.066614e-02
<MEAN> 25
 1.153271e+00 9.087063e+00 6.941871e+00 7.813416e+00 2.431582e+00 -7.912906e-01 -1.275073e+00 -4.449015e+00 -3.677861e+00 -2.434892e+00 -1.979876e+00 -1.522174e+00 -1.777241e+00 -1.076991e+00 -1.204304e+00 1.384712e+00 2.274617e+00 1.446151e+00 1.364480e+00 1.150892e+00 1.168208e+00 3.534372e-01 4.329595e-01 4.540789e-01 -6.818373e-02
<VARIANCE> 25
 2.225110e+01 1.726883e+01 2.209899e+01 2.373890e+01 3.009580e+01 2.685184e+01 2.723423e+01 2.520425e+01 2.708895e+01 2.757280e+01 2.493709e+01 2.335855e+01 1.991282e+00 2.577177e+00 3.638111e+00 3.254621e+00 3.090061e+00 3.225093e+00 3.354840e+00 3.510331e+00 3.297310e+00 3.355111e+00 3.416577e+00 2.659068e+00 3.610010e-03
<GCONST> 9.222878e+01
<MIXTURE> 85 7.591393e-03
<MEAN> 25
 -3.128552e+00 7.620799e+00 5.581459e+00 1.336634e+00 -3.547691e+00 -5.556479e+00 -2.658369e+00 -6.017647e+00 -3.518994e+00 -3.438919e+00 -5.187899e-01 -1.818449e+00 3.843531e+00 2.844402e-01 1.918099e+00 -2.134056e+00 -3.396768e+00 -2.531220e+00 -2.999639e+00 -2.221731e+00 -2.408791e+00 -1.160667e+00 -2.346896e+00 -5.977384e-01 1.346017e-02
<VARIANCE> 25
 4.106042e+01 2.465817e+01 3.606485e+01 3.713699e+01 3.859195e+01 4.251223e+01 3.398659e+01 2.722708e+01 2.574887e+01 2.700517e+01 2.537848e+01 2.009345e+01 2.885109e+00 4.225113e+00 4.702964e+00 5.071270e+00 4.267613e+00 3.820455e+00 4.084032e+00 4.234997e+00 4.459982e+00 4.203960e+00 3.866037e+00 3.374759e+00 5.744354e-03
<GCONST> 9.873322e+01
<MIXTURE> 86 1.273941e-02
<MEAN> 25
 -4.492791e+00 9.365405e-02 -9.598556e-01 7.791557e+00 4.576730e+00 3.986038e+00 6.479934e+00 4.052312e+00 4.218303e+00 3.395542e+00 4.062530e+00 7.369111e-01 -1.618986e-02 7.461283e-02 -5.194970e-02 -1.354104e-01 -1.764465e-01 -6.134668e-02 -2.634836e-01 -3.430962e-01 -4.512093e-01 -2.534316e-01 -6.138381e-02 -1.110362e-01 -2.162377e-03
<VARIANCE> 25
 5.862834e+00 9.605684e+00 7.259569e+00 1.243755e+01 1.210616e+01 1.179269e+01 1.282158e+01 1.266264e+01 1.266355e+01 1.253774e+01 1.419824e+01 1.801403e+01 8.608713e-02 1.964461e-01 2.712566e-01 4.415966e-01 5.506045e-01 6.092407e-01 6.755272e-01 6.735020e-01 7.798713e-01 7.996168e-01 9.035154e-01 1.061727e+00 6.180308e-05
<GCONST> 5.685668e+01
<MIXTURE> 87 1.100681e-02
<MEAN> 25
 -2.723612e+00 5.960563e+00 8.470023e-01 7.843208e+00 4.619436e+00 9.590844e-01 2.592229e+00 -1.333647e+00 9.995990e-01 -3.345456e-01 9.201910e-02 -7.934757e-01 -1.744903e+00 -2.871879e+00 -1.868531e+00 -1.625062e+00 3.403065e-01 -7.828689e-01 -2.657022e-01 1.086509e+00 1.594619e+00 1.019475e+00 7.039647e-01 1.326448e+00 1.061274e-01
<VARIANCE> 25
 4.044392e+01 2.484658e+01 3.028292e+01 3.397868e+01 2.491555e+01 2.528304e+01 2.526233e+01 2.320212e+01 2.587730e+01 2.485295e+01 2.238452e+01 1.968865e+01 3.386739e+00 2.492484e+00 4.101414e+00 3.364494e+00 5.159915e+00 3.672045e+00 5.772449e+00 3.476114e+00 3.530769e+00 3.807656e+00 3.168455e+00 2.180043e+00 3.513306e-03
<GCONST> 9.474817e+01
<MIXTURE> 88 1.256585e-02
<MEAN> 25
 -4.148784e+00 6.226431e-02 -1.659294e+00 6.728572e+00 4.642594e+00 2.718189e+00 5.229268e+00 3.174994e+00 4.242617e+00 2.340597e+00 2.594296e+00 1.943884e+00 1.083425e-01 2.352433e-01 3.043052e-01 2.212456e-01 2.582342e-01 2.906035e-01 8.608103e-02 -2.751794e-01 -5.009087e-01 -5.694030e-02 -4.488650e-02 -2.869002e-01 -8.843408e-03
<VARIANCE> 25
 7.554576e+00 1.247193e+01 1.257983e+01 1.950627e+01 1.696904e+01 1.936094e+01 1.673659e+01 1.636410e+01 1.644301e+01 1.847614e+01 2.147337e+01 1.623847e+01 1.205233e+00 1.547693e+00 1.858458e+00 2.021041e+00 2.264806e+00 2.196370e+00 2.416922e+00 2.158054e+00 2.130268e+00 2.549365e+00 2.102170e+00 2.043592e+00 1.638031e-03
<GCONST> 8.091161e+01
<MIXTURE> 89 9.333527e-03
<MEAN> 25
 4.139554e+00 -9.761357e+00 -1.850802e+00 -7.322654e+00 -2.780787e-02 -4.525909e+00 -5.884515e+00 4.378506e+00 1.663109e+00 -4.684267e+00 -1.015045e+01 -2.286816e+00 -5.425715e-01 -3.411334e-02 1.970921e+00 1.452712e+00 -1.915693e+00 -1.902678e+00 6.990280e-01 1.641270e+00 -1.006684e+00 -1.156727e+00 3.465880e-02 1.735363e+00 -3.987213e-04
<VARIANCE> 25
 1.299469e+01 3.470180e+01 2.945217e+01 5.956550e+01 3.200227e+01 3.710560e+01 4.263578e+01 3.961109e+01 3.470361e+01 3.732098e+01 5.736880e+01 2.864602e+01 2.775048e-01 7.636766e-01 1.360425e+00 1.958124e+00 1.490169e+00 1.786163e+00 1.986228e+00 2.537503e+00 2.943580e+00 1.651679e+00 2.939678e+00 1.171440e+00 3.229441e-04
<GCONST> 8.541496e+01
<MIXTURE> 90 7.114505e-03
<MEAN> 25
 2.447437e+00 -9.722061e+00 -4.754984e+00 -3.979294e+00 -3.382426e+00 -1.811656e+00 3.364762e+00 1.179842e+00 -7.532710e+00 -1.021679e+01 -3.429006e+00 -7.392807e-01 -1.637138e-01 9.091666e-01 1.168610e+00 -8.539312e-01 -1.612928e+00 -2.118323e-01 6.449075e-01 -2.095108e-01 -1.688643e-01 7.365918e-01 1.828799e-01 -5.498853e-01 -1.115191e-02
<VARIANCE> 25
 8.495030e+00 1.780867e+01 1.982172e+01 2.803817e+01 3.684523e+01 3.218882e+01 3.852699e+01 3.641430e+01 3.521982e+01 2.768742e+01 2.701985e+01 2.613247e+01 2.237882e-01 6.128034e-01 7.868605e-01 1.042743e+00 1.469843e+00 1.591749e+00 1.780028e+00 1.655364e+00 1.810014e+00 1.679432e+00 1.495286e+00 1.308902e+00 2.150497e-04
<GCONST> 7.813812e+01
<MIXTURE> 91 7.852945e-03
<MEAN> 25
 6.377197e+00 -7.623496e+00 -8.562005e+00 -5.201232e+00 3.951762e+00 -1.156136e-01 -2.194535e+00 7.168478e-01 7.765182e-01 -2.938696e+00 -4.937950e+00 -5.183083e+00 2.566780e-01 1.000744e+00 1.908949e-01 4.494928e-01 -7.838355e-02 -5.608527e-01 -3.812165e-01 -9.144177e-02 -9.945272e-02 4.567479e-01 -1.161090e-01 2.132570e-01 -3.494496e-02
<VARIANCE> 25
 1.016878e+01 2.327909e+01 1.997144e+01 4.097056e+01 3.535434e+01 5.534729e+01 5.427246e+01 3.956798e+01 5.179951e+01 6.416196e+01 3.850250e+01 4.135917e+01 4.468941e-01 8.883498e-01 1.125065e+00 1.383746e+00 2.205939e+00 2.374184e+00 2.381144e+00 2.404258e+00 2.242559e+00 2.222200e+00 2.023386e+00 1.822347e+00 5.875267e-04
<GCONST> 8.724473e+01
<MIXTURE> 92 7.852945e-03
<MEAN> 25
 6.377197e+00 -7.623496e+00 -8.562005e+00 -5.201232e+00 3.951762e+00 -1.156136e-01 -2.194535e+00 7.168478e-01 7.765182e-01 -2.938696e+00 -4.937950e+00 -5.183083e+00 2.566780e-01 1.000744e+00 1.908949e-01 4.494928e-01 -7.838355e-02 -5.608527e-01 -3.812165e-01 -9.144177e-02 -9.945272e-02 4.567479e-01 -1.161090e-01 2.132570e-01 -3.494496e-02
<VARIANCE> 25
 1.016878e+01 2.327909e+01 1.997144e+01 4.097056e+01 3.535434e+01 5.534729e+01 5.427246e+01 3.956798e+01 5.179951e+01 6.416196e+01 3.850250e+01 4.135917e+01 4.468941e-01 8.883498e-01 1.125065e+00 1.383746e+00 2.205939e+00 2.374184e+00 2.381144e+00 2.404258e+00 2.242559e+00 2.222200e+00 2.023386e+00 1.822347e+00 5.875267e-04
<GCONST> 8.724473e+01
<MIXTURE> 93 6.122769e-03
<MEAN> 25
 -6.746122e+00 -8.788858e-01 -2.391297e+00 5.920260e+00 5.857182e+00 3.875348e+00 6.161472e+00 3.535924e+00 4.132554e+00 2.475274e+00 1.779389e+00 3.582676e+00 -5.791127e-02 -1.539996e-01 -2.614044e-01 -3.233263e-01 -3.229980e-01 -2.890617e-01 -2.274574e-01 -1.619021e-01 -1.785306e-01 -1.535762e-01 -1.013202e-01 -3.066757e-02 -1.534658e-05
<VARIANCE> 25
 9.121044e+00 6.526690e+00 8.001725e+00 1.169511e+01 1.140968e+01 1.573057e+01 1.525119e+01 1.650505e+01 1.459859e+01 1.458699e+01 1.647775e+01 1.494717e+01 8.133622e-02 1.525161e-01 2.595242e-01 3.861243e-01 4.996479e-01 6.288511e-01 7.800819e-01 8.797972e-01 9.152843e-01 8.968604e-01 8.839605e-01 9.057466e-01 1.008111e-06
<GCONST> 5.370676e+01
<MIXTURE> 94 6.122769e-03
<MEAN> 25
 -6.746122e+00 -8.788858e-01 -2.391297e+00 5.920260e+00 5.857182e+00 3.875348e+00 6.161472e+00 3.535924e+00 4.132554e+00 2.475274e+00 1.779389e+00 3.582676e+00 -5.791127e-02 -1.539996e-01 -2.614044e-01 -3.233263e-01 -3.229980e-01 -2.890617e-01 -2.274574e-01 -1.619021e-01 -1.785306e-01 -1.535762e-01 -1.013202e-01 -3.066757e-02 -1.534658e-05
<VARIANCE> 25
 9.121044e+00 6.526690e+00 8.001725e+00 1.169511e+01 1.140968e+01 1.573057e+01 1.525119e+01 1.650505e+01 1.459859e+01 1.458699e+01 1.647775e+01 1.494717e+01 8.133622e-02 1.525161e-01 2.595242e-01 3.861243e-01 4.996479e-01 6.288511e-01 7.800819e-01 8.797972e-01 9.152843e-01 8.968604e-01 8.839605e-01 9.057466e-01 1.008111e-06
<GCONST> 5.370676e+01
<MIXTURE> 95 5.258835e-03
<MEAN> 25
 -5.700070e+00 -5.778427e-01 -1.977207e+00 5.194255e+00 4.222427e+00 2.767686e+00 4.360027e+00 1.684058e+00 2.283671e+00 9.341943e-01 1.184528e+00 2.394482e+00 1.415316e-01 1.505772e-01 8.447590e-02 -7.067588e-02 -3.615139e-01 -6.818814e-01 -1.036366e+00 -1.251063e+00 -1.252748e+00 -9.577221e-01 -6.078758e-01 -3.171931e-01 -1.413725e-04
<VARIANCE> 25
 1.003547e+01 7.294056e+00 1.165653e+01 1.391420e+01 1.353290e+01 1.765199e+01 1.826222e+01 1.655253e+01 1.536096e+01 1.551612e+01 1.911074e+01 1.579226e+01 2.026362e-01 2.916342e-01 4.392940e-01 6.239798e-01 7.921953e-01 8.887214e-01 9.015803e-01 9.027454e-01 9.422199e-01 1.079438e+00 1.190166e+00 1.109932e+00 4.380245e-05
<GCONST> 6.327955e+01
<MIXTURE> 96 7.034694e-03
<MEAN> 25
 -5.021887e+00 -5.376114e-01 -2.193012e+00 5.498911e+00 3.883069e+00 1.795271e+00 3.477298e+00 1.868424e+00 2.624730e+00 7.251309e-01 1.151122e+00 2.928096e+00 -2.169124e-02 9.276162e-02 1.984144e-01 4.449887e-01 5.472055e-01 4.454528e-01 1.856558e-01 -1.264955e-01 -4.870682e-01 -6.772539e-01 -5.688581e-01 -3.461652e-01 7.654836e-07
<VARIANCE> 25
 1.063819e+01 9.756952e+00 1.241503e+01 1.614791e+01 1.469890e+01 1.881265e+01 1.808630e+01 1.861073e+01 1.798157e+01 1.755205e+01 1.890780e+01 1.495478e+01 1.164536e-01 2.136644e-01 3.137201e-01 4.326647e-01 4.815232e-01 6.977596e-01 9.241608e-01 9.570394e-01 9.538381e-01 8.478935e-01 8.852185e-01 9.115834e-01 1.052414e-06
<GCONST> 5.763507e+01
<MIXTURE> 97 7.034694e-03
<MEAN> 25
 -5.021887e+00 -5.376114e-01 -2.193012e+00 5.498911e+00 3.883069e+00 1.795271e+00 3.477298e+00 1.868424e+00 2.624730e+00 7.251309e-01 1.151122e+00 2.928096e+00 -2.169124e-02 9.276162e-02 1.984144e-01 4.449887e-01 5.472055e-01 4.454528e-01 1.856558e-01 -1.264955e-01 -4.870682e-01 -6.772539e-01 -5.688581e-01 -3.461652e-01 7.654836e-07
<VARIANCE> 25
 1.063819e+01 9.756952e+00 1.241503e+01 1.614791e+01 1.469890e+01 1.881265e+01 1.808630e+01 1.861073e+01 1.798157e+01 1.755205e+01 1.890780e+01 1.495478e+01 1.164536e-01 2.136644e-01 3.137201e-01 4.326647e-01 4.815232e-01 6.977596e-01 9.241608e-01 9.570394e-01 9.538381e-01 8.478935e-01 8.852185e-01 9.115834e-01 1.052414e-06
<GCONST> 5.763507e+01
<MIXTURE> 98 9.917808e-03
<MEAN> 25
 -5.458785e-01 2.140543e+00 -9.536833e-01 3.509154e+00 2.375274e+00 1.993614e+00 2.912706e+00 9.471429e-01 1.353307e+00 1.201837e+00 1.264254e+00 8.409471e-01 -1.822382e+00 -1.545215e+00 -9.943273e-01 3.439099e-01 7.226422e-01 5.302225e-01 1.167159e+00 1.228237e+00 1.825447e+00 1.050882e+00 1.333101e+00 1.200650e+00 -2.778065e-02
<VARIANCE> 25
 1.636617e+01 2.304228e+01 3.042338e+01 3.850437e+01 4.483497e+01 3.288817e+01 2.822133e+01 2.762231e+01 2.434952e+01 2.806981e+01 2.381999e+01 2.226855e+01 1.219864e+00 1.559157e+00 2.028583e+00 2.376786e+00 3.022235e+00 2.931236e+00 2.978029e+00 2.766933e+00 2.343961e+00 3.083604e+00 2.451465e+00 2.180500e+00 2.364185e-03
<GCONST> 8.981441e+01
<MIXTURE> 99 6.696178e-03
<MEAN> 25
 -6.391423e+00 1.003373e+01 6.751288e+00 3.574301e+00 1.014385e+00 -5.216057e+00 -1.570362e+00 -4.147492e+00 -3.476811e+00 -3.716074e+00 -1.604253e+00 2.818290e-01 5.977311e-01 -6.929837e-01 3.189391e-01 -4.107628e-01 -1.147988e+00 -4.919131e-01 -3.219603e-01 -2.524341e-01 -9.768960e-02 -6.622802e-02 2.476471e-01 1.657067e-01 1.165339e-02
<VARIANCE> 25
 3.616423e+01 2.491418e+01 4.716187e+01 3.218538e+01 3.684779e+01 3.618583e+01 2.914638e+01 2.936846e+01 2.683342e+01 2.793286e+01 2.068954e+01 2.987416e+01 2.250105e+00 1.995159e+00 1.430651e+00 1.770232e+00 2.653074e+00 2.126834e+00 1.593126e+00 1.648846e+00 1.561628e+00 1.592661e+00 1.304188e+00 1.273635e+00 1.675671e-03
<GCONST> 8.722344e+01
<MIXTURE> 100 4.498084e-03
<MEAN> 25
 -1.598937e+00 6.341986e+00 1.027793e+01 -7.463305e+00 -1.078303e+01 -5.076326e+00 -4.943586e+00 -9.966088e+00 -4.720656e+00 -8.548767e-01 -2.733817e+00 -2.706479e+00 2.917427e+00 -1.260439e+00 1.300105e+00 -2.185836e+00 -3.419278e+00 -7.838961e-01 -1.219670e+00 -8.193177e-01 -1.475551e+00 3.468713e-01 -1.655064e+00 -2.863119e-01 2.029108e-03
<VARIANCE> 25
 1.362353e+01 2.108977e+01 2.246143e+01 2.642335e+01 2.301821e+01 2.372186e+01 2.912269e+01 2.173448e+01 2.750251e+01 2.265425e+01 2.240911e+01 2.135094e+01 1.799709e+00 3.953428e+00 2.921400e+00 4.286660e+00 4.184079e+00 4.537370e+00 4.019224e+00 4.340390e+00 4.168523e+00 3.895814e+00 3.911414e+00 3.224437e+00 1.675395e-03
<GCONST> 9.257472e+01
<MIXTURE> 101 6.007792e-03
<MEAN> 25
 8.191192e+00 -3.441992e+00 -6.169301e+00 -6.678802e+00 1.144088e+00 -1.680159e+00 -1.087398e+01 -1.897390e+00 1.378941e+00 3.094242e+00 -1.803375e+00 -5.053436e+00 7.141399e-01 7.416586e-01 -1.599203e+00 -1.702500e+00 1.006756e+00 2.354218e+00 2.844453e-01 -1.576112e+00 -1.139647e+00 1.149765e+00 1.397136e+00 -4.467929e-01 -4.141369e-03
<VARIANCE> 25
 9.030522e+00 1.608493e+01 2.901116e+01 4.158905e+01 3.633876e+01 3.776946e+01 3.751157e+01 3.516016e+01 3.757380e+01 4.487654e+01 5.624752e+01 2.328005e+01 3.176167e-01 8.097981e-01 1.520185e+00 1.670252e+00 1.691751e+00 2.024023e+00 2.206879e+00 2.170882e+00 2.377076e+00 2.446033e+00 1.733667e+00 1.868135e+00 3.679961e-04
<GCONST> 8.443703e+01
<MIXTURE> 102 6.007792e-03
<MEAN> 25
 8.191192e+00 -3.441992e+00 -6.169301e+00 -6.678802e+00 1.144088e+00 -1.680159e+00 -1.087398e+01 -1.897390e+00 1.378941e+00 3.094242e+00 -1.803375e+00 -5.053436e+00 7.141399e-01 7.416586e-01 -1.599203e+00 -1.702500e+00 1.006756e+00 2.354218e+00 2.844453e-01 -1.576112e+00 -1.139647e+00 1.149765e+00 1.397136e+00 -4.467929e-01 -4.141369e-03
<VARIANCE> 25
 9.030522e+00 1.608493e+01 2.901116e+01 4.158905e+01 3.633876e+01 3.776946e+01 3.751157e+01 3.516016e+01 3.757380e+01 4.487654e+01 5.624752e+01 2.328005e+01 3.176167e-01 8.097981e-01 1.520185e+00 1.670252e+00 1.691751e+00 2.024023e+00 2.206879e+00 2.170882e+00 2.377076e+00 2.446033e+00 1.733667e+00 1.868135e+00 3.679961e-04
<GCONST> 8.443703e+01
<MIXTURE> 103 5.694618e-03
<MEAN> 25
 3.350650e+00 -9.512701e+00 -6.094454e+00 -3.206539e+00 -1.274445e+00 -1.935142e+00 2.400156e+00 2.488332e+00 -4.598968e+00 -9.247229e+00 -5.121750e+00 3.304825e-01 -1.631205e-01 -1.485373e+00 -9.694697e-01 3.666752e-01 1.204049e+00 1.003769e+00 1.641947e-01 -2.552447e-01 -7.809341e-01 -9.544981e-01 -4.859020e-02 1.325751e-01 2.696694e-02
<VARIANCE> 25
 1.032687e+01 2.037159e+01 2.301402e+01 3.368467e+01 4.833495e+01 3.504138e+01 4.638491e+01 3.660636e+01 4.192653e+01 2.917661e+01 3.047442e+01 2.642351e+01 6.449458e-01 1.246755e+00 1.550149e+00 1.973329e+00 2.929174e+00 2.441568e+00 2.882471e+00 2.590570e+00 2.550913e+00 2.524327e+00 2.115011e+00 2.028838e+00 8.041571e-04
<GCONST> 8.769243e+01
<MIXTURE> 104 5.694618e-03
<MEAN> 25
 3.350650e+00 -9.512701e+00 -6.094454e+00 -3.206539e+00 -1.274445e+00 -1.935142e+00 2.400156e+00 2.488332e+00 -4.598968e+00 -9.247229e+00 -5.121750e+00 3.304825e-01 -1.631205e-01 -1.485373e+00 -9.694697e-01 3.666752e-01 1.204049e+00 1.003769e+00 1.641947e-01 -2.552447e-01 -7.809341e-01 -9.544981e-01 -4.859020e-02 1.325751e-01 2.696694e-02
<VARIANCE> 25
 1.032687e+01 2.037159e+01 2.301402e+01 3.368467e+01 4.833495e+01 3.504138e+01 4.638491e+01 3.660636e+01 4.192653e+01 2.917661e+01 3.047442e+01 2.642351e+01 6.449458e-01 1.246755e+00 1.550149e+00 1.973329e+00 2.929174e+00 2.441568e+00 2.882471e+00 2.590570e+00 2.550913e+00 2.524327e+00 2.115011e+00 2.028838e+00 8.041571e-04
<GCONST> 8.769243e+01
<MIXTURE> 105 4.710235e-03
<MEAN> 25
 2.259678e+00 -1.541004e+00 9.278420e+00 -2.596450e+00 -1.161100e+01 -4.846255e+00 -4.122635e+00 -7.034940e-01 -3.745093e+00 -3.162649e+00 1.540269e+00 -1.249711e+00 1.183276e-02 1.925628e-02 6.219489e-02 -3.955322e-02 3.074135e-02 5.428291e-02 1.252138e-02 5.903273e-02 -5.479042e-02 4.432668e-02 2.934204e-02 -2.165794e-02 -2.161622e-03
<VARIANCE> 25
 1.341185e+01 2.814304e+01 4.054899e+01 4.477154e+01 3.698003e+01 5.462210e+01 4.113208e+01 4.365472e+01 3.936199e+01 4.277937e+01 4.121135e+01 3.069088e+01 8.426137e-02 1.905420e-01 3.447180e-01 2.886799e-01 4.136200e-01 4.261546e-01 4.950911e-01 4.904682e-01 4.995309e-01 4.520055e-01 4.163936e-01 3.928608e-01 8.788818e-05
<GCONST> 6.683154e+01
<MIXTURE> 106 4.710235e-03
<MEAN> 25
 2.259678e+00 -1.541004e+00 9.278420e+00 -2.596450e+00 -1.161100e+01 -4.846255e+00 -4.122635e+00 -7.034940e-01 -3.745093e+00 -3.162649e+00 1.540269e+00 -1.249711e+00 1.183276e-02 1.925628e-02 6.219489e-02 -3.955322e-02 3.074135e-02 5.428291e-02 1.252138e-02 5.903273e-02 -5.479042e-02 4.432668e-02 2.934204e-02 -2.165794e-02 -2.161622e-03
<VARIANCE> 25
 1.341185e+01 2.814304e+01 4.054899e+01 4.477154e+01 3.698003e+01 5.462210e+01 4.113208e+01 4.365472e+01 3.936199e+01 4.277937e+01 4.121135e+01 3.069088e+01 8.426137e-02 1.905420e-01 3.447180e-01 2.886799e-01 4.136200e-01 4.261546e-01 4.950911e-01 4.904682e-01 4.995309e-01 4.520055e-01 4.163936e-01 3.928608e-01 8.788818e-05
<GCONST> 6.683154e+01
<MIXTURE> 107 5.452374e-03
<MEAN> 25
 8.615572e+00 -2.333501e+00 -8.014972e+00 -9.609797e+00 1.964728e+00 2.962208e+00 -8.653660e+00 -4.549447e+00 -9.075593e-01 3.367485e+00 8.134233e-01 -5.044567e+00 -6.094421e-01 -7.658197e-01 8.354945e-01 1.775526e+00 2.244488e-01 -2.014597e+00 -9.173977e-01 8.481251e-01 1.762988e+00 4.849083e-02 -1.655475e+00 -8.136910e-01 -1.823756e-03
<VARIANCE> 25
 9.412552e+00 2.075802e+01 2.844894e+01 4.333164e+01 3.571115e+01 3.839970e+01 5.123143e+01 3.616953e+01 4.583221e+01 4.191397e+01 5.185646e+01 3.067823e+01 3.550991e-01 9.701444e-01 1.457797e+00 2.415700e+00 2.288600e+00 2.819719e+00 2.616847e+00 2.554579e+00 2.298311e+00 3.030842e+00 1.948915e+00 2.220900e+00 7.053323e-04
<GCONST> 8.812667e+01
<MIXTURE> 108 5.452374e-03
<MEAN> 25
 8.615572e+00 -2.333501e+00 -8.014972e+00 -9.609797e+00 1.964728e+00 2.962208e+00 -8.653660e+00 -4.549447e+00 -9.075593e-01 3.367485e+00 8.134233e-01 -5.044567e+00 -6.094421e-01 -7.658197e-01 8.354945e-01 1.775526e+00 2.244488e-01 -2.014597e+00 -9.173977e-01 8.481251e-01 1.762988e+00 4.849083e-02 -1.655475e+00 -8.136910e-01 -1.823756e-03
<VARIANCE> 25
 9.412552e+00 2.075802e+01 2.844894e+01 4.333164e+01 3.571115e+01 3.839970e+01 5.123143e+01 3.616953e+01 4.583221e+01 4.191397e+01 5.185646e+01 3.067823e+01 3.550991e-01 9.701444e-01 1.457797e+00 2.415700e+00 2.288600e+00 2.819719e+00 2.616847e+00 2.554579e+00 2.298311e+00 3.030842e+00 1.948915e+00 2.220900e+00 7.053323e-04
<GCONST> 8.812667e+01
<MIXTURE> 109 6.661064e-03
<MEAN> 25
 4.080059e+00 -1.055558e+01 -8.304083e+00 -1.365605e+00 2.756860e+00 -4.382815e-02 -7.284234e-02 1.457080e+00 -2.571755e+00 -8.376050e+00 -5.389710e+00 6.315728e-02 -3.355511e-02 -1.324274e-01 -3.261425e-02 2.506962e-01 1.966515e-01 1.179808e-01 -1.250409e-01 -1.046738e-01 -4.050304e-02 -1.317157e-01 2.184629e-01 1.281544e-02 -3.512112e-03
<VARIANCE> 25
 9.091540e+00 1.818041e+01 2.001033e+01 3.156533e+01 4.081921e+01 3.677026e+01 4.662707e+01 3.436461e+01 4.605701e+01 3.523807e+01 2.960602e+01 2.817805e+01 1.932716e-01 4.228832e-01 5.383696e-01 6.342911e-01 1.231028e+00 9.948949e-01 1.258122e+00 1.094252e+00 1.117054e+00 9.529546e-01 8.789387e-01 8.869803e-01 1.820537e-04
<GCONST> 7.446047e+01
<MIXTURE> 110 6.661064e-03
<MEAN> 25
 4.080059e+00 -1.055558e+01 -8.304083e+00 -1.365605e+00 2.756860e+00 -4.382815e-02 -7.284234e-02 1.457080e+00 -2.571755e+00 -8.376050e+00 -5.389710e+00 6.315728e-02 -3.355511e-02 -1.324274e-01 -3.261425e-02 2.506962e-01 1.966515e-01 1.179808e-01 -1.250409e-01 -1.046738e-01 -4.050304e-02 -1.317157e-01 2.184629e-01 1.281544e-02 -3.512112e-03
<VARIANCE> 25
 9.091540e+00 1.818041e+01 2.001033e+01 3.156533e+01 4.081921e+01 3.677026e+01 4.662707e+01 3.436461e+01 4.605701e+01 3.523807e+01 2.960602e+01 2.817805e+01 1.932716e-01 4.228832e-01 5.383696e-01 6.342911e-01 1.231028e+00 9.948949e-01 1.258122e+00 1.094252e+00 1.117054e+00 9.529546e-01 8.789387e-01 8.869803e-01 1.820537e-04
<GCONST> 7.446047e+01
<MIXTURE> 111 4.337247e-03
<MEAN> 25
 -4.473464e+00 -9.037738e-01 -1.720706e+00 1.693308e+00 9.654981e-01 9.652038e-01 3.192637e-01 2.120782e-01 9.054366e-02 -5.400556e-01 -6.287888e-01 1.961587e+00 -2.111058e-02 -3.229857e-02 -7.247099e-02 -7.373936e-02 -3.737985e-02 6.356890e-03 -1.074037e-03 -5.917611e-02 -1.405307e-01 -2.028254e-01 -1.899444e-01 -1.062627e-01 -2.166844e-04
<VARIANCE> 25
 6.997829e+00 4.988270e+00 1.020856e+01 9.451559e+00 1.310368e+01 2.383184e+01 1.470640e+01 1.316552e+01 1.160346e+01 1.191120e+01 1.362779e+01 1.160483e+01 7.916180e-02 1.635746e-01 2.752411e-01 4.205143e-01 5.693820e-01 7.050971e-01 8.003795e-01 8.580685e-01 8.926877e-01 8.560513e-01 8.619024e-01 8.478349e-01 2.232276e-05
<GCONST> 5.598711e+01
<MIXTURE> 112 4.337247e-03
<MEAN> 25
 -4.473464e+00 -9.037738e-01 -1.720706e+00 1.693308e+00 9.654981e-01 9.652038e-01 3.192637e-01 2.120782e-01 9.054366e-02 -5.400556e-01 -6.287888e-01 1.961587e+00 -2.111058e-02 -3.229857e-02 -7.247099e-02 -7.373936e-02 -3.737985e-02 6.356890e-03 -1.074037e-03 -5.917611e-02 -1.405307e-01 -2.028254e-01 -1.899444e-01 -1.062627e-01 -2.166844e-04
<VARIANCE> 25
 6.997829e+00 4.988270e+00 1.020856e+01 9.451559e+00 1.310368e+01 2.383184e+01 1.470640e+01 1.316552e+01 1.160346e+01 1.191120e+01 1.362779e+01 1.160483e+01 7.916180e-02 1.635746e-01 2.752411e-01 4.205143e-01 5.693820e-01 7.050971e-01 8.003795e-01 8.580685e-01 8.926877e-01 8.560513e-01 8.619024e-01 8.478349e-01 2.232276e-05
<GCONST> 5.598711e+01
<MIXTURE> 113 5.938666e-03
<MEAN> 25
 9.977848e+00 1.750075e+00 -8.761922e+00 -1.702716e+01 -1.052056e+00 5.668428e+00 -5.261973e+00 -1.475548e+00 -5.692513e+00 -4.741881e-01 3.074597e-01 -2.120280e-01 4.560046e-03 1.209629e-02 -5.880388e-02 -1.128192e-01 1.038901e-01 1.520570e-01 5.954106e-02 3.457664e-02 -5.764283e-02 -5.011446e-02 1.784091e-01 3.575122e-02 -1.394764e-03
<VARIANCE> 25
 8.859222e+00 1.638354e+01 2.986642e+01 3.441399e+01 5.285441e+01 3.386192e+01 3.987138e+01 3.913620e+01 3.733062e+01 4.657487e+01 3.628704e+01 2.852737e+01 1.217468e-01 3.220330e-01 3.172815e-01 6.310346e-01 6.121230e-01 6.540918e-01 7.754789e-01 8.462939e-01 9.581801e-01 9.058136e-01 7.244737e-01 7.127235e-01 1.247553e-04
<GCONST> 7.113007e+01
<MIXTURE> 114 5.938666e-03
<MEAN> 25
 9.977848e+00 1.750075e+00 -8.761922e+00 -1.702716e+01 -1.052056e+00 5.668428e+00 -5.261973e+00 -1.475548e+00 -5.692513e+00 -4.741881e-01 3.074597e-01 -2.120280e-01 4.560046e-03 1.209629e-02 -5.880388e-02 -1.128192e-01 1.038901e-01 1.520570e-01 5.954106e-02 3.457664e-02 -5.764283e-02 -5.011446e-02 1.784091e-01 3.575122e-02 -1.394764e-03
<VARIANCE> 25
 8.859222e+00 1.638354e+01 2.986642e+01 3.441399e+01 5.285441e+01 3.386192e+01 3.987138e+01 3.913620e+01 3.733062e+01 4.657487e+01 3.628704e+01 2.852737e+01 1.217468e-01 3.220330e-01 3.172815e-01 6.310346e-01 6.121230e-01 6.540918e-01 7.754789e-01 8.462939e-01 9.581801e-01 9.058136e-01 7.244737e-01 7.127235e-01 1.247553e-04
<GCONST> 7.113007e+01
<MIXTURE> 115 2.935202e-03
<MEAN> 25
 -4.029039e+00 -7.565808e-01 -3.102976e+00 3.687728e+00 2.413256e+00 -4.236602e-01 2.244281e+00 4.238335e-01 1.412187e+00 -2.948800e-02 4.330571e-02 2.698820e+00 3.212079e-02 -7.205070e-02 -2.316717e-01 -4.338660e-01 -6.292307e-01 -6.698397e-01 -5.956604e-01 -5.079936e-01 -4.907403e-01 -4.595122e-01 -3.409781e-01 -1.633511e-01 -6.523012e-06
<VARIANCE> 25
 9.230888e+00 9.891171e+00 1.348391e+01 1.288329e+01 1.344282e+01 1.749936e+01 1.705982e+01 2.077572e+01 1.801042e+01 1.719872e+01 1.912139e+01 1.476270e+01 2.030018e-01 3.443698e-01 4.837964e-01 5.663918e-01 6.364967e-01 7.948823e-01 1.008639e+00 1.127455e+00 1.076428e+00 9.948559e-01 1.023987e+00 1.061559e+00 9.995579e-07
<GCONST> 6.015644e+01
<MIXTURE> 116 2.935202e-03
<MEAN> 25
 -4.029039e+00 -7.565808e-01 -3.102976e+00 3.687728e+00 2.413256e+00 -4.236602e-01 2.244281e+00 4.238335e-01 1.412187e+00 -2.948800e-02 4.330571e-02 2.698820e+00 3.212079e-02 -7.205070e-02 -2.316717e-01 -4.338660e-01 -6.292307e-01 -6.698397e-01 -5.956604e-01 -5.079936e-01 -4.907403e-01 -4.595122e-01 -3.409781e-01 -1.633511e-01 -6.523012e-06
<VARIANCE> 25
 9.230888e+00 9.891171e+00 1.348391e+01 1.288329e+01 1.344282e+01 1.749936e+01 1.705982e+01 2.077572e+01 1.801042e+01 1.719872e+01 1.912139e+01 1.476270e+01 2.030018e-01 3.443698e-01 4.837964e-01 5.663918e-01 6.364967e-01 7.948823e-01 1.008639e+00 1.127455e+00 1.076428e+00 9.948559e-01 1.023987e+00 1.061559e+00 9.995579e-07
<GCONST> 6.015644e+01
<MIXTURE> 117 6.506003e-03
<MEAN> 25
 -4.610540e+00 1.236545e+00 9.728127e-01 9.795422e+00 6.204864e+00 6.152924e+00 6.578771e+00 4.886686e+00 6.301389e+00 4.922812e+00 6.190053e+00 2.428407e+00 -7.029216e-02 -2.351728e-01 -3.543180e-01 -4.157030e-01 -3.524481e-01 -3.065220e-01 -2.881335e-01 -3.069171e-01 -3.849525e-01 -3.623860e-01 -2.610409e-01 -1.132253e-01 -2.602826e-05
<VARIANCE> 25
 7.013909e+00 9.036138e+00 9.751967e+00 1.396667e+01 1.532324e+01 1.525206e+01 1.772786e+01 1.832515e+01 1.621209e+01 1.614032e+01 1.732889e+01 1.727781e+01 2.109347e-01 3.018952e-01 4.155747e-01 6.038932e-01 8.576736e-01 1.029057e+00 1.149250e+00 1.226065e+00 1.192844e+00 1.214671e+00 1.157817e+00 1.101274e+00 1.013740e-06
<GCONST> 6.041022e+01
<MIXTURE> 118 6.506003e-03
<MEAN> 25
 -4.610540e+00 1.236545e+00 9.728127e-01 9.795422e+00 6.204864e+00 6.152924e+00 6.578771e+00 4.886686e+00 6.301389e+00 4.922812e+00 6.190053e+00 2.428407e+00 -7.029216e-02 -2.351728e-01 -3.543180e-01 -4.157030e-01 -3.524481e-01 -3.065220e-01 -2.881335e-01 -3.069171e-01 -3.849525e-01 -3.623860e-01 -2.610409e-01 -1.132253e-01 -2.602826e-05
<VARIANCE> 25
 7.013909e+00 9.036138e+00 9.751967e+00 1.396667e+01 1.532324e+01 1.525206e+01 1.772786e+01 1.832515e+01 1.621209e+01 1.614032e+01 1.732889e+01 1.727781e+01 2.109347e-01 3.018952e-01 4.155747e-01 6.038932e-01 8.576736e-01 1.029057e+00 1.149250e+00 1.226065e+00 1.192844e+00 1.214671e+00 1.157817e+00 1.101274e+00 1.013740e-06
<GCONST> 6.041022e+01
<MIXTURE> 119 4.297961e-03
<MEAN> 25
 -4.973751e+00 -7.626388e+00 2.221787e+00 2.043306e+00 2.244155e+00 2.155492e-01 5.277736e+00 5.943743e+00 1.189199e+00 9.511294e-01 6.588716e+00 1.577106e+00 -4.924139e-02 -7.775681e-02 3.677126e-02 -5.623249e-02 -1.253516e-01 -1.779571e-01 -7.006432e-02 -1.474455e-02 -9.352335e-02 -1.121188e-01 -5.400751e-02 -5.995396e-02 1.063461e-03
<VARIANCE> 25
 8.483247e+00 9.823546e+00 1.655059e+01 2.039125e+01 2.281436e+01 2.318850e+01 2.494957e+01 2.642039e+01 2.516027e+01 2.811248e+01 2.056324e+01 2.040233e+01 1.605035e-01 2.827476e-01 4.591314e-01 6.318315e-01 8.017339e-01 1.003688e+00 1.103164e+00 1.276318e+00 1.284365e+00 1.243342e+00 1.191422e+00 1.110735e+00 2.318814e-04
<GCONST> 6.972765e+01
<MIXTURE> 120 4.297961e-03
<MEAN> 25
 -4.973751e+00 -7.626388e+00 2.221787e+00 2.043306e+00 2.244155e+00 2.155492e-01 5.277736e+00 5.943743e+00 1.189199e+00 9.511294e-01 6.588716e+00 1.577106e+00 -4.924139e-02 -7.775681e-02 3.677126e-02 -5.623249e-02 -1.253516e-01 -1.779571e-01 -7.006432e-02 -1.474455e-02 -9.352335e-02 -1.121188e-01 -5.400751e-02 -5.995396e-02 1.063461e-03
<VARIANCE> 25
 8.483247e+00 9.823546e+00 1.655059e+01 2.039125e+01 2.281436e+01 2.318850e+01 2.494957e+01 2.642039e+01 2.516027e+01 2.811248e+01 2.056324e+01 2.040233e+01 1.605035e-01 2.827476e-01 4.591314e-01 6.318315e-01 8.017339e-01 1.003688e+00 1.103164e+00 1.276318e+00 1.284365e+00 1.243342e+00 1.191422e+00 1.110735e+00 2.318814e-04
<GCONST> 6.972765e+01
<MIXTURE> 121 4.567511e-03
<MEAN> 25
 2.275509e-01 -2.340948e+00 5.220986e+00 -1.307830e+01 -1.239636e+01 -1.515984e+00 7.777157e-01 -5.011184e+00 -4.783520e+00 -6.879737e-01 -5.498274e+00 -4.153174e+00 2.492138e-02 1.606022e-01 -4.163691e-02 7.226590e-02 9.379794e-02 2.203231e-02 -3.063941e-02 -1.649339e-01 -2.714183e-01 -3.104507e-01 -6.663568e-02 -9.077579e-03 -7.636623e-03
<VARIANCE> 25
 7.478077e+00 1.595877e+01 1.679204e+01 2.047627e+01 2.522230e+01 2.884022e+01 2.982655e+01 2.401581e+01 4.313292e+01 2.844445e+01 1.909855e+01 2.112722e+01 1.504813e-01 6.479837e-01 6.082121e-01 6.837150e-01 8.545592e-01 1.195514e+00 1.143180e+00 1.090895e+00 1.180064e+00 1.230819e+00 9.731667e-01 8.524559e-01 2.081909e-04
<GCONST> 7.159143e+01
<MIXTURE> 122 4.567511e-03
<MEAN> 25
 2.275509e-01 -2.340948e+00 5.220986e+00 -1.307830e+01 -1.239636e+01 -1.515984e+00 7.777157e-01 -5.011184e+00 -4.783520e+00 -6.879737e-01 -5.498274e+00 -4.153174e+00 2.492138e-02 1.606022e-01 -4.163691e-02 7.226590e-02 9.379794e-02 2.203231e-02 -3.063941e-02 -1.649339e-01 -2.714183e-01 -3.104507e-01 -6.663568e-02 -9.077579e-03 -7.636623e-03
<VARIANCE> 25
 7.478077e+00 1.595877e+01 1.679204e+01 2.047627e+01 2.522230e+01 2.884022e+01 2.982655e+01 2.401581e+01 4.313292e+01 2.844445e+01 1.909855e+01 2.112722e+01 1.504813e-01 6.479837e-01 6.082121e-01 6.837150e-01 8.545592e-01 1.195514e+00 1.143180e+00 1.090895e+00 1.180064e+00 1.230819e+00 9.731667e-01 8.524559e-01 2.081909e-04
<GCONST> 7.159143e+01
<MIXTURE> 123 4.393044e-03
<MEAN> 25
 -4.250387e+00 1.076913e+00 8.129752e-02 6.381024e+00 5.132410e+00 3.538157e+00 3.613678e+00 4.928316e-01 4.769765e-01 -4.666817e-01 -3.190728e-02 5.597867e-01 -4.612937e-01 -7.308448e-01 -8.517109e-01 -6.312838e-01 -2.547387e-01 6.455334e-02 3.836539e-01 6.207590e-01 7.525317e-01 7.679098e-01 6.949398e-01 5.309972e-01 -3.018589e-03
<VARIANCE> 25
 1.010597e+01 1.028400e+01 1.509318e+01 1.752425e+01 2.188027e+01 2.640672e+01 2.365866e+01 1.838586e+01 1.953825e+01 1.713840e+01 2.174138e+01 2.062304e+01 3.679596e-01 3.955627e-01 4.973812e-01 6.975298e-01 9.443235e-01 1.106669e+00 1.163181e+00 1.165447e+00 1.179657e+00 1.154521e+00 1.185220e+00 1.190596e+00 9.554512e-05
<GCONST> 6.928220e+01
<MIXTURE> 124 4.069876e-03
<MEAN> 25
 -6.491836e+00 -1.069497e+00 -2.866804e+00 5.286940e+00 4.871871e+00 3.383778e+00 5.527750e+00 2.551759e+00 3.222522e+00 1.256298e+00 1.090214e+00 2.847359e+00 -2.004735e-01 -3.036543e-01 -3.653774e-01 -2.254551e-01 1.259963e-01 5.001426e-01 8.030925e-01 8.450198e-01 6.374266e-01 3.326109e-01 6.475911e-02 -1.571475e-02 -7.501861e-05
<VARIANCE> 25
 1.085980e+01 7.634864e+00 1.098079e+01 1.319325e+01 1.215859e+01 1.936708e+01 1.597294e+01 1.685658e+01 1.529305e+01 1.591482e+01 1.897322e+01 1.564747e+01 1.028210e-01 1.766371e-01 2.669336e-01 4.154048e-01 5.851190e-01 7.000024e-01 7.355210e-01 8.071747e-01 8.954605e-01 9.772609e-01 9.864919e-01 9.754062e-01 1.819519e-05
<GCONST> 5.887785e+01
<MIXTURE> 125 4.069876e-03
<MEAN> 25
 -6.491836e+00 -1.069497e+00 -2.866804e+00 5.286940e+00 4.871871e+00 3.383778e+00 5.527750e+00 2.551759e+00 3.222522e+00 1.256298e+00 1.090214e+00 2.847359e+00 -2.004735e-01 -3.036543e-01 -3.653774e-01 -2.254551e-01 1.259963e-01 5.001426e-01 8.030925e-01 8.450198e-01 6.374266e-01 3.326109e-01 6.475911e-02 -1.571475e-02 -7.501861e-05
<VARIANCE> 25
 1.085980e+01 7.634864e+00 1.098079e+01 1.319325e+01 1.215859e+01 1.936708e+01 1.597294e+01 1.685658e+01 1.529305e+01 1.591482e+01 1.897322e+01 1.564747e+01 1.028210e-01 1.766371e-01 2.669336e-01 4.154048e-01 5.851190e-01 7.000024e-01 7.355210e-01 8.071747e-01 8.954605e-01 9.772609e-01 9.864919e-01 9.754062e-01 1.819519e-05
<GCONST> 5.887785e+01
<MIXTURE> 126 2.402244e-03
<MEAN> 25
 -3.869029e+00 -6.967933e+00 -5.181452e+00 2.603754e+00 4.323163e+00 -3.178532e+00 1.469852e-01 3.642805e+00 3.531430e+00 -2.852515e+00 -1.480618e+00 3.223670e+00 2.019803e-02 1.648177e-02 -2.360636e-02 -1.561849e-01 -3.149653e-01 -3.861907e-01 -2.546609e-01 -1.680099e-01 -1.433352e-01 -9.464507e-02 -8.183255e-02 -5.820619e-02 -1.835279e-03
<VARIANCE> 25
 7.508667e+00 1.238941e+01 1.385703e+01 1.771317e+01 2.413484e+01 2.326947e+01 2.240616e+01 2.798460e+01 3.187174e+01 2.649701e+01 2.131067e+01 1.988232e+01 1.876100e-01 3.632022e-01 4.771997e-01 5.543468e-01 7.364350e-01 9.727419e-01 1.114152e+00 1.241543e+00 1.336058e+00 1.296997e+00 1.198215e+00 1.147111e+00 2.104972e-04
<GCONST> 6.991922e+01
<MIXTURE> 127 2.402244e-03
<MEAN> 25
 -3.869029e+00 -6.967933e+00 -5.181452e+00 2.603754e+00 4.323163e+00 -3.178532e+00 1.469852e-01 3.642805e+00 3.531430e+00 -2.852515e+00 -1.480618e+00 3.223670e+00 2.019803e-02 1.648177e-02 -2.360636e-02 -1.561849e-01 -3.149653e-01 -3.861907e-01 -2.546609e-01 -1.680099e-01 -1.433352e-01 -9.464507e-02 -8.183255e-02 -5.820619e-02 -1.835279e-03
<VARIANCE> 25
 7.508667e+00 1.238941e+01 1.385703e+01 1.771317e+01 2.413484e+01 2.326947e+01 2.240616e+01 2.798460e+01 3.187174e+01 2.649701e+01 2.131067e+01 1.988232e+01 1.876100e-01 3.632022e-01 4.771997e-01 5.543468e-01 7.364350e-01 9.727419e-01 1.114152e+00 1.241543e+00 1.336058e+00 1.296997e+00 1.198215e+00 1.147111e+00 2.104972e-04
<GCONST> 6.991922e+01
<MIXTURE> 128 3.790457e-03
<MEAN> 25
 -3.931053e+00 1.539631e+00 -3.399541e-01 6.582425e+00 3.622401e+00 1.860134e+00 3.575440e+00 2.370265e+00 3.963968e+00 3.691977e+00 3.768364e+00 3.524084e+00 -3.954712e-01 -1.964202e-01 9.830227e-02 7.278101e-01 1.184680e+00 1.133209e+00 7.163050e-01 1.309054e-01 -4.389578e-01 -7.881594e-01 -7.011048e-01 -3.931195e-01 -3.536116e-05
<VARIANCE> 25
 1.020100e+01 1.171603e+01 1.497200e+01 1.935799e+01 2.003955e+01 2.115552e+01 2.431544e+01 2.465160e+01 2.638362e+01 2.395068e+01 2.677138e+01 1.820876e+01 8.918304e-01 1.145671e+00 1.364638e+00 1.503097e+00 1.579018e+00 1.865407e+00 2.248877e+00 2.322582e+00 2.145802e+00 1.856445e+00 1.743801e+00 1.746751e+00 1.003768e-06
<GCONST> 7.364075e+01
<TRANSP> 3
 0.000000e+00 1.000000e+00 0.000000e+00
 0.000000e+00 9.999990e-01 9.999998e-07
 0.000000e+00 0.000000e+00 0.000000e+00
<ENDHMM>
