~o
<STREAMINFO> 1 25
<VECSIZE> 25<NULLD><MFCC_E_D_N><DIAGC>
~h "jmodel"
<BEGINHMM>
<NUMSTATES> 3
<STATE> 2
<NUMMIXES> 128
<MIXTURE> 1 5.748963e-03
<MEAN> 25
 -2.643606e+00 3.167541e+00 2.315712e+00 8.714479e+00 4.259927e+00 3.398629e+00 4.056276e+00 3.805364e+00 5.862753e+00 5.106850e+00 5.895074e+00 3.083255e+00 -1.979306e+00 -1.597923e+00 -8.862666e-01 1.094595e+00 1.559668e+00 2.219079e+00 2.170214e+00 2.029085e+00 1.733047e+00 1.272447e+00 1.543206e+00 6.134401e-01 -4.778171e-02
<VARIANCE> 25
 1.022290e+01 1.163472e+01 1.474947e+01 1.855977e+01 2.384945e+01 2.206798e+01 2.162395e+01 2.284519e+01 2.088392e+01 2.399838e+01 2.069322e+01 1.685908e+01 1.812325e+00 2.180172e+00 3.031402e+00 3.196083e+00 3.696386e+00 3.330427e+00 3.317039e+00 3.563116e+00 3.639191e+00 3.685785e+00 3.509253e+00 2.796551e+00 3.139854e-03
<GCONST> 8.861944e+01
<MIXTURE> 2 4.549242e-03
<MEAN> 25
 -4.861880e+00 1.356653e+00 9.795375e-01 9.902140e+00 6.689898e+00 7.412855e+00 7.861130e+00 6.845338e+00 8.342271e+00 6.359734e+00 7.573249e+00 3.078857e+00 -6.261955e-02 4.002496e-02 1.388685e-01 2.281336e-01 2.611771e-01 2.798617e-01 2.980959e-01 3.130830e-01 3.442406e-01 3.125188e-01 1.921694e-01 6.961817e-02 -1.691111e-06
<VARIANCE> 25
 6.922538e+00 9.070774e+00 1.061506e+01 1.580344e+01 1.712906e+01 1.549116e+01 1.685717e+01 1.987920e+01 1.661321e+01 1.728667e+01 1.827958e+01 1.430924e+01 1.244879e-01 2.260598e-01 3.377396e-01 4.648594e-01 6.473320e-01 8.098025e-01 9.372541e-01 1.002650e+00 1.051116e+00 1.073277e+00 1.072798e+00 1.032621e+00 1.027916e-06
<GCONST> 5.813651e+01
<MIXTURE> 3 4.549242e-03
<MEAN> 25
 -4.861880e+00 1.356653e+00 9.795375e-01 9.902140e+00 6.689898e+00 7.412855e+00 7.861130e+00 6.845338e+00 8.342271e+00 6.359734e+00 7.573249e+00 3.078857e+00 -6.261955e-02 4.002496e-02 1.388685e-01 2.281336e-01 2.611771e-01 2.798617e-01 2.980959e-01 3.130830e-01 3.442406e-01 3.125188e-01 1.921694e-01 6.961817e-02 -1.691111e-06
<VARIANCE> 25
 6.922538e+00 9.070774e+00 1.061506e+01 1.580344e+01 1.712906e+01 1.549116e+01 1.685717e+01 1.987920e+01 1.661321e+01 1.728667e+01 1.827958e+01 1.430924e+01 1.244879e-01 2.260598e-01 3.377396e-01 4.648594e-01 6.473320e-01 8.098025e-01 9.372541e-01 1.002650e+00 1.051116e+00 1.073277e+00 1.072798e+00 1.032621e+00 1.027916e-06
<GCONST> 5.813651e+01
<MIXTURE> 4 1.671429e-02
<MEAN> 25
 3.080477e+00 3.046022e+00 -3.293583e+00 1.406781e+00 5.374835e+00 2.100632e-01 1.203004e+00 -8.209736e-01 1.473673e+00 8.552232e-01 -1.877433e+00 -1.184404e-01 -2.541807e+00 9.658987e-01 1.586514e+00 3.238865e+00 8.233286e-01 3.475926e-01 1.669338e+00 4.478252e-01 7.963224e-01 6.071055e-01 9.744098e-01 6.449320e-01 -9.639665e-02
<VARIANCE> 25
 1.853869e+01 3.050341e+01 2.537615e+01 3.775063e+01 5.815897e+01 6.061384e+01 6.768279e+01 4.940708e+01 4.699365e+01 5.706507e+01 4.461000e+01 3.637530e+01 2.136983e+00 4.511489e+00 3.473571e+00 4.233016e+00 4.530643e+00 5.732510e+00 5.648496e+00 6.695028e+00 5.364957e+00 5.812801e+00 5.312470e+00 4.729180e+00 5.507287e-03
<GCONST> 1.040241e+02
<MIXTURE> 5 3.206198e-03
<MEAN> 25
 -3.417164e+00 2.189971e+00 6.085045e-01 9.430972e+00 6.696675e+00 6.315000e+00 7.117477e+00 4.702594e+00 5.490890e+00 3.845379e+00 4.650733e+00 2.607825e+00 -3.242432e-01 7.517306e-01 1.222668e+00 1.031472e+00 3.073302e-01 -9.926054e-02 -8.403666e-02 3.315935e-02 4.572166e-01 6.823194e-01 4.028685e-01 8.773757e-02 -2.908182e-05
<VARIANCE> 25
 1.023203e+01 1.395490e+01 2.345001e+01 2.559006e+01 2.018739e+01 1.939754e+01 2.009985e+01 2.055389e+01 2.141020e+01 2.127235e+01 2.408820e+01 1.634732e+01 1.207840e+00 1.243110e+00 1.357591e+00 1.671294e+00 2.281484e+00 2.373129e+00 2.300140e+00 2.271562e+00 2.312845e+00 2.236895e+00 2.082692e+00 1.875062e+00 1.006922e-06
<GCONST> 7.516187e+01
<MIXTURE> 6 5.475854e-03
<MEAN> 25
 9.673326e+00 -4.393615e-01 -6.677779e+00 -1.109464e+01 -2.089938e+00 6.755100e+00 -5.912006e+00 -5.229185e+00 -3.657247e+00 1.807123e+00 4.616336e+00 -1.236574e+00 4.849127e-01 8.920748e-01 -3.540582e-01 -1.463703e+00 -6.335956e-01 1.308457e+00 1.537282e+00 2.472966e-01 -1.217624e+00 -1.217038e+00 3.268707e-01 1.224098e+00 -8.175493e-03
<VARIANCE> 25
 9.111933e+00 1.712287e+01 2.390623e+01 3.970909e+01 3.681291e+01 3.065378e+01 4.411550e+01 3.900213e+01 4.061494e+01 3.962782e+01 4.209234e+01 2.840672e+01 3.106667e-01 8.625093e-01 9.467176e-01 1.985620e+00 1.612933e+00 2.025908e+00 1.914539e+00 2.061273e+00 2.389971e+00 1.957420e+00 2.241148e+00 1.440652e+00 5.884238e-04
<GCONST> 8.394987e+01
<MIXTURE> 7 5.475854e-03
<MEAN> 25
 9.673326e+00 -4.393615e-01 -6.677779e+00 -1.109464e+01 -2.089938e+00 6.755100e+00 -5.912006e+00 -5.229185e+00 -3.657247e+00 1.807123e+00 4.616336e+00 -1.236574e+00 4.849127e-01 8.920748e-01 -3.540582e-01 -1.463703e+00 -6.335956e-01 1.308457e+00 1.537282e+00 2.472966e-01 -1.217624e+00 -1.217038e+00 3.268707e-01 1.224098e+00 -8.175493e-03
<VARIANCE> 25
 9.111933e+00 1.712287e+01 2.390623e+01 3.970909e+01 3.681291e+01 3.065378e+01 4.411550e+01 3.900213e+01 4.061494e+01 3.962782e+01 4.209234e+01 2.840672e+01 3.106667e-01 8.625093e-01 9.467176e-01 1.985620e+00 1.612933e+00 2.025908e+00 1.914539e+00 2.061273e+00 2.389971e+00 1.957420e+00 2.241148e+00 1.440652e+00 5.884238e-04
<GCONST> 8.394987e+01
<MIXTURE> 8 1.165917e-02
<MEAN> 25
 -4.663329e+00 1.536327e+00 1.233801e+00 9.582077e+00 6.520864e+00 6.197137e+00 6.529336e+00 5.327731e+00 6.568019e+00 5.556905e+00 6.340406e+00 3.154061e+00 -6.021225e-01 -1.431747e+00 -1.066525e+00 -1.726636e+00 -2.733475e-01 -1.032434e+00 -2.329717e-01 -2.170085e-01 -2.454643e-01 -2.474093e-01 -2.018889e-01 1.074426e-01 9.784634e-02
<VARIANCE> 25
 9.232859e+00 1.045163e+01 1.142534e+01 1.570800e+01 1.624774e+01 1.567090e+01 1.822217e+01 2.095974e+01 1.681479e+01 1.724247e+01 1.996224e+01 1.362119e+01 2.716068e+00 2.771093e+00 3.806160e+00 3.709114e+00 3.408891e+00 3.587576e+00 3.326459e+00 3.326800e+00 2.884759e+00 2.769072e+00 2.368609e+00 1.871339e+00 6.553820e-03
<GCONST> 8.657938e+01
<MIXTURE> 9 1.199672e-02
<MEAN> 25
 7.565194e+00 2.973036e+00 -5.395617e+00 -1.291100e+01 -3.021929e+00 4.127633e+00 -3.623238e+00 1.527932e+00 -5.929045e+00 -3.564426e+00 1.871317e-01 -9.751733e-01 1.282428e+00 -4.818145e-01 1.077589e-01 -3.432704e+00 -1.355703e+00 1.337176e+00 -1.508553e+00 2.590417e-01 -1.484508e+00 -3.274215e-01 4.647897e-01 -3.246520e-01 8.481955e-02
<VARIANCE> 25
 1.278067e+01 1.640993e+01 2.584154e+01 5.659457e+01 4.314994e+01 2.683637e+01 5.863134e+01 5.357277e+01 4.587730e+01 3.553864e+01 2.415883e+01 3.193560e+01 1.450420e+00 2.134594e+00 4.094159e+00 7.335848e+00 3.450556e+00 4.696404e+00 4.593830e+00 1.079157e+01 7.857489e+00 4.779305e+00 3.032521e+00 3.622694e+00 2.046179e-03
<GCONST> 9.878422e+01
<MIXTURE> 10 6.596976e-03
<MEAN> 25
 3.832621e-01 7.343165e+00 5.186159e+00 7.041448e+00 1.332710e+00 -1.979270e+00 -2.573993e-01 -1.899981e+00 1.290657e+00 4.523423e-01 1.118871e+00 7.600765e-01 -1.837823e+00 -5.647702e-01 -5.814798e-01 3.007103e+00 2.406411e+00 2.630335e+00 2.448146e+00 1.995839e+00 2.032537e+00 1.534026e+00 2.176669e+00 5.288793e-01 -1.366391e-01
<VARIANCE> 25
 2.169262e+01 2.092324e+01 2.157120e+01 2.761056e+01 3.921395e+01 3.338090e+01 3.423690e+01 3.247355e+01 2.926105e+01 3.003389e+01 2.730234e+01 2.403279e+01 2.222506e+00 3.396578e+00 5.495363e+00 4.880569e+00 5.287081e+00 4.300335e+00 4.537026e+00 5.713159e+00 4.750430e+00 4.729629e+00 4.536450e+00 3.050350e+00 2.573700e-03
<GCONST> 9.737669e+01
<MIXTURE> 11 1.633820e-02
<MEAN> 25
 7.441875e+00 4.235022e+00 3.258450e+00 5.734302e+00 -3.350557e+00 -2.744766e+00 -2.268299e+00 -6.644158e+00 -3.426197e+00 -5.182607e-02 -2.633309e+00 -2.023300e+00 -3.565949e-01 4.821056e-01 8.684342e-02 3.825894e-01 4.396584e-01 -1.094187e-01 3.041393e-01 -1.792873e-01 -1.196949e-01 -1.615090e-01 -7.311570e-02 2.276462e-01 -1.489642e-02
<VARIANCE> 25
 1.309182e+01 2.374460e+01 2.060172e+01 3.232220e+01 3.751332e+01 4.517755e+01 4.842963e+01 4.106385e+01 4.217517e+01 3.560921e+01 3.718077e+01 2.845138e+01 9.858447e-01 1.250787e+00 1.787562e+00 2.282429e+00 2.033077e+00 2.080220e+00 2.195801e+00 2.680752e+00 2.139139e+00 2.176500e+00 1.822247e+00 1.646064e+00 1.104179e-03
<GCONST> 8.815456e+01
<MIXTURE> 12 5.904134e-03
<MEAN> 25
 1.020097e+01 3.141807e+00 -4.430465e+00 -1.701083e+01 -8.022485e+00 8.480211e+00 -1.742859e+00 -5.743671e-01 -2.175859e+00 -5.401612e+00 1.705698e+00 9.253036e-01 1.270027e-01 2.551475e-01 2.468924e-02 -3.632298e-01 -3.528667e-01 -1.287570e-01 3.744368e-01 4.804034e-01 9.024974e-02 -4.396249e-01 -3.059284e-01 -3.684994e-02 -6.618686e-03
<VARIANCE> 25
 1.172507e+01 2.337461e+01 2.170647e+01 4.394146e+01 4.412743e+01 2.912314e+01 4.651791e+01 6.496480e+01 4.289547e+01 3.760646e+01 3.524514e+01 2.791884e+01 2.665999e-01 6.601301e-01 6.719360e-01 1.120867e+00 1.116717e+00 1.302040e+00 1.146737e+00 1.339360e+00 1.190067e+00 1.198726e+00 1.209539e+00 9.930592e-01 5.497298e-04
<GCONST> 7.968571e+01
<MIXTURE> 13 5.904134e-03
<MEAN> 25
 1.020097e+01 3.141807e+00 -4.430465e+00 -1.701083e+01 -8.022485e+00 8.480211e+00 -1.742859e+00 -5.743671e-01 -2.175859e+00 -5.401612e+00 1.705698e+00 9.253036e-01 1.270027e-01 2.551475e-01 2.468924e-02 -3.632298e-01 -3.528667e-01 -1.287570e-01 3.744368e-01 4.804034e-01 9.024974e-02 -4.396249e-01 -3.059284e-01 -3.684994e-02 -6.618686e-03
<VARIANCE> 25
 1.172507e+01 2.337461e+01 2.170647e+01 4.394146e+01 4.412743e+01 2.912314e+01 4.651791e+01 6.496480e+01 4.289547e+01 3.760646e+01 3.524514e+01 2.791884e+01 2.665999e-01 6.601301e-01 6.719360e-01 1.120867e+00 1.116717e+00 1.302040e+00 1.146737e+00 1.339360e+00 1.190067e+00 1.198726e+00 1.209539e+00 9.930592e-01 5.497298e-04
<GCONST> 7.968571e+01
<MIXTURE> 14 6.488954e-03
<MEAN> 25
 -4.245444e+00 -2.577636e-01 -3.653725e-01 8.778344e+00 7.435037e+00 7.425736e+00 7.876378e+00 7.005324e+00 7.213367e+00 5.227807e+00 6.718877e+00 4.008728e+00 -2.642470e-01 1.921940e-01 3.546432e-01 3.070506e-01 -4.379904e-02 3.055784e-02 8.277237e-02 1.928288e-01 3.037196e-01 5.397304e-01 5.092360e-01 9.776692e-02 -9.774937e-03
<VARIANCE> 25
 9.182839e+00 1.455758e+01 1.849888e+01 1.872574e+01 2.106478e+01 2.046709e+01 2.106229e+01 2.347428e+01 2.008486e+01 2.407739e+01 2.167379e+01 1.597246e+01 9.446315e-01 1.610991e+00 1.729674e+00 1.891671e+00 2.315900e+00 2.242743e+00 2.224602e+00 2.224903e+00 2.255074e+00 2.533567e+00 2.146586e+00 1.805707e+00 1.014830e-03
<GCONST> 8.204469e+01
<MIXTURE> 15 2.475190e-03
<MEAN> 25
 -5.405952e+00 -5.857272e-01 -2.207329e-01 7.353954e+00 5.726377e+00 5.749977e+00 6.107535e+00 4.886116e+00 5.193218e+00 4.140480e+00 5.440984e+00 2.513461e+00 -1.201063e-01 -2.914880e-02 7.242013e-02 2.389339e-01 4.906258e-01 7.858694e-01 1.068309e+00 1.183071e+00 1.046157e+00 7.562985e-01 4.202776e-01 1.528316e-01 -2.800770e-05
<VARIANCE> 25
 6.991900e+00 5.864034e+00 9.006163e+00 1.286583e+01 1.393343e+01 1.468575e+01 1.501144e+01 1.582492e+01 1.452802e+01 1.409782e+01 1.531942e+01 1.246012e+01 1.237997e-01 2.045381e-01 3.172088e-01 5.067316e-01 6.942154e-01 7.921878e-01 7.604449e-01 7.869627e-01 9.167087e-01 1.018859e+00 1.065319e+00 1.043585e+00 2.856494e-05
<GCONST> 5.873723e+01
<MIXTURE> 16 2.475190e-03
<MEAN> 25
 -5.405952e+00 -5.857272e-01 -2.207329e-01 7.353954e+00 5.726377e+00 5.749977e+00 6.107535e+00 4.886116e+00 5.193218e+00 4.140480e+00 5.440984e+00 2.513461e+00 -1.201063e-01 -2.914880e-02 7.242013e-02 2.389339e-01 4.906258e-01 7.858694e-01 1.068309e+00 1.183071e+00 1.046157e+00 7.562985e-01 4.202776e-01 1.528316e-01 -2.800770e-05
<VARIANCE> 25
 6.991900e+00 5.864034e+00 9.006163e+00 1.286583e+01 1.393343e+01 1.468575e+01 1.501144e+01 1.582492e+01 1.452802e+01 1.409782e+01 1.531942e+01 1.246012e+01 1.237997e-01 2.045381e-01 3.172088e-01 5.067316e-01 6.942154e-01 7.921878e-01 7.604449e-01 7.869627e-01 9.167087e-01 1.018859e+00 1.065319e+00 1.043585e+00 2.856494e-05
<GCONST> 5.873723e+01
<MIXTURE> 17 9.518312e-03
<MEAN> 25
 2.639260e+00 -2.691679e+00 6.984942e+00 3.917922e+00 -4.502778e+00 -1.023476e+01 -6.024642e+00 1.477490e+00 -3.894229e+00 -2.041941e+00 -3.027762e-01 -1.020970e+00 -5.876214e-01 -1.192208e+00 1.814246e+00 -2.749151e+00 -2.578546e+00 2.280306e-01 -3.389290e-01 1.113231e+00 -1.266228e+00 5.674741e-01 1.421695e+00 1.892186e-01 7.689150e-02
<VARIANCE> 25
 1.375726e+01 2.925199e+01 3.357323e+01 4.512096e+01 5.187556e+01 6.786342e+01 5.155782e+01 3.304887e+01 5.335429e+01 3.740432e+01 3.648007e+01 2.563683e+01 1.753419e+00 2.138831e+00 4.857154e+00 4.024485e+00 4.359486e+00 5.830097e+00 4.531440e+00 4.299665e+00 4.609482e+00 5.137901e+00 2.649553e+00 2.424094e+00 1.800778e-03
<GCONST> 9.851879e+01
<MIXTURE> 18 1.221018e-02
<MEAN> 25
 2.849075e+00 3.858645e+00 6.782938e+00 5.446738e+00 -5.406878e+00 -9.144939e+00 -3.251208e-01 -2.025646e+00 -3.946112e+00 -1.766348e+00 -3.579003e-01 2.546237e-01 -6.824721e-01 2.150661e+00 -8.896460e-01 1.891119e+00 2.729123e+00 1.675651e+00 1.117244e+00 -1.042889e+00 1.594754e+00 3.420652e-01 5.099227e-03 1.901837e-01 -1.205350e-01
<VARIANCE> 25
 1.729048e+01 2.422318e+01 2.775689e+01 2.797911e+01 3.374519e+01 3.740168e+01 4.083712e+01 3.187275e+01 3.479463e+01 2.819382e+01 3.090099e+01 2.367531e+01 2.064587e+00 2.444637e+00 5.104084e+00 3.743669e+00 3.409827e+00 4.044007e+00 4.829684e+00 4.968238e+00 6.532352e+00 3.562399e+00 3.856989e+00 2.955076e+00 3.461289e-03
<GCONST> 9.672021e+01
<MIXTURE> 19 9.912824e-03
<MEAN> 25
 -9.037776e+00 2.096994e+00 -6.792770e-01 7.225028e-01 3.766939e+00 2.116579e+00 3.675439e+00 1.850967e+00 1.918333e+00 1.335058e+00 1.038673e+00 1.958781e+00 2.000912e+00 1.639938e+00 2.125126e+00 5.994333e-01 -1.006290e+00 -1.001413e+00 -1.304505e+00 -1.546702e+00 -1.464945e+00 -1.120323e+00 -7.231041e-01 -8.430156e-01 6.175516e-03
<VARIANCE> 25
 5.805641e+01 2.805454e+01 5.167390e+01 4.956652e+01 3.164571e+01 3.335172e+01 2.889631e+01 3.190238e+01 2.658951e+01 2.580482e+01 2.841752e+01 1.785891e+01 2.236277e+00 2.082308e+00 2.071919e+00 2.317128e+00 2.432392e+00 2.397692e+00 2.870401e+00 2.374026e+00 1.911621e+00 1.856413e+00 2.150628e+00 1.901853e+00 2.353330e-03
<GCONST> 9.115224e+01
<MIXTURE> 20 6.308331e-03
<MEAN> 25
 -1.418035e+01 7.415958e+00 8.448290e-01 6.153339e+00 4.841586e+00 1.634817e+00 5.208442e+00 8.522276e-01 9.226140e-01 7.980554e-01 2.569052e+00 -3.009296e-01 -3.285597e+00 -8.666726e-01 -1.564785e+00 3.326810e-01 1.540804e+00 2.062828e+00 1.978857e+00 2.056158e+00 2.144663e+00 2.039790e+00 1.684145e+00 9.451256e-01 4.731767e-02
<VARIANCE> 25
 1.966754e+01 2.345213e+01 3.095660e+01 3.717622e+01 3.086663e+01 2.791697e+01 2.993226e+01 3.148351e+01 2.796230e+01 2.821229e+01 2.515891e+01 2.092793e+01 2.092405e+00 2.182215e+00 1.910562e+00 2.541035e+00 2.702594e+00 2.313298e+00 2.310621e+00 2.319721e+00 2.235242e+00 2.652962e+00 2.243284e+00 1.865712e+00 1.886280e-03
<GCONST> 8.922227e+01
<MIXTURE> 21 7.928653e-03
<MEAN> 25
 3.138688e+00 -6.137274e+00 8.047054e+00 -1.296635e+00 -1.124187e+01 -1.013539e+01 -4.164159e+00 4.901207e+00 -4.584517e+00 -2.196164e+00 5.330288e-01 2.200636e-01 -8.401489e-01 1.370468e+00 2.777126e+00 -1.516565e-01 -1.510509e+00 6.284240e-01 7.313650e-01 -1.593097e+00 -1.745645e+00 3.009984e-02 1.109050e+00 4.435320e-01 -1.079069e-02
<VARIANCE> 25
 1.041662e+01 2.685879e+01 4.620785e+01 2.414741e+01 2.550874e+01 3.736365e+01 4.528785e+01 3.496371e+01 6.106466e+01 3.311980e+01 2.850109e+01 1.946523e+01 4.006284e-01 8.790599e-01 1.899428e+00 1.294129e+00 1.931181e+00 2.523676e+00 3.149418e+00 2.297518e+00 2.045458e+00 2.652834e+00 1.906543e+00 2.267333e+00 4.009203e-04
<GCONST> 8.550804e+01
<MIXTURE> 22 8.827789e-03
<MEAN> 25
 -1.792060e+01 7.154724e+00 -4.131112e+00 7.392755e+00 4.602096e+00 2.760514e+00 8.399561e+00 1.748293e+00 5.379416e+00 3.300691e+00 5.716195e+00 1.185349e+00 -3.095689e-01 -2.076046e-01 -1.255338e-01 -1.492029e-01 -7.192072e-03 1.369741e-01 1.807622e-01 1.780105e-01 2.485674e-01 2.072610e-01 1.725615e-01 1.924030e-01 8.858063e-03
<VARIANCE> 25
 8.119145e+00 1.682485e+01 1.738438e+01 2.517317e+01 2.290081e+01 2.084343e+01 1.943196e+01 1.871140e+01 1.814054e+01 2.086852e+01 1.924421e+01 1.378801e+01 1.090768e+00 1.357355e+00 1.363941e+00 1.572068e+00 1.408774e+00 1.526930e+00 1.508891e+00 1.532889e+00 1.614395e+00 1.544763e+00 1.357681e+00 1.168034e+00 1.745527e-03
<GCONST> 7.831094e+01
<MIXTURE> 23 6.455497e-03
<MEAN> 25
 7.914356e+00 2.392844e+00 3.125612e+00 2.147293e+00 -4.848719e+00 -2.741778e+00 -4.584763e+00 -6.859469e+00 -3.076814e+00 -1.372615e+00 -4.261805e+00 -2.026896e+00 5.128699e-02 2.153262e-01 4.467276e-02 7.086764e-02 -2.754612e-02 5.137867e-02 2.481208e-02 1.427717e-03 6.199546e-02 8.775796e-02 -1.258231e-02 3.256362e-02 -4.615827e-03
<VARIANCE> 25
 9.982794e+00 2.135641e+01 2.366731e+01 4.055075e+01 3.636683e+01 5.493044e+01 5.853470e+01 5.477563e+01 4.875199e+01 4.725502e+01 4.652271e+01 3.870899e+01 1.186502e-01 3.094023e-01 3.876190e-01 4.718879e-01 5.877477e-01 6.798788e-01 7.396281e-01 8.857733e-01 8.949776e-01 8.694982e-01 7.872014e-01 7.253213e-01 8.510067e-05
<GCONST> 7.256019e+01
<MIXTURE> 24 6.455497e-03
<MEAN> 25
 7.914356e+00 2.392844e+00 3.125612e+00 2.147293e+00 -4.848719e+00 -2.741778e+00 -4.584763e+00 -6.859469e+00 -3.076814e+00 -1.372615e+00 -4.261805e+00 -2.026896e+00 5.128699e-02 2.153262e-01 4.467276e-02 7.086764e-02 -2.754612e-02 5.137867e-02 2.481208e-02 1.427717e-03 6.199546e-02 8.775796e-02 -1.258231e-02 3.256362e-02 -4.615827e-03
<VARIANCE> 25
 9.982794e+00 2.135641e+01 2.366731e+01 4.055075e+01 3.636683e+01 5.493044e+01 5.853470e+01 5.477563e+01 4.875199e+01 4.725502e+01 4.652271e+01 3.870899e+01 1.186502e-01 3.094023e-01 3.876190e-01 4.718879e-01 5.877477e-01 6.798788e-01 7.396281e-01 8.857733e-01 8.949776e-01 8.694982e-01 7.872014e-01 7.253213e-01 8.510067e-05
<GCONST> 7.256019e+01
<MIXTURE> 25 1.118642e-02
<MEAN> 25
 -2.274357e-01 1.619058e+00 1.739481e+01 -1.402017e+00 -1.141217e+01 -2.519866e+00 -6.272694e+00 -2.009911e+00 -7.972004e+00 -4.872468e+00 3.732064e+00 -1.881617e+00 -1.895935e-01 6.942295e-01 -4.458330e-02 1.322234e-02 4.363705e-01 4.855903e-01 3.135717e-01 -3.654174e-01 -2.865468e-01 -3.383344e-01 1.417159e-01 -1.753609e-01 -1.686925e-02
<VARIANCE> 25
 8.692545e+00 3.437426e+01 1.934218e+01 2.492064e+01 2.682450e+01 3.852700e+01 3.050592e+01 2.992243e+01 2.967989e+01 3.432583e+01 1.892096e+01 2.372694e+01 5.179422e-01 1.527261e+00 1.681236e+00 1.319368e+00 2.156529e+00 2.586954e+00 1.804101e+00 1.597648e+00 1.364272e+00 2.386965e+00 1.405567e+00 1.157373e+00 1.210551e-03
<GCONST> 8.290555e+01
<MIXTURE> 26 7.727677e-03
<MEAN> 25
 1.763950e+00 -5.294178e+00 -9.438996e+00 -2.063675e+00 8.873737e+00 8.086598e+00 4.841136e+00 -1.214353e+00 2.901240e+00 -1.044631e+00 -1.723675e+00 -6.294691e-01 -6.812407e-01 6.505139e-01 2.294554e-01 8.608696e-01 8.411570e-02 2.839139e-01 4.297050e-01 1.052989e-01 4.280668e-01 -3.795391e-02 2.883573e-01 2.926702e-01 -5.094136e-02
<VARIANCE> 25
 1.954155e+01 3.018497e+01 2.130498e+01 5.872501e+01 3.113906e+01 4.375911e+01 3.670356e+01 4.143771e+01 3.440496e+01 4.364168e+01 3.103328e+01 3.374554e+01 1.253822e+00 1.376308e+00 1.674973e+00 1.684647e+00 2.468986e+00 2.193061e+00 2.014802e+00 3.524090e+00 1.846411e+00 2.425038e+00 1.684068e+00 1.573849e+00 2.433722e-03
<GCONST> 8.995866e+01
<MIXTURE> 27 7.727677e-03
<MEAN> 25
 1.763950e+00 -5.294178e+00 -9.438996e+00 -2.063675e+00 8.873737e+00 8.086598e+00 4.841136e+00 -1.214353e+00 2.901240e+00 -1.044631e+00 -1.723675e+00 -6.294691e-01 -6.812407e-01 6.505139e-01 2.294554e-01 8.608696e-01 8.411570e-02 2.839139e-01 4.297050e-01 1.052989e-01 4.280668e-01 -3.795391e-02 2.883573e-01 2.926702e-01 -5.094136e-02
<VARIANCE> 25
 1.954155e+01 3.018497e+01 2.130498e+01 5.872501e+01 3.113906e+01 4.375911e+01 3.670356e+01 4.143771e+01 3.440496e+01 4.364168e+01 3.103328e+01 3.374554e+01 1.253822e+00 1.376308e+00 1.674973e+00 1.684647e+00 2.468986e+00 2.193061e+00 2.014802e+00 3.524090e+00 1.846411e+00 2.425038e+00 1.684068e+00 1.573849e+00 2.433722e-03
<GCONST> 8.995866e+01
<MIXTURE> 28 5.036674e-03
<MEAN> 25
 -5.339361e+00 3.316632e-01 -1.541491e+00 6.741590e+00 5.306584e+00 3.627353e+00 5.569940e+00 2.722976e+00 3.828065e+00 2.250965e+00 2.448281e+00 3.151382e+00 -1.146734e-01 2.373832e-01 5.325621e-01 7.768803e-01 8.054910e-01 7.057164e-01 4.594506e-01 3.657888e-01 4.634253e-01 4.310810e-01 3.680001e-01 2.248216e-01 -7.304389e-05
<VARIANCE> 25
 1.017025e+01 9.723739e+00 1.187395e+01 1.598248e+01 1.433436e+01 1.724534e+01 1.750993e+01 2.097869e+01 1.699995e+01 1.700875e+01 2.017953e+01 1.479309e+01 2.450028e-01 3.270895e-01 3.914425e-01 4.419261e-01 6.080161e-01 8.160020e-01 1.103317e+00 1.116044e+00 1.057838e+00 1.058587e+00 9.859298e-01 1.061528e+00 1.064246e-06
<GCONST> 6.020319e+01
<MIXTURE> 29 5.036674e-03
<MEAN> 25
 -5.339361e+00 3.316632e-01 -1.541491e+00 6.741590e+00 5.306584e+00 3.627353e+00 5.569940e+00 2.722976e+00 3.828065e+00 2.250965e+00 2.448281e+00 3.151382e+00 -1.146734e-01 2.373832e-01 5.325621e-01 7.768803e-01 8.054910e-01 7.057164e-01 4.594506e-01 3.657888e-01 4.634253e-01 4.310810e-01 3.680001e-01 2.248216e-01 -7.304389e-05
<VARIANCE> 25
 1.017025e+01 9.723739e+00 1.187395e+01 1.598248e+01 1.433436e+01 1.724534e+01 1.750993e+01 2.097869e+01 1.699995e+01 1.700875e+01 2.017953e+01 1.479309e+01 2.450028e-01 3.270895e-01 3.914425e-01 4.419261e-01 6.080161e-01 8.160020e-01 1.103317e+00 1.116044e+00 1.057838e+00 1.058587e+00 9.859298e-01 1.061528e+00 1.064246e-06
<GCONST> 6.020319e+01
<MIXTURE> 30 8.917812e-03
<MEAN> 25
 -4.011612e+00 1.916265e+00 -2.738958e-02 9.626553e+00 7.261290e+00 7.511574e+00 8.523401e+00 3.231782e+00 6.364047e+00 4.682346e+00 5.003205e+00 3.023070e+00 -2.657969e-02 1.760428e-02 -2.532206e-03 -1.569363e-02 2.452560e-04 1.930872e-01 2.609496e-02 -1.027410e-01 6.951433e-02 1.299294e-01 -1.646895e-02 2.743214e-03 -1.024720e-03
<VARIANCE> 25
 5.281302e+00 1.452019e+01 9.147765e+00 1.462074e+01 1.174981e+01 1.645271e+01 1.809909e+01 3.562350e+01 1.740104e+01 1.422494e+01 2.193118e+01 1.176886e+01 8.852623e-02 1.495315e-01 2.516303e-01 4.102561e-01 6.319477e-01 7.087566e-01 6.182074e-01 9.057171e-01 8.381557e-01 8.667510e-01 7.871958e-01 1.059214e+00 4.821646e-05
<GCONST> 5.956093e+01
<MIXTURE> 31 4.136493e-03
<MEAN> 25
 -3.180752e+00 -5.174469e+00 5.068135e-02 4.777896e+00 3.461241e+00 1.823159e+00 5.342459e+00 5.670011e+00 2.932527e+00 1.777136e+00 6.484093e+00 3.156880e+00 2.711165e-01 5.329024e-01 -2.135241e-01 2.511889e-01 -5.352667e-03 3.579282e-01 1.614615e-01 -2.466150e-02 4.438668e-01 5.860137e-01 1.390608e-01 1.204939e-01 -1.837736e-02
<VARIANCE> 25
 6.731850e+00 1.676725e+01 1.820529e+01 1.904922e+01 2.525464e+01 2.755096e+01 2.187773e+01 3.348618e+01 2.591314e+01 3.417753e+01 1.997660e+01 1.821194e+01 1.848188e-01 5.097085e-01 5.551345e-01 8.049340e-01 1.060109e+00 1.073986e+00 1.143607e+00 1.314187e+00 1.479345e+00 1.721265e+00 1.183118e+00 1.066451e+00 2.538193e-04
<GCONST> 7.260413e+01
<MIXTURE> 32 4.136493e-03
<MEAN> 25
 -3.180752e+00 -5.174469e+00 5.068135e-02 4.777896e+00 3.461241e+00 1.823159e+00 5.342459e+00 5.670011e+00 2.932527e+00 1.777136e+00 6.484093e+00 3.156880e+00 2.711165e-01 5.329024e-01 -2.135241e-01 2.511889e-01 -5.352667e-03 3.579282e-01 1.614615e-01 -2.466150e-02 4.438668e-01 5.860137e-01 1.390608e-01 1.204939e-01 -1.837736e-02
<VARIANCE> 25
 6.731850e+00 1.676725e+01 1.820529e+01 1.904922e+01 2.525464e+01 2.755096e+01 2.187773e+01 3.348618e+01 2.591314e+01 3.417753e+01 1.997660e+01 1.821194e+01 1.848188e-01 5.097085e-01 5.551345e-01 8.049340e-01 1.060109e+00 1.073986e+00 1.143607e+00 1.314187e+00 1.479345e+00 1.721265e+00 1.183118e+00 1.066451e+00 2.538193e-04
<GCONST> 7.260413e+01
<MIXTURE> 33 1.508826e-02
<MEAN> 25
 6.159390e+00 -4.103269e+00 -1.386607e+00 -4.440443e+00 -2.415632e+00 -4.458376e+00 -7.770097e+00 2.651362e+00 2.282906e+00 4.932845e-01 -2.649175e+00 -2.808182e+00 6.339061e-01 -1.205224e+00 -2.516546e+00 -2.108267e+00 8.750582e-01 1.609772e+00 -2.412641e-01 1.185817e+00 9.118773e-01 3.255960e-01 -5.673260e-01 -1.173000e+00 3.876557e-02
<VARIANCE> 25
 8.634762e+00 2.295511e+01 3.444140e+01 4.356572e+01 3.525544e+01 4.101899e+01 5.336302e+01 4.189967e+01 3.805959e+01 4.026221e+01 4.409256e+01 2.622686e+01 9.520565e-01 1.646163e+00 2.009030e+00 2.238348e+00 4.629561e+00 3.356822e+00 4.813271e+00 5.956068e+00 3.253638e+00 3.696178e+00 3.484214e+00 2.495589e+00 1.236845e-03
<GCONST> 9.393309e+01
<MIXTURE> 34 1.588179e-02
<MEAN> 25
 8.136232e+00 -4.479918e-02 -1.673073e-01 -3.702525e-01 -2.371382e+00 -8.967608e-01 -5.693206e+00 -3.697945e+00 -2.110310e+00 -1.214384e+00 -3.083023e+00 -3.433362e+00 -2.059430e-01 1.258374e+00 1.210441e+00 2.976724e+00 1.589960e-01 -1.076520e-01 1.152261e+00 -2.587438e+00 -2.381822e-01 -9.167934e-02 -6.659300e-01 3.904085e-01 -6.135811e-02
<VARIANCE> 25
 8.291940e+00 3.642352e+01 2.422939e+01 6.481455e+01 3.844661e+01 4.952006e+01 5.409732e+01 5.980127e+01 4.396510e+01 4.442956e+01 4.222500e+01 3.108569e+01 1.299799e+00 1.697477e+00 3.851355e+00 4.784427e+00 4.811762e+00 4.773032e+00 5.576319e+00 9.970314e+00 5.766273e+00 5.750424e+00 4.110446e+00 3.476449e+00 1.103614e-03
<GCONST> 9.961604e+01
<MIXTURE> 35 1.467755e-02
<MEAN> 25
 -2.379961e+00 -4.732471e+00 -8.675381e+00 2.998596e+00 7.249174e+00 -2.647931e+00 7.576113e-01 3.026960e+00 3.648283e+00 3.649356e+00 -4.891963e-01 2.564015e+00 3.879277e-01 -1.151153e+00 -1.506096e+00 -7.683396e-01 6.450350e-01 -1.472807e+00 -1.071847e+00 6.382731e-01 -3.519712e-02 -4.962800e-01 -1.131678e+00 -4.336931e-01 1.026829e-01
<VARIANCE> 25
 1.642439e+01 2.768925e+01 4.265662e+01 8.098283e+01 5.111281e+01 9.684535e+01 4.780286e+01 4.580939e+01 5.733615e+01 4.307533e+01 3.552457e+01 2.773158e+01 2.968346e+00 3.005161e+00 5.847057e+00 6.933339e+00 4.495908e+00 7.138525e+00 4.722003e+00 6.469025e+00 5.928531e+00 6.391467e+00 4.480399e+00 3.151568e+00 4.908266e-03
<GCONST> 1.048616e+02
<MIXTURE> 36 1.093293e-02
<MEAN> 25
 4.708294e+00 -3.450990e+00 6.984900e+00 2.880893e+00 -9.961669e+00 -9.428061e+00 -6.167984e+00 2.946330e+00 -2.069544e+00 -3.861261e+00 2.741558e+00 -3.870588e-02 2.975446e-01 1.175007e-01 -9.286032e-01 2.245835e-04 8.386106e-01 2.514623e-02 -5.935281e-01 -2.348162e-02 4.544852e-01 4.372942e-01 -3.541674e-01 -2.641344e-01 -1.506962e-02
<VARIANCE> 25
 1.057403e+01 1.683854e+01 2.088030e+01 2.839480e+01 3.016307e+01 3.415632e+01 4.841566e+01 3.643034e+01 4.159608e+01 3.788709e+01 2.991842e+01 2.672131e+01 5.653929e-01 7.296678e-01 1.558404e+00 1.173643e+00 1.538161e+00 1.652857e+00 2.226317e+00 1.691879e+00 2.070728e+00 1.842815e+00 1.511378e+00 1.414280e+00 7.634463e-04
<GCONST> 8.287218e+01
<MIXTURE> 37 1.246826e-02
<MEAN> 25
 4.656056e-01 7.581564e+00 1.200955e+01 -5.452942e+00 -7.969013e+00 -1.096917e+00 -5.032310e+00 -8.214527e+00 -3.830052e+00 -9.616730e-01 -3.482133e+00 -1.281245e+00 1.608837e-01 6.706690e-01 -1.399496e+00 3.552271e+00 1.976294e+00 -2.828521e-01 1.130812e+00 3.782885e-01 6.062416e-01 -3.170682e-01 5.278321e-01 -6.295444e-02 -9.467278e-02
<VARIANCE> 25
 1.607062e+01 2.759101e+01 3.136252e+01 5.071047e+01 3.348335e+01 3.163933e+01 4.419953e+01 3.555873e+01 4.093747e+01 3.639154e+01 3.866420e+01 3.035109e+01 2.920263e+00 3.419623e+00 3.132189e+00 4.061208e+00 4.531058e+00 3.722611e+00 4.288779e+00 3.949031e+00 3.757540e+00 3.562998e+00 3.829378e+00 2.792695e+00 3.901483e-03
<GCONST> 9.802956e+01
<MIXTURE> 38 1.154525e-02
<MEAN> 25
 -4.734843e+00 8.813902e+00 4.004011e+00 4.053710e+00 2.636284e-01 -5.893408e+00 -7.247415e-01 -3.117604e+00 -2.494758e+00 -3.169366e+00 -1.023880e+00 -3.056894e-02 -4.233823e+00 1.171062e+00 -2.013336e-01 1.427970e+00 2.382843e+00 1.351323e+00 1.849426e+00 9.934549e-01 9.704781e-01 4.995853e-01 6.896774e-01 1.969702e-01 4.718375e-02
<VARIANCE> 25
 2.962588e+01 2.750296e+01 3.903629e+01 3.651884e+01 4.794679e+01 3.676670e+01 3.371505e+01 3.944532e+01 3.325680e+01 2.974447e+01 2.435513e+01 2.897118e+01 2.912931e+00 3.684325e+00 3.871210e+00 4.719231e+00 4.176975e+00 4.641965e+00 4.744222e+00 4.343215e+00 4.622734e+00 4.733006e+00 5.077205e+00 3.323746e+00 1.902562e-03
<GCONST> 9.895126e+01
<MIXTURE> 39 9.501865e-03
<MEAN> 25
 1.092509e+00 1.779353e+00 1.088726e+01 -8.743205e+00 -1.149501e+01 -1.791322e+00 -3.694526e+00 -5.724084e+00 -5.130077e+00 1.068007e+00 -3.515518e+00 -2.212273e+00 -7.123398e-01 1.543191e+00 1.583671e+00 -1.419505e+00 9.471317e-02 1.389667e+00 -1.131918e+00 -1.243623e+00 3.891926e-01 3.236767e-01 -4.328931e-01 7.686342e-02 4.984639e-04
<VARIANCE> 25
 9.095562e+00 3.619507e+01 3.543185e+01 3.821654e+01 3.519670e+01 4.775938e+01 4.757262e+01 4.042508e+01 4.181729e+01 3.219820e+01 3.405241e+01 2.742560e+01 6.592652e-01 1.460990e+00 1.457981e+00 2.795985e+00 2.352008e+00 3.054624e+00 2.912442e+00 2.608394e+00 2.316862e+00 2.944703e+00 2.055931e+00 2.001053e+00 1.142667e-03
<GCONST> 8.991555e+01
<MIXTURE> 40 1.030800e-02
<MEAN> 25
 -7.397612e+00 3.336780e+00 -1.407772e+00 8.415663e+00 4.336103e+00 6.228312e+00 6.682298e+00 1.433054e+00 4.374940e+00 4.659862e+00 4.538260e+00 1.876280e+00 2.734711e-02 -1.759417e-01 -1.151021e-01 -1.406593e-01 -1.693746e-01 -2.063345e-01 1.140436e-01 2.934707e-01 -6.296118e-02 4.935763e-02 7.187769e-02 -1.772608e-02 7.529103e-04
<VARIANCE> 25
 3.525288e+01 1.744090e+01 2.253983e+01 3.459820e+01 1.945831e+01 1.983396e+01 1.782989e+01 3.022708e+01 1.466098e+01 1.525669e+01 1.653651e+01 1.253259e+01 6.560117e-01 5.814555e-01 6.362261e-01 9.881663e-01 1.188372e+00 1.050254e+00 1.218720e+00 1.255370e+00 1.285384e+00 1.015548e+00 9.865003e-01 9.863966e-01 7.647184e-04
<GCONST> 7.429892e+01
<MIXTURE> 41 6.713375e-03
<MEAN> 25
 1.219180e+00 1.006085e+00 1.071383e+01 -6.415300e+00 -1.055381e+01 -5.006975e+00 -3.475669e+00 -3.694106e+00 -5.682346e+00 3.124405e+00 -1.441344e+00 -1.218831e+00 1.036494e-01 -6.693541e-01 1.725920e+00 -3.655274e+00 -2.467170e+00 5.626722e-02 -5.498426e-01 -2.489424e-01 -9.792814e-01 1.255128e+00 -7.705602e-01 1.132517e-01 8.145646e-02
<VARIANCE> 25
 1.083276e+01 3.169305e+01 3.098286e+01 4.046162e+01 4.170383e+01 4.924456e+01 4.253009e+01 4.303146e+01 4.536412e+01 2.886311e+01 3.117077e+01 2.552192e+01 2.885399e+00 3.145672e+00 3.819603e+00 3.670864e+00 4.738753e+00 5.716094e+00 4.471604e+00 4.228446e+00 3.975431e+00 4.364628e+00 4.152558e+00 3.043160e+00 2.835202e-03
<GCONST> 9.852480e+01
<MIXTURE> 42 1.106211e-02
<MEAN> 25
 -2.055887e+00 4.450116e+00 3.621527e+00 4.592090e+00 3.496496e-02 -7.016018e+00 -8.727307e-01 -1.503530e+00 -2.182750e-01 -1.541274e+00 -2.345838e+00 1.197533e+00 3.903908e+00 -5.055974e-01 1.772459e+00 -3.086261e-01 -2.301666e+00 -1.250987e+00 -2.608634e+00 -6.521948e-01 -9.216202e-01 -2.125145e-01 7.682618e-01 -1.473441e+00 1.673692e-02
<VARIANCE> 25
 3.248489e+01 1.880851e+01 4.536007e+01 4.494152e+01 3.477961e+01 4.270750e+01 3.238806e+01 2.367730e+01 3.796132e+01 2.888845e+01 1.809990e+01 1.679905e+01 3.360015e+00 4.400303e+00 5.597677e+00 5.332008e+00 6.976860e+00 5.360470e+00 5.272065e+00 4.732811e+00 4.871395e+00 6.686362e+00 4.490696e+00 3.661971e+00 4.127192e-03
<GCONST> 1.003665e+02
<MIXTURE> 43 7.108249e-03
<MEAN> 25
 3.113014e+00 -6.099807e+00 -2.210019e+00 -5.182977e+00 -7.157226e+00 -3.278992e+00 3.993165e+00 4.607820e-01 -4.725637e+00 -7.574678e+00 -4.351330e+00 -1.187732e+00 2.724717e-01 2.109285e+00 1.899573e+00 -1.081752e-01 -1.446453e+00 -7.364874e-01 -1.043629e+00 -8.361331e-01 8.080896e-01 1.472566e+00 3.174279e-01 9.772297e-03 -4.321022e-02
<VARIANCE> 25
 9.320938e+00 1.990265e+01 2.631885e+01 3.381055e+01 3.831858e+01 3.559801e+01 3.282913e+01 5.448869e+01 4.059480e+01 4.257782e+01 2.547192e+01 2.842327e+01 6.990797e-01 1.267806e+00 1.513842e+00 2.419219e+00 2.289982e+00 2.370252e+00 2.721540e+00 3.080207e+00 2.513513e+00 2.534759e+00 2.250283e+00 1.843446e+00 9.859098e-04
<GCONST> 8.805605e+01
<MIXTURE> 44 7.328289e-03
<MEAN> 25
 -1.513162e+01 1.533822e+00 3.492078e+00 -3.121909e+00 3.274168e+00 2.042639e+00 6.121663e-02 2.070810e+00 1.679923e+00 -9.380556e-01 1.799200e+00 1.930030e+00 -1.486685e-01 -1.707567e-02 1.504505e-01 3.406010e-01 -7.132232e-02 2.191948e-01 4.828701e-01 1.105497e-01 2.592837e-01 1.526473e-01 3.797365e-02 1.061063e-01 2.370159e-03
<VARIANCE> 25
 4.244879e+01 2.731915e+01 3.438066e+01 3.133007e+01 2.947154e+01 3.093083e+01 2.465223e+01 3.565279e+01 2.783906e+01 2.760135e+01 2.673627e+01 1.936430e+01 1.219469e+00 1.531759e+00 1.367598e+00 1.377368e+00 2.199399e+00 1.663230e+00 1.490256e+00 1.621817e+00 1.555150e+00 1.484727e+00 1.348598e+00 1.203627e+00 1.460862e-03
<GCONST> 8.470250e+01
<MIXTURE> 45 1.364932e-02
<MEAN> 25
 -1.235307e+01 3.437511e+00 -1.247731e+00 2.964341e+00 5.571545e+00 -3.853191e-02 4.718719e+00 2.709615e+00 3.274346e+00 2.132807e+00 2.402948e+00 2.641615e+00 -2.922205e+00 5.983211e-01 -4.899773e-01 -5.180678e-01 1.942075e-01 -2.078725e-02 4.501166e-01 7.649066e-02 -5.601018e-02 -8.342312e-02 2.383291e-01 1.049183e-01 1.177220e-01
<VARIANCE> 25
 3.381723e+01 2.996205e+01 3.044232e+01 3.554647e+01 3.303343e+01 3.059362e+01 2.946267e+01 2.794040e+01 2.460414e+01 2.340428e+01 2.787805e+01 1.576585e+01 2.422394e+00 3.030887e+00 2.839725e+00 2.669819e+00 2.468443e+00 2.602354e+00 2.291932e+00 2.267118e+00 2.153420e+00 2.123726e+00 1.968352e+00 1.639844e+00 4.165341e-03
<GCONST> 9.066583e+01
<MIXTURE> 46 9.336259e-03
<MEAN> 25
 -9.166922e+00 2.329683e+00 1.289807e+00 7.595595e+00 5.522446e+00 3.100147e+00 7.024897e+00 3.817225e+00 5.597040e+00 4.457735e+00 4.999496e+00 2.896589e+00 1.029155e+00 -2.329749e-01 1.932181e-02 1.032205e+00 5.865345e-01 9.064083e-01 4.243580e-01 6.403424e-01 4.870766e-01 5.846899e-01 5.863642e-01 4.984017e-01 -1.029327e-01
<VARIANCE> 25
 3.399570e+01 4.156569e+01 3.667031e+01 4.786648e+01 5.220177e+01 4.108189e+01 3.564359e+01 4.033052e+01 3.252003e+01 3.257919e+01 2.765016e+01 1.946027e+01 3.750846e+00 3.937837e+00 3.753718e+00 3.972100e+00 4.048599e+00 3.561950e+00 3.345338e+00 3.069320e+00 3.312617e+00 2.963070e+00 2.315963e+00 1.727789e+00 7.713789e-03
<GCONST> 9.806396e+01
<MIXTURE> 47 7.116147e-03
<MEAN> 25
 6.960188e+00 -7.709154e+00 -7.105593e+00 -7.685637e+00 8.566536e-01 1.863328e+00 -2.921901e+00 2.449960e+00 2.716017e+00 4.867082e-01 -3.786033e+00 -6.102892e+00 -1.884903e-01 -1.299240e+00 -7.977239e-01 -5.107955e-01 5.737472e-01 1.075056e+00 1.060451e+00 4.286858e-01 4.691552e-02 -9.387884e-01 -6.574798e-01 -3.913709e-01 2.955835e-02
<VARIANCE> 25
 1.038202e+01 2.030179e+01 2.104183e+01 4.004002e+01 3.537965e+01 5.461125e+01 4.376995e+01 4.562356e+01 3.949789e+01 4.295516e+01 4.468808e+01 3.264394e+01 4.639974e-01 7.012749e-01 1.188604e+00 1.547949e+00 1.792180e+00 2.458948e+00 2.394916e+00 2.415735e+00 1.993392e+00 1.915853e+00 2.259153e+00 1.835471e+00 4.977813e-04
<GCONST> 8.580405e+01
<MIXTURE> 48 7.116147e-03
<MEAN> 25
 6.960188e+00 -7.709154e+00 -7.105593e+00 -7.685637e+00 8.566536e-01 1.863328e+00 -2.921901e+00 2.449960e+00 2.716017e+00 4.867082e-01 -3.786033e+00 -6.102892e+00 -1.884903e-01 -1.299240e+00 -7.977239e-01 -5.107955e-01 5.737472e-01 1.075056e+00 1.060451e+00 4.286858e-01 4.691552e-02 -9.387884e-01 -6.574798e-01 -3.913709e-01 2.955835e-02
<VARIANCE> 25
 1.038202e+01 2.030179e+01 2.104183e+01 4.004002e+01 3.537965e+01 5.461125e+01 4.376995e+01 4.562356e+01 3.949789e+01 4.295516e+01 4.468808e+01 3.264394e+01 4.639974e-01 7.012749e-01 1.188604e+00 1.547949e+00 1.792180e+00 2.458948e+00 2.394916e+00 2.415735e+00 1.993392e+00 1.915853e+00 2.259153e+00 1.835471e+00 4.977813e-04
<GCONST> 8.580405e+01
<MIXTURE> 49 5.548473e-03
<MEAN> 25
 -4.670779e+00 1.750478e+00 -1.501533e-01 8.915769e+00 5.729758e+00 5.448771e+00 7.151558e+00 1.862720e+00 4.979970e+00 4.268398e+00 3.850750e+00 1.914383e+00 2.356453e-01 5.390904e-01 6.832272e-01 3.525188e-01 -1.516192e-01 -6.816943e-01 -1.086544e+00 -9.064800e-01 -8.780760e-01 -7.411691e-01 -4.724371e-01 -1.616751e-01 2.206944e-04
<VARIANCE> 25
 8.203409e+00 1.329153e+01 1.184243e+01 1.438925e+01 1.372345e+01 1.509673e+01 1.984285e+01 3.531409e+01 1.533739e+01 1.650891e+01 2.055154e+01 1.418599e+01 2.717983e-01 2.456373e-01 3.401321e-01 5.704511e-01 9.381076e-01 8.181465e-01 9.424007e-01 1.001570e+00 1.086886e+00 1.077778e+00 1.037728e+00 1.135049e+00 1.410412e-05
<GCONST> 6.335605e+01
<MIXTURE> 50 6.234641e-03
<MEAN> 25
 -4.565018e+00 4.253262e-01 -1.486772e+00 6.339946e+00 4.326458e+00 2.443258e+00 3.964693e+00 1.532946e+00 2.783719e+00 1.460880e+00 2.076676e+00 2.710526e+00 4.096959e-02 1.745719e-01 9.702467e-02 -1.493226e-01 -4.912721e-01 -5.765597e-01 -4.395556e-01 -7.802965e-02 4.346710e-01 7.391081e-01 7.057100e-01 4.509088e-01 -8.058418e-05
<VARIANCE> 25
 1.017858e+01 1.237474e+01 1.375715e+01 1.608112e+01 1.498530e+01 1.842110e+01 1.879828e+01 2.203508e+01 1.795183e+01 1.739836e+01 2.074351e+01 1.493016e+01 1.425666e-01 2.299086e-01 3.706717e-01 5.351226e-01 5.816956e-01 7.290428e-01 9.431285e-01 1.092258e+00 1.037620e+00 9.017953e-01 8.940666e-01 9.530879e-01 1.163235e-06
<GCONST> 5.955410e+01
<MIXTURE> 51 6.234641e-03
<MEAN> 25
 -4.565018e+00 4.253262e-01 -1.486772e+00 6.339946e+00 4.326458e+00 2.443258e+00 3.964693e+00 1.532946e+00 2.783719e+00 1.460880e+00 2.076676e+00 2.710526e+00 4.096959e-02 1.745719e-01 9.702467e-02 -1.493226e-01 -4.912721e-01 -5.765597e-01 -4.395556e-01 -7.802965e-02 4.346710e-01 7.391081e-01 7.057100e-01 4.509088e-01 -8.058418e-05
<VARIANCE> 25
 1.017858e+01 1.237474e+01 1.375715e+01 1.608112e+01 1.498530e+01 1.842110e+01 1.879828e+01 2.203508e+01 1.795183e+01 1.739836e+01 2.074351e+01 1.493016e+01 1.425666e-01 2.299086e-01 3.706717e-01 5.351226e-01 5.816956e-01 7.290428e-01 9.431285e-01 1.092258e+00 1.037620e+00 9.017953e-01 8.940666e-01 9.530879e-01 1.163235e-06
<GCONST> 5.955410e+01
<MIXTURE> 52 6.367945e-03
<MEAN> 25
 9.583883e+00 1.884005e+00 -6.062960e+00 -1.482213e+01 -3.469576e+00 8.072801e+00 -3.292522e+00 -1.670207e+00 -4.161916e+00 -2.726409e+00 3.007811e+00 9.494994e-01 -3.045377e-01 -4.706950e-01 -8.163257e-04 1.298659e+00 1.329434e+00 -6.476709e-01 -5.075104e-01 -8.511867e-01 5.953022e-02 1.230790e+00 3.347588e-01 -5.643727e-01 -1.400398e-02
<VARIANCE> 25
 1.036416e+01 2.101274e+01 2.280187e+01 4.808059e+01 4.715096e+01 3.031959e+01 4.566600e+01 6.425113e+01 4.484487e+01 4.637909e+01 3.666110e+01 2.851709e+01 4.751136e-01 1.446969e+00 1.259422e+00 2.900682e+00 2.282160e+00 2.463217e+00 2.915764e+00 3.019288e+00 2.713981e+00 2.670579e+00 2.388364e+00 2.059282e+00 1.613553e-03
<GCONST> 9.013865e+01
<MIXTURE> 53 6.367945e-03
<MEAN> 25
 9.583883e+00 1.884005e+00 -6.062960e+00 -1.482213e+01 -3.469576e+00 8.072801e+00 -3.292522e+00 -1.670207e+00 -4.161916e+00 -2.726409e+00 3.007811e+00 9.494994e-01 -3.045377e-01 -4.706950e-01 -8.163257e-04 1.298659e+00 1.329434e+00 -6.476709e-01 -5.075104e-01 -8.511867e-01 5.953022e-02 1.230790e+00 3.347588e-01 -5.643727e-01 -1.400398e-02
<VARIANCE> 25
 1.036416e+01 2.101274e+01 2.280187e+01 4.808059e+01 4.715096e+01 3.031959e+01 4.566600e+01 6.425113e+01 4.484487e+01 4.637909e+01 3.666110e+01 2.851709e+01 4.751136e-01 1.446969e+00 1.259422e+00 2.900682e+00 2.282160e+00 2.463217e+00 2.915764e+00 3.019288e+00 2.713981e+00 2.670579e+00 2.388364e+00 2.059282e+00 1.613553e-03
<GCONST> 9.013865e+01
<MIXTURE> 54 7.368620e-03
<MEAN> 25
 -3.631444e+00 4.314636e-01 -7.757822e-01 8.179575e+00 6.553272e+00 4.618862e+00 4.870328e+00 3.968448e+00 3.935369e+00 3.666448e+00 4.255700e+00 2.215394e+00 -1.385754e-02 3.593919e-02 3.856931e-02 7.950432e-02 4.221020e-02 6.338786e-02 -6.303252e-03 -2.156118e-02 5.796864e-02 4.231338e-02 1.481823e-02 2.041285e-02 -5.236390e-05
<VARIANCE> 25
 8.608997e+00 1.187118e+01 8.890878e+00 1.746723e+01 1.285130e+01 1.294826e+01 1.194199e+01 1.662733e+01 1.091642e+01 1.306261e+01 1.737393e+01 1.199063e+01 4.222058e-02 8.408913e-02 1.504359e-01 2.398560e-01 2.956676e-01 3.786170e-01 5.331331e-01 5.423268e-01 5.311325e-01 5.026859e-01 4.905915e-01 5.073372e-01 1.029891e-06
<GCONST> 4.743324e+01
<MIXTURE> 55 7.368620e-03
<MEAN> 25
 -3.631444e+00 4.314636e-01 -7.757822e-01 8.179575e+00 6.553272e+00 4.618862e+00 4.870328e+00 3.968448e+00 3.935369e+00 3.666448e+00 4.255700e+00 2.215394e+00 -1.385754e-02 3.593919e-02 3.856931e-02 7.950432e-02 4.221020e-02 6.338786e-02 -6.303252e-03 -2.156118e-02 5.796864e-02 4.231338e-02 1.481823e-02 2.041285e-02 -5.236390e-05
<VARIANCE> 25
 8.608997e+00 1.187118e+01 8.890878e+00 1.746723e+01 1.285130e+01 1.294826e+01 1.194199e+01 1.662733e+01 1.091642e+01 1.306261e+01 1.737393e+01 1.199063e+01 4.222058e-02 8.408913e-02 1.504359e-01 2.398560e-01 2.956676e-01 3.786170e-01 5.331331e-01 5.423268e-01 5.311325e-01 5.026859e-01 4.905915e-01 5.073372e-01 1.029891e-06
<GCONST> 4.743324e+01
<MIXTURE> 56 6.132464e-03
<MEAN> 25
 7.157686e+00 -7.269866e+00 -8.700827e+00 -9.377380e+00 3.399891e+00 4.758955e+00 -2.221377e+00 -5.163684e-01 1.895326e+00 6.133844e-01 -2.481527e+00 -6.737250e+00 -2.298189e-02 1.234621e-02 -2.779119e-02 9.608410e-03 3.584393e-01 2.141577e-02 1.450933e-01 -1.420583e-01 5.556883e-02 -9.733900e-02 -1.362562e-01 -3.195629e-02 -7.688330e-03
<VARIANCE> 25
 1.024389e+01 2.668195e+01 2.040901e+01 4.567863e+01 3.424263e+01 5.344224e+01 5.868220e+01 4.415566e+01 3.639590e+01 3.467971e+01 3.692653e+01 3.028117e+01 1.962334e-01 4.493507e-01 4.550936e-01 7.262325e-01 8.912032e-01 1.069863e+00 8.483802e-01 8.465575e-01 9.686790e-01 8.938066e-01 9.967194e-01 7.540629e-01 2.381434e-04
<GCONST> 7.524071e+01
<MIXTURE> 57 6.132464e-03
<MEAN> 25
 7.157686e+00 -7.269866e+00 -8.700827e+00 -9.377380e+00 3.399891e+00 4.758955e+00 -2.221377e+00 -5.163684e-01 1.895326e+00 6.133844e-01 -2.481527e+00 -6.737250e+00 -2.298189e-02 1.234621e-02 -2.779119e-02 9.608410e-03 3.584393e-01 2.141577e-02 1.450933e-01 -1.420583e-01 5.556883e-02 -9.733900e-02 -1.362562e-01 -3.195629e-02 -7.688330e-03
<VARIANCE> 25
 1.024389e+01 2.668195e+01 2.040901e+01 4.567863e+01 3.424263e+01 5.344224e+01 5.868220e+01 4.415566e+01 3.639590e+01 3.467971e+01 3.692653e+01 3.028117e+01 1.962334e-01 4.493507e-01 4.550936e-01 7.262325e-01 8.912032e-01 1.069863e+00 8.483802e-01 8.465575e-01 9.686790e-01 8.938066e-01 9.967194e-01 7.540629e-01 2.381434e-04
<GCONST> 7.524071e+01
<MIXTURE> 58 6.172147e-03
<MEAN> 25
 2.498088e+00 -3.199951e+00 7.604687e+00 -5.310917e+00 -1.358529e+01 -5.984463e+00 1.236978e+00 1.117925e+00 -2.860002e+00 2.005362e+00 5.509095e-01 -8.847075e-01 -3.038817e-02 -1.436654e-01 -6.220100e-02 -1.605628e-01 -2.154140e-02 1.911934e-01 4.097813e-01 1.819386e-01 3.012108e-02 2.175741e-02 -8.047079e-02 -8.449236e-02 -2.346699e-03
<VARIANCE> 25
 7.423813e+00 1.498666e+01 2.145708e+01 2.640369e+01 2.295053e+01 4.963320e+01 3.792193e+01 3.631628e+01 3.813809e+01 3.125662e+01 2.220888e+01 1.972257e+01 2.996179e-01 7.827860e-01 7.352089e-01 9.901822e-01 8.624386e-01 1.238491e+00 1.167789e+00 1.318847e+00 1.051041e+00 1.037439e+00 8.888019e-01 9.606478e-01 7.142855e-04
<GCONST> 7.584428e+01
<MIXTURE> 59 6.172147e-03
<MEAN> 25
 2.498088e+00 -3.199951e+00 7.604687e+00 -5.310917e+00 -1.358529e+01 -5.984463e+00 1.236978e+00 1.117925e+00 -2.860002e+00 2.005362e+00 5.509095e-01 -8.847075e-01 -3.038817e-02 -1.436654e-01 -6.220100e-02 -1.605628e-01 -2.154140e-02 1.911934e-01 4.097813e-01 1.819386e-01 3.012108e-02 2.175741e-02 -8.047079e-02 -8.449236e-02 -2.346699e-03
<VARIANCE> 25
 7.423813e+00 1.498666e+01 2.145708e+01 2.640369e+01 2.295053e+01 4.963320e+01 3.792193e+01 3.631628e+01 3.813809e+01 3.125662e+01 2.220888e+01 1.972257e+01 2.996179e-01 7.827860e-01 7.352089e-01 9.901822e-01 8.624386e-01 1.238491e+00 1.167789e+00 1.318847e+00 1.051041e+00 1.037439e+00 8.888019e-01 9.606478e-01 7.142855e-04
<GCONST> 7.584428e+01
<MIXTURE> 60 4.479129e-03
<MEAN> 25
 -4.146568e+00 -4.787978e-01 -1.160337e+00 3.552673e+00 1.763253e+00 2.411722e+00 1.811787e+00 1.380663e+00 2.392977e+00 1.153876e+00 2.360472e+00 1.841600e+00 -2.503630e-02 5.993656e-02 1.103850e-01 1.174626e-01 1.186019e-01 1.271482e-01 1.666404e-01 3.023930e-01 5.260974e-01 6.560646e-01 5.676854e-01 3.405394e-01 -2.364958e-04
<VARIANCE> 25
 7.007255e+00 5.219517e+00 1.040842e+01 1.182255e+01 1.315948e+01 1.888371e+01 1.425116e+01 1.204587e+01 1.396543e+01 1.324876e+01 1.557689e+01 1.199842e+01 8.752721e-02 1.626696e-01 2.730972e-01 4.262629e-01 5.776047e-01 7.067953e-01 8.029052e-01 8.796098e-01 8.841841e-01 8.768339e-01 8.121483e-01 8.662754e-01 2.422898e-05
<GCONST> 5.659068e+01
<MIXTURE> 61 4.479129e-03
<MEAN> 25
 -4.146568e+00 -4.787978e-01 -1.160337e+00 3.552673e+00 1.763253e+00 2.411722e+00 1.811787e+00 1.380663e+00 2.392977e+00 1.153876e+00 2.360472e+00 1.841600e+00 -2.503630e-02 5.993656e-02 1.103850e-01 1.174626e-01 1.186019e-01 1.271482e-01 1.666404e-01 3.023930e-01 5.260974e-01 6.560646e-01 5.676854e-01 3.405394e-01 -2.364958e-04
<VARIANCE> 25
 7.007255e+00 5.219517e+00 1.040842e+01 1.182255e+01 1.315948e+01 1.888371e+01 1.425116e+01 1.204587e+01 1.396543e+01 1.324876e+01 1.557689e+01 1.199842e+01 8.752721e-02 1.626696e-01 2.730972e-01 4.262629e-01 5.776047e-01 7.067953e-01 8.029052e-01 8.796098e-01 8.841841e-01 8.768339e-01 8.121483e-01 8.662754e-01 2.422898e-05
<GCONST> 5.659068e+01
<MIXTURE> 62 3.278034e-03
<MEAN> 25
 -5.089534e+00 1.251400e+00 1.025791e+00 8.823237e+00 6.131315e+00 5.051903e+00 5.506014e+00 4.008213e+00 4.982351e+00 3.919095e+00 4.961320e+00 2.953789e+00 -1.001917e+00 -1.165396e+00 -9.519607e-01 -2.756379e-01 4.268824e-01 1.003405e+00 1.383476e+00 1.549209e+00 1.474644e+00 1.242814e+00 1.066007e+00 7.242930e-01 -1.259384e-03
<VARIANCE> 25
 9.860750e+00 9.999186e+00 1.309476e+01 1.672911e+01 1.738451e+01 1.749919e+01 1.969013e+01 1.945469e+01 1.885252e+01 1.869556e+01 2.154236e+01 1.478944e+01 4.021701e-01 4.323163e-01 5.541611e-01 7.789637e-01 1.033788e+00 1.192059e+00 1.251897e+00 1.284123e+00 1.338197e+00 1.362053e+00 1.399174e+00 1.372629e+00 1.633860e-05
<GCONST> 6.754717e+01
<MIXTURE> 63 4.351215e-03
<MEAN> 25
 -3.620263e+00 -1.541182e+00 -4.910909e+00 2.120325e+00 3.609319e+00 1.876491e+00 3.860570e+00 9.110291e-01 3.173668e+00 -9.301772e-01 -1.012969e+00 1.991012e+00 -8.109489e-02 3.685704e-01 3.737445e-01 4.690510e-01 3.031063e-01 3.490349e-01 3.938016e-01 2.161035e-01 1.104956e-01 1.979977e-01 7.601205e-02 6.709037e-02 -5.307564e-03
<VARIANCE> 25
 8.939619e+00 1.644016e+01 1.437373e+01 1.761152e+01 1.580858e+01 4.339250e+01 2.387407e+01 2.307951e+01 2.481186e+01 2.007887e+01 1.802530e+01 1.714949e+01 2.578448e-01 4.084878e-01 5.454205e-01 6.197114e-01 9.067740e-01 1.135843e+00 1.104964e+00 1.294986e+00 1.468463e+00 1.348653e+00 1.399331e+00 1.205726e+00 1.893881e-04
<GCONST> 7.094553e+01
<MIXTURE> 64 4.351215e-03
<MEAN> 25
 -3.620263e+00 -1.541182e+00 -4.910909e+00 2.120325e+00 3.609319e+00 1.876491e+00 3.860570e+00 9.110291e-01 3.173668e+00 -9.301772e-01 -1.012969e+00 1.991012e+00 -8.109489e-02 3.685704e-01 3.737445e-01 4.690510e-01 3.031063e-01 3.490349e-01 3.938016e-01 2.161035e-01 1.104956e-01 1.979977e-01 7.601205e-02 6.709037e-02 -5.307564e-03
<VARIANCE> 25
 8.939619e+00 1.644016e+01 1.437373e+01 1.761152e+01 1.580858e+01 4.339250e+01 2.387407e+01 2.307951e+01 2.481186e+01 2.007887e+01 1.802530e+01 1.714949e+01 2.578448e-01 4.084878e-01 5.454205e-01 6.197114e-01 9.067740e-01 1.135843e+00 1.104964e+00 1.294986e+00 1.468463e+00 1.348653e+00 1.399331e+00 1.205726e+00 1.893881e-04
<GCONST> 7.094553e+01
<MIXTURE> 65 1.721197e-02
<MEAN> 25
 7.294348e+00 1.486534e+00 1.707917e+00 -1.960896e-01 -4.611955e+00 -3.189489e+00 -6.099741e+00 -8.472047e+00 -2.771766e+00 -4.537543e+00 -5.400817e+00 -1.539818e+00 3.504691e-01 2.168863e-01 2.913724e-01 2.323470e-01 -3.734359e-01 3.897004e-01 -5.172495e-01 -1.757001e-01 2.761388e-01 3.192495e-01 -1.059679e-01 -1.756658e-01 -3.331093e-03
<VARIANCE> 25
 1.109824e+01 1.703069e+01 2.208341e+01 3.782483e+01 3.483254e+01 6.030202e+01 5.743671e+01 6.748653e+01 5.040376e+01 7.011637e+01 4.672720e+01 4.332301e+01 6.668482e-01 8.467250e-01 1.640932e+00 1.683120e+00 1.806475e+00 2.013003e+00 3.277681e+00 3.644788e+00 2.075415e+00 3.189233e+00 1.982668e+00 1.885595e+00 4.196286e-04
<GCONST> 8.926057e+01
<MIXTURE> 66 1.191532e-02
<MEAN> 25
 6.122047e+00 -4.428504e+00 -4.890469e+00 -4.871774e+00 1.030297e+00 -4.999619e+00 -7.145687e+00 5.332706e-01 2.115493e-01 -2.564669e+00 -5.555431e+00 -3.582385e+00 -1.812713e-01 1.308392e+00 2.289892e+00 2.590513e+00 -1.200467e+00 -1.502771e+00 6.965703e-02 -7.313682e-01 1.400494e-01 -4.251245e-01 -3.358996e-01 9.606230e-01 -5.448347e-02
<VARIANCE> 25
 1.012168e+01 2.368081e+01 2.794487e+01 3.128158e+01 3.800112e+01 5.312103e+01 6.346198e+01 6.245415e+01 5.268542e+01 9.522105e+01 3.511710e+01 3.658385e+01 1.294907e+00 3.397274e+00 2.727168e+00 2.812077e+00 3.741885e+00 5.433134e+00 4.318966e+00 8.767435e+00 4.207749e+00 4.837351e+00 3.477643e+00 2.868898e+00 1.903538e-03
<GCONST> 9.898772e+01
<MIXTURE> 67 1.559142e-02
<MEAN> 25
 8.416883e+00 2.434752e+00 -5.428299e+00 -9.168069e+00 1.279166e-01 2.846333e+00 -2.542015e+00 -2.508396e-01 -3.691206e+00 -4.248554e-01 -5.012761e-01 -3.152562e+00 -1.005085e+00 1.674235e+00 8.499576e-01 3.527112e+00 1.505564e+00 -3.548171e-01 1.540860e+00 -1.009046e+00 4.194366e-01 3.289252e-01 -5.785324e-01 6.938770e-01 -1.187915e-01
<VARIANCE> 25
 1.026807e+01 4.145967e+01 2.584630e+01 6.353229e+01 4.423415e+01 4.302943e+01 6.133151e+01 5.930829e+01 5.359020e+01 5.255262e+01 4.718975e+01 5.619131e+01 1.797199e+00 3.123687e+00 2.815009e+00 4.407747e+00 3.765817e+00 3.683354e+00 4.076603e+00 8.525046e+00 4.651339e+00 4.295293e+00 4.386172e+00 3.451678e+00 2.838360e-03
<GCONST> 1.012500e+02
<MIXTURE> 68 1.485092e-02
<MEAN> 25
 -1.697851e+00 -1.496789e+00 -4.500019e+00 2.569363e+00 3.738559e+00 -3.670484e+00 7.837690e-01 2.443768e+00 3.339553e+00 1.000715e+00 -3.232195e-01 1.321934e+00 2.411324e+00 2.115987e-01 4.431934e-01 -3.373537e+00 -1.909251e+00 -9.521221e-01 -2.586059e+00 -1.038722e+00 -2.534688e+00 -1.185886e+00 -1.447658e+00 -1.389485e+00 9.335251e-02
<VARIANCE> 25
 1.938682e+01 2.782326e+01 4.438804e+01 6.428802e+01 3.835574e+01 7.363703e+01 4.150203e+01 5.543710e+01 4.022170e+01 4.340027e+01 3.480342e+01 2.312779e+01 1.516294e+00 2.928638e+00 5.360249e+00 7.269185e+00 4.083084e+00 5.189139e+00 5.963730e+00 5.630391e+00 7.185803e+00 6.009499e+00 4.234498e+00 3.345900e+00 6.907169e-03
<GCONST> 1.031984e+02
<MIXTURE> 69 1.204884e-02
<MEAN> 25
 4.445333e+00 -3.554008e+00 -3.723234e+00 -3.452809e+00 -3.488989e+00 -7.774880e+00 -4.445930e-01 3.377581e+00 -4.448663e-01 -3.818053e+00 -5.219382e+00 6.070123e-01 1.573675e+00 -2.120998e+00 -1.146983e+00 -2.531398e+00 -5.622241e-01 -3.409529e-01 -6.933395e-01 1.034841e+00 -1.153909e+00 -1.277238e+00 -1.817611e+00 -3.587009e-01 6.298847e-02
<VARIANCE> 25
 8.057673e+00 2.428483e+01 2.870904e+01 2.366966e+01 3.600708e+01 3.608759e+01 5.472796e+01 3.570687e+01 4.794267e+01 3.625261e+01 3.108763e+01 2.375169e+01 3.040184e+00 2.554272e+00 4.242322e+00 3.668397e+00 4.900148e+00 4.468729e+00 6.543994e+00 7.327131e+00 7.818317e+00 5.413617e+00 4.463762e+00 3.353830e+00 2.137443e-03
<GCONST> 9.861156e+01
<MIXTURE> 70 1.329190e-02
<MEAN> 25
 6.277225e+00 -2.412810e+00 -1.078857e+00 -4.303107e+00 -5.838197e-01 -2.026762e+00 -9.251987e+00 -2.672174e+00 -2.221787e-01 3.287678e+00 1.418635e+00 -4.762440e+00 1.616552e+00 -1.317926e+00 -3.219417e-01 -2.428362e+00 -1.181634e+00 1.171979e+00 -1.652385e+00 2.469084e-01 -4.607601e-02 6.867912e-01 7.467429e-01 -1.218174e+00 5.809939e-02
<VARIANCE> 25
 1.114681e+01 1.881080e+01 4.662927e+01 5.900914e+01 3.474939e+01 5.376804e+01 4.936191e+01 4.611383e+01 6.033501e+01 3.438207e+01 4.305846e+01 2.319196e+01 3.029114e+00 2.918768e+00 5.978395e+00 6.810614e+00 5.269147e+00 6.889370e+00 7.752469e+00 6.155747e+00 5.834022e+00 7.767036e+00 5.234577e+00 3.939286e+00 2.215164e-03
<GCONST> 1.030901e+02
<MIXTURE> 71 1.406903e-02
<MEAN> 25
 5.823935e+00 4.944685e+00 3.881505e+00 3.605482e+00 -3.612651e+00 -3.723004e+00 -2.925823e+00 -6.811322e+00 -4.277161e+00 -1.809235e+00 -4.589983e+00 -2.727708e+00 -1.477110e+00 -7.010932e-01 -3.617571e-01 -1.464813e+00 9.513747e-01 -3.367422e-01 1.139349e-02 1.540778e+00 4.688592e-01 -3.394432e-01 5.241145e-01 2.289329e-01 4.100892e-02
<VARIANCE> 25
 2.042043e+01 2.549267e+01 2.393208e+01 4.485992e+01 3.749609e+01 4.227155e+01 4.442383e+01 3.891397e+01 3.815144e+01 5.287008e+01 4.395572e+01 3.474995e+01 1.690668e+00 2.817255e+00 5.062854e+00 5.416084e+00 4.478628e+00 4.742329e+00 4.767679e+00 5.109050e+00 4.466897e+00 4.024574e+00 3.900091e+00 3.051642e+00 1.362479e-03
<GCONST> 9.883311e+01
<MIXTURE> 72 8.134747e-03
<MEAN> 25
 3.565118e+00 -3.866850e+00 5.561309e+00 -2.359422e+00 -1.010004e+01 -1.038181e+01 -3.188468e+00 2.303526e+00 -5.608390e+00 -1.677107e+00 -2.114450e+00 3.933350e-01 9.000961e-01 -7.988354e-01 -2.372586e+00 4.995854e-01 2.011627e+00 -7.501635e-01 -1.325724e+00 1.423734e+00 1.668996e+00 -7.076624e-01 -1.274743e+00 3.828969e-01 -3.365255e-03
<VARIANCE> 25
 1.065084e+01 1.893147e+01 3.170210e+01 3.612848e+01 3.182285e+01 4.037697e+01 4.725165e+01 3.781699e+01 4.789047e+01 4.251471e+01 3.888763e+01 2.775813e+01 4.246930e-01 9.538509e-01 2.413154e+00 1.569718e+00 2.214929e+00 2.302828e+00 3.219622e+00 2.699745e+00 2.884386e+00 2.892403e+00 1.924163e+00 1.994043e+00 6.283197e-04
<GCONST> 8.786008e+01
<MIXTURE> 73 1.213625e-02
<MEAN> 25
 -4.789146e+00 2.636316e-01 -1.145577e+00 5.976563e+00 4.025050e+00 2.054667e+00 5.508511e+00 1.528445e+00 4.872606e+00 3.315815e+00 3.434168e+00 2.936570e+00 6.542116e-01 -1.262169e+00 -1.039002e+00 -2.415823e+00 -1.102704e+00 -2.379491e+00 -1.496904e+00 8.923382e-02 -5.840161e-01 -1.409492e+00 -1.045857e+00 -9.694716e-02 1.491983e-01
<VARIANCE> 25
 1.222818e+01 1.510015e+01 1.258092e+01 2.283101e+01 2.394609e+01 2.334205e+01 2.003747e+01 2.663459e+01 1.835324e+01 2.266269e+01 2.091232e+01 1.244569e+01 3.402669e+00 2.693225e+00 4.987981e+00 5.836927e+00 5.109910e+00 5.219743e+00 5.426482e+00 5.598292e+00 4.082815e+00 5.090692e+00 3.582141e+00 2.227289e+00 3.948133e-03
<GCONST> 9.288414e+01
<MIXTURE> 74 1.756491e-02
<MEAN> 25
 2.805481e+00 -3.098672e+00 7.333884e+00 1.514324e-01 -8.430833e+00 -1.099465e+01 -4.384349e+00 1.936503e+00 -7.175515e+00 -1.734770e+00 -1.780068e+00 -7.930179e-02 2.297789e-01 2.005338e+00 -8.204302e-01 2.260478e+00 1.324881e+00 5.443886e-01 1.153727e+00 -1.844550e+00 1.181035e+00 -4.034522e-01 -9.529498e-02 1.682485e-01 -7.926615e-02
<VARIANCE> 25
 1.325457e+01 2.212713e+01 4.409102e+01 4.210912e+01 3.970902e+01 6.255202e+01 5.819822e+01 3.882397e+01 5.485077e+01 4.166573e+01 4.085028e+01 2.548594e+01 1.542338e+00 1.686577e+00 4.077750e+00 3.138540e+00 2.637856e+00 3.161445e+00 6.534986e+00 3.353249e+00 4.922117e+00 3.485406e+00 2.793460e+00 2.358135e+00 1.710337e-03
<GCONST> 9.644721e+01
<MIXTURE> 75 9.711651e-03
<MEAN> 25
 2.635391e+00 -1.292902e+00 1.103133e+01 1.694779e+00 -1.182671e+01 -7.758257e+00 -4.648557e+00 -4.086399e-01 -4.608875e+00 -4.461417e+00 3.244198e+00 1.272564e-01 1.732010e+00 -1.745493e+00 2.120698e-01 -2.885977e-01 -2.391738e+00 -5.075394e-01 -1.462128e+00 9.621387e-01 -1.645462e-01 -3.332168e-01 1.078411e+00 -6.146878e-01 3.858802e-02
<VARIANCE> 25
 1.109831e+01 1.790338e+01 3.027687e+01 2.790283e+01 2.725664e+01 3.338376e+01 3.205189e+01 3.188478e+01 3.506542e+01 3.348513e+01 2.061894e+01 2.170643e+01 2.394918e+00 1.929478e+00 4.307197e+00 2.623867e+00 3.872060e+00 4.374097e+00 4.136667e+00 3.489711e+00 3.972458e+00 3.447559e+00 3.108197e+00 2.514742e+00 1.530573e-03
<GCONST> 9.253869e+01
<MIXTURE> 76 1.052359e-02
<MEAN> 25
 -5.126203e+00 2.718624e-01 -3.544418e+00 3.193817e+00 4.118670e+00 4.037871e+00 5.112245e+00 1.922517e+00 2.580632e+00 5.881775e-01 9.477458e-01 2.529960e+00 8.615235e-02 -2.696717e-01 -2.669163e-01 -7.039862e-01 -3.897466e-01 -9.020901e-01 -8.320026e-01 -6.792141e-02 -4.717794e-01 -3.612677e-01 -2.661731e-01 -1.056996e-02 2.323082e-02
<VARIANCE> 25
 3.159308e+01 2.755975e+01 2.697872e+01 3.292658e+01 2.875744e+01 5.092444e+01 2.286535e+01 4.766680e+01 1.961872e+01 2.258008e+01 2.535067e+01 1.522382e+01 1.167372e+00 9.795186e-01 1.162267e+00 1.036835e+00 1.343998e+00 1.647743e+00 1.929981e+00 1.759666e+00 1.405297e+00 1.474859e+00 1.266964e+00 1.180870e+00 1.082934e-03
<GCONST> 8.247977e+01
<MIXTURE> 77 1.244626e-02
<MEAN> 25
 -4.642038e-01 8.586256e+00 1.246159e+01 -1.161882e+01 -7.006279e+00 9.601247e-01 -9.282436e+00 -7.242389e+00 -3.374513e+00 -2.003929e-01 -4.658581e+00 -1.485551e+00 6.821082e-02 1.377488e-01 7.388017e-02 2.507869e-01 -2.241652e-02 7.823990e-02 -6.477051e-02 -6.148924e-02 8.298342e-02 -4.446589e-02 2.564423e-02 1.180241e-01 -9.914803e-03
<VARIANCE> 25
 1.045771e+01 2.006701e+01 2.752711e+01 4.159709e+01 3.318766e+01 3.380033e+01 3.670016e+01 3.177990e+01 3.525610e+01 3.324135e+01 3.755766e+01 3.494154e+01 2.988562e-01 7.781404e-01 6.454713e-01 1.085846e+00 1.237582e+00 9.852511e-01 1.223244e+00 1.074173e+00 1.043751e+00 1.066064e+00 9.711367e-01 9.220654e-01 5.399746e-04
<GCONST> 7.779646e+01
<MIXTURE> 78 9.702551e-03
<MEAN> 25
 -1.097895e+01 1.760319e+00 -8.258076e-01 4.720389e+00 2.337231e+00 -3.548396e+00 3.402043e+00 1.501678e+00 4.206245e+00 -7.512668e-01 -9.942496e-01 3.213911e+00 2.044986e+00 -4.742273e-01 2.572666e-01 7.415860e-01 2.605958e-01 1.630771e-02 -2.513982e-01 2.050512e-01 5.101047e-01 1.073387e-01 -6.371195e-01 -6.540248e-01 -4.889674e-02
<VARIANCE> 25
 3.404871e+01 2.826691e+01 2.852610e+01 4.964417e+01 4.607396e+01 4.005874e+01 2.912357e+01 3.386363e+01 3.123063e+01 2.881147e+01 2.775398e+01 1.764528e+01 4.460498e+00 2.178505e+00 2.319274e+00 2.725703e+00 2.667390e+00 3.135019e+00 3.229497e+00 2.652573e+00 2.722673e+00 2.386535e+00 2.654439e+00 2.090257e+00 4.506255e-03
<GCONST> 9.405477e+01
<MIXTURE> 79 1.156824e-02
<MEAN> 25
 2.214266e+00 1.101920e+00 9.516661e+00 -6.424835e+00 -1.210997e+01 -2.913203e+00 -2.361479e+00 -5.654883e+00 -7.410750e+00 7.289832e-01 -3.284122e+00 -3.074089e+00 1.144603e+00 -5.396053e-01 -1.388538e+00 2.455278e+00 4.182942e-01 -1.491551e+00 6.908719e-01 7.822050e-01 -2.804794e-01 -6.004692e-01 3.101318e-01 3.290327e-01 -3.473806e-02
<VARIANCE> 25
 1.397886e+01 2.613115e+01 3.756443e+01 4.752892e+01 3.159203e+01 5.963921e+01 4.410353e+01 4.559756e+01 4.842875e+01 4.027247e+01 4.242262e+01 2.964205e+01 9.708691e-01 2.137501e+00 1.821227e+00 2.139703e+00 2.347179e+00 2.668939e+00 3.452948e+00 3.512227e+00 2.718806e+00 2.620630e+00 2.246694e+00 1.941785e+00 1.222330e-03
<GCONST> 9.234554e+01
<MIXTURE> 80 7.550998e-03
<MEAN> 25
 -1.460846e+01 3.982957e+00 6.887125e-01 2.865988e+00 2.449318e+00 1.410263e+00 6.396964e+00 2.496848e+00 2.719636e+00 2.373472e+00 4.852806e+00 1.186989e+00 4.286287e+00 -1.602172e-02 1.637939e+00 -1.135552e+00 -2.889426e+00 -2.777543e+00 -2.323274e+00 -2.021466e+00 -1.975019e+00 -1.685163e+00 -1.650811e+00 -6.027760e-01 -4.423097e-02
<VARIANCE> 25
 2.095204e+01 1.984635e+01 3.444547e+01 3.470858e+01 3.018089e+01 2.920926e+01 2.828658e+01 2.855532e+01 2.674656e+01 2.881150e+01 2.685430e+01 1.810677e+01 2.357360e+00 2.666175e+00 2.673089e+00 4.119840e+00 3.394291e+00 2.705153e+00 3.025260e+00 3.204085e+00 2.749089e+00 2.701754e+00 2.782183e+00 2.145772e+00 1.512249e-03
<GCONST> 9.139703e+01
<MIXTURE> 81 8.025434e-03
<MEAN> 25
 -1.114468e+00 4.062726e+00 1.017574e+01 -1.479945e+01 -9.078942e+00 -1.419983e+00 -6.769146e+00 -8.426979e+00 -4.150299e+00 -4.221621e-01 -7.572152e+00 -2.247568e+00 1.349555e-01 -5.864893e-01 -1.528610e-03 -5.564651e-01 -4.647234e-01 3.362832e-01 3.177171e-01 1.376600e-01 -1.402408e-01 1.083171e-01 -4.695637e-01 -1.259702e-01 1.150729e-02
<VARIANCE> 25
 1.017373e+01 3.282145e+01 2.648242e+01 2.929301e+01 3.370474e+01 3.053151e+01 4.542994e+01 2.835320e+01 3.798452e+01 3.194270e+01 2.530869e+01 3.105466e+01 7.735834e-01 2.276843e+00 1.547494e+00 2.871445e+00 2.662512e+00 2.126945e+00 3.291162e+00 2.287800e+00 2.354300e+00 2.546299e+00 2.297324e+00 2.080107e+00 1.183028e-03
<GCONST> 8.870265e+01
<MIXTURE> 82 8.213053e-03
<MEAN> 25
 -9.962387e+00 -3.900432e+00 1.639536e+00 -2.967706e+00 3.112503e+00 6.713331e-01 1.996503e+00 9.343650e-01 2.976267e+00 1.731399e+00 1.743791e+00 3.085893e+00 -1.313679e+00 -1.253630e-01 2.890716e-01 -2.603731e+00 -1.105341e+00 -1.266356e+00 -1.014490e+00 -8.692338e-01 -3.159118e-01 -4.791478e-01 -3.171430e-01 -9.492787e-02 1.784132e-01
<VARIANCE> 25
 1.803794e+01 2.495101e+01 3.236563e+01 3.092467e+01 3.303121e+01 3.229078e+01 3.178115e+01 3.301190e+01 3.084984e+01 2.515832e+01 3.079358e+01 1.749861e+01 3.754608e+00 3.048900e+00 3.316880e+00 3.272674e+00 3.560995e+00 3.288475e+00 2.946048e+00 3.018806e+00 2.797549e+00 2.492048e+00 2.450200e+00 1.865440e+00 3.432571e-03
<GCONST> 9.309195e+01
<MIXTURE> 83 1.167529e-02
<MEAN> 25
 -2.004081e+01 5.504238e+00 -1.789702e+00 -4.051103e-01 7.829639e+00 -1.234488e+00 5.460100e+00 3.044532e+00 1.192393e+00 2.190908e+00 7.244872e-01 2.881716e+00 -2.631321e-02 -4.501706e-01 4.872012e-03 -3.655977e-01 -4.974648e-01 -1.258521e-01 -1.343577e-01 -9.942717e-02 -4.144356e-02 -3.920248e-02 -3.058213e-02 -3.465528e-02 4.403248e-03
<VARIANCE> 25
 8.819281e+00 1.645402e+01 2.851271e+01 2.248555e+01 2.127508e+01 2.407955e+01 2.202746e+01 2.336420e+01 2.042958e+01 2.221887e+01 2.319599e+01 1.448780e+01 1.060910e+00 9.362046e-01 1.240790e+00 1.065688e+00 1.359398e+00 1.291389e+00 1.283447e+00 1.388157e+00 1.349015e+00 1.310737e+00 1.220778e+00 1.071650e+00 8.923843e-04
<GCONST> 7.703519e+01
<MIXTURE> 84 1.066614e-02
<MEAN> 25
 1.048849e+00 8.924111e+00 6.944543e+00 7.907772e+00 2.611477e+00 -9.623171e-01 -1.261935e+00 -4.595304e+00 -3.852289e+00 -2.881821e+00 -2.297340e+00 -1.562553e+00 -1.758603e+00 -1.130077e+00 -1.172086e+00 1.318831e+00 2.185249e+00 1.465234e+00 1.422789e+00 1.187269e+00 1.207833e+00 4.063759e-01 3.791656e-01 4.559777e-01 -7.108541e-02
<VARIANCE> 25
 2.397956e+01 1.860340e+01 2.305881e+01 2.417392e+01 3.035692e+01 2.918756e+01 2.931222e+01 2.592488e+01 2.637828e+01 2.464280e+01 2.348973e+01 2.438078e+01 2.075642e+00 2.533157e+00 3.801558e+00 3.283153e+00 3.273636e+00 3.330621e+00 3.251625e+00 3.703951e+00 3.486833e+00 3.168957e+00 3.551827e+00 2.882276e+00 3.512719e-03
<GCONST> 9.275678e+01
<MIXTURE> 85 7.591393e-03
<MEAN> 25
 -3.090860e+00 7.886468e+00 5.677821e+00 1.288856e+00 -3.471268e+00 -5.311369e+00 -2.973825e+00 -6.089286e+00 -3.540082e+00 -3.159850e+00 -4.890007e-01 -1.883277e+00 3.934727e+00 3.243855e-01 1.764247e+00 -2.095159e+00 -3.412059e+00 -2.574657e+00 -2.885539e+00 -2.336877e+00 -2.248453e+00 -1.264793e+00 -2.293350e+00 -6.313595e-01 9.484492e-03
<VARIANCE> 25
 4.240379e+01 2.337511e+01 3.686603e+01 3.814462e+01 3.971624e+01 4.116671e+01 3.204539e+01 2.803390e+01 2.657938e+01 2.619040e+01 2.617838e+01 2.055570e+01 2.711250e+00 4.309254e+00 4.058304e+00 5.167799e+00 4.397297e+00 3.884681e+00 3.839167e+00 3.977348e+00 3.856611e+00 4.036095e+00 3.948452e+00 3.529426e+00 5.447231e-03
<GCONST> 9.836024e+01
<MIXTURE> 86 1.273941e-02
<MEAN> 25
 -4.812266e+00 -8.442092e-01 -9.572631e-01 6.336082e+00 5.010257e+00 4.857046e+00 5.607402e+00 4.131858e+00 4.733410e+00 3.856039e+00 5.038341e+00 2.563552e+00 -9.573998e-03 -2.604266e-03 -3.215563e-02 -7.676213e-02 -1.204375e-01 -1.813074e-01 -2.634488e-01 -3.148753e-01 -3.317291e-01 -3.310483e-01 -2.350502e-01 -1.018364e-01 -7.069738e-04
<VARIANCE> 25
 7.957517e+00 7.432702e+00 1.010964e+01 1.386784e+01 1.523348e+01 1.525809e+01 1.475943e+01 1.580858e+01 1.317742e+01 1.421679e+01 1.521252e+01 1.263139e+01 9.699922e-02 1.848696e-01 3.044697e-01 4.777374e-01 6.278703e-01 7.439114e-01 7.306105e-01 7.441411e-01 8.261052e-01 8.642750e-01 8.993206e-01 9.191316e-01 5.340349e-05
<GCONST> 5.867761e+01
<MIXTURE> 87 1.100681e-02
<MEAN> 25
 -3.120226e+00 5.317046e+00 2.356118e+00 7.178982e+00 4.597541e+00 1.188198e+00 2.707969e+00 -2.163347e+00 3.037112e-01 -1.663996e-01 -9.258995e-01 2.791793e-01 -1.577574e+00 -2.546465e+00 -2.167135e+00 -2.421110e+00 -2.086758e-01 -4.015057e-01 5.137486e-01 2.199571e+00 1.166326e+00 6.997999e-01 1.014927e+00 9.073598e-01 9.543090e-02
<VARIANCE> 25
 3.110883e+01 2.714595e+01 2.739869e+01 2.820107e+01 2.927321e+01 2.717128e+01 2.748797e+01 2.725056e+01 2.595276e+01 2.213509e+01 2.094360e+01 1.944581e+01 4.335476e+00 2.542408e+00 3.239784e+00 3.236491e+00 3.983480e+00 3.826344e+00 3.868775e+00 6.202185e+00 3.943622e+00 3.265027e+00 2.878597e+00 2.291089e+00 4.381727e-03
<GCONST> 9.465930e+01
<MIXTURE> 88 1.256585e-02
<MEAN> 25
 -3.973712e+00 -5.495030e-01 -9.668850e-01 5.549422e+00 4.068192e+00 3.620016e+00 5.133374e+00 1.511580e+00 3.178192e+00 2.320266e+00 3.140498e+00 2.639925e+00 2.156572e-01 1.446153e-01 2.342791e-01 4.973543e-01 1.394879e-01 6.239356e-02 -2.702272e-02 -7.313354e-02 -3.893634e-01 3.649739e-01 6.364597e-02 9.410056e-02 -1.345295e-02
<VARIANCE> 25
 8.106791e+00 1.107251e+01 1.731495e+01 1.773419e+01 1.965619e+01 2.598446e+01 1.715803e+01 2.708252e+01 1.640519e+01 1.740151e+01 1.917247e+01 1.256077e+01 1.280531e+00 1.438587e+00 1.745163e+00 2.033401e+00 2.385409e+00 2.273989e+00 2.270329e+00 2.276474e+00 2.315434e+00 3.982860e+00 2.061413e+00 1.819055e+00 1.553541e-03
<GCONST> 8.197366e+01
<MIXTURE> 89 9.333527e-03
<MEAN> 25
 5.768576e+00 -7.649169e+00 -2.535098e+00 -2.780988e+00 -2.159483e+00 -6.806531e+00 -7.287377e+00 4.958588e+00 2.334044e+00 -2.071239e+00 -5.636460e+00 -3.424026e+00 -6.837327e-01 1.926468e-02 2.329527e+00 1.072857e+00 -1.918359e+00 -1.856888e+00 8.857346e-01 1.314549e+00 -7.588905e-01 -1.407776e+00 2.791180e-01 1.610779e+00 -1.859248e-03
<VARIANCE> 25
 9.144582e+00 3.106301e+01 3.859647e+01 2.921352e+01 3.591092e+01 5.227621e+01 6.775896e+01 4.590327e+01 4.820066e+01 4.408838e+01 3.430648e+01 2.977703e+01 4.467542e-01 9.501088e-01 2.484040e+00 1.485705e+00 1.776872e+00 2.365199e+00 2.357713e+00 1.891135e+00 2.062627e+00 2.021676e+00 2.283832e+00 1.403281e+00 4.230299e-04
<GCONST> 8.699855e+01
<MIXTURE> 90 7.114505e-03
<MEAN> 25
 2.414471e+00 -9.669736e+00 -4.761765e+00 -3.986732e+00 -3.298781e+00 -1.726501e+00 3.390137e+00 1.138449e+00 -7.443558e+00 -1.022786e+01 -3.413431e+00 -7.257189e-01 -1.641750e-01 9.084483e-01 1.163215e+00 -8.451876e-01 -1.616768e+00 -2.180090e-01 6.388465e-01 -2.162227e-01 -1.606525e-01 7.300462e-01 1.774120e-01 -5.471992e-01 -1.127425e-02
<VARIANCE> 25
 8.589324e+00 1.800564e+01 1.969335e+01 2.785031e+01 3.758029e+01 3.300805e+01 3.836657e+01 3.680591e+01 3.589489e+01 2.758859e+01 2.683970e+01 2.594716e+01 2.257149e-01 6.078516e-01 7.865180e-01 1.043671e+00 1.460527e+00 1.587739e+00 1.785927e+00 1.649081e+00 1.804136e+00 1.677553e+00 1.487299e+00 1.299255e+00 2.168323e-04
<GCONST> 7.818263e+01
<MIXTURE> 91 7.852945e-03
<MEAN> 25
 5.912768e+00 -7.930856e+00 -7.494471e+00 -6.988697e+00 3.910429e+00 1.928996e+00 -2.085648e+00 1.764945e+00 1.130419e+00 -2.234897e+00 -4.483020e+00 -4.619073e+00 2.616766e-01 1.082454e+00 1.392292e-02 5.896652e-01 2.303719e-01 -4.634441e-01 -9.293271e-02 -4.667275e-01 -1.166820e-01 4.370144e-01 1.826111e-02 2.582138e-01 -3.811347e-02
<VARIANCE> 25
 9.503543e+00 2.099448e+01 2.164108e+01 4.870538e+01 3.039374e+01 6.207123e+01 4.701635e+01 4.262965e+01 4.496935e+01 5.799039e+01 3.251998e+01 3.567832e+01 3.823396e-01 8.010259e-01 1.228172e+00 1.241829e+00 2.273165e+00 2.094153e+00 2.379171e+00 2.602118e+00 2.022114e+00 2.028837e+00 1.829606e+00 1.570125e+00 5.415456e-04
<GCONST> 8.583945e+01
<MIXTURE> 92 7.852945e-03
<MEAN> 25
 5.912768e+00 -7.930856e+00 -7.494471e+00 -6.988697e+00 3.910429e+00 1.928996e+00 -2.085648e+00 1.764945e+00 1.130419e+00 -2.234897e+00 -4.483020e+00 -4.619073e+00 2.616766e-01 1.082454e+00 1.392292e-02 5.896652e-01 2.303719e-01 -4.634441e-01 -9.293271e-02 -4.667275e-01 -1.166820e-01 4.370144e-01 1.826111e-02 2.582138e-01 -3.811347e-02
<VARIANCE> 25
 9.503543e+00 2.099448e+01 2.164108e+01 4.870538e+01 3.039374e+01 6.207123e+01 4.701635e+01 4.262965e+01 4.496935e+01 5.799039e+01 3.251998e+01 3.567832e+01 3.823396e-01 8.010259e-01 1.228172e+00 1.241829e+00 2.273165e+00 2.094153e+00 2.379171e+00 2.602118e+00 2.022114e+00 2.028837e+00 1.829606e+00 1.570125e+00 5.415456e-04
<GCONST> 8.583945e+01
<MIXTURE> 93 6.122769e-03
<MEAN> 25
 -6.778265e+00 -8.675337e-01 -2.397555e+00 5.849927e+00 5.927643e+00 3.955223e+00 6.182896e+00 3.493608e+00 4.091727e+00 2.542054e+00 1.807366e+00 3.669477e+00 -6.309909e-02 -1.499641e-01 -2.550298e-01 -3.332862e-01 -3.297766e-01 -2.803329e-01 -2.305990e-01 -1.786686e-01 -1.704149e-01 -1.518915e-01 -1.077751e-01 -3.783926e-02 -2.384940e-05
<VARIANCE> 25
 9.154099e+00 6.597276e+00 8.106605e+00 1.144481e+01 1.140888e+01 1.589940e+01 1.539867e+01 1.724879e+01 1.469671e+01 1.446042e+01 1.658394e+01 1.341990e+01 8.220950e-02 1.535088e-01 2.618690e-01 3.868144e-01 4.940778e-01 6.366807e-01 7.988217e-01 8.816088e-01 9.086184e-01 8.718634e-01 8.826960e-01 9.191409e-01 1.047298e-06
<GCONST> 5.374419e+01
<MIXTURE> 94 6.122769e-03
<MEAN> 25
 -6.778265e+00 -8.675337e-01 -2.397555e+00 5.849927e+00 5.927643e+00 3.955223e+00 6.182896e+00 3.493608e+00 4.091727e+00 2.542054e+00 1.807366e+00 3.669477e+00 -6.309909e-02 -1.499641e-01 -2.550298e-01 -3.332862e-01 -3.297766e-01 -2.803329e-01 -2.305990e-01 -1.786686e-01 -1.704149e-01 -1.518915e-01 -1.077751e-01 -3.783926e-02 -2.384940e-05
<VARIANCE> 25
 9.154099e+00 6.597276e+00 8.106605e+00 1.144481e+01 1.140888e+01 1.589940e+01 1.539867e+01 1.724879e+01 1.469671e+01 1.446042e+01 1.658394e+01 1.341990e+01 8.220950e-02 1.535088e-01 2.618690e-01 3.868144e-01 4.940778e-01 6.366807e-01 7.988217e-01 8.816088e-01 9.086184e-01 8.718634e-01 8.826960e-01 9.191409e-01 1.047298e-06
<GCONST> 5.374419e+01
<MIXTURE> 95 5.258835e-03
<MEAN> 25
 -5.462559e+00 2.754916e-01 -1.968107e+00 5.418236e+00 3.990612e+00 3.334865e+00 4.529138e+00 3.065859e-01 2.513345e+00 1.042232e+00 7.473356e-01 2.454818e+00 1.203655e-01 1.229974e-01 6.067684e-02 -1.656339e-01 -3.883400e-01 -7.440513e-01 -1.000354e+00 -1.247737e+00 -1.176032e+00 -9.020130e-01 -5.947150e-01 -2.197614e-01 -5.796454e-04
<VARIANCE> 25
 9.639091e+00 1.063400e+01 1.081349e+01 1.363880e+01 1.292686e+01 1.828527e+01 1.708336e+01 2.455531e+01 1.422607e+01 1.493978e+01 1.814376e+01 1.287994e+01 1.845997e-01 2.566929e-01 4.156612e-01 6.283557e-01 7.018253e-01 7.812582e-01 8.170295e-01 9.777065e-01 8.961941e-01 1.115409e+00 1.032022e+00 1.055726e+00 3.787735e-05
<GCONST> 6.257475e+01
<MIXTURE> 96 7.034694e-03
<MEAN> 25
 -5.021502e+00 -1.837920e-01 -2.191954e+00 5.319287e+00 3.959450e+00 1.938377e+00 3.750249e+00 1.549113e+00 2.470160e+00 9.526159e-01 1.094065e+00 2.828799e+00 -3.408910e-02 9.748350e-02 2.159448e-01 4.103158e-01 5.316479e-01 5.022030e-01 2.147393e-01 -1.256158e-01 -4.286399e-01 -6.348160e-01 -5.841637e-01 -3.405138e-01 -6.765917e-05
<VARIANCE> 25
 1.074995e+01 1.107109e+01 1.265457e+01 1.511271e+01 1.480608e+01 1.941765e+01 1.841548e+01 2.012388e+01 1.775188e+01 1.656475e+01 1.913351e+01 1.435335e+01 1.175297e-01 2.186352e-01 3.186547e-01 3.862356e-01 4.882715e-01 6.469494e-01 9.169340e-01 9.691418e-01 9.652483e-01 8.712707e-01 8.755428e-01 9.890777e-01 1.072685e-06
<GCONST> 5.776601e+01
<MIXTURE> 97 7.034694e-03
<MEAN> 25
 -5.021502e+00 -1.837920e-01 -2.191954e+00 5.319287e+00 3.959450e+00 1.938377e+00 3.750249e+00 1.549113e+00 2.470160e+00 9.526159e-01 1.094065e+00 2.828799e+00 -3.408910e-02 9.748350e-02 2.159448e-01 4.103158e-01 5.316479e-01 5.022030e-01 2.147393e-01 -1.256158e-01 -4.286399e-01 -6.348160e-01 -5.841637e-01 -3.405138e-01 -6.765917e-05
<VARIANCE> 25
 1.074995e+01 1.107109e+01 1.265457e+01 1.511271e+01 1.480608e+01 1.941765e+01 1.841548e+01 2.012388e+01 1.775188e+01 1.656475e+01 1.913351e+01 1.435335e+01 1.175297e-01 2.186352e-01 3.186547e-01 3.862356e-01 4.882715e-01 6.469494e-01 9.169340e-01 9.691418e-01 9.652483e-01 8.712707e-01 8.755428e-01 9.890777e-01 1.072685e-06
<GCONST> 5.776601e+01
<MIXTURE> 98 9.917808e-03
<MEAN> 25
 -1.348282e+00 1.784274e+00 -7.310870e-02 4.937714e+00 2.376645e+00 1.886383e+00 3.692074e+00 1.201848e-01 1.752384e+00 9.696737e-01 7.106141e-01 7.365665e-01 -1.661427e+00 -1.298305e+00 -1.111138e+00 2.138671e-01 4.982766e-01 5.954480e-01 1.016035e+00 1.231350e+00 1.728407e+00 9.722559e-01 1.178228e+00 1.092369e+00 -3.538445e-02
<VARIANCE> 25
 1.316180e+01 2.428496e+01 2.784083e+01 2.923714e+01 4.773785e+01 4.085290e+01 3.062992e+01 3.379462e+01 2.362852e+01 2.815808e+01 2.591278e+01 2.267632e+01 1.377438e+00 1.530926e+00 2.233223e+00 2.456146e+00 2.610918e+00 2.817478e+00 2.892394e+00 3.124512e+00 2.474615e+00 3.016382e+00 2.483408e+00 2.065814e+00 2.202060e-03
<GCONST> 8.998235e+01
<MIXTURE> 99 6.696178e-03
<MEAN> 25
 -6.394156e+00 9.079241e+00 5.249396e+00 5.128603e+00 -4.169716e-01 -6.405320e+00 -9.226363e-01 -4.842443e+00 -2.732229e+00 -3.630619e+00 -5.902525e-01 1.785843e+00 1.557668e-01 -3.793299e-01 1.368406e-01 -1.724920e-01 -8.535843e-01 -4.771102e-01 -3.468167e-01 -9.076915e-02 4.628043e-02 -2.087026e-01 1.100535e-01 3.067384e-01 1.236021e-02
<VARIANCE> 25
 3.007569e+01 2.383796e+01 4.705743e+01 3.511590e+01 3.796812e+01 3.621262e+01 2.552660e+01 2.739834e+01 2.570601e+01 2.439044e+01 2.390372e+01 3.267617e+01 2.465270e+00 2.104916e+00 1.502417e+00 1.617117e+00 2.476690e+00 1.739321e+00 1.352754e+00 1.620225e+00 1.626138e+00 1.543360e+00 1.208486e+00 1.281134e+00 1.317330e-03
<GCONST> 8.631445e+01
<MIXTURE> 100 4.498084e-03
<MEAN> 25
 -1.594855e+00 6.338913e+00 1.027197e+01 -7.461518e+00 -1.077729e+01 -5.069233e+00 -4.944938e+00 -9.973789e+00 -4.715421e+00 -8.619844e-01 -2.735678e+00 -2.706397e+00 2.917379e+00 -1.259522e+00 1.300272e+00 -2.184570e+00 -3.418471e+00 -7.823164e-01 -1.220994e+00 -8.183002e-01 -1.474698e+00 3.491535e-01 -1.654987e+00 -2.860990e-01 2.009139e-03
<VARIANCE> 25
 1.364458e+01 2.110301e+01 2.248914e+01 2.641336e+01 2.304130e+01 2.376682e+01 2.911093e+01 2.173318e+01 2.747832e+01 2.271383e+01 2.240682e+01 2.133370e+01 1.798456e+00 3.952749e+00 2.918780e+00 4.286743e+00 4.183546e+00 4.539700e+00 4.020996e+00 4.341264e+00 4.166317e+00 3.903489e+00 3.908628e+00 3.223064e+00 1.673877e-03
<GCONST> 9.257971e+01
<MIXTURE> 101 6.007792e-03
<MEAN> 25
 8.048142e+00 -3.500244e+00 -6.200916e+00 -6.839780e+00 8.800579e-01 -1.267365e+00 -1.060916e+01 -2.042220e+00 1.632704e+00 2.736734e+00 -2.322334e+00 -5.128739e+00 6.751661e-01 6.447898e-01 -1.455249e+00 -1.619049e+00 1.019083e+00 2.326614e+00 2.027364e-01 -1.457505e+00 -1.074083e+00 1.024239e+00 1.376404e+00 -3.995547e-01 -4.775378e-03
<VARIANCE> 25
 9.491570e+00 1.663133e+01 3.156306e+01 4.295940e+01 3.610978e+01 3.640276e+01 3.725133e+01 3.599857e+01 3.761332e+01 4.371094e+01 5.211845e+01 2.407909e+01 2.922729e-01 6.770819e-01 1.165894e+00 1.605745e+00 1.715054e+00 2.116459e+00 2.077792e+00 1.988238e+00 2.345583e+00 2.225082e+00 1.774731e+00 1.952567e+00 3.521306e-04
<GCONST> 8.380146e+01
<MIXTURE> 102 6.007792e-03
<MEAN> 25
 8.048142e+00 -3.500244e+00 -6.200916e+00 -6.839780e+00 8.800579e-01 -1.267365e+00 -1.060916e+01 -2.042220e+00 1.632704e+00 2.736734e+00 -2.322334e+00 -5.128739e+00 6.751661e-01 6.447898e-01 -1.455249e+00 -1.619049e+00 1.019083e+00 2.326614e+00 2.027364e-01 -1.457505e+00 -1.074083e+00 1.024239e+00 1.376404e+00 -3.995547e-01 -4.775378e-03
<VARIANCE> 25
 9.491570e+00 1.663133e+01 3.156306e+01 4.295940e+01 3.610978e+01 3.640276e+01 3.725133e+01 3.599857e+01 3.761332e+01 4.371094e+01 5.211845e+01 2.407909e+01 2.922729e-01 6.770819e-01 1.165894e+00 1.605745e+00 1.715054e+00 2.116459e+00 2.077792e+00 1.988238e+00 2.345583e+00 2.225082e+00 1.774731e+00 1.952567e+00 3.521306e-04
<GCONST> 8.380146e+01
<MIXTURE> 103 5.694618e-03
<MEAN> 25
 3.366971e+00 -9.472466e+00 -6.128119e+00 -3.088977e+00 -1.331570e+00 -1.975188e+00 2.422403e+00 2.520821e+00 -4.610034e+00 -9.247530e+00 -5.064025e+00 3.626241e-01 -1.579962e-01 -1.487927e+00 -9.799991e-01 3.757766e-01 1.211772e+00 1.019206e+00 1.609099e-01 -2.658653e-01 -7.808357e-01 -9.481701e-01 -3.565860e-02 1.202536e-01 2.695435e-02
<VARIANCE> 25
 1.033739e+01 2.037317e+01 2.289178e+01 3.212605e+01 4.798542e+01 3.533467e+01 4.654094e+01 3.676799e+01 4.211774e+01 2.938115e+01 3.004970e+01 2.638247e+01 6.430891e-01 1.250991e+00 1.536798e+00 1.944263e+00 2.926563e+00 2.414128e+00 2.892939e+00 2.577221e+00 2.560728e+00 2.521989e+00 2.097063e+00 2.013414e+00 8.068143e-04
<GCONST> 8.759895e+01
<MIXTURE> 104 5.694618e-03
<MEAN> 25
 3.366971e+00 -9.472466e+00 -6.128119e+00 -3.088977e+00 -1.331570e+00 -1.975188e+00 2.422403e+00 2.520821e+00 -4.610034e+00 -9.247530e+00 -5.064025e+00 3.626241e-01 -1.579962e-01 -1.487927e+00 -9.799991e-01 3.757766e-01 1.211772e+00 1.019206e+00 1.609099e-01 -2.658653e-01 -7.808357e-01 -9.481701e-01 -3.565860e-02 1.202536e-01 2.695435e-02
<VARIANCE> 25
 1.033739e+01 2.037317e+01 2.289178e+01 3.212605e+01 4.798542e+01 3.533467e+01 4.654094e+01 3.676799e+01 4.211774e+01 2.938115e+01 3.004970e+01 2.638247e+01 6.430891e-01 1.250991e+00 1.536798e+00 1.944263e+00 2.926563e+00 2.414128e+00 2.892939e+00 2.577221e+00 2.560728e+00 2.521989e+00 2.097063e+00 2.013414e+00 8.068143e-04
<GCONST> 8.759895e+01
<MIXTURE> 105 4.710235e-03
<MEAN> 25
 2.176507e+00 -1.595234e+00 9.374927e+00 -2.770478e+00 -1.172100e+01 -5.284938e+00 -4.358652e+00 -5.537645e-01 -4.105195e+00 -2.991691e+00 1.503045e+00 -1.179287e+00 8.457332e-03 2.275066e-02 5.346592e-02 -4.658030e-02 1.647851e-03 2.179399e-02 2.070380e-02 2.499807e-02 -2.713871e-02 3.063782e-02 2.442566e-02 9.188166e-03 -1.841528e-03
<VARIANCE> 25
 1.320580e+01 2.851433e+01 4.083086e+01 4.422482e+01 3.763614e+01 5.610322e+01 4.199225e+01 4.502497e+01 4.296959e+01 4.333375e+01 4.112000e+01 3.017553e+01 8.213171e-02 1.857264e-01 3.365550e-01 2.852944e-01 3.660257e-01 4.532646e-01 5.124226e-01 5.143369e-01 4.887199e-01 4.327721e-01 4.134943e-01 4.587660e-01 9.350057e-05
<GCONST> 6.708018e+01
<MIXTURE> 106 4.710235e-03
<MEAN> 25
 2.176507e+00 -1.595234e+00 9.374927e+00 -2.770478e+00 -1.172100e+01 -5.284938e+00 -4.358652e+00 -5.537645e-01 -4.105195e+00 -2.991691e+00 1.503045e+00 -1.179287e+00 8.457332e-03 2.275066e-02 5.346592e-02 -4.658030e-02 1.647851e-03 2.179399e-02 2.070380e-02 2.499807e-02 -2.713871e-02 3.063782e-02 2.442566e-02 9.188166e-03 -1.841528e-03
<VARIANCE> 25
 1.320580e+01 2.851433e+01 4.083086e+01 4.422482e+01 3.763614e+01 5.610322e+01 4.199225e+01 4.502497e+01 4.296959e+01 4.333375e+01 4.112000e+01 3.017553e+01 8.213171e-02 1.857264e-01 3.365550e-01 2.852944e-01 3.660257e-01 4.532646e-01 5.124226e-01 5.143369e-01 4.887199e-01 4.327721e-01 4.134943e-01 4.587660e-01 9.350057e-05
<GCONST> 6.708018e+01
<MIXTURE> 107 5.452374e-03
<MEAN> 25
 8.483630e+00 -2.579400e+00 -7.698932e+00 -9.687363e+00 1.583972e+00 2.902578e+00 -8.818736e+00 -4.360014e+00 -1.749963e+00 3.831543e+00 1.177001e+00 -5.139592e+00 -6.530027e-01 -9.301287e-01 9.300602e-01 1.951311e+00 2.325904e-01 -2.205327e+00 -1.062644e+00 9.698547e-01 1.813887e+00 1.798887e-01 -1.615011e+00 -8.084078e-01 3.402878e-04
<VARIANCE> 25
 9.253255e+00 2.093345e+01 2.906487e+01 4.123551e+01 3.668632e+01 3.689957e+01 4.952463e+01 3.530954e+01 5.760029e+01 4.334568e+01 5.073362e+01 2.913943e+01 3.739409e-01 1.404603e+00 1.571167e+00 2.881965e+00 2.181744e+00 3.355015e+00 2.856365e+00 2.701775e+00 2.229190e+00 3.254413e+00 1.890545e+00 2.101376e+00 7.505558e-04
<GCONST> 8.916757e+01
<MIXTURE> 108 5.452374e-03
<MEAN> 25
 8.483630e+00 -2.579400e+00 -7.698932e+00 -9.687363e+00 1.583972e+00 2.902578e+00 -8.818736e+00 -4.360014e+00 -1.749963e+00 3.831543e+00 1.177001e+00 -5.139592e+00 -6.530027e-01 -9.301287e-01 9.300602e-01 1.951311e+00 2.325904e-01 -2.205327e+00 -1.062644e+00 9.698547e-01 1.813887e+00 1.798887e-01 -1.615011e+00 -8.084078e-01 3.402878e-04
<VARIANCE> 25
 9.253255e+00 2.093345e+01 2.906487e+01 4.123551e+01 3.668632e+01 3.689957e+01 4.952463e+01 3.530954e+01 5.760029e+01 4.334568e+01 5.073362e+01 2.913943e+01 3.739409e-01 1.404603e+00 1.571167e+00 2.881965e+00 2.181744e+00 3.355015e+00 2.856365e+00 2.701775e+00 2.229190e+00 3.254413e+00 1.890545e+00 2.101376e+00 7.505558e-04
<GCONST> 8.916757e+01
<MIXTURE> 109 6.661064e-03
<MEAN> 25
 4.060023e+00 -1.055031e+01 -8.277184e+00 -1.457993e+00 2.737319e+00 5.942639e-02 -6.923578e-02 1.502777e+00 -2.536177e+00 -8.331791e+00 -5.357898e+00 5.445073e-02 -3.549875e-02 -1.309452e-01 -2.869076e-02 2.477764e-01 1.987834e-01 1.125783e-01 -1.204600e-01 -1.073878e-01 -3.193232e-02 -1.357324e-01 2.120678e-01 8.791216e-03 -3.633884e-03
<VARIANCE> 25
 9.133905e+00 1.836825e+01 1.996027e+01 3.280957e+01 4.082968e+01 3.783783e+01 4.657379e+01 3.462885e+01 4.591117e+01 3.539411e+01 2.944879e+01 2.799342e+01 1.926128e-01 4.252071e-01 5.367880e-01 6.318246e-01 1.246413e+00 9.944900e-01 1.251675e+00 1.086369e+00 1.120099e+00 9.480894e-01 8.783308e-01 8.806804e-01 1.840183e-04
<GCONST> 7.453169e+01
<MIXTURE> 110 6.661064e-03
<MEAN> 25
 4.060023e+00 -1.055031e+01 -8.277184e+00 -1.457993e+00 2.737319e+00 5.942639e-02 -6.923578e-02 1.502777e+00 -2.536177e+00 -8.331791e+00 -5.357898e+00 5.445073e-02 -3.549875e-02 -1.309452e-01 -2.869076e-02 2.477764e-01 1.987834e-01 1.125783e-01 -1.204600e-01 -1.073878e-01 -3.193232e-02 -1.357324e-01 2.120678e-01 8.791216e-03 -3.633884e-03
<VARIANCE> 25
 9.133905e+00 1.836825e+01 1.996027e+01 3.280957e+01 4.082968e+01 3.783783e+01 4.657379e+01 3.462885e+01 4.591117e+01 3.539411e+01 2.944879e+01 2.799342e+01 1.926128e-01 4.252071e-01 5.367880e-01 6.318246e-01 1.246413e+00 9.944900e-01 1.251675e+00 1.086369e+00 1.120099e+00 9.480894e-01 8.783308e-01 8.806804e-01 1.840183e-04
<GCONST> 7.453169e+01
<MIXTURE> 111 4.337247e-03
<MEAN> 25
 -4.430202e+00 -8.091815e-01 -1.757355e+00 1.683645e+00 9.914415e-01 1.106218e+00 4.192293e-01 1.495952e-01 2.101917e-01 -5.462558e-01 -6.232179e-01 1.947087e+00 -2.160040e-02 -3.094853e-02 -6.746374e-02 -7.790663e-02 -3.861177e-02 3.104925e-03 -4.571430e-03 -6.105676e-02 -1.445478e-01 -2.057437e-01 -1.854499e-01 -9.264503e-02 -1.821917e-04
<VARIANCE> 25
 7.047820e+00 5.458944e+00 1.018495e+01 9.654540e+00 1.296222e+01 2.478171e+01 1.513416e+01 1.334783e+01 1.238368e+01 1.185983e+01 1.347008e+01 1.148496e+01 7.833939e-02 1.614987e-01 2.733067e-01 4.187459e-01 5.651536e-01 7.069368e-01 7.916114e-01 8.545040e-01 8.907937e-01 8.489267e-01 8.618039e-01 8.538654e-01 2.264955e-05
<GCONST> 5.616923e+01
<MIXTURE> 112 4.337247e-03
<MEAN> 25
 -4.430202e+00 -8.091815e-01 -1.757355e+00 1.683645e+00 9.914415e-01 1.106218e+00 4.192293e-01 1.495952e-01 2.101917e-01 -5.462558e-01 -6.232179e-01 1.947087e+00 -2.160040e-02 -3.094853e-02 -6.746374e-02 -7.790663e-02 -3.861177e-02 3.104925e-03 -4.571430e-03 -6.105676e-02 -1.445478e-01 -2.057437e-01 -1.854499e-01 -9.264503e-02 -1.821917e-04
<VARIANCE> 25
 7.047820e+00 5.458944e+00 1.018495e+01 9.654540e+00 1.296222e+01 2.478171e+01 1.513416e+01 1.334783e+01 1.238368e+01 1.185983e+01 1.347008e+01 1.148496e+01 7.833939e-02 1.614987e-01 2.733067e-01 4.187459e-01 5.651536e-01 7.069368e-01 7.916114e-01 8.545040e-01 8.907937e-01 8.489267e-01 8.618039e-01 8.538654e-01 2.264955e-05
<GCONST> 5.616923e+01
<MIXTURE> 113 5.938666e-03
<MEAN> 25
 9.603328e+00 1.477060e+00 -8.472445e+00 -1.766891e+01 -8.519616e-01 5.839992e+00 -5.627850e+00 -6.111795e-01 -5.749633e+00 -9.720989e-01 2.737280e-01 1.140441e-01 4.023137e-02 -2.158076e-02 -8.027039e-02 -1.494410e-01 5.679595e-02 8.879710e-02 1.379955e-01 1.035113e-01 -1.129322e-01 -1.128622e-01 2.219791e-01 -7.192381e-03 -1.313122e-03
<VARIANCE> 25
 1.082030e+01 1.686207e+01 2.975924e+01 3.894670e+01 5.076874e+01 3.288326e+01 3.969050e+01 4.948332e+01 3.549642e+01 4.802840e+01 3.449273e+01 2.877963e+01 1.377274e-01 3.352341e-01 3.104641e-01 6.413945e-01 6.201328e-01 7.407447e-01 8.513305e-01 9.011210e-01 9.786834e-01 9.324607e-01 7.233550e-01 7.109956e-01 1.269237e-04
<GCONST> 7.209285e+01
<MIXTURE> 114 5.938666e-03
<MEAN> 25
 9.603328e+00 1.477060e+00 -8.472445e+00 -1.766891e+01 -8.519616e-01 5.839992e+00 -5.627850e+00 -6.111795e-01 -5.749633e+00 -9.720989e-01 2.737280e-01 1.140441e-01 4.023137e-02 -2.158076e-02 -8.027039e-02 -1.494410e-01 5.679595e-02 8.879710e-02 1.379955e-01 1.035113e-01 -1.129322e-01 -1.128622e-01 2.219791e-01 -7.192381e-03 -1.313122e-03
<VARIANCE> 25
 1.082030e+01 1.686207e+01 2.975924e+01 3.894670e+01 5.076874e+01 3.288326e+01 3.969050e+01 4.948332e+01 3.549642e+01 4.802840e+01 3.449273e+01 2.877963e+01 1.377274e-01 3.352341e-01 3.104641e-01 6.413945e-01 6.201328e-01 7.407447e-01 8.513305e-01 9.011210e-01 9.786834e-01 9.324607e-01 7.233550e-01 7.109956e-01 1.269237e-04
<GCONST> 7.209285e+01
<MIXTURE> 115 2.935202e-03
<MEAN> 25
 -4.027949e+00 -7.228896e-01 -3.101081e+00 3.679761e+00 2.421553e+00 -4.035613e-01 2.259645e+00 3.814246e-01 1.391867e+00 -5.826046e-03 3.751439e-02 2.682291e+00 3.142835e-02 -7.162080e-02 -2.298534e-01 -4.411008e-01 -6.324247e-01 -6.696392e-01 -5.934733e-01 -5.088490e-01 -4.870642e-01 -4.578599e-01 -3.434796e-01 -1.636768e-01 -1.578006e-05
<VARIANCE> 25
 9.237107e+00 1.004365e+01 1.349158e+01 1.279932e+01 1.349677e+01 1.763467e+01 1.719079e+01 2.095673e+01 1.788758e+01 1.720914e+01 1.912674e+01 1.462940e+01 2.029891e-01 3.444302e-01 4.840772e-01 5.632454e-01 6.320146e-01 7.957751e-01 1.005931e+00 1.128007e+00 1.071779e+00 9.927628e-01 1.021676e+00 1.062151e+00 1.037139e-06
<GCONST> 6.019520e+01
<MIXTURE> 116 2.935202e-03
<MEAN> 25
 -4.027949e+00 -7.228896e-01 -3.101081e+00 3.679761e+00 2.421553e+00 -4.035613e-01 2.259645e+00 3.814246e-01 1.391867e+00 -5.826046e-03 3.751439e-02 2.682291e+00 3.142835e-02 -7.162080e-02 -2.298534e-01 -4.411008e-01 -6.324247e-01 -6.696392e-01 -5.934733e-01 -5.088490e-01 -4.870642e-01 -4.578599e-01 -3.434796e-01 -1.636768e-01 -1.578006e-05
<VARIANCE> 25
 9.237107e+00 1.004365e+01 1.349158e+01 1.279932e+01 1.349677e+01 1.763467e+01 1.719079e+01 2.095673e+01 1.788758e+01 1.720914e+01 1.912674e+01 1.462940e+01 2.029891e-01 3.444302e-01 4.840772e-01 5.632454e-01 6.320146e-01 7.957751e-01 1.005931e+00 1.128007e+00 1.071779e+00 9.927628e-01 1.021676e+00 1.062151e+00 1.037139e-06
<GCONST> 6.019520e+01
<MIXTURE> 117 6.506003e-03
<MEAN> 25
 -4.508666e+00 1.563213e+00 9.136782e-01 9.819310e+00 6.278707e+00 6.257016e+00 6.827892e+00 4.055748e+00 6.139352e+00 4.925961e+00 5.994382e+00 2.715815e+00 -8.153029e-02 -2.252657e-01 -3.526388e-01 -4.000075e-01 -3.605762e-01 -2.883512e-01 -2.680481e-01 -3.282040e-01 -4.185911e-01 -3.162841e-01 -2.726031e-01 -1.694096e-01 -6.339697e-05
<VARIANCE> 25
 6.849658e+00 1.012290e+01 9.440903e+00 1.341181e+01 1.454878e+01 1.446708e+01 1.822718e+01 2.715409e+01 1.647050e+01 1.517893e+01 1.691672e+01 1.447675e+01 2.021940e-01 2.941051e-01 4.076534e-01 6.407478e-01 8.039566e-01 9.833540e-01 1.250687e+00 1.151762e+00 1.161106e+00 1.198299e+00 1.099271e+00 1.204703e+00 1.430493e-06
<GCONST> 6.072212e+01
<MIXTURE> 118 6.506003e-03
<MEAN> 25
 -4.508666e+00 1.563213e+00 9.136782e-01 9.819310e+00 6.278707e+00 6.257016e+00 6.827892e+00 4.055748e+00 6.139352e+00 4.925961e+00 5.994382e+00 2.715815e+00 -8.153029e-02 -2.252657e-01 -3.526388e-01 -4.000075e-01 -3.605762e-01 -2.883512e-01 -2.680481e-01 -3.282040e-01 -4.185911e-01 -3.162841e-01 -2.726031e-01 -1.694096e-01 -6.339697e-05
<VARIANCE> 25
 6.849658e+00 1.012290e+01 9.440903e+00 1.341181e+01 1.454878e+01 1.446708e+01 1.822718e+01 2.715409e+01 1.647050e+01 1.517893e+01 1.691672e+01 1.447675e+01 2.021940e-01 2.941051e-01 4.076534e-01 6.407478e-01 8.039566e-01 9.833540e-01 1.250687e+00 1.151762e+00 1.161106e+00 1.198299e+00 1.099271e+00 1.204703e+00 1.430493e-06
<GCONST> 6.072212e+01
<MIXTURE> 119 4.297961e-03
<MEAN> 25
 -4.973950e+00 -7.631041e+00 2.231440e+00 2.017865e+00 2.239015e+00 2.086937e-01 5.275298e+00 5.934815e+00 1.166625e+00 9.691017e-01 6.613404e+00 1.570257e+00 -4.976048e-02 -7.895187e-02 3.725733e-02 -5.753291e-02 -1.268675e-01 -1.801434e-01 -6.907433e-02 -1.424479e-02 -9.135170e-02 -1.107169e-01 -5.482350e-02 -5.786628e-02 1.103992e-03
<VARIANCE> 25
 8.503469e+00 9.836832e+00 1.656798e+01 2.018836e+01 2.286661e+01 2.321403e+01 2.498648e+01 2.652477e+01 2.502937e+01 2.809751e+01 2.040090e+01 2.040260e+01 1.605688e-01 2.827382e-01 4.595615e-01 6.329225e-01 8.042076e-01 1.003537e+00 1.099496e+00 1.277479e+00 1.286205e+00 1.250918e+00 1.192379e+00 1.112292e+00 2.316802e-04
<GCONST> 6.972993e+01
<MIXTURE> 120 4.297961e-03
<MEAN> 25
 -4.973950e+00 -7.631041e+00 2.231440e+00 2.017865e+00 2.239015e+00 2.086937e-01 5.275298e+00 5.934815e+00 1.166625e+00 9.691017e-01 6.613404e+00 1.570257e+00 -4.976048e-02 -7.895187e-02 3.725733e-02 -5.753291e-02 -1.268675e-01 -1.801434e-01 -6.907433e-02 -1.424479e-02 -9.135170e-02 -1.107169e-01 -5.482350e-02 -5.786628e-02 1.103992e-03
<VARIANCE> 25
 8.503469e+00 9.836832e+00 1.656798e+01 2.018836e+01 2.286661e+01 2.321403e+01 2.498648e+01 2.652477e+01 2.502937e+01 2.809751e+01 2.040090e+01 2.040260e+01 1.605688e-01 2.827382e-01 4.595615e-01 6.329225e-01 8.042076e-01 1.003537e+00 1.099496e+00 1.277479e+00 1.286205e+00 1.250918e+00 1.192379e+00 1.112292e+00 2.316802e-04
<GCONST> 6.972993e+01
<MIXTURE> 121 4.567511e-03
<MEAN> 25
 2.074964e-01 -2.524012e+00 5.153263e+00 -1.290326e+01 -1.264689e+01 -1.665214e+00 9.989504e-01 -5.107801e+00 -4.199427e+00 -4.899806e-01 -5.508050e+00 -4.313338e+00 2.410370e-02 1.323658e-01 -4.149543e-02 7.962478e-02 1.585143e-01 7.846437e-02 -7.942359e-02 -1.832200e-01 -2.685326e-01 -2.576512e-01 -1.145161e-01 9.181199e-04 -7.434082e-03
<VARIANCE> 25
 7.732639e+00 1.560589e+01 1.727573e+01 2.035750e+01 2.441031e+01 2.925116e+01 2.953889e+01 2.457755e+01 3.528794e+01 2.833920e+01 1.974621e+01 2.118016e+01 1.549991e-01 6.430969e-01 6.230602e-01 7.048418e-01 7.706043e-01 1.149956e+00 1.118103e+00 1.120875e+00 1.217460e+00 1.192660e+00 9.416311e-01 8.719059e-01 2.108308e-04
<GCONST> 7.139254e+01
<MIXTURE> 122 4.567511e-03
<MEAN> 25
 2.074964e-01 -2.524012e+00 5.153263e+00 -1.290326e+01 -1.264689e+01 -1.665214e+00 9.989504e-01 -5.107801e+00 -4.199427e+00 -4.899806e-01 -5.508050e+00 -4.313338e+00 2.410370e-02 1.323658e-01 -4.149543e-02 7.962478e-02 1.585143e-01 7.846437e-02 -7.942359e-02 -1.832200e-01 -2.685326e-01 -2.576512e-01 -1.145161e-01 9.181199e-04 -7.434082e-03
<VARIANCE> 25
 7.732639e+00 1.560589e+01 1.727573e+01 2.035750e+01 2.441031e+01 2.925116e+01 2.953889e+01 2.457755e+01 3.528794e+01 2.833920e+01 1.974621e+01 2.118016e+01 1.549991e-01 6.430969e-01 6.230602e-01 7.048418e-01 7.706043e-01 1.149956e+00 1.118103e+00 1.120875e+00 1.217460e+00 1.192660e+00 9.416311e-01 8.719059e-01 2.108308e-04
<GCONST> 7.139254e+01
<MIXTURE> 123 4.393044e-03
<MEAN> 25
 -4.111541e+00 1.508274e+00 1.977382e-01 6.656444e+00 5.088262e+00 3.685925e+00 3.775316e+00 -6.464590e-01 5.166489e-01 2.400977e-02 3.391345e-01 1.079285e+00 -3.958317e-01 -6.860302e-01 -7.898497e-01 -5.709622e-01 -2.708440e-01 1.463570e-02 3.497608e-01 5.276399e-01 6.942625e-01 8.419026e-01 6.963084e-01 5.145380e-01 -2.864667e-03
<VARIANCE> 25
 9.632076e+00 1.159435e+01 1.463261e+01 1.759282e+01 2.101606e+01 2.596605e+01 2.106434e+01 2.486909e+01 1.818225e+01 1.814562e+01 2.151984e+01 1.843171e+01 4.021399e-01 3.773331e-01 5.016010e-01 7.234624e-01 9.246522e-01 1.089381e+00 1.123135e+00 1.380384e+00 1.210706e+00 1.382452e+00 1.102558e+00 1.148273e+00 1.008919e-04
<GCONST> 6.965451e+01
<MIXTURE> 124 4.069876e-03
<MEAN> 25
 -6.446129e+00 -7.899488e-01 -2.807794e+00 5.205846e+00 5.033659e+00 3.680873e+00 5.624218e+00 1.932862e+00 3.203700e+00 1.385831e+00 1.085965e+00 2.899470e+00 -2.014461e-01 -3.143795e-01 -3.446547e-01 -1.760614e-01 1.397596e-01 4.961851e-01 8.263060e-01 8.820717e-01 5.993385e-01 3.407068e-01 9.812865e-02 -5.659626e-02 2.965022e-04
<VARIANCE> 25
 1.096325e+01 9.000514e+00 1.098477e+01 1.308486e+01 1.147548e+01 2.047427e+01 1.548984e+01 2.278682e+01 1.612032e+01 1.565509e+01 1.808885e+01 1.418069e+01 9.961266e-02 1.612667e-01 2.614351e-01 4.425800e-01 5.791607e-01 7.046562e-01 7.335688e-01 8.186424e-01 9.276860e-01 9.377028e-01 1.007976e+00 1.010021e+00 1.935017e-05
<GCONST> 5.924221e+01
<MIXTURE> 125 4.069876e-03
<MEAN> 25
 -6.446129e+00 -7.899488e-01 -2.807794e+00 5.205846e+00 5.033659e+00 3.680873e+00 5.624218e+00 1.932862e+00 3.203700e+00 1.385831e+00 1.085965e+00 2.899470e+00 -2.014461e-01 -3.143795e-01 -3.446547e-01 -1.760614e-01 1.397596e-01 4.961851e-01 8.263060e-01 8.820717e-01 5.993385e-01 3.407068e-01 9.812865e-02 -5.659626e-02 2.965022e-04
<VARIANCE> 25
 1.096325e+01 9.000514e+00 1.098477e+01 1.308486e+01 1.147548e+01 2.047427e+01 1.548984e+01 2.278682e+01 1.612032e+01 1.565509e+01 1.808885e+01 1.418069e+01 9.961266e-02 1.612667e-01 2.614351e-01 4.425800e-01 5.791607e-01 7.046562e-01 7.335688e-01 8.186424e-01 9.276860e-01 9.377028e-01 1.007976e+00 1.010021e+00 1.935017e-05
<GCONST> 5.924221e+01
<MIXTURE> 126 2.402244e-03
<MEAN> 25
 -3.788980e+00 -6.926363e+00 -5.291802e+00 2.328151e+00 4.282801e+00 -3.238940e+00 8.359868e-02 3.555006e+00 3.360087e+00 -2.717777e+00 -1.430921e+00 3.058033e+00 -3.531871e-03 -4.679939e-03 -3.700123e-02 -1.552762e-01 -3.187475e-01 -3.954243e-01 -2.731666e-01 -1.563244e-01 -1.145791e-01 -1.178102e-01 -1.041350e-01 -3.131774e-02 -1.504585e-03
<VARIANCE> 25
 7.405450e+00 1.262266e+01 1.378793e+01 1.556501e+01 2.463519e+01 2.505437e+01 2.286921e+01 2.841185e+01 3.128644e+01 2.624953e+01 2.167030e+01 1.916310e+01 1.706100e-01 3.523002e-01 4.828155e-01 5.662947e-01 7.694338e-01 9.997337e-01 1.119988e+00 1.261650e+00 1.334742e+00 1.306208e+00 1.221260e+00 1.141934e+00 2.141855e-04
<GCONST> 6.990981e+01
<MIXTURE> 127 2.402244e-03
<MEAN> 25
 -3.788980e+00 -6.926363e+00 -5.291802e+00 2.328151e+00 4.282801e+00 -3.238940e+00 8.359868e-02 3.555006e+00 3.360087e+00 -2.717777e+00 -1.430921e+00 3.058033e+00 -3.531871e-03 -4.679939e-03 -3.700123e-02 -1.552762e-01 -3.187475e-01 -3.954243e-01 -2.731666e-01 -1.563244e-01 -1.145791e-01 -1.178102e-01 -1.041350e-01 -3.131774e-02 -1.504585e-03
<VARIANCE> 25
 7.405450e+00 1.262266e+01 1.378793e+01 1.556501e+01 2.463519e+01 2.505437e+01 2.286921e+01 2.841185e+01 3.128644e+01 2.624953e+01 2.167030e+01 1.916310e+01 1.706100e-01 3.523002e-01 4.828155e-01 5.662947e-01 7.694338e-01 9.997337e-01 1.119988e+00 1.261650e+00 1.334742e+00 1.306208e+00 1.221260e+00 1.141934e+00 2.141855e-04
<GCONST> 6.990981e+01
<MIXTURE> 128 3.790457e-03
<MEAN> 25
 -3.921523e+00 1.590998e+00 -3.312453e-01 6.599472e+00 3.632790e+00 1.884033e+00 3.620182e+00 2.296617e+00 3.980556e+00 3.697581e+00 3.751431e+00 3.548670e+00 -3.931176e-01 -1.981173e-01 9.253957e-02 7.249917e-01 1.172864e+00 1.127434e+00 7.228364e-01 1.301672e-01 -4.397058e-01 -7.737346e-01 -7.018368e-01 -4.038979e-01 -4.799937e-05
<VARIANCE> 25
 1.014309e+01 1.187219e+01 1.487397e+01 1.924883e+01 1.990311e+01 2.108090e+01 2.431230e+01 2.513255e+01 2.628538e+01 2.369778e+01 2.662739e+01 1.813109e+01 8.859881e-01 1.137954e+00 1.360271e+00 1.490719e+00 1.584535e+00 1.855591e+00 2.242357e+00 2.306491e+00 2.132210e+00 1.870166e+00 1.731852e+00 1.758929e+00 1.027557e-06
<GCONST> 7.360896e+01
<TRANSP> 3
 0.000000e+00 1.000000e+00 0.000000e+00
 0.000000e+00 9.999990e-01 9.999998e-07
 0.000000e+00 0.000000e+00 0.000000e+00
<ENDHMM>
