~o
<STREAMINFO> 1 25
<VECSIZE> 25<NULLD><MFCC_E_D_N><DIAGC>
~h "jmodel"
<BEGINHMM>
<NUMSTATES> 3
<STATE> 2
<NUMMIXES> 128
<MIXTURE> 1 5.748963e-03
<MEAN> 25
 -2.582280e+00 3.180090e+00 2.311797e+00 8.753685e+00 4.370671e+00 3.449461e+00 4.064094e+00 3.933722e+00 5.829600e+00 5.252032e+00 5.884737e+00 3.080072e+00 -2.003975e+00 -1.634268e+00 -8.641715e-01 1.075789e+00 1.560815e+00 2.231938e+00 2.154096e+00 2.084321e+00 1.693547e+00 1.269663e+00 1.566853e+00 6.133530e-01 -4.691925e-02
<VARIANCE> 25
 1.007119e+01 1.177013e+01 1.494572e+01 1.868471e+01 2.319276e+01 2.214895e+01 2.189414e+01 2.198109e+01 2.101431e+01 2.253585e+01 2.094431e+01 1.707718e+01 1.790281e+00 2.113106e+00 3.025657e+00 3.209259e+00 3.738447e+00 3.357428e+00 3.319537e+00 3.384491e+00 3.521769e+00 3.726147e+00 3.514520e+00 2.833557e+00 3.121916e-03
<GCONST> 8.846830e+01
<MIXTURE> 2 4.549242e-03
<MEAN> 25
 -4.875671e+00 1.311720e+00 9.943511e-01 9.899809e+00 6.692275e+00 7.424650e+00 7.847087e+00 6.958091e+00 8.373269e+00 6.373019e+00 7.624402e+00 3.074697e+00 -6.200235e-02 4.161923e-02 1.425301e-01 2.258583e-01 2.652900e-01 2.813653e-01 2.954302e-01 3.195550e-01 3.497573e-01 3.089160e-01 1.971766e-01 8.006547e-02 1.228299e-06
<VARIANCE> 25
 6.952293e+00 8.901894e+00 1.065126e+01 1.591096e+01 1.723581e+01 1.556308e+01 1.689898e+01 1.848562e+01 1.658668e+01 1.738619e+01 1.811029e+01 1.434002e+01 1.252503e-01 2.266278e-01 3.364712e-01 4.671271e-01 6.492781e-01 8.148874e-01 9.298787e-01 1.003176e+00 1.051662e+00 1.077774e+00 1.075658e+00 1.013934e+00 1.000000e-06
<GCONST> 5.804302e+01
<MIXTURE> 3 4.549242e-03
<MEAN> 25
 -4.875671e+00 1.311720e+00 9.943511e-01 9.899809e+00 6.692275e+00 7.424650e+00 7.847087e+00 6.958091e+00 8.373269e+00 6.373019e+00 7.624402e+00 3.074697e+00 -6.200235e-02 4.161923e-02 1.425301e-01 2.258583e-01 2.652900e-01 2.813653e-01 2.954302e-01 3.195550e-01 3.497573e-01 3.089160e-01 1.971766e-01 8.006547e-02 1.228299e-06
<VARIANCE> 25
 6.952293e+00 8.901894e+00 1.065126e+01 1.591096e+01 1.723581e+01 1.556308e+01 1.689898e+01 1.848562e+01 1.658668e+01 1.738619e+01 1.811029e+01 1.434002e+01 1.252503e-01 2.266278e-01 3.364712e-01 4.671271e-01 6.492781e-01 8.148874e-01 9.298787e-01 1.003176e+00 1.051662e+00 1.077774e+00 1.075658e+00 1.013934e+00 1.000000e-06
<GCONST> 5.804302e+01
<MIXTURE> 4 1.671429e-02
<MEAN> 25
 3.409841e+00 2.745859e+00 -3.730795e+00 8.345909e-01 4.319594e+00 4.368055e-01 5.489718e-01 -9.489848e-02 1.423683e+00 1.024773e+00 -2.013956e+00 9.951595e-02 -2.670175e+00 1.309238e+00 1.639332e+00 2.978685e+00 9.592409e-01 5.739889e-01 1.569857e+00 9.233524e-01 1.015577e+00 3.565464e-01 1.142671e+00 8.456928e-01 -1.020433e-01
<VARIANCE> 25
 2.057404e+01 2.931914e+01 2.789602e+01 3.912806e+01 4.473826e+01 7.932579e+01 6.599561e+01 5.133047e+01 5.290186e+01 6.025032e+01 4.938669e+01 3.490668e+01 2.399133e+00 5.017981e+00 3.855051e+00 4.972463e+00 4.884642e+00 6.120520e+00 5.955780e+00 5.642646e+00 5.733397e+00 6.286810e+00 6.014010e+00 4.304119e+00 5.879168e-03
<GCONST> 1.052221e+02
<MIXTURE> 5 3.206198e-03
<MEAN> 25
 -3.417013e+00 2.181205e+00 6.104824e-01 9.428716e+00 6.696911e+00 6.315757e+00 7.112444e+00 4.723413e+00 5.495705e+00 3.848069e+00 4.658789e+00 2.606785e+00 -3.246801e-01 7.529564e-01 1.224789e+00 1.032675e+00 3.076568e-01 -1.001786e-01 -8.377285e-02 3.352151e-02 4.580292e-01 6.836879e-01 4.038764e-01 8.802099e-02 -2.769397e-05
<VARIANCE> 25
 1.025098e+01 1.394304e+01 2.348615e+01 2.561703e+01 2.022242e+01 1.943006e+01 2.011325e+01 2.035899e+01 2.142294e+01 2.128327e+01 2.409812e+01 1.636125e+01 1.210112e+00 1.244515e+00 1.357249e+00 1.673487e+00 2.284783e+00 2.376296e+00 2.301507e+00 2.275340e+00 2.315529e+00 2.238343e+00 2.085552e+00 1.873921e+00 1.000004e-06
<GCONST> 7.516715e+01
<MIXTURE> 6 5.475854e-03
<MEAN> 25
 9.514725e+00 -3.620072e-01 -6.564451e+00 -1.082594e+01 -2.072580e+00 6.854197e+00 -5.603330e+00 -5.346805e+00 -3.511838e+00 2.083331e+00 4.424208e+00 -1.132903e+00 4.810321e-01 8.737565e-01 -3.590214e-01 -1.432527e+00 -5.905534e-01 1.302875e+00 1.539460e+00 2.406712e-01 -1.244983e+00 -1.218218e+00 3.372587e-01 1.184285e+00 -8.457184e-03
<VARIANCE> 25
 9.615448e+00 1.714721e+01 2.347159e+01 4.138494e+01 3.541633e+01 3.022248e+01 5.027539e+01 3.962131e+01 4.008647e+01 3.951287e+01 4.184503e+01 2.840549e+01 3.458230e-01 8.579510e-01 9.366576e-01 1.993435e+00 1.635337e+00 2.012482e+00 2.002273e+00 2.055534e+00 2.455765e+00 1.923796e+00 2.200289e+00 1.439245e+00 5.717229e-04
<GCONST> 8.420572e+01
<MIXTURE> 7 5.475854e-03
<MEAN> 25
 9.514725e+00 -3.620072e-01 -6.564451e+00 -1.082594e+01 -2.072580e+00 6.854197e+00 -5.603330e+00 -5.346805e+00 -3.511838e+00 2.083331e+00 4.424208e+00 -1.132903e+00 4.810321e-01 8.737565e-01 -3.590214e-01 -1.432527e+00 -5.905534e-01 1.302875e+00 1.539460e+00 2.406712e-01 -1.244983e+00 -1.218218e+00 3.372587e-01 1.184285e+00 -8.457184e-03
<VARIANCE> 25
 9.615448e+00 1.714721e+01 2.347159e+01 4.138494e+01 3.541633e+01 3.022248e+01 5.027539e+01 3.962131e+01 4.008647e+01 3.951287e+01 4.184503e+01 2.840549e+01 3.458230e-01 8.579510e-01 9.366576e-01 1.993435e+00 1.635337e+00 2.012482e+00 2.002273e+00 2.055534e+00 2.455765e+00 1.923796e+00 2.200289e+00 1.439245e+00 5.717229e-04
<GCONST> 8.420572e+01
<MIXTURE> 8 1.165917e-02
<MEAN> 25
 -4.728588e+00 1.362255e+00 1.291812e+00 9.559577e+00 6.575381e+00 6.254288e+00 6.479666e+00 5.685906e+00 6.657284e+00 5.630367e+00 6.570375e+00 3.153425e+00 -6.294588e-01 -1.426049e+00 -1.070559e+00 -1.730556e+00 -2.310573e-01 -9.459009e-01 -1.789995e-01 -2.889152e-01 -2.527535e-01 -1.735453e-01 -2.127184e-01 8.111297e-02 9.888726e-02
<VARIANCE> 25
 9.346381e+00 9.846813e+00 1.161198e+01 1.605699e+01 1.663528e+01 1.570936e+01 1.812586e+01 1.753212e+01 1.705190e+01 1.738585e+01 1.891123e+01 1.399380e+01 2.756942e+00 2.815192e+00 3.907985e+00 3.762467e+00 3.455375e+00 3.316060e+00 3.134663e+00 3.082419e+00 2.871512e+00 2.655929e+00 2.435967e+00 1.902141e+00 6.680766e-03
<GCONST> 8.629532e+01
<MIXTURE> 9 1.199672e-02
<MEAN> 25
 8.378976e+00 4.304593e+00 -5.213891e+00 -1.136217e+01 -2.876846e+00 6.913990e+00 -4.029692e+00 -8.668118e-01 -3.938004e+00 -2.920158e+00 1.070464e+00 -2.229521e+00 1.115496e+00 -1.642671e-01 1.982704e-02 -2.760952e+00 -2.208535e+00 4.784272e-01 -1.903391e+00 7.647659e-01 -3.234453e-01 -5.078108e-01 5.285330e-01 -4.975701e-01 7.112192e-02
<VARIANCE> 25
 1.098579e+01 1.831325e+01 2.938664e+01 4.876812e+01 4.955965e+01 3.211916e+01 6.056313e+01 4.951543e+01 3.496211e+01 3.889180e+01 2.716378e+01 3.011731e+01 1.951656e+00 1.863506e+00 4.429252e+00 4.122783e+00 5.269850e+00 3.620302e+00 6.136596e+00 6.584187e+00 3.869326e+00 3.212810e+00 3.352670e+00 2.634511e+00 1.767516e-03
<GCONST> 9.702329e+01
<MIXTURE> 10 6.596976e-03
<MEAN> 25
 8.165867e-01 7.637578e+00 5.332491e+00 7.141475e+00 1.569054e+00 -2.120370e+00 -4.626211e-01 -1.689030e+00 8.813735e-01 8.335011e-01 8.188472e-01 6.549079e-01 -1.917976e+00 -6.568859e-01 -4.664898e-01 3.014323e+00 2.465919e+00 2.716857e+00 2.372330e+00 2.262461e+00 1.858731e+00 1.540528e+00 2.318135e+00 5.185718e-01 -1.378385e-01
<VARIANCE> 25
 1.947938e+01 2.066813e+01 2.261303e+01 2.893836e+01 3.822116e+01 3.495012e+01 3.565676e+01 3.373125e+01 2.751891e+01 2.909876e+01 2.716166e+01 2.496026e+01 2.236597e+00 3.483515e+00 5.525212e+00 5.185118e+00 5.533412e+00 4.466824e+00 4.682798e+00 4.898217e+00 4.377627e+00 5.011158e+00 4.486067e+00 3.193384e+00 2.703828e-03
<GCONST> 9.750842e+01
<MIXTURE> 11 1.633820e-02
<MEAN> 25
 7.352451e+00 3.757142e+00 2.546200e+00 4.715990e+00 -3.204161e+00 -1.379557e+00 -4.153476e-01 -6.431908e+00 -2.836288e+00 1.119404e+00 -2.099095e+00 -1.488124e+00 -2.492608e-01 5.754457e-01 -6.835137e-03 1.407401e-01 4.093190e-01 -3.282328e-02 2.601781e-01 -3.789287e-01 -2.069072e-01 8.972403e-02 -1.095073e-01 2.490948e-01 -1.934341e-02
<VARIANCE> 25
 9.669233e+00 2.203912e+01 2.182315e+01 2.728512e+01 3.346753e+01 3.839377e+01 5.325090e+01 3.933767e+01 4.282294e+01 3.525138e+01 3.201753e+01 3.561586e+01 8.262465e-01 1.217440e+00 1.881003e+00 2.180654e+00 1.769904e+00 2.067823e+00 2.052277e+00 3.117496e+00 2.598185e+00 2.557562e+00 2.238946e+00 1.394786e+00 1.132491e-03
<GCONST> 8.768232e+01
<MIXTURE> 12 5.904134e-03
<MEAN> 25
 1.040248e+01 3.989483e+00 -4.085927e+00 -1.641010e+01 -9.139027e+00 8.852830e+00 -1.871960e+00 -1.005557e+00 -1.604916e+00 -5.055209e+00 1.695427e+00 -4.946804e-02 7.092167e-02 3.089326e-01 1.665402e-01 -3.774529e-01 -3.594505e-01 3.780754e-02 2.663304e-01 4.804276e-01 1.247235e-01 -2.394188e-01 -2.852429e-01 1.661898e-02 -4.464658e-03
<VARIANCE> 25
 1.005630e+01 2.051103e+01 2.442436e+01 3.555672e+01 4.240013e+01 2.952172e+01 5.251242e+01 5.754280e+01 4.142514e+01 3.568580e+01 3.569206e+01 3.504788e+01 2.352355e-01 6.508939e-01 7.527583e-01 1.210327e+00 1.171344e+00 9.924262e-01 1.121263e+00 1.380568e+00 1.203093e+00 1.447403e+00 1.311287e+00 9.336966e-01 5.884076e-04
<GCONST> 7.955573e+01
<MIXTURE> 13 5.904134e-03
<MEAN> 25
 1.040248e+01 3.989483e+00 -4.085927e+00 -1.641010e+01 -9.139027e+00 8.852830e+00 -1.871960e+00 -1.005557e+00 -1.604916e+00 -5.055209e+00 1.695427e+00 -4.946804e-02 7.092167e-02 3.089326e-01 1.665402e-01 -3.774529e-01 -3.594505e-01 3.780754e-02 2.663304e-01 4.804276e-01 1.247235e-01 -2.394188e-01 -2.852429e-01 1.661898e-02 -4.464658e-03
<VARIANCE> 25
 1.005630e+01 2.051103e+01 2.442436e+01 3.555672e+01 4.240013e+01 2.952172e+01 5.251242e+01 5.754280e+01 4.142514e+01 3.568580e+01 3.569206e+01 3.504788e+01 2.352355e-01 6.508939e-01 7.527583e-01 1.210327e+00 1.171344e+00 9.924262e-01 1.121263e+00 1.380568e+00 1.203093e+00 1.447403e+00 1.311287e+00 9.336966e-01 5.884076e-04
<GCONST> 7.955573e+01
<MIXTURE> 14 6.488954e-03
<MEAN> 25
 -4.313757e+00 -3.744003e-01 -3.193796e-01 8.909828e+00 7.514083e+00 7.379188e+00 7.834971e+00 7.308302e+00 7.249638e+00 5.218304e+00 6.853838e+00 4.101815e+00 -2.750840e-01 1.925537e-01 3.648390e-01 3.118120e-01 1.009154e-02 6.185954e-02 9.542167e-02 1.748750e-01 2.944440e-01 5.408836e-01 5.058951e-01 7.743628e-02 -9.305523e-03
<VARIANCE> 25
 9.324103e+00 1.387033e+01 1.866193e+01 1.783795e+01 2.089179e+01 1.958522e+01 2.147371e+01 2.085671e+01 2.008340e+01 2.393930e+01 2.150363e+01 1.595907e+01 9.616895e-01 1.641639e+00 1.772298e+00 1.934601e+00 2.250744e+00 2.259615e+00 2.256546e+00 2.242944e+00 2.285781e+00 2.506902e+00 2.194679e+00 1.812655e+00 1.030470e-03
<GCONST> 8.193513e+01
<MIXTURE> 15 2.475190e-03
<MEAN> 25
 -5.424104e+00 -6.444228e-01 -2.011948e-01 7.368020e+00 5.719728e+00 5.701523e+00 6.060597e+00 4.979655e+00 5.164851e+00 4.154551e+00 5.502402e+00 2.539962e+00 -1.212346e-01 -2.916862e-02 7.500418e-02 2.436760e-01 4.894040e-01 7.865168e-01 1.072446e+00 1.182141e+00 1.059321e+00 7.561350e-01 4.197349e-01 1.534032e-01 -8.263445e-05
<VARIANCE> 25
 6.984151e+00 5.606074e+00 9.032881e+00 1.281365e+01 1.407832e+01 1.429724e+01 1.492043e+01 1.489847e+01 1.410044e+01 1.418376e+01 1.510192e+01 1.250873e+01 1.247606e-01 2.061875e-01 3.197811e-01 5.030959e-01 6.995990e-01 7.936963e-01 7.631562e-01 7.916138e-01 9.090421e-01 1.023956e+00 1.071348e+00 1.041232e+00 2.795582e-05
<GCONST> 5.858709e+01
<MIXTURE> 16 2.475190e-03
<MEAN> 25
 -5.424104e+00 -6.444228e-01 -2.011948e-01 7.368020e+00 5.719728e+00 5.701523e+00 6.060597e+00 4.979655e+00 5.164851e+00 4.154551e+00 5.502402e+00 2.539962e+00 -1.212346e-01 -2.916862e-02 7.500418e-02 2.436760e-01 4.894040e-01 7.865168e-01 1.072446e+00 1.182141e+00 1.059321e+00 7.561350e-01 4.197349e-01 1.534032e-01 -8.263445e-05
<VARIANCE> 25
 6.984151e+00 5.606074e+00 9.032881e+00 1.281365e+01 1.407832e+01 1.429724e+01 1.492043e+01 1.489847e+01 1.410044e+01 1.418376e+01 1.510192e+01 1.250873e+01 1.247606e-01 2.061875e-01 3.197811e-01 5.030959e-01 6.995990e-01 7.936963e-01 7.631562e-01 7.916138e-01 9.090421e-01 1.023956e+00 1.071348e+00 1.041232e+00 2.795582e-05
<GCONST> 5.858709e+01
<MIXTURE> 17 9.518312e-03
<MEAN> 25
 3.406914e+00 -2.093225e+00 5.625041e+00 1.960838e+00 -4.135235e+00 -6.835929e+00 -4.723179e+00 8.830183e-01 -2.491476e+00 -3.005649e+00 1.545842e+00 -6.317797e-01 -5.072457e-01 -1.220375e+00 1.857587e+00 -2.267446e+00 -2.296225e+00 -7.427339e-01 -1.914578e-03 1.144349e+00 -9.581553e-01 2.707456e-01 1.062943e+00 9.871883e-01 7.786135e-02
<VARIANCE> 25
 1.199852e+01 2.756623e+01 2.531446e+01 2.923009e+01 4.014426e+01 4.402029e+01 5.692234e+01 3.371783e+01 4.111882e+01 2.286860e+01 2.191990e+01 3.142478e+01 1.345397e+00 2.420091e+00 3.157980e+00 2.550096e+00 3.299061e+00 4.748023e+00 5.712207e+00 5.194724e+00 3.556987e+00 4.095844e+00 2.402700e+00 3.172759e+00 1.521600e-03
<GCONST> 9.440321e+01
<MIXTURE> 18 1.221018e-02
<MEAN> 25
 2.860313e+00 4.097663e+00 4.310446e+00 4.941252e+00 -4.540693e+00 -7.593493e+00 1.620812e+00 -1.210587e+00 -2.243692e+00 -2.945030e+00 -6.500390e-01 8.118663e-01 -5.908706e-01 2.360616e+00 -1.036862e+00 1.626540e+00 2.613445e+00 2.102621e+00 1.273315e+00 -4.552327e-01 1.234563e+00 2.675059e-01 -5.931972e-01 -5.171718e-01 -1.092488e-01
<VARIANCE> 25
 1.335609e+01 2.616631e+01 3.531722e+01 1.922643e+01 2.956878e+01 3.438541e+01 4.638367e+01 2.908311e+01 3.253552e+01 2.673070e+01 3.381615e+01 3.398436e+01 2.190335e+00 3.327424e+00 4.138888e+00 3.383321e+00 3.551847e+00 4.898162e+00 3.848732e+00 4.262486e+00 3.722981e+00 3.570388e+00 3.338742e+00 2.985177e+00 3.389490e-03
<GCONST> 9.574931e+01
<MIXTURE> 19 9.912824e-03
<MEAN> 25
 -1.037713e+01 1.837113e+00 -3.126472e-01 1.490161e+00 4.001348e+00 1.528335e+00 3.949132e+00 8.225898e-01 2.543717e+00 8.860136e-01 1.187228e+00 2.633438e+00 2.096676e+00 1.669517e+00 2.220379e+00 7.196174e-01 -1.091085e+00 -1.169226e+00 -1.051385e+00 -1.416571e+00 -1.652802e+00 -1.128302e+00 -8.312960e-01 -8.404577e-01 7.200079e-04
<VARIANCE> 25
 5.453701e+01 2.970644e+01 5.152402e+01 5.393257e+01 3.207212e+01 3.290696e+01 3.335772e+01 2.971826e+01 3.147478e+01 2.667271e+01 2.866035e+01 2.444213e+01 2.324872e+00 2.201775e+00 2.310128e+00 2.246586e+00 2.445355e+00 2.448760e+00 2.326441e+00 2.291125e+00 2.474673e+00 1.950771e+00 2.136970e+00 1.745346e+00 2.274157e-03
<GCONST> 9.195965e+01
<MIXTURE> 20 6.308331e-03
<MEAN> 25
 -1.431744e+01 7.744209e+00 7.345342e-01 6.299150e+00 5.149320e+00 1.626515e+00 5.520501e+00 6.384026e-01 9.901432e-01 5.731937e-01 2.404913e+00 -3.557591e-01 -3.262722e+00 -8.442849e-01 -1.509143e+00 3.521194e-01 1.588442e+00 1.970660e+00 1.912345e+00 1.961275e+00 2.068941e+00 2.001634e+00 1.680701e+00 9.278075e-01 4.983192e-02
<VARIANCE> 25
 1.938323e+01 2.515975e+01 3.025350e+01 3.625189e+01 3.187954e+01 2.682482e+01 3.100760e+01 3.127885e+01 2.700339e+01 2.827857e+01 2.479877e+01 2.033563e+01 2.031776e+00 2.113640e+00 1.907831e+00 2.458070e+00 2.664618e+00 2.417013e+00 2.319431e+00 2.445109e+00 2.280641e+00 2.582438e+00 2.157216e+00 1.801692e+00 1.972872e-03
<GCONST> 8.912952e+01
<MIXTURE> 21 7.928653e-03
<MEAN> 25
 3.961785e+00 -5.998497e+00 5.667552e+00 -1.068919e+00 -8.751930e+00 -9.667382e+00 -4.091650e+00 5.331331e+00 -4.279607e+00 -5.854461e-01 1.745244e+00 7.372786e-02 -6.305870e-01 1.191883e+00 2.168452e+00 8.528697e-02 -1.593958e+00 2.569888e-01 1.473855e+00 -1.441178e+00 -1.838140e+00 4.577403e-01 1.070916e+00 6.432179e-01 -9.931686e-03
<VARIANCE> 25
 6.086672e+00 2.091904e+01 2.402798e+01 2.521768e+01 2.674581e+01 2.509164e+01 3.904074e+01 4.718607e+01 3.904314e+01 3.410131e+01 2.809332e+01 1.703866e+01 2.961349e-01 9.833046e-01 1.648320e+00 1.302559e+00 1.582567e+00 2.115118e+00 4.567047e+00 1.969981e+00 2.295698e+00 2.453058e+00 2.255327e+00 1.853666e+00 7.950299e-04
<GCONST> 8.355014e+01
<MIXTURE> 22 8.827789e-03
<MEAN> 25
 -1.719696e+01 6.994074e+00 -7.352425e+00 9.698079e+00 6.294765e+00 5.045302e-01 9.563277e+00 -1.158253e+00 7.539562e+00 -4.568024e-01 2.352326e+00 3.374568e+00 -4.279909e-01 -3.360552e-01 -1.252503e-01 -1.523261e-01 -1.514226e-01 -1.263596e-01 2.509069e-01 3.398505e-01 3.092925e-01 2.413274e-01 3.680080e-01 4.224368e-01 1.999664e-02
<VARIANCE> 25
 8.782430e+00 1.892564e+01 2.407300e+01 2.198993e+01 1.600558e+01 1.672851e+01 1.249980e+01 2.188048e+01 2.365819e+01 2.169891e+01 2.217092e+01 1.445503e+01 7.674853e-01 1.065385e+00 9.864808e-01 1.566943e+00 1.029333e+00 1.355929e+00 9.579384e-01 1.306831e+00 1.146864e+00 1.050155e+00 1.478084e+00 1.077724e+00 1.118869e-03
<GCONST> 7.519241e+01
<MIXTURE> 23 6.455497e-03
<MEAN> 25
 7.488066e+00 1.534050e+00 3.881709e+00 1.299141e+00 -4.809902e+00 -8.419900e-01 -4.016262e+00 -6.539245e+00 -2.711203e+00 -1.227141e+00 -5.473885e+00 -2.061938e+00 4.903391e-03 1.886064e-01 4.062873e-02 -6.228848e-02 -9.475186e-03 4.704261e-02 -1.376563e-01 -5.470915e-02 -1.878502e-02 2.652039e-02 -9.918349e-02 1.647035e-02 -2.541692e-03
<VARIANCE> 25
 1.036807e+01 2.483908e+01 2.664773e+01 4.346703e+01 3.327708e+01 7.849041e+01 5.396848e+01 4.834863e+01 4.555101e+01 4.209474e+01 5.406571e+01 3.547564e+01 1.110267e-01 2.883578e-01 3.500246e-01 5.336242e-01 5.371399e-01 6.927156e-01 8.449662e-01 8.022748e-01 9.469773e-01 8.891676e-01 8.403338e-01 6.730545e-01 9.820517e-05
<GCONST> 7.293823e+01
<MIXTURE> 24 6.455497e-03
<MEAN> 25
 7.488066e+00 1.534050e+00 3.881709e+00 1.299141e+00 -4.809902e+00 -8.419900e-01 -4.016262e+00 -6.539245e+00 -2.711203e+00 -1.227141e+00 -5.473885e+00 -2.061938e+00 4.903391e-03 1.886064e-01 4.062873e-02 -6.228848e-02 -9.475186e-03 4.704261e-02 -1.376563e-01 -5.470915e-02 -1.878502e-02 2.652039e-02 -9.918349e-02 1.647035e-02 -2.541692e-03
<VARIANCE> 25
 1.036807e+01 2.483908e+01 2.664773e+01 4.346703e+01 3.327708e+01 7.849041e+01 5.396848e+01 4.834863e+01 4.555101e+01 4.209474e+01 5.406571e+01 3.547564e+01 1.110267e-01 2.883578e-01 3.500246e-01 5.336242e-01 5.371399e-01 6.927156e-01 8.449662e-01 8.022748e-01 9.469773e-01 8.891676e-01 8.403338e-01 6.730545e-01 9.820517e-05
<GCONST> 7.293823e+01
<MIXTURE> 25 1.118642e-02
<MEAN> 25
 2.583413e-01 3.035486e+00 1.645735e+01 -1.057670e+00 -1.113914e+01 -2.152648e+00 -4.749051e+00 -3.062142e+00 -6.879448e+00 -5.045654e+00 4.155475e+00 -1.050835e+00 -1.578251e-01 4.328313e-01 1.377813e-01 1.990006e-01 1.668784e-01 3.677524e-02 2.445968e-01 -1.954058e-01 -2.917537e-01 4.378217e-02 -1.141768e-01 -7.793748e-02 -1.168806e-02
<VARIANCE> 25
 8.728992e+00 2.531904e+01 2.173559e+01 2.723489e+01 3.087903e+01 4.204246e+01 2.719440e+01 2.905058e+01 2.700063e+01 3.774006e+01 1.993004e+01 3.283051e+01 5.817772e-01 1.404727e+00 1.516185e+00 1.373933e+00 2.259187e+00 2.035441e+00 1.723278e+00 1.577064e+00 1.515191e+00 1.589093e+00 1.341807e+00 1.311913e+00 1.257375e-03
<GCONST> 8.280260e+01
<MIXTURE> 26 7.727677e-03
<MEAN> 25
 2.206247e+00 -5.142415e+00 -9.680532e+00 -1.026233e+00 8.088959e+00 7.047962e+00 4.584333e+00 -6.372071e-01 2.451862e+00 -1.010166e+00 -2.885569e+00 -1.084088e+00 -6.968095e-01 6.899523e-01 2.667803e-01 6.666570e-01 1.333582e-01 8.794554e-02 3.429161e-01 1.626077e-01 4.533761e-01 8.489813e-02 5.277591e-01 4.715557e-01 -5.108437e-02
<VARIANCE> 25
 2.272524e+01 4.277246e+01 2.602044e+01 5.787598e+01 3.589601e+01 6.093674e+01 4.397527e+01 4.016082e+01 3.588874e+01 4.936660e+01 3.787403e+01 4.281691e+01 1.498587e+00 1.927544e+00 1.779556e+00 1.815647e+00 2.163413e+00 2.403145e+00 2.400179e+00 2.713666e+00 2.598305e+00 2.173944e+00 2.190343e+00 1.791873e+00 3.073001e-03
<GCONST> 9.325087e+01
<MIXTURE> 27 7.727677e-03
<MEAN> 25
 2.206247e+00 -5.142415e+00 -9.680532e+00 -1.026233e+00 8.088959e+00 7.047962e+00 4.584333e+00 -6.372071e-01 2.451862e+00 -1.010166e+00 -2.885569e+00 -1.084088e+00 -6.968095e-01 6.899523e-01 2.667803e-01 6.666570e-01 1.333582e-01 8.794554e-02 3.429161e-01 1.626077e-01 4.533761e-01 8.489813e-02 5.277591e-01 4.715557e-01 -5.108437e-02
<VARIANCE> 25
 2.272524e+01 4.277246e+01 2.602044e+01 5.787598e+01 3.589601e+01 6.093674e+01 4.397527e+01 4.016082e+01 3.588874e+01 4.936660e+01 3.787403e+01 4.281691e+01 1.498587e+00 1.927544e+00 1.779556e+00 1.815647e+00 2.163413e+00 2.403145e+00 2.400179e+00 2.713666e+00 2.598305e+00 2.173944e+00 2.190343e+00 1.791873e+00 3.073001e-03
<GCONST> 9.325087e+01
<MIXTURE> 28 5.036674e-03
<MEAN> 25
 -5.451643e+00 1.172903e-02 -1.569330e+00 6.616287e+00 5.232500e+00 3.518181e+00 5.416431e+00 3.130172e+00 3.922906e+00 2.394200e+00 2.638351e+00 3.220446e+00 -1.152358e-01 2.232223e-01 5.287618e-01 7.848936e-01 8.221655e-01 7.029542e-01 5.231987e-01 3.920046e-01 4.448535e-01 4.824229e-01 3.710276e-01 1.896353e-01 -1.242595e-05
<VARIANCE> 25
 1.043377e+01 8.352378e+00 1.216023e+01 1.484366e+01 1.471105e+01 1.773206e+01 1.804039e+01 1.901551e+01 1.718463e+01 1.673153e+01 2.060886e+01 1.500367e+01 2.565389e-01 3.365524e-01 4.068339e-01 4.641571e-01 6.216307e-01 8.470523e-01 1.056479e+00 1.144800e+00 1.102591e+00 1.029909e+00 1.036744e+00 1.066795e+00 1.000000e-06
<GCONST> 6.025220e+01
<MIXTURE> 29 5.036674e-03
<MEAN> 25
 -5.451643e+00 1.172903e-02 -1.569330e+00 6.616287e+00 5.232500e+00 3.518181e+00 5.416431e+00 3.130172e+00 3.922906e+00 2.394200e+00 2.638351e+00 3.220446e+00 -1.152358e-01 2.232223e-01 5.287618e-01 7.848936e-01 8.221655e-01 7.029542e-01 5.231987e-01 3.920046e-01 4.448535e-01 4.824229e-01 3.710276e-01 1.896353e-01 -1.242595e-05
<VARIANCE> 25
 1.043377e+01 8.352378e+00 1.216023e+01 1.484366e+01 1.471105e+01 1.773206e+01 1.804039e+01 1.901551e+01 1.718463e+01 1.673153e+01 2.060886e+01 1.500367e+01 2.565389e-01 3.365524e-01 4.068339e-01 4.641571e-01 6.216307e-01 8.470523e-01 1.056479e+00 1.144800e+00 1.102591e+00 1.029909e+00 1.036744e+00 1.066795e+00 1.000000e-06
<GCONST> 6.025220e+01
<MIXTURE> 30 8.917812e-03
<MEAN> 25
 -4.494856e+00 -1.955844e-01 6.549833e-01 9.089485e+00 7.776258e+00 7.510958e+00 7.584587e+00 6.881296e+00 6.534019e+00 4.897042e+00 7.013437e+00 3.502835e+00 -2.377401e-02 3.039365e-02 5.648663e-02 8.878811e-02 8.156331e-02 4.432442e-02 1.351708e-02 -3.020081e-03 1.724336e-02 5.153413e-02 6.148052e-02 3.488803e-02 -5.556997e-04
<VARIANCE> 25
 6.938110e+00 9.864533e+00 1.039685e+01 1.374210e+01 1.575179e+01 1.641825e+01 1.912591e+01 1.818077e+01 1.628381e+01 1.836780e+01 2.123915e+01 1.436375e+01 9.739164e-02 1.995653e-01 3.250103e-01 4.815429e-01 6.194437e-01 7.241967e-01 7.724708e-01 8.124726e-01 8.762312e-01 9.372468e-01 9.205505e-01 8.626050e-01 5.096844e-05
<GCONST> 6.058838e+01
<MIXTURE> 31 4.136493e-03
<MEAN> 25
 -3.300838e+00 -5.694251e+00 5.891757e-02 4.880937e+00 3.685240e+00 1.688395e+00 5.247960e+00 6.652807e+00 2.731512e+00 1.237259e+00 6.533951e+00 3.161019e+00 2.533194e-01 4.754423e-01 -2.119199e-01 3.093358e-01 1.201941e-01 4.235677e-01 1.914496e-01 1.397920e-02 3.796636e-01 3.820410e-01 1.063737e-01 1.165745e-01 -1.840692e-02
<VARIANCE> 25
 7.187285e+00 1.526177e+01 1.748596e+01 1.799949e+01 2.532821e+01 2.386980e+01 2.361901e+01 2.533426e+01 2.593881e+01 2.803613e+01 2.032482e+01 1.873442e+01 1.909493e-01 4.936151e-01 6.031040e-01 7.681624e-01 9.663516e-01 1.092987e+00 1.221893e+00 1.393314e+00 1.346560e+00 1.317289e+00 1.245574e+00 1.133925e+00 2.575295e-04
<GCONST> 7.183614e+01
<MIXTURE> 32 4.136493e-03
<MEAN> 25
 -3.300838e+00 -5.694251e+00 5.891757e-02 4.880937e+00 3.685240e+00 1.688395e+00 5.247960e+00 6.652807e+00 2.731512e+00 1.237259e+00 6.533951e+00 3.161019e+00 2.533194e-01 4.754423e-01 -2.119199e-01 3.093358e-01 1.201941e-01 4.235677e-01 1.914496e-01 1.397920e-02 3.796636e-01 3.820410e-01 1.063737e-01 1.165745e-01 -1.840692e-02
<VARIANCE> 25
 7.187285e+00 1.526177e+01 1.748596e+01 1.799949e+01 2.532821e+01 2.386980e+01 2.361901e+01 2.533426e+01 2.593881e+01 2.803613e+01 2.032482e+01 1.873442e+01 1.909493e-01 4.936151e-01 6.031040e-01 7.681624e-01 9.663516e-01 1.092987e+00 1.221893e+00 1.393314e+00 1.346560e+00 1.317289e+00 1.245574e+00 1.133925e+00 2.575295e-04
<GCONST> 7.183614e+01
<MIXTURE> 33 1.508826e-02
<MEAN> 25
 6.318975e+00 -4.162599e+00 -1.200250e+00 -2.798630e+00 1.952307e-01 -2.075498e+00 -6.633685e+00 4.862971e-01 2.012649e+00 1.652103e+00 -3.776858e+00 -3.339760e+00 6.190411e-01 -1.356614e+00 -2.039234e+00 -1.747737e+00 1.624366e+00 1.409244e+00 -8.875542e-01 5.065683e-01 1.002488e+00 1.001988e+00 -3.194487e-01 -1.608533e+00 3.597284e-02
<VARIANCE> 25
 8.681835e+00 1.942675e+01 2.372109e+01 3.701323e+01 4.190174e+01 5.848723e+01 4.222665e+01 3.780953e+01 3.526321e+01 4.896023e+01 2.818799e+01 2.694019e+01 1.073309e+00 2.241163e+00 2.125342e+00 1.757656e+00 3.084677e+00 3.595052e+00 3.466468e+00 5.605100e+00 3.557056e+00 5.256721e+00 3.735841e+00 2.962698e+00 1.844820e-03
<GCONST> 9.372417e+01
<MIXTURE> 34 1.588179e-02
<MEAN> 25
 8.110139e+00 -1.385483e-01 3.267210e-01 1.634038e+00 -2.863566e+00 -1.103661e+00 -4.991347e+00 -3.923277e+00 -1.653469e+00 5.677426e-01 -2.970754e+00 -3.631545e+00 7.984369e-02 1.232789e+00 1.064069e+00 1.865491e+00 1.109051e-01 5.975982e-01 1.073579e+00 -2.010836e+00 -2.763987e-01 1.971552e-01 -7.549796e-01 2.534733e-01 -6.098295e-02
<VARIANCE> 25
 8.886612e+00 2.807880e+01 2.693784e+01 4.435266e+01 3.640233e+01 4.883381e+01 5.484714e+01 6.334227e+01 4.900365e+01 3.621185e+01 4.367811e+01 3.272277e+01 1.093147e+00 1.839424e+00 4.421586e+00 4.416833e+00 5.078953e+00 8.196878e+00 5.138899e+00 7.062194e+00 6.124595e+00 5.027433e+00 4.655827e+00 3.459036e+00 1.068285e-03
<GCONST> 9.929005e+01
<MIXTURE> 35 1.467755e-02
<MEAN> 25
 -1.865666e+00 -5.017685e+00 -9.304377e+00 6.913981e-01 9.611382e+00 1.137058e+00 1.567836e+00 2.076740e+00 1.510912e+00 4.222850e+00 -3.162207e-01 1.874078e+00 5.423139e-01 -1.248142e+00 -1.214477e+00 -1.268576e+00 3.856118e-01 -9.025770e-01 -9.763156e-01 5.073020e-02 -7.474793e-02 2.292474e-01 -4.475515e-01 -5.222619e-01 1.061862e-01
<VARIANCE> 25
 1.938447e+01 2.970966e+01 4.438371e+01 6.560050e+01 3.967284e+01 5.602584e+01 5.002559e+01 4.306266e+01 4.773490e+01 3.921198e+01 3.586767e+01 3.086562e+01 3.230128e+00 3.512467e+00 6.815887e+00 5.402008e+00 4.942663e+00 5.350999e+00 5.752748e+00 4.750572e+00 4.796466e+00 4.314286e+00 4.367460e+00 3.623194e+00 4.928985e-03
<GCONST> 1.033018e+02
<MIXTURE> 36 1.093293e-02
<MEAN> 25
 4.846887e+00 -3.707821e+00 7.108522e+00 2.646058e+00 -9.917557e+00 -8.983461e+00 -6.054630e+00 2.966994e+00 -2.144993e+00 -4.150167e+00 2.906195e+00 8.811750e-03 3.568814e-01 1.794963e-01 -9.109759e-01 3.931493e-02 8.190142e-01 2.129374e-02 -3.762512e-01 -3.581181e-02 4.279414e-01 5.783560e-01 -4.528146e-01 -3.086440e-01 -1.573619e-02
<VARIANCE> 25
 1.035783e+01 1.708500e+01 2.156470e+01 2.709412e+01 3.147578e+01 3.432446e+01 4.621395e+01 3.644411e+01 3.926848e+01 3.511590e+01 2.684424e+01 2.854429e+01 5.410259e-01 7.314346e-01 1.539126e+00 1.239541e+00 1.666566e+00 1.636987e+00 2.350128e+00 1.775033e+00 2.063389e+00 1.713913e+00 1.412623e+00 1.431608e+00 7.706260e-04
<GCONST> 8.272788e+01
<MIXTURE> 37 1.246826e-02
<MEAN> 25
 5.909334e-01 7.622075e+00 1.200883e+01 -5.479255e+00 -8.038739e+00 -1.114038e+00 -4.888506e+00 -8.214591e+00 -3.737151e+00 -8.642238e-01 -3.604206e+00 -1.323420e+00 1.751736e-01 6.745573e-01 -1.371499e+00 3.567595e+00 1.952698e+00 -2.719434e-01 1.106666e+00 4.119311e-01 5.698557e-01 -3.173361e-01 5.157762e-01 -1.264710e-01 -9.534761e-02
<VARIANCE> 25
 1.576927e+01 2.683798e+01 3.070864e+01 5.094921e+01 3.341953e+01 3.207032e+01 4.553461e+01 3.515687e+01 3.821308e+01 3.560532e+01 3.766398e+01 3.106237e+01 2.908160e+00 3.410645e+00 2.995241e+00 4.069331e+00 4.611275e+00 3.757838e+00 4.249761e+00 3.786973e+00 3.511316e+00 3.587786e+00 3.862767e+00 2.815943e+00 3.913759e-03
<GCONST> 9.778857e+01
<MIXTURE> 38 1.154525e-02
<MEAN> 25
 -4.756220e+00 1.001493e+01 2.872684e+00 3.426522e+00 8.178568e-01 -4.488688e+00 1.284474e+00 -2.358208e+00 -2.404096e+00 -3.870366e+00 -1.165284e+00 7.484577e-02 -4.223562e+00 1.500996e+00 -3.310226e-01 1.194568e+00 2.619271e+00 1.390485e+00 1.572376e+00 6.461012e-01 7.681538e-01 2.762684e-01 5.622175e-01 -9.840911e-03 5.064688e-02
<VARIANCE> 25
 2.718196e+01 2.931497e+01 4.039214e+01 2.665026e+01 4.212686e+01 3.007668e+01 4.004951e+01 3.400686e+01 2.882694e+01 2.853289e+01 2.361050e+01 2.927360e+01 2.173079e+00 3.888098e+00 3.471728e+00 4.687162e+00 3.556040e+00 4.122714e+00 4.475315e+00 3.991572e+00 4.496319e+00 4.402646e+00 4.227533e+00 2.911362e+00 2.232366e-03
<GCONST> 9.710336e+01
<MIXTURE> 39 9.501865e-03
<MEAN> 25
 1.688103e+00 1.917699e+00 1.003361e+01 -8.709864e+00 -1.058410e+01 5.908778e-01 -2.630408e+00 -6.708104e+00 -3.789191e+00 6.948805e-01 -4.592755e+00 -2.085931e+00 -6.174642e-01 1.303861e+00 1.526130e+00 -1.431157e+00 1.246716e-01 1.408492e+00 -9.927575e-01 -1.404594e+00 4.794608e-01 3.717074e-01 -5.562534e-01 9.155716e-02 6.641224e-04
<VARIANCE> 25
 8.694600e+00 3.015204e+01 2.846761e+01 3.735607e+01 3.652958e+01 5.793834e+01 4.276957e+01 3.066520e+01 4.006234e+01 3.014916e+01 4.032824e+01 2.653975e+01 7.378266e-01 1.757673e+00 1.498142e+00 2.621210e+00 2.208633e+00 3.356711e+00 3.343069e+00 3.244965e+00 2.587184e+00 2.645124e+00 2.159380e+00 1.885313e+00 1.071197e-03
<GCONST> 8.989723e+01
<MIXTURE> 40 1.030800e-02
<MEAN> 25
 -9.252747e+00 2.321116e+00 -1.538921e+00 8.055916e+00 3.942659e+00 5.389177e+00 5.523430e+00 3.759724e+00 4.794058e+00 3.823683e+00 5.429593e+00 1.875796e+00 -1.223491e-01 -2.028293e-01 -4.057244e-02 -2.079242e-01 -7.795193e-02 -1.569331e-01 7.613889e-02 4.778795e-02 -4.453837e-02 -6.179929e-03 1.123160e-01 6.639896e-02 4.642006e-03
<VARIANCE> 25
 4.328946e+01 2.127637e+01 3.132260e+01 3.080974e+01 2.574582e+01 2.146471e+01 1.938384e+01 2.163536e+01 1.871229e+01 2.061558e+01 1.942064e+01 1.497874e+01 7.372146e-01 7.667530e-01 8.462353e-01 1.083139e+00 1.159399e+00 1.265494e+00 1.274746e+00 1.330168e+00 1.251824e+00 1.191490e+00 1.200219e+00 1.067269e+00 8.676240e-04
<GCONST> 7.747778e+01
<MIXTURE> 41 6.713375e-03
<MEAN> 25
 1.354327e+00 1.665301e+00 1.044002e+01 -6.902543e+00 -1.039603e+01 -3.944888e+00 -2.588878e+00 -4.908473e+00 -4.734253e+00 2.585119e+00 -1.684344e+00 -9.394665e-01 7.575648e-02 -7.456636e-01 1.704696e+00 -3.547580e+00 -2.459419e+00 -1.090230e-01 -4.495643e-01 -3.853900e-01 -8.592613e-01 1.118537e+00 -1.019967e+00 1.215623e-01 8.567240e-02
<VARIANCE> 25
 1.161239e+01 3.003954e+01 3.214511e+01 3.974751e+01 3.837651e+01 4.221672e+01 3.780193e+01 3.098625e+01 3.381369e+01 2.875823e+01 3.237244e+01 2.682538e+01 3.125271e+00 3.267275e+00 3.827567e+00 3.770108e+00 4.895624e+00 5.819831e+00 4.928314e+00 4.598680e+00 4.035417e+00 4.261242e+00 3.850368e+00 3.268722e+00 2.914270e-03
<GCONST> 9.805923e+01
<MIXTURE> 42 1.106211e-02
<MEAN> 25
 -2.750654e+00 5.190379e+00 3.283914e+00 3.239229e+00 7.032997e-02 -7.857240e+00 1.278256e+00 -8.822650e-01 -1.964492e+00 -2.604978e+00 -1.242851e+00 3.006861e+00 4.026875e+00 -1.508653e+00 1.739343e+00 2.355149e-01 -2.653476e+00 -9.198657e-01 -2.563777e+00 -2.720796e-01 -6.294649e-01 -8.162036e-01 1.599768e-01 -1.273501e+00 -2.863655e-03
<VARIANCE> 25
 2.967219e+01 2.376556e+01 3.880771e+01 2.395847e+01 2.950536e+01 3.651035e+01 3.861612e+01 2.518659e+01 2.375229e+01 2.427759e+01 2.065498e+01 2.609588e+01 2.745192e+00 6.343131e+00 5.072532e+00 3.781113e+00 3.676424e+00 6.301582e+00 4.254729e+00 4.566397e+00 6.247957e+00 3.783189e+00 3.509730e+00 3.564988e+00 4.109249e-03
<GCONST> 9.796500e+01
<MIXTURE> 43 7.108249e-03
<MEAN> 25
 3.166550e+00 -6.303188e+00 -2.246594e+00 -5.176571e+00 -7.397249e+00 -3.407754e+00 4.141997e+00 1.306059e+00 -5.063131e+00 -7.081852e+00 -4.317585e+00 -1.251193e+00 2.373005e-01 2.164625e+00 1.910592e+00 -1.320830e-01 -1.429441e+00 -7.934325e-01 -9.678702e-01 -7.810127e-01 8.205122e-01 1.467979e+00 3.426419e-01 2.063283e-02 -4.513292e-02
<VARIANCE> 25
 9.590405e+00 1.970134e+01 2.733454e+01 3.530888e+01 3.837944e+01 3.664888e+01 3.326258e+01 3.981676e+01 3.962521e+01 3.875216e+01 2.656449e+01 2.964020e+01 6.903839e-01 1.248240e+00 1.579499e+00 2.491441e+00 2.374053e+00 2.383786e+00 2.655106e+00 3.026047e+00 2.608187e+00 2.580045e+00 2.330736e+00 1.918237e+00 9.459023e-04
<GCONST> 8.798255e+01
<MIXTURE> 44 7.328289e-03
<MEAN> 25
 -1.524097e+01 1.669978e+00 3.409589e+00 -3.197154e+00 3.397418e+00 2.022112e+00 1.241833e-01 2.350256e+00 1.551659e+00 -8.138438e-01 1.844278e+00 2.065119e+00 -1.730733e-01 8.268396e-03 1.582203e-01 2.983247e-01 -1.015406e-01 1.615269e-01 4.726326e-01 1.183204e-01 2.399433e-01 1.320045e-01 6.367619e-02 1.136187e-01 5.158181e-03
<VARIANCE> 25
 4.264738e+01 2.942795e+01 3.612527e+01 3.074692e+01 2.921168e+01 3.049188e+01 2.608036e+01 3.213657e+01 2.786505e+01 2.747543e+01 2.702262e+01 1.972488e+01 1.220606e+00 1.548590e+00 1.381604e+00 1.336565e+00 2.159183e+00 1.702145e+00 1.499522e+00 1.660054e+00 1.569182e+00 1.499756e+00 1.355077e+00 1.231620e+00 1.298181e-03
<GCONST> 8.472195e+01
<MIXTURE> 45 1.364932e-02
<MEAN> 25
 -1.131983e+01 6.564049e+00 -2.532602e+00 3.260710e+00 5.304472e+00 -1.210422e-01 6.320053e+00 1.554647e+00 3.643779e+00 -2.012077e-02 2.290847e+00 3.066089e+00 -2.647608e+00 9.579334e-01 -4.419188e-01 -3.160574e-01 8.856433e-01 8.703768e-02 4.275484e-01 9.427745e-04 -3.693162e-02 -8.035439e-02 1.185829e-01 -8.207536e-02 9.562070e-02
<VARIANCE> 25
 2.987666e+01 3.847053e+01 2.623964e+01 3.389255e+01 2.967457e+01 2.077211e+01 2.783998e+01 2.361322e+01 2.231539e+01 2.529949e+01 2.361435e+01 1.673068e+01 2.022026e+00 2.837795e+00 2.055796e+00 2.130037e+00 2.622603e+00 2.608535e+00 1.787205e+00 1.711941e+00 2.073990e+00 1.805936e+00 1.735248e+00 1.409932e+00 3.955747e-03
<GCONST> 8.795953e+01
<MIXTURE> 46 9.336259e-03
<MEAN> 25
 -9.294910e+00 2.607458e+00 9.829245e-01 7.444373e+00 5.755663e+00 3.107422e+00 7.241649e+00 4.262801e+00 5.612328e+00 4.471633e+00 5.009244e+00 2.967588e+00 1.002940e+00 -1.715274e-01 2.600905e-02 9.600952e-01 6.331681e-01 9.501974e-01 3.856443e-01 6.823627e-01 4.660048e-01 4.715272e-01 5.842766e-01 4.830091e-01 -1.027667e-01
<VARIANCE> 25
 3.460345e+01 4.573696e+01 3.879596e+01 4.892332e+01 5.036725e+01 4.158105e+01 3.682077e+01 3.595243e+01 3.288390e+01 3.128221e+01 2.752802e+01 2.008449e+01 3.950874e+00 4.446517e+00 3.819326e+00 4.052340e+00 4.172240e+00 3.756561e+00 3.334530e+00 3.075566e+00 2.941332e+00 2.847749e+00 2.342902e+00 1.843527e+00 7.945710e-03
<GCONST> 9.838732e+01
<MIXTURE> 47 7.116147e-03
<MEAN> 25
 6.877619e+00 -8.255703e+00 -7.078271e+00 -6.696307e+00 3.025638e+00 1.471486e+00 -3.074137e+00 1.314922e+00 3.778745e+00 1.303893e+00 -4.440570e+00 -6.845457e+00 -2.714893e-01 -1.323846e+00 -6.633065e-01 -3.908571e-01 5.933735e-01 6.069230e-01 7.385830e-01 5.072824e-01 2.596937e-01 -8.728929e-01 -6.031467e-01 -3.513481e-01 3.283438e-02
<VARIANCE> 25
 1.095999e+01 2.560375e+01 2.091523e+01 3.064026e+01 4.822630e+01 4.939599e+01 4.388994e+01 3.647457e+01 4.461848e+01 4.951959e+01 4.394703e+01 3.017766e+01 6.022044e-01 8.087800e-01 1.049601e+00 1.569985e+00 2.032026e+00 2.337150e+00 2.340439e+00 2.467500e+00 2.233946e+00 1.937196e+00 2.204726e+00 1.898085e+00 6.499955e-04
<GCONST> 8.674090e+01
<MIXTURE> 48 7.116147e-03
<MEAN> 25
 6.877619e+00 -8.255703e+00 -7.078271e+00 -6.696307e+00 3.025638e+00 1.471486e+00 -3.074137e+00 1.314922e+00 3.778745e+00 1.303893e+00 -4.440570e+00 -6.845457e+00 -2.714893e-01 -1.323846e+00 -6.633065e-01 -3.908571e-01 5.933735e-01 6.069230e-01 7.385830e-01 5.072824e-01 2.596937e-01 -8.728929e-01 -6.031467e-01 -3.513481e-01 3.283438e-02
<VARIANCE> 25
 1.095999e+01 2.560375e+01 2.091523e+01 3.064026e+01 4.822630e+01 4.939599e+01 4.388994e+01 3.647457e+01 4.461848e+01 4.951959e+01 4.394703e+01 3.017766e+01 6.022044e-01 8.087800e-01 1.049601e+00 1.569985e+00 2.032026e+00 2.337150e+00 2.340439e+00 2.467500e+00 2.233946e+00 1.937196e+00 2.204726e+00 1.898085e+00 6.499955e-04
<GCONST> 8.674090e+01
<MIXTURE> 49 5.548473e-03
<MEAN> 25
 -5.087221e+00 3.550572e-01 1.705563e-01 8.453483e+00 6.148650e+00 5.620994e+00 6.069029e+00 4.487899e+00 5.026340e+00 3.723203e+00 4.934720e+00 2.862800e+00 3.660759e-01 6.559809e-01 7.025927e-01 3.533844e-01 -1.966393e-01 -6.695611e-01 -1.009093e+00 -1.121588e+00 -9.562032e-01 -6.807871e-01 -4.928614e-01 -2.715731e-01 -1.963715e-05
<VARIANCE> 25
 9.599345e+00 1.003857e+01 1.425570e+01 1.587743e+01 1.589421e+01 1.713921e+01 1.943473e+01 1.943550e+01 1.822959e+01 1.795004e+01 2.063309e+01 1.428863e+01 2.804154e-01 2.632189e-01 3.595213e-01 6.115644e-01 8.694127e-01 9.741262e-01 9.924766e-01 1.052685e+00 1.135251e+00 1.219558e+00 1.280734e+00 1.208621e+00 1.434704e-05
<GCONST> 6.432256e+01
<MIXTURE> 50 6.234641e-03
<MEAN> 25
 -4.667297e+00 9.274097e-02 -1.451486e+00 6.200746e+00 4.220960e+00 2.276392e+00 3.705180e+00 1.987271e+00 2.779905e+00 1.404947e+00 2.157530e+00 2.846884e+00 5.631480e-02 1.759396e-01 9.540368e-02 -1.772728e-01 -5.118390e-01 -6.152570e-01 -4.266462e-01 -5.125352e-02 4.410728e-01 7.741106e-01 7.390668e-01 4.451569e-01 -1.301583e-05
<VARIANCE> 25
 1.053794e+01 1.115888e+01 1.434672e+01 1.541858e+01 1.534401e+01 1.857921e+01 1.856904e+01 1.948717e+01 1.854696e+01 1.749004e+01 2.164972e+01 1.520352e+01 1.447876e-01 2.394428e-01 3.785429e-01 5.173824e-01 5.987353e-01 7.348699e-01 9.568260e-01 1.118142e+00 1.060243e+00 9.096958e-01 9.182222e-01 9.894410e-01 1.000000e-06
<GCONST> 5.954232e+01
<MIXTURE> 51 6.234641e-03
<MEAN> 25
 -4.667297e+00 9.274097e-02 -1.451486e+00 6.200746e+00 4.220960e+00 2.276392e+00 3.705180e+00 1.987271e+00 2.779905e+00 1.404947e+00 2.157530e+00 2.846884e+00 5.631480e-02 1.759396e-01 9.540368e-02 -1.772728e-01 -5.118390e-01 -6.152570e-01 -4.266462e-01 -5.125352e-02 4.410728e-01 7.741106e-01 7.390668e-01 4.451569e-01 -1.301583e-05
<VARIANCE> 25
 1.053794e+01 1.115888e+01 1.434672e+01 1.541858e+01 1.534401e+01 1.857921e+01 1.856904e+01 1.948717e+01 1.854696e+01 1.749004e+01 2.164972e+01 1.520352e+01 1.447876e-01 2.394428e-01 3.785429e-01 5.173824e-01 5.987353e-01 7.348699e-01 9.568260e-01 1.118142e+00 1.060243e+00 9.096958e-01 9.182222e-01 9.894410e-01 1.000000e-06
<GCONST> 5.954232e+01
<MIXTURE> 52 6.367945e-03
<MEAN> 25
 9.703753e+00 2.618019e+00 -5.014999e+00 -1.477838e+01 -5.461327e+00 9.743886e+00 -5.053141e+00 -1.349582e+00 -4.550223e+00 -1.622669e+00 4.571570e+00 -6.674675e-01 -2.238095e-01 -7.925612e-01 -4.102750e-01 1.205750e+00 1.554146e+00 -2.807246e-01 -6.121514e-01 -8.341619e-01 -1.862595e-01 1.540160e+00 7.526066e-01 -3.074287e-01 -8.545591e-03
<VARIANCE> 25
 8.567072e+00 1.980492e+01 3.013855e+01 3.411271e+01 4.505498e+01 3.242809e+01 5.942889e+01 5.428808e+01 3.914200e+01 4.126651e+01 4.299435e+01 3.480953e+01 4.870528e-01 1.967756e+00 1.946770e+00 2.324540e+00 2.597393e+00 2.349864e+00 2.592443e+00 2.639752e+00 3.204611e+00 2.608800e+00 2.841403e+00 2.410462e+00 1.390453e-03
<GCONST> 9.074928e+01
<MIXTURE> 53 6.367945e-03
<MEAN> 25
 9.703753e+00 2.618019e+00 -5.014999e+00 -1.477838e+01 -5.461327e+00 9.743886e+00 -5.053141e+00 -1.349582e+00 -4.550223e+00 -1.622669e+00 4.571570e+00 -6.674675e-01 -2.238095e-01 -7.925612e-01 -4.102750e-01 1.205750e+00 1.554146e+00 -2.807246e-01 -6.121514e-01 -8.341619e-01 -1.862595e-01 1.540160e+00 7.526066e-01 -3.074287e-01 -8.545591e-03
<VARIANCE> 25
 8.567072e+00 1.980492e+01 3.013855e+01 3.411271e+01 4.505498e+01 3.242809e+01 5.942889e+01 5.428808e+01 3.914200e+01 4.126651e+01 4.299435e+01 3.480953e+01 4.870528e-01 1.967756e+00 1.946770e+00 2.324540e+00 2.597393e+00 2.349864e+00 2.592443e+00 2.639752e+00 3.204611e+00 2.608800e+00 2.841403e+00 2.410462e+00 1.390453e-03
<GCONST> 9.074928e+01
<MIXTURE> 54 7.368620e-03
<MEAN> 25
 -3.633801e+00 4.931954e-02 -6.831419e-01 8.036570e+00 6.484003e+00 4.625407e+00 4.675332e+00 4.601055e+00 4.053099e+00 3.593801e+00 4.457477e+00 2.326298e+00 -2.133210e-03 2.653849e-02 3.415401e-02 4.748240e-02 5.136495e-02 4.707923e-02 3.888674e-02 2.892036e-02 3.080963e-02 2.506088e-02 1.452187e-02 1.778039e-03 -1.219590e-05
<VARIANCE> 25
 9.137465e+00 1.036359e+01 9.295803e+00 1.818508e+01 1.332127e+01 1.353345e+01 1.197145e+01 1.128198e+01 1.134292e+01 1.354989e+01 1.780268e+01 1.253449e+01 4.087522e-02 8.734614e-02 1.540843e-01 2.265825e-01 3.079380e-01 3.969485e-01 4.608482e-01 5.215847e-01 5.420835e-01 5.211474e-01 5.144392e-01 5.164422e-01 1.000000e-06
<GCONST> 4.724841e+01
<MIXTURE> 55 7.368620e-03
<MEAN> 25
 -3.633801e+00 4.931954e-02 -6.831419e-01 8.036570e+00 6.484003e+00 4.625407e+00 4.675332e+00 4.601055e+00 4.053099e+00 3.593801e+00 4.457477e+00 2.326298e+00 -2.133210e-03 2.653849e-02 3.415401e-02 4.748240e-02 5.136495e-02 4.707923e-02 3.888674e-02 2.892036e-02 3.080963e-02 2.506088e-02 1.452187e-02 1.778039e-03 -1.219590e-05
<VARIANCE> 25
 9.137465e+00 1.036359e+01 9.295803e+00 1.818508e+01 1.332127e+01 1.353345e+01 1.197145e+01 1.128198e+01 1.134292e+01 1.354989e+01 1.780268e+01 1.253449e+01 4.087522e-02 8.734614e-02 1.540843e-01 2.265825e-01 3.079380e-01 3.969485e-01 4.608482e-01 5.215847e-01 5.420835e-01 5.211474e-01 5.144392e-01 5.164422e-01 1.000000e-06
<GCONST> 4.724841e+01
<MIXTURE> 56 6.132464e-03
<MEAN> 25
 7.492669e+00 -6.642364e+00 -9.108409e+00 -8.643728e+00 3.964490e+00 4.052496e+00 -2.074371e+00 -1.494482e+00 2.024993e+00 6.581983e-01 -2.434226e+00 -7.079846e+00 -1.411235e-02 3.138561e-02 -8.614381e-02 2.195625e-02 2.523918e-01 4.741564e-02 1.170080e-01 -1.491906e-01 -5.411743e-02 -4.672604e-02 -6.328273e-02 2.883212e-02 -7.268168e-03
<VARIANCE> 25
 9.661587e+00 2.494749e+01 2.012041e+01 4.087802e+01 3.287740e+01 5.186442e+01 6.239831e+01 3.650301e+01 3.898984e+01 3.734897e+01 4.024797e+01 3.124939e+01 2.052317e-01 4.313323e-01 4.486218e-01 7.655684e-01 7.933959e-01 1.137365e+00 9.021795e-01 9.165311e-01 9.078687e-01 9.271122e-01 1.066028e+00 7.874998e-01 2.421348e-04
<GCONST> 7.527789e+01
<MIXTURE> 57 6.132464e-03
<MEAN> 25
 7.492669e+00 -6.642364e+00 -9.108409e+00 -8.643728e+00 3.964490e+00 4.052496e+00 -2.074371e+00 -1.494482e+00 2.024993e+00 6.581983e-01 -2.434226e+00 -7.079846e+00 -1.411235e-02 3.138561e-02 -8.614381e-02 2.195625e-02 2.523918e-01 4.741564e-02 1.170080e-01 -1.491906e-01 -5.411743e-02 -4.672604e-02 -6.328273e-02 2.883212e-02 -7.268168e-03
<VARIANCE> 25
 9.661587e+00 2.494749e+01 2.012041e+01 4.087802e+01 3.287740e+01 5.186442e+01 6.239831e+01 3.650301e+01 3.898984e+01 3.734897e+01 4.024797e+01 3.124939e+01 2.052317e-01 4.313323e-01 4.486218e-01 7.655684e-01 7.933959e-01 1.137365e+00 9.021795e-01 9.165311e-01 9.078687e-01 9.271122e-01 1.066028e+00 7.874998e-01 2.421348e-04
<GCONST> 7.527789e+01
<MIXTURE> 58 6.172147e-03
<MEAN> 25
 2.520613e+00 -3.895719e+00 7.624650e+00 -4.645251e+00 -1.265609e+01 -6.190157e+00 1.226082e+00 1.080124e+00 -2.989863e+00 2.641914e+00 7.688943e-01 -3.139881e-01 -7.254321e-02 -8.386163e-02 -3.423772e-02 -1.341604e-01 -1.573937e-01 1.221933e-01 5.910507e-01 5.912337e-02 5.121770e-02 -9.162293e-03 -8.478872e-02 -2.606472e-02 -6.739055e-05
<VARIANCE> 25
 6.834833e+00 1.898864e+01 1.914399e+01 2.658505e+01 2.458488e+01 5.127712e+01 3.112524e+01 3.571016e+01 3.079540e+01 3.343169e+01 2.315188e+01 2.120210e+01 2.863137e-01 7.506396e-01 8.330985e-01 9.978154e-01 9.393271e-01 1.209850e+00 1.502046e+00 1.378544e+00 1.132059e+00 1.060040e+00 9.201999e-01 8.935066e-01 7.297622e-04
<GCONST> 7.622828e+01
<MIXTURE> 59 6.172147e-03
<MEAN> 25
 2.520613e+00 -3.895719e+00 7.624650e+00 -4.645251e+00 -1.265609e+01 -6.190157e+00 1.226082e+00 1.080124e+00 -2.989863e+00 2.641914e+00 7.688943e-01 -3.139881e-01 -7.254321e-02 -8.386163e-02 -3.423772e-02 -1.341604e-01 -1.573937e-01 1.221933e-01 5.910507e-01 5.912337e-02 5.121770e-02 -9.162293e-03 -8.478872e-02 -2.606472e-02 -6.739055e-05
<VARIANCE> 25
 6.834833e+00 1.898864e+01 1.914399e+01 2.658505e+01 2.458488e+01 5.127712e+01 3.112524e+01 3.571016e+01 3.079540e+01 3.343169e+01 2.315188e+01 2.120210e+01 2.863137e-01 7.506396e-01 8.330985e-01 9.978154e-01 9.393271e-01 1.209850e+00 1.502046e+00 1.378544e+00 1.132059e+00 1.060040e+00 9.201999e-01 8.935066e-01 7.297622e-04
<GCONST> 7.622828e+01
<MIXTURE> 60 4.479129e-03
<MEAN> 25
 -4.264487e+00 -6.649057e-01 -1.084375e+00 3.697239e+00 1.731568e+00 2.118855e+00 1.637564e+00 1.531185e+00 2.158351e+00 1.264553e+00 2.386028e+00 1.916092e+00 -2.849127e-02 5.650640e-02 1.011057e-01 1.301869e-01 1.294798e-01 1.293240e-01 1.787916e-01 3.225632e-01 5.452076e-01 6.645933e-01 5.562593e-01 3.033151e-01 -3.906901e-04
<VARIANCE> 25
 6.932817e+00 4.524348e+00 1.027675e+01 1.130676e+01 1.357749e+01 1.700124e+01 1.399785e+01 1.185802e+01 1.272545e+01 1.319725e+01 1.594022e+01 1.229296e+01 8.693190e-02 1.683225e-01 2.793859e-01 4.319128e-01 5.865183e-01 7.280031e-01 8.283045e-01 8.989630e-01 9.026473e-01 8.356966e-01 8.391468e-01 8.626353e-01 2.295606e-05
<GCONST> 5.633097e+01
<MIXTURE> 61 4.479129e-03
<MEAN> 25
 -4.264487e+00 -6.649057e-01 -1.084375e+00 3.697239e+00 1.731568e+00 2.118855e+00 1.637564e+00 1.531185e+00 2.158351e+00 1.264553e+00 2.386028e+00 1.916092e+00 -2.849127e-02 5.650640e-02 1.011057e-01 1.301869e-01 1.294798e-01 1.293240e-01 1.787916e-01 3.225632e-01 5.452076e-01 6.645933e-01 5.562593e-01 3.033151e-01 -3.906901e-04
<VARIANCE> 25
 6.932817e+00 4.524348e+00 1.027675e+01 1.130676e+01 1.357749e+01 1.700124e+01 1.399785e+01 1.185802e+01 1.272545e+01 1.319725e+01 1.594022e+01 1.229296e+01 8.693190e-02 1.683225e-01 2.793859e-01 4.319128e-01 5.865183e-01 7.280031e-01 8.283045e-01 8.989630e-01 9.026473e-01 8.356966e-01 8.391468e-01 8.626353e-01 2.295606e-05
<GCONST> 5.633097e+01
<MIXTURE> 62 3.278034e-03
<MEAN> 25
 -5.091026e+00 1.241214e+00 1.026271e+00 8.818723e+00 6.130915e+00 5.050725e+00 5.499556e+00 4.033865e+00 4.986128e+00 3.917933e+00 4.966511e+00 2.951131e+00 -1.003324e+00 -1.166706e+00 -9.532436e-01 -2.767730e-01 4.275916e-01 1.005176e+00 1.384688e+00 1.552256e+00 1.478758e+00 1.243487e+00 1.067137e+00 7.261052e-01 -1.264886e-03
<VARIANCE> 25
 9.873005e+00 9.958960e+00 1.311584e+01 1.673339e+01 1.741418e+01 1.752483e+01 1.970122e+01 1.911283e+01 1.886002e+01 1.872700e+01 2.156159e+01 1.479604e+01 4.017271e-01 4.320417e-01 5.541465e-01 7.793610e-01 1.035032e+00 1.192222e+00 1.252357e+00 1.279046e+00 1.329671e+00 1.363855e+00 1.400036e+00 1.371338e+00 1.632312e-05
<GCONST> 6.752585e+01
<MIXTURE> 63 4.351215e-03
<MEAN> 25
 -4.253263e+00 -2.327570e+00 -4.818450e+00 3.001584e+00 3.425190e+00 -2.478072e-01 3.015553e+00 1.298023e+00 2.578801e+00 -9.376512e-01 -1.134423e+00 2.594246e+00 -1.243417e-01 3.547083e-01 3.912033e-01 5.165250e-01 4.122636e-01 3.834903e-01 3.678985e-01 1.462131e-01 1.180320e-01 2.415919e-01 2.330671e-01 1.297254e-01 -3.895364e-03
<VARIANCE> 25
 9.100474e+00 1.494267e+01 1.635581e+01 1.683308e+01 1.772980e+01 2.643453e+01 2.337927e+01 2.515768e+01 2.603802e+01 2.184170e+01 1.960884e+01 1.656256e+01 2.882682e-01 4.468200e-01 6.292455e-01 6.997248e-01 9.161461e-01 1.158257e+00 1.267596e+00 1.345344e+00 1.374407e+00 1.385098e+00 1.307533e+00 1.214265e+00 1.921407e-04
<GCONST> 7.140298e+01
<MIXTURE> 64 4.351215e-03
<MEAN> 25
 -4.253263e+00 -2.327570e+00 -4.818450e+00 3.001584e+00 3.425190e+00 -2.478072e-01 3.015553e+00 1.298023e+00 2.578801e+00 -9.376512e-01 -1.134423e+00 2.594246e+00 -1.243417e-01 3.547083e-01 3.912033e-01 5.165250e-01 4.122636e-01 3.834903e-01 3.678985e-01 1.462131e-01 1.180320e-01 2.415919e-01 2.330671e-01 1.297254e-01 -3.895364e-03
<VARIANCE> 25
 9.100474e+00 1.494267e+01 1.635581e+01 1.683308e+01 1.772980e+01 2.643453e+01 2.337927e+01 2.515768e+01 2.603802e+01 2.184170e+01 1.960884e+01 1.656256e+01 2.882682e-01 4.468200e-01 6.292455e-01 6.997248e-01 9.161461e-01 1.158257e+00 1.267596e+00 1.345344e+00 1.374407e+00 1.385098e+00 1.307533e+00 1.214265e+00 1.921407e-04
<GCONST> 7.140298e+01
<MIXTURE> 65 1.721197e-02
<MEAN> 25
 7.416632e+00 1.617933e+00 2.080818e+00 2.586578e-01 -4.933535e+00 -2.171920e+00 -4.340047e+00 -6.616592e+00 -3.280416e+00 -1.662860e+00 -5.421054e+00 -1.616666e+00 9.580799e-02 7.166731e-02 7.952039e-02 -9.917462e-02 -7.491473e-02 3.952117e-01 -1.552540e-01 -2.364701e-01 7.542763e-02 -9.123123e-02 5.708985e-02 -7.050129e-02 -3.504929e-03
<VARIANCE> 25
 9.540231e+00 1.928579e+01 2.739536e+01 3.427214e+01 3.366551e+01 7.409148e+01 6.217374e+01 5.425703e+01 5.109891e+01 5.371244e+01 5.807435e+01 5.157941e+01 5.345572e-01 9.570528e-01 1.571886e+00 1.957673e+00 1.799784e+00 2.644778e+00 2.220396e+00 3.205617e+00 2.728466e+00 2.815542e+00 2.652197e+00 1.889406e+00 4.162974e-04
<GCONST> 8.971730e+01
<MIXTURE> 66 1.191532e-02
<MEAN> 25
 6.323251e+00 -5.557585e+00 -4.604633e+00 -4.521969e+00 1.331696e+00 -5.508945e+00 -7.934322e+00 2.933943e+00 1.032925e+00 -4.680006e-01 -5.752450e+00 -3.773998e+00 -2.656781e-02 1.593917e+00 2.156755e+00 2.314674e+00 -1.510944e+00 -1.653631e+00 3.154385e-02 -4.007236e-01 -7.401885e-01 -3.172573e-01 2.448667e-01 1.272002e+00 -6.044636e-02
<VARIANCE> 25
 8.399845e+00 2.845330e+01 2.784545e+01 2.917871e+01 3.280925e+01 4.750482e+01 5.354859e+01 5.200382e+01 4.838485e+01 6.697362e+01 3.511513e+01 3.262505e+01 1.108225e+00 2.343305e+00 2.029284e+00 2.119410e+00 3.937227e+00 4.888928e+00 4.238090e+00 4.504896e+00 5.920763e+00 4.412492e+00 4.857330e+00 2.982024e+00 1.348132e-03
<GCONST> 9.618098e+01
<MIXTURE> 67 1.559142e-02
<MEAN> 25
 8.290663e+00 1.004029e+00 -5.499284e+00 -8.778776e+00 2.091724e+00 6.214155e+00 -2.809092e+00 -1.421533e+00 -3.729620e+00 9.652070e-01 -5.012217e-01 -1.922761e+00 -7.352996e-01 1.970244e+00 8.230418e-01 3.045373e+00 1.561852e+00 7.335288e-02 2.247815e+00 -2.118430e-01 4.538150e-01 -3.638811e-01 -6.668968e-01 5.370428e-01 -1.217074e-01
<VARIANCE> 25
 1.058255e+01 3.844108e+01 2.557221e+01 4.803585e+01 4.380937e+01 7.218028e+01 5.596731e+01 4.407960e+01 5.170587e+01 4.748640e+01 4.662178e+01 3.775387e+01 2.252847e+00 2.974653e+00 2.775769e+00 3.641212e+00 3.720877e+00 4.680972e+00 6.607650e+00 4.467237e+00 4.600911e+00 4.966507e+00 4.694950e+00 2.976389e+00 2.632208e-03
<GCONST> 1.005019e+02
<MIXTURE> 68 1.485092e-02
<MEAN> 25
 -1.742834e+00 -1.861175e+00 -4.009297e+00 1.319981e+00 5.483722e+00 3.732190e-01 2.613619e+00 1.266927e+00 1.837940e+00 1.003275e+00 5.414164e-01 1.820235e+00 2.702343e+00 3.985125e-01 8.387653e-02 -2.434606e+00 -2.376793e+00 -1.619275e+00 -2.563893e+00 -1.468780e+00 -1.620353e+00 -1.421212e+00 -1.734765e+00 -1.212570e+00 9.947951e-02
<VARIANCE> 25
 2.599532e+01 3.284239e+01 5.471160e+01 5.363680e+01 4.414125e+01 7.131270e+01 4.731070e+01 4.370718e+01 3.903722e+01 4.578107e+01 3.572152e+01 2.521046e+01 1.787289e+00 3.705838e+00 5.673666e+00 5.538564e+00 4.374111e+00 5.535841e+00 5.713818e+00 5.612798e+00 4.891468e+00 5.021938e+00 5.296100e+00 3.369342e+00 5.857213e-03
<GCONST> 1.035969e+02
<MIXTURE> 69 1.204884e-02
<MEAN> 25
 4.611262e+00 -4.251107e+00 -3.264128e+00 -3.477774e+00 -3.453836e+00 -7.761256e+00 -1.158797e+00 2.372719e+00 -2.999892e-01 -4.829865e+00 -5.338918e+00 1.178950e+00 1.708847e+00 -2.251128e+00 -1.257503e+00 -2.193792e+00 -4.914956e-01 -2.088555e-01 -5.406315e-01 5.379500e-01 -5.755865e-01 -1.372088e+00 -2.193999e+00 -2.687197e-01 5.981682e-02
<VARIANCE> 25
 8.757970e+00 2.121409e+01 2.894872e+01 2.590638e+01 4.163337e+01 3.526256e+01 4.797747e+01 3.193299e+01 3.881446e+01 3.772615e+01 3.430828e+01 2.601442e+01 3.518364e+00 2.882054e+00 3.440306e+00 3.686729e+00 5.650288e+00 5.581865e+00 7.144844e+00 6.264792e+00 5.911691e+00 5.969260e+00 4.263385e+00 3.985708e+00 2.633279e-03
<GCONST> 9.906702e+01
<MIXTURE> 70 1.329190e-02
<MEAN> 25
 6.331045e+00 -2.422312e+00 -2.431237e+00 -3.756542e+00 4.710497e-01 8.582541e-01 -8.636560e+00 -2.758703e+00 3.967438e-01 3.023704e+00 9.442132e-02 -4.481789e+00 1.562937e+00 -1.152066e+00 -6.459897e-01 -2.264988e+00 -1.066222e+00 7.886084e-01 -1.842482e+00 6.881485e-01 9.636282e-02 1.567963e-01 1.124532e+00 -1.496483e+00 5.837718e-02
<VARIANCE> 25
 1.149817e+01 2.055935e+01 2.668678e+01 6.389349e+01 3.088189e+01 4.655039e+01 4.809873e+01 3.971988e+01 4.034505e+01 3.187174e+01 3.692531e+01 2.225394e+01 2.878519e+00 2.546080e+00 5.149035e+00 4.206717e+00 5.223695e+00 5.761471e+00 7.597310e+00 7.625126e+00 5.252645e+00 4.434363e+00 6.172996e+00 3.438100e+00 2.381823e-03
<GCONST> 1.002445e+02
<MIXTURE> 71 1.406903e-02
<MEAN> 25
 5.224886e+00 4.161477e+00 4.228899e+00 1.734127e+00 -3.951825e+00 -1.864320e+00 -2.547483e+00 -7.118389e+00 -3.906428e+00 -3.678268e-01 -4.487633e+00 -2.646714e+00 -1.449159e+00 -8.118848e-01 -5.907213e-01 -1.571962e+00 1.405667e+00 -4.340169e-01 -6.651493e-01 1.140517e+00 1.019190e-01 -1.361713e-01 1.179818e+00 5.005707e-01 3.997858e-02
<VARIANCE> 25
 1.650318e+01 2.272165e+01 2.478293e+01 5.460093e+01 3.623730e+01 5.504388e+01 4.347814e+01 3.249879e+01 3.266192e+01 4.505809e+01 4.672885e+01 3.004252e+01 1.301106e+00 2.422404e+00 4.784118e+00 3.732262e+00 3.821090e+00 3.777984e+00 4.675132e+00 5.637513e+00 4.318277e+00 4.128379e+00 4.149524e+00 3.009931e+00 1.183775e-03
<GCONST> 9.711515e+01
<MIXTURE> 72 8.134747e-03
<MEAN> 25
 3.770261e+00 -3.695307e+00 5.471593e+00 -2.439832e+00 -1.038112e+01 -9.702597e+00 -2.480229e+00 1.916886e+00 -4.992757e+00 -2.167782e+00 -1.875235e+00 5.692889e-01 9.454647e-01 -7.828405e-01 -2.570325e+00 4.572964e-01 2.127955e+00 -6.393803e-01 -1.323380e+00 1.517228e+00 1.807365e+00 -5.802683e-01 -1.286660e+00 3.866778e-01 -6.226247e-03
<VARIANCE> 25
 1.079594e+01 1.940204e+01 3.270354e+01 3.832761e+01 3.221315e+01 3.425178e+01 4.102561e+01 3.602791e+01 4.384543e+01 4.129337e+01 3.858878e+01 2.886159e+01 4.648524e-01 1.022913e+00 2.016920e+00 1.469377e+00 2.185086e+00 2.387689e+00 3.059721e+00 2.730217e+00 2.597282e+00 2.996189e+00 2.014640e+00 2.162893e+00 5.403375e-04
<GCONST> 8.736467e+01
<MIXTURE> 73 1.213625e-02
<MEAN> 25
 -5.471075e+00 -8.172890e-01 -1.298981e+00 5.185785e+00 4.317068e+00 2.271801e+00 5.395743e+00 3.319153e+00 4.351625e+00 3.316941e+00 3.934895e+00 3.076082e+00 8.129895e-01 -1.065614e+00 -8.524014e-01 -2.582907e+00 -1.258042e+00 -1.796786e+00 -1.056442e+00 -4.018773e-01 -8.766896e-01 -6.548390e-01 -9.914770e-01 -3.338252e-01 1.535128e-01
<VARIANCE> 25
 1.334076e+01 1.304625e+01 1.475557e+01 2.440434e+01 2.288848e+01 2.428893e+01 2.039142e+01 2.002914e+01 1.731934e+01 1.896840e+01 2.583794e+01 1.525036e+01 3.927214e+00 3.036112e+00 6.045404e+00 4.676039e+00 5.968631e+00 4.491176e+00 4.935641e+00 4.464743e+00 3.837289e+00 4.171513e+00 3.822359e+00 2.692802e+00 4.227000e-03
<GCONST> 9.293643e+01
<MIXTURE> 74 1.756491e-02
<MEAN> 25
 3.443545e+00 -3.020641e+00 4.892159e+00 1.312805e+00 -7.571136e+00 -8.532158e+00 -5.924503e-01 1.922474e+00 -5.061935e+00 -4.100975e-01 7.427741e-01 7.186464e-03 2.248569e-01 1.928032e+00 -7.705293e-01 1.577972e+00 5.605660e-01 1.388808e+00 1.157383e+00 -2.009689e+00 9.475902e-01 -1.200714e-01 -6.104904e-01 -4.376002e-01 -8.371464e-02
<VARIANCE> 25
 6.217484e+00 1.828474e+01 2.678450e+01 2.978730e+01 2.051026e+01 5.346540e+01 3.935446e+01 4.292133e+01 3.045937e+01 3.257962e+01 2.871435e+01 3.821713e+01 1.578345e+00 1.638475e+00 3.106294e+00 1.818238e+00 2.600338e+00 5.094877e+00 4.423863e+00 3.778050e+00 3.722169e+00 2.987376e+00 2.540145e+00 2.842695e+00 1.925976e-03
<GCONST> 9.190987e+01
<MIXTURE> 75 9.711651e-03
<MEAN> 25
 2.325690e+00 -1.653908e+00 1.034083e+01 1.800754e+00 -1.088481e+01 -8.946109e+00 -4.328968e+00 -4.229620e-01 -5.430138e+00 -4.255769e+00 3.536149e+00 -1.587604e-01 2.013412e+00 -1.745156e+00 4.112208e-01 -3.934565e-01 -2.115673e+00 -4.233797e-01 -1.784227e+00 8.961986e-01 -4.687590e-01 -5.138949e-02 7.917473e-01 -9.725575e-01 3.128730e-02
<VARIANCE> 25
 1.001345e+01 1.615275e+01 2.694965e+01 2.371599e+01 2.675142e+01 4.370711e+01 2.861895e+01 2.990492e+01 4.074149e+01 2.977830e+01 1.891227e+01 2.893029e+01 2.750867e+00 1.780474e+00 4.217948e+00 2.250374e+00 3.858941e+00 5.472184e+00 4.613890e+00 3.342105e+00 5.137756e+00 3.257035e+00 3.038029e+00 3.626981e+00 1.603560e-03
<GCONST> 9.312148e+01
<MIXTURE> 76 1.052359e-02
<MEAN> 25
 -6.550459e+00 6.847720e-01 -4.210123e+00 4.398296e+00 4.911586e+00 1.604153e+00 5.954012e+00 -7.518330e-01 3.119192e+00 -4.636551e-01 1.012324e+00 3.965066e+00 -1.484114e-01 -3.443132e-01 -2.175340e-01 -5.035369e-01 -4.832020e-01 -8.398584e-01 -4.050372e-01 -1.843970e-02 -4.297996e-01 -4.173470e-01 -1.021836e-01 1.183067e-01 2.526378e-02
<VARIANCE> 25
 4.708058e+01 3.078082e+01 2.746531e+01 3.993645e+01 2.746181e+01 3.637567e+01 2.255870e+01 3.506859e+01 2.888723e+01 2.864683e+01 2.411137e+01 1.880390e+01 9.129593e-01 9.538473e-01 1.047758e+00 1.190257e+00 1.193656e+00 1.399777e+00 1.440985e+00 2.044460e+00 1.381565e+00 1.287461e+00 1.242312e+00 1.392682e+00 9.121468e-04
<GCONST> 8.244189e+01
<MIXTURE> 77 1.244626e-02
<MEAN> 25
 -2.014108e-01 7.965300e+00 1.232805e+01 -1.154881e+01 -6.982984e+00 1.661444e+00 -9.130108e+00 -7.079967e+00 -3.069561e+00 -3.716579e-01 -5.210884e+00 -1.564292e+00 5.460108e-02 1.590575e-01 7.946837e-02 2.028198e-01 -1.483830e-02 8.455919e-02 -1.258163e-01 -6.850737e-02 5.425363e-02 2.581529e-02 2.685839e-02 1.127824e-01 -8.723505e-03
<VARIANCE> 25
 1.102871e+01 2.622180e+01 2.645206e+01 4.049155e+01 3.194030e+01 4.004956e+01 3.576746e+01 3.267839e+01 3.503307e+01 3.191488e+01 4.253650e+01 3.375410e+01 2.892912e-01 7.459385e-01 6.149533e-01 1.113164e+00 1.186953e+00 9.604617e-01 1.233379e+00 1.024885e+00 1.089066e+00 1.156028e+00 9.797792e-01 8.807454e-01 5.336507e-04
<GCONST> 7.809709e+01
<MIXTURE> 78 9.702551e-03
<MEAN> 25
 -1.097447e+01 2.455588e+00 -1.780581e+00 2.332780e+00 4.088611e+00 -3.073398e+00 4.550732e+00 2.412265e+00 2.074859e+00 6.012430e-02 1.106362e-01 3.769357e+00 2.350646e+00 -5.761477e-01 2.936769e-01 5.349041e-01 -2.082320e-01 -7.725659e-02 -4.244642e-01 7.098678e-02 1.913088e-01 2.707507e-02 -4.225220e-01 -4.006414e-01 -5.730884e-02
<VARIANCE> 25
 4.068899e+01 4.287135e+01 3.114520e+01 2.933071e+01 3.650864e+01 3.832507e+01 3.549817e+01 3.039964e+01 2.867859e+01 2.736474e+01 2.656925e+01 2.161832e+01 4.703121e+00 3.644241e+00 2.766364e+00 2.804125e+00 3.052302e+00 3.763471e+00 3.225830e+00 2.745535e+00 2.391237e+00 2.328605e+00 2.066644e+00 2.318919e+00 4.449203e-03
<GCONST> 9.485613e+01
<MIXTURE> 79 1.156824e-02
<MEAN> 25
 2.413238e+00 1.469060e+00 9.030979e+00 -6.711228e+00 -1.189697e+01 -1.635935e+00 -2.084567e+00 -6.283437e+00 -6.537417e+00 4.512534e-01 -3.396357e+00 -3.285987e+00 1.219222e+00 -5.191466e-01 -1.439816e+00 2.333405e+00 3.996517e-01 -1.409379e+00 5.807678e-01 8.788021e-01 -4.160831e-01 -5.436198e-01 3.584050e-01 2.726312e-01 -3.620478e-02
<VARIANCE> 25
 1.400303e+01 2.459290e+01 3.881963e+01 5.079527e+01 3.453045e+01 4.658003e+01 4.517422e+01 3.822556e+01 3.834290e+01 3.985725e+01 4.387096e+01 3.073751e+01 9.526604e-01 2.238116e+00 1.867428e+00 2.074432e+00 2.462830e+00 3.015020e+00 3.348625e+00 3.551271e+00 2.506144e+00 2.732197e+00 2.304196e+00 2.003660e+00 1.229122e-03
<GCONST> 9.209530e+01
<MIXTURE> 80 7.550998e-03
<MEAN> 25
 -1.478589e+01 3.749764e+00 -5.965239e-01 3.725637e+00 2.549570e+00 3.987617e-01 6.998985e+00 1.852889e+00 3.748549e+00 1.917862e+00 4.670393e+00 2.537899e+00 4.200880e+00 -4.239949e-02 2.025380e+00 -1.068003e+00 -2.851957e+00 -2.996902e+00 -2.365033e+00 -1.849621e+00 -2.513068e+00 -1.479448e+00 -1.449698e+00 -9.566162e-01 -4.022359e-02
<VARIANCE> 25
 1.876641e+01 2.171180e+01 3.922991e+01 3.501982e+01 2.597079e+01 3.144807e+01 2.632693e+01 2.677738e+01 3.328029e+01 2.676937e+01 2.324174e+01 2.516984e+01 2.176272e+00 2.449692e+00 3.444781e+00 3.600128e+00 2.954577e+00 2.756098e+00 2.831889e+00 3.054372e+00 4.470679e+00 2.536219e+00 2.624068e+00 3.282227e+00 1.406428e-03
<GCONST> 9.207035e+01
<MIXTURE> 81 8.025434e-03
<MEAN> 25
 -9.776434e-01 3.857820e+00 1.016976e+01 -1.461749e+01 -8.975133e+00 -9.459128e-01 -6.770294e+00 -8.386971e+00 -3.960661e+00 -4.280297e-01 -7.839899e+00 -2.214140e+00 1.091263e-01 -5.598930e-01 -3.122536e-02 -5.962753e-01 -4.183295e-01 3.055169e-01 2.684523e-01 1.347952e-01 -1.920839e-01 1.625433e-01 -4.005275e-01 -1.204995e-01 1.153082e-02
<VARIANCE> 25
 1.051889e+01 3.332123e+01 2.574742e+01 2.968219e+01 3.313388e+01 3.713046e+01 4.440721e+01 2.755900e+01 3.818378e+01 3.108016e+01 2.711639e+01 3.021823e+01 7.769297e-01 2.238882e+00 1.562368e+00 2.855162e+00 2.670146e+00 2.144756e+00 3.287798e+00 2.236564e+00 2.436593e+00 2.614636e+00 2.489686e+00 2.022641e+00 1.150170e-03
<GCONST> 8.894714e+01
<MIXTURE> 82 8.213053e-03
<MEAN> 25
 -9.956727e+00 -3.901815e+00 1.635362e+00 -2.966360e+00 3.112314e+00 6.628257e-01 1.993634e+00 9.256771e-01 2.977642e+00 1.726438e+00 1.741369e+00 3.082934e+00 -1.312388e+00 -1.252416e-01 2.909223e-01 -2.603314e+00 -1.105180e+00 -1.264281e+00 -1.011687e+00 -8.662671e-01 -3.161072e-01 -4.790906e-01 -3.147955e-01 -9.286703e-02 1.783143e-01
<VARIANCE> 25
 1.806841e+01 2.491368e+01 3.235316e+01 3.088549e+01 3.299266e+01 3.232334e+01 3.175271e+01 3.308000e+01 3.082915e+01 2.511026e+01 3.076041e+01 1.749121e+01 3.754092e+00 3.046421e+00 3.315250e+00 3.266603e+00 3.560900e+00 3.284337e+00 2.945719e+00 3.026883e+00 2.792814e+00 2.489656e+00 2.449679e+00 1.869005e+00 3.441528e-03
<GCONST> 9.308704e+01
<MIXTURE> 83 1.167529e-02
<MEAN> 25
 -1.974749e+01 5.601836e+00 -2.440392e+00 6.067991e-01 7.823007e+00 -1.349010e+00 5.855790e+00 2.365181e+00 1.700783e+00 1.519050e+00 4.497089e-01 3.247511e+00 -4.363640e-02 -4.640600e-01 -1.314587e-02 -3.734390e-01 -5.185844e-01 -1.494642e-01 -1.222769e-01 -5.167195e-02 -3.582138e-02 -1.765480e-02 1.851543e-02 2.785422e-02 6.322408e-03
<VARIANCE> 25
 9.507701e+00 1.729355e+01 3.206226e+01 3.258630e+01 2.020033e+01 2.276251e+01 2.203987e+01 2.715764e+01 2.310048e+01 2.548238e+01 2.353922e+01 1.570566e+01 1.054772e+00 9.036263e-01 1.188516e+00 1.074915e+00 1.320458e+00 1.321089e+00 1.232976e+00 1.407326e+00 1.336738e+00 1.244366e+00 1.252279e+00 1.109003e+00 8.902753e-04
<GCONST> 7.793458e+01
<MIXTURE> 84 1.066614e-02
<MEAN> 25
 1.233953e+00 8.979594e+00 6.973125e+00 7.959096e+00 2.755852e+00 -9.069269e-01 -1.351187e+00 -4.492190e+00 -4.034928e+00 -2.928427e+00 -2.576133e+00 -1.715382e+00 -1.742818e+00 -1.129285e+00 -1.216429e+00 1.261904e+00 2.286603e+00 1.598959e+00 1.446927e+00 1.212006e+00 1.175821e+00 3.926644e-01 3.908026e-01 4.171241e-01 -7.170954e-02
<VARIANCE> 25
 2.327573e+01 1.812893e+01 2.399933e+01 2.365181e+01 2.876180e+01 2.790728e+01 2.980273e+01 2.644832e+01 2.544874e+01 2.511679e+01 2.447686e+01 2.554012e+01 2.136176e+00 2.619363e+00 3.763793e+00 3.253781e+00 3.257147e+00 3.696246e+00 3.234423e+00 3.627198e+00 3.458958e+00 3.310559e+00 3.554151e+00 2.764238e+00 3.456533e-03
<GCONST> 9.282237e+01
<MIXTURE> 85 7.591393e-03
<MEAN> 25
 -3.304792e+00 7.577086e+00 5.527499e+00 1.924388e+00 -3.423404e+00 -6.059851e+00 -2.493504e+00 -6.175728e+00 -3.832389e+00 -3.508654e+00 -6.763999e-01 -1.994685e+00 4.015215e+00 2.007172e-01 1.945521e+00 -2.091673e+00 -3.375718e+00 -2.749689e+00 -3.051450e+00 -2.125153e+00 -2.575214e+00 -1.137733e+00 -2.170024e+00 -9.367436e-01 8.695607e-03
<VARIANCE> 25
 4.071578e+01 2.407913e+01 3.489845e+01 4.218869e+01 3.770457e+01 4.598071e+01 3.437427e+01 2.629152e+01 2.717737e+01 2.620696e+01 2.697610e+01 1.964360e+01 2.602286e+00 4.268647e+00 4.365290e+00 4.856356e+00 4.157443e+00 4.071866e+00 3.982039e+00 4.382989e+00 5.154720e+00 3.999216e+00 3.925662e+00 4.703303e+00 5.101921e-03
<GCONST> 9.904902e+01
<MIXTURE> 86 1.273941e-02
<MEAN> 25
 -4.974984e+00 -1.208759e+00 -7.959477e-01 6.335988e+00 5.017891e+00 4.674121e+00 5.318567e+00 4.572353e+00 4.661089e+00 3.916089e+00 5.338316e+00 2.701070e+00 -6.746942e-03 -8.715462e-03 -3.815584e-02 -6.559626e-02 -1.177687e-01 -1.849797e-01 -2.672643e-01 -3.320582e-01 -3.533319e-01 -3.193769e-01 -2.302648e-01 -1.064976e-01 -5.502826e-04
<VARIANCE> 25
 7.885632e+00 5.633391e+00 9.979819e+00 1.230385e+01 1.587446e+01 1.433559e+01 1.353708e+01 1.305196e+01 1.319269e+01 1.424053e+01 1.433136e+01 1.277738e+01 9.991920e-02 1.929728e-01 3.185055e-01 4.834529e-01 6.362179e-01 7.345995e-01 7.434303e-01 7.641538e-01 8.305605e-01 8.844309e-01 9.115669e-01 9.031933e-01 5.341454e-05
<GCONST> 5.811294e+01
<MIXTURE> 87 1.100681e-02
<MEAN> 25
 -3.077295e+00 4.239424e+00 3.054884e+00 6.937165e+00 5.767362e+00 1.237986e+00 1.877475e+00 -1.318209e+00 -6.208270e-01 -1.042952e+00 -9.676595e-01 3.092874e-01 -1.984349e+00 -2.795040e+00 -1.860568e+00 -1.991175e+00 2.196336e-02 -2.928749e-01 3.072158e-01 1.307059e+00 1.344301e+00 1.055440e+00 1.033343e+00 9.611835e-01 1.029518e-01
<VARIANCE> 25
 3.642574e+01 2.902528e+01 2.859222e+01 3.215164e+01 2.830436e+01 3.315487e+01 2.754185e+01 2.741346e+01 2.451680e+01 2.397674e+01 2.418023e+01 2.283495e+01 3.933553e+00 2.585564e+00 4.384399e+00 4.149615e+00 4.549821e+00 4.186373e+00 5.201540e+00 3.693327e+00 3.352980e+00 3.342086e+00 3.264707e+00 2.615874e+00 4.651163e-03
<GCONST> 9.620872e+01
<MIXTURE> 88 1.256585e-02
<MEAN> 25
 -3.512461e+00 -7.426692e-01 -1.584954e+00 5.392458e+00 4.420431e+00 3.443304e+00 5.144062e+00 2.401671e+00 3.183570e+00 2.189621e+00 2.603658e+00 2.973182e+00 -2.603229e-02 1.108028e-01 1.992950e-01 4.633831e-01 3.792909e-01 2.047724e-01 -8.773302e-02 -2.678804e-01 -2.629301e-01 -1.140353e-01 -6.192850e-02 1.282885e-01 -4.067129e-03
<VARIANCE> 25
 1.293879e+01 9.871470e+00 1.574901e+01 1.542653e+01 2.061344e+01 2.185028e+01 1.876890e+01 2.301648e+01 1.893620e+01 1.748776e+01 2.278858e+01 1.534927e+01 1.225277e+00 1.715332e+00 1.956137e+00 2.217329e+00 2.626763e+00 2.593526e+00 2.583240e+00 2.830859e+00 2.501027e+00 2.714354e+00 2.102322e+00 1.926405e+00 1.525677e-03
<GCONST> 8.307523e+01
<MIXTURE> 89 9.333527e-03
<MEAN> 25
 5.362300e+00 -8.836220e+00 -1.577736e+00 -3.442324e+00 4.855073e-01 -4.739293e+00 -8.917274e+00 7.356183e+00 3.111423e+00 7.277146e-02 -3.982471e+00 -4.269096e+00 -4.730036e-01 3.124850e-01 1.584708e+00 1.106636e+00 -2.180032e+00 -2.095381e+00 1.154583e+00 1.550994e+00 -1.298347e+00 -1.156903e+00 1.545713e-01 1.365563e+00 -5.376835e-03
<VARIANCE> 25
 6.746480e+00 3.179012e+01 2.913894e+01 2.075033e+01 3.446756e+01 3.301461e+01 5.430613e+01 3.992036e+01 4.079188e+01 3.723976e+01 4.130038e+01 2.808358e+01 3.052762e-01 8.712577e-01 1.406186e+00 1.706613e+00 1.490004e+00 3.173283e+00 3.703636e+00 2.161710e+00 2.521624e+00 2.310353e+00 2.482873e+00 1.544919e+00 4.410254e-04
<GCONST> 8.538523e+01
<MIXTURE> 90 7.114505e-03
<MEAN> 25
 2.448586e+00 -9.723305e+00 -4.753908e+00 -3.977725e+00 -3.383692e+00 -1.813654e+00 3.365302e+00 1.182678e+00 -7.532685e+00 -1.021548e+01 -3.429431e+00 -7.393597e-01 -1.637068e-01 9.090785e-01 1.168634e+00 -8.537323e-01 -1.613106e+00 -2.119057e-01 6.450493e-01 -2.100365e-01 -1.690379e-01 7.370870e-01 1.827614e-01 -5.498838e-01 -1.114871e-02
<VARIANCE> 25
 8.491588e+00 1.778621e+01 1.982091e+01 2.802151e+01 3.683634e+01 3.217820e+01 3.853696e+01 3.642878e+01 3.521396e+01 2.771259e+01 2.700458e+01 2.613902e+01 2.237438e-01 6.126692e-01 7.869446e-01 1.043393e+00 1.470074e+00 1.591536e+00 1.780722e+00 1.654785e+00 1.810540e+00 1.678390e+00 1.495801e+00 1.308987e+00 2.149985e-04
<GCONST> 7.813655e+01
<MIXTURE> 91 7.852945e-03
<MEAN> 25
 6.338408e+00 -7.635060e+00 -8.447899e+00 -5.092671e+00 3.980907e+00 -3.051423e-02 -2.112144e+00 7.387022e-01 9.442881e-01 -2.700699e+00 -4.926758e+00 -5.074197e+00 2.548959e-01 1.000428e+00 1.760296e-01 4.353944e-01 -1.042046e-01 -5.706681e-01 -3.709039e-01 -1.043817e-01 -1.254971e-01 4.600764e-01 -1.308948e-01 2.241550e-01 -3.473103e-02
<VARIANCE> 25
 1.005662e+01 2.430515e+01 2.013537e+01 4.049285e+01 3.528077e+01 5.489170e+01 5.516163e+01 3.978300e+01 5.193694e+01 6.505183e+01 3.790924e+01 4.198098e+01 4.409994e-01 8.784001e-01 1.150706e+00 1.386438e+00 2.251860e+00 2.411850e+00 2.359889e+00 2.492248e+00 2.280373e+00 2.204467e+00 2.020344e+00 1.790579e+00 5.886637e-04
<GCONST> 8.735517e+01
<MIXTURE> 92 7.852945e-03
<MEAN> 25
 6.338408e+00 -7.635060e+00 -8.447899e+00 -5.092671e+00 3.980907e+00 -3.051423e-02 -2.112144e+00 7.387022e-01 9.442881e-01 -2.700699e+00 -4.926758e+00 -5.074197e+00 2.548959e-01 1.000428e+00 1.760296e-01 4.353944e-01 -1.042046e-01 -5.706681e-01 -3.709039e-01 -1.043817e-01 -1.254971e-01 4.600764e-01 -1.308948e-01 2.241550e-01 -3.473103e-02
<VARIANCE> 25
 1.005662e+01 2.430515e+01 2.013537e+01 4.049285e+01 3.528077e+01 5.489170e+01 5.516163e+01 3.978300e+01 5.193694e+01 6.505183e+01 3.790924e+01 4.198098e+01 4.409994e-01 8.784001e-01 1.150706e+00 1.386438e+00 2.251860e+00 2.411850e+00 2.359889e+00 2.492248e+00 2.280373e+00 2.204467e+00 2.020344e+00 1.790579e+00 5.886637e-04
<GCONST> 8.735517e+01
<MIXTURE> 93 6.122769e-03
<MEAN> 25
 -6.825819e+00 -9.612056e-01 -2.402231e+00 5.798120e+00 5.908294e+00 3.922797e+00 6.123493e+00 3.609040e+00 4.119614e+00 2.509350e+00 1.818382e+00 3.705910e+00 -6.164000e-02 -1.543872e-01 -2.573870e-01 -3.317066e-01 -3.337587e-01 -2.844732e-01 -2.177871e-01 -1.742780e-01 -1.667204e-01 -1.506447e-01 -1.044153e-01 -3.554936e-02 -3.837683e-06
<VARIANCE> 25
 9.093901e+00 6.027777e+00 8.185111e+00 1.136881e+01 1.149258e+01 1.598249e+01 1.527640e+01 1.644382e+01 1.475774e+01 1.454170e+01 1.678724e+01 1.344866e+01 8.272374e-02 1.533694e-01 2.637162e-01 3.805642e-01 4.977629e-01 6.423341e-01 7.793725e-01 8.873125e-01 9.166239e-01 8.761251e-01 8.923470e-01 9.178919e-01 1.000000e-06
<GCONST> 5.360219e+01
<MIXTURE> 94 6.122769e-03
<MEAN> 25
 -6.825819e+00 -9.612056e-01 -2.402231e+00 5.798120e+00 5.908294e+00 3.922797e+00 6.123493e+00 3.609040e+00 4.119614e+00 2.509350e+00 1.818382e+00 3.705910e+00 -6.164000e-02 -1.543872e-01 -2.573870e-01 -3.317066e-01 -3.337587e-01 -2.844732e-01 -2.177871e-01 -1.742780e-01 -1.667204e-01 -1.506447e-01 -1.044153e-01 -3.554936e-02 -3.837683e-06
<VARIANCE> 25
 9.093901e+00 6.027777e+00 8.185111e+00 1.136881e+01 1.149258e+01 1.598249e+01 1.527640e+01 1.644382e+01 1.475774e+01 1.454170e+01 1.678724e+01 1.344866e+01 8.272374e-02 1.533694e-01 2.637162e-01 3.805642e-01 4.977629e-01 6.423341e-01 7.793725e-01 8.873125e-01 9.166239e-01 8.761251e-01 8.923470e-01 9.178919e-01 1.000000e-06
<GCONST> 5.360219e+01
<MIXTURE> 95 5.258835e-03
<MEAN> 25
 -5.823813e+00 -7.336519e-01 -1.990618e+00 4.893395e+00 4.225700e+00 2.815026e+00 4.175310e+00 1.656590e+00 2.228953e+00 8.709160e-01 1.195613e+00 2.593893e+00 1.459042e-01 1.471201e-01 8.481892e-02 -8.357206e-02 -3.785513e-01 -7.177730e-01 -1.055995e+00 -1.281595e+00 -1.264259e+00 -9.922516e-01 -6.493103e-01 -3.080490e-01 -1.381358e-04
<VARIANCE> 25
 1.026173e+01 6.523047e+00 1.222638e+01 1.280153e+01 1.398008e+01 1.837518e+01 1.790496e+01 1.694080e+01 1.542115e+01 1.543080e+01 1.997186e+01 1.434301e+01 2.099330e-01 2.931206e-01 4.539668e-01 6.294432e-01 8.000590e-01 8.963720e-01 9.120288e-01 9.238635e-01 9.704295e-01 1.075996e+00 1.159539e+00 1.114830e+00 4.204195e-05
<GCONST> 6.327557e+01
<MIXTURE> 96 7.034694e-03
<MEAN> 25
 -5.096676e+00 -4.548352e-01 -2.243811e+00 5.163478e+00 3.866032e+00 1.791501e+00 3.541566e+00 1.804465e+00 2.453365e+00 9.499912e-01 1.147341e+00 2.837089e+00 -2.968468e-02 8.781838e-02 2.134370e-01 4.057707e-01 5.389143e-01 4.999281e-01 2.461946e-01 -1.265887e-01 -4.634765e-01 -6.517613e-01 -6.085039e-01 -3.674167e-01 -1.581863e-05
<VARIANCE> 25
 1.101202e+01 9.725837e+00 1.288803e+01 1.428365e+01 1.502163e+01 1.952112e+01 1.807648e+01 1.930171e+01 1.800599e+01 1.660915e+01 1.976787e+01 1.453510e+01 1.204457e-01 2.181627e-01 3.166818e-01 3.977631e-01 4.946318e-01 6.606247e-01 8.674675e-01 9.963827e-01 9.568194e-01 8.641353e-01 8.866712e-01 9.406826e-01 1.000000e-06
<GCONST> 5.757094e+01
<MIXTURE> 97 7.034694e-03
<MEAN> 25
 -5.096676e+00 -4.548352e-01 -2.243811e+00 5.163478e+00 3.866032e+00 1.791501e+00 3.541566e+00 1.804465e+00 2.453365e+00 9.499912e-01 1.147341e+00 2.837089e+00 -2.968468e-02 8.781838e-02 2.134370e-01 4.057707e-01 5.389143e-01 4.999281e-01 2.461946e-01 -1.265887e-01 -4.634765e-01 -6.517613e-01 -6.085039e-01 -3.674167e-01 -1.581863e-05
<VARIANCE> 25
 1.101202e+01 9.725837e+00 1.288803e+01 1.428365e+01 1.502163e+01 1.952112e+01 1.807648e+01 1.930171e+01 1.800599e+01 1.660915e+01 1.976787e+01 1.453510e+01 1.204457e-01 2.181627e-01 3.166818e-01 3.977631e-01 4.946318e-01 6.606247e-01 8.674675e-01 9.963827e-01 9.568194e-01 8.641353e-01 8.866712e-01 9.406826e-01 1.000000e-06
<GCONST> 5.757094e+01
<MIXTURE> 98 9.917808e-03
<MEAN> 25
 -1.265053e+00 8.383770e-01 -2.428921e-01 4.355595e+00 3.554016e+00 2.535860e+00 3.400291e+00 1.265296e+00 1.426991e+00 9.031913e-01 8.755773e-01 1.120099e+00 -1.707807e+00 -1.468915e+00 -9.211670e-01 1.342316e-01 6.713816e-01 7.000771e-01 1.116111e+00 1.486141e+00 1.591327e+00 1.058025e+00 1.301278e+00 9.911166e-01 -2.952178e-02
<VARIANCE> 25
 1.413492e+01 1.933362e+01 3.010077e+01 3.181259e+01 4.111306e+01 3.715036e+01 3.191487e+01 3.023109e+01 2.726419e+01 2.903846e+01 2.622757e+01 2.252324e+01 1.389787e+00 1.466582e+00 2.351432e+00 2.313434e+00 2.754161e+00 2.988290e+00 2.989684e+00 3.103329e+00 2.651041e+00 3.050585e+00 2.644100e+00 2.002092e+00 2.655175e-03
<GCONST> 9.024750e+01
<MIXTURE> 99 6.696178e-03
<MEAN> 25
 -7.994251e+00 1.122501e+01 4.584461e+00 3.472421e+00 2.435593e+00 -5.567163e+00 1.035222e+00 -3.533756e+00 -2.959519e+00 -3.923254e+00 -4.616112e-01 1.697897e+00 9.103708e-01 -9.004815e-01 3.647301e-01 -5.808686e-01 -1.480982e+00 -9.806781e-01 -4.207389e-01 5.459541e-02 -4.700100e-01 -8.774759e-02 2.226086e-01 6.067985e-01 5.162470e-03
<VARIANCE> 25
 3.565294e+01 2.428892e+01 4.961272e+01 2.672848e+01 3.871417e+01 2.866866e+01 4.016002e+01 2.543092e+01 2.264986e+01 2.280057e+01 2.080036e+01 3.005404e+01 2.130154e+00 1.811891e+00 1.305278e+00 1.700063e+00 2.548979e+00 2.214182e+00 1.358032e+00 1.557928e+00 1.548572e+00 1.303663e+00 1.066911e+00 1.603846e+00 1.500510e-03
<GCONST> 8.589185e+01
<MIXTURE> 100 4.498084e-03
<MEAN> 25
 -1.598655e+00 6.342509e+00 1.027612e+01 -7.460053e+00 -1.078130e+01 -5.078435e+00 -4.941237e+00 -9.967549e+00 -4.720781e+00 -8.557798e-01 -2.731120e+00 -2.709086e+00 2.918278e+00 -1.260649e+00 1.299978e+00 -2.185883e+00 -3.419121e+00 -7.847137e-01 -1.219709e+00 -8.191156e-01 -1.476341e+00 3.468149e-01 -1.655218e+00 -2.871236e-01 2.016966e-03
<VARIANCE> 25
 1.362382e+01 2.107687e+01 2.245976e+01 2.645206e+01 2.301552e+01 2.375984e+01 2.910585e+01 2.170901e+01 2.750400e+01 2.264881e+01 2.242631e+01 2.134086e+01 1.799615e+00 3.953022e+00 2.919792e+00 4.285371e+00 4.184043e+00 4.537908e+00 4.018616e+00 4.341253e+00 4.170325e+00 3.895224e+00 3.910135e+00 3.228059e+00 1.674463e-03
<GCONST> 9.257466e+01
<MIXTURE> 101 6.007792e-03
<MEAN> 25
 7.934184e+00 -3.374201e+00 -5.830473e+00 -6.627472e+00 1.036681e+00 -8.067307e-01 -1.017488e+01 -2.129489e+00 1.656804e+00 3.000623e+00 -2.478447e+00 -5.175538e+00 6.550063e-01 5.793996e-01 -1.416245e+00 -1.571734e+00 1.088157e+00 2.304543e+00 1.525049e-01 -1.417818e+00 -1.069502e+00 1.204231e+00 1.298546e+00 -5.282239e-01 -4.306108e-03
<VARIANCE> 25
 9.335792e+00 1.600865e+01 3.193414e+01 4.289890e+01 3.504174e+01 3.729528e+01 3.981337e+01 3.454475e+01 3.646256e+01 4.314244e+01 4.953843e+01 2.327393e+01 2.921661e-01 7.372113e-01 1.184458e+00 1.502128e+00 1.650607e+00 2.008528e+00 2.051864e+00 2.069889e+00 2.241340e+00 2.709190e+00 1.958211e+00 2.129729e+00 3.457634e-04
<GCONST> 8.393683e+01
<MIXTURE> 102 6.007792e-03
<MEAN> 25
 7.934184e+00 -3.374201e+00 -5.830473e+00 -6.627472e+00 1.036681e+00 -8.067307e-01 -1.017488e+01 -2.129489e+00 1.656804e+00 3.000623e+00 -2.478447e+00 -5.175538e+00 6.550063e-01 5.793996e-01 -1.416245e+00 -1.571734e+00 1.088157e+00 2.304543e+00 1.525049e-01 -1.417818e+00 -1.069502e+00 1.204231e+00 1.298546e+00 -5.282239e-01 -4.306108e-03
<VARIANCE> 25
 9.335792e+00 1.600865e+01 3.193414e+01 4.289890e+01 3.504174e+01 3.729528e+01 3.981337e+01 3.454475e+01 3.646256e+01 4.314244e+01 4.953843e+01 2.327393e+01 2.921661e-01 7.372113e-01 1.184458e+00 1.502128e+00 1.650607e+00 2.008528e+00 2.051864e+00 2.069889e+00 2.241340e+00 2.709190e+00 1.958211e+00 2.129729e+00 3.457634e-04
<GCONST> 8.393683e+01
<MIXTURE> 103 5.694618e-03
<MEAN> 25
 3.248197e+00 -9.364171e+00 -6.037794e+00 -2.982388e+00 -1.240122e+00 -2.048245e+00 2.339360e+00 2.248404e+00 -4.448775e+00 -9.151565e+00 -4.950962e+00 3.724985e-01 -1.621952e-01 -1.479853e+00 -9.680657e-01 3.588933e-01 1.233053e+00 9.924019e-01 1.545404e-01 -2.295368e-01 -7.289463e-01 -9.835600e-01 -1.497827e-02 1.592456e-01 2.773632e-02
<VARIANCE> 25
 1.078917e+01 2.049650e+01 2.281792e+01 3.154143e+01 4.742524e+01 3.459203e+01 4.597293e+01 3.935481e+01 4.252238e+01 2.928044e+01 3.001331e+01 2.597289e+01 6.310879e-01 1.230489e+00 1.513073e+00 1.917299e+00 2.890742e+00 2.398224e+00 2.830391e+00 2.589379e+00 2.637022e+00 2.535924e+00 2.070437e+00 2.041316e+00 8.193378e-04
<GCONST> 8.758844e+01
<MIXTURE> 104 5.694618e-03
<MEAN> 25
 3.248197e+00 -9.364171e+00 -6.037794e+00 -2.982388e+00 -1.240122e+00 -2.048245e+00 2.339360e+00 2.248404e+00 -4.448775e+00 -9.151565e+00 -4.950962e+00 3.724985e-01 -1.621952e-01 -1.479853e+00 -9.680657e-01 3.588933e-01 1.233053e+00 9.924019e-01 1.545404e-01 -2.295368e-01 -7.289463e-01 -9.835600e-01 -1.497827e-02 1.592456e-01 2.773632e-02
<VARIANCE> 25
 1.078917e+01 2.049650e+01 2.281792e+01 3.154143e+01 4.742524e+01 3.459203e+01 4.597293e+01 3.935481e+01 4.252238e+01 2.928044e+01 3.001331e+01 2.597289e+01 6.310879e-01 1.230489e+00 1.513073e+00 1.917299e+00 2.890742e+00 2.398224e+00 2.830391e+00 2.589379e+00 2.637022e+00 2.535924e+00 2.070437e+00 2.041316e+00 8.193378e-04
<GCONST> 8.758844e+01
<MIXTURE> 105 4.710235e-03
<MEAN> 25
 2.372743e+00 -1.753255e+00 9.298153e+00 -2.925648e+00 -1.109767e+01 -3.633839e+00 -4.069267e+00 -1.156000e+00 -3.384086e+00 -3.189315e+00 3.909229e-01 -1.216119e+00 -5.820288e-04 3.770262e-02 6.585222e-02 -9.438630e-02 -5.268808e-03 5.406690e-02 -9.871695e-02 4.785321e-02 -3.325484e-02 6.277567e-03 -4.266708e-02 -3.933253e-02 -1.328875e-03
<VARIANCE> 25
 1.268175e+01 2.745469e+01 3.802626e+01 4.253130e+01 3.836230e+01 7.396230e+01 3.904625e+01 4.230700e+01 3.961199e+01 3.913987e+01 5.497286e+01 2.875122e+01 8.075842e-02 1.947584e-01 3.315108e-01 3.148064e-01 3.534268e-01 4.393405e-01 5.396326e-01 4.797453e-01 5.112363e-01 4.453916e-01 4.617250e-01 3.764040e-01 9.239995e-05
<GCONST> 6.711519e+01
<MIXTURE> 106 4.710235e-03
<MEAN> 25
 2.372743e+00 -1.753255e+00 9.298153e+00 -2.925648e+00 -1.109767e+01 -3.633839e+00 -4.069267e+00 -1.156000e+00 -3.384086e+00 -3.189315e+00 3.909229e-01 -1.216119e+00 -5.820288e-04 3.770262e-02 6.585222e-02 -9.438630e-02 -5.268808e-03 5.406690e-02 -9.871695e-02 4.785321e-02 -3.325484e-02 6.277567e-03 -4.266708e-02 -3.933253e-02 -1.328875e-03
<VARIANCE> 25
 1.268175e+01 2.745469e+01 3.802626e+01 4.253130e+01 3.836230e+01 7.396230e+01 3.904625e+01 4.230700e+01 3.961199e+01 3.913987e+01 5.497286e+01 2.875122e+01 8.075842e-02 1.947584e-01 3.315108e-01 3.148064e-01 3.534268e-01 4.393405e-01 5.396326e-01 4.797453e-01 5.112363e-01 4.453916e-01 4.617250e-01 3.764040e-01 9.239995e-05
<GCONST> 6.711519e+01
<MIXTURE> 107 5.452374e-03
<MEAN> 25
 8.588861e+00 -2.766073e+00 -7.938278e+00 -9.808009e+00 2.081599e+00 3.713809e+00 -9.907796e+00 -3.746002e+00 -9.999861e-01 4.184053e+00 1.946950e+00 -5.518137e+00 -6.051035e-01 -1.065393e+00 8.226174e-01 1.888390e+00 4.161452e-01 -2.441615e+00 -9.430401e-01 1.057135e+00 1.948485e+00 1.151368e-01 -1.792085e+00 -8.230445e-01 -1.270135e-03
<VARIANCE> 25
 8.444076e+00 2.105425e+01 2.608710e+01 3.953144e+01 3.266712e+01 4.290316e+01 6.171391e+01 3.930851e+01 4.347520e+01 4.357581e+01 5.857531e+01 2.935174e+01 3.305272e-01 1.679116e+00 1.442634e+00 2.321576e+00 2.534821e+00 4.276514e+00 2.440207e+00 2.714922e+00 2.413731e+00 3.022610e+00 1.941051e+00 2.112125e+00 6.411714e-04
<GCONST> 8.904169e+01
<MIXTURE> 108 5.452374e-03
<MEAN> 25
 8.588861e+00 -2.766073e+00 -7.938278e+00 -9.808009e+00 2.081599e+00 3.713809e+00 -9.907796e+00 -3.746002e+00 -9.999861e-01 4.184053e+00 1.946950e+00 -5.518137e+00 -6.051035e-01 -1.065393e+00 8.226174e-01 1.888390e+00 4.161452e-01 -2.441615e+00 -9.430401e-01 1.057135e+00 1.948485e+00 1.151368e-01 -1.792085e+00 -8.230445e-01 -1.270135e-03
<VARIANCE> 25
 8.444076e+00 2.105425e+01 2.608710e+01 3.953144e+01 3.266712e+01 4.290316e+01 6.171391e+01 3.930851e+01 4.347520e+01 4.357581e+01 5.857531e+01 2.935174e+01 3.305272e-01 1.679116e+00 1.442634e+00 2.321576e+00 2.534821e+00 4.276514e+00 2.440207e+00 2.714922e+00 2.413731e+00 3.022610e+00 1.941051e+00 2.112125e+00 6.411714e-04
<GCONST> 8.904169e+01
<MIXTURE> 109 6.661064e-03
<MEAN> 25
 4.080770e+00 -1.055343e+01 -8.298862e+00 -1.361813e+00 2.757240e+00 -4.086217e-02 -7.345010e-02 1.458431e+00 -2.565976e+00 -8.363951e+00 -5.385401e+00 6.536890e-02 -3.333460e-02 -1.325860e-01 -3.256993e-02 2.508137e-01 1.955457e-01 1.173099e-01 -1.260878e-01 -1.037540e-01 -4.092527e-02 -1.319426e-01 2.185237e-01 1.251608e-02 -3.494270e-03
<VARIANCE> 25
 9.081381e+00 1.821096e+01 2.006985e+01 3.141643e+01 4.086396e+01 3.679432e+01 4.664245e+01 3.435795e+01 4.610556e+01 3.540720e+01 2.959896e+01 2.819145e+01 1.928510e-01 4.228213e-01 5.380581e-01 6.347719e-01 1.233266e+00 9.959631e-01 1.257542e+00 1.096767e+00 1.117030e+00 9.523112e-01 8.785418e-01 8.860275e-01 1.825467e-04
<GCONST> 7.447029e+01
<MIXTURE> 110 6.661064e-03
<MEAN> 25
 4.080770e+00 -1.055343e+01 -8.298862e+00 -1.361813e+00 2.757240e+00 -4.086217e-02 -7.345010e-02 1.458431e+00 -2.565976e+00 -8.363951e+00 -5.385401e+00 6.536890e-02 -3.333460e-02 -1.325860e-01 -3.256993e-02 2.508137e-01 1.955457e-01 1.173099e-01 -1.260878e-01 -1.037540e-01 -4.092527e-02 -1.319426e-01 2.185237e-01 1.251608e-02 -3.494270e-03
<VARIANCE> 25
 9.081381e+00 1.821096e+01 2.006985e+01 3.141643e+01 4.086396e+01 3.679432e+01 4.664245e+01 3.435795e+01 4.610556e+01 3.540720e+01 2.959896e+01 2.819145e+01 1.928510e-01 4.228213e-01 5.380581e-01 6.347719e-01 1.233266e+00 9.959631e-01 1.257542e+00 1.096767e+00 1.117030e+00 9.523112e-01 8.785418e-01 8.860275e-01 1.825467e-04
<GCONST> 7.447029e+01
<MIXTURE> 111 4.337247e-03
<MEAN> 25
 -4.473885e+00 -9.063295e-01 -1.721021e+00 1.688070e+00 9.647364e-01 9.644091e-01 3.142903e-01 2.110198e-01 8.899395e-02 -5.414049e-01 -6.300222e-01 1.964555e+00 -2.107539e-02 -3.247489e-02 -7.233648e-02 -7.354105e-02 -3.728380e-02 6.404094e-03 -1.101275e-03 -5.925685e-02 -1.404486e-01 -2.029705e-01 -1.901401e-01 -1.064510e-01 -2.146435e-04
<VARIANCE> 25
 7.001233e+00 4.976976e+00 1.021288e+01 9.407270e+00 1.310906e+01 2.384236e+01 1.466654e+01 1.316663e+01 1.160103e+01 1.191203e+01 1.362880e+01 1.158859e+01 7.917870e-02 1.635702e-01 2.752667e-01 4.205345e-01 5.694606e-01 7.054015e-01 8.005947e-01 8.582656e-01 8.927959e-01 8.559541e-01 8.621328e-01 8.478526e-01 2.231563e-05
<GCONST> 5.597918e+01
<MIXTURE> 112 4.337247e-03
<MEAN> 25
 -4.473885e+00 -9.063295e-01 -1.721021e+00 1.688070e+00 9.647364e-01 9.644091e-01 3.142903e-01 2.110198e-01 8.899395e-02 -5.414049e-01 -6.300222e-01 1.964555e+00 -2.107539e-02 -3.247489e-02 -7.233648e-02 -7.354105e-02 -3.728380e-02 6.404094e-03 -1.101275e-03 -5.925685e-02 -1.404486e-01 -2.029705e-01 -1.901401e-01 -1.064510e-01 -2.146435e-04
<VARIANCE> 25
 7.001233e+00 4.976976e+00 1.021288e+01 9.407270e+00 1.310906e+01 2.384236e+01 1.466654e+01 1.316663e+01 1.160103e+01 1.191203e+01 1.362880e+01 1.158859e+01 7.917870e-02 1.635702e-01 2.752667e-01 4.205345e-01 5.694606e-01 7.054015e-01 8.005947e-01 8.582656e-01 8.927959e-01 8.559541e-01 8.621328e-01 8.478526e-01 2.231563e-05
<GCONST> 5.597918e+01
<MIXTURE> 113 5.938666e-03
<MEAN> 25
 9.969170e+00 1.765188e+00 -8.754812e+00 -1.704869e+01 -1.057307e+00 5.672451e+00 -5.290487e+00 -1.448805e+00 -5.681260e+00 -4.990094e-01 2.967571e-01 -2.140253e-01 5.224620e-03 1.434478e-02 -5.784192e-02 -1.121181e-01 1.037208e-01 1.509239e-01 5.876823e-02 3.529091e-02 -5.977181e-02 -4.793411e-02 1.829500e-01 3.554717e-02 -1.378238e-03
<VARIANCE> 25
 8.893497e+00 1.644239e+01 2.998722e+01 3.428019e+01 5.295343e+01 3.387749e+01 3.986297e+01 3.944137e+01 3.740007e+01 4.637839e+01 3.628838e+01 2.859365e+01 1.218933e-01 3.202920e-01 3.172078e-01 6.350887e-01 6.122328e-01 6.527195e-01 7.753171e-01 8.450376e-01 9.635010e-01 9.141446e-01 7.300006e-01 7.126393e-01 1.252117e-04
<GCONST> 7.117170e+01
<MIXTURE> 114 5.938666e-03
<MEAN> 25
 9.969170e+00 1.765188e+00 -8.754812e+00 -1.704869e+01 -1.057307e+00 5.672451e+00 -5.290487e+00 -1.448805e+00 -5.681260e+00 -4.990094e-01 2.967571e-01 -2.140253e-01 5.224620e-03 1.434478e-02 -5.784192e-02 -1.121181e-01 1.037208e-01 1.509239e-01 5.876823e-02 3.529091e-02 -5.977181e-02 -4.793411e-02 1.829500e-01 3.554717e-02 -1.378238e-03
<VARIANCE> 25
 8.893497e+00 1.644239e+01 2.998722e+01 3.428019e+01 5.295343e+01 3.387749e+01 3.986297e+01 3.944137e+01 3.740007e+01 4.637839e+01 3.628838e+01 2.859365e+01 1.218933e-01 3.202920e-01 3.172078e-01 6.350887e-01 6.122328e-01 6.527195e-01 7.753171e-01 8.450376e-01 9.635010e-01 9.141446e-01 7.300006e-01 7.126393e-01 1.252117e-04
<GCONST> 7.117170e+01
<MIXTURE> 115 2.935202e-03
<MEAN> 25
 -4.031508e+00 -7.523134e-01 -3.108292e+00 3.656949e+00 2.413549e+00 -4.277790e-01 2.235019e+00 4.127970e-01 1.388240e+00 -1.980280e-02 4.044602e-02 2.687725e+00 3.161651e-02 -7.211528e-02 -2.307798e-01 -4.386980e-01 -6.334474e-01 -6.703678e-01 -5.921516e-01 -5.095131e-01 -4.866898e-01 -4.566612e-01 -3.437370e-01 -1.649531e-01 -3.168033e-06
<VARIANCE> 25
 9.267219e+00 9.883682e+00 1.353192e+01 1.270435e+01 1.348816e+01 1.756121e+01 1.708409e+01 2.080719e+01 1.793073e+01 1.721353e+01 1.919555e+01 1.466582e+01 2.037629e-01 3.456421e-01 4.855044e-01 5.616056e-01 6.341601e-01 7.979911e-01 1.008026e+00 1.130844e+00 1.075163e+00 9.943575e-01 1.025555e+00 1.064796e+00 1.000000e-06
<GCONST> 6.016114e+01
<MIXTURE> 116 2.935202e-03
<MEAN> 25
 -4.031508e+00 -7.523134e-01 -3.108292e+00 3.656949e+00 2.413549e+00 -4.277790e-01 2.235019e+00 4.127970e-01 1.388240e+00 -1.980280e-02 4.044602e-02 2.687725e+00 3.161651e-02 -7.211528e-02 -2.307798e-01 -4.386980e-01 -6.334474e-01 -6.703678e-01 -5.921516e-01 -5.095131e-01 -4.866898e-01 -4.566612e-01 -3.437370e-01 -1.649531e-01 -3.168033e-06
<VARIANCE> 25
 9.267219e+00 9.883682e+00 1.353192e+01 1.270435e+01 1.348816e+01 1.756121e+01 1.708409e+01 2.080719e+01 1.793073e+01 1.721353e+01 1.919555e+01 1.466582e+01 2.037629e-01 3.456421e-01 4.855044e-01 5.616056e-01 6.341601e-01 7.979911e-01 1.008026e+00 1.130844e+00 1.075163e+00 9.943575e-01 1.025555e+00 1.064796e+00 1.000000e-06
<GCONST> 6.016114e+01
<MIXTURE> 117 6.506003e-03
<MEAN> 25
 -4.644592e+00 1.117793e+00 1.054499e+00 9.758447e+00 6.260121e+00 6.256477e+00 6.463082e+00 5.044496e+00 6.385674e+00 4.929173e+00 6.367208e+00 2.709929e+00 -7.503008e-02 -2.341336e-01 -3.583474e-01 -4.199596e-01 -3.675186e-01 -3.027199e-01 -2.873273e-01 -3.314594e-01 -3.917833e-01 -3.689738e-01 -2.631080e-01 -1.159785e-01 -9.052962e-06
<VARIANCE> 25
 7.187259e+00 8.753097e+00 9.809425e+00 1.430823e+01 1.561781e+01 1.534934e+01 1.772638e+01 1.796108e+01 1.640261e+01 1.637152e+01 1.674076e+01 1.475332e+01 2.166086e-01 3.075042e-01 4.261350e-01 6.171185e-01 8.536685e-01 1.055364e+00 1.177562e+00 1.232911e+00 1.223976e+00 1.194855e+00 1.167213e+00 1.113683e+00 1.000000e-06
<GCONST> 6.042865e+01
<MIXTURE> 118 6.506003e-03
<MEAN> 25
 -4.644592e+00 1.117793e+00 1.054499e+00 9.758447e+00 6.260121e+00 6.256477e+00 6.463082e+00 5.044496e+00 6.385674e+00 4.929173e+00 6.367208e+00 2.709929e+00 -7.503008e-02 -2.341336e-01 -3.583474e-01 -4.199596e-01 -3.675186e-01 -3.027199e-01 -2.873273e-01 -3.314594e-01 -3.917833e-01 -3.689738e-01 -2.631080e-01 -1.159785e-01 -9.052962e-06
<VARIANCE> 25
 7.187259e+00 8.753097e+00 9.809425e+00 1.430823e+01 1.561781e+01 1.534934e+01 1.772638e+01 1.796108e+01 1.640261e+01 1.637152e+01 1.674076e+01 1.475332e+01 2.166086e-01 3.075042e-01 4.261350e-01 6.171185e-01 8.536685e-01 1.055364e+00 1.177562e+00 1.232911e+00 1.223976e+00 1.194855e+00 1.167213e+00 1.113683e+00 1.000000e-06
<GCONST> 6.042865e+01
<MIXTURE> 119 4.297961e-03
<MEAN> 25
 -4.829641e+00 -7.537436e+00 2.174463e+00 1.939803e+00 2.174354e+00 1.867461e-01 5.288089e+00 5.928512e+00 1.038951e+00 1.029462e+00 6.591238e+00 1.712767e+00 -4.940735e-02 -8.379584e-02 4.052692e-02 -3.273269e-02 -1.347208e-01 -2.088816e-01 -7.939758e-02 4.170707e-03 -1.041596e-01 -1.301223e-01 -3.752127e-02 -2.146693e-02 1.659847e-03
<VARIANCE> 25
 9.548074e+00 1.017822e+01 1.646978e+01 2.019032e+01 2.273068e+01 2.284570e+01 2.459432e+01 2.606320e+01 2.550943e+01 2.786475e+01 2.007947e+01 2.120192e+01 1.578857e-01 2.798974e-01 4.530614e-01 6.577306e-01 7.938555e-01 1.034482e+00 1.087730e+00 1.276307e+00 1.274418e+00 1.250557e+00 1.193507e+00 1.169578e+00 2.450334e-04
<GCONST> 6.995267e+01
<MIXTURE> 120 4.297961e-03
<MEAN> 25
 -4.829641e+00 -7.537436e+00 2.174463e+00 1.939803e+00 2.174354e+00 1.867461e-01 5.288089e+00 5.928512e+00 1.038951e+00 1.029462e+00 6.591238e+00 1.712767e+00 -4.940735e-02 -8.379584e-02 4.052692e-02 -3.273269e-02 -1.347208e-01 -2.088816e-01 -7.939758e-02 4.170707e-03 -1.041596e-01 -1.301223e-01 -3.752127e-02 -2.146693e-02 1.659847e-03
<VARIANCE> 25
 9.548074e+00 1.017822e+01 1.646978e+01 2.019032e+01 2.273068e+01 2.284570e+01 2.459432e+01 2.606320e+01 2.550943e+01 2.786475e+01 2.007947e+01 2.120192e+01 1.578857e-01 2.798974e-01 4.530614e-01 6.577306e-01 7.938555e-01 1.034482e+00 1.087730e+00 1.276307e+00 1.274418e+00 1.250557e+00 1.193507e+00 1.169578e+00 2.450334e-04
<GCONST> 6.995267e+01
<MIXTURE> 121 4.567511e-03
<MEAN> 25
 4.385087e-01 -2.674851e+00 5.454948e+00 -1.259944e+01 -1.219176e+01 -7.730657e-01 7.786924e-01 -5.195633e+00 -3.884631e+00 -6.474134e-01 -6.069958e+00 -4.136713e+00 9.144146e-03 1.426796e-01 -3.219240e-02 2.643654e-02 1.370564e-01 5.379530e-02 -1.588257e-01 -1.893648e-01 -2.286084e-01 -2.429448e-01 -1.585409e-01 -1.977479e-02 -6.356040e-03
<VARIANCE> 25
 8.120063e+00 1.508917e+01 1.769447e+01 2.076681e+01 2.620370e+01 3.994960e+01 2.889696e+01 2.334293e+01 3.507602e+01 2.713382e+01 2.370391e+01 2.051443e+01 1.516194e-01 6.189162e-01 5.932856e-01 7.147757e-01 7.427304e-01 1.140866e+00 1.163299e+00 1.078396e+00 1.226892e+00 1.169421e+00 9.312550e-01 8.328602e-01 2.169625e-04
<GCONST> 7.168263e+01
<MIXTURE> 122 4.567511e-03
<MEAN> 25
 4.385087e-01 -2.674851e+00 5.454948e+00 -1.259944e+01 -1.219176e+01 -7.730657e-01 7.786924e-01 -5.195633e+00 -3.884631e+00 -6.474134e-01 -6.069958e+00 -4.136713e+00 9.144146e-03 1.426796e-01 -3.219240e-02 2.643654e-02 1.370564e-01 5.379530e-02 -1.588257e-01 -1.893648e-01 -2.286084e-01 -2.429448e-01 -1.585409e-01 -1.977479e-02 -6.356040e-03
<VARIANCE> 25
 8.120063e+00 1.508917e+01 1.769447e+01 2.076681e+01 2.620370e+01 3.994960e+01 2.889696e+01 2.334293e+01 3.507602e+01 2.713382e+01 2.370391e+01 2.051443e+01 1.516194e-01 6.189162e-01 5.932856e-01 7.147757e-01 7.427304e-01 1.140866e+00 1.163299e+00 1.078396e+00 1.226892e+00 1.169421e+00 9.312550e-01 8.328602e-01 2.169625e-04
<GCONST> 7.168263e+01
<MIXTURE> 123 4.393044e-03
<MEAN> 25
 -4.260531e+00 9.387575e-01 1.140558e-01 6.186645e+00 5.283060e+00 3.519229e+00 3.286994e+00 4.518114e-01 2.908742e-01 -5.319666e-01 1.469094e-02 8.187698e-01 -4.808378e-01 -7.750795e-01 -8.646141e-01 -6.225019e-01 -2.574573e-01 6.413116e-02 3.796800e-01 6.492856e-01 7.970221e-01 7.705960e-01 7.198485e-01 5.288635e-01 -2.910063e-03
<VARIANCE> 25
 1.050577e+01 1.021568e+01 1.564981e+01 1.728531e+01 2.199580e+01 2.733949e+01 2.191405e+01 1.895263e+01 1.924908e+01 1.763589e+01 2.227294e+01 1.975909e+01 3.734853e-01 3.612951e-01 5.109178e-01 7.231451e-01 9.793778e-01 1.149225e+00 1.202112e+00 1.187595e+00 1.165817e+00 1.177926e+00 1.210894e+00 1.205455e+00 9.866389e-05
<GCONST> 6.951296e+01
<MIXTURE> 124 4.069876e-03
<MEAN> 25
 -6.565010e+00 -1.211011e+00 -2.923103e+00 5.106268e+00 4.972325e+00 3.390449e+00 5.390555e+00 2.565902e+00 3.193088e+00 1.279642e+00 1.127693e+00 3.043824e+00 -2.048482e-01 -3.230448e-01 -3.621842e-01 -2.167044e-01 1.279921e-01 5.196313e-01 8.104666e-01 8.601755e-01 6.548764e-01 3.274187e-01 7.226630e-02 -2.495558e-02 4.234802e-05
<VARIANCE> 25
 1.100917e+01 6.983245e+00 1.114288e+01 1.243205e+01 1.210751e+01 1.981946e+01 1.551588e+01 1.706865e+01 1.544148e+01 1.606992e+01 1.920493e+01 1.444099e+01 1.048239e-01 1.681124e-01 2.702850e-01 4.177250e-01 5.929995e-01 7.065688e-01 7.480275e-01 8.141062e-01 9.084589e-01 9.809870e-01 1.008202e+00 9.927142e-01 1.798431e-05
<GCONST> 5.879307e+01
<MIXTURE> 125 4.069876e-03
<MEAN> 25
 -6.565010e+00 -1.211011e+00 -2.923103e+00 5.106268e+00 4.972325e+00 3.390449e+00 5.390555e+00 2.565902e+00 3.193088e+00 1.279642e+00 1.127693e+00 3.043824e+00 -2.048482e-01 -3.230448e-01 -3.621842e-01 -2.167044e-01 1.279921e-01 5.196313e-01 8.104666e-01 8.601755e-01 6.548764e-01 3.274187e-01 7.226630e-02 -2.495558e-02 4.234802e-05
<VARIANCE> 25
 1.100917e+01 6.983245e+00 1.114288e+01 1.243205e+01 1.210751e+01 1.981946e+01 1.551588e+01 1.706865e+01 1.544148e+01 1.606992e+01 1.920493e+01 1.444099e+01 1.048239e-01 1.681124e-01 2.702850e-01 4.177250e-01 5.929995e-01 7.065688e-01 7.480275e-01 8.141062e-01 9.084589e-01 9.809870e-01 1.008202e+00 9.927142e-01 1.798431e-05
<GCONST> 5.879307e+01
<MIXTURE> 126 2.402244e-03
<MEAN> 25
 -3.785433e+00 -6.935924e+00 -5.280422e+00 2.317311e+00 4.272917e+00 -3.240426e+00 7.294050e-02 3.554811e+00 3.334619e+00 -2.693363e+00 -1.424754e+00 3.060099e+00 -2.237753e-03 -6.658104e-03 -3.568638e-02 -1.572265e-01 -3.187885e-01 -3.902116e-01 -2.739684e-01 -1.569363e-01 -1.137864e-01 -1.161971e-01 -9.728355e-02 -2.943077e-02 -1.453973e-03
<VARIANCE> 25
 7.457404e+00 1.261858e+01 1.383812e+01 1.512758e+01 2.467665e+01 2.368003e+01 2.274720e+01 2.839874e+01 3.132022e+01 2.625231e+01 2.177873e+01 1.920220e+01 1.705690e-01 3.517657e-01 4.828639e-01 5.682361e-01 7.532907e-01 9.964282e-01 1.121490e+00 1.262450e+00 1.328574e+00 1.310902e+00 1.213836e+00 1.149022e+00 2.113547e-04
<GCONST> 6.980422e+01
<MIXTURE> 127 2.402244e-03
<MEAN> 25
 -3.785433e+00 -6.935924e+00 -5.280422e+00 2.317311e+00 4.272917e+00 -3.240426e+00 7.294050e-02 3.554811e+00 3.334619e+00 -2.693363e+00 -1.424754e+00 3.060099e+00 -2.237753e-03 -6.658104e-03 -3.568638e-02 -1.572265e-01 -3.187885e-01 -3.902116e-01 -2.739684e-01 -1.569363e-01 -1.137864e-01 -1.161971e-01 -9.728355e-02 -2.943077e-02 -1.453973e-03
<VARIANCE> 25
 7.457404e+00 1.261858e+01 1.383812e+01 1.512758e+01 2.467665e+01 2.368003e+01 2.274720e+01 2.839874e+01 3.132022e+01 2.625231e+01 2.177873e+01 1.920220e+01 1.705690e-01 3.517657e-01 4.828639e-01 5.682361e-01 7.532907e-01 9.964282e-01 1.121490e+00 1.262450e+00 1.328574e+00 1.310902e+00 1.213836e+00 1.149022e+00 2.113547e-04
<GCONST> 6.980422e+01
<MIXTURE> 128 3.790457e-03
<MEAN> 25
 -3.883838e+00 1.512705e+00 -3.294749e-01 6.558632e+00 3.574697e+00 1.764179e+00 3.592825e+00 2.382944e+00 3.860033e+00 3.675484e+00 3.832436e+00 3.585866e+00 -4.077589e-01 -1.666183e-01 8.597615e-02 7.316221e-01 1.171334e+00 1.124209e+00 7.173368e-01 1.199667e-01 -4.266397e-01 -8.007476e-01 -6.973118e-01 -3.960702e-01 -2.732089e-05
<VARIANCE> 25
 1.040830e+01 1.170604e+01 1.488054e+01 1.918910e+01 2.013570e+01 2.207396e+01 2.413428e+01 2.448698e+01 2.747377e+01 2.375280e+01 2.703235e+01 1.848902e+01 9.019117e-01 1.249344e+00 1.373695e+00 1.493290e+00 1.589102e+00 1.863322e+00 2.230653e+00 2.321260e+00 2.149193e+00 1.861393e+00 1.733161e+00 1.734760e+00 1.001574e-06
<GCONST> 7.381894e+01
<TRANSP> 3
 0.000000e+00 1.000000e+00 0.000000e+00
 0.000000e+00 9.999990e-01 9.999998e-07
 0.000000e+00 0.000000e+00 0.000000e+00
<ENDHMM>
